~o
<STREAMINFO> 1 39
<VECSIZE> 39<NULLD><MFCC_D_A_0><DIAGC>
~s "silst"
<MEAN> 39
 -1.684876e+01 2.742147e+00 -2.423768e+00 -3.082431e+00 -2.595015e+00 -2.325501e+00 -6.508514e+00 -2.253404e+00 -6.717223e+00 -4.377941e+00 -2.962311e+00 -3.989102e+00 6.457890e+01 -4.313182e-02 -2.713548e-02 -2.604602e-03 2.007704e-02 4.803765e-03 2.511941e-03 -4.349732e-03 7.896378e-04 2.205371e-03 9.064475e-03 -1.958621e-02 -8.171315e-03 -4.009245e-02 -1.219086e-03 -3.743147e-03 5.557326e-03 -1.539653e-02 1.801249e-03 -1.396695e-02 -9.341964e-03 -9.614993e-03 -1.079764e-02 -2.085363e-03 5.645007e-03 3.345442e-03 1.733052e-02
<VARIANCE> 39
 2.954224e+00 8.803658e+00 7.015752e+00 8.785552e+00 8.892161e+00 7.324250e+00 1.027314e+01 8.962924e+00 9.426474e+00 9.692759e+00 8.471169e+00 7.992204e+00 3.063856e+01 1.131941e-01 2.038895e-01 3.400992e-01 4.968103e-01 5.782135e-01 6.665963e-01 7.550204e-01 7.764776e-01 8.399361e-01 7.814337e-01 7.451417e-01 6.900584e-01 4.428145e-02 2.307704e-02 4.378315e-02 7.046397e-02 1.008431e-01 1.184941e-01 1.369843e-01 1.541590e-01 1.594071e-01 1.741316e-01 1.601215e-01 1.535208e-01 1.415264e-01 9.589827e-03
<GCONST> 5.694335e+01
~h "a"
<BEGINHMM>
<NUMSTATES> 5
<STATE> 2
<MEAN> 39
 -5.260253e+00 -1.937092e+00 -6.198221e+00 -8.328485e+00 -6.133639e+00 -1.267284e+01 -4.016793e+00 2.990492e-01 -1.465917e+01 -1.852199e+00 8.576888e-01 -4.529075e+00 8.265488e+01 -2.301388e-01 3.171201e-02 -7.533823e-02 -1.277826e-01 3.983751e-04 5.128970e-01 2.308612e-01 4.293807e-03 2.863675e-01 2.230722e-01 1.525657e-01 1.951418e-01 -5.702065e-01 -1.397519e-01 1.370978e-01 1.239839e-01 5.032544e-02 7.994986e-02 1.007294e-01 -1.195565e-01 -9.641685e-02 9.885164e-02 -1.079850e-01 -8.884642e-02 1.604637e-03 -1.677869e-01
<VARIANCE> 39
 2.362877e+01 2.068193e+01 2.684349e+01 2.165875e+01 3.523518e+01 6.863417e+01 4.637302e+01 5.277181e+01 6.701413e+01 5.520937e+01 2.819550e+01 2.632242e+01 1.214515e+02 5.683186e-01 1.271958e+00 1.322444e+00 1.083720e+00 1.465940e+00 2.000885e+00 1.490867e+00 1.701054e+00 2.198447e+00 1.725247e+00 1.350070e+00 1.496089e+00 1.504392e+00 1.168047e-01 1.805363e-01 2.405789e-01 1.830312e-01 2.727413e-01 3.439150e-01 2.473412e-01 3.053990e-01 3.713019e-01 2.908056e-01 2.420592e-01 2.820865e-01 1.625093e-01
<GCONST> 1.052811e+02
<STATE> 3
<MEAN> 39
 -8.739421e+00 -3.526716e-01 -6.997025e+00 -8.578788e+00 -3.629216e+00 -5.969613e+00 -2.738618e+00 -2.065999e+00 -9.274077e+00 -1.687769e+00 1.201105e+00 -3.278028e+00 8.024912e+01 -2.603267e-01 3.793979e-01 1.618041e-01 2.052116e-02 3.781700e-02 2.746533e-01 -2.377066e-01 -1.331044e-01 1.468814e-01 -2.932320e-01 -1.188455e-01 1.404968e-01 -7.317439e-01 1.086906e-02 1.461646e-01 1.809471e-01 1.148177e-01 8.177496e-02 -1.313469e-01 -1.340126e-01 -4.255477e-02 -1.060591e-01 -8.442676e-02 -7.955704e-02 -3.010969e-02 -4.933929e-02
<VARIANCE> 39
 1.570656e+01 1.947252e+01 2.565267e+01 2.227707e+01 3.713833e+01 3.812817e+01 5.505617e+01 3.249107e+01 3.496791e+01 3.440827e+01 2.438395e+01 2.319234e+01 1.480322e+02 4.012024e-01 9.118443e-01 1.141939e+00 9.736580e-01 1.305925e+00 1.367370e+00 1.508282e+00 1.350371e+00 1.618558e+00 1.310607e+00 1.385186e+00 1.187164e+00 6.654210e-01 6.148649e-02 1.499967e-01 1.672520e-01 1.875048e-01 2.093791e-01 2.307809e-01 2.546692e-01 2.281621e-01 2.692642e-01 2.113208e-01 2.234501e-01 2.117742e-01 1.158975e-01
<GCONST> 9.605906e+01
<STATE> 4
<MEAN> 39
 -1.275848e+01 3.730179e+00 -4.207678e+00 -7.134006e+00 -4.796601e+00 -4.645388e+00 -6.398958e+00 -3.046522e+00 -8.946308e+00 -4.195390e+00 -1.172005e+00 -3.078700e+00 6.942353e+01 -2.668288e-01 2.307267e-01 1.943118e-01 2.009186e-01 6.984691e-02 -4.256993e-02 -2.081579e-01 -3.224766e-02 4.314524e-02 -1.214796e-01 -1.089093e-01 -1.077794e-01 -4.002180e-01 2.131276e-02 -3.323648e-02 3.258340e-02 7.236335e-02 6.086766e-02 -1.899703e-02 7.126945e-02 -1.394022e-02 -2.615677e-02 2.402964e-02 -8.951953e-03 -3.837427e-02 8.429357e-02
<VARIANCE> 39
 2.244536e+01 2.176949e+01 1.699926e+01 1.895031e+01 2.579607e+01 3.598550e+01 2.677221e+01 2.534995e+01 2.414683e+01 2.495134e+01 2.031754e+01 1.602525e+01 7.633318e+01 4.968650e-01 8.929201e-01 1.047962e+00 1.035531e+00 1.158425e+00 1.434320e+00 1.538174e+00 1.484228e+00 1.441964e+00 1.280504e+00 1.236268e+00 9.905593e-01 4.680790e-01 1.182025e-01 2.105547e-01 2.224130e-01 2.223135e-01 2.342313e-01 3.107697e-01 2.866964e-01 3.086517e-01 3.119915e-01 2.550117e-01 2.517651e-01 2.257438e-01 1.643371e-01
<GCONST> 9.522821e+01
<TRANSP> 5
 0.000000e+00 1.000000e+00 0.000000e+00 0.000000e+00 0.000000e+00
 0.000000e+00 7.019587e-01 2.980413e-01 0.000000e+00 0.000000e+00
 0.000000e+00 0.000000e+00 6.114451e-01 3.885549e-01 0.000000e+00
 0.000000e+00 0.000000e+00 0.000000e+00 7.382636e-01 2.617364e-01
 0.000000e+00 0.000000e+00 0.000000e+00 0.000000e+00 0.000000e+00
<ENDHMM>
~h "b"
<BEGINHMM>
<NUMSTATES> 5
<STATE> 2
<MEAN> 39
 -2.042126e+01 2.982666e+00 3.946913e+00 -1.254842e+01 5.804864e+00 -5.502276e+00 -1.141011e+01 -5.828592e+00 -7.949839e+00 -9.848011e-01 -1.418310e+00 -4.661224e+00 8.017318e+01 -1.302029e-01 1.418155e-01 5.893373e-01 -1.183988e-01 4.168342e-01 1.788307e-01 4.685467e-02 -3.583792e-01 -6.004416e-01 -2.375288e-01 -2.707214e-01 1.235819e-01 2.389822e-01 2.705410e-01 -6.723957e-02 -1.337442e-01 3.312087e-01 -5.362857e-03 -8.831644e-02 8.761707e-02 -1.657448e-02 -2.076394e-01 -5.575573e-02 -4.249399e-02 -9.560926e-02 7.905339e-02
<VARIANCE> 39
 1.355946e+02 4.318970e+01 4.954516e+01 7.566301e+01 3.939767e+01 5.054356e+01 3.680095e+01 3.746660e+01 4.739445e+01 3.577713e+01 2.505904e+01 2.000707e+01 9.532716e+01 1.107308e+01 3.195698e+00 3.880324e+00 6.992234e+00 3.714789e+00 3.675362e+00 2.833718e+00 3.445324e+00 5.029409e+00 2.907757e+00 1.627024e+00 1.500983e+00 3.947161e+00 1.112472e+00 7.055757e-01 7.257650e-01 8.434369e-01 6.080316e-01 8.197954e-01 6.062251e-01 6.563215e-01 6.934662e-01 4.785739e-01 3.339322e-01 2.902504e-01 8.495384e-01
<GCONST> 1.323751e+02
<STATE> 3
<MEAN> 39
 -7.094182e+00 7.499498e+00 4.139555e+00 -2.002158e+00 6.975131e+00 -5.385152e+00 -1.035198e+01 -6.243516e+00 -1.190356e+01 -4.261326e+00 -4.603786e+00 -6.853132e+00 7.851093e+01 7.361084e-03 -9.255859e-01 -3.515884e-01 1.425842e+00 5.925981e-01 -9.836726e-01 -3.071872e-02 9.691016e-02 -2.248687e-01 -6.677559e-01 -8.095148e-02 -1.129857e-01 6.251036e-01 -1.132941e-01 -4.221003e-01 3.145292e-03 4.666977e-02 -1.471154e-01 -3.955437e-01 -1.069980e-01 2.191263e-01 -1.021043e-01 -2.525245e-01 8.264172e-02 -2.899278e-02 1.853149e-01
<VARIANCE> 39
 7.519286e+00 4.687522e+01 2.970094e+01 3.018327e+01 3.029658e+01 4.597775e+01 3.883859e+01 4.865997e+01 6.429506e+01 3.784235e+01 2.807591e+01 2.075264e+01 8.698780e+01 1.759006e+00 6.366341e+00 3.740279e+00 3.529985e+00 2.993044e+00 7.324921e+00 3.514033e+00 5.297234e+00 5.316437e+00 3.085195e+00 2.260856e+00 2.196492e+00 4.331639e+00 3.542926e-01 7.854125e-01 6.780290e-01 6.831878e-01 5.226753e-01 1.153737e+00 5.931175e-01 1.038414e+00 1.233122e+00 6.167941e-01 3.449223e-01 3.983016e-01 7.035105e-01
<GCONST> 1.289786e+02
<STATE> 4
<MEAN> 39
 -4.928947e+00 -6.991989e-01 1.536324e+00 3.026836e-01 6.010523e+00 -1.331243e+01 -1.142341e+01 -4.967465e+00 -1.662425e+01 -8.557437e+00 -3.007364e+00 -8.604990e+00 8.498785e+01 3.983237e-03 1.896891e-02 2.565602e-01 -7.233553e-03 -1.536769e-01 -6.800212e-02 5.242383e-02 4.083562e-01 -2.345361e-03 -1.041663e-01 -8.720448e-02 -1.454949e-03 -2.758973e-01 -3.769560e-02 2.016565e-01 6.683351e-02 -1.997142e-01 -2.075677e-01 3.138103e-01 8.393066e-02 4.416669e-02 2.572162e-01 1.430879e-01 -3.666084e-02 4.716510e-02 -1.732925e-01
<VARIANCE> 39
 1.164106e+01 2.670672e+01 3.457493e+01 5.939132e+01 6.028317e+01 4.249518e+01 7.359633e+01 6.851505e+01 1.037540e+02 1.132109e+02 6.421750e+01 3.206071e+01 2.366432e+01 7.658646e-01 1.907738e+00 2.136067e+00 2.941528e+00 3.364721e+00 7.325378e+00 3.820705e+00 3.098640e+00 5.361895e+00 3.383575e+00 2.692328e+00 2.046442e+00 2.291708e+00 1.310000e-01 2.191872e-01 4.161210e-01 4.285010e-01 6.597858e-01 8.784873e-01 6.528090e-01 6.535324e-01 7.170259e-01 6.645480e-01 4.970157e-01 3.984109e-01 1.776097e-01
<GCONST> 1.241497e+02
<TRANSP> 5
 0.000000e+00 1.000000e+00 0.000000e+00 0.000000e+00 0.000000e+00
 0.000000e+00 6.906970e-01 3.093031e-01 0.000000e+00 0.000000e+00
 0.000000e+00 0.000000e+00 7.371915e-01 2.628084e-01 0.000000e+00
 0.000000e+00 0.000000e+00 0.000000e+00 7.777908e-01 2.222092e-01
 0.000000e+00 0.000000e+00 0.000000e+00 0.000000e+00 0.000000e+00
<ENDHMM>
~h "d"
<BEGINHMM>
<NUMSTATES> 5
<STATE> 2
<MEAN> 39
 -1.330093e+01 1.577773e+00 6.500228e+00 -6.559406e+00 -3.452491e+00 -9.150990e+00 -5.990590e+00 -5.984783e+00 -1.197021e+01 -6.859934e+00 -5.930801e+00 -3.951525e+00 8.014352e+01 4.565609e+00 1.954598e+00 -1.307562e+00 -8.516531e-02 -1.489910e+00 -7.451181e-01 2.822636e-01 -3.338826e-02 -2.088226e+00 -1.212834e+00 -2.483426e-02 -6.208952e-01 7.836023e-01 -5.697367e-01 -6.481860e-01 -7.336673e-01 -4.918243e-01 -8.638493e-02 -1.285026e-01 -2.567984e-01 2.474855e-01 2.928536e-01 5.602129e-01 4.866742e-01 -2.556800e-02 5.787168e-01
<VARIANCE> 39
 3.410196e+01 3.129032e+01 3.555416e+01 2.118243e+01 2.626188e+01 4.250945e+01 3.698321e+01 4.805961e+01 4.590781e+01 2.493332e+01 2.364014e+01 2.490261e+01 1.186492e+02 3.795233e+00 3.354582e+00 2.818578e+00 3.127150e+00 3.209594e+00 4.594103e+00 4.231626e+00 5.298094e+00 7.489462e+00 3.161171e+00 2.600069e+00 2.945554e+00 1.382915e+00 5.810759e-01 7.593150e-01 4.403790e-01 4.356229e-01 4.844833e-01 5.428723e-01 7.959631e-01 8.208431e-01 1.463395e+00 5.875221e-01 4.834324e-01 4.103374e-01 2.463609e-01
<GCONST> 1.266174e+02
<STATE> 3
<MEAN> 39
 -5.694229e+00 -2.514234e-01 -1.332971e+00 -9.051409e+00 -9.088511e+00 -1.346654e+01 -7.189520e+00 -4.002842e+00 -1.370836e+01 -7.163414e+00 -3.610395e+00 -5.291977e+00 8.550516e+01 1.155934e+00 -1.139191e+00 -2.673534e+00 -4.351268e-01 -6.949776e-01 -4.521122e-01 -2.324420e-01 9.765089e-01 3.858893e-01 1.046827e+00 1.451614e+00 2.320837e-01 1.283128e+00 -1.000107e+00 -5.353645e-01 1.084142e-01 1.102240e-01 5.906532e-01 2.565327e-01 -2.848437e-02 1.198395e-01 5.334175e-01 5.355479e-01 2.151477e-01 1.865604e-01 -8.514894e-02
<VARIANCE> 39
 1.954728e+01 1.488748e+01 3.281968e+01 1.929351e+01 3.131696e+01 4.879112e+01 3.978939e+01 5.243001e+01 4.317169e+01 2.877558e+01 2.165099e+01 3.420682e+01 1.024617e+02 2.174744e+00 1.127378e+00 1.849431e+00 1.342649e+00 1.987736e+00 3.458695e+00 2.651661e+00 3.257139e+00 4.681744e+00 2.982370e+00 2.074354e+00 2.398378e+00 6.465632e-01 4.031078e-01 4.064590e-01 3.592289e-01 3.773956e-01 3.260567e-01 4.506564e-01 5.626077e-01 6.969112e-01 1.035177e+00 4.710954e-01 4.313340e-01 5.709046e-01 1.271520e-01
<GCONST> 1.159899e+02
<STATE> 4
<MEAN> 39
 -6.541456e+00 -4.138459e+00 -7.351182e+00 -7.594108e+00 -4.086576e+00 -1.411732e+01 -1.102144e+01 -3.283756e+00 -1.216016e+01 -7.937059e-01 2.970431e+00 -4.715923e+00 8.866305e+01 -1.729654e-01 -1.201467e-01 -4.202531e-02 6.874228e-01 1.214014e+00 -4.039088e-01 -8.703926e-01 -4.564626e-01 -2.758609e-01 3.124113e-01 5.602881e-01 -2.813629e-01 3.483929e-03 -6.403480e-02 2.743243e-01 4.197087e-01 1.171042e-01 1.481005e-01 1.176217e-01 -1.223436e-03 -1.990306e-01 -1.203862e-01 -2.628830e-01 -2.309477e-01 -5.817422e-02 -2.898238e-01
<VARIANCE> 39
 1.830202e+01 1.220447e+01 2.051251e+01 1.519986e+01 3.379565e+01 5.069559e+01 5.039487e+01 3.307163e+01 9.006378e+01 4.001338e+01 1.925176e+01 2.069720e+01 1.147369e+02 2.668005e-01 7.656947e-01 1.600256e+00 9.109820e-01 1.729896e+00 1.479635e+00 1.754070e+00 2.010330e+00 2.845213e+00 1.806933e+00 1.691497e+00 1.817023e+00 5.961708e-01 7.821295e-02 7.878650e-02 1.699381e-01 1.767529e-01 2.789367e-01 4.669503e-01 3.962024e-01 3.554366e-01 4.820688e-01 2.638499e-01 2.779633e-01 3.169213e-01 1.291933e-01
<GCONST> 1.007136e+02
<TRANSP> 5
 0.000000e+00 1.000000e+00 0.000000e+00 0.000000e+00 0.000000e+00
 0.000000e+00 5.179510e-01 4.820490e-01 0.000000e+00 0.000000e+00
 0.000000e+00 0.000000e+00 6.308631e-01 3.691369e-01 0.000000e+00
 0.000000e+00 0.000000e+00 0.000000e+00 8.609896e-01 1.390104e-01
 0.000000e+00 0.000000e+00 0.000000e+00 0.000000e+00 0.000000e+00
<ENDHMM>
~h "e"
<BEGINHMM>
<NUMSTATES> 5
<STATE> 2
<MEAN> 39
 -2.030365e+01 -8.679029e-01 1.290368e+00 -1.046426e+01 -5.168197e-01 -6.105842e+00 -8.089583e+00 -6.220308e+00 -1.095136e+01 -2.125429e+00 -4.061435e-01 -4.280150e+00 8.096149e+01 5.075418e-01 -7.235272e-02 4.126474e-01 5.478080e-02 2.959297e-01 -2.890345e-01 1.937844e-01 -6.019327e-02 -6.264012e-01 -3.597579e-01 -1.859751e-01 -2.290660e-01 1.247832e+00 7.942014e-01 8.143607e-02 -1.422690e-01 3.576132e-01 -1.230454e-01 -2.810602e-01 -1.428167e-01 8.517469e-02 -2.497706e-01 -1.892147e-01 4.720723e-02 -1.267254e-03 -1.482916e-01
<VARIANCE> 39
 8.186369e+01 3.415755e+01 7.887509e+01 5.566833e+01 4.296671e+01 4.501722e+01 4.279494e+01 3.675973e+01 4.314686e+01 3.768400e+01 2.328788e+01 1.745160e+01 1.101867e+02 1.275976e+01 3.361642e+00 5.403183e+00 5.274601e+00 3.527904e+00 4.293098e+00 3.184281e+00 3.483167e+00 4.858527e+00 3.172888e+00 2.499110e+00 2.186203e+00 5.612998e+00 1.716460e+00 6.863152e-01 7.938896e-01 1.004566e+00 6.221669e-01 8.044061e-01 6.924830e-01 6.338472e-01 8.941084e-01 6.152582e-01 5.699216e-01 4.094034e-01 7.769914e-01
<GCONST> 1.355400e+02
<STATE> 3
<MEAN> 39
 -8.575841e+00 1.253066e+00 -1.530235e+00 -4.511286e+00 4.789169e-01 -1.077822e+01 -1.008476e+01 -6.034497e+00 -1.598867e+01 -5.984927e+00 -1.356246e+00 -5.817513e+00 8.195856e+01 2.526206e+00 2.114076e-01 -2.990833e-01 1.066138e+00 -2.785479e-01 -1.013901e+00 -9.063418e-02 5.356101e-01 -9.833794e-01 -1.141255e+00 -4.352976e-01 -3.277639e-01 3.705819e-01 -5.770030e-01 -1.157262e-01 -1.747935e-02 -2.965338e-01 -1.751589e-01 3.355298e-01 2.765223e-02 1.552365e-01 5.418974e-01 2.758863e-01 3.939074e-02 1.487193e-01 -3.898450e-01
<VARIANCE> 39
 2.572070e+01 2.230411e+01 2.749936e+01 3.694503e+01 4.002093e+01 4.760651e+01 4.520848e+01 3.809252e+01 6.045051e+01 5.295507e+01 3.357281e+01 1.937282e+01 1.475580e+02 5.345943e+00 3.594904e+00 3.767383e+00 3.249246e+00 3.799384e+00 5.446991e+00 3.773902e+00 2.797014e+00 6.766802e+00 4.484689e+00 4.040581e+00 2.615547e+00 4.346783e+00 8.936260e-01 4.518040e-01 6.687006e-01 5.340800e-01 7.367398e-01 8.567652e-01 5.520934e-01 4.452769e-01 1.050075e+00 6.474398e-01 6.871039e-01 3.730407e-01 6.331850e-01
<GCONST> 1.315828e+02
<STATE> 4
<MEAN> 39
 -4.470533e+00 -5.432812e-01 -2.547601e+00 -4.687464e+00 -2.523181e+00 -1.461744e+01 -7.424897e+00 -1.649191e+00 -1.593961e+01 -7.822428e+00 -2.999430e+00 -5.750167e+00 8.412984e+01 1.603525e-01 2.326765e-01 1.600666e-01 5.428276e-02 -8.954215e-02 4.153395e-01 -7.315704e-03 2.396196e-01 4.353628e-01 -1.914091e-04 1.101071e-01 1.317534e-01 -4.915159e-01 -4.174948e-01 1.867133e-02 6.170306e-02 -1.433918e-01 4.991149e-02 2.339821e-01 -1.694081e-02 -1.099037e-01 1.840632e-01 1.783059e-01 1.222381e-01 9.941828e-02 -1.180305e-01
<VARIANCE> 39
 2.528739e+01 2.917362e+01 4.084010e+01 3.586677e+01 4.336057e+01 7.042962e+01 5.594775e+01 4.785308e+01 5.908060e+01 5.928817e+01 3.235556e+01 3.155964e+01 8.839481e+01 2.128240e+00 1.934392e+00 2.256326e+00 1.826988e+00 2.905789e+00 3.913828e+00 2.262150e+00 2.008414e+00 3.244502e+00 2.469276e+00 2.308449e+00 2.052043e+00 2.837430e+00 3.859755e-01 3.257866e-01 4.544417e-01 3.199283e-01 4.658791e-01 6.730876e-01 4.509885e-01 3.668685e-01 6.717900e-01 5.115020e-01 4.546367e-01 3.957026e-01 3.986794e-01
<GCONST> 1.218506e+02
<TRANSP> 5
 0.000000e+00 1.000000e+00 0.000000e+00 0.000000e+00 0.000000e+00
 0.000000e+00 7.372984e-01 2.627016e-01 0.000000e+00 0.000000e+00
 0.000000e+00 0.000000e+00 4.810196e-01 5.189803e-01 0.000000e+00
 0.000000e+00 0.000000e+00 0.000000e+00 6.563904e-01 3.436095e-01
 0.000000e+00 0.000000e+00 0.000000e+00 0.000000e+00 0.000000e+00
<ENDHMM>
~h "g"
<BEGINHMM>
<NUMSTATES> 5
<STATE> 2
<MEAN> 39
 -7.967643e+00 -1.658902e+00 5.969850e-01 -7.099820e-01 5.247369e+00 -1.464545e+01 -2.163664e+01 -9.082330e+00 -1.203230e+01 7.567483e-02 -5.485771e-01 -8.110295e+00 8.438605e+01 3.951226e-01 -4.348140e-01 -6.799299e-01 -1.149565e+00 -7.729611e-01 -8.282734e-01 -2.610959e-01 -6.650538e-01 -7.347827e-01 2.761003e-01 9.027573e-01 8.717646e-01 3.234261e-01 -3.132041e-02 1.621888e-01 1.802051e-01 1.993422e-01 -8.642694e-02 2.047068e-01 3.366768e-01 1.909193e-01 1.609518e-01 -1.466934e-01 7.385463e-03 1.611994e-01 -3.209521e-01
<VARIANCE> 39
 1.270264e+01 1.250974e+01 2.049228e+01 3.075065e+01 2.521746e+01 2.514504e+01 9.042307e+01 3.720300e+01 8.432148e+01 3.406686e+01 5.063951e+01 4.057376e+01 7.002345e+01 1.258093e+00 9.964999e-01 1.040916e+00 2.036799e+00 2.867614e+00 3.220289e+00 9.035449e+00 2.721403e+00 2.707468e+00 1.947516e+00 4.660925e+00 4.541861e+00 3.172641e+00 2.592119e-01 1.137406e-01 2.765135e-01 3.861958e-01 4.724960e-01 5.191919e-01 9.384381e-01 3.512020e-01 6.008120e-01 2.813196e-01 8.824405e-01 7.234805e-01 2.151905e-01
<GCONST> 1.178380e+02
<STATE> 3
<MEAN> 39
 -5.522344e+00 -1.280058e+00 -6.474376e+00 -3.546397e+00 -2.876607e-01 -1.450388e+01 -1.046585e+01 -5.847412e+00 -1.766648e+01 2.167251e+00 3.350019e+00 -2.656621e+00 8.185782e+01 -2.993114e-02 -4.426398e-02 -3.877640e-01 -3.573748e-01 -6.561694e-01 8.054079e-01 1.187126e+00 3.402581e-01 4.634943e-01 2.027145e-01 1.677935e-01 1.609808e-01 -5.253170e-01 -1.304308e-01 6.038125e-02 1.452756e-01 1.616351e-01 2.381667e-01 1.027480e-01 -1.701691e-01 6.024018e-03 4.569552e-02 -1.347259e-01 -1.439362e-01 -2.155870e-01 -8.220680e-02
<VARIANCE> 39
 1.104928e+01 9.949021e+00 1.651248e+01 1.931342e+01 2.936462e+01 2.680612e+01 5.374375e+01 5.165147e+01 5.178276e+01 7.737160e+01 1.974196e+01 1.826940e+01 1.744380e+02 4.210077e-01 4.296350e-01 3.292776e-01 7.873554e-01 1.111240e+00 9.890699e-01 1.497661e+00 9.212238e-01 9.642457e-01 1.193241e+00 9.328070e-01 1.099913e+00 4.010457e-01 3.799444e-02 6.677084e-02 5.062519e-02 1.090257e-01 1.630630e-01 1.631117e-01 1.659592e-01 1.561602e-01 1.576517e-01 2.159024e-01 1.450722e-01 2.118361e-01 5.056810e-02
<GCONST> 8.438979e+01
<STATE> 4
<MEAN> 39
 -1.100072e+01 1.070431e+00 -7.553587e+00 -3.579916e+00 -1.560799e+00 -4.740594e+00 -9.081632e+00 -6.953487e+00 -1.084259e+01 9.577984e-01 3.518267e+00 -4.751639e-01 7.170856e+01 -4.638734e-01 1.277793e-01 -2.335279e-02 -6.204996e-02 -2.699133e-01 4.488805e-01 7.464654e-02 -8.473413e-02 2.127246e-01 -4.565721e-01 -1.221442e-01 2.354852e-01 -9.514298e-01 2.316197e-02 -1.031586e-02 5.854287e-02 -4.690034e-02 -4.835936e-03 -9.761038e-02 -9.526654e-02 -4.126399e-03 -8.410998e-02 2.478526e-02 -4.777815e-03 -4.898719e-02 4.600632e-02
<VARIANCE> 39
 1.290330e+01 1.104818e+01 3.193155e+01 1.176112e+01 3.617542e+01 3.241618e+01 3.566297e+01 4.015519e+01 4.528762e+01 3.421821e+01 1.972712e+01 1.398787e+01 2.658760e+02 3.647648e-01 8.627355e-01 8.188346e-01 8.759056e-01 1.672490e+00 1.997444e+00 2.417536e+00 1.016357e+00 1.589231e+00 9.675101e-01 1.422873e+00 8.715899e-01 4.863924e-01 5.130259e-02 1.593093e-01 1.512924e-01 1.774556e-01 2.845382e-01 2.925206e-01 3.919112e-01 1.664488e-01 3.275360e-01 1.694964e-01 2.083076e-01 1.640947e-01 6.840071e-02
<GCONST> 9.339972e+01
<TRANSP> 5
 0.000000e+00 1.000000e+00 0.000000e+00 0.000000e+00 0.000000e+00
 0.000000e+00 6.471636e-01 3.528363e-01 0.000000e+00 0.000000e+00
 0.000000e+00 0.000000e+00 8.372057e-01 1.627943e-01 0.000000e+00
 0.000000e+00 0.000000e+00 0.000000e+00 8.498344e-01 1.501656e-01
 0.000000e+00 0.000000e+00 0.000000e+00 0.000000e+00 0.000000e+00
<ENDHMM>
~h "h"
<BEGINHMM>
<NUMSTATES> 5
<STATE> 2
<MEAN> 39
 -1.687804e+01 -5.916353e+00 5.813721e+00 4.465395e-01 8.105266e-01 -1.006889e+01 -9.450071e+00 -2.778587e+00 -6.132309e+00 -2.327738e+00 -4.638384e+00 -4.789571e+00 8.114502e+01 -5.706014e-02 -4.083416e-01 -6.646097e-02 -7.423104e-02 -5.086160e-01 -3.906241e-01 -8.193211e-02 2.119143e-01 3.747415e-01 1.844984e-01 -2.362194e-01 2.505656e-01 -4.622450e-01 2.961590e-01 3.150664e-01 -7.456212e-02 1.180572e-01 1.253698e-01 -7.350880e-02 -7.020111e-03 1.605932e-02 -2.263548e-01 -9.127965e-02 -1.531597e-02 -1.433142e-01 -6.267928e-02
<VARIANCE> 39
 1.627774e+01 3.587854e+01 3.903915e+01 4.946135e+01 2.924481e+01 5.444297e+01 3.473541e+01 4.106256e+01 3.004256e+01 3.497137e+01 2.693513e+01 1.866794e+01 3.162610e+01 1.100777e+00 1.763056e+00 2.149971e+00 2.217644e+00 2.056277e+00 2.222226e+00 1.772398e+00 1.489251e+00 2.167657e+00 1.867566e+00 1.593557e+00 1.621979e+00 6.110678e-01 2.013105e-01 2.414882e-01 2.078359e-01 3.253688e-01 3.232775e-01 4.386376e-01 3.176839e-01 3.110102e-01 4.423062e-01 4.039352e-01 2.895703e-01 2.891720e-01 8.835801e-02
<GCONST> 1.068360e+02
<STATE> 3
<MEAN> 39
 -1.324999e+01 -4.047896e+00 2.504698e+00 6.299765e-01 -1.850559e+00 -5.701990e+00 -9.725266e+00 -4.353871e+00 -4.450556e+00 -2.972629e+00 -5.539494e+00 -4.919757e+00 7.403829e+01 1.510230e-01 8.729312e-01 -3.502885e-01 5.252535e-01 -3.361170e-02 3.027624e-01 2.823749e-01 5.172043e-02 -3.134382e-01 -4.299037e-01 -1.291011e-01 -4.749399e-02 -8.841890e-01 -4.219845e-02 1.885039e-01 4.626439e-02 -1.012927e-02 1.977209e-01 -9.798274e-03 -2.790761e-03 -1.448595e-02 -2.245356e-01 -6.472861e-02 9.706022e-02 -8.118992e-02 4.645991e-02
<VARIANCE> 39
 1.040963e+01 3.721768e+01 2.607526e+01 4.427522e+01 3.111069e+01 5.470037e+01 3.115220e+01 3.491832e+01 2.836195e+01 2.437006e+01 1.990147e+01 2.065350e+01 4.475848e+01 5.430828e-01 1.087708e+00 1.318966e+00 1.304014e+00 1.325379e+00 1.375717e+00 1.755712e+00 1.247332e+00 1.358080e+00 1.212625e+00 1.245519e+00 1.176909e+00 2.697431e-01 1.362067e-01 1.941633e-01 1.946574e-01 2.567028e-01 2.445927e-01 2.384157e-01 2.825068e-01 2.171815e-01 2.478038e-01 2.471416e-01 2.485299e-01 2.409686e-01 3.952001e-02
<GCONST> 9.534815e+01
<STATE> 4
<MEAN> 39
 -1.415919e+01 4.846526e+00 3.825347e-01 -7.529771e-01 -7.947865e-01 -2.548250e+00 -5.579237e+00 -3.439728e+00 -8.506142e+00 -6.733694e+00 -5.646266e+00 -6.322620e+00 6.722422e+01 -2.353691e-01 2.282328e-01 -1.876960e-02 -1.353026e-01 5.509203e-03 7.770736e-02 1.226898e-02 8.418177e-02 -1.328964e-01 1.940308e-02 1.547492e-01 -2.363001e-02 -3.294179e-01 1.768797e-02 -4.742482e-02 3.341689e-02 -3.268785e-02 1.718498e-02 -1.658025e-02 -5.385495e-02 -1.504776e-02 2.001280e-02 1.874205e-02 2.455748e-02 -5.767670e-03 8.235406e-02
<VARIANCE> 39
 7.999287e+00 3.024571e+01 2.056198e+01 2.748202e+01 1.807562e+01 2.452145e+01 1.867903e+01 1.532761e+01 2.088152e+01 2.086820e+01 1.278027e+01 1.080157e+01 2.843727e+01 4.068663e-01 1.010239e+00 1.042494e+00 1.198173e+00 1.128339e+00 1.018191e+00 1.229235e+00 1.339745e+00 1.324314e+00 9.414180e-01 1.020305e+00 8.525735e-01 2.623405e-01 8.204036e-02 1.556668e-01 1.822018e-01 2.086394e-01 2.382460e-01 1.875076e-01 2.437867e-01 2.648301e-01 2.547117e-01 1.691485e-01 1.847221e-01 1.564952e-01 4.416648e-02
<GCONST> 8.503352e+01
<TRANSP> 5
 0.000000e+00 1.000000e+00 0.000000e+00 0.000000e+00 0.000000e+00
 0.000000e+00 7.270833e-01 2.729167e-01 0.000000e+00 0.000000e+00
 0.000000e+00 0.000000e+00 7.061574e-01 2.938425e-01 0.000000e+00
 0.000000e+00 0.000000e+00 0.000000e+00 8.318093e-01 1.681906e-01
 0.000000e+00 0.000000e+00 0.000000e+00 0.000000e+00 0.000000e+00
<ENDHMM>
~h "i"
<BEGINHMM>
<NUMSTATES> 5
<STATE> 2
<MEAN> 39
 -1.111440e+01 -7.596974e-01 8.665542e+00 6.993461e+00 8.524184e+00 -1.544151e+01 -1.614448e+01 -3.043869e+00 -1.342253e+01 -7.260732e+00 -3.134963e+00 -9.346101e+00 8.100836e+01 1.405353e-01 1.686777e-01 2.419448e-01 2.069141e-01 2.713462e-01 -1.384331e-01 -3.998513e-01 -1.367300e-01 7.426967e-02 1.775218e-01 -1.094796e-01 -2.658692e-01 1.188287e-01 3.040607e-02 9.998158e-02 -2.586896e-01 -2.746722e-01 -2.240807e-01 2.866443e-01 1.594550e-01 -6.581748e-02 1.555737e-01 9.020534e-02 4.599391e-03 1.512372e-01 -1.939631e-01
<VARIANCE> 39
 1.828787e+01 3.041392e+01 5.265961e+01 3.963645e+01 4.559736e+01 7.374988e+01 5.829175e+01 5.128412e+01 6.064124e+01 4.251381e+01 3.378627e+01 3.400415e+01 9.731837e+01 1.836919e+00 3.027291e+00 4.476690e+00 3.759543e+00 3.981148e+00 7.233328e+00 5.249967e+00 3.078465e+00 6.367313e+00 3.303209e+00 2.901495e+00 2.873435e+00 4.250811e+00 3.226429e-01 4.887908e-01 7.190711e-01 6.368636e-01 6.498451e-01 1.131689e+00 9.339454e-01 5.861118e-01 1.086127e+00 6.911601e-01 5.265350e-01 5.099177e-01 5.083414e-01
<GCONST> 1.327242e+02
<STATE> 3
<MEAN> 39
 -8.674682e+00 2.118263e+00 3.726020e+00 2.274353e+00 5.882207e+00 -1.153421e+01 -1.523599e+01 -5.039089e+00 -9.524123e+00 -5.445858e+00 -4.263725e+00 -8.714222e+00 8.055452e+01 4.091306e-01 3.656060e-01 -1.371804e+00 -1.390714e+00 -1.355291e+00 1.118000e+00 7.482780e-01 1.485833e-01 6.210068e-01 1.415546e-01 7.507770e-02 9.075946e-01 -7.141705e-01 -5.125636e-02 -2.094720e-01 -3.838658e-02 4.366428e-02 -1.447401e-01 -2.753684e-01 1.421588e-01 1.510311e-01 -2.501632e-01 -1.236629e-01 1.205020e-01 1.346453e-01 8.206393e-02
<VARIANCE> 39
 1.867725e+01 2.246414e+01 3.843609e+01 2.825914e+01 3.473396e+01 5.992450e+01 5.465531e+01 5.754635e+01 8.005730e+01 4.710927e+01 3.975517e+01 3.822933e+01 9.958173e+01 1.060651e+00 1.652769e+00 2.162946e+00 1.913938e+00 2.399748e+00 5.882504e+00 3.052755e+00 3.938017e+00 3.536796e+00 2.908742e+00 2.629831e+00 2.756781e+00 2.373307e+00 1.604572e-01 2.328742e-01 3.932893e-01 3.543304e-01 4.149874e-01 8.403198e-01 6.819113e-01 5.441095e-01 6.315808e-01 4.654894e-01 4.070714e-01 5.667946e-01 2.292151e-01
<GCONST> 1.213896e+02
<STATE> 4
<MEAN> 39
 -8.609324e+00 3.812904e+00 6.756011e-01 1.631476e+00 4.205076e+00 -8.165820e+00 -1.166458e+01 -6.039204e+00 -9.331817e+00 -5.010335e+00 -3.979889e+00 -5.059077e+00 7.735174e+01 -1.143860e-01 -2.768427e-01 -8.545711e-01 -8.160040e-01 -9.651611e-01 3.492582e-01 7.345681e-01 8.034163e-02 -1.434711e-01 2.550710e-03 3.579527e-01 4.342023e-01 -1.255115e-01 -1.319773e-01 -2.164868e-01 1.316504e-01 -1.689098e-01 -1.804248e-02 -1.874305e-01 6.296876e-02 4.210398e-02 -4.957177e-02 1.040833e-01 1.089894e-01 -1.334335e-01 3.879296e-01
<VARIANCE> 39
 1.939707e+01 2.208585e+01 2.738375e+01 2.743940e+01 3.661416e+01 2.886068e+01 4.433154e+01 3.120412e+01 4.092323e+01 3.259408e+01 4.087336e+01 1.998093e+01 8.997599e+01 7.150898e-01 1.202758e+00 1.315561e+00 2.554621e+00 2.292233e+00 2.240525e+00 2.266238e+00 1.967570e+00 1.991837e+00 1.709624e+00 2.473322e+00 1.747000e+00 1.263301e+00 1.080922e-01 2.379765e-01 2.850280e-01 4.948710e-01 3.624089e-01 5.343073e-01 4.298336e-01 3.659615e-01 4.563535e-01 3.317508e-01 3.736301e-01 3.422177e-01 4.175182e-01
<GCONST> 1.101417e+02
<TRANSP> 5
 0.000000e+00 1.000000e+00 0.000000e+00 0.000000e+00 0.000000e+00
 0.000000e+00 8.724497e-01 1.275504e-01 0.000000e+00 0.000000e+00
 0.000000e+00 0.000000e+00 6.158027e-01 3.841973e-01 0.000000e+00
 0.000000e+00 0.000000e+00 0.000000e+00 6.405678e-01 3.594322e-01
 0.000000e+00 0.000000e+00 0.000000e+00 0.000000e+00 0.000000e+00
<ENDHMM>
~h "j"
<BEGINHMM>
<NUMSTATES> 5
<STATE> 2
<MEAN> 39
 -1.413301e+01 -4.414577e-01 9.944792e+00 4.178951e+00 9.160863e+00 -7.723348e+00 -1.465380e+01 -1.606390e-01 -6.650366e+00 -6.435520e+00 -1.681839e+00 -6.471008e+00 8.046114e+01 -4.925792e-01 -3.592974e-01 6.315987e-01 6.171302e-02 5.766985e-02 4.703132e-01 -3.548411e-01 -4.127104e-01 7.408955e-01 6.733244e-02 -1.467218e-01 1.530827e-01 4.708377e-01 3.199684e-01 1.176914e-01 -2.422417e-01 -3.873891e-02 -2.914725e-02 4.712252e-02 3.390556e-02 -2.528497e-01 -3.202785e-01 -1.326637e-01 3.317431e-02 1.275196e-02 -3.133610e-02
<VARIANCE> 39
 5.857743e+01 4.241524e+01 4.888668e+01 3.438763e+01 3.500814e+01 4.311818e+01 5.606042e+01 3.832537e+01 6.677084e+01 5.028007e+01 2.526912e+01 3.964572e+01 8.687708e+01 8.672650e+00 6.235811e+00 4.702166e+00 3.542799e+00 4.169590e+00 4.438547e+00 6.901604e+00 6.464627e+00 6.224619e+00 4.248742e+00 3.076057e+00 3.993685e+00 7.238838e+00 1.822436e+00 1.386200e+00 1.129912e+00 6.912040e-01 7.784325e-01 8.957151e-01 1.372116e+00 8.871056e-01 1.083547e+00 8.420206e-01 6.843591e-01 7.440537e-01 1.400288e+00
<GCONST> 1.427755e+02
<STATE> 3
<MEAN> 39
 -9.245450e+00 -1.682487e+00 8.267198e+00 3.288971e+00 1.117466e+01 -3.252809e+00 -1.943960e+01 -1.283196e+01 -1.072399e+01 -9.333761e+00 -1.674797e+00 -6.654037e+00 8.593406e+01 2.305360e+00 1.177630e+00 -1.899358e+00 -8.455698e-01 -5.745288e-01 -6.244914e-02 1.570841e+00 -4.249380e-01 -2.252072e+00 -1.265380e+00 1.537006e-01 5.920129e-01 -7.285378e-01 -6.870323e-01 7.931611e-02 3.336687e-01 -4.013034e-01 -4.428528e-01 -2.273120e-01 6.065314e-01 8.847170e-01 3.701343e-01 2.492665e-02 -3.953528e-01 1.992739e-02 -3.350012e-02
<VARIANCE> 39
 2.219812e+01 1.980384e+01 2.151327e+01 1.263366e+01 2.873341e+01 2.814353e+01 3.794688e+01 2.887600e+01 5.053781e+01 1.028074e+02 1.970092e+01 3.459935e+01 3.487978e+01 2.504332e+00 4.942078e-01 1.182331e+00 1.520430e+00 1.434576e+00 1.375303e+00 2.616468e+00 3.727856e+00 2.878163e+00 2.819774e+00 2.262823e+00 2.025579e+00 2.756529e-01 4.354781e-01 9.331462e-02 2.890493e-01 2.603504e-01 2.325968e-01 2.666927e-01 4.859902e-01 4.301369e-01 6.664361e-01 6.624210e-01 3.125783e-01 3.048338e-01 9.851051e-02
<GCONST> 1.061578e+02
<STATE> 4
<MEAN> 39
 -4.549608e+00 4.254452e+00 3.594771e+00 -3.682498e+00 3.716508e+00 -6.864017e+00 -7.773845e+00 -5.643430e+00 -1.607414e+01 -1.525888e+01 -5.941323e+00 -6.387460e+00 8.123019e+01 -1.673992e-01 8.981868e-01 1.078792e-01 -9.945893e-01 -1.231670e+00 -1.961377e-01 1.584171e+00 9.494137e-01 3.989648e-01 4.512240e-01 -4.844223e-01 -3.473744e-01 -6.067787e-01 -2.989630e-01 -1.746198e-01 1.344825e-01 1.862030e-01 1.722169e-01 2.811238e-01 -1.181787e-01 -1.187485e-01 2.769513e-01 3.413340e-01 1.486166e-01 -1.216300e-01 -2.517288e-02
<VARIANCE> 39
 1.147242e+01 2.610991e+01 1.735259e+01 1.917137e+01 3.894650e+01 3.615944e+01 6.109920e+01 3.811370e+01 3.407129e+01 1.037125e+02 5.207096e+01 5.084408e+01 2.544064e+01 5.346537e-01 5.413066e-01 5.751531e-01 9.272371e-01 1.127797e+00 1.741770e+00 1.873168e+00 1.170632e+00 1.303612e+00 2.655819e+00 1.585233e+00 1.679463e+00 3.296594e-01 8.913121e-02 1.504128e-01 1.265994e-01 1.478567e-01 1.468515e-01 2.049184e-01 2.781317e-01 1.878267e-01 2.685860e-01 3.363632e-01 2.855829e-01 2.124027e-01 3.664804e-02
<GCONST> 9.492213e+01
<TRANSP> 5
 0.000000e+00 1.000000e+00 0.000000e+00 0.000000e+00 0.000000e+00
 0.000000e+00 9.263546e-01 7.364542e-02 0.000000e+00 0.000000e+00
 0.000000e+00 0.000000e+00 7.743701e-01 2.256298e-01 0.000000e+00
 0.000000e+00 0.000000e+00 0.000000e+00 8.194193e-01 1.805806e-01
 0.000000e+00 0.000000e+00 0.000000e+00 0.000000e+00 0.000000e+00
<ENDHMM>
~h "k"
<BEGINHMM>
<NUMSTATES> 5
<STATE> 2
<MEAN> 39
 -7.819828e+00 -1.949979e+00 -2.424318e+00 -4.531487e+00 2.269400e+00 -1.417624e+01 -1.238460e+01 -6.563038e+00 -1.685112e+01 -4.683244e+00 1.205732e+00 -7.096598e+00 8.469206e+01 -1.744906e-01 8.399080e-01 1.134684e+00 3.884981e-01 6.779395e-01 1.484129e+00 3.692335e-01 -1.325635e-01 4.341481e-01 -1.733833e-01 -4.477788e-01 1.759279e-01 -1.610883e+00 -3.855917e-02 5.185725e-03 -2.166150e-01 -2.566400e-01 -5.933144e-01 4.292369e-01 3.204319e-01 3.401627e-01 5.139042e-01 3.588984e-01 2.425202e-02 4.042498e-01 -5.259167e-01
<VARIANCE> 39
 2.697686e+01 2.647344e+01 2.748636e+01 3.647123e+01 3.180398e+01 6.760176e+01 6.475349e+01 3.867694e+01 1.068889e+02 3.290532e+01 3.538290e+01 2.153827e+01 9.112686e+01 2.910615e+00 2.030127e+00 2.919655e+00 4.784327e+00 3.682368e+00 6.117680e+00 3.418210e+00 2.913475e+00 6.703346e+00 2.339214e+00 2.257122e+00 2.336247e+00 4.869323e+00 5.018479e-01 3.620029e-01 6.257369e-01 7.863568e-01 8.373618e-01 9.245768e-01 7.478293e-01 6.056880e-01 9.702371e-01 4.734024e-01 5.558463e-01 4.355775e-01 5.149770e-01
<GCONST> 1.294732e+02
<STATE> 3
<MEAN> 39
 -1.091708e+01 1.455074e+00 -4.430770e+00 -4.549943e+00 -1.443141e+00 -5.449258e+00 -1.179077e+01 -4.782653e+00 -1.061559e+01 -1.628140e+00 1.415509e+00 -2.433815e+00 6.798805e+01 -6.269864e-01 -1.895543e-01 -7.743834e-01 -6.332672e-01 -1.228901e+00 5.634628e-01 2.211034e-01 4.711688e-01 8.580796e-01 6.534760e-01 8.475661e-02 7.467819e-01 -1.720350e+00 -1.513555e-01 -3.787171e-01 -2.877145e-01 -1.945188e-01 -8.574714e-02 -6.271861e-01 -2.933401e-01 -1.294576e-01 -2.128198e-01 -1.112357e-01 3.046234e-02 -1.590470e-01 7.065713e-01
<VARIANCE> 39
 2.452658e+01 2.208918e+01 3.898996e+01 2.250244e+01 4.597631e+01 3.061484e+01 2.917784e+01 2.402486e+01 4.367658e+01 2.483532e+01 1.775455e+01 1.625645e+01 2.415827e+02 1.383293e+00 2.505368e+00 2.562933e+00 2.028937e+00 4.037187e+00 4.302097e+00 3.197451e+00 2.623872e+00 3.222883e+00 2.645783e+00 2.521921e+00 1.892936e+00 5.187785e+00 3.294206e-01 5.094538e-01 7.655401e-01 3.774891e-01 9.344637e-01 7.632438e-01 5.268173e-01 4.799128e-01 6.039059e-01 5.482113e-01 5.158402e-01 3.625975e-01 6.740569e-01
<GCONST> 1.220029e+02
<STATE> 4
<MEAN> 39
 -1.243064e+01 -1.354196e+00 -5.400755e+00 -7.585054e+00 -2.811904e+00 -9.866109e+00 -1.290932e+01 -6.531408e+00 -1.003090e+01 -1.536011e+00 2.562927e+00 -2.472319e+00 7.759272e+01 -7.089614e-01 -2.950608e-02 3.420517e-03 -4.076136e-01 7.191387e-02 -4.538270e-02 1.160681e-01 -1.825550e-01 -1.081223e-02 -6.491130e-02 -2.596113e-01 -2.293985e-01 5.154524e-01 -3.604982e-02 6.508742e-02 1.986076e-01 4.637059e-02 2.483212e-01 4.210451e-02 7.313573e-02 -1.501339e-03 -7.867183e-02 -8.538738e-02 -8.497098e-02 -1.378840e-01 3.073623e-01
<VARIANCE> 39
 3.130999e+01 1.478576e+01 1.829234e+01 2.190681e+01 2.536954e+01 3.467683e+01 2.590510e+01 3.164408e+01 2.912251e+01 3.117644e+01 1.852608e+01 1.829837e+01 1.241947e+02 3.139709e+00 1.580216e+00 2.200429e+00 2.642538e+00 2.747828e+00 2.577233e+00 2.856265e+00 2.150085e+00 1.871561e+00 1.990946e+00 2.060607e+00 1.801594e+00 3.710640e+00 6.531901e-01 2.814896e-01 3.901162e-01 5.128563e-01 4.669167e-01 5.404841e-01 5.338285e-01 4.297867e-01 3.845576e-01 4.615765e-01 4.146354e-01 3.623584e-01 7.020419e-01
<GCONST> 1.156989e+02
<TRANSP> 5
 0.000000e+00 1.000000e+00 0.000000e+00 0.000000e+00 0.000000e+00
 0.000000e+00 6.877928e-01 3.122072e-01 0.000000e+00 0.000000e+00
 0.000000e+00 0.000000e+00 7.326066e-01 2.673934e-01 0.000000e+00
 0.000000e+00 0.000000e+00 0.000000e+00 8.703190e-01 1.296810e-01
 0.000000e+00 0.000000e+00 0.000000e+00 0.000000e+00 0.000000e+00
<ENDHMM>
~h "l"
<BEGINHMM>
<NUMSTATES> 5
<STATE> 2
<MEAN> 39
 -1.694053e+01 2.738047e+00 -1.896531e+00 -5.090922e+00 -2.759306e+00 -3.436471e+00 -7.017282e+00 -3.151164e+00 -8.239425e+00 -4.697304e+00 -3.158590e+00 -4.575545e+00 6.873651e+01 1.084308e-02 -9.896514e-02 4.883415e-02 2.540683e-02 -1.368980e-01 -8.030890e-03 -2.529588e-03 -1.025317e-01 -3.259476e-02 6.939682e-02 5.617257e-02 -4.265618e-02 -3.671712e-02 -1.074154e-01 -1.351420e-01 1.465983e-01 -1.016901e-01 6.787006e-03 -5.748087e-02 7.177609e-03 -3.570936e-02 -8.864205e-03 5.379335e-02 2.221336e-02 1.141712e-02 1.616014e-01
<VARIANCE> 39
 1.951803e+01 1.612790e+01 1.568585e+01 1.553480e+01 1.546340e+01 1.900624e+01 1.856141e+01 1.753503e+01 2.034102e+01 2.173298e+01 1.548301e+01 1.292775e+01 1.179570e+02 7.527952e-01 8.255514e-01 1.086988e+00 1.223446e+00 1.368943e+00 1.231078e+00 1.633895e+00 1.415014e+00 1.443419e+00 1.390867e+00 1.216109e+00 1.087955e+00 4.592763e-01 1.583795e-01 1.848174e-01 2.476141e-01 2.616142e-01 2.774787e-01 2.823383e-01 3.233157e-01 2.806162e-01 2.985528e-01 2.922310e-01 2.473325e-01 2.193382e-01 1.189525e-01
<GCONST> 9.322596e+01
<STATE> 3
<MEAN> 39
 -1.579156e+01 1.976312e+00 -1.334606e+00 -4.166492e+00 -2.659141e+00 -3.951215e+00 -7.352250e+00 -3.540706e+00 -8.775528e+00 -4.266513e+00 -2.841333e+00 -4.629786e+00 6.900488e+01 -4.665678e-01 -1.006089e+00 9.293256e-01 -7.976928e-01 -4.402825e-01 -2.861052e-01 7.649869e-02 -3.601865e-01 -1.068485e-01 6.195817e-01 3.263412e-01 5.429740e-02 9.369031e-01 -4.156190e-01 -3.956934e-01 5.297012e-01 -3.481616e-01 2.750754e-02 -1.163317e-01 -8.209624e-03 -1.168572e-02 -5.998443e-03 1.343802e-01 5.213985e-02 2.610456e-02 5.551142e-01
<VARIANCE> 39
 3.587067e+01 1.642135e+01 1.708768e+01 1.808508e+01 2.238774e+01 2.568991e+01 2.159641e+01 2.351719e+01 2.976272e+01 3.286657e+01 1.532446e+01 1.373878e+01 1.397029e+02 1.486025e+00 1.903409e+00 2.482799e+00 2.283479e+00 2.447546e+00 2.229333e+00 2.440835e+00 2.701517e+00 2.343894e+00 2.100467e+00 1.648134e+00 1.385403e+00 1.136117e+00 3.648709e-01 2.993292e-01 4.970968e-01 4.106329e-01 3.720391e-01 4.224516e-01 3.920541e-01 4.279533e-01 4.304128e-01 3.660294e-01 2.861595e-01 2.897607e-01 2.923760e-01
<GCONST> 1.094473e+02
<STATE> 4
<MEAN> 39
 -1.779396e+01 3.614736e-01 6.290529e-01 -6.465669e+00 -3.597447e+00 -4.654335e+00 -6.636530e+00 -4.360436e+00 -9.424595e+00 -3.495630e+00 -3.204758e+00 -4.990860e+00 7.035743e+01 -4.437517e-01 -1.132949e+00 1.074177e+00 -8.156800e-01 -2.090719e-01 -3.009326e-01 -2.603325e-02 -2.896777e-01 -2.488026e-01 3.970944e-01 2.825593e-01 4.743797e-02 1.361085e+00 -1.723553e-01 -7.815785e-02 1.319888e-01 -5.280598e-02 1.107700e-01 3.482319e-02 1.346998e-02 1.175796e-01 6.358878e-02 -5.419486e-02 6.331138e-02 4.582632e-02 2.082858e-01
<VARIANCE> 39
 4.604527e+01 3.062255e+01 2.921405e+01 3.103907e+01 3.504644e+01 3.443162e+01 3.643687e+01 3.659571e+01 3.235033e+01 4.169640e+01 2.431421e+01 2.158411e+01 1.071995e+02 3.430770e+00 3.768954e+00 5.443912e+00 4.048205e+00 2.888298e+00 3.327280e+00 3.245847e+00 3.457340e+00 3.362357e+00 2.885679e+00 2.168997e+00 1.999894e+00 3.470833e+00 6.673076e-01 6.423452e-01 7.409671e-01 6.533860e-01 5.836043e-01 6.174676e-01 5.903069e-01 5.584937e-01 5.436685e-01 4.768461e-01 4.222283e-01 4.172264e-01 5.696631e-01
<GCONST> 1.261398e+02
<TRANSP> 5
 0.000000e+00 1.000000e+00 0.000000e+00 0.000000e+00 0.000000e+00
 0.000000e+00 7.507113e-01 2.492887e-01 0.000000e+00 0.000000e+00
 0.000000e+00 0.000000e+00 2.116913e-01 7.883087e-01 0.000000e+00
 0.000000e+00 0.000000e+00 0.000000e+00 5.207215e-01 4.792785e-01
 0.000000e+00 0.000000e+00 0.000000e+00 0.000000e+00 0.000000e+00
<ENDHMM>
~h "m"
<BEGINHMM>
<NUMSTATES> 5
<STATE> 2
<MEAN> 39
 -3.996547e+00 1.932610e+00 -3.992183e+00 -5.672638e+00 -2.712802e+00 -1.056635e+01 -3.356707e+00 3.459425e+00 -9.564945e+00 -7.179538e+00 -2.523143e+00 -6.747490e+00 8.116216e+01 -1.453764e-01 3.035303e-01 1.768005e-01 1.665276e-01 3.212167e-01 6.464836e-01 2.251896e-01 -1.960997e-01 1.377958e-01 7.049014e-02 -9.242590e-02 -9.433437e-02 -5.490862e-01 -9.697954e-02 -4.855174e-02 3.808505e-02 4.195935e-02 8.227986e-02 1.105212e-01 -8.746151e-04 -7.488023e-02 -2.030771e-02 4.594541e-02 1.351675e-02 -8.528708e-03 -5.386582e-02
<VARIANCE> 39
 1.290325e+01 2.156499e+01 5.048636e+01 3.812978e+01 5.644324e+01 6.078539e+01 8.433659e+01 6.242815e+01 7.840553e+01 3.834819e+01 3.805928e+01 3.496844e+01 6.298484e+01 4.212713e-01 1.368635e+00 3.036455e+00 2.308561e+00 3.539944e+00 3.286407e+00 2.954164e+00 2.506702e+00 2.125821e+00 1.543656e+00 2.722312e+00 2.360057e+00 1.291628e+00 6.195207e-02 1.746617e-01 3.362046e-01 3.392893e-01 5.591991e-01 5.382928e-01 4.677896e-01 3.998347e-01 3.270518e-01 2.856066e-01 3.453805e-01 3.741831e-01 1.369221e-01
<GCONST> 1.141006e+02
<STATE> 3
<MEAN> 39
 -6.827200e+00 2.509328e+00 -2.769340e+00 -5.721140e+00 2.032499e+00 -5.589313e+00 -3.057382e+00 -1.593529e+00 -1.065947e+01 -5.062806e+00 -2.408524e+00 -6.237837e+00 8.206666e+01 -2.107459e-01 2.576970e-01 2.613591e-01 1.697712e-01 2.895057e-01 5.657354e-01 4.196115e-02 -1.627213e-01 1.590190e-01 1.671356e-01 8.505148e-02 1.284717e-01 -6.588134e-01 -2.553856e-02 4.446635e-02 -2.048900e-02 -4.671884e-02 -1.598899e-01 -5.408178e-02 -1.272416e-02 1.642375e-02 6.515098e-02 1.007261e-02 4.078630e-02 8.074267e-02 -4.185999e-02
<VARIANCE> 39
 6.892447e+00 2.448330e+01 4.349557e+01 2.695581e+01 5.163171e+01 3.290960e+01 1.038887e+02 3.849133e+01 4.120467e+01 3.105429e+01 5.466301e+01 3.523552e+01 9.747267e+01 2.526911e-01 6.603933e-01 8.381814e-01 8.938423e-01 1.343320e+00 1.057238e+00 1.092988e+00 9.814251e-01 1.241267e+00 9.728172e-01 1.373739e+00 1.245480e+00 3.126244e-01 2.958626e-02 1.186447e-01 1.610967e-01 1.877437e-01 2.603058e-01 1.952069e-01 2.265271e-01 1.787591e-01 2.133525e-01 2.280574e-01 2.639887e-01 2.334682e-01 5.551244e-02
<GCONST> 9.276846e+01
<STATE> 4
<MEAN> 39
 -1.081919e+01 4.687567e+00 -2.643806e+00 -3.865793e+00 -5.615758e-01 -8.399615e-01 -6.084008e-01 -1.142285e+00 -7.762854e+00 -5.148857e+00 -2.360662e+00 -4.266142e+00 7.404234e+01 -3.347832e-01 -3.267096e-02 -4.740828e-02 -3.308427e-02 -1.668117e-01 1.150644e-01 -1.676860e-01 -1.285305e-01 6.287764e-02 1.157501e-01 1.388785e-01 1.389455e-01 -4.835262e-01 -2.318219e-03 -3.023790e-02 -1.235060e-02 -1.286833e-02 -1.807986e-02 -5.509581e-02 -1.642119e-02 -6.333633e-03 -1.824926e-02 2.565303e-03 -2.226148e-02 -1.527960e-02 3.479457e-02
<VARIANCE> 39
 1.102172e+01 1.614664e+01 2.049160e+01 1.721858e+01 4.040660e+01 2.731037e+01 4.262469e+01 2.352656e+01 2.640969e+01 1.662454e+01 2.484236e+01 1.611103e+01 1.456326e+02 2.716575e-01 7.719203e-01 8.531246e-01 7.310679e-01 1.079984e+00 9.914965e-01 1.045706e+00 9.350542e-01 1.175329e+00 1.009063e+00 1.007502e+00 8.138399e-01 2.745276e-01 4.753964e-02 1.250422e-01 1.452633e-01 1.417132e-01 1.874233e-01 1.922192e-01 1.818658e-01 1.842398e-01 2.146624e-01 1.861252e-01 1.821221e-01 1.540265e-01 4.108177e-02
<GCONST> 8.467658e+01
<TRANSP> 5
 0.000000e+00 1.000000e+00 0.000000e+00 0.000000e+00 0.000000e+00
 0.000000e+00 8.212033e-01 1.787967e-01 0.000000e+00 0.000000e+00
 0.000000e+00 0.000000e+00 7.711154e-01 2.288846e-01 0.000000e+00
 0.000000e+00 0.000000e+00 0.000000e+00 8.500978e-01 1.499022e-01
 0.000000e+00 0.000000e+00 0.000000e+00 0.000000e+00 0.000000e+00
<ENDHMM>
~h "n"
<BEGINHMM>
<NUMSTATES> 5
<STATE> 2
<MEAN> 39
 -5.380520e+00 1.959977e+00 -3.909175e-01 -4.405187e+00 5.793939e-01 -9.714329e+00 -1.091047e+01 -2.057752e+00 -8.413249e+00 -4.827636e+00 -2.991008e+00 -6.560868e+00 8.289311e+01 3.311369e-01 2.600127e-01 8.411102e-02 3.044396e-02 5.078727e-02 -3.912885e-02 -5.446405e-02 3.716246e-01 2.749944e-01 -1.964524e-01 -2.140438e-01 -1.040481e-01 1.407030e-02 -4.142179e-02 -4.267178e-02 -7.004532e-02 -7.188998e-02 -1.546582e-01 3.300510e-02 1.633066e-01 2.250358e-02 3.277639e-02 4.571398e-02 5.103828e-03 4.868682e-02 -1.978560e-02
<VARIANCE> 39
 1.682628e+01 2.398900e+01 2.603599e+01 3.381639e+01 5.121215e+01 5.600359e+01 6.307558e+01 7.917725e+01 6.165435e+01 6.013773e+01 5.697314e+01 3.257831e+01 8.774351e+01 1.007979e+00 1.665133e+00 2.095543e+00 2.568710e+00 2.901367e+00 3.444060e+00 3.543915e+00 3.098644e+00 3.018445e+00 1.687198e+00 4.393148e+00 2.763097e+00 2.617466e+00 1.415373e-01 2.237633e-01 2.873012e-01 3.371486e-01 3.243154e-01 4.585303e-01 5.126184e-01 4.918550e-01 4.971912e-01 2.983372e-01 7.611550e-01 4.818493e-01 1.996236e-01
<GCONST> 1.195469e+02
<STATE> 3
<MEAN> 39
 -6.012084e+00 5.755671e+00 1.021857e+00 -1.606814e+00 3.406271e+00 -6.732382e+00 -9.877111e+00 -3.397727e+00 -7.628284e+00 -4.514191e+00 -3.855943e+00 -5.267565e+00 8.017689e+01 -3.757565e-01 2.249457e-02 -7.925360e-02 6.855842e-02 -2.125832e-01 3.649977e-01 5.859400e-01 5.170969e-02 1.533835e-01 1.598168e-01 9.265281e-02 2.770963e-01 -5.946732e-01 -6.778476e-02 -8.053225e-02 -1.019738e-01 -8.604913e-02 -7.811224e-02 -3.697410e-02 -4.994315e-02 -2.325300e-02 1.291452e-02 2.454326e-02 6.605238e-02 2.015152e-02 1.379840e-02
<VARIANCE> 39
 6.512817e+00 1.258055e+01 1.905192e+01 2.730247e+01 5.693744e+01 4.118032e+01 4.775695e+01 5.301288e+01 3.167481e+01 2.898907e+01 3.580860e+01 2.136621e+01 5.231073e+01 2.271817e-01 4.259194e-01 7.823168e-01 9.766629e-01 1.198877e+00 1.209846e+00 1.187190e+00 1.075879e+00 1.343202e+00 9.622599e-01 1.305663e+00 1.320824e+00 2.619420e-01 2.308879e-02 7.439163e-02 1.160112e-01 2.052175e-01 2.441723e-01 2.444652e-01 2.477328e-01 2.408409e-01 2.194566e-01 2.016673e-01 2.595058e-01 2.244381e-01 4.365983e-02
<GCONST> 8.799304e+01
<STATE> 4
<MEAN> 39
 -1.137576e+01 5.679234e+00 -1.834798e+00 -3.892013e+00 -1.769991e+00 -3.517517e+00 -5.494734e+00 -1.226466e+00 -7.231110e+00 -4.028081e+00 -1.206782e+00 -3.141106e+00 6.860343e+01 -4.522437e-01 -2.440259e-01 -2.244117e-01 -3.106630e-01 -3.634139e-01 -8.060977e-02 -1.421975e-01 -7.512954e-02 2.350183e-03 -3.020809e-02 -9.441928e-03 -2.274769e-04 -3.226324e-01 3.616507e-02 1.814519e-02 5.697131e-02 4.018338e-02 6.757102e-02 -5.221774e-02 -4.599016e-02 -3.583601e-02 -5.659983e-02 -5.169553e-02 -4.100380e-02 -7.577915e-02 7.065153e-02
<VARIANCE> 39
 1.766245e+01 1.497183e+01 1.600369e+01 1.547985e+01 4.025872e+01 4.169746e+01 2.497144e+01 2.917747e+01 1.980557e+01 2.510523e+01 2.049094e+01 1.260085e+01 6.046444e+01 4.465743e-01 5.567675e-01 7.843081e-01 8.611575e-01 1.383497e+00 1.193280e+00 9.646304e-01 1.191364e+00 1.176779e+00 1.111889e+00 1.133339e+00 9.081479e-01 3.066652e-01 7.125775e-02 9.000965e-02 1.252341e-01 1.581296e-01 2.118247e-01 2.380731e-01 2.071095e-01 2.291833e-01 2.382479e-01 2.074517e-01 2.435252e-01 1.952777e-01 3.866925e-02
<GCONST> 8.630883e+01
<TRANSP> 5
 0.000000e+00 1.000000e+00 0.000000e+00 0.000000e+00 0.000000e+00
 0.000000e+00 8.697461e-01 1.302539e-01 0.000000e+00 0.000000e+00
 0.000000e+00 0.000000e+00 7.840996e-01 2.159004e-01 0.000000e+00
 0.000000e+00 0.000000e+00 0.000000e+00 8.127894e-01 1.872105e-01
 0.000000e+00 0.000000e+00 0.000000e+00 0.000000e+00 0.000000e+00
<ENDHMM>
~h "o"
<BEGINHMM>
<NUMSTATES> 5
<STATE> 2
<MEAN> 39
 -1.841149e+00 2.856200e+00 -3.309161e+00 -9.480852e+00 -1.120398e+01 -1.814698e+01 -2.401624e+00 7.013592e+00 -3.880882e+00 -4.255198e+00 -7.339902e-01 -5.089078e+00 8.106341e+01 -6.373235e-02 3.274466e-01 1.586635e-01 8.226735e-02 -1.143079e-01 3.289213e-01 -6.476091e-02 -3.345616e-01 1.481984e-01 3.691350e-01 -9.661470e-03 -1.052978e-01 -6.149160e-01 -8.015721e-02 4.031008e-02 4.300990e-02 3.287226e-02 1.068052e-01 1.442844e-01 -5.992621e-03 -4.881180e-02 -2.888568e-02 -1.922827e-02 -1.370324e-02 2.670085e-02 -9.058585e-02
<VARIANCE> 39
 7.516608e+00 9.349026e+00 1.940499e+01 2.228466e+01 2.700601e+01 7.588625e+01 8.998335e+01 3.832994e+01 4.298817e+01 2.920215e+01 2.953052e+01 3.056646e+01 2.857296e+01 2.848395e-01 4.168566e-01 4.101040e-01 5.769554e-01 8.569751e-01 1.478437e+00 1.078626e+00 1.184916e+00 9.801768e-01 7.112451e-01 1.034897e+00 6.446648e-01 3.602668e-01 3.334399e-02 6.460394e-02 6.165085e-02 1.149621e-01 1.321050e-01 1.640470e-01 1.976040e-01 1.690557e-01 1.608262e-01 1.137626e-01 1.525999e-01 1.130994e-01 3.369554e-02
<GCONST> 8.041513e+01
<STATE> 3
<MEAN> 39
 -6.905488e+00 7.575832e+00 4.228155e-01 -9.522350e+00 -7.676946e+00 -7.409432e+00 -3.257069e+00 2.410495e+00 -2.082805e+00 -3.759596e+00 -2.146772e+00 -4.132102e+00 7.527888e+01 -6.293169e-01 4.823359e-02 3.022770e-02 4.180296e-01 4.513744e-01 7.995403e-01 -1.370016e-01 5.321221e-02 2.401687e-01 2.865776e-01 5.581264e-02 1.110651e-01 -9.040166e-01 -3.706469e-03 -1.540022e-01 -1.648561e-01 2.798853e-03 -5.860686e-02 -1.292652e-01 -4.274427e-02 -3.485764e-02 -1.287958e-02 -1.958964e-02 -1.350803e-02 1.363612e-02 8.309323e-02
<VARIANCE> 39
 3.705028e+00 8.345367e+00 1.363104e+01 3.223883e+01 2.223167e+01 2.358623e+01 7.216159e+01 1.419338e+01 3.207356e+01 3.220363e+01 1.212938e+01 1.713382e+01 1.061329e+02 3.450799e-01 6.286240e-01 8.752481e-01 8.026222e-01 1.259883e+00 1.613491e+00 1.276671e+00 6.120391e-01 1.206682e+00 1.040649e+00 9.002808e-01 8.154223e-01 2.778025e-01 4.034804e-02 8.761340e-02 1.106802e-01 1.474660e-01 2.254441e-01 2.831093e-01 2.047672e-01 1.331361e-01 2.498513e-01 2.015271e-01 1.689625e-01 1.355044e-01 3.084732e-02
<GCONST> 8.219022e+01
<STATE> 4
<MEAN> 39
 -1.246890e+01 6.057337e+00 -2.108258e+00 -4.728974e+00 -7.458690e+00 -6.176589e+00 -6.704278e+00 7.400203e-01 -2.212473e+00 2.523868e-01 -4.929535e-01 -3.318197e+00 6.368894e+01 -4.118657e-01 -1.991940e-01 -9.805833e-02 9.491397e-02 1.003708e-01 2.545312e-01 -1.300863e-01 -2.994647e-01 -2.385161e-01 -1.248205e-01 -2.735297e-02 -1.959092e-02 -2.781163e-01 3.514966e-02 3.294506e-02 6.838641e-02 -6.063921e-03 1.218361e-02 -3.131566e-02 1.761959e-02 1.649318e-02 -5.544153e-02 -1.361553e-02 -4.848561e-03 -2.842413e-02 4.456694e-02
<VARIANCE> 39
 4.875180e+00 1.659157e+01 1.583789e+01 7.911224e+00 1.843956e+01 2.062601e+01 3.110150e+01 1.407045e+01 1.430293e+01 1.425946e+01 8.809229e+00 9.689414e+00 2.617638e+01 1.280411e-01 3.105306e-01 4.724387e-01 5.560090e-01 8.545244e-01 5.812611e-01 9.485825e-01 8.988845e-01 1.035510e+00 8.445349e-01 7.808548e-01 6.873156e-01 7.792120e-02 2.159481e-02 5.591740e-02 8.480828e-02 8.602975e-02 1.404820e-01 1.268799e-01 1.715240e-01 1.562138e-01 1.875265e-01 1.506222e-01 1.582007e-01 1.327389e-01 1.294824e-02
<GCONST> 6.616035e+01
<TRANSP> 5
 0.000000e+00 1.000000e+00 0.000000e+00 0.000000e+00 0.000000e+00
 0.000000e+00 9.264532e-01 7.354678e-02 0.000000e+00 0.000000e+00
 0.000000e+00 0.000000e+00 8.761573e-01 1.238427e-01 0.000000e+00
 0.000000e+00 0.000000e+00 0.000000e+00 8.951148e-01 1.048852e-01
 0.000000e+00 0.000000e+00 0.000000e+00 0.000000e+00 0.000000e+00
<ENDHMM>
~h "p"
<BEGINHMM>
<NUMSTATES> 5
<STATE> 2
<MEAN> 39
 -3.427166e+00 7.336825e-01 -5.762514e+00 -4.304025e+00 -7.317003e+00 -1.549922e+01 -4.977034e+00 3.674337e+00 -9.495916e+00 -4.707088e+00 -1.962393e+00 -5.110034e+00 8.001008e+01 -2.597162e-01 7.997292e-01 2.536044e-01 1.753309e-01 -1.693193e-01 6.622670e-01 9.760197e-02 -1.169797e-01 5.883625e-01 2.378787e-02 2.549401e-02 4.791951e-01 -1.401803e+00 -1.669787e-01 -2.642023e-02 -7.098541e-02 -1.387442e-01 -6.414038e-02 1.987302e-01 -2.953137e-02 -5.835022e-02 1.888076e-01 5.778977e-02 5.557002e-02 1.436250e-01 -9.868430e-02
<VARIANCE> 39
 2.284701e+01 3.765553e+01 3.549802e+01 2.679506e+01 9.249245e+01 8.127524e+01 4.750821e+01 5.595603e+01 6.795058e+01 3.696546e+01 2.631432e+01 3.082520e+01 8.102350e+01 2.127002e+00 3.277403e+00 2.747320e+00 2.499518e+00 3.037526e+00 6.399669e+00 2.327782e+00 2.458267e+00 4.803731e+00 2.819372e+00 1.888752e+00 2.334422e+00 5.154703e+00 3.522851e-01 4.368924e-01 4.349171e-01 3.948331e-01 5.913236e-01 9.264617e-01 4.716236e-01 4.266512e-01 7.880265e-01 4.900849e-01 3.128081e-01 3.847490e-01 6.569807e-01
<GCONST> 1.260070e+02
<STATE> 3
<MEAN> 39
 -8.440515e+00 4.038242e+00 -5.282153e+00 -4.746051e+00 -2.448520e+00 -6.298723e+00 -1.022227e+01 -4.354086e+00 -8.808878e+00 -2.988361e+00 4.122734e-01 -2.514312e+00 7.053672e+01 -7.670549e-01 1.308647e-01 -2.202392e-02 -2.629510e-01 -4.543186e-01 3.686140e-01 -2.361096e-02 -1.942537e-01 4.482863e-01 -8.804810e-02 -1.720193e-01 2.793371e-01 -7.126721e-01 -6.665774e-02 -2.122250e-01 -6.376437e-03 -1.230900e-01 5.881912e-02 -1.714733e-01 3.969280e-02 4.641265e-02 -9.402051e-02 -6.717463e-02 -1.074141e-01 -1.717540e-01 5.749921e-01
<VARIANCE> 39
 8.336933e+00 2.289318e+01 1.407777e+01 1.562559e+01 2.482108e+01 1.911856e+01 2.620124e+01 2.354243e+01 2.941513e+01 2.856863e+01 1.814527e+01 2.459519e+01 4.692959e+01 9.814339e-01 1.320822e+00 1.406610e+00 1.250819e+00 1.950065e+00 1.944432e+00 1.589099e+00 1.599729e+00 2.158329e+00 1.611927e+00 1.587736e+00 1.743522e+00 3.143899e+00 1.723318e-01 2.196955e-01 2.768224e-01 2.919974e-01 3.785008e-01 3.630165e-01 3.053882e-01 3.181552e-01 4.407065e-01 3.071296e-01 3.170960e-01 3.177263e-01 3.284667e-01
<GCONST> 1.025797e+02
<STATE> 4
<MEAN> 39
 -1.106684e+01 2.916121e+00 -4.560983e+00 -7.028408e+00 -4.853861e+00 -6.937165e+00 -5.568120e+00 -1.683660e+00 -6.501736e+00 -4.493859e+00 -3.375300e+00 -4.092162e+00 7.591396e+01 6.267797e-01 -7.565103e-01 -5.018452e-01 -6.515992e-01 -6.942625e-01 -7.327431e-01 1.935512e-01 4.619156e-01 -1.290386e-01 -1.303375e-01 4.455590e-02 -4.645663e-01 1.830704e+00 4.332294e-01 1.471244e-02 -5.415420e-02 1.075233e-01 -1.135653e-02 -2.006531e-01 1.243593e-01 1.988157e-01 -2.716014e-01 -4.175700e-03 1.065043e-01 -1.467258e-01 2.564395e-02
<VARIANCE> 39
 4.041322e+01 3.897934e+01 3.926678e+01 3.644044e+01 4.673083e+01 6.392077e+01 4.952958e+01 2.834229e+01 2.946392e+01 2.864140e+01 2.314266e+01 2.187588e+01 1.461054e+02 5.785118e+00 3.708481e+00 3.893309e+00 3.645292e+00 3.698914e+00 5.278876e+00 3.675467e+00 3.602489e+00 3.505692e+00 2.400070e+00 2.020523e+00 3.089820e+00 6.765711e+00 1.011169e+00 6.111444e-01 6.410776e-01 6.305791e-01 7.125979e-01 9.990453e-01 7.188875e-01 6.841953e-01 5.863805e-01 5.064129e-01 3.372056e-01 4.325085e-01 1.207359e+00
<GCONST> 1.312634e+02
<TRANSP> 5
 0.000000e+00 1.000000e+00 0.000000e+00 0.000000e+00 0.000000e+00
 0.000000e+00 7.084039e-01 2.915961e-01 0.000000e+00 0.000000e+00
 0.000000e+00 0.000000e+00 8.167756e-01 1.832244e-01 0.000000e+00
 0.000000e+00 0.000000e+00 0.000000e+00 7.955964e-01 2.044036e-01
 0.000000e+00 0.000000e+00 0.000000e+00 0.000000e+00 0.000000e+00
<ENDHMM>
~h "r"
<BEGINHMM>
<NUMSTATES> 5
<STATE> 2
<MEAN> 39
 -7.484909e+00 -2.983371e-01 -6.506864e+00 -5.026892e+00 1.692040e-01 -9.872354e+00 -1.320203e+01 -7.145636e+00 -1.158983e+01 -6.625207e-01 3.465465e+00 -3.176308e+00 7.675171e+01 -2.374430e-01 3.842673e-01 7.725224e-03 2.233150e-01 1.528815e-01 3.673074e-01 2.413034e-01 -1.059124e-01 3.019532e-02 -3.041388e-01 -3.142526e-01 -1.292377e-02 -6.643795e-01 -1.012378e-01 1.625909e-01 1.944645e-01 1.180267e-01 7.383981e-02 1.283526e-01 2.375501e-01 6.398965e-02 5.695989e-02 -6.101496e-02 -2.041768e-01 -1.309905e-01 8.005515e-02
<VARIANCE> 39
 1.565964e+01 1.943201e+01 1.915119e+01 2.360100e+01 3.300556e+01 3.103076e+01 3.394621e+01 2.671759e+01 3.220222e+01 4.151825e+01 2.591519e+01 2.276444e+01 9.008788e+01 1.008450e+00 1.040947e+00 2.009929e+00 1.734918e+00 2.058893e+00 2.063981e+00 1.838240e+00 1.411401e+00 2.435592e+00 1.965514e+00 2.030963e+00 1.647711e+00 8.207748e-01 2.727177e-01 1.840587e-01 3.765861e-01 3.178328e-01 3.555247e-01 4.369184e-01 3.328294e-01 3.448786e-01 4.654200e-01 3.824296e-01 3.636975e-01 3.485469e-01 2.098853e-01
<GCONST> 1.071096e+02
<STATE> 3
<MEAN> 39
 -8.588336e+00 4.004042e+00 -3.522661e+00 -3.746747e+00 1.207576e+00 -5.508624e+00 -7.689631e+00 -4.001550e+00 -1.077803e+01 -3.288568e+00 4.106090e-01 -3.966412e+00 7.514422e+01 -3.875815e-01 4.594784e-01 4.688793e-01 1.580876e-01 4.291596e-02 5.663458e-01 5.107253e-01 3.343287e-01 2.629433e-01 -3.267015e-01 -5.140173e-01 -1.749171e-01 -4.470279e-01 -5.847988e-02 -2.862240e-01 -1.760110e-02 -1.034531e-01 -1.737888e-01 -2.967031e-01 -6.260473e-02 -6.294741e-02 -1.096085e-01 6.830187e-02 4.609727e-02 2.053497e-02 3.251128e-01
<VARIANCE> 39
 2.793017e+01 3.234630e+01 2.505454e+01 3.697108e+01 2.694111e+01 3.562732e+01 3.250702e+01 3.184357e+01 3.007582e+01 3.758631e+01 2.656041e+01 2.179447e+01 7.968154e+01 2.485752e+00 2.317194e+00 3.166008e+00 2.413764e+00 2.875331e+00 3.336859e+00 2.400617e+00 2.358026e+00 3.970690e+00 2.543854e+00 2.462348e+00 2.105078e+00 3.190807e+00 4.576433e-01 3.688024e-01 5.514424e-01 4.079669e-01 4.937352e-01 5.945078e-01 4.225335e-01 5.277362e-01 7.786244e-01 4.870881e-01 4.662094e-01 4.543331e-01 5.438454e-01
<GCONST> 1.206628e+02
<STATE> 4
<MEAN> 39
 -1.054350e+01 2.466649e+00 -1.125015e-01 -2.251265e+00 4.340405e+00 -1.001746e+01 -7.916423e+00 -5.083525e+00 -1.444043e+01 -5.342925e+00 -2.892394e+00 -6.717974e+00 8.162372e+01 -2.920615e-01 -2.043092e-01 2.834509e-01 2.623627e-01 5.485969e-02 -2.568144e-01 -9.447815e-02 -1.639434e-01 -1.349844e-01 9.280510e-03 -4.146769e-02 -9.468007e-02 1.787264e-01 7.668951e-02 -5.030539e-02 -1.980512e-02 7.292095e-02 -7.371444e-02 -4.426923e-02 -4.499014e-02 -4.072968e-03 4.670702e-02 6.079650e-02 1.030994e-01 7.578237e-02 -1.250540e-01
<VARIANCE> 39
 3.813406e+01 3.970675e+01 4.715198e+01 8.985693e+01 6.322873e+01 8.508657e+01 4.556148e+01 3.626801e+01 5.841444e+01 5.231901e+01 3.779208e+01 3.591394e+01 5.321000e+01 4.279050e+00 3.743700e+00 4.191134e+00 7.819325e+00 4.582968e+00 9.393008e+00 4.450171e+00 3.592983e+00 6.724239e+00 4.355312e+00 3.110273e+00 3.667380e+00 5.522223e+00 8.200904e-01 5.933734e-01 7.967876e-01 1.413932e+00 7.372813e-01 1.734449e+00 8.856465e-01 6.547899e-01 1.296949e+00 8.922877e-01 6.386685e-01 7.379957e-01 8.007337e-01
<GCONST> 1.411535e+02
<TRANSP> 5
 0.000000e+00 1.000000e+00 0.000000e+00 0.000000e+00 0.000000e+00
 0.000000e+00 7.086487e-01 2.913513e-01 0.000000e+00 0.000000e+00
 0.000000e+00 0.000000e+00 6.743906e-01 3.256095e-01 0.000000e+00
 0.000000e+00 0.000000e+00 0.000000e+00 8.050311e-01 1.949689e-01
 0.000000e+00 0.000000e+00 0.000000e+00 0.000000e+00 0.000000e+00
<ENDHMM>
~h "s"
<BEGINHMM>
<NUMSTATES> 5
<STATE> 2
<MEAN> 39
 -1.543400e+01 1.849585e+00 -2.394653e+00 -4.988077e+00 -2.863363e+00 -4.732743e+00 -7.582522e+00 -3.712412e+00 -9.489800e+00 -5.309299e+00 -3.209227e+00 -5.192872e+00 7.196356e+01 -1.947650e-01 3.752273e-02 7.305384e-02 -1.090162e-01 3.271881e-02 1.100330e-01 -1.494285e-03 -3.018450e-02 6.085717e-02 1.716057e-01 6.608993e-02 1.343791e-02 -2.669433e-02 -1.904620e-01 -2.336642e-03 1.375245e-01 -1.009622e-01 7.672729e-02 -1.290501e-02 -4.840584e-03 -5.050229e-02 -3.241419e-02 7.157396e-02 7.522528e-03 2.046554e-02 1.057745e-01
<VARIANCE> 39
 2.729525e+01 2.531827e+01 1.716729e+01 2.228654e+01 1.628883e+01 2.417527e+01 1.710071e+01 1.849170e+01 1.988289e+01 2.492945e+01 2.250406e+01 1.544529e+01 1.615650e+02 6.189482e-01 8.114237e-01 1.037271e+00 9.306026e-01 1.121171e+00 1.471742e+00 1.173874e+00 1.322264e+00 1.377123e+00 1.062609e+00 1.099342e+00 8.517768e-01 4.413114e-01 2.849367e-01 1.981606e-01 2.682953e-01 2.170399e-01 2.591422e-01 3.633105e-01 2.336435e-01 2.450382e-01 3.454961e-01 2.837940e-01 2.396898e-01 2.066282e-01 1.710327e-01
<GCONST> 9.471584e+01
<STATE> 3
<MEAN> 39
 -1.610826e+01 1.898602e+00 -1.999709e+00 -4.178993e+00 -2.567413e+00 -3.984939e+00 -7.908080e+00 -2.971117e+00 -8.484317e+00 -4.014493e+00 -2.215280e+00 -4.508493e+00 6.929819e+01 -9.830990e-01 1.724660e-04 6.875049e-01 -6.550117e-01 3.465803e-01 -7.911895e-02 9.131125e-02 -1.796929e-01 -2.290566e-03 4.016577e-01 -8.952056e-02 -2.890841e-02 5.927637e-01 -2.575848e-01 -1.217809e-01 2.790431e-01 -1.557608e-01 6.059973e-02 -3.411565e-02 8.975971e-03 -1.077144e-01 -4.306586e-02 6.566137e-02 -3.986820e-02 -5.131821e-03 2.146447e-01
<VARIANCE> 39
 2.512887e+01 1.593645e+01 1.556846e+01 2.193820e+01 1.553197e+01 2.307797e+01 1.606648e+01 1.875297e+01 1.994243e+01 2.331611e+01 1.662505e+01 1.324960e+01 1.904310e+02 1.568180e+00 1.598594e+00 2.341851e+00 1.976515e+00 1.825505e+00 2.243774e+00 1.750109e+00 1.680185e+00 1.710333e+00 1.659901e+00 1.341584e+00 1.213896e+00 9.739390e-01 3.620529e-01 2.165431e-01 3.258615e-01 2.832414e-01 2.896806e-01 2.912697e-01 2.728702e-01 2.799119e-01 3.397130e-01 2.782228e-01 2.358010e-01 2.019172e-01 2.045710e-01
<GCONST> 1.013603e+02
<STATE> 4
<MEAN> 39
 -2.252192e+01 4.525082e-01 3.258769e+00 -8.601448e+00 -1.125623e+00 -3.797826e+00 -7.111602e+00 -3.962035e+00 -8.070315e+00 -3.172380e+00 -2.503304e+00 -4.086829e+00 7.538004e+01 -2.639754e-01 -1.986350e-01 1.224829e-01 -2.627292e-01 -7.358742e-02 -7.383156e-02 1.033395e-01 5.997139e-02 3.995578e-02 2.360851e-01 1.737665e-02 5.242282e-02 1.599884e-01 3.791740e-01 -1.394097e-02 -2.214084e-01 1.545050e-01 -1.574109e-01 -5.421510e-02 -5.987249e-02 2.010118e-02 -6.014874e-02 -5.652777e-02 5.364998e-02 -2.116513e-02 -1.525960e-01
<VARIANCE> 39
 6.525521e+01 3.247167e+01 4.971767e+01 3.439492e+01 2.978976e+01 3.230494e+01 2.800261e+01 2.246868e+01 2.895425e+01 2.641401e+01 2.315900e+01 1.788056e+01 1.653855e+02 6.612836e+00 2.474788e+00 4.032882e+00 2.391573e+00 2.191415e+00 2.468217e+00 2.412628e+00 1.925658e+00 2.106626e+00 1.877990e+00 1.492594e+00 1.552215e+00 2.347507e+00 8.427872e-01 5.443577e-01 6.278143e-01 5.079378e-01 4.729217e-01 5.002910e-01 5.496572e-01 4.147919e-01 4.298573e-01 3.694406e-01 3.292500e-01 3.204770e-01 3.764057e-01
<GCONST> 1.193144e+02
<TRANSP> 5
 0.000000e+00 1.000000e+00 0.000000e+00 0.000000e+00 0.000000e+00
 0.000000e+00 4.976143e-01 5.023857e-01 0.000000e+00 0.000000e+00
 0.000000e+00 0.000000e+00 1.755125e-01 8.244875e-01 0.000000e+00
 0.000000e+00 0.000000e+00 0.000000e+00 7.266477e-01 2.733523e-01
 0.000000e+00 0.000000e+00 0.000000e+00 0.000000e+00 0.000000e+00
<ENDHMM>
~h "t"
<BEGINHMM>
<NUMSTATES> 5
<STATE> 2
<MEAN> 39
 -1.564370e+01 7.310967e-01 6.494815e-01 -5.243860e+00 -2.554413e+00 -6.516050e+00 -7.476872e+00 -5.239370e+00 -1.023752e+01 -4.623564e+00 -2.222310e+00 -4.263598e+00 7.577068e+01 3.398363e-01 -6.046872e-01 3.181445e-01 2.339029e-01 4.676757e-01 -8.395103e-01 4.347982e-02 8.200051e-02 -5.954748e-01 -3.858285e-01 4.464760e-04 -1.672782e-01 1.668478e+00 4.297277e-01 1.410096e-01 -7.438827e-02 1.189478e-01 1.269129e-01 -1.859152e-01 -5.998848e-02 2.850732e-01 -1.720927e-01 -1.375658e-01 -2.788085e-02 -1.551359e-01 -5.056144e-02
<VARIANCE> 39
 4.103905e+01 4.082562e+01 4.818018e+01 5.227431e+01 4.111694e+01 5.399658e+01 4.532394e+01 4.492026e+01 4.179062e+01 3.100668e+01 2.952966e+01 1.980939e+01 1.307837e+02 5.697649e+00 5.125305e+00 4.756011e+00 5.388235e+00 4.745148e+00 5.538014e+00 3.977043e+00 5.626443e+00 5.647671e+00 3.799361e+00 3.777729e+00 2.782350e+00 8.164635e+00 8.233568e-01 8.955508e-01 7.766487e-01 8.240990e-01 7.301444e-01 8.327357e-01 7.597518e-01 9.421782e-01 9.648206e-01 6.198727e-01 5.834041e-01 4.421337e-01 1.429161e+00
<GCONST> 1.380867e+02
<STATE> 3
<MEAN> 39
 -6.851827e+00 2.478689e-01 -5.103136e-01 -2.694348e+00 -1.102393e+00 -1.500036e+01 -8.116447e+00 3.336207e-01 -1.327537e+01 -6.069420e+00 -6.370496e-01 -5.684669e+00 8.130014e+01 1.060485e+00 6.540054e-01 -5.956130e-01 3.007854e-01 1.559836e-01 1.893284e-01 -4.212846e-02 8.109511e-01 4.219911e-01 -2.205756e-02 -7.634513e-02 -3.533995e-01 -1.087127e+00 -3.967490e-01 -2.256664e-02 -1.336682e-01 -2.263889e-01 -2.624649e-01 3.451493e-01 2.714178e-02 -1.565434e-01 4.066691e-01 2.651370e-01 -5.115276e-02 3.195743e-02 -2.988532e-01
<VARIANCE> 39
 2.811924e+01 3.504577e+01 6.280133e+01 6.152382e+01 8.127262e+01 8.562532e+01 6.757357e+01 8.186895e+01 8.021420e+01 5.270124e+01 3.587414e+01 3.162662e+01 9.842187e+01 2.288903e+00 2.745711e+00 3.697093e+00 2.513298e+00 3.639175e+00 6.368909e+00 4.861489e+00 3.983463e+00 5.179774e+00 3.317691e+00 2.611262e+00 3.368622e+00 3.364466e+00 3.172063e-01 3.802699e-01 5.314587e-01 4.285737e-01 5.721689e-01 9.372730e-01 6.488163e-01 7.721400e-01 8.518125e-01 5.334447e-01 4.845390e-01 4.383960e-01 5.227067e-01
<GCONST> 1.327786e+02
<STATE> 4
<MEAN> 39
 -8.160259e+00 2.259327e+00 -3.004770e+00 -4.867521e+00 -2.484994e+00 -1.034117e+01 -1.052705e+01 -2.831925e+00 -1.049535e+01 -4.474841e+00 -4.301962e-01 -5.229376e+00 7.612746e+01 -1.834013e-01 1.255254e-01 -2.169601e-01 -7.461946e-02 -1.887681e-01 1.057529e-01 2.229519e-02 1.601016e-01 2.514317e-01 9.103365e-02 -1.803226e-01 -2.851098e-01 -4.502178e-01 -2.916480e-01 -1.321386e-01 2.143760e-01 -5.857381e-02 1.933351e-02 8.847325e-02 3.285620e-02 -1.581716e-01 7.087716e-02 4.142467e-02 -3.755842e-02 4.869334e-02 2.409230e-01
<VARIANCE> 39
 2.003348e+01 3.280677e+01 3.730767e+01 4.267939e+01 4.317303e+01 4.580498e+01 4.633093e+01 3.926656e+01 6.009307e+01 4.271569e+01 3.028913e+01 2.846101e+01 1.137389e+02 6.927832e-01 1.113090e+00 1.307453e+00 1.099043e+00 1.608274e+00 1.737728e+00 1.912160e+00 1.604936e+00 1.676093e+00 1.711737e+00 1.331339e+00 1.499860e+00 1.028114e+00 2.306242e-01 3.607503e-01 2.690256e-01 2.774510e-01 4.129322e-01 4.223968e-01 4.291445e-01 3.835772e-01 6.110826e-01 4.992702e-01 3.619591e-01 3.441993e-01 4.686077e-01
<GCONST> 1.113426e+02
<TRANSP> 5
 0.000000e+00 1.000000e+00 0.000000e+00 0.000000e+00 0.000000e+00
 0.000000e+00 8.010380e-01 1.989620e-01 0.000000e+00 0.000000e+00
 0.000000e+00 0.000000e+00 4.407422e-01 5.592578e-01 0.000000e+00
 0.000000e+00 0.000000e+00 0.000000e+00 6.368588e-01 3.631412e-01
 0.000000e+00 0.000000e+00 0.000000e+00 0.000000e+00 0.000000e+00
<ENDHMM>
~h "u"
<BEGINHMM>
<NUMSTATES> 5
<STATE> 2
<MEAN> 39
 -7.310751e+00 5.674960e+00 2.655426e+00 -2.660956e+00 3.281881e+00 -1.034027e+01 -7.652349e+00 -1.842359e+00 -1.452046e+01 -1.025926e+01 -5.545962e+00 -8.211754e+00 8.008713e+01 1.151354e-01 4.312929e-01 3.904351e-01 3.063484e-01 4.548770e-01 -2.074810e-01 1.706706e-01 5.705559e-01 -2.329186e-01 -1.279165e-01 -2.714741e-01 -2.952370e-01 3.866479e-03 -2.050654e-01 -7.227075e-02 -8.548704e-02 -4.839347e-02 -1.173153e-01 9.532696e-02 3.796444e-02 -8.082280e-02 1.702669e-01 2.213960e-01 1.172718e-01 1.280672e-01 -1.661407e-01
<VARIANCE> 39
 1.966817e+01 3.480509e+01 2.336968e+01 4.145361e+01 5.976889e+01 6.568408e+01 4.743043e+01 4.865388e+01 7.526455e+01 7.221754e+01 3.611348e+01 4.241783e+01 6.612433e+01 2.322605e+00 3.009616e+00 2.252999e+00 3.620263e+00 4.366952e+00 6.785535e+00 3.521822e+00 4.342382e+00 6.285362e+00 6.636855e+00 3.121546e+00 3.922203e+00 4.100482e+00 3.828468e-01 6.554096e-01 5.185865e-01 5.380950e-01 8.335472e-01 1.098810e+00 6.827387e-01 8.224869e-01 1.152069e+00 1.237475e+00 6.254463e-01 6.945621e-01 5.694362e-01
<GCONST> 1.346682e+02
<STATE> 3
<MEAN> 39
 -8.215246e+00 6.062215e+00 4.130969e+00 -6.354002e-01 2.625082e+00 -1.319400e+01 -7.711629e+00 1.030707e-01 -1.275052e+01 -8.692346e+00 -5.710138e+00 -9.015637e+00 7.960239e+01 -3.532998e-01 -2.911583e-01 -7.108954e-02 3.655834e-01 -1.143110e-01 -2.708448e-01 -2.800519e-01 2.655628e-01 7.311214e-01 6.608250e-01 3.443475e-01 2.172610e-01 -2.873707e-01 -2.580493e-02 -2.091534e-01 -1.823208e-01 -9.005902e-02 -1.414415e-02 1.211420e-01 -1.392303e-01 -2.195751e-01 1.368410e-01 4.869520e-02 6.264839e-02 1.144673e-01 5.766032e-02
<VARIANCE> 39
 1.872272e+01 2.922123e+01 2.270245e+01 5.038367e+01 4.025130e+01 7.606597e+01 5.001503e+01 5.896111e+01 6.092656e+01 4.672697e+01 3.516919e+01 3.496085e+01 6.517505e+01 7.915737e-01 1.577265e+00 1.657063e+00 2.380749e+00 2.232853e+00 4.316658e+00 2.084819e+00 2.906851e+00 3.274778e+00 1.939938e+00 1.943434e+00 1.987027e+00 1.258865e+00 1.293067e-01 2.515583e-01 2.863124e-01 4.063807e-01 3.957159e-01 7.652567e-01 4.347823e-01 5.078870e-01 6.624402e-01 4.494996e-01 3.844602e-01 3.461028e-01 1.607189e-01
<GCONST> 1.160393e+02
<STATE> 4
<MEAN> 39
 -8.151746e+00 8.468010e+00 3.284585e+00 -5.201036e+00 -1.955817e+00 -1.169273e+01 -6.789712e+00 -1.901261e-01 -1.215962e+01 -7.417979e+00 -7.361849e+00 -1.110644e+01 7.557704e+01 -2.141920e-01 -4.223267e-01 -4.022103e-01 8.369738e-03 -7.596423e-02 2.381131e-01 -1.160065e-01 -2.718392e-01 2.883925e-01 3.317482e-01 1.850228e-01 3.486541e-01 -2.451726e-01 1.682178e-04 -9.007451e-02 -6.180533e-02 1.108188e-02 2.881146e-02 2.482394e-02 5.330094e-03 -4.811224e-02 -3.654135e-02 -2.507474e-02 4.785737e-02 7.921837e-02 5.510443e-02
<VARIANCE> 39
 2.111046e+01 3.421657e+01 2.292563e+01 3.916870e+01 5.005376e+01 6.991817e+01 5.161275e+01 5.164040e+01 4.373569e+01 4.743698e+01 3.197253e+01 4.292465e+01 9.531540e+01 4.481713e-01 1.005587e+00 1.302341e+00 1.234338e+00 1.657961e+00 1.964679e+00 1.800796e+00 1.863642e+00 1.962033e+00 1.781035e+00 1.513557e+00 1.509981e+00 6.266686e-01 5.455131e-02 1.512418e-01 1.741133e-01 2.130603e-01 2.372263e-01 3.564720e-01 3.291248e-01 3.318082e-01 3.251569e-01 3.213754e-01 2.502203e-01 2.321903e-01 9.544358e-02
<GCONST> 1.039772e+02
<TRANSP> 5
 0.000000e+00 1.000000e+00 0.000000e+00 0.000000e+00 0.000000e+00
 0.000000e+00 7.357346e-01 2.642654e-01 0.000000e+00 0.000000e+00
 0.000000e+00 0.000000e+00 5.327728e-01 4.672272e-01 0.000000e+00
 0.000000e+00 0.000000e+00 0.000000e+00 8.451728e-01 1.548272e-01
 0.000000e+00 0.000000e+00 0.000000e+00 0.000000e+00 0.000000e+00
<ENDHMM>
~h "y"
<BEGINHMM>
<NUMSTATES> 5
<STATE> 2
<MEAN> 39
 -1.729173e+01 2.861708e+00 1.055108e+00 -8.065447e+00 -4.064074e+00 -4.741138e+00 -2.020256e+00 -4.973470e+00 -1.030992e+01 -2.953328e+00 -3.143715e+00 -5.851706e+00 7.106898e+01 1.562768e+00 9.042297e-02 2.704748e-01 -1.385344e-01 -6.859899e-01 -1.015772e+00 4.300126e-01 -1.444361e-01 -9.805725e-01 -2.786643e-02 1.255928e-01 5.146292e-02 2.146595e+00 3.722361e-01 -2.129711e-01 -3.211914e-01 3.026442e-02 -1.838260e-01 -1.946431e-01 -9.050882e-02 1.337027e-01 -3.374206e-02 3.239011e-02 1.235323e-01 8.305086e-02 3.753604e-01
<VARIANCE> 39
 3.869699e+01 3.166496e+01 2.773471e+01 2.905354e+01 2.790019e+01 3.502529e+01 3.817433e+01 4.126609e+01 3.384696e+01 4.404280e+01 1.747829e+01 1.714066e+01 3.246503e+01 4.751848e+00 3.659864e+00 2.888863e+00 2.374351e+00 3.404859e+00 4.268716e+00 2.853600e+00 3.412714e+00 2.999490e+00 3.675466e+00 1.864275e+00 1.593586e+00 3.619773e+00 6.783450e-01 8.390207e-01 5.298074e-01 4.727910e-01 5.563928e-01 7.130258e-01 5.890003e-01 4.973496e-01 6.427664e-01 6.258019e-01 3.461266e-01 3.341382e-01 4.997869e-01
<GCONST> 1.228644e+02
<STATE> 3
<MEAN> 39
 -4.442719e+00 -2.838721e+00 -4.924109e+00 -6.500615e+00 -9.714621e+00 -1.243718e+01 -1.024422e+00 -3.357056e-01 -1.179833e+01 -3.688559e+00 8.040706e-01 -3.508201e+00 8.701061e+01 4.834912e-01 -1.318411e+00 -1.389800e+00 2.114878e-01 4.679409e-01 -4.455666e-01 -3.968343e-01 3.318406e-01 5.521157e-01 6.786217e-01 7.877852e-01 2.097540e-01 1.562818e+00 -4.434527e-01 1.593358e-01 2.008017e-01 1.619263e-01 4.447763e-01 1.577181e-01 -2.579049e-01 -2.591103e-01 1.262720e-01 1.030497e-01 -7.874926e-02 -6.466485e-02 -4.949782e-01
<VARIANCE> 39
 2.009020e+01 2.196204e+01 3.360148e+01 2.707077e+01 4.193318e+01 6.368035e+01 3.047475e+01 7.536791e+01 4.291820e+01 7.317362e+01 1.711768e+01 2.516837e+01 1.955322e+01 1.565143e+00 1.653267e+00 1.635063e+00 1.950109e+00 2.497007e+00 2.133352e+00 2.261461e+00 2.842637e+00 2.845053e+00 1.898516e+00 1.572168e+00 2.322486e+00 1.723345e+00 2.829294e-01 3.587727e-01 3.353437e-01 3.415053e-01 3.954098e-01 4.274183e-01 4.036136e-01 4.640209e-01 5.320273e-01 5.242712e-01 3.303209e-01 3.846801e-01 1.727472e-01
<GCONST> 1.134665e+02
<STATE> 4
<MEAN> 39
 -7.433173e+00 -4.449883e+00 -3.596116e+00 2.328321e+00 2.200147e+00 -2.024947e+01 -1.296458e+01 -6.779845e+00 -1.207399e+01 1.500267e+00 1.370156e+00 -6.512336e+00 8.988324e+01 -6.928299e-03 1.964170e-02 1.703360e-02 5.322078e-02 1.469439e-01 -1.887487e-01 -3.236157e-01 -1.171374e-01 -1.252581e-01 1.382918e-01 7.893688e-02 -1.052523e-01 2.025289e-02 2.695023e-02 1.452385e-02 -1.372437e-02 -1.240849e-01 -1.095836e-01 9.844936e-02 1.186090e-01 9.748217e-02 -1.840859e-02 -6.388509e-02 -3.349446e-02 4.963710e-03 -2.991845e-02
<VARIANCE> 39
 1.216159e+01 1.274523e+01 2.646122e+01 3.890546e+01 4.439671e+01 4.435809e+01 3.418565e+01 4.689391e+01 9.677136e+01 7.335658e+01 3.540136e+01 4.481266e+01 6.000371e+00 3.153701e-01 3.239597e-01 1.738688e+00 3.048878e+00 3.069482e+00 3.034889e+00 2.202764e+00 1.930984e+00 1.979488e+00 2.178134e+00 1.442318e+00 2.300790e+00 1.153050e-01 2.999135e-02 5.571536e-02 1.929209e-01 2.045772e-01 2.332981e-01 2.684309e-01 2.446913e-01 2.901174e-01 2.925362e-01 3.649842e-01 2.271738e-01 3.881770e-01 2.152303e-02
<GCONST> 9.667169e+01
<TRANSP> 5
 0.000000e+00 1.000000e+00 0.000000e+00 0.000000e+00 0.000000e+00
 0.000000e+00 8.311206e-01 1.688794e-01 0.000000e+00 0.000000e+00
 0.000000e+00 0.000000e+00 8.320510e-01 1.679489e-01 0.000000e+00
 0.000000e+00 0.000000e+00 0.000000e+00 9.459678e-01 5.403215e-02
 0.000000e+00 0.000000e+00 0.000000e+00 0.000000e+00 0.000000e+00
<ENDHMM>
~h "ay"
<BEGINHMM>
<NUMSTATES> 5
<STATE> 2
<MEAN> 39
 -2.556129e+01 -7.255580e+00 9.472904e+00 -1.218227e+01 -4.689073e+00 -2.808905e+00 -7.918411e+00 -6.004772e+00 -7.542593e+00 5.024403e-01 -1.194728e+00 -4.138369e+00 7.496415e+01 -2.842325e+00 -1.521695e+00 2.577229e+00 -1.908024e+00 3.400029e-01 2.847878e-02 3.922146e-01 4.233188e-01 5.375478e-01 2.891651e-01 5.890458e-01 3.792650e-01 2.952857e+00 -1.436483e-01 6.912561e-01 -4.814802e-01 3.326521e-01 3.383671e-01 3.642607e-02 1.754887e-01 3.909219e-01 1.187001e-01 -2.055391e-01 -8.426742e-02 5.106896e-02 -1.832894e-01
<VARIANCE> 39
 1.786380e+01 1.177811e+01 3.528516e+01 3.332057e+01 1.900098e+01 2.353644e+01 4.811847e+01 3.998458e+01 4.110724e+01 2.321971e+01 1.369628e+01 1.433222e+01 1.372682e+02 1.252302e+00 2.336315e+00 3.008548e+00 2.027689e+00 2.414823e+00 2.373828e+00 2.299296e+00 2.102498e+00 2.437586e+00 1.523659e+00 1.413949e+00 1.257702e+00 1.108375e+00 3.047849e-01 2.817980e-01 5.360149e-01 4.588990e-01 3.567412e-01 3.747029e-01 4.471065e-01 5.186285e-01 4.742562e-01 3.229465e-01 2.683894e-01 2.581895e-01 2.700370e-01
<GCONST> 1.098323e+02
<STATE> 3
<MEAN> 39
 -3.350954e+01 -6.999094e+00 1.284966e+01 -1.387796e+01 -2.619148e+00 -2.634035e+00 -4.550236e+00 -2.135980e+00 -6.576821e+00 -3.692976e-02 -8.209556e-02 -2.807947e+00 8.279799e+01 -9.054055e-01 5.477465e-01 -2.634666e-01 -3.427899e-01 6.986986e-01 1.513143e-02 2.645104e-01 2.200141e-01 8.778554e-02 5.062784e-02 -1.849580e-01 1.740856e-01 9.276592e-01 8.211920e-01 2.262648e-01 -6.063129e-01 3.322908e-01 8.541176e-03 -3.113548e-01 -2.639390e-01 -2.978413e-01 -1.021907e-01 -1.279093e-01 -2.810354e-01 -1.180082e-01 -4.505657e-01
<VARIANCE> 39
 9.077143e+00 1.491220e+01 2.669162e+01 2.846630e+01 2.448540e+01 3.824551e+01 4.225824e+01 3.424412e+01 4.149437e+01 2.153212e+01 1.443611e+01 1.329089e+01 1.053463e+02 2.176772e+00 9.426505e-01 2.113569e+00 1.144307e+00 1.537144e+00 1.915697e+00 1.785240e+00 2.632638e+00 1.466252e+00 1.543467e+00 1.363679e+00 1.018586e+00 9.986907e-01 2.631845e-01 3.019178e-01 3.743346e-01 2.756664e-01 2.631716e-01 5.825113e-01 3.690480e-01 4.486013e-01 3.743592e-01 3.188302e-01 2.952157e-01 2.018461e-01 1.115722e-01
<GCONST> 1.038038e+02
<STATE> 4
<MEAN> 39
 -2.939504e+01 -5.552384e+00 6.769005e+00 -1.221111e+01 3.641772e-01 -8.237953e+00 -8.726809e+00 -5.539991e+00 -5.804395e+00 -1.299438e+00 -3.815499e+00 -2.705343e+00 8.315809e+01 3.185649e+00 3.189794e-01 -8.552279e-01 1.538096e+00 -6.248029e-01 -1.586300e+00 -4.999038e-01 -6.348636e-01 -5.879604e-01 -1.127480e+00 -9.185534e-01 -7.841129e-02 -3.027442e-01 8.541417e-01 3.539264e-01 1.474812e-01 5.145930e-02 -4.520835e-01 2.024503e-01 2.459171e-01 1.558407e-01 -4.053425e-01 -2.494503e-01 1.306784e-01 -5.630388e-02 -5.263165e-02
<VARIANCE> 39
 2.648224e+01 2.301391e+01 2.451735e+01 2.810732e+01 4.152700e+01 4.342744e+01 4.597067e+01 3.224527e+01 4.039232e+01 2.319783e+01 2.175753e+01 1.516745e+01 1.150804e+02 2.991606e+00 4.945397e+00 3.546928e+00 2.159525e+00 2.961103e+00 4.970065e+00 5.194524e+00 4.338590e+00 4.820189e+00 2.627929e+00 2.401462e+00 1.661917e+00 1.107224e+00 3.108363e-01 1.111316e+00 5.158389e-01 6.440340e-01 6.177032e-01 1.145515e+00 1.022189e+00 1.073055e+00 1.082860e+00 5.649638e-01 4.723277e-01 3.566083e-01 2.336823e-01
<GCONST> 1.252260e+02
<TRANSP> 5
 0.000000e+00 1.000000e+00 0.000000e+00 0.000000e+00 0.000000e+00
 0.000000e+00 6.164942e-01 3.835058e-01 0.000000e+00 0.000000e+00
 0.000000e+00 0.000000e+00 7.929187e-01 2.070813e-01 0.000000e+00
 0.000000e+00 0.000000e+00 0.000000e+00 7.594653e-01 2.405347e-01
 0.000000e+00 0.000000e+00 0.000000e+00 0.000000e+00 0.000000e+00
<ENDHMM>
~h "ny"
<BEGINHMM>
<NUMSTATES> 5
<STATE> 2
<MEAN> 39
 -9.552115e+00 6.487936e-01 -4.506546e+00 -1.229525e+00 6.157063e+00 -4.747876e+00 -6.429535e+00 -5.069787e+00 -7.055953e+00 -3.787868e-01 4.172070e+00 -2.986282e+00 7.651894e+01 -2.424246e-01 -9.567256e-02 1.002107e-02 -3.226571e-01 -5.006712e-01 1.523947e+00 7.518266e-01 -2.601354e-01 -3.764317e-01 -2.031592e-01 -2.546448e-01 1.770400e-01 -1.255919e+00 -2.616760e-02 -4.024874e-02 7.082120e-02 9.759577e-02 -1.416156e-01 -1.873933e-01 -1.391075e-01 8.674650e-02 -1.256484e-02 -9.293043e-02 -1.812341e-01 -4.911004e-02 -1.495880e-02
<VARIANCE> 39
 7.755619e+00 2.369246e+01 1.363648e+01 2.721871e+01 2.097023e+01 4.367028e+01 5.541945e+01 2.848099e+01 6.518530e+01 1.577937e+01 2.045733e+01 3.758289e+01 6.164931e+01 3.848659e-01 1.990836e+00 1.190696e+00 1.474297e+00 1.933985e+00 1.680186e+00 2.319764e+00 1.683376e+00 1.844774e+00 1.433214e+00 2.440535e+00 1.588659e+00 3.749780e-01 6.883116e-02 3.404937e-01 2.344648e-01 2.859083e-01 3.306655e-01 2.264328e-01 3.571520e-01 2.880573e-01 2.949469e-01 2.858427e-01 3.267021e-01 2.609433e-01 5.848833e-02
<GCONST> 9.978082e+01
<STATE> 3
<MEAN> 39
 -1.091824e+01 -1.594256e+00 -4.101858e+00 -2.993986e+00 -3.127130e+00 -1.226115e-01 -2.721948e+00 -5.239761e+00 -1.119925e+01 -3.667849e+00 -1.735085e+00 -1.377436e+00 7.020284e+01 -2.912558e-01 9.643694e-01 9.911048e-02 1.407723e-01 -4.150894e-01 5.297061e-02 -2.981863e-01 2.657082e-01 2.946419e-01 -2.821869e-01 -2.442202e-01 -1.539931e-01 -8.822480e-01 -2.980548e-02 1.303777e-01 3.555198e-02 -3.427765e-02 1.896499e-01 -1.080220e-01 -3.330221e-03 3.901048e-02 3.920673e-02 1.178904e-01 1.360342e-01 -4.119386e-02 6.910274e-02
<VARIANCE> 39
 3.899698e+00 3.012955e+01 1.004673e+01 1.594890e+01 3.213426e+01 1.400079e+01 3.024697e+01 1.625134e+01 1.759167e+01 1.567251e+01 1.431010e+01 1.864572e+01 2.180211e+01 2.105267e-01 1.121330e+00 5.337380e-01 8.373560e-01 1.265858e+00 1.066427e+00 1.277979e+00 1.120424e+00 1.251706e+00 1.211344e+00 1.042893e+00 9.427272e-01 1.349352e-01 3.910094e-02 2.050233e-01 8.964038e-02 1.742850e-01 1.892760e-01 2.019431e-01 2.526339e-01 2.421703e-01 2.301246e-01 2.147487e-01 2.018787e-01 1.586968e-01 2.419669e-02
<GCONST> 7.970785e+01
<STATE> 4
<MEAN> 39
 -1.426616e+01 7.554944e+00 -1.789239e+00 -3.458418e+00 -2.780759e+00 -1.263622e+00 -5.613877e+00 -3.691129e+00 -9.134346e+00 -6.350233e+00 -4.631233e+00 -5.994754e+00 6.515071e+01 -1.656494e-01 2.659778e-02 -2.022116e-02 -1.156686e-01 -1.645748e-01 -1.354926e-01 -1.043516e-01 4.508436e-03 9.941425e-03 -8.281523e-02 -1.094396e-01 -7.488025e-02 -1.480202e-01 1.129902e-02 -5.611142e-02 -9.935137e-03 -3.319785e-03 5.070664e-03 8.320835e-03 1.716912e-02 -2.215867e-02 -2.278175e-02 1.815893e-03 2.450789e-02 2.315885e-02 3.834422e-02
<VARIANCE> 39
 3.680980e+00 8.111192e+00 7.030734e+00 1.093482e+01 1.123129e+01 1.139693e+01 1.257124e+01 9.565327e+00 1.204663e+01 1.602953e+01 1.590564e+01 1.286726e+01 4.343587e+00 1.123487e-01 2.844720e-01 2.893561e-01 4.448439e-01 5.783790e-01 6.864507e-01 7.837614e-01 8.526364e-01 8.468593e-01 7.694257e-01 6.644679e-01 6.551445e-01 6.657652e-02 1.739906e-02 5.036396e-02 5.156142e-02 9.429169e-02 1.180911e-01 1.350770e-01 1.578469e-01 1.625745e-01 1.616542e-01 1.564303e-01 1.418907e-01 1.311691e-01 1.025302e-02
<GCONST> 5.791243e+01
<TRANSP> 5
 0.000000e+00 1.000000e+00 0.000000e+00 0.000000e+00 0.000000e+00
 0.000000e+00 8.769825e-01 1.230176e-01 0.000000e+00 0.000000e+00
 0.000000e+00 0.000000e+00 8.369350e-01 1.630649e-01 0.000000e+00
 0.000000e+00 0.000000e+00 0.000000e+00 9.161168e-01 8.388329e-02
 0.000000e+00 0.000000e+00 0.000000e+00 0.000000e+00 0.000000e+00
<ENDHMM>
~h "sp"
<BEGINHMM>
<NUMSTATES> 3
<STATE> 2
~s "silst"
<TRANSP> 3
 0.000000e+00 1.833445e-01 8.166555e-01
 0.000000e+00 9.279138e-01 7.208610e-02
 0.000000e+00 0.000000e+00 0.000000e+00
<ENDHMM>
~h "sil"
<BEGINHMM>
<NUMSTATES> 5
<STATE> 2
<MEAN> 39
 -1.628274e+01 2.273448e+00 -2.816469e+00 -3.184532e+00 -4.077975e+00 -3.390414e+00 -9.072330e+00 -2.901320e+00 -8.209042e+00 -5.084683e+00 -2.978892e+00 -3.277930e+00 6.481026e+01 -5.557045e-02 3.030633e-02 4.339980e-02 1.063521e-01 4.884236e-03 5.919944e-02 3.134597e-02 1.390354e-02 2.509455e-02 2.391715e-02 -4.750706e-02 -1.952485e-02 -1.203199e-01 -3.303007e-03 4.497001e-03 9.711255e-03 2.814676e-03 2.369757e-02 1.791295e-02 2.811988e-02 2.959611e-02 1.727776e-02 1.192402e-02 1.471439e-04 -4.980785e-03 1.507839e-02
<VARIANCE> 39
 9.700045e+00 1.595885e+01 1.967643e+01 2.375932e+01 1.887472e+01 1.766866e+01 1.451141e+01 1.454592e+01 1.377660e+01 1.485921e+01 1.226252e+01 1.210223e+01 1.922846e+02 1.272796e-01 2.173089e-01 3.212080e-01 4.599896e-01 5.666891e-01 6.331984e-01 7.523862e-01 7.810796e-01 8.109621e-01 7.710330e-01 6.914412e-01 6.598809e-01 6.700737e-02 1.837378e-02 3.685685e-02 5.665926e-02 8.041739e-02 1.057288e-01 1.220404e-01 1.422772e-01 1.473852e-01 1.526078e-01 1.420663e-01 1.315247e-01 1.232294e-01 7.296596e-03
<GCONST> 6.481772e+01
<STATE> 3
~s "silst"
<STATE> 4
<MEAN> 39
 -1.845926e+01 2.864619e+00 -2.353023e+00 -4.652974e+00 -3.222911e+00 -2.623653e+00 -7.888148e+00 -2.426172e+00 -7.249361e+00 -5.429671e+00 -2.597164e+00 -3.412322e+00 6.374556e+01 -8.840638e-02 8.075773e-03 4.696650e-02 -3.156139e-02 2.979909e-02 3.670673e-02 -1.724401e-02 -2.222751e-02 4.674665e-02 -2.415335e-03 2.338794e-02 -4.455611e-02 -1.366397e-03 1.362971e-02 -3.401721e-03 -9.911338e-03 4.298415e-03 -1.195572e-02 6.642165e-03 -4.672100e-03 -1.888864e-02 -1.572461e-03 7.457734e-03 -2.413174e-03 -6.519419e-03 -5.005657e-03
<VARIANCE> 39
 1.071808e+01 1.430064e+01 1.793957e+01 2.525046e+01 1.869731e+01 1.393234e+01 1.729823e+01 1.401570e+01 1.787187e+01 2.191019e+01 1.189202e+01 1.237233e+01 1.469653e+02 7.771127e-01 7.544915e-01 1.101293e+00 1.538274e+00 1.248424e+00 1.115988e+00 1.396270e+00 1.258678e+00 1.658908e+00 1.436829e+00 1.149135e+00 9.979638e-01 7.111937e-01 1.566174e-01 1.435311e-01 2.111022e-01 2.923837e-01 2.504249e-01 2.243524e-01 2.751028e-01 2.366818e-01 3.194592e-01 2.562737e-01 2.153946e-01 1.889669e-01 1.322336e-01
<GCONST> 9.146556e+01
<TRANSP> 5
 0.000000e+00 1.000000e+00 0.000000e+00 0.000000e+00 0.000000e+00
 0.000000e+00 8.472036e-01 7.786966e-02 7.492677e-02 0.000000e+00
 0.000000e+00 0.000000e+00 9.359292e-01 6.407082e-02 0.000000e+00
 0.000000e+00 1.044119e-01 0.000000e+00 7.208140e-01 1.747741e-01
 0.000000e+00 0.000000e+00 0.000000e+00 0.000000e+00 0.000000e+00
<ENDHMM>
