~o
<STREAMINFO> 1 39
<VECSIZE> 39<NULLD><MFCC_D_A_0><DIAGC>
~s "silst"
<MEAN> 39
 -1.735754e+01 4.524895e+00 -3.644554e+00 -5.236591e+00 -3.792429e+00 -2.385004e+00 -5.725243e+00 -3.124820e+00 -7.479540e+00 -4.711563e+00 -2.699771e+00 -4.604170e+00 6.400124e+01 -9.132681e-02 -9.312871e-02 -9.011420e-03 3.162534e-02 -2.918012e-03 2.196566e-02 -3.069923e-02 -2.402602e-02 -2.857015e-02 5.406831e-02 -3.565626e-02 -3.338312e-02 -5.988774e-02 -1.035984e-02 -2.301580e-02 4.032528e-02 -2.573099e-02 7.705714e-03 -1.887974e-02 -5.797917e-03 -5.415009e-03 7.484704e-03 -1.647133e-03 5.903388e-03 9.186304e-03 7.240878e-02
<VARIANCE> 39
 4.410537e+00 6.799228e+00 7.605062e+00 8.791162e+00 9.919198e+00 9.629973e+00 1.102050e+01 1.141771e+01 1.227495e+01 1.225652e+01 1.185255e+01 9.087653e+00 2.483596e+00 2.223565e-01 4.356090e-01 6.612677e-01 7.209454e-01 8.350763e-01 8.895425e-01 1.000772e+00 1.057133e+00 1.068581e+00 8.944564e-01 9.650235e-01 8.395687e-01 1.431467e-01 5.595477e-02 1.010984e-01 1.396246e-01 1.609457e-01 1.782469e-01 1.814000e-01 2.040610e-01 2.247850e-01 2.313452e-01 1.855714e-01 2.055749e-01 1.656215e-01 4.320855e-02
<GCONST> 6.860802e+01
~h "a"
<BEGINHMM>
<NUMSTATES> 5
<STATE> 2
<MEAN> 39
 -5.974679e+00 -2.798802e-01 -6.398014e+00 -8.041859e+00 -4.773494e+00 -1.109775e+01 -1.854268e+00 -5.090432e-01 -1.296956e+01 -4.906334e-01 -1.518175e+00 -5.667493e+00 8.256970e+01 -4.736450e-02 -2.263171e-01 -1.967884e-01 -3.141269e-01 -5.519419e-02 3.071794e-01 4.044172e-01 1.763152e-01 1.074024e-01 1.765463e-01 1.140225e-01 -1.093361e-02 5.971917e-03 -1.791009e-01 8.989331e-02 2.027049e-01 8.825345e-02 1.589535e-01 1.439001e-01 -1.445610e-01 -1.486159e-01 2.941235e-02 -1.117674e-01 4.158784e-02 4.693767e-02 -1.384833e-01
<VARIANCE> 39
 3.502378e+01 3.504661e+01 3.129146e+01 2.915335e+01 5.166437e+01 7.312375e+01 4.293761e+01 4.703929e+01 5.430116e+01 5.838613e+01 3.237251e+01 2.760185e+01 8.969759e+01 6.614849e-01 1.148547e+00 1.244795e+00 1.143589e+00 1.444531e+00 1.945486e+00 1.820170e+00 1.768879e+00 1.949597e+00 1.726220e+00 1.694398e+00 1.469507e+00 9.575002e-01 1.771808e-01 1.821128e-01 2.187996e-01 2.128676e-01 3.114527e-01 3.630842e-01 3.369956e-01 3.397790e-01 4.055776e-01 3.334183e-01 2.724319e-01 2.965406e-01 1.179512e-01
<GCONST> 1.076687e+02
<STATE> 3
<MEAN> 39
 -8.960358e+00 2.289333e+00 -5.229279e+00 -7.826745e+00 -4.358104e+00 -6.619213e+00 -2.071511e+00 -1.898372e+00 -1.008295e+01 -2.486731e+00 -2.604712e+00 -5.490457e+00 7.746725e+01 -2.340291e-01 1.347141e-01 1.773508e-01 -3.055733e-02 1.873458e-01 1.909849e-01 -4.631195e-02 -1.062051e-01 -5.987848e-02 1.002668e-02 1.113171e-01 4.229426e-02 -2.515114e-01 -2.304219e-02 1.102455e-01 9.393728e-02 7.990446e-02 9.823120e-02 2.839797e-03 -5.917707e-02 -7.484350e-02 -2.405230e-02 -3.252501e-02 -4.258136e-03 4.891301e-02 -5.728657e-02
<VARIANCE> 39
 2.808715e+01 3.850008e+01 2.487336e+01 2.410618e+01 3.936961e+01 4.262929e+01 4.795204e+01 3.730123e+01 3.086225e+01 4.393695e+01 2.548018e+01 1.877407e+01 1.100414e+02 3.657774e-01 8.613299e-01 8.347648e-01 8.956924e-01 1.036439e+00 1.290719e+00 1.185221e+00 1.093062e+00 1.264953e+00 1.182233e+00 1.270485e+00 9.756363e-01 4.987839e-01 8.676673e-02 1.420907e-01 1.578614e-01 1.681431e-01 2.155026e-01 2.650712e-01 2.533928e-01 2.761356e-01 2.688493e-01 2.223437e-01 2.246131e-01 2.064275e-01 8.298449e-02
<GCONST> 9.515900e+01
<STATE> 4
<MEAN> 39
 -9.567780e+00 1.377716e+00 -4.387059e+00 -7.256508e+00 -2.390612e+00 -5.828085e+00 -3.839424e+00 -3.883187e+00 -1.022432e+01 3.104135e-01 -1.116151e+00 -5.284210e+00 7.746304e+01 -1.515329e-01 3.921652e-01 3.157979e-01 2.563069e-01 3.399428e-01 1.529081e-01 -1.719527e-01 -1.097505e-01 -1.782063e-02 -2.804976e-01 -2.778518e-02 1.313811e-01 -5.109565e-01 4.449164e-02 8.428153e-02 8.519083e-03 1.228387e-01 4.547421e-02 2.587261e-02 -1.270274e-02 -2.895195e-02 4.913249e-02 -1.000760e-01 -1.383319e-02 3.959220e-02 -8.294718e-02
<VARIANCE> 39
 3.833765e+01 3.310984e+01 2.424618e+01 2.820989e+01 3.825080e+01 4.443098e+01 3.855957e+01 5.375751e+01 3.446740e+01 5.832771e+01 3.646459e+01 2.624964e+01 1.050936e+02 5.183688e-01 1.291962e+00 1.402093e+00 1.469548e+00 1.543839e+00 1.991543e+00 1.972606e+00 1.794030e+00 1.730475e+00 2.001663e+00 1.858200e+00 1.553965e+00 9.883840e-01 1.333623e-01 3.344791e-01 2.650047e-01 2.520801e-01 3.293864e-01 3.745549e-01 3.607266e-01 3.529086e-01 3.454323e-01 3.607365e-01 3.405114e-01 2.649165e-01 2.718281e-01
<GCONST> 1.087909e+02
<TRANSP> 5
 0.000000e+00 1.000000e+00 0.000000e+00 0.000000e+00 0.000000e+00
 0.000000e+00 4.922104e-01 5.077896e-01 0.000000e+00 0.000000e+00
 0.000000e+00 0.000000e+00 5.014215e-01 4.985786e-01 0.000000e+00
 0.000000e+00 0.000000e+00 0.000000e+00 4.530925e-01 5.469075e-01
 0.000000e+00 0.000000e+00 0.000000e+00 0.000000e+00 0.000000e+00
<ENDHMM>
~h "b"
<BEGINHMM>
<NUMSTATES> 5
<STATE> 2
<MEAN> 39
 -2.533254e+01 -3.892375e-01 7.289503e+00 -1.477168e+01 2.467158e+00 -3.471480e+00 -7.713656e+00 -4.508949e+00 -7.942111e+00 -9.880150e-01 -7.384704e-01 -3.824782e+00 8.253542e+01 -2.673899e-01 -3.126532e-01 2.907612e-01 -3.039489e-01 2.104126e-01 -4.540160e-04 6.797941e-02 -2.621206e-02 -3.306451e-01 -1.635558e-01 -3.367842e-02 1.113025e-01 6.943613e-01 5.171570e-01 1.640050e-01 -2.072917e-01 3.262733e-01 -2.414590e-03 -1.750541e-01 -4.176122e-02 -6.906898e-02 -1.955949e-01 -1.008451e-01 -8.580270e-02 -1.000457e-01 -5.057013e-02
<VARIANCE> 39
 9.057573e+01 3.563221e+01 5.682573e+01 5.210048e+01 6.427457e+01 4.121916e+01 3.761254e+01 2.900327e+01 3.214409e+01 2.591686e+01 1.893289e+01 1.317148e+01 5.175018e+01 1.280989e+01 3.438482e+00 5.997922e+00 6.127450e+00 3.216579e+00 3.118021e+00 2.678378e+00 2.821935e+00 3.079443e+00 2.660083e+00 2.194910e+00 1.517576e+00 3.938177e+00 1.105890e+00 5.647401e-01 8.577014e-01 7.530311e-01 5.610918e-01 4.500939e-01 5.007114e-01 4.519661e-01 4.441977e-01 4.597787e-01 4.260873e-01 3.052614e-01 6.755404e-01
<GCONST> 1.274214e+02
<STATE> 3
<MEAN> 39
 -7.127784e+00 4.659058e+00 3.100788e+00 -4.692709e+00 3.053018e+00 -7.075687e+00 -7.907888e+00 -4.986997e+00 -1.582905e+01 -6.292389e+00 -3.264393e+00 -6.423131e+00 8.296994e+01 1.260684e+00 1.892176e-01 -4.910839e-01 1.333614e+00 3.970900e-01 -6.988795e-01 1.827914e-02 4.472454e-01 -4.067173e-01 -4.610296e-01 -1.411592e-01 -8.386779e-01 1.670539e-01 -6.371940e-01 -2.259307e-01 4.086365e-01 -2.399409e-01 5.902601e-02 2.036402e-01 5.890795e-02 1.266180e-01 2.743278e-01 1.191477e-01 1.404090e-01 3.837685e-02 -6.517264e-02
<VARIANCE> 39
 1.083359e+01 4.543698e+01 3.503404e+01 4.085183e+01 4.940272e+01 4.612560e+01 5.030393e+01 4.559897e+01 5.433386e+01 5.799178e+01 3.313101e+01 1.933338e+01 3.687880e+01 5.535612e+00 7.365274e+00 3.784949e+00 2.541051e+00 3.450114e+00 4.950865e+00 3.650560e+00 4.444777e+00 6.206360e+00 3.642131e+00 2.733018e+00 1.803966e+00 3.671694e+00 7.415103e-01 9.326902e-01 7.793866e-01 5.762188e-01 4.637207e-01 8.329985e-01 7.096964e-01 9.659548e-01 1.150321e+00 7.969314e-01 5.653796e-01 4.021794e-01 6.529206e-01
<GCONST> 1.318552e+02
<STATE> 4
<MEAN> 39
 -4.959210e+00 -3.309761e-01 1.093384e+00 -2.160824e+00 4.628441e+00 -1.357619e+01 -9.102693e+00 -3.846975e+00 -1.666399e+01 -5.335853e+00 2.504381e-01 -8.093706e+00 8.570047e+01 9.837180e-02 2.304618e-01 8.892433e-02 -1.805300e-01 -5.386426e-02 1.377764e-01 -2.040342e-02 1.731231e-01 2.350527e-01 7.109217e-02 -2.352131e-02 -7.014334e-03 -2.837945e-01 -2.018300e-02 9.551895e-02 3.630643e-02 6.972237e-03 -2.872101e-02 1.497150e-01 -1.557675e-02 -6.620942e-02 1.585650e-01 3.581564e-02 -1.422585e-01 1.673754e-02 -1.000452e-01
<VARIANCE> 39
 1.001356e+01 4.238870e+01 4.447260e+01 5.083566e+01 8.684314e+01 4.420467e+01 7.213844e+01 7.098389e+01 9.637312e+01 1.182110e+02 4.459153e+01 3.204405e+01 2.065545e+01 6.135847e-01 1.567671e+00 2.584004e+00 2.108754e+00 2.501498e+00 3.735787e+00 3.533768e+00 3.170492e+00 4.125274e+00 2.888941e+00 3.241877e+00 2.040411e+00 1.317375e+00 9.935367e-02 2.263673e-01 3.748269e-01 2.853298e-01 3.702289e-01 6.585792e-01 5.870346e-01 6.109316e-01 5.898318e-01 4.970733e-01 5.053371e-01 4.181342e-01 1.570705e-01
<GCONST> 1.197302e+02
<TRANSP> 5
 0.000000e+00 1.000000e+00 0.000000e+00 0.000000e+00 0.000000e+00
 0.000000e+00 8.711631e-01 1.288369e-01 0.000000e+00 0.000000e+00
 0.000000e+00 0.000000e+00 7.605498e-01 2.394502e-01 0.000000e+00
 0.000000e+00 0.000000e+00 0.000000e+00 8.923186e-01 1.076814e-01
 0.000000e+00 0.000000e+00 0.000000e+00 0.000000e+00 0.000000e+00
<ENDHMM>
~h "d"
<BEGINHMM>
<NUMSTATES> 5
<STATE> 2
<MEAN> 39
 -1.363716e+01 4.655583e+00 4.294142e+00 -6.264506e+00 -2.515021e+00 -5.085020e+00 -2.649551e+00 -4.805340e+00 -1.134474e+01 -5.042251e+00 -6.264051e+00 -4.931306e+00 7.535497e+01 2.985877e+00 1.055850e+00 -6.165890e-01 5.686708e-01 -3.491768e-01 -7.204272e-01 5.418152e-01 1.183076e-01 -1.525000e+00 -1.229537e-01 -6.028247e-02 -4.770284e-01 1.068531e+00 -3.453662e-01 -7.142219e-01 -5.719350e-01 -3.891342e-01 9.185031e-02 -2.535005e-01 -2.917261e-01 2.420716e-01 1.907123e-02 1.651599e-01 3.116131e-01 -1.412329e-02 6.167685e-01
<VARIANCE> 39
 3.691890e+01 3.198291e+01 5.022072e+01 4.386534e+01 2.706495e+01 3.726166e+01 2.781008e+01 3.560638e+01 4.634586e+01 2.127386e+01 2.684722e+01 1.684138e+01 7.971225e+01 8.479933e+00 5.146415e+00 4.812451e+00 4.524585e+00 6.004567e+00 5.054518e+00 4.365091e+00 3.782049e+00 7.310149e+00 3.178502e+00 2.562158e+00 2.745131e+00 3.204039e+00 8.683091e-01 7.872845e-01 9.035685e-01 6.302421e-01 6.819308e-01 5.910564e-01 6.888455e-01 6.901311e-01 1.255092e+00 8.567924e-01 5.691970e-01 3.688233e-01 4.620314e-01
<GCONST> 1.321269e+02
<STATE> 3
<MEAN> 39
 -5.970409e+00 2.503575e-01 2.008230e-01 -7.599802e+00 -6.761380e+00 -1.196779e+01 -2.589773e+00 -4.526539e+00 -1.635163e+01 -4.397703e+00 -5.581029e+00 -6.147063e+00 8.605233e+01 1.570994e+00 -1.220332e+00 -2.784829e+00 -1.527955e-01 -3.104353e-01 -1.150487e+00 -2.811686e-01 1.359470e+00 -3.287718e-01 7.178404e-01 1.221711e+00 -1.957924e-01 1.836985e+00 -1.062706e+00 -5.358000e-01 -2.968331e-02 -1.498749e-01 4.446404e-01 3.504856e-01 -1.482985e-01 1.292175e-01 6.982678e-01 2.758613e-01 2.753629e-01 1.920653e-01 -7.629620e-02
<VARIANCE> 39
 2.294354e+01 1.746065e+01 2.768504e+01 3.212655e+01 5.938069e+01 4.555264e+01 2.953678e+01 4.613971e+01 5.530472e+01 4.121461e+01 3.452718e+01 2.892361e+01 2.341862e+01 3.227408e+00 1.536741e+00 3.129643e+00 2.195242e+00 3.850248e+00 5.699225e+00 3.149361e+00 3.199999e+00 6.020103e+00 5.592796e+00 2.868293e+00 2.059475e+00 1.700074e+00 6.629356e-01 6.572993e-01 4.393504e-01 5.988059e-01 6.541331e-01 6.119990e-01 8.149017e-01 7.928245e-01 1.294724e+00 6.154051e-01 5.785975e-01 6.356500e-01 2.628373e-01
<GCONST> 1.260414e+02
<STATE> 4
<MEAN> 39
 -5.023167e+00 -4.685079e+00 -7.573925e+00 -6.750941e+00 -2.496551e+00 -1.528832e+01 -5.326856e+00 -2.976786e+00 -1.669827e+01 8.646742e-01 1.578231e+00 -5.728673e+00 9.028806e+01 -1.651517e-01 -1.387314e-01 -1.226667e-01 4.824665e-01 1.213633e+00 -1.994545e-01 -8.302014e-01 -3.853606e-01 -1.651895e-01 2.189221e-01 5.956850e-01 -1.375864e-01 1.024328e-02 -1.214893e-01 3.174871e-01 4.104607e-01 5.172804e-02 5.897284e-03 2.174729e-01 2.517225e-03 -1.315325e-01 1.091813e-01 -1.687293e-01 -1.582905e-01 1.227541e-02 -3.888355e-01
<VARIANCE> 39
 1.545387e+01 1.552303e+01 2.586050e+01 2.463186e+01 7.649175e+01 5.506780e+01 5.365574e+01 4.202944e+01 6.367929e+01 7.234009e+01 2.842907e+01 2.031815e+01 9.982365e+00 5.686248e-01 1.547485e+00 3.033608e+00 1.343809e+00 2.841125e+00 2.851200e+00 3.249762e+00 2.895098e+00 4.148770e+00 2.748233e+00 2.118460e+00 2.234416e+00 1.395096e+00 1.546516e-01 1.652092e-01 2.674693e-01 2.922310e-01 6.394171e-01 6.735407e-01 6.937494e-01 5.331280e-01 7.913287e-01 4.057525e-01 3.459027e-01 3.740461e-01 1.863180e-01
<GCONST> 1.137937e+02
<TRANSP> 5
 0.000000e+00 1.000000e+00 0.000000e+00 0.000000e+00 0.000000e+00
 0.000000e+00 6.261510e-01 3.738491e-01 0.000000e+00 0.000000e+00
 0.000000e+00 0.000000e+00 5.296928e-01 4.703073e-01 0.000000e+00
 0.000000e+00 0.000000e+00 0.000000e+00 8.479318e-01 1.520682e-01
 0.000000e+00 0.000000e+00 0.000000e+00 0.000000e+00 0.000000e+00
<ENDHMM>
~h "e"
<BEGINHMM>
<NUMSTATES> 5
<STATE> 2
<MEAN> 39
 -1.428729e+01 1.390612e+00 8.129676e-02 -6.054560e+00 -3.541914e+00 -5.738504e+00 -5.695444e+00 -4.087982e+00 -1.010849e+01 -4.206885e+00 -2.332575e+00 -4.499905e+00 7.721320e+01 4.139515e-01 -6.515612e-01 3.331467e-01 2.702245e-01 5.463310e-01 -3.679948e-01 -2.070469e-02 -3.193725e-01 -4.941604e-01 -2.919015e-01 -2.098225e-01 -1.174732e-01 1.689700e+00 3.548522e-01 -5.852697e-02 -5.650954e-02 2.102835e-01 2.122666e-01 -2.683324e-01 -1.478923e-01 6.938454e-02 -2.579558e-01 -1.221057e-01 1.418379e-02 -1.439142e-01 2.020065e-01
<VARIANCE> 39
 5.969826e+01 5.461927e+01 3.961095e+01 4.810206e+01 4.475623e+01 3.005024e+01 2.947131e+01 4.155322e+01 3.121147e+01 4.275934e+01 2.352235e+01 1.782678e+01 9.367106e+01 5.660393e+00 5.734382e+00 3.721156e+00 5.012905e+00 3.531082e+00 4.208869e+00 3.380642e+00 3.994472e+00 4.664485e+00 3.673476e+00 2.800873e+00 2.179086e+00 8.861877e+00 9.027907e-01 9.738236e-01 6.299083e-01 7.792686e-01 6.131992e-01 7.152572e-01 5.424729e-01 7.856201e-01 7.312694e-01 6.781093e-01 4.743956e-01 4.103864e-01 1.236698e+00
<GCONST> 1.333054e+02
<STATE> 3
<MEAN> 39
 -1.017418e+01 4.778984e-01 6.156752e+00 3.942074e+00 7.130094e+00 -9.305905e+00 -1.134065e+01 -2.951527e+00 -1.180238e+01 -6.999307e+00 -3.693591e+00 -6.992944e+00 8.276256e+01 6.041662e-01 -4.420435e-03 -2.405449e-01 2.831391e-01 4.583871e-01 -3.629698e-01 -5.169323e-01 -2.455266e-01 -2.036037e-01 -7.753471e-02 -1.920654e-02 -2.574912e-01 4.408911e-01 -1.062355e-01 7.276575e-02 -1.177205e-01 -2.389175e-01 -2.141467e-01 8.968338e-02 9.322367e-02 2.893901e-02 1.228416e-01 8.341531e-02 4.859855e-02 9.546843e-02 -2.084019e-01
<VARIANCE> 39
 3.419147e+01 4.673314e+01 6.926347e+01 7.383968e+01 4.657678e+01 6.885094e+01 5.277740e+01 6.398334e+01 8.174986e+01 7.757353e+01 3.977061e+01 4.198348e+01 4.763342e+01 5.690342e+00 5.207993e+00 4.791888e+00 4.703783e+00 3.760223e+00 6.496622e+00 5.940330e+00 4.869003e+00 8.480057e+00 4.658264e+00 3.969573e+00 3.674649e+00 5.916809e+00 1.052350e+00 9.842141e-01 8.628397e-01 8.041395e-01 6.271107e-01 9.547283e-01 1.070638e+00 8.133832e-01 1.362359e+00 8.395382e-01 7.911899e-01 6.004416e-01 1.032466e+00
<GCONST> 1.434693e+02
<STATE> 4
<MEAN> 39
 -5.131252e+00 2.394513e+00 6.070876e-01 -2.626933e+00 1.335037e+00 -8.714547e+00 -8.061108e+00 -4.390446e+00 -1.171067e+01 -7.291321e+00 -6.825106e+00 -8.650324e+00 8.277721e+01 4.754059e-02 3.875110e-01 -1.049635e-01 -2.857598e-01 -2.539598e-01 2.075245e-01 1.783942e-01 2.784543e-01 2.779912e-01 1.432004e-01 -2.319683e-02 1.319534e-01 -4.649650e-01 -1.997901e-01 -4.031941e-03 5.321405e-02 -1.042052e-01 -8.336303e-02 1.187353e-01 4.793390e-02 4.241392e-03 5.940911e-02 2.692006e-02 8.529323e-02 9.531243e-02 -6.817961e-02
<VARIANCE> 39
 1.441423e+01 3.293189e+01 4.382553e+01 4.336400e+01 4.401244e+01 7.569911e+01 8.103363e+01 6.647681e+01 1.008322e+02 1.228215e+02 7.919892e+01 3.744354e+01 3.159290e+01 1.242436e+00 1.481097e+00 1.694250e+00 1.749784e+00 2.785633e+00 4.121883e+00 2.992863e+00 2.523500e+00 3.194210e+00 2.844834e+00 3.096452e+00 2.003741e+00 1.523631e+00 2.080670e-01 2.552994e-01 3.105147e-01 2.647500e-01 4.216192e-01 7.562261e-01 5.117121e-01 4.083262e-01 6.929711e-01 5.195955e-01 5.394881e-01 3.445614e-01 2.836214e-01
<GCONST> 1.214704e+02
<TRANSP> 5
 0.000000e+00 1.000000e+00 0.000000e+00 0.000000e+00 0.000000e+00
 0.000000e+00 7.133346e-01 2.866654e-01 0.000000e+00 0.000000e+00
 0.000000e+00 0.000000e+00 7.716507e-01 2.283493e-01 0.000000e+00
 0.000000e+00 0.000000e+00 0.000000e+00 7.908964e-01 2.091035e-01
 0.000000e+00 0.000000e+00 0.000000e+00 0.000000e+00 0.000000e+00
<ENDHMM>
~h "g"
<BEGINHMM>
<NUMSTATES> 5
<STATE> 2
<MEAN> 39
 -1.515979e+01 1.780852e+00 -4.089084e+00 -8.869739e+00 -2.368458e+00 -4.798648e+00 -2.707751e+00 -3.386399e+00 -9.214322e+00 -3.553054e+00 -3.663985e+00 -2.412929e+00 7.086426e+01 -4.524100e-01 -7.744750e-01 5.800489e-01 -7.417368e-01 9.382370e-01 1.851035e-02 -1.724017e+00 -9.287688e-01 7.092713e-01 2.374963e-01 -5.431180e-01 -1.396740e-01 2.028749e+00 4.715837e-01 1.964202e-04 6.537651e-01 3.960538e-01 -1.463550e-02 -3.359967e-01 -7.555892e-01 9.668601e-02 -7.191229e-02 -1.801670e-01 7.888172e-02 -4.841106e-01 3.203417e-01
<VARIANCE> 39
 4.127708e+01 3.383866e+01 1.560434e+01 2.381031e+01 3.708615e+01 3.169389e+01 6.609851e+01 3.179938e+01 3.147799e+01 1.469059e+01 1.751899e+01 1.831090e+01 3.443850e+01 1.316274e+00 3.303345e+00 2.576142e+00 2.793880e+00 6.791371e+00 2.795802e+00 5.839567e+00 2.776602e+00 1.311010e+00 1.262205e+00 1.110650e+00 1.454905e+00 7.951859e+00 3.651094e-01 4.103944e-01 1.186436e+00 8.802416e-01 9.909066e-01 7.429653e-01 9.261835e-01 5.821612e-01 2.818246e-01 3.697691e-01 3.161983e-01 2.213528e-01 6.967833e-01
<GCONST> 1.191725e+02
<STATE> 3
<MEAN> 39
 -1.245450e+01 5.795660e-01 5.521064e+00 -4.885354e+00 1.574194e+00 -8.616486e+00 -1.465452e+01 -4.230983e+00 -8.246367e+00 -3.927531e+00 -4.311916e+00 -7.072658e+00 7.873118e+01 1.242233e+00 4.067894e-01 3.323611e+00 2.627405e+00 -6.453693e-03 -2.339097e+00 -1.662682e+00 7.667044e-01 -4.254729e-01 1.309656e-01 6.863123e-01 -1.333250e+00 2.707563e-01 -2.640085e-02 7.745298e-02 -3.563355e-01 1.154879e-01 -4.363256e-01 -2.845530e-01 9.192389e-01 5.467495e-01 -1.336479e-02 1.428665e-01 1.691503e-01 6.339638e-02 -6.730977e-01
<VARIANCE> 39
 1.788456e+01 2.876621e+01 9.144528e+01 4.668368e+01 1.101310e+02 8.251427e+01 1.504359e+02 2.392667e+01 4.485156e+01 1.013815e+01 2.449515e+01 3.735536e+01 3.339272e+01 2.179928e+00 1.807105e+00 9.861279e+00 4.797633e+00 5.720306e+00 6.278290e+00 6.192840e+00 2.311126e+00 2.297431e+00 1.947154e+00 1.822480e+00 1.614762e+00 3.121456e+00 3.064918e-01 5.979946e-01 1.427796e+00 1.301997e+00 7.535036e-01 1.102814e+00 1.015448e+00 4.525219e-01 4.596307e-01 3.880605e-01 4.139662e-01 5.496556e-01 5.088531e-01
<GCONST> 1.292960e+02
<STATE> 4
<MEAN> 39
 -9.059220e+00 2.774986e+00 1.368032e+01 2.402747e+00 1.042416e+00 -1.414710e+01 -1.196975e+01 2.181604e+00 -6.011331e+00 -1.208142e+00 -7.667789e-01 -8.039768e+00 7.756209e+01 2.142206e-01 1.005190e+00 -1.025548e+00 -1.566067e-01 -6.710039e-01 1.057333e+00 1.485856e+00 4.951729e-01 7.899925e-01 2.003256e-01 1.781215e-01 6.971846e-01 -1.106261e+00 -5.121823e-02 1.774579e-01 -5.331178e-01 -3.605587e-01 2.553712e-01 4.825529e-01 9.365501e-02 -1.871767e-01 -2.163713e-02 -1.515000e-01 -8.893788e-02 1.217442e-01 -1.498223e-01
<VARIANCE> 39
 3.671635e+00 2.839788e+01 1.003314e+02 4.125078e+01 6.946618e+01 9.255642e+01 7.184636e+01 2.536820e+01 2.877411e+01 7.650843e+00 1.416435e+01 1.976983e+01 2.801112e+01 3.375230e-01 1.891712e+00 2.321312e+00 1.348824e+00 1.523931e+00 4.831533e+00 2.883160e+00 1.493025e+00 8.657712e-01 1.104862e+00 1.190258e+00 1.714575e+00 6.336765e-01 6.323419e-02 3.880962e-01 3.967316e-01 3.016813e-01 3.375170e-01 9.048452e-01 2.886335e-01 2.650883e-01 3.394723e-01 1.430559e-01 2.555973e-01 2.572155e-01 8.409307e-02
<GCONST> 1.018429e+02
<TRANSP> 5
 0.000000e+00 1.000000e+00 0.000000e+00 0.000000e+00 0.000000e+00
 0.000000e+00 4.429247e-01 5.570753e-01 0.000000e+00 0.000000e+00
 0.000000e+00 0.000000e+00 4.908843e-01 5.091157e-01 0.000000e+00
 0.000000e+00 0.000000e+00 0.000000e+00 6.516039e-01 3.483960e-01
 0.000000e+00 0.000000e+00 0.000000e+00 0.000000e+00 0.000000e+00
<ENDHMM>
~h "h"
<BEGINHMM>
<NUMSTATES> 5
<STATE> 2
<MEAN> 39
 -1.619072e+01 -3.449710e+00 9.708026e+00 3.665505e+00 2.173159e+00 -1.285512e+01 -8.735682e+00 -7.539846e-01 -7.575257e+00 -3.953280e+00 -6.108572e+00 -5.613043e+00 8.160447e+01 -1.127724e-01 -1.689594e-01 -3.957711e-01 -3.058312e-01 -3.959075e-01 1.764475e-01 -1.810064e-02 -1.155904e-01 5.873192e-01 3.975612e-01 3.579275e-02 3.743619e-01 -4.150276e-01 1.140105e-01 1.328150e-01 -1.271074e-01 -1.911900e-02 -1.267667e-03 -5.378469e-02 -3.474100e-02 -6.233475e-02 -1.592654e-01 2.171029e-02 8.304182e-02 -5.843102e-02 -1.078154e-02
<VARIANCE> 39
 1.656259e+01 4.148183e+01 4.610795e+01 3.787706e+01 2.786736e+01 6.645979e+01 3.384587e+01 4.668071e+01 3.811762e+01 5.011367e+01 1.914966e+01 1.578339e+01 2.144293e+01 9.713821e-01 2.127997e+00 1.946297e+00 1.803671e+00 1.815813e+00 3.231635e+00 1.760211e+00 1.697956e+00 2.299903e+00 1.435061e+00 1.267067e+00 1.279725e+00 6.669214e-01 1.786626e-01 4.022862e-01 2.392763e-01 2.439028e-01 3.348616e-01 5.286467e-01 2.810174e-01 2.437736e-01 4.223032e-01 2.859536e-01 2.207470e-01 2.234193e-01 8.118723e-02
<GCONST> 1.054937e+02
<STATE> 3
<MEAN> 39
 -1.305328e+01 -3.880185e+00 3.006261e+00 1.308216e-01 -7.585460e-01 -4.912489e+00 -8.861021e+00 -5.011456e+00 -4.079268e+00 -1.032343e+00 -3.969767e+00 -4.343056e+00 7.501622e+01 1.650241e-01 6.647989e-01 -2.846156e-01 4.173042e-01 -3.367703e-01 2.500140e-01 2.672366e-01 -2.857473e-02 -2.327333e-01 -4.509971e-01 1.771189e-02 1.539697e-02 -9.553396e-01 -1.672381e-02 2.420985e-01 6.596333e-02 6.682444e-02 1.409020e-01 -6.998373e-02 8.332822e-02 4.375888e-02 -2.256142e-01 -1.639142e-01 -5.475048e-03 -1.392100e-01 3.361997e-02
<VARIANCE> 39
 1.015743e+01 5.140954e+01 2.210031e+01 3.880037e+01 3.382424e+01 4.406128e+01 3.192836e+01 4.587082e+01 3.248776e+01 3.176691e+01 2.547504e+01 1.756818e+01 2.333070e+01 6.654307e-01 1.514757e+00 1.460483e+00 1.428467e+00 1.409781e+00 1.976194e+00 2.106486e+00 1.576332e+00 1.506087e+00 1.316755e+00 1.223419e+00 1.250791e+00 2.894531e-01 1.390022e-01 2.398390e-01 2.070370e-01 2.673673e-01 2.406780e-01 2.961681e-01 2.769769e-01 3.404127e-01 2.865509e-01 2.752299e-01 2.461355e-01 2.787434e-01 4.851978e-02
<GCONST> 9.877390e+01
<STATE> 4
<MEAN> 39
 -1.304424e+01 5.148948e+00 -1.183217e+00 -2.294996e+00 -3.572417e+00 -2.736028e+00 -3.528014e+00 -1.042381e+00 -6.663655e+00 -6.075017e+00 -5.394370e+00 -5.956749e+00 6.781268e+01 -2.515870e-01 2.138393e-01 -9.321949e-02 -1.947542e-02 3.600001e-02 5.492199e-02 9.420123e-03 6.244427e-03 -1.252469e-01 -8.055933e-03 1.408048e-01 -2.421999e-02 -3.525448e-01 -3.143778e-03 -4.910997e-02 1.372959e-02 -2.545902e-02 6.564007e-02 -1.824185e-02 -3.412582e-02 5.362946e-03 -2.467039e-03 3.343427e-02 4.038569e-02 -1.887051e-02 7.287681e-02
<VARIANCE> 39
 8.097334e+00 2.677383e+01 1.928041e+01 3.216290e+01 3.002611e+01 2.263936e+01 2.181127e+01 3.146786e+01 1.813323e+01 1.604979e+01 1.534945e+01 1.282927e+01 1.397651e+01 3.331580e-01 1.172484e+00 9.360036e-01 1.274831e+00 1.406095e+00 1.054092e+00 1.247524e+00 1.693303e+00 1.396708e+00 1.152558e+00 1.032022e+00 1.031283e+00 3.620508e-01 7.562025e-02 1.723772e-01 1.633245e-01 2.259393e-01 2.621143e-01 1.805652e-01 2.464499e-01 2.762166e-01 2.706662e-01 2.052517e-01 1.788648e-01 1.987972e-01 7.000474e-02
<GCONST> 8.776971e+01
<TRANSP> 5
 0.000000e+00 1.000000e+00 0.000000e+00 0.000000e+00 0.000000e+00
 0.000000e+00 7.781203e-01 2.218798e-01 0.000000e+00 0.000000e+00
 0.000000e+00 0.000000e+00 7.170506e-01 2.829494e-01 0.000000e+00
 0.000000e+00 0.000000e+00 0.000000e+00 8.720787e-01 1.279213e-01
 0.000000e+00 0.000000e+00 0.000000e+00 0.000000e+00 0.000000e+00
<ENDHMM>
~h "i"
<BEGINHMM>
<NUMSTATES> 5
<STATE> 2
<MEAN> 39
 -1.109727e+01 1.093983e+00 6.808438e+00 3.680409e+00 8.156650e+00 -1.365571e+01 -1.338923e+01 -5.202979e+00 -1.293825e+01 -5.129308e+00 -2.421332e+00 -8.619160e+00 8.112075e+01 1.773169e-01 1.942941e-01 6.997886e-02 2.630397e-01 2.556382e-01 -3.422132e-02 -3.666356e-01 -6.997580e-02 1.394382e-01 -3.427438e-02 -6.817663e-02 -1.119924e-01 -1.776525e-01 2.157178e-02 7.989488e-02 -2.129185e-01 -1.334172e-01 -1.783801e-01 1.727538e-01 1.202068e-01 6.063352e-02 1.215557e-01 3.594123e-02 1.632067e-02 1.025116e-01 -2.183407e-01
<VARIANCE> 39
 2.291865e+01 2.905240e+01 5.635061e+01 5.402179e+01 7.085918e+01 1.082105e+02 7.666398e+01 4.843268e+01 5.454776e+01 4.419629e+01 3.614728e+01 3.456347e+01 3.759858e+01 1.658090e+00 3.224725e+00 5.202606e+00 4.526850e+00 3.977217e+00 9.148650e+00 4.598900e+00 4.016133e+00 7.065238e+00 3.616407e+00 2.803328e+00 2.756773e+00 4.793270e+00 3.121482e-01 4.704433e-01 8.355724e-01 7.089263e-01 6.150750e-01 1.363444e+00 8.664687e-01 8.436206e-01 1.283110e+00 7.321444e-01 4.720126e-01 4.762789e-01 5.140231e-01
<GCONST> 1.349556e+02
<STATE> 3
<MEAN> 39
 -8.930185e+00 4.233459e+00 6.234503e-01 -3.729959e-01 4.098592e+00 -6.624617e+00 -1.047646e+01 -5.289981e+00 -8.537271e+00 -4.659525e+00 -1.996114e+00 -5.547331e+00 7.521146e+01 2.171741e-01 7.002126e-01 -9.391801e-01 -2.595742e-01 -8.077390e-01 9.901705e-01 4.568169e-01 1.709001e-01 3.068545e-01 -3.661709e-01 -9.711329e-02 4.270685e-01 -1.378388e+00 -1.429481e-01 -3.178419e-01 3.684179e-02 5.818826e-02 -5.265976e-02 -4.392302e-01 -1.222414e-02 4.041085e-03 -3.406261e-01 3.023672e-02 1.379667e-01 -2.360732e-02 3.626816e-01
<VARIANCE> 39
 2.568151e+01 2.379862e+01 4.424460e+01 3.264206e+01 4.553580e+01 4.187953e+01 8.189397e+01 4.461368e+01 3.005311e+01 4.568562e+01 3.946567e+01 2.597220e+01 3.589228e+01 1.244497e+00 1.723806e+00 2.191675e+00 1.885375e+00 2.398141e+00 3.655593e+00 3.073400e+00 2.783978e+00 2.780374e+00 2.321155e+00 2.452774e+00 1.399339e+00 1.444334e+00 2.133926e-01 3.105972e-01 4.510139e-01 4.585190e-01 4.135773e-01 6.670963e-01 6.256166e-01 5.188451e-01 5.874462e-01 3.988465e-01 5.195246e-01 3.720873e-01 3.127972e-01
<GCONST> 1.178680e+02
<STATE> 4
<MEAN> 39
 -8.187050e+00 5.745889e+00 -1.672621e+00 -8.393495e-01 2.821182e+00 -5.102658e+00 -7.572901e+00 -4.692683e+00 -9.102616e+00 -2.380324e+00 -1.242365e+00 -4.437055e+00 7.351987e+01 -3.134086e-01 -3.637378e-02 -1.565668e-01 -2.117168e-01 -3.635708e-01 2.966414e-01 3.902895e-01 1.453748e-01 -9.631321e-03 -8.774741e-02 -7.818267e-04 8.101269e-02 -3.430097e-01 -9.268509e-02 -1.541951e-01 5.971207e-02 -1.534626e-01 7.070377e-04 -6.696810e-02 -7.821340e-03 -2.376427e-02 -2.411500e-02 -2.023529e-02 -1.149683e-02 -3.645794e-02 3.045285e-01
<VARIANCE> 39
 1.605584e+01 2.253653e+01 3.160970e+01 2.630647e+01 4.432028e+01 2.046433e+01 4.339477e+01 2.303477e+01 2.333197e+01 2.944888e+01 3.357770e+01 1.637143e+01 4.727500e+01 5.117399e-01 1.344324e+00 1.427487e+00 1.633471e+00 1.704858e+00 1.425414e+00 1.910695e+00 1.625492e+00 1.670961e+00 1.513346e+00 1.382279e+00 1.233357e+00 1.153864e+00 7.994404e-02 2.637993e-01 2.147712e-01 2.980577e-01 3.333529e-01 3.274475e-01 3.337041e-01 3.164098e-01 3.779444e-01 3.159546e-01 2.881506e-01 2.322275e-01 3.119334e-01
<GCONST> 1.017399e+02
<TRANSP> 5
 0.000000e+00 1.000000e+00 0.000000e+00 0.000000e+00 0.000000e+00
 0.000000e+00 7.965479e-01 2.034521e-01 0.000000e+00 0.000000e+00
 0.000000e+00 0.000000e+00 4.340208e-01 5.659792e-01 0.000000e+00
 0.000000e+00 0.000000e+00 0.000000e+00 7.903343e-01 2.096657e-01
 0.000000e+00 0.000000e+00 0.000000e+00 0.000000e+00 0.000000e+00
<ENDHMM>
~h "j"
<BEGINHMM>
<NUMSTATES> 5
<STATE> 2
<MEAN> 39
 -3.998881e+00 1.709019e-01 -3.518315e+00 -2.547277e+00 -2.666768e+00 -7.009741e+00 -2.392045e+00 -4.235293e+00 -8.321689e+00 -1.199136e+00 -8.327527e+00 -7.202678e+00 8.538748e+01 -4.075703e-02 -6.968492e-02 5.923922e-02 -1.521877e-01 -9.432358e-02 -7.630709e-02 3.597755e-01 2.166135e-01 1.122344e-01 -1.152390e-02 4.384041e-01 1.784710e-01 -2.811701e-02 -1.921346e-03 1.409789e-02 7.721771e-02 3.730437e-02 3.712647e-02 6.556536e-02 -5.871785e-02 -1.959585e-02 6.409810e-02 -4.193738e-02 -4.214222e-03 -2.013501e-02 -7.195482e-02
<VARIANCE> 39
 4.791850e+00 2.039282e+01 4.585035e+01 1.808639e+01 8.129649e+01 4.568757e+01 8.510385e+01 1.784431e+02 5.519288e+01 7.947320e+01 8.108073e+01 4.639237e+01 2.396440e+01 2.689029e-01 7.727640e-01 2.219619e+00 1.305597e+00 2.807110e+00 2.118015e+00 3.761268e+00 1.248988e+00 2.189170e+00 1.453040e+00 4.083989e+00 3.173357e+00 7.642126e-01 4.664562e-02 7.700019e-02 2.652293e-01 2.443879e-01 3.143128e-01 2.892155e-01 3.994529e-01 2.114538e-01 3.504899e-01 2.851736e-01 7.018710e-01 4.004621e-01 7.824408e-02
<GCONST> 1.075412e+02
<STATE> 3
<MEAN> 39
 -4.992799e+00 2.857188e+00 5.571789e+00 -5.682303e-01 4.483524e+00 -3.760172e+00 -1.227950e+01 -5.234933e-01 -5.585038e+00 -9.477441e+00 -8.353620e+00 -1.148200e+01 8.134360e+01 -1.131448e-01 -6.348678e-02 3.161347e-01 1.386063e-01 6.163300e-01 -1.257473e-01 -2.847901e-01 3.298904e-02 8.385694e-01 5.928591e-02 3.172698e-01 6.269070e-02 -5.651048e-02 -9.306471e-02 -3.304733e-02 -8.521242e-02 -1.639113e-01 -8.834197e-02 -1.059741e-01 1.707488e-01 2.222087e-01 6.359155e-02 -1.031409e-02 9.419829e-03 1.750098e-01 2.115108e-03
<VARIANCE> 39
 7.057358e+00 1.143303e+01 3.390716e+01 1.835843e+01 5.067332e+01 4.005276e+01 1.237664e+02 7.796268e+01 1.191654e+02 7.855360e+01 7.584674e+01 2.248652e+01 1.357798e+01 4.077932e-01 5.146470e-01 1.080226e+00 1.531288e+00 4.839999e-01 1.433907e+00 1.361059e+00 6.377336e-01 2.862548e+00 1.748895e+00 6.055560e-01 6.146410e-01 4.445966e-01 5.119924e-02 4.685392e-02 1.729615e-01 1.979144e-01 1.678940e-01 1.697227e-01 2.539616e-01 2.569009e-01 2.814012e-01 2.014715e-01 1.780887e-01 1.653839e-01 1.144383e-01
<GCONST> 9.247530e+01
<STATE> 4
<MEAN> 39
 -1.149038e+01 6.620699e-02 1.127900e+01 2.838046e+00 1.097503e+01 -6.710952e+00 -1.728057e+01 -8.902904e-01 -4.272091e+00 -8.712622e-01 -4.457940e-01 -9.906071e+00 8.148766e+01 -7.600643e-03 -8.083837e-02 -8.514743e-02 -2.430806e-01 4.067582e-02 3.527102e-01 1.284948e-01 -2.559846e-01 -1.723823e-01 -1.569195e-01 -1.494452e-01 1.808923e-01 1.027592e-01 8.691011e-02 7.345613e-02 -1.408922e-01 -1.632936e-01 -1.193120e-01 1.335672e-02 2.262557e-01 -4.558923e-02 -3.601962e-01 -1.409990e-01 -5.779557e-03 1.725908e-04 -1.753043e-03
<VARIANCE> 39
 4.680958e+01 3.926968e+01 5.568617e+01 2.389610e+01 4.342447e+01 3.618961e+01 9.911333e+01 8.765553e+01 5.222276e+01 4.622603e+01 2.955189e+01 2.744234e+01 3.121871e+01 5.553181e+00 5.672412e+00 4.261034e+00 3.075604e+00 2.544378e+00 1.985032e+00 7.810458e+00 5.320525e+00 7.219423e+00 1.604784e+00 1.429535e+00 2.699953e+00 3.861088e+00 8.988245e-01 1.252887e+00 7.956257e-01 4.510054e-01 5.475825e-01 4.499720e-01 1.502433e+00 6.849653e-01 7.173808e-01 3.283326e-01 3.350417e-01 3.837645e-01 7.590814e-01
<GCONST> 1.312148e+02
<TRANSP> 5
 0.000000e+00 1.000000e+00 0.000000e+00 0.000000e+00 0.000000e+00
 0.000000e+00 8.154052e-01 1.845948e-01 0.000000e+00 0.000000e+00
 0.000000e+00 0.000000e+00 5.305654e-01 4.694346e-01 0.000000e+00
 0.000000e+00 0.000000e+00 0.000000e+00 8.288130e-01 1.711870e-01
 0.000000e+00 0.000000e+00 0.000000e+00 0.000000e+00 0.000000e+00
<ENDHMM>
~h "k"
<BEGINHMM>
<NUMSTATES> 5
<STATE> 2
<MEAN> 39
 -9.590235e+00 2.338368e+00 -1.193565e+00 -4.048294e+00 2.904150e+00 -9.853269e+00 -6.025259e+00 -5.462389e+00 -1.500141e+01 -4.827432e+00 -1.489285e+00 -5.979981e+00 8.058889e+01 -3.773405e-01 7.138956e-02 1.042803e-01 -2.852051e-01 -1.639299e-01 2.398763e-01 8.427265e-02 2.337828e-02 1.908323e-01 -1.717657e-01 -1.988927e-01 -5.829358e-02 -2.229577e-01 -7.696785e-02 -7.877164e-02 1.386887e-02 -6.879570e-03 -3.561347e-02 -5.459115e-02 -4.781537e-02 -2.613147e-02 -1.541483e-02 3.756724e-02 -3.985841e-02 -7.134638e-03 1.273848e-01
<VARIANCE> 39
 3.101424e+01 3.956623e+01 5.010316e+01 7.706701e+01 6.399876e+01 7.101363e+01 4.312277e+01 3.480419e+01 6.699801e+01 5.565586e+01 2.721247e+01 3.104148e+01 5.926037e+01 4.470681e+00 3.950765e+00 4.083523e+00 7.780986e+00 5.038921e+00 7.936873e+00 4.336217e+00 3.285706e+00 6.564738e+00 4.547142e+00 2.302239e+00 3.120781e+00 7.899016e+00 1.022428e+00 7.018164e-01 8.625911e-01 1.443238e+00 9.087691e-01 1.480259e+00 8.624549e-01 6.396189e-01 1.204518e+00 9.758798e-01 4.871821e-01 6.185609e-01 1.278809e+00
<GCONST> 1.407360e+02
<STATE> 3
<MEAN> 39
 -1.517189e+01 1.215012e+00 1.814214e+00 -6.414205e+00 2.928969e-02 -7.075745e+00 -7.155790e+00 -7.809123e+00 -1.028389e+01 -3.622323e+00 -4.673175e+00 -5.800017e+00 8.100600e+01 -1.017044e-01 -6.152424e-01 8.964128e-01 8.954598e-01 5.002935e-01 -6.972049e-01 -6.896954e-01 -9.888748e-02 -4.726868e-01 1.499918e-01 1.562196e-01 9.008390e-02 1.071922e+00 4.101838e-01 2.002019e-02 -9.331419e-02 2.446750e-01 7.849294e-02 -2.666118e-01 -1.847096e-03 1.592180e-01 -2.068565e-01 -1.454323e-02 2.377299e-01 6.402236e-02 -7.940001e-02
<VARIANCE> 39
 5.135769e+01 6.859035e+01 5.136082e+01 4.661732e+01 3.067393e+01 4.740480e+01 3.434478e+01 3.373325e+01 5.817315e+01 3.082529e+01 3.906048e+01 2.229393e+01 5.377807e+01 8.942940e+00 5.335403e+00 5.069215e+00 4.734133e+00 4.214497e+00 5.364337e+00 3.452117e+00 3.627396e+00 7.029869e+00 2.134318e+00 4.611676e+00 2.337498e+00 3.708334e+00 1.368551e+00 1.120304e+00 8.206011e-01 9.711628e-01 8.309378e-01 9.162373e-01 6.608418e-01 6.464519e-01 1.021979e+00 4.245596e-01 7.413913e-01 3.221771e-01 6.436545e-01
<GCONST> 1.356635e+02
<STATE> 4
<MEAN> 39
 -1.287598e+01 -2.481932e+00 2.639215e+00 -8.556661e+00 1.960726e+00 -1.020950e+01 -6.874486e+00 -7.538009e+00 -1.585715e+01 1.275751e+00 2.080941e-02 -4.734910e+00 8.712222e+01 2.919750e-01 -1.053482e-01 -1.447930e-01 -2.029121e-01 -1.198683e-01 -2.268861e-01 1.525331e-01 6.284813e-01 3.288571e-01 -4.586011e-02 -7.547578e-02 4.454792e-01 -1.456404e-01 8.912700e-02 6.186781e-02 -1.508256e-01 -6.553963e-02 -4.843269e-02 7.903148e-02 5.610223e-02 8.190795e-02 1.367496e-01 -1.441752e-02 -7.152771e-02 -3.906996e-02 -1.212518e-01
<VARIANCE> 39
 1.358522e+02 2.096186e+01 8.734316e+01 7.804613e+01 8.017915e+01 6.821171e+01 5.660626e+01 7.079656e+01 6.692081e+01 4.529214e+01 2.829650e+01 2.458833e+01 1.396081e+01 1.058602e+01 1.896179e+00 6.370030e+00 3.307467e+00 2.884611e+00 5.580274e+00 2.146020e+00 2.996205e+00 3.457035e+00 1.601282e+00 1.748812e+00 1.736341e+00 1.018298e+00 1.475239e+00 3.424177e-01 9.130342e-01 5.684775e-01 4.666073e-01 7.118251e-01 4.532699e-01 4.807058e-01 6.598408e-01 2.937687e-01 3.014052e-01 2.892906e-01 1.633355e-01
<GCONST> 1.262292e+02
<TRANSP> 5
 0.000000e+00 1.000000e+00 0.000000e+00 0.000000e+00 0.000000e+00
 0.000000e+00 9.389959e-01 6.100412e-02 0.000000e+00 0.000000e+00
 0.000000e+00 0.000000e+00 8.311949e-01 1.688050e-01 0.000000e+00
 0.000000e+00 0.000000e+00 0.000000e+00 8.286818e-01 1.713181e-01
 0.000000e+00 0.000000e+00 0.000000e+00 0.000000e+00 0.000000e+00
<ENDHMM>
~h "l"
<BEGINHMM>
<NUMSTATES> 5
<STATE> 2
<MEAN> 39
 -1.545757e+01 5.476442e+00 -3.010877e+00 -4.833285e+00 -3.832329e+00 -2.826115e+00 -5.907911e+00 -3.761265e+00 -8.772283e+00 -5.746413e+00 -3.728684e+00 -4.928276e+00 6.539912e+01 -1.634604e-01 1.192820e-02 7.007252e-03 3.435959e-02 -2.827188e-02 1.283900e-02 -1.985275e-02 -7.062692e-03 3.193046e-02 1.419168e-02 -4.023306e-02 -7.844511e-02 -1.680426e-01 -3.550628e-02 -6.987745e-02 6.516185e-02 -3.652718e-02 3.119739e-02 -2.378959e-02 1.479102e-02 8.825058e-03 -1.007356e-02 2.383951e-02 1.763473e-04 -5.208459e-03 9.586956e-02
<VARIANCE> 39
 1.262839e+01 1.478911e+01 1.313474e+01 1.418409e+01 1.555967e+01 1.353963e+01 1.471863e+01 1.412790e+01 1.600244e+01 1.988173e+01 1.422946e+01 1.179042e+01 8.699178e+00 3.069178e-01 4.647606e-01 6.220303e-01 7.240617e-01 8.216951e-01 9.264569e-01 1.078289e+00 9.798798e-01 1.108665e+00 1.008301e+00 8.817385e-01 7.682877e-01 1.644361e-01 7.136668e-02 1.016800e-01 1.366403e-01 1.527822e-01 1.797404e-01 2.031116e-01 2.350107e-01 1.957807e-01 2.333631e-01 1.948437e-01 1.818379e-01 1.658944e-01 4.937136e-02
<GCONST> 7.604008e+01
<STATE> 3
<MEAN> 39
 -1.783649e+01 4.367263e+00 -1.914974e+00 -6.144366e+00 -3.283775e+00 -2.912533e+00 -6.080351e+00 -4.171171e+00 -8.441983e+00 -4.674209e+00 -4.115860e+00 -5.753568e+00 6.597372e+01 -2.600147e-01 -3.517361e-01 4.445969e-01 -2.728610e-01 2.329633e-01 -9.456440e-02 7.537349e-02 -9.947874e-02 -1.804887e-01 2.134504e-01 8.507836e-02 -7.253079e-02 5.210924e-01 -1.024044e-02 -2.158992e-01 2.318138e-01 -8.823481e-02 4.987441e-02 -7.908329e-02 3.027108e-02 -6.478827e-02 -1.100476e-01 5.727082e-02 8.767993e-02 5.141317e-02 3.732625e-01
<VARIANCE> 39
 2.059214e+01 1.532942e+01 1.826372e+01 1.682000e+01 1.699372e+01 1.447308e+01 2.667220e+01 1.805091e+01 1.955349e+01 2.056380e+01 1.731667e+01 1.392678e+01 1.430849e+01 1.577643e+00 1.768526e+00 2.128234e+00 1.981422e+00 1.775111e+00 1.659775e+00 2.532403e+00 1.750931e+00 1.647009e+00 1.817732e+00 1.459505e+00 1.335241e+00 8.883425e-01 3.940044e-01 3.921199e-01 4.877317e-01 3.987168e-01 3.523451e-01 3.455666e-01 4.873507e-01 3.798332e-01 3.710954e-01 3.826911e-01 3.314068e-01 2.947938e-01 3.311979e-01
<GCONST> 1.029844e+02
<STATE> 4
<MEAN> 39
 -1.631641e+01 2.905906e+00 4.273210e-01 -6.302484e+00 -1.719976e+00 -3.924349e+00 -4.762924e+00 -3.965316e+00 -9.830932e+00 -4.325775e+00 -4.069836e+00 -5.977473e+00 7.080623e+01 6.098019e-01 -6.172318e-01 4.653397e-01 -1.816738e-01 -1.688169e-01 -6.558394e-01 2.781127e-02 -2.348303e-01 -6.776233e-01 9.659492e-02 1.271601e-01 -3.109058e-02 1.588292e+00 3.660448e-02 -1.389938e-01 -2.060686e-02 -3.041800e-02 -1.415844e-01 -5.034126e-02 8.598104e-03 3.574285e-02 1.858565e-02 5.370517e-02 9.887121e-02 8.053209e-02 1.046645e-01
<VARIANCE> 39
 5.507420e+01 4.029794e+01 3.366428e+01 4.512490e+01 3.790779e+01 3.835400e+01 4.764005e+01 3.866272e+01 4.211656e+01 3.434930e+01 2.789382e+01 2.117872e+01 4.556515e+01 4.121839e+00 4.297891e+00 4.386346e+00 3.809338e+00 3.594365e+00 3.930427e+00 3.843480e+00 4.122674e+00 4.044128e+00 3.197157e+00 2.526402e+00 2.098770e+00 3.928782e+00 6.370425e-01 8.384521e-01 8.796638e-01 8.031651e-01 5.932637e-01 7.215764e-01 6.729473e-01 7.541294e-01 6.766971e-01 5.736293e-01 5.068593e-01 4.005097e-01 6.806947e-01
<GCONST> 1.302568e+02
<TRANSP> 5
 0.000000e+00 1.000000e+00 0.000000e+00 0.000000e+00 0.000000e+00
 0.000000e+00 8.783041e-01 1.216960e-01 0.000000e+00 0.000000e+00
 0.000000e+00 0.000000e+00 6.132182e-01 3.867819e-01 0.000000e+00
 0.000000e+00 0.000000e+00 0.000000e+00 6.701860e-01 3.298139e-01
 0.000000e+00 0.000000e+00 0.000000e+00 0.000000e+00 0.000000e+00
<ENDHMM>
~h "m"
<BEGINHMM>
<NUMSTATES> 5
<STATE> 2
<MEAN> 39
 -4.743110e+00 -8.813753e-01 -5.021134e+00 -5.613035e+00 -1.768193e-01 -1.222711e+01 -4.040022e+00 -2.608402e+00 -1.590347e+01 -2.096900e+00 2.003054e-01 -3.743858e+00 8.539179e+01 -7.179081e-02 -1.395789e-01 -3.848648e-01 -6.057884e-01 -4.493805e-01 6.334893e-01 9.323473e-01 1.571748e-01 4.188890e-02 1.282797e-01 5.668684e-01 2.812732e-01 -2.081012e-01 -9.765100e-02 5.484794e-02 1.273275e-01 1.169662e-01 1.214264e-01 8.867149e-02 -4.016149e-02 -3.363562e-02 4.894047e-02 -4.294391e-02 -9.359889e-02 -8.925320e-02 -1.129180e-01
<VARIANCE> 39
 1.277294e+01 1.930942e+01 1.805568e+01 2.889100e+01 5.985635e+01 4.934932e+01 7.777923e+01 5.714366e+01 6.012764e+01 6.567561e+01 4.537619e+01 3.801301e+01 3.074851e+01 4.363187e-01 9.069510e-01 1.401520e+00 2.024761e+00 2.652227e+00 1.856418e+00 1.855463e+00 1.665210e+00 1.776727e+00 1.555286e+00 2.778258e+00 1.772568e+00 9.872128e-01 5.109505e-02 1.104150e-01 1.871238e-01 3.085270e-01 3.995302e-01 2.559195e-01 2.931749e-01 2.500336e-01 2.923633e-01 2.774387e-01 4.002198e-01 2.869641e-01 8.477095e-02
<GCONST> 1.043614e+02
<STATE> 3
<MEAN> 39
 -8.175063e+00 2.046760e+00 -4.600167e+00 -6.316402e+00 3.165520e+00 -2.790903e+00 5.587536e-01 -3.411023e+00 -1.123295e+01 -2.254448e+00 8.375723e-01 -4.534656e+00 7.868751e+01 -3.003301e-01 3.256986e-01 1.537847e-01 2.077235e-01 -9.604126e-02 5.680525e-01 -1.110472e-01 -1.748802e-01 2.714082e-01 -1.097880e-01 -1.446519e-01 1.304744e-01 -1.011869e+00 -1.916829e-02 4.041999e-02 1.257217e-02 -2.491156e-02 -1.184388e-01 -1.109133e-01 -1.043122e-01 3.804075e-02 1.722943e-02 -1.450017e-03 -3.889192e-02 -1.109208e-03 -1.542223e-02
<VARIANCE> 39
 9.477831e+00 2.470927e+01 2.881315e+01 2.012623e+01 4.052609e+01 3.493547e+01 7.119271e+01 3.128917e+01 2.529415e+01 3.811629e+01 3.809945e+01 2.431371e+01 3.897575e+01 2.549809e-01 1.098543e+00 1.129456e+00 1.030672e+00 1.662872e+00 1.685083e+00 1.600937e+00 9.615142e-01 1.297075e+00 1.183207e+00 1.365330e+00 1.108942e+00 4.003667e-01 4.668230e-02 1.843159e-01 1.793529e-01 2.030045e-01 2.619453e-01 2.428051e-01 2.682907e-01 1.711133e-01 2.031383e-01 1.999250e-01 2.284870e-01 1.969283e-01 4.407002e-02
<GCONST> 9.276304e+01
<STATE> 4
<MEAN> 39
 -1.354164e+01 5.426871e+00 -3.740209e+00 -4.979038e+00 -3.299953e+00 -2.023599e+00 -4.747692e+00 -3.514894e+00 -8.678427e+00 -3.941684e+00 -1.587939e+00 -3.168690e+00 6.655427e+01 -3.861777e-01 5.958775e-02 9.522974e-02 -4.480784e-02 -1.630096e-01 -4.589052e-02 -1.600223e-01 1.204540e-02 9.726401e-02 -5.297859e-02 -6.443657e-02 -8.130801e-02 -3.311284e-01 2.024009e-02 -7.058439e-02 1.661055e-02 1.200008e-02 5.030469e-02 -3.250789e-02 3.546311e-02 -5.759215e-03 -3.846235e-02 1.660310e-02 4.832930e-03 -1.541816e-02 7.406528e-02
<VARIANCE> 39
 1.092788e+01 1.245644e+01 1.339891e+01 1.179099e+01 2.097132e+01 1.940692e+01 2.630679e+01 2.143051e+01 1.811998e+01 1.830027e+01 1.495128e+01 1.296614e+01 1.114843e+01 2.568614e-01 7.169746e-01 7.645530e-01 8.667691e-01 1.022399e+00 1.181506e+00 1.236152e+00 1.191405e+00 1.262245e+00 1.052040e+00 1.133704e+00 9.220380e-01 2.387721e-01 4.721208e-02 1.365441e-01 1.434280e-01 1.762996e-01 1.850983e-01 2.315913e-01 2.476586e-01 2.374631e-01 2.622461e-01 1.998659e-01 2.200384e-01 1.856397e-01 3.907507e-02
<GCONST> 8.075392e+01
<TRANSP> 5
 0.000000e+00 1.000000e+00 0.000000e+00 0.000000e+00 0.000000e+00
 0.000000e+00 8.068669e-01 1.931331e-01 0.000000e+00 0.000000e+00
 0.000000e+00 0.000000e+00 8.694126e-01 1.305875e-01 0.000000e+00
 0.000000e+00 0.000000e+00 0.000000e+00 8.901684e-01 1.098316e-01
 0.000000e+00 0.000000e+00 0.000000e+00 0.000000e+00 0.000000e+00
<ENDHMM>
~h "n"
<BEGINHMM>
<NUMSTATES> 5
<STATE> 2
<MEAN> 39
 -2.386910e+00 5.758778e-01 -3.285645e+00 -6.612906e+00 -6.240766e+00 -1.365434e+01 -5.564083e+00 6.827329e+00 -5.628941e+00 -9.389524e+00 -2.419511e+00 -3.050316e+00 8.526178e+01 1.248379e-01 8.850172e-02 -4.138599e-01 -4.113263e-01 -5.520192e-01 -2.286794e-01 4.371827e-01 6.028995e-01 -1.975449e-01 1.786975e-02 5.333554e-01 1.537860e-01 -9.899545e-02 -5.956819e-02 1.092243e-01 1.192862e-01 1.124960e-01 7.957181e-02 1.617475e-01 2.294141e-02 -1.631332e-01 6.696647e-02 1.700815e-01 -1.560066e-01 -1.764093e-01 -2.017942e-01
<VARIANCE> 39
 5.519958e+00 1.811237e+01 2.424746e+01 2.306393e+01 7.104678e+01 7.003027e+01 6.880289e+01 7.395192e+01 9.014596e+01 7.460300e+01 3.714425e+01 2.344804e+01 1.951428e+01 2.762838e-01 1.869237e+00 2.309015e+00 1.965971e+00 2.891138e+00 3.952518e+00 4.104666e+00 3.615547e+00 3.117823e+00 1.752257e+00 3.906588e+00 2.577195e+00 1.871357e+00 4.399670e-02 1.704703e-01 2.738477e-01 2.732280e-01 3.980705e-01 4.138543e-01 5.369484e-01 4.514972e-01 5.425091e-01 2.374475e-01 5.809289e-01 4.275008e-01 1.249765e-01
<GCONST> 1.126017e+02
<STATE> 3
<MEAN> 39
 -2.455314e+00 1.454945e+00 -5.881720e+00 -7.984392e+00 -7.668092e+00 -1.594842e+01 5.973485e-01 7.410784e+00 -1.045340e+01 -5.867700e+00 5.791693e-01 -4.334723e+00 8.333376e+01 -2.704599e-01 4.798386e-01 2.452729e-01 1.663654e-01 8.460657e-02 8.366857e-01 2.204511e-01 -4.747530e-01 3.487003e-01 3.074650e-01 -1.459617e-01 -6.480399e-02 -1.001908e+00 -7.488697e-02 -2.173707e-02 2.801688e-02 3.537202e-02 1.196471e-02 7.420433e-02 -6.704311e-02 -9.250304e-02 5.850952e-02 1.971974e-02 -5.694272e-02 3.163786e-02 -7.087681e-02
<VARIANCE> 39
 6.587621e+00 1.837845e+01 2.301955e+01 2.164711e+01 4.817854e+01 8.664595e+01 4.489096e+01 4.899238e+01 5.667560e+01 3.059236e+01 1.967525e+01 2.011108e+01 2.906520e+01 4.009787e-01 9.739786e-01 8.359899e-01 7.642521e-01 1.286203e+00 2.502892e+00 1.253158e+00 1.175105e+00 1.364733e+00 8.581484e-01 1.066729e+00 1.021393e+00 1.538531e+00 4.920307e-02 1.366220e-01 1.569085e-01 1.481055e-01 2.037693e-01 3.408740e-01 2.161469e-01 1.974340e-01 1.927783e-01 1.531103e-01 1.766893e-01 1.540473e-01 1.491971e-01
<GCONST> 9.275368e+01
<STATE> 4
<MEAN> 39
 -8.206540e+00 6.874207e+00 -3.467595e+00 -5.741763e+00 -5.614625e+00 -5.486679e+00 -2.468782e+00 2.570265e+00 -6.292616e+00 -5.446002e+00 -3.060506e+00 -4.322839e+00 7.102521e+01 -5.307510e-01 1.025919e-01 -5.379481e-02 -4.052581e-02 -1.467552e-01 1.890156e-01 6.573394e-02 -2.243746e-01 2.507304e-02 2.224270e-01 1.191839e-01 5.687915e-02 -5.706016e-01 1.231950e-02 -6.309714e-02 1.654432e-02 -2.484044e-02 2.205139e-02 -9.192875e-02 -4.886635e-02 -8.509150e-03 -7.631236e-02 -6.617852e-02 -7.762196e-03 -4.541311e-03 1.021800e-01
<VARIANCE> 39
 1.493976e+01 1.267559e+01 1.341805e+01 1.321560e+01 4.026912e+01 2.742650e+01 2.493459e+01 3.980405e+01 1.672519e+01 3.606433e+01 1.847003e+01 1.591226e+01 3.824899e+01 3.583855e-01 5.017925e-01 6.643522e-01 7.353862e-01 1.691033e+00 1.430148e+00 1.212637e+00 1.155872e+00 1.222790e+00 1.006081e+00 1.260221e+00 1.105227e+00 3.880973e-01 5.750191e-02 9.388880e-02 1.180963e-01 1.399174e-01 2.534631e-01 2.836305e-01 2.145163e-01 2.032349e-01 2.314832e-01 1.631694e-01 2.457479e-01 2.349126e-01 7.498117e-02
<GCONST> 8.630796e+01
<TRANSP> 5
 0.000000e+00 1.000000e+00 0.000000e+00 0.000000e+00 0.000000e+00
 0.000000e+00 7.428679e-01 2.571321e-01 0.000000e+00 0.000000e+00
 0.000000e+00 0.000000e+00 7.581854e-01 2.418146e-01 0.000000e+00
 0.000000e+00 0.000000e+00 0.000000e+00 7.702541e-01 2.297458e-01
 0.000000e+00 0.000000e+00 0.000000e+00 0.000000e+00 0.000000e+00
<ENDHMM>
~h "o"
<BEGINHMM>
<NUMSTATES> 5
<STATE> 2
<MEAN> 39
 -3.821373e+00 4.100893e+00 -1.936227e+00 -1.021630e+01 -1.039568e+01 -1.006173e+01 1.739987e+00 1.305764e+00 -3.150914e+00 -1.726044e+00 -2.861404e+00 -8.741962e+00 7.938191e+01 -2.574641e-01 3.087004e-01 2.351957e-01 3.784216e-01 1.236014e-01 4.543414e-01 -8.778619e-02 -1.836455e-02 1.034946e-01 2.289762e-01 1.422042e-01 -5.464021e-02 -8.445163e-01 -3.669651e-02 -9.673774e-03 -7.228237e-02 2.278632e-02 6.356837e-02 4.747398e-02 -5.688006e-02 1.757960e-02 6.609139e-03 3.529345e-02 2.381431e-03 6.083389e-02 -2.754804e-02
<VARIANCE> 39
 7.318453e+00 1.146929e+01 9.184710e+00 2.468529e+01 3.502270e+01 4.073478e+01 9.809844e+01 2.142593e+01 2.009860e+01 1.073249e+01 1.700070e+01 2.710097e+01 2.440253e+01 2.622583e-01 4.882408e-01 5.263168e-01 7.638730e-01 1.548750e+00 1.446060e+00 8.991787e-01 1.035590e+00 7.409467e-01 6.392261e-01 9.306581e-01 6.034210e-01 3.052982e-01 3.374723e-02 8.446799e-02 9.807134e-02 1.609230e-01 2.121028e-01 2.147854e-01 1.633292e-01 1.603290e-01 1.629526e-01 1.126267e-01 1.439162e-01 1.036008e-01 2.887370e-02
<GCONST> 7.791476e+01
<STATE> 3
<MEAN> 39
 -1.065003e+01 7.446127e+00 -2.136605e+00 -4.695677e+00 -6.465548e+00 -4.537287e+00 -3.617346e+00 2.308108e+00 -8.594250e-01 1.301439e+00 -4.769841e-01 -4.686344e+00 6.755274e+01 -6.282138e-01 1.208852e-01 -6.684564e-03 -1.213240e-01 4.869687e-02 1.618240e-01 -2.112538e-01 -3.930916e-01 -6.096273e-02 7.335152e-02 3.859531e-03 1.129598e-01 -5.003378e-01 2.038540e-02 1.307013e-02 4.299497e-02 1.431271e-02 1.963100e-02 -3.727329e-02 2.469648e-02 -3.205109e-02 -8.775650e-02 -1.356057e-01 -6.994645e-02 -1.864655e-02 3.909701e-02
<VARIANCE> 39
 6.766491e+00 2.104175e+01 2.201878e+01 9.844783e+00 2.720476e+01 1.982562e+01 2.134141e+01 1.810736e+01 1.947389e+01 1.101860e+01 9.262271e+00 1.133077e+01 3.512234e+00 1.603094e-01 5.601581e-01 7.201501e-01 5.440667e-01 9.968048e-01 8.799070e-01 1.087437e+00 6.469185e-01 9.397067e-01 1.034458e+00 1.021521e+00 7.255665e-01 1.119217e-01 3.015332e-02 8.149214e-02 9.959315e-02 1.085692e-01 1.846400e-01 1.642607e-01 1.594012e-01 1.065942e-01 1.783929e-01 1.944427e-01 2.359240e-01 1.458996e-01 1.952291e-02
<GCONST> 7.041940e+01
<STATE> 4
<MEAN> 39
 -1.697795e+01 6.709968e+00 -1.846247e+00 -3.249409e+00 -3.949298e+00 -2.324141e+00 -4.724492e+00 -1.461167e+00 -5.634761e+00 -2.802848e+00 -1.982125e+00 -4.601608e+00 6.295023e+01 -1.571371e-01 -1.125789e-01 -6.464422e-02 5.882771e-02 6.786063e-02 6.260377e-02 -3.485603e-02 -8.270817e-02 -1.774122e-01 -1.875452e-01 -7.130935e-02 -2.884568e-02 -9.868911e-02 1.209232e-02 -1.941463e-02 -6.659132e-03 -2.102040e-02 -1.567283e-02 -1.465830e-02 -7.520169e-04 5.174953e-03 -1.063291e-02 4.502380e-03 2.526771e-05 -1.212913e-02 2.564158e-02
<VARIANCE> 39
 3.483038e+00 3.945521e+00 7.395310e+00 7.136978e+00 8.176466e+00 6.405405e+00 8.219687e+00 7.999852e+00 1.005498e+01 8.505186e+00 7.050448e+00 5.931180e+00 1.703809e+00 1.067217e-01 2.124716e-01 3.643343e-01 4.237402e-01 5.816893e-01 5.638267e-01 6.852924e-01 6.783589e-01 6.307808e-01 6.897376e-01 7.826177e-01 6.554325e-01 5.358531e-02 1.771030e-02 4.337650e-02 7.448317e-02 8.117419e-02 1.188547e-01 1.189559e-01 1.420388e-01 1.298005e-01 1.215872e-01 1.332705e-01 1.620223e-01 1.344872e-01 9.865846e-03
<GCONST> 5.006166e+01
<TRANSP> 5
 0.000000e+00 1.000000e+00 0.000000e+00 0.000000e+00 0.000000e+00
 0.000000e+00 8.860736e-01 1.139263e-01 0.000000e+00 0.000000e+00
 0.000000e+00 0.000000e+00 8.960723e-01 1.039277e-01 0.000000e+00
 0.000000e+00 0.000000e+00 0.000000e+00 9.494948e-01 5.050518e-02
 0.000000e+00 0.000000e+00 0.000000e+00 0.000000e+00 0.000000e+00
<ENDHMM>
~h "p"
<BEGINHMM>
<NUMSTATES> 5
<STATE> 2
<MEAN> 39
 -9.806625e+00 2.283999e+00 -3.242693e+00 -4.836031e+00 -8.508461e-01 -7.026798e+00 -5.703669e+00 -3.780005e+00 -1.206400e+01 -3.683025e+00 -1.216617e+00 -5.922237e+00 7.495531e+01 9.852880e-01 1.142117e-01 3.539312e-01 4.123550e-01 3.855689e-01 6.122389e-02 4.913073e-01 -2.147257e-02 -1.236411e-01 -6.372465e-01 -7.644408e-01 -3.035273e-01 7.738256e-01 1.060554e-01 1.505650e-02 -3.232636e-02 -3.428069e-02 -9.157103e-03 -2.181128e-02 1.688667e-02 1.075569e-01 4.205155e-02 -1.369491e-01 -3.136483e-01 -1.297787e-01 7.911557e-02
<VARIANCE> 39
 4.473324e+01 5.109267e+01 2.149290e+01 4.734331e+01 4.937611e+01 5.549626e+01 3.120182e+01 3.691134e+01 5.492394e+01 6.289534e+01 2.650720e+01 2.259059e+01 8.875977e+01 3.532024e+00 4.339628e+00 1.661188e+00 4.029100e+00 3.065448e+00 4.309812e+00 2.809002e+00 3.345715e+00 7.399724e+00 4.185164e+00 3.514526e+00 2.873079e+00 7.593642e+00 6.087865e-01 6.864271e-01 3.754021e-01 6.114393e-01 5.689832e-01 8.098761e-01 4.798066e-01 7.512140e-01 1.049919e+00 5.695784e-01 6.102223e-01 5.050684e-01 8.890880e-01
<GCONST> 1.316066e+02
<STATE> 3
<MEAN> 39
 -6.221398e+00 6.500813e+00 -1.470352e+00 -1.512098e+00 7.822565e-01 -5.982926e+00 -6.127418e+00 -2.267539e+00 -8.377203e+00 -5.223419e+00 -5.722022e+00 -7.835177e+00 7.420798e+01 -3.944542e-01 3.916973e-01 5.837137e-02 -6.747364e-02 -3.248358e-01 4.846984e-01 -1.080404e-01 1.911993e-01 7.159276e-01 -9.893583e-02 -1.599608e-01 1.257812e-01 -7.175584e-01 -1.981709e-01 -1.935308e-01 -4.865252e-02 -1.738553e-01 -2.391255e-02 -8.211537e-02 -1.227242e-02 -6.641333e-02 -8.997659e-02 1.179902e-01 1.932863e-01 7.551420e-02 2.258150e-01
<VARIANCE> 39
 1.139149e+01 1.972838e+01 2.321954e+01 2.397362e+01 4.468738e+01 2.765077e+01 5.165364e+01 3.647905e+01 7.238380e+01 5.791724e+01 4.349545e+01 2.975292e+01 3.836419e+01 1.403179e+00 1.893340e+00 1.442322e+00 1.621094e+00 2.705824e+00 3.149021e+00 1.707921e+00 1.667530e+00 3.035075e+00 2.072086e+00 2.266104e+00 1.629605e+00 3.560504e+00 1.582826e-01 3.171448e-01 3.034578e-01 3.319338e-01 3.618321e-01 4.885302e-01 3.544979e-01 3.004628e-01 5.733110e-01 4.865472e-01 3.842387e-01 3.195850e-01 5.237699e-01
<GCONST> 1.133789e+02
<STATE> 4
<MEAN> 39
 -8.377891e+00 2.647706e+00 -3.318175e+00 -5.513824e+00 -7.247336e+00 -1.010624e+01 -2.822935e+00 4.837599e-01 -6.285896e+00 -6.457423e+00 -4.747337e+00 -3.914091e+00 7.868037e+01 1.195532e-01 -9.553578e-01 -4.252792e-01 -6.351378e-01 -4.667817e-01 -8.820080e-01 1.378831e-01 -6.998472e-02 -2.704167e-01 2.434057e-01 1.757367e-01 6.125427e-02 1.432988e+00 2.647610e-01 2.613433e-03 -5.734637e-04 1.340795e-01 1.078518e-01 -1.478554e-01 1.260538e-02 1.234073e-01 -2.023306e-01 2.020634e-02 1.751115e-02 -1.339255e-01 8.197362e-02
<VARIANCE> 39
 4.460645e+01 6.228873e+01 5.225637e+01 3.562228e+01 6.376018e+01 9.477213e+01 4.138781e+01 5.992909e+01 3.536618e+01 3.857656e+01 2.017567e+01 2.470608e+01 8.648615e+01 4.400138e+00 5.920868e+00 3.981692e+00 3.669783e+00 4.539567e+00 6.215825e+00 4.035112e+00 3.681285e+00 4.438244e+00 2.985752e+00 2.239173e+00 2.811543e+00 8.551958e+00 7.835688e-01 9.221369e-01 7.056194e-01 6.942769e-01 8.203010e-01 1.143523e+00 8.043138e-01 5.686071e-01 8.676999e-01 5.538710e-01 3.687956e-01 5.086663e-01 1.394235e+00
<GCONST> 1.361403e+02
<TRANSP> 5
 0.000000e+00 1.000000e+00 0.000000e+00 0.000000e+00 0.000000e+00
 0.000000e+00 6.736307e-01 3.263693e-01 0.000000e+00 0.000000e+00
 0.000000e+00 0.000000e+00 8.748845e-01 1.251155e-01 0.000000e+00
 0.000000e+00 0.000000e+00 0.000000e+00 8.533121e-01 1.466879e-01
 0.000000e+00 0.000000e+00 0.000000e+00 0.000000e+00 0.000000e+00
<ENDHMM>
~h "r"
<BEGINHMM>
<NUMSTATES> 5
<STATE> 2
<MEAN> 39
 -6.741041e+00 -1.163992e+00 -6.508792e+00 -6.369710e+00 1.389540e+00 -1.161607e+01 -1.078186e+01 -6.028443e+00 -1.372600e+01 1.052458e+00 3.480895e+00 -4.891793e+00 8.493346e+01 -2.407015e-01 6.622002e-01 3.175271e-01 3.779634e-01 6.367611e-01 2.266305e-01 -6.978674e-02 -3.345114e-01 6.207910e-02 -5.035033e-01 -2.888387e-01 1.182970e-01 -7.851470e-01 -1.922301e-01 1.622070e-01 1.433562e-01 6.668110e-02 -3.806588e-02 2.892840e-01 3.119914e-01 1.134766e-01 1.804987e-01 -1.331649e-01 -2.239670e-01 -1.493095e-02 -1.285724e-01
<VARIANCE> 39
 1.560880e+01 1.547286e+01 1.510012e+01 1.752667e+01 2.187840e+01 3.396223e+01 3.804457e+01 4.022323e+01 3.814055e+01 7.132312e+01 2.753353e+01 2.065889e+01 6.347211e+01 1.184619e+00 1.045231e+00 2.467147e+00 1.670468e+00 2.134797e+00 2.962103e+00 2.387340e+00 1.817427e+00 2.973289e+00 2.552257e+00 2.439263e+00 1.619311e+00 1.244537e+00 3.487133e-01 1.851487e-01 3.769577e-01 2.600204e-01 3.014135e-01 5.967488e-01 3.877615e-01 3.933900e-01 6.189674e-01 4.706927e-01 4.342293e-01 4.316066e-01 3.410734e-01
<GCONST> 1.110081e+02
<STATE> 3
<MEAN> 39
 -9.977839e+00 2.070985e+00 -3.291742e+00 -6.554740e+00 1.736372e+00 -7.598099e+00 -7.615537e+00 -4.073782e+00 -1.167875e+01 -2.822740e+00 7.488377e-01 -4.002116e+00 7.971494e+01 -4.329372e-01 8.051122e-01 5.932888e-01 4.510266e-01 -1.783310e-01 6.584641e-01 2.320618e-01 -2.062812e-02 7.405649e-01 -1.715036e-01 -5.534011e-01 -9.125620e-02 -1.122709e+00 1.321115e-01 -1.289347e-01 3.135321e-02 8.593048e-02 -2.338826e-01 -1.028006e-01 4.857461e-02 2.259582e-02 2.674251e-02 1.305591e-01 -7.515751e-02 -2.905752e-02 9.702720e-03
<VARIANCE> 39
 3.168771e+01 3.460495e+01 3.144389e+01 3.485650e+01 3.055807e+01 4.049747e+01 2.689875e+01 3.805962e+01 3.986372e+01 5.262141e+01 2.854081e+01 2.165977e+01 6.063523e+01 3.172991e+00 2.445538e+00 3.313100e+00 2.584026e+00 2.278122e+00 3.888163e+00 2.192990e+00 2.962717e+00 4.299013e+00 2.925476e+00 2.702559e+00 2.485065e+00 3.123953e+00 5.412761e-01 3.994630e-01 6.627700e-01 5.555320e-01 5.740758e-01 7.964252e-01 4.572774e-01 6.376849e-01 9.715459e-01 5.586718e-01 4.812491e-01 4.962865e-01 5.985476e-01
<GCONST> 1.246313e+02
<STATE> 4
<MEAN> 39
 -1.114042e+01 2.936941e+00 2.187303e-01 -3.933289e+00 -1.277317e+00 -7.033840e+00 -6.046027e+00 -3.412502e+00 -1.132446e+01 -5.304553e+00 -3.477075e+00 -6.765244e+00 7.947679e+01 2.943265e-02 -3.842264e-01 1.871097e-01 1.012988e-01 -1.438914e-01 -6.377965e-02 1.537517e-01 4.386316e-01 5.749241e-03 -1.100673e-01 -1.689358e-01 -1.049361e-01 2.513143e-01 7.913782e-02 -1.446114e-01 -2.395916e-01 -8.013438e-02 2.727636e-02 -2.079875e-01 -6.179500e-02 1.133089e-01 -7.025445e-02 6.541465e-02 1.541627e-01 5.136286e-02 6.966099e-02
<VARIANCE> 39
 6.246985e+01 5.636409e+01 4.273894e+01 6.888833e+01 5.956991e+01 6.212989e+01 2.790272e+01 4.597657e+01 5.391637e+01 4.194521e+01 3.420795e+01 3.138672e+01 6.807545e+01 4.298257e+00 4.830802e+00 3.892344e+00 4.075695e+00 4.493145e+00 7.816571e+00 3.204503e+00 5.359303e+00 6.140754e+00 2.503967e+00 2.975223e+00 3.158023e+00 9.004736e+00 7.433423e-01 7.789683e-01 6.532493e-01 6.707118e-01 7.317472e-01 1.199806e+00 6.094714e-01 9.981897e-01 9.879593e-01 4.560638e-01 6.182219e-01 5.940743e-01 9.439083e-01
<GCONST> 1.376427e+02
<TRANSP> 5
 0.000000e+00 1.000000e+00 0.000000e+00 0.000000e+00 0.000000e+00
 0.000000e+00 6.477320e-01 3.522680e-01 0.000000e+00 0.000000e+00
 0.000000e+00 0.000000e+00 6.599077e-01 3.400924e-01 0.000000e+00
 0.000000e+00 0.000000e+00 0.000000e+00 7.113672e-01 2.886328e-01
 0.000000e+00 0.000000e+00 0.000000e+00 0.000000e+00 0.000000e+00
<ENDHMM>
~h "s"
<BEGINHMM>
<NUMSTATES> 5
<STATE> 2
<MEAN> 39
 -1.455595e+01 4.648262e+00 -3.303704e+00 -6.060450e+00 -3.088279e+00 -4.382630e+00 -6.636863e+00 -4.535913e+00 -1.028205e+01 -6.391664e+00 -5.159316e+00 -6.421120e+00 6.835732e+01 -2.248257e-01 -1.301203e-01 1.327015e-02 -3.308938e-02 -4.562017e-02 -2.381653e-04 2.390417e-02 -1.509147e-01 8.331855e-02 2.087000e-01 3.703404e-02 3.838075e-02 -6.731837e-02 -1.138148e-01 -7.271681e-02 9.467959e-02 -4.036138e-02 4.756854e-02 -1.862046e-02 -1.289916e-02 -3.612641e-02 1.191828e-02 6.362488e-02 -1.277157e-02 4.901081e-02 1.303696e-01
<VARIANCE> 39
 1.675103e+01 2.661960e+01 1.923722e+01 1.643665e+01 1.341341e+01 1.880595e+01 1.186566e+01 1.507094e+01 1.892916e+01 2.955194e+01 2.333399e+01 1.727047e+01 4.809755e+01 4.681936e-01 9.148774e-01 1.013926e+00 9.908891e-01 1.321345e+00 1.599298e+00 1.280562e+00 1.188985e+00 1.644585e+00 1.252127e+00 1.313570e+00 7.807063e-01 7.823620e-01 1.247967e-01 1.924885e-01 2.204974e-01 1.803631e-01 2.589950e-01 3.226859e-01 2.441931e-01 2.219708e-01 2.367350e-01 2.245509e-01 2.371777e-01 1.546919e-01 1.381817e-01
<GCONST> 9.070767e+01
<STATE> 3
<MEAN> 39
 -1.631900e+01 4.628316e+00 -3.025553e+00 -6.330835e+00 -3.450588e+00 -4.270288e+00 -6.166426e+00 -4.009562e+00 -9.416871e+00 -4.097972e+00 -2.880736e+00 -5.541761e+00 6.932344e+01 -9.002663e-01 -4.841840e-01 7.563235e-01 -3.845621e-01 1.598338e-01 8.151902e-02 3.828511e-03 -3.767212e-01 1.838741e-01 3.534952e-01 -3.361988e-01 1.449989e-01 6.912243e-01 -1.357881e-01 -2.676735e-01 2.524496e-01 -1.132902e-01 3.611680e-02 -2.780309e-02 -3.499195e-02 -2.502006e-03 -7.378972e-02 -6.480017e-02 -5.007616e-02 3.041021e-02 2.460370e-01
<VARIANCE> 39
 3.066481e+01 2.248575e+01 1.638272e+01 1.562063e+01 1.981259e+01 2.095974e+01 1.717574e+01 2.098820e+01 2.225885e+01 3.042206e+01 1.781905e+01 2.095885e+01 7.329646e+01 2.065962e+00 2.467451e+00 2.486490e+00 2.449704e+00 2.430640e+00 2.672079e+00 1.826115e+00 2.026641e+00 1.626878e+00 1.884164e+00 1.295996e+00 1.488733e+00 1.812114e+00 3.892969e-01 3.261348e-01 4.937052e-01 3.411778e-01 3.443392e-01 3.781388e-01 3.029177e-01 3.646111e-01 4.222393e-01 3.051851e-01 2.886064e-01 2.997951e-01 3.034315e-01
<GCONST> 1.076209e+02
<STATE> 4
<MEAN> 39
 -2.177733e+01 -8.526706e-01 2.475470e+00 -8.650414e+00 -2.542087e+00 -3.887737e+00 -5.133780e+00 -4.547827e+00 -8.601516e+00 -3.477742e+00 -4.151308e+00 -4.284069e+00 7.302589e+01 1.271091e-01 -1.778514e-01 -3.992614e-02 -6.080101e-02 -1.249608e-01 -1.275833e-01 8.225811e-02 -2.897762e-03 -1.084748e-01 9.832802e-02 5.741881e-02 -7.756783e-03 9.337485e-02 3.319779e-01 2.432511e-01 -3.211479e-01 1.366570e-01 -7.168218e-02 -4.994124e-04 2.094550e-03 5.896442e-02 -8.032992e-02 -2.662624e-02 8.064653e-02 -7.668792e-02 -2.350060e-01
<VARIANCE> 39
 4.878673e+01 4.689343e+01 5.602360e+01 3.965304e+01 3.369686e+01 3.341237e+01 3.494857e+01 2.418437e+01 2.619975e+01 3.275616e+01 2.170263e+01 2.208741e+01 6.681690e+01 4.084351e+00 4.100954e+00 4.648816e+00 3.087134e+00 2.359433e+00 2.619440e+00 2.731520e+00 2.411537e+00 2.275225e+00 2.234321e+00 1.514777e+00 1.699063e+00 3.013444e+00 5.907016e-01 7.687702e-01 6.305303e-01 6.308695e-01 5.237677e-01 5.861424e-01 6.128287e-01 5.306564e-01 4.693949e-01 4.607969e-01 3.270451e-01 3.382892e-01 4.637530e-01
<GCONST> 1.223603e+02
<TRANSP> 5
 0.000000e+00 1.000000e+00 0.000000e+00 0.000000e+00 0.000000e+00
 0.000000e+00 5.887709e-01 4.112291e-01 0.000000e+00 0.000000e+00
 0.000000e+00 0.000000e+00 3.871350e-01 6.128650e-01 0.000000e+00
 0.000000e+00 0.000000e+00 0.000000e+00 7.309651e-01 2.690349e-01
 0.000000e+00 0.000000e+00 0.000000e+00 0.000000e+00 0.000000e+00
<ENDHMM>
~h "t"
<BEGINHMM>
<NUMSTATES> 5
<STATE> 2
<MEAN> 39
 -7.138071e+00 -1.982623e+00 -4.738807e+00 -8.338061e+00 -3.108805e+00 -1.311902e+01 -3.630162e+00 4.315190e-01 -1.411683e+01 -2.086634e+00 1.047637e+00 -5.797128e+00 8.482823e+01 5.308222e-01 4.421240e-01 3.187875e-02 -1.460558e-01 -1.273356e-02 3.288243e-01 3.156155e-01 2.107173e-01 2.404553e-01 1.784417e-01 7.912155e-02 1.892076e-01 -2.239603e-01 -2.175221e-02 2.607656e-01 7.219550e-02 1.850381e-01 -3.763828e-04 3.276190e-01 -2.337175e-02 -3.192298e-03 3.790391e-01 -5.846003e-02 -1.985153e-01 2.353974e-04 -5.080285e-01
<VARIANCE> 39
 3.828609e+01 2.708358e+01 3.645892e+01 5.138680e+01 5.517683e+01 9.637354e+01 5.209626e+01 9.619483e+01 5.245089e+01 4.826152e+01 2.429215e+01 2.436580e+01 6.271061e+01 2.338849e+00 3.745419e+00 3.003716e+00 2.641966e+00 2.332622e+00 5.453001e+00 2.890537e+00 4.624134e+00 4.116509e+00 2.283607e+00 2.025141e+00 2.388246e+00 8.230466e+00 4.440817e-01 2.477148e-01 4.848018e-01 3.307264e-01 4.777407e-01 8.059794e-01 4.036482e-01 8.738572e-01 7.610247e-01 3.631556e-01 3.222005e-01 3.764957e-01 5.965635e-01
<GCONST> 1.269695e+02
<STATE> 3
<MEAN> 39
 -6.869173e+00 3.532171e+00 -2.528652e+00 -6.014688e+00 -3.847699e-01 -7.946801e+00 -3.264552e+00 -9.803661e-01 -1.043505e+01 -8.041691e-01 -4.447526e-01 -5.668218e+00 7.724395e+01 -2.222791e-01 7.960136e-01 -9.667815e-02 2.676057e-02 -4.509774e-01 1.419223e+00 2.280873e-01 3.837088e-02 1.379508e+00 3.751825e-02 -4.969502e-01 2.101298e-01 -1.935216e+00 -8.387767e-02 -3.281519e-01 -3.258904e-01 -1.214763e-01 -1.577016e-01 -3.572375e-01 -1.746057e-01 -2.874434e-04 -2.254934e-01 -9.560218e-02 2.151880e-02 -7.030417e-02 3.736466e-01
<VARIANCE> 39
 2.037070e+01 2.635785e+01 2.887737e+01 3.519261e+01 4.493918e+01 4.272934e+01 5.606911e+01 4.806808e+01 5.708105e+01 2.987915e+01 3.194720e+01 2.553611e+01 4.760717e+01 6.724879e-01 1.270435e+00 3.283131e+00 1.891788e+00 4.016083e+00 3.796667e+00 2.569335e+00 3.542033e+00 4.259355e+00 1.690471e+00 2.243915e+00 2.103916e+00 3.474060e+00 1.145799e-01 2.734348e-01 4.515890e-01 3.230534e-01 4.666237e-01 5.795712e-01 4.281673e-01 5.447938e-01 8.193518e-01 3.557654e-01 3.611330e-01 3.562967e-01 3.753258e-01
<GCONST> 1.173138e+02
<STATE> 4
<MEAN> 39
 -8.774893e+00 5.067598e+00 -4.925873e+00 -6.804404e+00 -4.615611e+00 -6.751575e+00 -7.203228e+00 -2.714984e+00 -8.042769e+00 -2.273062e+00 -9.862320e-01 -4.852623e+00 7.152384e+01 -4.132446e-01 1.307721e-01 -3.199084e-02 -7.032771e-02 -2.172750e-01 2.327150e-01 -2.988722e-02 -2.040686e-01 8.087822e-02 -2.087495e-01 -2.715052e-01 2.810703e-02 -4.010885e-01 -7.341392e-02 -1.908764e-01 1.526159e-01 1.091405e-02 1.070130e-01 -9.720486e-02 1.015990e-01 -4.199494e-02 -1.465159e-01 -2.117045e-02 7.686142e-03 4.575838e-02 3.539035e-01
<VARIANCE> 39
 1.662177e+01 1.933823e+01 2.314056e+01 2.700735e+01 3.716467e+01 2.044447e+01 3.903878e+01 2.914241e+01 3.254202e+01 2.939041e+01 1.731501e+01 1.776849e+01 3.366994e+01 6.147659e-01 1.159838e+00 1.231333e+00 1.143707e+00 1.830363e+00 1.729278e+00 1.803460e+00 1.831291e+00 2.107802e+00 1.483568e+00 1.357202e+00 1.223349e+00 9.726250e-01 1.255595e-01 2.679377e-01 2.541422e-01 2.609487e-01 3.643307e-01 3.242019e-01 3.396097e-01 4.160698e-01 4.252559e-01 3.370293e-01 2.506358e-01 2.305378e-01 3.239135e-01
<GCONST> 1.015175e+02
<TRANSP> 5
 0.000000e+00 1.000000e+00 0.000000e+00 0.000000e+00 0.000000e+00
 0.000000e+00 6.786225e-01 3.213775e-01 0.000000e+00 0.000000e+00
 0.000000e+00 0.000000e+00 4.976179e-01 5.023822e-01 0.000000e+00
 0.000000e+00 0.000000e+00 0.000000e+00 7.057397e-01 2.942603e-01
 0.000000e+00 0.000000e+00 0.000000e+00 0.000000e+00 0.000000e+00
<ENDHMM>
~h "u"
<BEGINHMM>
<NUMSTATES> 5
<STATE> 2
<MEAN> 39
 -8.603553e+00 3.800775e+00 1.155381e+00 -3.559706e+00 2.956530e+00 -9.903240e+00 -6.194905e+00 -3.879284e+00 -1.517852e+01 -8.380379e+00 -4.967372e+00 -6.851609e+00 8.200429e+01 5.718266e-01 1.059486e-02 3.681940e-01 4.413017e-01 6.761816e-01 -1.268961e+00 -2.835869e-02 6.420341e-01 -1.132921e+00 -5.600040e-01 -2.551117e-01 -7.427444e-01 9.735159e-01 1.707785e-03 2.137285e-01 -1.359460e-02 -1.923812e-02 -2.161350e-01 1.153352e-01 1.008598e-01 1.133653e-01 2.024342e-01 2.272001e-01 -1.674050e-02 -1.014902e-01 -3.611220e-01
<VARIANCE> 39
 2.617339e+01 4.668378e+01 2.862183e+01 4.425511e+01 7.142014e+01 5.380867e+01 5.922599e+01 6.986146e+01 8.325170e+01 7.007310e+01 4.523036e+01 3.585491e+01 4.779863e+01 3.027763e+00 4.355601e+00 3.061182e+00 4.764990e+00 6.418983e+00 5.570661e+00 5.498271e+00 5.569352e+00 7.377202e+00 4.860959e+00 5.236862e+00 4.617102e+00 4.544200e+00 5.028083e-01 7.130393e-01 4.132079e-01 6.310856e-01 1.081968e+00 7.865633e-01 8.540244e-01 9.360967e-01 1.367293e+00 9.977624e-01 7.424909e-01 6.501032e-01 7.375892e-01
<GCONST> 1.395007e+02
<STATE> 3
<MEAN> 39
 -8.195904e+00 3.390035e+00 3.655526e+00 4.072871e-01 4.679049e+00 -1.541638e+01 -7.631293e+00 7.973721e-01 -1.261270e+01 -6.561239e+00 -4.537680e+00 -8.510219e+00 8.440101e+01 3.975357e-02 -1.096056e-01 -2.052786e-01 2.984721e-01 -1.009111e-01 -5.209500e-01 -1.944113e-01 2.128011e-01 3.927660e-01 7.457347e-01 3.671828e-01 -1.560206e-01 -6.299064e-02 -8.371548e-02 -2.407503e-02 -1.403070e-01 -2.254959e-01 -1.134762e-01 4.595272e-01 4.661973e-02 -3.458997e-01 2.719171e-01 1.413213e-01 3.886731e-02 1.302671e-01 -1.144317e-01
<VARIANCE> 39
 2.228807e+01 4.258046e+01 3.743250e+01 5.571078e+01 5.257844e+01 7.299970e+01 7.479630e+01 6.459538e+01 7.179816e+01 4.775035e+01 5.321462e+01 3.889068e+01 1.877680e+01 5.246049e-01 1.425014e+00 2.234337e+00 1.738778e+00 2.620472e+00 4.385934e+00 2.522915e+00 3.007208e+00 3.280237e+00 1.871639e+00 2.058219e+00 2.001667e+00 8.410710e-01 1.859444e-01 2.680782e-01 2.827543e-01 3.937803e-01 5.211511e-01 9.594607e-01 6.270027e-01 6.150492e-01 6.566238e-01 3.769716e-01 4.833567e-01 4.023377e-01 1.100302e-01
<GCONST> 1.181299e+02
<STATE> 4
<MEAN> 39
 -5.835897e+00 7.145195e+00 2.724812e+00 -5.858842e+00 -2.047568e+00 -1.447971e+01 -4.995191e+00 1.100707e+00 -1.338449e+01 -5.824417e+00 -6.228889e+00 -1.283696e+01 8.093734e+01 -7.247793e-02 -1.452346e-01 -3.011903e-01 -1.134736e-01 -2.846538e-01 2.362496e-01 1.054775e-01 -2.196818e-01 3.059003e-01 3.983328e-01 9.722176e-02 2.336727e-01 -3.160648e-01 -4.314162e-02 -6.457100e-02 -5.322164e-02 -6.300524e-03 2.979701e-02 1.104948e-01 8.082286e-03 -5.896749e-02 -1.803482e-03 -3.897642e-02 3.038146e-02 1.204118e-01 -1.089179e-02
<VARIANCE> 39
 2.063971e+01 4.944535e+01 3.137846e+01 4.559613e+01 6.717664e+01 6.736526e+01 5.078042e+01 6.498264e+01 6.172372e+01 6.482867e+01 4.581478e+01 4.154786e+01 3.176975e+01 3.472317e-01 1.103307e+00 1.175224e+00 1.090248e+00 1.401811e+00 1.974669e+00 1.807649e+00 1.571100e+00 1.861021e+00 1.606588e+00 1.403806e+00 1.610847e+00 6.004623e-01 3.974696e-02 1.256118e-01 1.509821e-01 1.770623e-01 2.058883e-01 2.905707e-01 3.374023e-01 2.600053e-01 3.169183e-01 2.922847e-01 2.605039e-01 2.163195e-01 5.160820e-02
<GCONST> 1.020554e+02
<TRANSP> 5
 0.000000e+00 1.000000e+00 0.000000e+00 0.000000e+00 0.000000e+00
 0.000000e+00 7.480308e-01 2.519691e-01 0.000000e+00 0.000000e+00
 0.000000e+00 0.000000e+00 6.279507e-01 3.720493e-01 0.000000e+00
 0.000000e+00 0.000000e+00 0.000000e+00 8.617517e-01 1.382483e-01
 0.000000e+00 0.000000e+00 0.000000e+00 0.000000e+00 0.000000e+00
<ENDHMM>
~h "y"
<BEGINHMM>
<NUMSTATES> 5
<STATE> 2
<MEAN> 39
 -1.311964e+01 3.560032e+00 1.436265e+00 -8.171904e+00 -5.082831e+00 -5.468508e+00 7.447619e-01 -6.786846e+00 -1.287144e+01 -2.766043e-01 -3.455583e+00 -4.915535e+00 7.660048e+01 2.012312e+00 -4.152747e-01 -6.523707e-01 4.020721e-03 -4.976756e-01 -8.815090e-01 -1.781645e-01 3.809409e-01 -2.896243e-01 2.051682e-01 5.202805e-01 4.629313e-01 2.679270e+00 1.346927e-01 -4.355350e-01 -5.149350e-01 4.626989e-02 2.779267e-02 -1.372248e-01 -1.240242e-01 3.414654e-01 1.967625e-01 -9.021983e-02 1.718714e-01 -9.182017e-03 2.758062e-01
<VARIANCE> 39
 5.409400e+01 3.128220e+01 3.669703e+01 2.609012e+01 3.294506e+01 3.965699e+01 2.631094e+01 4.792184e+01 2.895363e+01 4.739231e+01 1.855127e+01 2.005685e+01 5.248113e+01 3.165449e+00 3.815461e+00 3.651057e+00 1.436742e+00 2.792320e+00 3.676123e+00 2.344948e+00 4.016111e+00 3.071550e+00 2.935015e+00 2.126720e+00 1.407090e+00 2.042365e+00 8.423365e-01 5.637192e-01 4.535783e-01 3.592126e-01 5.635071e-01 6.803415e-01 5.637172e-01 4.934488e-01 5.557463e-01 4.014533e-01 3.369341e-01 3.694166e-01 3.886461e-01
<GCONST> 1.207964e+02
<STATE> 3
<MEAN> 39
 -4.261571e+00 -5.152373e+00 -8.754078e+00 -6.517317e+00 -6.515956e+00 -1.045288e+01 -9.553208e-01 3.065082e-01 -1.023423e+01 -1.272416e+00 1.574824e+00 -3.636541e+00 8.923706e+01 1.422789e-01 -1.010257e+00 -8.908314e-01 7.412788e-01 1.036263e+00 -3.096100e-01 -8.073185e-01 -1.869269e-01 1.984549e-01 5.219887e-01 6.642547e-01 -1.052006e-01 8.573244e-01 -2.480007e-01 3.488851e-01 4.823014e-01 2.799403e-01 2.780525e-01 -1.557525e-01 -3.312144e-01 -4.845845e-01 -1.883399e-01 8.193859e-02 -1.372425e-01 -8.438955e-02 -3.991645e-01
<VARIANCE> 39
 3.058952e+01 1.252394e+01 2.725989e+01 2.302015e+01 3.989123e+01 4.015435e+01 2.475168e+01 3.985747e+01 2.694767e+01 6.433999e+01 1.631900e+01 2.786242e+01 1.406842e+01 8.196248e-01 1.380345e+00 1.954231e+00 1.503717e+00 1.694799e+00 1.697220e+00 1.975513e+00 3.154185e+00 2.750346e+00 1.395672e+00 1.608749e+00 2.271682e+00 1.138967e+00 1.511045e-01 1.309438e-01 1.279322e-01 1.796353e-01 2.924799e-01 3.858139e-01 2.506557e-01 2.505630e-01 2.176805e-01 3.543904e-01 3.197263e-01 3.284215e-01 1.412840e-01
<GCONST> 1.020025e+02
<STATE> 4
<MEAN> 39
 -7.579303e+00 -4.454401e+00 -3.343122e+00 3.300499e+00 3.512896e+00 -2.041326e+01 -1.224327e+01 -6.335514e+00 -1.383788e+01 3.223553e+00 1.273121e+00 -6.825658e+00 9.036250e+01 -1.038320e-02 4.248642e-02 4.576921e-02 -5.829494e-02 7.562920e-02 -1.614043e-01 -2.124783e-01 -7.582661e-03 -1.083705e-01 1.063207e-01 4.688966e-02 -1.158131e-01 2.785297e-02 3.651329e-02 -1.211888e-02 -5.078828e-02 -1.753662e-01 -1.310891e-01 1.511254e-01 1.633906e-01 1.233267e-01 2.078315e-02 -8.313689e-02 -2.325508e-02 3.307099e-03 -1.240408e-02
<VARIANCE> 39
 1.492978e+01 1.386152e+01 2.491010e+01 3.604608e+01 4.044662e+01 3.652897e+01 3.228565e+01 4.472690e+01 8.297009e+01 8.042315e+01 3.774165e+01 4.525280e+01 6.407204e+00 3.168287e-01 3.040710e-01 1.771319e+00 3.337161e+00 2.900892e+00 3.368941e+00 2.020962e+00 1.575038e+00 1.768488e+00 2.150994e+00 1.233503e+00 2.302809e+00 1.157437e-01 2.616365e-02 4.529826e-02 1.685182e-01 2.006901e-01 2.051917e-01 2.549394e-01 1.890881e-01 2.529146e-01 2.697330e-01 3.675978e-01 1.999139e-01 4.081472e-01 1.728539e-02
<GCONST> 9.459704e+01
<TRANSP> 5
 0.000000e+00 1.000000e+00 0.000000e+00 0.000000e+00 0.000000e+00
 0.000000e+00 7.454826e-01 2.545175e-01 0.000000e+00 0.000000e+00
 0.000000e+00 0.000000e+00 8.158857e-01 1.841143e-01 0.000000e+00
 0.000000e+00 0.000000e+00 0.000000e+00 9.432948e-01 5.670514e-02
 0.000000e+00 0.000000e+00 0.000000e+00 0.000000e+00 0.000000e+00
<ENDHMM>
~h "ay"
<BEGINHMM>
<NUMSTATES> 5
<STATE> 2
<MEAN> 39
 -2.152663e+01 -4.787789e+00 4.724273e+00 -1.109487e+01 -6.054047e+00 -2.646744e+00 -5.946742e+00 -7.675362e+00 -9.196211e+00 -3.212178e-02 -1.583616e+00 -5.627969e+00 7.266504e+01 -2.217662e+00 -2.939110e+00 3.025176e+00 -2.138006e+00 1.176196e-01 2.734755e-01 2.098066e-01 -1.301779e-01 7.108340e-02 6.525184e-01 8.976436e-01 5.914720e-01 3.377708e+00 -6.420431e-01 3.309541e-01 1.614195e-01 -2.304519e-01 3.385095e-01 -6.379481e-02 1.004630e-02 4.491505e-01 2.659767e-01 -2.484123e-01 -9.355371e-02 1.371781e-01 3.254492e-01
<VARIANCE> 39
 2.348417e+01 2.787222e+01 4.235529e+01 2.943697e+01 2.532858e+01 2.801131e+01 6.828180e+01 2.722694e+01 3.770305e+01 2.465144e+01 1.908206e+01 1.865019e+01 2.134996e+01 2.458163e+00 1.951077e+00 4.593913e+00 2.283237e+00 2.666672e+00 2.898807e+00 3.497862e+00 2.693941e+00 3.037553e+00 2.005742e+00 1.990353e+00 1.998603e+00 1.641982e+00 4.079003e-01 5.886005e-01 6.740779e-01 5.192736e-01 4.251730e-01 4.983588e-01 4.649149e-01 4.482487e-01 5.007412e-01 3.458258e-01 3.700502e-01 3.807285e-01 3.649783e-01
<GCONST> 1.167246e+02
<STATE> 3
<MEAN> 39
 -3.231199e+01 -8.457906e+00 1.243749e+01 -1.604038e+01 -4.367668e+00 -1.337255e+00 -2.902625e+00 -3.965461e+00 -8.534172e+00 -3.421209e-01 -2.710719e-01 -3.458140e+00 8.414620e+01 -1.371946e+00 1.878978e-01 2.819351e-01 -6.781877e-01 5.907877e-01 1.721316e-01 1.644813e-01 4.075253e-01 2.801240e-01 1.197746e-01 8.290610e-02 3.640404e-01 1.555817e+00 6.503893e-01 4.324231e-01 -5.969099e-01 3.670860e-01 7.352208e-02 -1.951239e-01 -1.395997e-01 -1.848745e-01 -1.027028e-01 -1.130924e-01 -2.531643e-01 -9.549771e-02 -5.391484e-01
<VARIANCE> 39
 1.321140e+01 1.344320e+01 3.467281e+01 2.133898e+01 2.569103e+01 2.901051e+01 6.750033e+01 2.464999e+01 4.143897e+01 2.818274e+01 1.595389e+01 1.527090e+01 1.297373e+01 2.379943e+00 1.447315e+00 2.777929e+00 1.546615e+00 1.498799e+00 1.477958e+00 1.481138e+00 2.021439e+00 1.494431e+00 1.403197e+00 1.417787e+00 1.022825e+00 1.647846e+00 2.977797e-01 3.843760e-01 3.861912e-01 3.483841e-01 2.442334e-01 4.581529e-01 3.722427e-01 3.603787e-01 3.710619e-01 3.004035e-01 3.182500e-01 1.999985e-01 1.359150e-01
<GCONST> 1.034971e+02
<STATE> 4
<MEAN> 39
 -2.941511e+01 -6.505174e+00 8.020487e+00 -1.512231e+01 1.186389e-01 -6.512354e+00 -7.445455e+00 -6.452392e+00 -6.858917e+00 -1.672385e+00 -3.337528e+00 -2.131582e+00 8.582880e+01 3.301694e+00 8.599327e-01 -5.839517e-01 1.733097e+00 -4.035439e-01 -1.457541e+00 5.544890e-02 -7.213672e-01 -8.293827e-01 -9.599736e-01 -1.227970e+00 -6.043648e-02 -4.010702e-01 9.840760e-01 3.903485e-01 1.527578e-03 2.462583e-01 -4.651071e-01 4.261527e-03 3.555149e-01 1.339021e-01 -4.687891e-01 -4.910798e-02 4.858895e-02 -2.207480e-01 -7.797974e-02
<VARIANCE> 39
 2.986750e+01 2.047290e+01 2.404233e+01 3.151144e+01 5.045044e+01 4.954806e+01 5.771362e+01 3.245013e+01 3.480885e+01 2.601279e+01 2.699413e+01 1.569766e+01 9.288954e+00 5.081965e+00 5.643569e+00 3.309447e+00 2.724306e+00 3.728244e+00 4.452376e+00 5.152669e+00 3.682470e+00 5.366707e+00 2.018808e+00 2.711184e+00 1.590848e+00 1.348549e+00 4.104431e-01 1.151034e+00 5.896626e-01 7.831709e-01 6.282362e-01 1.117995e+00 9.300151e-01 9.630224e-01 9.417548e-01 4.912064e-01 6.287419e-01 3.499471e-01 3.150580e-01
<GCONST> 1.251940e+02
<TRANSP> 5
 0.000000e+00 1.000000e+00 0.000000e+00 0.000000e+00 0.000000e+00
 0.000000e+00 5.994523e-01 4.005477e-01 0.000000e+00 0.000000e+00
 0.000000e+00 0.000000e+00 8.236373e-01 1.763626e-01 0.000000e+00
 0.000000e+00 0.000000e+00 0.000000e+00 7.793967e-01 2.206033e-01
 0.000000e+00 0.000000e+00 0.000000e+00 0.000000e+00 0.000000e+00
<ENDHMM>
~h "ny"
<BEGINHMM>
<NUMSTATES> 5
<STATE> 2
<MEAN> 39
 -1.009576e+01 -2.947855e+00 -2.746129e+00 -3.327450e+00 1.810431e+00 -1.327365e+00 -3.374622e+00 -6.212034e+00 -1.076483e+01 -2.260926e+00 5.282868e-01 -1.868454e+00 7.525834e+01 -1.289795e-01 -1.351161e-01 -9.162827e-02 2.602085e-01 -1.014649e+00 8.396950e-01 3.094916e-01 -1.221161e-01 -1.249690e-01 -6.033142e-01 -6.145983e-01 -1.149691e-02 -1.012921e+00 3.027617e-02 2.233143e-01 -2.114677e-02 2.553223e-02 1.025514e-02 -1.922601e-01 -1.113847e-01 4.273624e-02 -6.818340e-03 3.892226e-02 5.290178e-02 -9.252239e-03 3.557055e-02
<VARIANCE> 39
 2.633415e+00 3.767495e+01 8.656109e+00 1.484669e+01 6.382078e+01 1.669828e+01 3.803079e+01 2.099742e+01 1.917515e+01 1.580906e+01 3.216392e+01 3.370202e+01 9.509340e+00 2.712193e-01 2.430789e+00 9.212741e-01 1.096323e+00 2.028572e+00 1.356270e+00 1.707099e+00 1.251325e+00 1.709483e+00 1.637698e+00 1.815357e+00 1.260698e+00 2.364590e-01 5.619087e-02 4.595763e-01 1.595225e-01 2.201091e-01 4.695836e-01 1.922699e-01 3.211077e-01 2.474227e-01 2.687887e-01 3.580063e-01 3.750885e-01 2.228599e-01 3.343482e-02
<GCONST> 9.135543e+01
<STATE> 3
<MEAN> 39
 -1.126542e+01 3.300801e+00 -3.387110e+00 -2.142822e+00 -2.003300e+00 1.380257e+00 -2.169134e+00 -5.595428e+00 -1.106267e+01 -4.630200e+00 -2.148292e+00 -3.080972e+00 6.858097e+01 -4.069913e-01 1.282747e+00 1.406982e-01 -1.089314e-01 3.761724e-02 -7.150155e-02 -4.700052e-01 3.544917e-01 4.102956e-01 -2.476142e-02 -8.522458e-04 -8.295834e-02 -8.896338e-01 -5.781830e-02 -1.490410e-01 4.333448e-02 -5.760461e-02 3.001716e-02 -1.456484e-01 -2.670623e-02 5.624851e-02 8.253179e-02 9.814647e-02 3.581424e-02 -7.228339e-02 1.047478e-01
<VARIANCE> 39
 3.738275e+00 1.767224e+01 8.628397e+00 1.412892e+01 2.838271e+01 1.131835e+01 2.787987e+01 1.309370e+01 1.147756e+01 1.613017e+01 1.177798e+01 1.202556e+01 4.773276e+00 1.770062e-01 9.887751e-01 4.775398e-01 7.422844e-01 9.586917e-01 1.157271e+00 1.507467e+00 9.190823e-01 1.006407e+00 1.145223e+00 8.230509e-01 8.536180e-01 1.561633e-01 3.270250e-02 1.354476e-01 7.640853e-02 1.539308e-01 1.608285e-01 1.922959e-01 2.969910e-01 1.965899e-01 1.746071e-01 1.880720e-01 1.746845e-01 1.380832e-01 2.089849e-02
<GCONST> 7.247470e+01
<STATE> 4
<MEAN> 39
 -1.415429e+01 8.057851e+00 -1.289885e+00 -2.194864e+00 -1.931361e+00 -5.194671e-01 -5.275319e+00 -3.537601e+00 -8.656323e+00 -5.754747e+00 -3.691990e+00 -5.363932e+00 6.474111e+01 -2.105189e-01 -7.526780e-03 -1.437801e-02 -1.100141e-01 -1.783234e-01 -1.360211e-01 -3.285486e-02 9.180489e-02 7.104591e-02 -6.120542e-02 -1.219034e-01 -7.804554e-02 -1.395479e-01 1.671168e-02 -5.860567e-02 -2.188760e-02 -1.304979e-02 1.279881e-02 1.579434e-02 1.251955e-02 -4.552541e-02 -3.455402e-02 -3.427717e-04 7.712058e-03 -3.077663e-03 4.587774e-02
<VARIANCE> 39
 3.060734e+00 4.134628e+00 5.799319e+00 5.991529e+00 9.303325e+00 8.972443e+00 1.112390e+01 9.160237e+00 9.095498e+00 1.124690e+01 1.409899e+01 1.067764e+01 2.151353e+00 9.992365e-02 2.065783e-01 2.713640e-01 4.267119e-01 5.800061e-01 6.063173e-01 6.668071e-01 8.202074e-01 7.290299e-01 6.283108e-01 6.323454e-01 5.696984e-01 4.287087e-02 1.843183e-02 4.044765e-02 5.165692e-02 9.387831e-02 1.279680e-01 1.287906e-01 1.386107e-01 1.483951e-01 1.388371e-01 1.296835e-01 1.291170e-01 1.108981e-01 1.303424e-02
<GCONST> 5.146061e+01
<TRANSP> 5
 0.000000e+00 1.000000e+00 0.000000e+00 0.000000e+00 0.000000e+00
 0.000000e+00 8.470674e-01 1.529326e-01 0.000000e+00 0.000000e+00
 0.000000e+00 0.000000e+00 8.135698e-01 1.864302e-01 0.000000e+00
 0.000000e+00 0.000000e+00 0.000000e+00 9.144984e-01 8.550149e-02
 0.000000e+00 0.000000e+00 0.000000e+00 0.000000e+00 0.000000e+00
<ENDHMM>
~h "sp"
<BEGINHMM>
<NUMSTATES> 3
<STATE> 2
~s "silst"
<TRANSP> 3
 0.000000e+00 2.972738e-01 7.027262e-01
 0.000000e+00 9.194063e-01 8.059365e-02
 0.000000e+00 0.000000e+00 0.000000e+00
<ENDHMM>
~h "sil"
<BEGINHMM>
<NUMSTATES> 5
<STATE> 2
<MEAN> 39
 -1.692643e+01 5.314956e+00 -3.628073e+00 -5.095740e+00 -4.134549e+00 -2.310550e+00 -5.794140e+00 -3.007667e+00 -7.762490e+00 -6.317101e+00 -3.609242e+00 -5.120334e+00 6.383844e+01 -7.437158e-03 -4.173552e-03 -3.256737e-02 4.624395e-02 -5.011300e-02 -1.029712e-02 4.644039e-03 -2.006822e-02 -3.989185e-02 5.535040e-02 -3.340039e-02 -2.508808e-02 -7.455093e-02 -6.093112e-03 -1.272498e-02 6.767265e-03 -1.230423e-02 6.530379e-03 -1.747927e-04 2.820556e-03 8.270624e-03 1.356299e-03 -3.620883e-03 6.069921e-03 4.513955e-03 1.593709e-02
<VARIANCE> 39
 4.559751e+00 7.150875e+00 7.155487e+00 1.101066e+01 8.262061e+00 8.139706e+00 1.049760e+01 1.053042e+01 1.281903e+01 1.470814e+01 1.244630e+01 9.724882e+00 3.613886e+00 1.092833e-01 2.161395e-01 3.322724e-01 4.639052e-01 5.177689e-01 5.961820e-01 6.990134e-01 7.373842e-01 7.666606e-01 7.797207e-01 7.126918e-01 6.340887e-01 5.380967e-02 1.786370e-02 3.895496e-02 6.248610e-02 8.226679e-02 1.016362e-01 1.177986e-01 1.363184e-01 1.479276e-01 1.509296e-01 1.499997e-01 1.418184e-01 1.253381e-01 7.921983e-03
<GCONST> 5.455174e+01
<STATE> 3
~s "silst"
<STATE> 4
<MEAN> 39
 -1.880455e+01 4.173374e+00 -2.148136e+00 -7.965727e+00 -4.050796e+00 -2.521391e+00 -6.803111e+00 -3.379140e+00 -7.266983e+00 -8.079267e+00 -2.756353e+00 -4.687282e+00 6.626075e+01 -1.061393e-01 8.920568e-02 1.208917e-01 -1.935542e-01 6.376973e-02 5.163253e-02 -8.717983e-02 -1.252834e-01 1.276900e-01 -1.322570e-01 1.493170e-01 -3.259701e-02 6.134216e-02 4.855071e-02 5.597210e-02 -3.932741e-02 7.812305e-02 1.171391e-02 2.183351e-02 9.571977e-03 -1.428969e-02 2.290101e-02 3.991531e-02 -1.777380e-02 -3.989834e-02 -7.744068e-02
<VARIANCE> 39
 1.249166e+01 1.794098e+01 2.054158e+01 2.075288e+01 1.595654e+01 1.371416e+01 1.840785e+01 1.614665e+01 2.881258e+01 2.749984e+01 1.835525e+01 1.495021e+01 1.106384e+01 1.321769e+00 1.416550e+00 1.879110e+00 2.261714e+00 1.513704e+00 1.386000e+00 1.851481e+00 1.573560e+00 2.731589e+00 1.966087e+00 1.624742e+00 1.211507e+00 1.491233e+00 2.528678e-01 2.750812e-01 3.526269e-01 3.962260e-01 3.025492e-01 2.810495e-01 3.884947e-01 2.987993e-01 5.019277e-01 3.393293e-01 2.994260e-01 2.295507e-01 2.650672e-01
<GCONST> 1.005355e+02
<TRANSP> 5
 0.000000e+00 1.000000e+00 0.000000e+00 0.000000e+00 0.000000e+00
 0.000000e+00 9.234745e-01 3.794248e-02 3.858304e-02 0.000000e+00
 0.000000e+00 0.000000e+00 8.255830e-01 1.744170e-01 0.000000e+00
 0.000000e+00 9.453056e-02 0.000000e+00 7.215899e-01 1.838796e-01
 0.000000e+00 0.000000e+00 0.000000e+00 0.000000e+00 0.000000e+00
<ENDHMM>
