~o
<STREAMINFO> 1 39
<VECSIZE> 39<NULLD><MFCC_D_A_0><DIAGC>
~s "silst"
<MEAN> 39
 -1.663783e+01 2.946851e+00 -2.426256e+00 -3.066410e+00 -2.747149e+00 -2.341558e+00 -6.498639e+00 -2.368943e+00 -6.842309e+00 -4.538447e+00 -3.085753e+00 -4.121433e+00 6.460728e+01 -5.124981e-02 -2.732051e-02 -4.503543e-03 1.703933e-02 8.332633e-04 -3.652715e-04 -1.990836e-03 3.002789e-03 2.802692e-03 5.106621e-03 -2.283961e-02 -9.529861e-03 -4.317666e-02 -3.256814e-03 -4.576636e-03 4.691943e-03 -1.659293e-02 2.103201e-03 -1.557373e-02 -1.092656e-02 -9.369165e-03 -9.812054e-03 -7.696098e-04 6.881631e-03 5.923600e-03 1.695432e-02
<VARIANCE> 39
 3.109687e+00 9.603130e+00 7.070351e+00 8.819900e+00 9.031587e+00 7.557209e+00 1.043518e+01 9.041067e+00 9.675371e+00 1.020309e+01 8.879271e+00 8.250648e+00 2.731918e+01 1.038115e-01 1.983741e-01 3.292598e-01 4.795165e-01 5.538150e-01 6.527086e-01 7.428277e-01 7.616740e-01 8.267950e-01 7.701318e-01 7.371321e-01 6.695766e-01 3.854183e-02 2.068502e-02 4.124386e-02 6.761821e-02 9.590454e-02 1.134389e-01 1.343966e-01 1.515813e-01 1.562021e-01 1.730271e-01 1.575245e-01 1.513338e-01 1.374239e-01 7.885023e-03
<GCONST> 5.609175e+01
~h "a"
<BEGINHMM>
<NUMSTATES> 5
<STATE> 2
<MEAN> 39
 -4.696353e+00 -2.250322e+00 -6.329226e+00 -8.149360e+00 -6.767767e+00 -1.387353e+01 -3.225488e+00 1.134073e+00 -1.536588e+01 -1.982635e+00 5.541619e-01 -4.469871e+00 8.292633e+01 -2.378685e-01 -1.391004e-02 -1.219836e-01 -2.107560e-01 -4.242629e-02 6.161945e-01 2.733171e-01 1.036891e-01 3.401610e-01 2.385381e-01 2.482569e-01 1.783289e-01 -5.250831e-01 -1.783788e-01 1.392229e-01 1.497123e-01 5.232800e-02 1.070607e-01 1.485695e-01 -1.487256e-01 -1.137365e-01 1.308670e-01 -1.304350e-01 -1.028638e-01 -2.140185e-02 -1.845735e-01
<VARIANCE> 39
 2.227403e+01 2.130539e+01 2.713060e+01 2.160398e+01 3.810228e+01 6.850457e+01 4.839892e+01 5.432478e+01 6.235498e+01 5.081720e+01 2.807936e+01 2.764662e+01 1.162165e+02 6.113192e-01 1.385741e+00 1.513772e+00 1.158424e+00 1.512223e+00 2.297784e+00 1.804193e+00 1.913723e+00 2.420215e+00 1.759194e+00 1.515072e+00 1.546668e+00 1.628257e+00 1.412555e-01 1.932273e-01 2.759596e-01 1.902123e-01 2.866795e-01 3.832102e-01 2.793085e-01 3.338143e-01 3.932967e-01 3.053371e-01 2.624218e-01 2.910713e-01 1.690650e-01
<GCONST> 1.074957e+02
<STATE> 3
<MEAN> 39
 -8.075471e+00 -1.357433e+00 -7.070868e+00 -9.031187e+00 -3.606575e+00 -5.919505e+00 -2.784994e+00 -2.526199e+00 -9.438907e+00 -9.500655e-01 1.790707e+00 -3.638698e+00 8.259020e+01 -1.826653e-01 3.283075e-01 8.872008e-02 4.534049e-02 2.467892e-02 2.655061e-01 -1.652339e-01 -1.184911e-01 1.570187e-01 -2.851872e-01 -1.024359e-01 1.344928e-01 -6.345571e-01 1.229088e-02 1.895786e-01 1.949438e-01 1.236185e-01 8.950067e-02 -1.518631e-01 -1.532421e-01 -6.771511e-02 -1.287653e-01 -9.079434e-02 -1.009695e-01 -1.166749e-02 -1.008210e-01
<VARIANCE> 39
 1.395038e+01 1.757146e+01 2.494426e+01 2.263829e+01 3.542396e+01 3.964754e+01 5.788506e+01 4.064597e+01 3.157512e+01 4.209082e+01 2.503016e+01 2.694930e+01 1.369266e+02 3.083353e-01 8.024667e-01 1.020486e+00 8.561627e-01 1.248303e+00 1.275542e+00 1.386100e+00 1.299543e+00 1.526198e+00 1.184337e+00 1.322974e+00 1.217987e+00 5.244045e-01 5.027540e-02 1.255575e-01 1.404795e-01 1.706988e-01 1.932411e-01 2.290322e-01 2.454696e-01 2.243668e-01 2.509389e-01 2.003815e-01 2.206929e-01 2.331017e-01 9.966181e-02
<GCONST> 9.402147e+01
<STATE> 4
<MEAN> 39
 -1.233746e+01 3.557837e+00 -4.410647e+00 -7.067462e+00 -5.254937e+00 -4.827484e+00 -6.088993e+00 -2.892694e+00 -9.209482e+00 -4.190704e+00 -1.001193e+00 -2.988010e+00 6.958611e+01 -2.815746e-01 3.001677e-01 2.259321e-01 2.081457e-01 8.240009e-02 -4.837925e-02 -2.709115e-01 -5.286153e-02 5.871567e-02 -1.140047e-01 -1.233261e-01 -1.027595e-01 -4.558170e-01 1.880694e-02 -2.826075e-02 4.784945e-02 7.712793e-02 8.156395e-02 -5.875819e-03 6.936552e-02 -8.653428e-03 -1.682246e-02 2.107934e-02 -2.203316e-02 -4.163637e-02 6.019053e-02
<VARIANCE> 39
 2.118678e+01 2.285013e+01 1.664635e+01 1.960090e+01 2.913948e+01 4.095723e+01 2.932331e+01 2.853765e+01 2.501550e+01 2.537203e+01 1.978284e+01 1.548697e+01 8.213699e+01 4.920140e-01 1.007887e+00 1.072326e+00 1.107264e+00 1.252197e+00 1.476433e+00 1.625029e+00 1.516964e+00 1.542575e+00 1.307408e+00 1.222791e+00 1.025047e+00 4.887607e-01 1.073564e-01 2.135828e-01 2.165020e-01 2.256061e-01 2.477273e-01 3.197823e-01 3.041640e-01 3.129758e-01 3.049700e-01 2.553844e-01 2.425155e-01 2.265310e-01 1.616948e-01
<GCONST> 9.628854e+01
<TRANSP> 5
 0.000000e+00 1.000000e+00 0.000000e+00 0.000000e+00 0.000000e+00
 0.000000e+00 7.047337e-01 2.952663e-01 0.000000e+00 0.000000e+00
 0.000000e+00 0.000000e+00 6.855402e-01 3.144598e-01 0.000000e+00
 0.000000e+00 0.000000e+00 0.000000e+00 7.415481e-01 2.584519e-01
 0.000000e+00 0.000000e+00 0.000000e+00 0.000000e+00 0.000000e+00
<ENDHMM>
~h "b"
<BEGINHMM>
<NUMSTATES> 5
<STATE> 2
<MEAN> 39
 -1.771743e+01 3.534188e+00 2.250121e+00 -1.080650e+01 5.782195e+00 -6.102797e+00 -1.227767e+01 -6.628012e+00 -8.286893e+00 -3.132411e-01 -1.395844e+00 -4.655278e+00 7.848809e+01 -1.047260e-01 4.074461e-01 7.238678e-01 -8.551833e-02 4.420395e-01 3.447992e-01 7.609431e-02 -1.930846e-01 -3.453403e-01 -3.321053e-01 -2.850682e-01 1.515520e-01 -2.150081e-01 1.789289e-01 -6.641534e-02 -6.193448e-02 3.005765e-01 3.324592e-02 -6.519321e-02 1.274341e-01 -3.345861e-02 -1.586133e-01 -3.454646e-02 -2.570695e-02 -1.034470e-01 9.434760e-02
<VARIANCE> 39
 1.349683e+02 3.789054e+01 5.060574e+01 8.233395e+01 3.857714e+01 4.637588e+01 3.542590e+01 3.690405e+01 5.236840e+01 3.862949e+01 2.651561e+01 2.003675e+01 1.011940e+02 9.049556e+00 3.144335e+00 3.531041e+00 6.649231e+00 3.971694e+00 3.872045e+00 3.312480e+00 3.824363e+00 5.473369e+00 2.781983e+00 1.831341e+00 1.461982e+00 4.207155e+00 9.487054e-01 6.474999e-01 6.287304e-01 8.013331e-01 6.285697e-01 8.621396e-01 6.665587e-01 7.249699e-01 7.740484e-01 4.636422e-01 3.174898e-01 2.643930e-01 7.283939e-01
<GCONST> 1.323108e+02
<STATE> 3
<MEAN> 39
 -6.680847e+00 9.154590e+00 4.407183e+00 -2.674818e+00 6.893739e+00 -4.104722e+00 -9.716350e+00 -5.235137e+00 -1.165838e+01 -4.003478e+00 -4.529997e+00 -6.598186e+00 7.592691e+01 -7.462418e-02 -5.209974e-01 -2.062632e-01 1.025931e+00 5.301279e-01 -4.814455e-01 4.650297e-02 -4.182636e-02 2.167560e-03 -3.126650e-01 2.023678e-02 -1.252599e-01 4.874228e-01 -1.290663e-01 -5.353003e-01 -1.413390e-01 9.311626e-02 -1.025843e-01 -5.168622e-01 -1.603331e-01 9.986944e-02 -1.921093e-01 -2.575536e-01 7.422584e-02 -6.108459e-02 3.335623e-01
<VARIANCE> 39
 7.369427e+00 3.263113e+01 2.754041e+01 1.859738e+01 2.728352e+01 3.652014e+01 4.713796e+01 4.912385e+01 6.689536e+01 2.833953e+01 2.547797e+01 2.149134e+01 8.793320e+01 1.337761e+00 5.343870e+00 3.154208e+00 3.522360e+00 2.796999e+00 6.114607e+00 3.217516e+00 5.018723e+00 5.530507e+00 2.628997e+00 2.124616e+00 1.879379e+00 3.917842e+00 2.862993e-01 5.966259e-01 6.278835e-01 6.439654e-01 4.096689e-01 1.036942e+00 5.567780e-01 1.013952e+00 1.247077e+00 5.776617e-01 3.430797e-01 3.608963e-01 6.230459e-01
<GCONST> 1.248116e+02
<STATE> 4
<MEAN> 39
 -4.977979e+00 -2.065991e-01 9.291075e-01 6.681515e-01 6.638026e+00 -1.418250e+01 -1.238341e+01 -5.028816e+00 -1.616489e+01 -9.408119e+00 -3.231570e+00 -9.069194e+00 8.469717e+01 -1.281336e-01 -3.375214e-01 4.205083e-01 4.566366e-01 3.505683e-02 -5.609651e-01 -1.391591e-01 4.723925e-01 -1.402620e-01 -1.916946e-01 -6.403849e-02 -1.139926e-01 -1.543526e-01 -3.513801e-02 2.785696e-01 1.241654e-01 -2.819762e-01 -2.884407e-01 4.091907e-01 1.267117e-01 8.795935e-02 2.717530e-01 2.036268e-01 6.119721e-03 1.107262e-01 -2.458159e-01
<VARIANCE> 39
 1.135591e+01 1.550879e+01 3.012600e+01 6.061026e+01 5.547722e+01 5.241833e+01 7.528933e+01 5.637475e+01 1.103380e+02 7.872070e+01 7.548077e+01 3.043842e+01 2.201088e+01 9.268391e-01 3.368278e+00 2.378326e+00 4.031250e+00 4.107628e+00 1.048963e+01 3.879648e+00 2.817981e+00 6.137624e+00 3.869091e+00 2.414431e+00 1.864589e+00 3.598302e+00 1.248805e-01 2.221136e-01 4.439422e-01 4.791673e-01 8.488557e-01 9.849408e-01 6.564978e-01 5.687127e-01 7.691615e-01 6.231977e-01 4.967898e-01 3.078788e-01 2.013485e-01
<GCONST> 1.255811e+02
<TRANSP> 5
 0.000000e+00 1.000000e+00 0.000000e+00 0.000000e+00 0.000000e+00
 0.000000e+00 6.678953e-01 3.321047e-01 0.000000e+00 0.000000e+00
 0.000000e+00 0.000000e+00 7.639830e-01 2.360170e-01 0.000000e+00
 0.000000e+00 0.000000e+00 0.000000e+00 7.148808e-01 2.851192e-01
 0.000000e+00 0.000000e+00 0.000000e+00 0.000000e+00 0.000000e+00
<ENDHMM>
~h "d"
<BEGINHMM>
<NUMSTATES> 5
<STATE> 2
<MEAN> 39
 -1.275417e+01 1.564103e+00 6.453817e+00 -7.251284e+00 -4.155884e+00 -1.005461e+01 -6.167728e+00 -5.977550e+00 -1.262665e+01 -7.243919e+00 -6.073337e+00 -4.062456e+00 8.112697e+01 4.646914e+00 1.959330e+00 -1.612880e+00 -2.256108e-01 -1.672022e+00 -7.532531e-01 2.138939e-01 1.171953e-02 -2.015582e+00 -1.173003e+00 4.205970e-02 -6.784775e-01 7.735308e-01 -7.094339e-01 -7.656823e-01 -7.393903e-01 -4.719384e-01 -4.788058e-02 -8.932506e-02 -2.907107e-01 2.720135e-01 4.478101e-01 6.443261e-01 5.249382e-01 6.058153e-03 5.686239e-01
<VARIANCE> 39
 3.352615e+01 2.056052e+01 3.594254e+01 1.645418e+01 2.521734e+01 3.765898e+01 3.587125e+01 4.907071e+01 4.457887e+01 2.347838e+01 2.465528e+01 2.616231e+01 1.131548e+02 3.590101e+00 2.677858e+00 2.502128e+00 2.932782e+00 2.839656e+00 4.544432e+00 4.163821e+00 5.064406e+00 6.838074e+00 3.109876e+00 2.662319e+00 2.886947e+00 1.111323e+00 5.495809e-01 5.783932e-01 4.294456e-01 3.850132e-01 4.978214e-01 5.425385e-01 7.754968e-01 7.693262e-01 1.499030e+00 5.653856e-01 4.846544e-01 3.958755e-01 2.070021e-01
<GCONST> 1.239779e+02
<STATE> 3
<MEAN> 39
 -5.535837e+00 -7.556858e-01 -2.354159e+00 -9.314806e+00 -9.369117e+00 -1.346801e+01 -7.070694e+00 -3.601428e+00 -1.322940e+01 -6.722773e+00 -3.112448e+00 -5.128808e+00 8.549190e+01 8.925083e-01 -1.226826e+00 -2.532257e+00 -3.365170e-01 -4.661367e-01 -3.221096e-01 -1.896231e-01 9.621395e-01 4.843079e-01 1.125499e+00 1.430865e+00 2.864034e-01 1.143751e+00 -9.058150e-01 -4.120047e-01 2.165491e-01 1.682451e-01 6.191406e-01 2.334643e-01 -4.245307e-02 5.656457e-02 3.971694e-01 4.325404e-01 1.585965e-01 1.395209e-01 -1.250264e-01
<VARIANCE> 39
 2.176674e+01 1.578498e+01 3.303307e+01 1.737462e+01 3.154433e+01 5.105056e+01 4.070287e+01 5.038230e+01 4.200054e+01 2.981880e+01 2.151189e+01 3.265673e+01 1.029206e+02 1.760061e+00 8.782029e-01 1.965640e+00 1.199273e+00 1.929751e+00 3.136082e+00 2.613705e+00 3.082619e+00 4.430940e+00 2.671270e+00 2.017277e+00 2.409591e+00 6.063513e-01 4.050137e-01 4.015916e-01 3.322461e-01 3.568013e-01 3.103189e-01 4.567854e-01 5.573105e-01 6.560954e-01 9.110806e-01 4.403796e-01 3.985403e-01 5.536043e-01 1.144970e-01
<GCONST> 1.144327e+02
<STATE> 4
<MEAN> 39
 -6.874471e+00 -4.092908e+00 -7.667910e+00 -7.847950e+00 -4.202254e+00 -1.360139e+01 -1.096237e+01 -3.241137e+00 -1.155073e+01 -2.324241e-01 2.903776e+00 -4.877460e+00 8.862747e+01 -1.840580e-01 -1.514180e-01 -4.681809e-02 7.728194e-01 1.233546e+00 -5.427666e-01 -9.621707e-01 -5.643688e-01 -2.827618e-01 3.879711e-01 6.144226e-01 -2.935021e-01 8.121692e-02 -4.871580e-02 2.837831e-01 4.446272e-01 1.345762e-01 1.846953e-01 5.678695e-02 -3.598789e-02 -2.339348e-01 -1.999755e-01 -3.037730e-01 -2.348832e-01 -7.911510e-02 -2.525172e-01
<VARIANCE> 39
 1.888761e+01 1.208580e+01 1.908141e+01 1.353729e+01 2.882061e+01 4.901826e+01 4.818184e+01 3.119343e+01 8.617961e+01 3.888497e+01 1.873572e+01 2.118063e+01 1.235870e+02 2.117517e-01 6.067389e-01 1.277652e+00 7.855994e-01 1.457151e+00 1.275910e+00 1.591058e+00 1.770198e+00 2.612529e+00 1.567239e+00 1.475734e+00 1.700537e+00 2.548783e-01 6.053865e-02 6.529050e-02 1.363751e-01 1.559386e-01 2.026926e-01 3.987803e-01 3.363289e-01 3.279502e-01 3.842475e-01 2.334565e-01 2.511646e-01 3.045837e-01 9.284274e-02
<GCONST> 9.525551e+01
<TRANSP> 5
 0.000000e+00 1.000000e+00 0.000000e+00 0.000000e+00 0.000000e+00
 0.000000e+00 5.116513e-01 4.883487e-01 0.000000e+00 0.000000e+00
 0.000000e+00 0.000000e+00 6.520811e-01 3.479190e-01 0.000000e+00
 0.000000e+00 0.000000e+00 0.000000e+00 8.392217e-01 1.607783e-01
 0.000000e+00 0.000000e+00 0.000000e+00 0.000000e+00 0.000000e+00
<ENDHMM>
~h "e"
<BEGINHMM>
<NUMSTATES> 5
<STATE> 2
<MEAN> 39
 -1.927021e+01 -6.214103e-01 -1.103362e+00 -9.948625e+00 -6.418335e-01 -5.839561e+00 -8.294512e+00 -6.624740e+00 -1.048947e+01 -1.669063e+00 -3.180636e-01 -4.423252e+00 7.924488e+01 5.506396e-01 5.398443e-03 5.077969e-01 1.033749e-01 5.423391e-01 -2.780956e-01 1.195030e-01 -2.978498e-01 -7.051896e-01 -3.772935e-01 -2.373686e-01 -3.321740e-01 1.510110e+00 8.118115e-01 8.061193e-02 -2.196988e-02 4.179354e-01 -1.312342e-01 -3.085593e-01 -1.809774e-01 9.500813e-02 -2.881968e-01 -2.479346e-01 3.145723e-02 2.522559e-02 -1.440315e-01
<VARIANCE> 39
 6.357505e+01 3.761215e+01 7.188206e+01 5.406776e+01 3.827667e+01 4.262087e+01 4.326707e+01 3.900686e+01 4.007461e+01 3.460205e+01 2.403547e+01 1.799115e+01 1.246997e+02 1.028312e+01 3.829234e+00 4.749426e+00 5.363614e+00 3.466592e+00 4.502710e+00 3.463106e+00 3.667468e+00 5.075626e+00 3.345074e+00 2.675147e+00 2.229846e+00 6.083138e+00 1.482645e+00 7.675884e-01 8.340129e-01 1.020727e+00 6.923590e-01 8.595741e-01 7.566758e-01 6.871682e-01 9.750324e-01 6.336458e-01 6.010929e-01 4.378299e-01 9.299530e-01
<GCONST> 1.362103e+02
<STATE> 3
<MEAN> 39
 -8.339305e+00 1.505027e+00 -1.303810e+00 -4.043405e+00 1.175907e+00 -1.056819e+01 -1.042902e+01 -6.470313e+00 -1.567412e+01 -6.363309e+00 -1.570338e+00 -5.911570e+00 8.205335e+01 2.692840e+00 -6.833151e-04 -3.397162e-01 1.144389e+00 -3.870170e-01 -1.265680e+00 -1.444728e-01 5.400764e-01 -1.279993e+00 -1.219381e+00 -2.930584e-01 -2.692401e-01 5.837494e-01 -5.473286e-01 -1.466797e-01 -1.220876e-01 -3.300421e-01 -2.830686e-01 3.228674e-01 9.721056e-02 1.906614e-01 4.891175e-01 2.601978e-01 3.540133e-02 1.690324e-01 -3.734516e-01
<VARIANCE> 39
 2.132077e+01 2.358623e+01 2.535126e+01 3.169091e+01 3.633083e+01 4.956981e+01 5.245730e+01 4.321068e+01 6.676413e+01 5.168095e+01 3.883324e+01 2.083965e+01 1.397803e+02 4.591898e+00 3.455042e+00 3.358222e+00 3.205128e+00 3.538594e+00 4.928022e+00 3.620206e+00 2.553144e+00 6.493729e+00 4.496974e+00 3.846900e+00 2.345238e+00 3.787021e+00 7.351204e-01 4.604166e-01 6.050749e-01 4.865282e-01 6.635510e-01 7.783322e-01 5.594553e-01 4.565863e-01 1.052663e+00 6.508456e-01 6.983686e-01 3.669566e-01 5.901089e-01
<GCONST> 1.301205e+02
<STATE> 4
<MEAN> 39
 -4.169121e+00 -2.079850e+00 -3.512111e+00 -5.597703e+00 -3.006474e+00 -1.571323e+01 -8.916843e+00 -2.572613e+00 -1.740003e+01 -7.993547e+00 -1.532874e+00 -5.148293e+00 8.598460e+01 1.892680e-01 1.895193e-01 1.568278e-01 3.915869e-02 -9.102333e-02 3.764589e-01 8.985330e-02 2.494901e-01 3.107306e-01 3.810005e-02 2.185723e-02 1.199628e-01 -4.561858e-01 -4.425225e-01 1.330622e-01 1.925179e-01 -9.946387e-02 1.650198e-01 3.499415e-01 -2.074502e-03 -1.237754e-01 2.848171e-01 1.824732e-01 2.797367e-02 4.161157e-02 -2.146317e-01
<VARIANCE> 39
 2.203849e+01 2.113966e+01 2.982920e+01 3.002346e+01 3.478162e+01 5.759801e+01 5.310210e+01 5.412143e+01 5.337047e+01 6.855058e+01 2.885784e+01 2.207302e+01 7.815918e+01 1.133687e+00 1.435346e+00 1.587662e+00 1.380024e+00 2.382108e+00 2.703059e+00 1.770502e+00 1.591043e+00 2.354251e+00 1.959524e+00 1.897900e+00 1.297758e+00 1.860677e+00 3.542840e-01 2.421632e-01 3.690533e-01 3.166234e-01 3.638915e-01 5.303619e-01 3.942725e-01 3.023300e-01 5.525649e-01 5.093881e-01 3.971461e-01 2.787915e-01 2.918093e-01
<GCONST> 1.133506e+02
<TRANSP> 5
 0.000000e+00 1.000000e+00 0.000000e+00 0.000000e+00 0.000000e+00
 0.000000e+00 7.268291e-01 2.731709e-01 0.000000e+00 0.000000e+00
 0.000000e+00 0.000000e+00 4.948605e-01 5.051395e-01 0.000000e+00
 0.000000e+00 0.000000e+00 0.000000e+00 6.845291e-01 3.154709e-01
 0.000000e+00 0.000000e+00 0.000000e+00 0.000000e+00 0.000000e+00
<ENDHMM>
~h "g"
<BEGINHMM>
<NUMSTATES> 5
<STATE> 2
<MEAN> 39
 -8.160248e+00 -2.418672e+00 9.799743e-01 1.721894e-01 6.680544e+00 -1.506690e+01 -2.018786e+01 -8.315081e+00 -1.385485e+01 -1.192790e+00 -2.469522e-01 -9.070331e+00 8.538692e+01 7.064196e-01 -5.918213e-01 -8.446483e-01 -1.103956e+00 -6.362821e-01 -1.139708e+00 -3.285961e-01 -6.153932e-01 -1.212143e+00 1.167881e-01 8.660145e-01 1.109198e+00 7.150909e-01 2.735957e-02 2.275076e-01 1.665025e-01 1.666745e-01 -2.781930e-01 2.818207e-01 3.522244e-01 2.626806e-01 2.775275e-01 -1.587825e-01 -1.879562e-03 3.464099e-01 -4.535882e-01
<VARIANCE> 39
 1.600639e+01 1.181576e+01 2.079403e+01 2.889784e+01 2.369923e+01 2.968574e+01 8.696773e+01 4.387195e+01 8.892374e+01 3.320257e+01 5.332731e+01 4.468217e+01 5.553430e+01 1.499306e+00 1.215557e+00 1.255999e+00 2.444588e+00 3.593135e+00 4.224756e+00 8.218617e+00 2.631111e+00 3.263014e+00 2.394422e+00 4.026633e+00 5.266048e+00 3.850257e+00 3.809237e-01 1.254061e-01 2.726509e-01 5.418304e-01 5.247581e-01 6.941330e-01 9.270176e-01 3.514441e-01 7.200701e-01 3.936058e-01 8.144098e-01 8.338869e-01 2.507109e-01
<GCONST> 1.217620e+02
<STATE> 3
<MEAN> 39
 -5.621426e+00 -1.261822e+00 -6.528426e+00 -3.318173e+00 -1.573834e-02 -1.419640e+01 -1.018655e+01 -5.836893e+00 -1.730148e+01 2.071042e+00 3.133596e+00 -2.325281e+00 8.365258e+01 6.570189e-02 -7.302460e-02 -4.043312e-01 -4.270564e-01 -7.815615e-01 7.417752e-01 1.274828e+00 3.946094e-01 4.159646e-01 2.016171e-01 2.744416e-01 2.678984e-01 -4.463604e-01 -1.229051e-01 6.635459e-02 1.536482e-01 1.481834e-01 2.448768e-01 8.894431e-02 -1.402476e-01 2.825407e-02 8.095994e-02 -1.309373e-01 -1.289071e-01 -2.446423e-01 -1.026392e-01
<VARIANCE> 39
 1.132011e+01 1.091872e+01 1.483261e+01 1.802398e+01 2.974543e+01 2.966555e+01 4.646799e+01 5.165425e+01 5.678912e+01 8.023689e+01 2.012592e+01 2.129729e+01 1.687459e+02 3.373055e-01 4.114081e-01 3.438115e-01 7.852623e-01 1.275546e+00 8.343003e-01 1.307669e+00 8.790566e-01 8.851887e-01 1.216557e+00 9.749253e-01 1.179495e+00 2.987832e-01 3.375340e-02 6.376009e-02 5.291357e-02 9.963785e-02 1.485401e-01 1.668800e-01 1.505886e-01 1.515760e-01 1.564772e-01 2.188185e-01 1.326935e-01 2.159802e-01 4.565824e-02
<GCONST> 8.330798e+01
<STATE> 4
<MEAN> 39
 -1.072985e+01 9.821572e-01 -7.210411e+00 -3.875483e+00 -9.583015e-01 -5.005183e+00 -8.825160e+00 -6.745475e+00 -1.089690e+01 1.043913e+00 3.818027e+00 -7.513715e-01 7.160188e+01 -4.891827e-01 1.098829e-01 -1.595548e-02 -1.136388e-01 -3.205287e-01 5.239016e-01 7.490347e-02 -8.897878e-02 2.831351e-01 -4.510294e-01 -2.022948e-01 2.860312e-01 -1.048262e+00 3.548752e-03 -3.594677e-02 2.109602e-02 -5.162076e-02 -5.582002e-02 -9.091877e-02 -1.654249e-01 -4.137871e-02 -8.865964e-02 2.386055e-02 -6.917589e-03 -1.956438e-02 3.705333e-02
<VARIANCE> 39
 1.326533e+01 1.293060e+01 3.404885e+01 1.231728e+01 3.287273e+01 3.952129e+01 4.273911e+01 4.410863e+01 5.586300e+01 3.191629e+01 2.218596e+01 1.302390e+01 2.325212e+02 3.669540e-01 9.632285e-01 7.862771e-01 9.067511e-01 1.778747e+00 2.160394e+00 2.419984e+00 1.093114e+00 1.887491e+00 1.041541e+00 1.371906e+00 8.985184e-01 5.334587e-01 6.055777e-02 1.745456e-01 1.467175e-01 1.645341e-01 3.092798e-01 3.280409e-01 4.268910e-01 1.812419e-01 3.561935e-01 1.648368e-01 2.243295e-01 1.532383e-01 7.588461e-02
<GCONST> 9.546579e+01
<TRANSP> 5
 0.000000e+00 1.000000e+00 0.000000e+00 0.000000e+00 0.000000e+00
 0.000000e+00 7.165658e-01 2.834342e-01 0.000000e+00 0.000000e+00
 0.000000e+00 0.000000e+00 8.478590e-01 1.521410e-01 0.000000e+00
 0.000000e+00 0.000000e+00 0.000000e+00 8.323135e-01 1.676864e-01
 0.000000e+00 0.000000e+00 0.000000e+00 0.000000e+00 0.000000e+00
<ENDHMM>
~h "h"
<BEGINHMM>
<NUMSTATES> 5
<STATE> 2
<MEAN> 39
 -1.720075e+01 -5.994506e+00 6.026853e+00 5.996486e-01 4.941483e-01 -1.010213e+01 -9.516834e+00 -2.509884e+00 -5.988294e+00 -2.569633e+00 -4.726071e+00 -4.772205e+00 8.117913e+01 -6.505117e-02 -4.204950e-01 3.568508e-03 -1.778597e-02 -5.455715e-01 -4.584200e-01 -5.213596e-02 2.103238e-01 2.825500e-01 1.474652e-01 -2.572757e-01 2.695184e-01 -4.224379e-01 3.266483e-01 3.303675e-01 -9.070285e-02 9.959181e-02 1.496324e-01 -8.810230e-02 -1.610684e-02 6.025743e-03 -2.536085e-01 -1.290327e-01 -2.203858e-03 -1.284896e-01 -7.763886e-02
<VARIANCE> 39
 1.677034e+01 3.543770e+01 4.024856e+01 4.888295e+01 3.169754e+01 5.406370e+01 3.454475e+01 3.941328e+01 2.788279e+01 3.514890e+01 2.682949e+01 1.756449e+01 3.250206e+01 1.310614e+00 1.944044e+00 2.402926e+00 2.464169e+00 2.213754e+00 2.244848e+00 1.775631e+00 1.488446e+00 2.156280e+00 1.903300e+00 1.598727e+00 1.612317e+00 6.138743e-01 2.500735e-01 2.690976e-01 2.241079e-01 3.402363e-01 3.752932e-01 4.635270e-01 3.495935e-01 3.147972e-01 4.558563e-01 4.123778e-01 3.251707e-01 2.882252e-01 1.143188e-01
<GCONST> 1.085603e+02
<STATE> 3
<MEAN> 39
 -1.333149e+01 -4.355693e+00 2.420397e+00 2.002518e-01 -2.067777e+00 -5.846733e+00 -9.864098e+00 -4.242113e+00 -4.445826e+00 -2.976945e+00 -5.688993e+00 -4.887378e+00 7.420610e+01 1.966154e-01 8.649901e-01 -3.435923e-01 5.706375e-01 -2.324866e-02 3.006378e-01 2.504236e-01 5.144329e-02 -3.021312e-01 -4.164823e-01 -1.321022e-01 -8.968367e-02 -8.690686e-01 -4.239088e-02 1.975334e-01 4.312072e-02 5.891440e-03 2.008075e-01 -9.718310e-04 -9.436390e-05 -2.766207e-02 -2.198620e-01 -6.614688e-02 1.173740e-01 -6.558858e-02 4.119869e-02
<VARIANCE> 39
 9.595939e+00 3.344612e+01 2.634521e+01 4.380107e+01 3.196315e+01 5.458971e+01 3.096729e+01 3.447573e+01 2.904593e+01 2.359450e+01 1.941146e+01 2.045711e+01 4.540520e+01 5.594448e-01 1.128478e+00 1.338786e+00 1.269324e+00 1.331493e+00 1.366771e+00 1.727956e+00 1.249068e+00 1.389593e+00 1.216803e+00 1.168663e+00 1.157991e+00 2.942978e-01 1.356837e-01 1.848581e-01 1.859974e-01 2.480306e-01 2.460487e-01 2.418433e-01 2.861553e-01 2.161198e-01 2.458492e-01 2.436137e-01 2.301676e-01 2.387494e-01 4.010400e-02
<GCONST> 9.501035e+01
<STATE> 4
<MEAN> 39
 -1.368920e+01 4.635774e+00 9.843357e-01 -2.099373e-01 -2.052149e-01 -2.660843e+00 -5.714092e+00 -3.327914e+00 -8.520137e+00 -6.625245e+00 -5.718052e+00 -6.325319e+00 6.798912e+01 -2.245854e-01 2.820406e-01 -4.760293e-02 -1.357270e-01 3.256777e-02 7.063392e-02 -4.008060e-02 4.043776e-02 -2.129523e-01 -4.091807e-03 2.020617e-01 1.853958e-03 -3.857262e-01 9.117846e-03 -6.412955e-02 2.018418e-02 -5.986514e-02 -3.547987e-03 -3.490826e-02 -7.326449e-02 -6.343622e-03 4.522259e-02 2.936060e-02 3.442861e-02 -1.401190e-02 8.704971e-02
<VARIANCE> 39
 8.036147e+00 3.399393e+01 2.414273e+01 3.180739e+01 1.793900e+01 2.853181e+01 1.999358e+01 1.688889e+01 2.373897e+01 2.243287e+01 1.346229e+01 1.216047e+01 3.184479e+01 4.557553e-01 1.089760e+00 1.128864e+00 1.275787e+00 1.161545e+00 1.089042e+00 1.343921e+00 1.345752e+00 1.420129e+00 1.000553e+00 9.823226e-01 8.638728e-01 2.655005e-01 8.388873e-02 1.642895e-01 1.893142e-01 2.193049e-01 2.369801e-01 1.903696e-01 2.581421e-01 2.734631e-01 2.666804e-01 1.758898e-01 1.784185e-01 1.660493e-01 4.652403e-02
<GCONST> 8.731929e+01
<TRANSP> 5
 0.000000e+00 1.000000e+00 0.000000e+00 0.000000e+00 0.000000e+00
 0.000000e+00 7.312452e-01 2.687549e-01 0.000000e+00 0.000000e+00
 0.000000e+00 0.000000e+00 7.135586e-01 2.864413e-01 0.000000e+00
 0.000000e+00 0.000000e+00 0.000000e+00 8.036264e-01 1.963736e-01
 0.000000e+00 0.000000e+00 0.000000e+00 0.000000e+00 0.000000e+00
<ENDHMM>
~h "i"
<BEGINHMM>
<NUMSTATES> 5
<STATE> 2
<MEAN> 39
 -1.160967e+01 -1.069243e+00 9.119445e+00 7.527306e+00 8.887341e+00 -1.633182e+01 -1.603852e+01 -2.324367e+00 -1.388308e+01 -7.790285e+00 -3.492315e+00 -9.362952e+00 8.193945e+01 1.083371e-01 -4.410483e-03 2.363562e-01 3.176128e-01 4.646577e-01 -3.701143e-01 -6.734424e-01 -1.857361e-01 -1.651973e-01 1.221878e-01 -4.374278e-02 -3.977566e-01 3.292465e-01 6.771150e-02 1.595625e-01 -3.285607e-01 -3.365808e-01 -2.496100e-01 4.001744e-01 1.908596e-01 -1.678744e-01 1.888043e-01 1.658619e-01 2.940561e-02 2.065204e-01 -2.317101e-01
<VARIANCE> 39
 1.791863e+01 2.965898e+01 4.728396e+01 3.628586e+01 4.673791e+01 6.815808e+01 6.255881e+01 4.553445e+01 6.213680e+01 4.333036e+01 3.279648e+01 3.506493e+01 1.096324e+02 1.953772e+00 2.703703e+00 3.902605e+00 3.212997e+00 3.354218e+00 6.081171e+00 4.408697e+00 3.099623e+00 5.980470e+00 3.095209e+00 2.692596e+00 2.523937e+00 3.048043e+00 3.439606e-01 4.992405e-01 6.338869e-01 5.627592e-01 5.932736e-01 1.011984e+00 8.186353e-01 5.715246e-01 1.090384e+00 6.150914e-01 5.176587e-01 4.454324e-01 3.964706e-01
<GCONST> 1.299827e+02
<STATE> 3
<MEAN> 39
 -8.629099e+00 1.443258e+00 4.609023e+00 3.604476e+00 7.374489e+00 -1.193618e+01 -1.504486e+01 -5.305482e+00 -1.189744e+01 -5.583971e+00 -3.660473e+00 -9.502810e+00 8.029404e+01 4.002447e-01 7.389847e-01 -1.220297e+00 -1.383080e+00 -1.412280e+00 1.628291e+00 9.094090e-01 -6.354623e-02 1.007530e+00 3.712983e-01 -1.876767e-01 7.790797e-01 -9.898818e-01 -5.548170e-02 -1.665681e-01 -2.871685e-02 -1.084501e-02 -1.958339e-01 -1.855363e-01 5.461668e-02 2.561475e-01 -5.576467e-02 -1.861424e-01 2.821222e-02 9.807969e-02 1.487938e-02
<VARIANCE> 39
 1.664225e+01 2.276545e+01 4.165703e+01 2.945600e+01 3.567711e+01 6.144362e+01 5.685643e+01 6.049979e+01 7.508750e+01 5.303243e+01 3.897534e+01 3.922064e+01 9.230652e+01 1.182209e+00 2.104829e+00 2.803261e+00 2.232893e+00 2.356242e+00 5.408050e+00 4.163445e+00 3.862345e+00 4.526717e+00 3.124958e+00 3.155704e+00 3.283678e+00 2.636568e+00 1.780206e-01 2.591742e-01 4.749047e-01 3.269684e-01 4.953933e-01 9.132935e-01 8.927381e-01 5.665395e-01 6.979408e-01 5.656442e-01 4.776879e-01 6.968769e-01 2.566609e-01
<GCONST> 1.249319e+02
<STATE> 4
<MEAN> 39
 -8.468799e+00 3.915386e+00 1.815255e+00 2.088346e+00 4.244862e+00 -8.532764e+00 -1.222726e+01 -5.438131e+00 -9.738338e+00 -5.861662e+00 -4.912529e+00 -6.042813e+00 7.813654e+01 -5.716923e-02 -2.393000e-01 -8.357421e-01 -8.047183e-01 -9.947999e-01 4.310308e-01 6.222045e-01 -1.146018e-01 -1.004449e-01 3.421261e-02 2.735638e-01 4.306937e-01 -5.233598e-02 -1.506115e-01 -2.726329e-01 1.403424e-01 -1.292163e-01 2.335808e-02 -2.635252e-01 7.210437e-02 3.263642e-02 -8.555724e-02 1.262354e-01 1.642004e-01 -1.003698e-01 4.064839e-01
<VARIANCE> 39
 1.589200e+01 2.243390e+01 2.193935e+01 3.183747e+01 3.668763e+01 2.765037e+01 4.238470e+01 3.216318e+01 5.062854e+01 3.140266e+01 3.223367e+01 1.784613e+01 9.964067e+01 7.610881e-01 1.077663e+00 1.124642e+00 2.323014e+00 2.351812e+00 2.605639e+00 2.270591e+00 2.143289e+00 2.198344e+00 1.878538e+00 2.641109e+00 2.073661e+00 1.663198e+00 1.209441e-01 2.272685e-01 2.823230e-01 4.642361e-01 3.460616e-01 6.039528e-01 4.862395e-01 3.714888e-01 5.748960e-01 3.459496e-01 3.574960e-01 3.527409e-01 4.583688e-01
<GCONST> 1.109863e+02
<TRANSP> 5
 0.000000e+00 1.000000e+00 0.000000e+00 0.000000e+00 0.000000e+00
 0.000000e+00 8.329314e-01 1.670686e-01 0.000000e+00 0.000000e+00
 0.000000e+00 0.000000e+00 6.676285e-01 3.323715e-01 0.000000e+00
 0.000000e+00 0.000000e+00 0.000000e+00 6.399016e-01 3.600985e-01
 0.000000e+00 0.000000e+00 0.000000e+00 0.000000e+00 0.000000e+00
<ENDHMM>
~h "j"
<BEGINHMM>
<NUMSTATES> 5
<STATE> 2
<MEAN> 39
 -1.443104e+01 -1.887128e-01 1.095413e+01 4.563504e+00 9.242670e+00 -7.279742e+00 -1.485464e+01 7.515997e-01 -5.395735e+00 -5.911183e+00 -1.781596e+00 -6.434183e+00 8.053315e+01 -7.853962e-01 -4.583589e-01 6.563154e-01 -8.498307e-02 -1.701690e-01 5.769559e-01 -2.410992e-01 -3.895727e-01 9.079194e-01 1.592218e-01 -1.938355e-01 2.432461e-01 4.492957e-01 3.703236e-01 1.046380e-01 -2.815253e-01 -1.735115e-02 5.754051e-03 3.525128e-02 -6.632999e-03 -3.509777e-01 -3.952438e-01 -1.441291e-01 3.655508e-02 -2.189571e-02 2.874001e-02
<VARIANCE> 39
 6.076117e+01 4.436390e+01 4.163362e+01 3.145681e+01 2.944904e+01 4.060234e+01 5.347630e+01 3.355837e+01 5.280949e+01 4.682796e+01 2.436054e+01 4.114368e+01 8.799170e+01 8.276291e+00 6.469690e+00 4.629404e+00 3.476810e+00 3.629344e+00 4.304537e+00 7.107827e+00 6.713784e+00 5.037147e+00 3.809027e+00 3.014260e+00 4.147146e+00 7.380115e+00 1.965113e+00 1.472682e+00 1.196435e+00 7.034896e-01 7.310677e-01 9.257240e-01 1.384173e+00 8.501449e-01 8.585391e-01 8.050068e-01 6.712149e-01 7.498095e-01 1.487541e+00
<GCONST> 1.413892e+02
<STATE> 3
<MEAN> 39
 -1.013757e+01 -2.011931e+00 8.962268e+00 3.617198e+00 1.139924e+01 -3.227092e+00 -1.983787e+01 -1.267781e+01 -9.863696e+00 -8.932768e+00 -1.997190e+00 -7.019146e+00 8.584299e+01 2.661618e+00 1.141679e+00 -2.063581e+00 -6.876667e-01 -3.598460e-01 3.120858e-02 1.278245e+00 -7.544370e-01 -2.388948e+00 -1.335128e+00 3.076028e-01 6.023700e-01 -7.347975e-01 -5.925627e-01 1.013129e-01 2.223904e-01 -4.288661e-01 -4.941624e-01 -2.601596e-01 7.120162e-01 9.271617e-01 2.379783e-01 -7.585272e-02 -3.301629e-01 9.203990e-02 -7.122346e-02
<VARIANCE> 39
 2.547158e+01 1.817451e+01 2.303178e+01 1.176652e+01 2.546379e+01 2.964651e+01 3.649463e+01 2.828145e+01 5.528582e+01 1.003999e+02 2.003164e+01 3.337555e+01 3.753010e+01 2.857384e+00 5.301587e-01 1.063589e+00 1.760323e+00 1.633671e+00 1.401642e+00 3.317410e+00 4.182653e+00 2.554157e+00 3.200199e+00 2.068833e+00 2.140521e+00 2.953662e-01 5.439130e-01 9.418988e-02 3.680077e-01 2.581950e-01 2.215575e-01 2.639813e-01 5.072740e-01 4.281920e-01 7.450462e-01 6.889178e-01 3.975497e-01 3.513145e-01 1.290056e-01
<GCONST> 1.082311e+02
<STATE> 4
<MEAN> 39
 -4.535067e+00 4.164862e+00 3.869085e+00 -3.625414e+00 3.826504e+00 -6.952292e+00 -8.112458e+00 -6.081319e+00 -1.628214e+01 -1.455481e+01 -5.650696e+00 -6.719783e+00 8.156147e+01 -6.812657e-02 9.529462e-01 6.313810e-02 -1.008529e+00 -1.285078e+00 -3.063081e-01 1.537738e+00 1.020313e+00 3.576596e-01 2.393388e-01 -4.702120e-01 -2.559337e-01 -5.865821e-01 -3.149088e-01 -1.334058e-01 1.530198e-01 1.874487e-01 1.783406e-01 2.771731e-01 -1.054748e-01 -9.942649e-02 3.325757e-01 3.501818e-01 1.141636e-01 -1.123813e-01 -3.839833e-02
<VARIANCE> 39
 1.131808e+01 2.748903e+01 1.788891e+01 2.079575e+01 4.433322e+01 3.541977e+01 6.468976e+01 4.125911e+01 3.486431e+01 1.107309e+02 5.286660e+01 5.414272e+01 2.517126e+01 4.497076e-01 5.322368e-01 5.938082e-01 9.575839e-01 1.033351e+00 1.457126e+00 1.816844e+00 1.086168e+00 1.328516e+00 2.153749e+00 1.668285e+00 1.721797e+00 2.992526e-01 9.538224e-02 1.143201e-01 1.396493e-01 1.520467e-01 1.563211e-01 2.088155e-01 2.690862e-01 1.901645e-01 3.086824e-01 3.095689e-01 3.145939e-01 2.207868e-01 3.403785e-02
<GCONST> 9.486221e+01
<TRANSP> 5
 0.000000e+00 1.000000e+00 0.000000e+00 0.000000e+00 0.000000e+00
 0.000000e+00 9.138023e-01 8.619767e-02 0.000000e+00 0.000000e+00
 0.000000e+00 0.000000e+00 7.782065e-01 2.217935e-01 0.000000e+00
 0.000000e+00 0.000000e+00 0.000000e+00 8.250161e-01 1.749839e-01
 0.000000e+00 0.000000e+00 0.000000e+00 0.000000e+00 0.000000e+00
<ENDHMM>
~h "k"
<BEGINHMM>
<NUMSTATES> 5
<STATE> 2
<MEAN> 39
 -7.228391e+00 -2.211067e+00 -3.165658e+00 -3.159976e+00 3.368121e+00 -1.566199e+01 -1.518035e+01 -7.063248e+00 -1.667967e+01 -4.923774e+00 2.936880e+00 -6.853214e+00 8.573391e+01 -3.584747e-01 1.214342e+00 1.524564e+00 6.232650e-01 1.060741e+00 2.096422e+00 4.930347e-01 -2.184010e-01 6.093344e-01 -2.534615e-01 -6.507813e-01 1.440336e-01 -2.502167e+00 -4.753292e-02 3.125445e-03 -3.168170e-01 -4.309617e-01 -8.423763e-01 6.160486e-01 4.969174e-01 4.984134e-01 7.077509e-01 4.702351e-01 2.807814e-02 5.235249e-01 -7.391575e-01
<VARIANCE> 39
 1.324263e+01 1.955173e+01 2.240542e+01 1.646560e+01 2.919526e+01 6.123503e+01 4.983294e+01 4.084646e+01 1.098342e+02 2.782227e+01 2.644491e+01 1.624483e+01 1.301259e+02 1.092588e+00 8.192338e-01 1.580196e+00 1.900201e+00 3.255035e+00 4.032065e+00 2.809035e+00 2.939194e+00 4.900153e+00 2.260555e+00 2.047994e+00 2.250544e+00 2.393511e+00 1.569937e-01 2.397859e-01 4.751489e-01 2.811157e-01 5.548920e-01 7.744323e-01 5.478141e-01 5.197367e-01 5.823902e-01 3.786005e-01 6.092535e-01 3.281740e-01 2.756191e-01
<GCONST> 1.158836e+02
<STATE> 3
<MEAN> 39
 -1.003312e+01 1.899903e+00 -3.337850e+00 -3.532780e+00 -7.816334e-01 -5.082106e+00 -1.112556e+01 -4.372391e+00 -1.051443e+01 -1.393055e+00 1.590590e+00 -2.668809e+00 6.896996e+01 -5.566520e-01 -1.802511e-01 -1.115860e+00 -7.779650e-01 -1.639077e+00 6.820253e-01 2.627686e-01 6.513933e-01 1.062491e+00 7.388227e-01 2.414695e-01 1.022414e+00 -2.235132e+00 -1.886693e-01 -4.699705e-01 -4.406885e-01 -2.800787e-01 -1.709196e-01 -8.631193e-01 -4.024516e-01 -1.595606e-01 -3.474122e-01 -1.836095e-01 4.322154e-02 -1.861977e-01 8.620154e-01
<VARIANCE> 39
 2.471022e+01 1.738563e+01 3.791622e+01 2.159807e+01 4.260768e+01 2.620993e+01 3.012803e+01 2.183204e+01 4.202798e+01 2.415015e+01 1.599689e+01 1.459791e+01 2.465770e+02 1.026804e+00 2.163896e+00 2.185206e+00 1.970511e+00 3.368137e+00 4.069257e+00 2.856211e+00 2.612621e+00 2.815867e+00 2.675740e+00 2.359916e+00 1.686147e+00 3.780512e+00 2.780591e-01 3.992762e-01 6.737261e-01 3.571377e-01 7.712792e-01 5.989497e-01 4.128931e-01 4.220421e-01 4.967641e-01 5.086105e-01 4.385258e-01 3.418111e-01 4.614257e-01
<GCONST> 1.172660e+02
<STATE> 4
<MEAN> 39
 -1.176890e+01 -1.596924e+00 -6.299851e+00 -7.341396e+00 -4.258616e+00 -9.870945e+00 -1.300037e+01 -5.197823e+00 -9.877008e+00 -2.225025e+00 2.763206e+00 -1.530177e+00 7.468408e+01 -8.858007e-01 -8.242357e-02 -2.342400e-01 -5.538443e-01 -5.671588e-02 -8.984809e-02 8.100080e-02 -2.050990e-01 6.931399e-02 7.042779e-03 -2.499506e-01 -2.234610e-01 4.178281e-01 -9.430315e-02 6.261165e-02 2.062110e-01 1.628632e-02 3.273216e-01 4.859544e-02 1.171744e-01 -5.111117e-02 -9.662317e-02 -5.533602e-02 -9.095489e-02 -2.105401e-01 4.333786e-01
<VARIANCE> 39
 2.420817e+01 1.471127e+01 1.372597e+01 1.870704e+01 1.910281e+01 3.437027e+01 2.510795e+01 1.937842e+01 3.126674e+01 2.761160e+01 1.757441e+01 1.488472e+01 1.348304e+02 2.485852e+00 1.550637e+00 1.735224e+00 2.513388e+00 2.652631e+00 2.107525e+00 3.049821e+00 1.825383e+00 1.851871e+00 1.903948e+00 2.068276e+00 1.646635e+00 3.299211e+00 5.278999e-01 2.594702e-01 3.196214e-01 4.456936e-01 4.296651e-01 4.330232e-01 5.378250e-01 3.835500e-01 3.501827e-01 4.326756e-01 4.308253e-01 3.352532e-01 6.843321e-01
<GCONST> 1.115477e+02
<TRANSP> 5
 0.000000e+00 1.000000e+00 0.000000e+00 0.000000e+00 0.000000e+00
 0.000000e+00 6.435021e-01 3.564979e-01 0.000000e+00 0.000000e+00
 0.000000e+00 0.000000e+00 6.416598e-01 3.583402e-01 0.000000e+00
 0.000000e+00 0.000000e+00 0.000000e+00 8.531910e-01 1.468090e-01
 0.000000e+00 0.000000e+00 0.000000e+00 0.000000e+00 0.000000e+00
<ENDHMM>
~h "l"
<BEGINHMM>
<NUMSTATES> 5
<STATE> 2
<MEAN> 39
 -1.704587e+01 2.633724e+00 -1.767400e+00 -4.865595e+00 -2.535523e+00 -3.490855e+00 -7.114506e+00 -3.440799e+00 -8.445791e+00 -4.678967e+00 -3.145861e+00 -4.619289e+00 6.842831e+01 9.973837e-02 -1.296227e-01 3.776299e-03 4.295778e-02 -2.158986e-01 4.322687e-03 -2.661032e-02 -9.919745e-02 -1.354557e-02 9.670861e-02 7.536221e-02 -5.565873e-02 -5.212370e-02 -1.280710e-01 -1.722439e-01 1.742063e-01 -1.225346e-01 -5.335006e-03 -7.304744e-02 1.496684e-02 -4.758381e-02 3.940242e-03 8.156250e-02 4.443687e-02 2.385548e-02 1.987215e-01
<VARIANCE> 39
 2.210437e+01 1.548588e+01 1.511104e+01 1.519563e+01 1.471482e+01 1.916213e+01 1.812427e+01 1.678938e+01 2.173931e+01 2.387675e+01 1.580252e+01 1.278590e+01 1.113254e+02 7.990856e-01 8.698942e-01 1.223626e+00 1.305326e+00 1.443537e+00 1.357889e+00 1.718666e+00 1.458061e+00 1.377235e+00 1.465262e+00 1.227785e+00 1.144211e+00 5.184126e-01 1.624176e-01 1.957286e-01 2.587391e-01 2.686273e-01 2.821347e-01 3.047842e-01 3.344980e-01 2.830377e-01 2.992111e-01 2.889814e-01 2.525206e-01 2.358274e-01 1.264715e-01
<GCONST> 9.440102e+01
<STATE> 3
<MEAN> 39
 -1.553628e+01 1.770851e+00 -1.022757e+00 -3.954516e+00 -2.873318e+00 -4.057020e+00 -7.429410e+00 -3.629506e+00 -8.924603e+00 -4.143665e+00 -3.065747e+00 -4.744135e+00 6.902032e+01 -5.079894e-01 -1.216181e+00 1.085777e+00 -8.915213e-01 -5.955036e-01 -2.794647e-01 9.554503e-02 -4.615159e-01 -1.160633e-01 7.589959e-01 4.433695e-01 9.467643e-02 1.110272e+00 -5.277767e-01 -4.413690e-01 5.839446e-01 -4.254274e-01 7.103190e-02 -1.292173e-01 -2.986472e-03 -1.693280e-02 4.365631e-03 1.348962e-01 9.251162e-02 5.075982e-02 6.487711e-01
<VARIANCE> 39
 3.481141e+01 1.575891e+01 1.770845e+01 1.707364e+01 1.965938e+01 2.670280e+01 2.110608e+01 2.307900e+01 3.241609e+01 3.310624e+01 1.508767e+01 1.424087e+01 1.536173e+02 1.394907e+00 2.019606e+00 2.856490e+00 2.338434e+00 2.444201e+00 2.456005e+00 2.586356e+00 2.964667e+00 2.658848e+00 2.156672e+00 1.743348e+00 1.468852e+00 1.061667e+00 3.387906e-01 2.798460e-01 5.416101e-01 3.829764e-01 3.270082e-01 4.236985e-01 3.826236e-01 4.015100e-01 4.528599e-01 3.686081e-01 2.778870e-01 3.048943e-01 2.755145e-01
<GCONST> 1.097152e+02
<STATE> 4
<MEAN> 39
 -1.789235e+01 -5.266686e-01 1.235479e+00 -6.801260e+00 -3.788706e+00 -4.431409e+00 -6.446315e+00 -4.780024e+00 -9.587372e+00 -2.799828e+00 -2.781075e+00 -4.945270e+00 7.121565e+01 -6.292306e-01 -1.285615e+00 1.244160e+00 -9.817674e-01 -1.358913e-01 -3.346990e-01 -1.130639e-02 -2.618058e-01 -1.827923e-01 4.497425e-01 3.980112e-01 1.872584e-01 1.587549e+00 -1.978774e-01 -2.011477e-02 9.195463e-02 -3.366333e-02 1.807338e-01 7.200739e-03 -4.835559e-03 1.716973e-01 9.540050e-02 -1.152105e-01 2.909721e-02 3.424039e-02 1.937591e-01
<VARIANCE> 39
 4.802407e+01 3.154884e+01 3.370573e+01 3.159406e+01 3.517341e+01 3.547883e+01 3.873305e+01 3.867986e+01 3.708026e+01 4.207621e+01 2.218899e+01 2.033574e+01 1.036908e+02 3.505203e+00 3.713952e+00 5.774180e+00 4.358465e+00 2.813139e+00 3.161452e+00 3.362569e+00 3.321919e+00 3.601263e+00 3.035301e+00 2.065705e+00 1.887152e+00 3.386365e+00 6.284493e-01 6.035109e-01 7.197453e-01 6.242944e-01 5.663316e-01 5.904644e-01 5.994104e-01 5.549857e-01 5.665062e-01 5.129348e-01 3.992416e-01 3.855475e-01 4.755615e-01
<GCONST> 1.260647e+02
<TRANSP> 5
 0.000000e+00 1.000000e+00 0.000000e+00 0.000000e+00 0.000000e+00
 0.000000e+00 7.104064e-01 2.895937e-01 0.000000e+00 0.000000e+00
 0.000000e+00 0.000000e+00 1.959161e-01 8.040838e-01 0.000000e+00
 0.000000e+00 0.000000e+00 0.000000e+00 4.715645e-01 5.284355e-01
 0.000000e+00 0.000000e+00 0.000000e+00 0.000000e+00 0.000000e+00
<ENDHMM>
~h "m"
<BEGINHMM>
<NUMSTATES> 5
<STATE> 2
<MEAN> 39
 -3.716583e+00 2.790996e+00 -3.235579e+00 -5.592995e+00 -2.381761e+00 -1.088395e+01 -4.635563e+00 3.561466e+00 -8.209712e+00 -6.891884e+00 -3.378742e+00 -7.349618e+00 8.086189e+01 -1.603277e-01 3.505750e-01 2.517493e-01 2.382161e-01 4.481756e-01 6.499444e-01 1.560659e-01 -2.141439e-01 1.129581e-01 5.006586e-02 -1.829730e-01 -1.516659e-01 -5.993344e-01 -1.048266e-01 -9.052819e-02 1.025875e-02 3.682649e-02 6.767908e-02 1.244436e-01 4.282875e-02 -8.168799e-02 -6.147701e-02 5.209531e-02 4.391834e-02 2.045169e-02 -2.773544e-02
<VARIANCE> 39
 1.209564e+01 1.957892e+01 4.838259e+01 3.459117e+01 5.258587e+01 6.003521e+01 8.686638e+01 6.672028e+01 7.804504e+01 4.034987e+01 3.645609e+01 3.238316e+01 6.104555e+01 4.926904e-01 1.400926e+00 3.175762e+00 2.315215e+00 3.845408e+00 3.966514e+00 3.309900e+00 2.632686e+00 2.247328e+00 1.581121e+00 3.058703e+00 2.483055e+00 1.366829e+00 7.237950e-02 1.799598e-01 3.508467e-01 3.232942e-01 5.993228e-01 6.339573e-01 5.005999e-01 4.311027e-01 3.507475e-01 2.811297e-01 3.689188e-01 3.893540e-01 1.451114e-01
<GCONST> 1.154457e+02
<STATE> 3
<MEAN> 39
 -6.723003e+00 3.558086e+00 -2.017028e+00 -4.882111e+00 3.372393e+00 -5.449843e+00 -4.053672e+00 -2.319650e+00 -1.003611e+01 -5.814623e+00 -3.202840e+00 -6.538223e+00 8.264616e+01 -1.634424e-01 2.785458e-01 2.950581e-01 2.083242e-01 3.619692e-01 4.978167e-01 1.237785e-02 -1.193785e-01 1.424267e-01 1.689250e-01 9.879189e-02 9.437431e-02 -5.947180e-01 -3.295049e-02 4.229621e-02 -2.415146e-02 -5.247469e-02 -1.593926e-01 -4.902867e-02 -6.649575e-03 2.918862e-02 6.072068e-02 4.160845e-02 4.834090e-02 7.086442e-02 -3.994279e-02
<VARIANCE> 39
 6.439191e+00 1.883750e+01 4.302135e+01 2.757165e+01 4.992378e+01 2.892956e+01 1.045752e+02 3.642464e+01 3.705069e+01 2.608663e+01 5.303445e+01 3.244822e+01 9.076295e+01 2.052662e-01 5.594457e-01 6.993299e-01 8.512027e-01 1.208195e+00 8.647988e-01 1.023052e+00 8.595612e-01 1.090402e+00 9.373222e-01 1.365496e+00 1.130373e+00 2.369181e-01 2.739329e-02 1.021040e-01 1.433717e-01 1.896757e-01 2.578107e-01 1.688915e-01 2.206714e-01 1.609971e-01 1.903372e-01 2.191885e-01 2.734221e-01 2.227419e-01 4.704588e-02
<GCONST> 8.916785e+01
<STATE> 4
<MEAN> 39
 -1.055071e+01 4.791525e+00 -2.484786e+00 -3.609558e+00 -1.192351e-01 -8.500033e-01 -6.637943e-01 -7.472931e-01 -7.374069e+00 -4.912845e+00 -2.431820e+00 -4.597004e+00 7.417572e+01 -3.656532e-01 -4.617423e-02 -8.988889e-02 -7.825438e-02 -2.149019e-01 1.236406e-01 -1.749890e-01 -1.337061e-01 5.149024e-02 1.208925e-01 1.493586e-01 1.631399e-01 -5.164648e-01 -1.353179e-03 -3.389878e-02 -1.247974e-02 -1.557790e-02 -2.922225e-02 -6.548906e-02 -2.872470e-02 -2.210787e-02 -2.139221e-02 -1.105077e-02 -1.847097e-02 -7.607529e-03 3.721718e-02
<VARIANCE> 39
 1.145582e+01 1.556707e+01 1.997259e+01 1.737131e+01 3.955158e+01 3.078206e+01 4.229583e+01 2.455594e+01 2.743571e+01 1.734761e+01 2.528971e+01 1.614866e+01 1.494940e+02 2.906334e-01 7.788779e-01 9.609933e-01 7.420704e-01 1.145128e+00 1.046323e+00 1.070798e+00 9.881319e-01 1.200338e+00 1.099087e+00 1.047467e+00 8.337003e-01 2.718953e-01 4.968492e-02 1.301360e-01 1.591971e-01 1.521132e-01 1.887167e-01 1.999837e-01 1.790843e-01 1.899873e-01 2.189376e-01 2.009829e-01 1.938690e-01 1.569508e-01 4.147864e-02
<GCONST> 8.597964e+01
<TRANSP> 5
 0.000000e+00 1.000000e+00 0.000000e+00 0.000000e+00 0.000000e+00
 0.000000e+00 8.184202e-01 1.815798e-01 0.000000e+00 0.000000e+00
 0.000000e+00 0.000000e+00 7.717603e-01 2.282397e-01 0.000000e+00
 0.000000e+00 0.000000e+00 0.000000e+00 8.361288e-01 1.638712e-01
 0.000000e+00 0.000000e+00 0.000000e+00 0.000000e+00 0.000000e+00
<ENDHMM>
~h "n"
<BEGINHMM>
<NUMSTATES> 5
<STATE> 2
<MEAN> 39
 -5.698209e+00 3.093865e+00 -1.078515e-01 -2.798827e+00 4.278142e-01 -9.319258e+00 -9.293914e+00 -1.003561e+00 -8.563801e+00 -5.859748e+00 -4.093289e+00 -7.008620e+00 7.889602e+01 4.687821e-01 3.598187e-01 2.372822e-01 1.099762e-01 7.943244e-02 -7.522290e-02 -2.176444e-01 4.584755e-01 4.920523e-01 -2.610915e-01 -4.832909e-01 -2.404374e-01 5.146074e-02 -2.015977e-02 -1.035304e-01 -1.369680e-01 -9.919810e-02 -1.765450e-01 -6.959375e-03 1.827847e-01 9.056053e-02 2.537707e-02 6.979799e-02 5.797998e-02 9.655863e-02 2.240819e-02
<VARIANCE> 39
 2.328501e+01 2.232942e+01 2.827058e+01 2.670986e+01 4.613426e+01 5.681544e+01 6.858231e+01 7.421329e+01 7.600177e+01 5.224056e+01 4.937962e+01 3.922301e+01 7.696183e+01 1.324788e+00 2.235707e+00 2.747858e+00 2.771950e+00 3.422730e+00 4.172469e+00 4.222579e+00 3.984702e+00 3.771862e+00 2.147985e+00 4.722377e+00 4.026800e+00 3.464653e+00 2.186565e-01 2.780649e-01 3.545496e-01 3.715250e-01 3.973556e-01 4.959786e-01 6.213145e-01 6.041040e-01 6.244347e-01 3.530031e-01 7.448991e-01 6.308852e-01 2.563062e-01
<GCONST> 1.249809e+02
<STATE> 3
<MEAN> 39
 -5.611536e+00 5.678036e+00 1.744846e+00 -1.143737e+00 4.387946e+00 -6.547108e+00 -1.112263e+01 -4.558946e+00 -7.755992e+00 -3.625497e+00 -4.949543e+00 -6.349790e+00 8.062498e+01 -3.265013e-01 -6.361128e-02 -1.728570e-01 -5.122869e-02 -2.315238e-01 3.219882e-01 7.421111e-01 1.286459e-01 3.133178e-03 1.837021e-01 3.283750e-01 4.759110e-01 -4.333037e-01 -8.797821e-02 -1.090508e-01 -1.563220e-01 -1.617692e-01 -1.755882e-01 -8.659878e-02 4.444993e-02 -1.903149e-02 -2.352197e-02 1.696175e-02 1.521374e-01 8.647019e-02 4.963636e-02
<VARIANCE> 39
 7.929141e+00 1.086395e+01 1.457962e+01 2.384064e+01 4.578911e+01 3.057799e+01 5.263764e+01 5.315705e+01 3.448162e+01 3.356525e+01 4.035536e+01 2.373181e+01 4.688951e+01 2.477362e-01 4.651165e-01 7.532535e-01 1.211161e+00 1.083696e+00 1.185287e+00 1.302096e+00 1.060600e+00 1.213023e+00 9.506920e-01 1.410750e+00 1.434577e+00 5.266255e-01 2.607448e-02 8.350536e-02 1.361805e-01 2.027795e-01 2.451613e-01 2.690152e-01 2.668751e-01 2.466706e-01 2.507617e-01 2.156063e-01 3.604475e-01 2.344250e-01 6.500582e-02
<GCONST> 9.017788e+01
<STATE> 4
<MEAN> 39
 -1.023249e+01 5.230737e+00 -2.511721e+00 -4.323941e+00 -2.631134e+00 -4.750048e+00 -5.665016e+00 -1.198543e+00 -7.484018e+00 -3.639750e+00 -4.351503e-01 -2.275389e+00 7.001189e+01 -5.511565e-01 -2.589731e-01 -3.459855e-01 -4.063169e-01 -5.828003e-01 -1.463742e-01 -7.996179e-02 -8.504041e-02 -6.398607e-02 -5.151638e-02 6.891532e-02 4.267540e-02 -4.370406e-01 1.842278e-02 2.504872e-02 9.037293e-02 7.839251e-02 1.060691e-01 1.844099e-02 -3.560552e-02 -2.798858e-02 -1.099620e-02 -3.995688e-02 -9.556794e-02 -1.396773e-01 6.754327e-02
<VARIANCE> 39
 1.473872e+01 1.769775e+01 1.307780e+01 1.620644e+01 4.352263e+01 4.509412e+01 2.624944e+01 3.702460e+01 2.127325e+01 2.900037e+01 2.136873e+01 1.319517e+01 6.901952e+01 2.504801e-01 5.710331e-01 8.041576e-01 9.108121e-01 1.367930e+00 1.166126e+00 1.256150e+00 1.371371e+00 1.384263e+00 1.190406e+00 1.466232e+00 1.243093e+00 2.505548e-01 4.117374e-02 9.479252e-02 1.304476e-01 1.650270e-01 2.148943e-01 2.275027e-01 2.382024e-01 2.633704e-01 2.617953e-01 2.104937e-01 2.875500e-01 2.343501e-01 3.872161e-02
<GCONST> 8.781149e+01
<TRANSP> 5
 0.000000e+00 1.000000e+00 0.000000e+00 0.000000e+00 0.000000e+00
 0.000000e+00 8.449039e-01 1.550960e-01 0.000000e+00 0.000000e+00
 0.000000e+00 0.000000e+00 7.830797e-01 2.169203e-01 0.000000e+00
 0.000000e+00 0.000000e+00 0.000000e+00 7.979994e-01 2.020005e-01
 0.000000e+00 0.000000e+00 0.000000e+00 0.000000e+00 0.000000e+00
<ENDHMM>
~h "o"
<BEGINHMM>
<NUMSTATES> 5
<STATE> 2
<MEAN> 39
 -1.789569e+00 2.739814e+00 -3.452035e+00 -9.532821e+00 -1.104580e+01 -1.825523e+01 -2.312012e+00 7.047616e+00 -3.939160e+00 -4.181403e+00 -7.413790e-01 -5.121755e+00 8.127038e+01 -2.770745e-02 3.235424e-01 1.355106e-01 6.385691e-02 -1.335649e-01 2.617142e-01 -6.120365e-02 -3.684671e-01 2.242958e-01 4.091056e-01 -8.277191e-02 -1.431294e-01 -5.664363e-01 -6.722317e-02 3.814977e-02 4.437373e-02 3.613920e-02 1.041940e-01 1.376696e-01 -2.696384e-02 -5.304161e-02 -3.948432e-02 -2.575342e-02 -1.467669e-02 2.302242e-02 -9.305952e-02
<VARIANCE> 39
 7.648487e+00 9.215913e+00 1.889300e+01 2.253697e+01 2.902352e+01 7.705258e+01 8.716853e+01 4.110536e+01 4.213980e+01 2.966963e+01 2.945268e+01 3.147274e+01 2.819008e+01 2.099386e-01 3.928735e-01 3.856993e-01 5.725921e-01 7.838895e-01 1.192551e+00 1.010801e+00 1.093105e+00 9.108924e-01 6.907285e-01 9.208342e-01 6.158618e-01 2.823828e-01 3.453225e-02 6.463698e-02 6.139721e-02 1.173901e-01 1.250866e-01 1.556004e-01 1.967595e-01 1.578510e-01 1.580256e-01 1.080546e-01 1.457710e-01 1.186680e-01 3.264949e-02
<GCONST> 7.891925e+01
<STATE> 3
<MEAN> 39
 -6.749935e+00 7.275443e+00 2.488797e-01 -1.003548e+01 -7.580582e+00 -7.707451e+00 -3.384892e+00 2.057729e+00 -2.539864e+00 -4.142609e+00 -2.270003e+00 -4.094861e+00 7.648005e+01 -6.134498e-01 6.119002e-02 8.664534e-02 3.908227e-01 3.991088e-01 9.093156e-01 -1.345821e-01 8.912465e-02 2.244308e-01 2.281137e-01 4.554047e-02 1.042829e-01 -9.341704e-01 -1.327180e-02 -1.387147e-01 -1.546776e-01 2.160558e-02 -3.991177e-02 -1.152248e-01 -3.710960e-02 -5.842468e-03 -1.042383e-02 -1.813035e-02 1.558785e-02 2.096387e-02 7.122195e-02
<VARIANCE> 39
 4.256055e+00 8.135135e+00 1.356202e+01 3.295816e+01 2.311528e+01 2.496075e+01 7.434347e+01 1.518079e+01 3.418114e+01 3.165608e+01 1.217134e+01 1.760194e+01 1.136420e+02 4.109669e-01 6.471251e-01 8.841127e-01 7.924076e-01 1.301856e+00 1.774933e+00 1.307626e+00 7.029063e-01 1.346508e+00 1.031381e+00 9.340974e-01 8.435867e-01 3.575999e-01 4.106306e-02 8.864232e-02 1.052899e-01 1.483290e-01 2.292559e-01 2.797370e-01 2.066356e-01 1.553877e-01 2.597674e-01 2.021510e-01 1.771403e-01 1.399062e-01 3.256160e-02
<GCONST> 8.390273e+01
<STATE> 4
<MEAN> 39
 -1.220435e+01 5.709315e+00 -2.404815e+00 -4.877420e+00 -7.885348e+00 -6.681562e+00 -7.004866e+00 7.177452e-01 -1.982036e+00 4.844584e-01 -3.772064e-01 -3.140558e+00 6.415292e+01 -4.253949e-01 -1.682818e-01 -9.651601e-02 9.479341e-02 1.336297e-01 2.668448e-01 -1.347440e-01 -3.335277e-01 -2.223133e-01 -8.962577e-02 -3.068785e-02 5.821865e-03 -2.954567e-01 3.494006e-02 3.833304e-02 7.982962e-02 9.079477e-03 2.868380e-02 -1.966123e-02 1.549092e-02 1.377410e-02 -7.110910e-02 -2.187645e-02 -1.376418e-02 -3.506980e-02 4.370419e-02
<VARIANCE> 39
 4.519626e+00 1.948441e+01 1.651225e+01 7.635299e+00 1.817580e+01 2.020817e+01 3.216506e+01 1.524855e+01 1.400128e+01 1.323017e+01 8.347539e+00 9.430708e+00 2.757176e+01 1.292887e-01 3.144941e-01 4.297557e-01 5.457873e-01 8.539539e-01 5.729495e-01 9.420205e-01 9.346796e-01 1.001286e+00 8.995372e-01 7.639581e-01 6.664019e-01 7.623425e-02 2.131288e-02 5.533163e-02 7.790010e-02 8.657631e-02 1.366697e-01 1.215089e-01 1.746000e-01 1.774529e-01 1.843819e-01 1.686785e-01 1.511078e-01 1.283201e-01 1.279885e-02
<GCONST> 6.606368e+01
<TRANSP> 5
 0.000000e+00 1.000000e+00 0.000000e+00 0.000000e+00 0.000000e+00
 0.000000e+00 9.242564e-01 7.574359e-02 0.000000e+00 0.000000e+00
 0.000000e+00 0.000000e+00 8.872679e-01 1.127320e-01 0.000000e+00
 0.000000e+00 0.000000e+00 0.000000e+00 8.925089e-01 1.074911e-01
 0.000000e+00 0.000000e+00 0.000000e+00 0.000000e+00 0.000000e+00
<ENDHMM>
~h "p"
<BEGINHMM>
<NUMSTATES> 5
<STATE> 2
<MEAN> 39
 -4.469960e+00 1.870119e+00 -4.328948e+00 -3.572811e+00 -3.092686e+00 -1.276061e+01 -5.610035e+00 1.421403e+00 -1.026851e+01 -4.433015e+00 -1.835894e+00 -5.639620e+00 8.003529e+01 -4.622144e-01 1.091254e+00 4.658927e-01 3.598492e-01 -3.187432e-01 1.046335e+00 1.697720e-01 -4.793280e-02 7.424384e-01 -1.074386e-01 1.107734e-01 6.857399e-01 -2.089740e+00 -1.946515e-01 -1.357066e-01 -1.943076e-01 -1.961656e-01 -2.448221e-01 1.544163e-01 1.742548e-03 -4.119462e-02 2.744938e-01 9.847103e-02 7.886793e-02 1.975289e-01 -1.248438e-01
<VARIANCE> 39
 2.099487e+01 4.761637e+01 4.268557e+01 2.906141e+01 1.032813e+02 9.011989e+01 6.195331e+01 6.306897e+01 8.326971e+01 4.023912e+01 3.501445e+01 2.669260e+01 7.454926e+01 1.781593e+00 2.916512e+00 2.738268e+00 2.843382e+00 3.870397e+00 6.037582e+00 2.623267e+00 2.785527e+00 6.065701e+00 2.809657e+00 2.142240e+00 2.094478e+00 4.542749e+00 2.758044e-01 4.368803e-01 4.469188e-01 4.649462e-01 6.844174e-01 9.344013e-01 5.234734e-01 4.835896e-01 1.008910e+00 5.031915e-01 3.834060e-01 3.145574e-01 6.511533e-01
<GCONST> 1.283461e+02
<STATE> 3
<MEAN> 39
 -8.809420e+00 4.387356e+00 -5.524763e+00 -4.739086e+00 -3.438656e+00 -5.929477e+00 -9.731554e+00 -3.749887e+00 -8.226600e+00 -3.309790e+00 4.242507e-01 -2.133529e+00 6.935376e+01 -8.692245e-01 -1.324710e-01 -1.535019e-01 -3.438612e-01 -4.451913e-01 1.196396e-01 -9.745090e-02 -3.093906e-01 2.230604e-01 1.797760e-02 -7.825538e-02 2.611764e-01 -4.402026e-01 -5.310076e-02 -2.130236e-01 6.106166e-02 -1.654099e-01 1.555029e-01 -2.123656e-01 3.557706e-02 1.365263e-02 -1.382840e-01 -5.779891e-02 -1.378713e-01 -1.954319e-01 7.150155e-01
<VARIANCE> 39
 8.489889e+00 2.317259e+01 1.320062e+01 1.676738e+01 2.335331e+01 2.263294e+01 2.517316e+01 2.305536e+01 2.357375e+01 2.384126e+01 1.594109e+01 1.938631e+01 3.752031e+01 8.841055e-01 1.065735e+00 1.411708e+00 1.248311e+00 1.840167e+00 1.408723e+00 1.401209e+00 1.430527e+00 1.609351e+00 1.436519e+00 1.314856e+00 1.430214e+00 2.200598e+00 1.598404e-01 2.328976e-01 2.609863e-01 3.137229e-01 3.340713e-01 4.087276e-01 2.983657e-01 3.002863e-01 3.797498e-01 2.827291e-01 3.044422e-01 2.828232e-01 2.999682e-01
<GCONST> 9.901118e+01
<STATE> 4
<MEAN> 39
 -1.151223e+01 1.782171e+00 -5.537609e+00 -8.205890e+00 -5.947057e+00 -8.432896e+00 -6.612733e+00 -1.936461e+00 -6.467215e+00 -4.139736e+00 -2.551772e+00 -3.473580e+00 7.766483e+01 9.914483e-01 -9.150715e-01 -6.056008e-01 -8.193999e-01 -6.202284e-01 -9.694264e-01 3.060129e-01 5.410450e-01 -1.116093e-01 -9.741332e-02 -1.352353e-01 -6.680641e-01 2.557135e+00 6.093065e-01 1.097242e-01 -5.479950e-02 2.033206e-01 -5.651251e-02 -1.546209e-01 1.704686e-01 3.085664e-01 -2.707756e-01 -3.472546e-02 1.222500e-01 -2.037988e-01 -1.050486e-01
<VARIANCE> 39
 4.405907e+01 2.828871e+01 3.010396e+01 2.795575e+01 3.965876e+01 6.010821e+01 3.945184e+01 2.946331e+01 2.440874e+01 2.757836e+01 2.059404e+01 1.957738e+01 1.411979e+02 5.926999e+00 3.478578e+00 3.762302e+00 3.343859e+00 3.543541e+00 5.243580e+00 3.548795e+00 3.699811e+00 3.116093e+00 2.361001e+00 2.076190e+00 2.858984e+00 5.297359e+00 1.087208e+00 5.633084e-01 6.317039e-01 5.504621e-01 6.639876e-01 1.013239e+00 6.831945e-01 6.522464e-01 5.214928e-01 5.054086e-01 3.197688e-01 4.272800e-01 1.170770e+00
<GCONST> 1.284183e+02
<TRANSP> 5
 0.000000e+00 1.000000e+00 0.000000e+00 0.000000e+00 0.000000e+00
 0.000000e+00 7.494009e-01 2.505992e-01 0.000000e+00 0.000000e+00
 0.000000e+00 0.000000e+00 8.228474e-01 1.771526e-01 0.000000e+00
 0.000000e+00 0.000000e+00 0.000000e+00 7.718633e-01 2.281367e-01
 0.000000e+00 0.000000e+00 0.000000e+00 0.000000e+00 0.000000e+00
<ENDHMM>
~h "r"
<BEGINHMM>
<NUMSTATES> 5
<STATE> 2
<MEAN> 39
 -7.570194e+00 -1.442632e-01 -6.397080e+00 -4.397405e+00 8.598692e-01 -9.807523e+00 -1.366938e+01 -7.658998e+00 -1.088696e+01 -7.899134e-01 3.644888e+00 -2.789695e+00 7.668204e+01 -2.763985e-01 4.129919e-01 8.207627e-02 2.751577e-01 2.359404e-01 4.801868e-01 3.467467e-01 -6.920695e-02 6.216006e-02 -3.278387e-01 -3.121778e-01 3.190240e-03 -7.031847e-01 -6.817248e-02 1.396115e-01 1.282722e-01 1.181758e-01 5.033202e-02 8.684663e-02 2.162306e-01 8.098426e-02 4.309580e-02 -4.053629e-02 -1.995669e-01 -1.493125e-01 7.001491e-02
<VARIANCE> 39
 1.480185e+01 1.777055e+01 2.215986e+01 2.760410e+01 3.309988e+01 3.060510e+01 3.344623e+01 2.426084e+01 3.339851e+01 3.834718e+01 2.548962e+01 2.349355e+01 8.190887e+01 1.073488e+00 1.129886e+00 2.110660e+00 1.772479e+00 2.016277e+00 2.161777e+00 1.822652e+00 1.643072e+00 2.545563e+00 1.893081e+00 1.961669e+00 1.651752e+00 7.980276e-01 2.459895e-01 1.896607e-01 3.798371e-01 3.376561e-01 3.417007e-01 4.058898e-01 3.345543e-01 3.552397e-01 4.346102e-01 3.263568e-01 3.650508e-01 3.332810e-01 1.740922e-01
<GCONST> 1.068132e+02
<STATE> 3
<MEAN> 39
 -9.284164e+00 3.825598e+00 -2.762398e+00 -3.632936e+00 1.241055e+00 -5.020808e+00 -6.970004e+00 -4.090740e+00 -1.035481e+01 -3.288198e+00 4.616844e-01 -3.932219e+00 7.470726e+01 -3.192102e-01 3.812561e-01 2.301014e-01 1.243528e-01 -8.248490e-02 5.586247e-01 3.739743e-01 3.737483e-01 3.284950e-01 -3.834545e-01 -5.510948e-01 -1.510531e-01 -4.798374e-01 -2.693489e-02 -3.177955e-01 -1.093760e-01 -8.839198e-02 -1.648181e-01 -3.548806e-01 -1.085237e-01 -8.519726e-02 -2.019697e-01 6.481755e-02 3.462084e-02 -1.181566e-03 3.423571e-01
<VARIANCE> 39
 3.044303e+01 3.185328e+01 2.745900e+01 3.970060e+01 2.443134e+01 3.489991e+01 3.372594e+01 3.364066e+01 2.706608e+01 3.643373e+01 2.674511e+01 1.969996e+01 7.371530e+01 2.023397e+00 2.379383e+00 2.927110e+00 2.163800e+00 2.750583e+00 3.090276e+00 2.477675e+00 2.421896e+00 3.848896e+00 2.364936e+00 2.178030e+00 1.902334e+00 3.264862e+00 4.200693e-01 4.022993e-01 5.537016e-01 3.900068e-01 5.298145e-01 5.836191e-01 4.425665e-01 5.309296e-01 7.171574e-01 4.614947e-01 3.982549e-01 4.327153e-01 5.426432e-01
<GCONST> 1.195462e+02
<STATE> 4
<MEAN> 39
 -1.073647e+01 1.022765e+00 -2.709845e-01 -2.481454e+00 4.091225e+00 -1.023673e+01 -9.208357e+00 -6.158452e+00 -1.368304e+01 -4.620136e+00 -2.668974e+00 -6.604912e+00 8.206573e+01 -2.191608e-01 -1.546891e-01 2.787966e-01 1.887297e-01 1.088585e-01 -3.219992e-01 -9.997068e-02 -3.832509e-02 -3.338790e-01 -6.028806e-02 -2.635708e-04 -2.120496e-01 1.627248e-01 9.206150e-02 -3.062113e-02 2.755841e-02 7.419246e-02 -8.800834e-02 -3.448328e-02 1.042728e-02 2.086532e-02 -1.454577e-04 5.023125e-02 8.195392e-02 6.680049e-02 -1.106713e-01
<VARIANCE> 39
 3.846058e+01 3.675862e+01 5.169019e+01 9.555184e+01 5.952027e+01 8.105174e+01 4.367112e+01 3.917708e+01 5.636015e+01 4.540618e+01 3.689890e+01 3.730378e+01 5.158415e+01 4.773200e+00 3.481435e+00 4.540041e+00 7.977556e+00 4.752542e+00 8.810674e+00 4.068380e+00 3.339126e+00 6.540544e+00 3.446579e+00 3.074178e+00 3.432193e+00 4.923567e+00 8.431415e-01 5.363985e-01 8.491122e-01 1.399099e+00 7.783672e-01 1.557687e+00 7.314658e-01 5.813100e-01 1.176935e+00 6.746103e-01 6.032150e-01 6.975318e-01 7.312502e-01
<GCONST> 1.394964e+02
<TRANSP> 5
 0.000000e+00 1.000000e+00 0.000000e+00 0.000000e+00 0.000000e+00
 0.000000e+00 7.168310e-01 2.831690e-01 0.000000e+00 0.000000e+00
 0.000000e+00 0.000000e+00 6.856266e-01 3.143735e-01 0.000000e+00
 0.000000e+00 0.000000e+00 0.000000e+00 8.101556e-01 1.898444e-01
 0.000000e+00 0.000000e+00 0.000000e+00 0.000000e+00 0.000000e+00
<ENDHMM>
~h "s"
<BEGINHMM>
<NUMSTATES> 5
<STATE> 2
<MEAN> 39
 -1.447666e+01 1.311834e+00 -2.425566e+00 -4.539768e+00 -2.543996e+00 -5.311751e+00 -8.243698e+00 -4.354567e+00 -1.024450e+01 -4.778040e+00 -2.579222e+00 -5.121692e+00 7.234321e+01 -3.800731e-01 1.786610e-01 4.116676e-01 -1.825981e-01 2.505260e-01 2.543559e-01 7.846070e-02 -1.192001e-01 4.016813e-03 4.871443e-02 -8.554132e-02 -5.234151e-02 -4.637353e-02 -3.743590e-01 2.895238e-02 2.867588e-01 -1.889684e-01 1.577117e-01 5.375307e-02 3.383663e-02 -1.011906e-02 6.981452e-02 1.022167e-01 -2.471836e-02 -3.094951e-03 1.344378e-01
<VARIANCE> 39
 2.623018e+01 2.830799e+01 1.488323e+01 1.995892e+01 1.867725e+01 3.519264e+01 2.288405e+01 2.238788e+01 2.910838e+01 2.889841e+01 2.525889e+01 1.662906e+01 1.894506e+02 7.361479e-01 9.661452e-01 1.424668e+00 1.001282e+00 1.346930e+00 1.787034e+00 1.126374e+00 1.209118e+00 1.367144e+00 1.236608e+00 1.143939e+00 8.759056e-01 5.571679e-01 4.184738e-01 2.289158e-01 3.663506e-01 2.771539e-01 3.323082e-01 4.143594e-01 2.837366e-01 2.511187e-01 4.205462e-01 3.237099e-01 2.757731e-01 2.375691e-01 2.242218e-01
<GCONST> 1.003996e+02
<STATE> 3
<MEAN> 39
 -1.595913e+01 2.108206e+00 -1.571564e+00 -3.642047e+00 -1.988660e+00 -4.131176e+00 -8.118084e+00 -3.762939e+00 -9.350008e+00 -4.282101e+00 -2.694922e+00 -4.699193e+00 6.825519e+01 -1.739969e+00 6.621084e-02 1.502126e+00 -9.592412e-01 7.442033e-01 1.141182e-01 2.536908e-01 -1.087282e-01 1.280295e-01 4.165058e-01 -2.289253e-01 -1.492830e-01 8.742121e-01 -3.383501e-01 -1.934898e-01 2.510400e-01 -2.187369e-01 -4.305571e-02 -2.424199e-03 3.833921e-03 -4.147857e-03 9.308487e-02 1.481393e-01 3.869563e-02 5.848614e-02 1.895258e-01
<VARIANCE> 39
 2.272509e+01 1.525221e+01 1.435979e+01 1.762193e+01 1.855685e+01 2.933615e+01 1.985856e+01 2.289429e+01 3.191591e+01 2.480214e+01 1.521128e+01 1.354448e+01 1.797087e+02 2.290471e+00 2.672244e+00 3.614419e+00 2.447688e+00 2.640917e+00 4.002721e+00 2.312254e+00 2.039249e+00 2.688253e+00 1.961365e+00 1.775902e+00 1.651447e+00 1.911290e+00 4.803246e-01 1.987268e-01 3.429924e-01 2.665531e-01 3.089675e-01 3.119029e-01 2.852201e-01 3.149306e-01 3.954584e-01 2.830083e-01 2.541217e-01 2.390325e-01 2.197440e-01
<GCONST> 1.079613e+02
<STATE> 4
<MEAN> 39
 -2.372551e+01 -7.974562e-02 5.241499e+00 -1.022699e+01 -1.336499e-01 -4.346525e+00 -7.259994e+00 -4.261522e+00 -8.561526e+00 -2.634135e+00 -1.881812e+00 -4.074746e+00 7.842175e+01 -1.288323e-01 -2.309095e-01 -8.378538e-02 -3.301740e-01 -3.005707e-01 -6.751986e-02 1.448117e-01 1.409868e-01 1.054465e-01 2.403165e-01 4.206310e-02 6.724255e-02 1.308612e-01 5.010958e-01 -2.114793e-02 -3.348959e-01 1.815403e-01 -2.042775e-01 -1.017554e-01 -7.077169e-02 1.202857e-02 -9.560352e-02 -5.172384e-02 6.319087e-02 -2.128641e-02 -1.236950e-01
<VARIANCE> 39
 7.489563e+01 3.101575e+01 5.344772e+01 3.961639e+01 4.056742e+01 3.499683e+01 3.423892e+01 2.601460e+01 3.222371e+01 2.977135e+01 2.503556e+01 1.834444e+01 1.497472e+02 9.735287e+00 2.211341e+00 4.629431e+00 2.455023e+00 2.375788e+00 2.710666e+00 2.266725e+00 2.207267e+00 2.461987e+00 1.967968e+00 1.693487e+00 1.724734e+00 2.255594e+00 1.049611e+00 5.422928e-01 6.283846e-01 5.136113e-01 5.018007e-01 5.540219e-01 5.160186e-01 4.636590e-01 4.675256e-01 3.943680e-01 3.859011e-01 3.527151e-01 4.024152e-01
<GCONST> 1.225766e+02
<TRANSP> 5
 0.000000e+00 1.000000e+00 0.000000e+00 0.000000e+00 0.000000e+00
 0.000000e+00 3.941121e-01 6.058878e-01 0.000000e+00 0.000000e+00
 0.000000e+00 0.000000e+00 2.334996e-01 7.665004e-01 0.000000e+00
 0.000000e+00 0.000000e+00 0.000000e+00 7.660167e-01 2.339833e-01
 0.000000e+00 0.000000e+00 0.000000e+00 0.000000e+00 0.000000e+00
<ENDHMM>
~h "t"
<BEGINHMM>
<NUMSTATES> 5
<STATE> 2
<MEAN> 39
 -1.632252e+01 1.115035e+00 -1.381986e-01 -5.417636e+00 -3.107984e+00 -5.422002e+00 -7.647392e+00 -5.665627e+00 -9.151285e+00 -4.181762e+00 -2.260725e+00 -4.191844e+00 7.403866e+01 -1.631423e-02 -7.589583e-01 4.690020e-01 2.216400e-01 4.720270e-01 -7.880933e-01 -6.316789e-02 -7.750784e-02 -4.781253e-01 -2.142182e-01 -4.516264e-02 -1.217078e-01 1.742414e+00 4.520622e-01 8.068675e-02 4.724100e-02 2.138403e-01 2.535035e-01 -2.906605e-01 -1.231240e-01 2.696949e-01 -2.739020e-01 -2.226650e-01 -9.364019e-03 -1.364346e-01 1.425021e-01
<VARIANCE> 39
 3.142498e+01 4.029685e+01 3.548749e+01 3.835298e+01 3.250866e+01 4.266585e+01 4.117563e+01 3.395803e+01 3.222293e+01 2.742033e+01 2.829203e+01 1.846544e+01 1.235621e+02 4.378922e+00 4.739745e+00 4.196866e+00 5.078150e+00 4.363742e+00 4.806653e+00 3.972363e+00 4.444394e+00 4.515068e+00 3.282842e+00 3.315519e+00 2.348576e+00 8.571829e+00 7.930813e-01 9.315987e-01 7.724702e-01 7.972698e-01 6.598967e-01 8.285454e-01 7.920055e-01 8.289060e-01 8.513678e-01 6.002976e-01 5.513460e-01 4.444910e-01 1.400643e+00
<GCONST> 1.337251e+02
<STATE> 3
<MEAN> 39
 -8.653145e+00 -2.496961e-01 3.975487e+00 2.211630e-01 3.341618e+00 -1.533324e+01 -1.113720e+01 -1.603534e+00 -1.478685e+01 -7.177114e+00 -1.088112e+00 -6.219388e+00 8.292206e+01 1.578263e+00 5.439000e-01 -1.699535e-01 8.780675e-01 6.850650e-01 -6.557293e-01 -9.680916e-02 1.354169e+00 -3.157841e-01 -5.593404e-01 2.441745e-01 -1.628395e-01 -7.821872e-01 -3.093927e-01 5.899477e-02 -4.863356e-01 -3.696394e-01 -5.225336e-01 4.551276e-01 2.252561e-01 -8.233945e-02 5.887645e-01 3.822347e-01 -2.690805e-02 5.981959e-02 -5.973660e-01
<VARIANCE> 39
 2.030032e+01 3.015527e+01 8.067078e+01 7.581778e+01 6.163739e+01 6.695809e+01 5.955801e+01 6.346787e+01 6.871541e+01 5.449723e+01 3.692171e+01 2.907903e+01 7.499736e+01 3.279582e+00 3.228731e+00 5.089777e+00 4.395747e+00 4.823401e+00 8.665205e+00 4.990224e+00 4.065131e+00 7.471866e+00 5.211808e+00 3.060276e+00 4.046383e+00 4.578651e+00 3.489042e-01 3.639554e-01 4.513476e-01 6.259624e-01 5.676641e-01 9.180546e-01 6.501672e-01 7.598963e-01 8.355107e-01 5.445467e-01 4.815281e-01 4.785275e-01 5.028048e-01
<GCONST> 1.351830e+02
<STATE> 4
<MEAN> 39
 -7.992123e+00 2.468876e+00 -2.553676e+00 -3.986272e+00 -1.604180e+00 -1.036345e+01 -1.042922e+01 -2.518881e+00 -1.109570e+01 -4.278807e+00 4.642778e-01 -4.532229e+00 7.549620e+01 -1.527322e-01 1.059186e-01 -4.834226e-01 -5.823748e-02 -3.406714e-01 1.254929e-01 5.261646e-02 9.608395e-02 3.726167e-01 1.531350e-01 -1.345751e-01 -2.721590e-01 -5.291582e-01 -3.497466e-01 -1.313169e-01 2.349634e-01 -8.814645e-02 7.012831e-03 9.857049e-02 3.242632e-02 -1.901211e-01 1.200628e-01 9.074511e-02 -8.797684e-02 -3.114127e-02 3.055482e-01
<VARIANCE> 39
 1.748516e+01 3.610324e+01 4.893083e+01 5.778012e+01 4.503805e+01 5.985206e+01 4.274224e+01 3.996439e+01 6.272522e+01 4.956096e+01 2.893021e+01 2.991945e+01 1.065136e+02 7.749246e-01 1.036667e+00 1.621829e+00 1.221123e+00 1.634488e+00 1.607479e+00 2.098900e+00 1.624505e+00 1.888409e+00 1.622820e+00 1.459089e+00 1.552496e+00 1.004244e+00 2.396299e-01 3.597989e-01 2.890652e-01 3.103032e-01 4.070889e-01 5.002461e-01 4.256900e-01 4.270401e-01 7.270601e-01 4.982545e-01 4.081299e-01 3.450361e-01 5.005432e-01
<GCONST> 1.136608e+02
<TRANSP> 5
 0.000000e+00 1.000000e+00 0.000000e+00 0.000000e+00 0.000000e+00
 0.000000e+00 8.090559e-01 1.909442e-01 0.000000e+00 0.000000e+00
 0.000000e+00 0.000000e+00 5.890792e-01 4.109208e-01 0.000000e+00
 0.000000e+00 0.000000e+00 0.000000e+00 6.214326e-01 3.785674e-01
 0.000000e+00 0.000000e+00 0.000000e+00 0.000000e+00 0.000000e+00
<ENDHMM>
~h "u"
<BEGINHMM>
<NUMSTATES> 5
<STATE> 2
<MEAN> 39
 -8.063688e+00 5.729507e+00 2.123633e+00 -3.211388e+00 2.612465e+00 -9.684702e+00 -7.697633e+00 -2.192883e+00 -1.426470e+01 -9.534171e+00 -4.985105e+00 -7.823725e+00 7.917610e+01 1.935937e-01 4.350942e-01 4.528419e-01 3.075429e-01 4.323077e-01 -2.326009e-01 1.559574e-01 4.738255e-01 -2.150989e-01 -2.370718e-01 -4.029946e-01 -3.586567e-01 1.702222e-01 -1.463399e-01 -4.550946e-02 -2.389223e-02 -2.763715e-02 -9.431176e-02 9.853902e-02 3.667801e-02 -6.318461e-02 1.161203e-01 1.637986e-01 6.530701e-02 7.249103e-02 -1.665159e-01
<VARIANCE> 39
 2.757907e+01 3.654665e+01 2.543069e+01 5.112510e+01 6.150776e+01 6.752514e+01 4.543900e+01 5.000927e+01 7.556186e+01 7.026152e+01 3.508929e+01 3.876815e+01 7.643244e+01 3.174951e+00 3.730373e+00 2.534907e+00 4.537729e+00 4.181277e+00 7.095032e+00 4.101849e+00 4.991506e+00 6.993820e+00 7.028419e+00 3.323049e+00 4.118367e+00 4.941982e+00 5.672112e-01 7.999018e-01 5.897439e-01 8.030283e-01 8.177272e-01 1.210586e+00 8.122257e-01 9.179049e-01 1.304315e+00 1.356230e+00 6.484324e-01 7.126614e-01 6.722321e-01
<GCONST> 1.389449e+02
<STATE> 3
<MEAN> 39
 -8.756145e+00 6.367453e+00 3.994931e+00 -9.682386e-01 2.978671e+00 -1.226452e+01 -7.390790e+00 -6.468404e-01 -1.254108e+01 -8.347587e+00 -6.547127e+00 -8.929831e+00 7.903812e+01 -3.967514e-01 -2.857192e-01 -6.157735e-02 1.881226e-01 -2.028323e-01 -2.085151e-01 -2.566489e-01 1.607924e-01 7.767367e-01 6.712584e-01 2.716351e-01 1.222632e-01 -3.231399e-01 -1.386180e-02 -1.991956e-01 -1.414261e-01 -7.310106e-02 -3.341717e-02 8.418997e-02 -1.410501e-01 -1.806194e-01 1.020321e-01 2.394795e-02 9.839257e-02 1.406595e-01 4.622682e-02
<VARIANCE> 39
 1.837174e+01 2.822824e+01 2.215504e+01 5.210190e+01 3.932679e+01 6.883867e+01 5.572211e+01 5.476942e+01 5.751024e+01 4.337700e+01 3.730682e+01 3.140173e+01 6.987894e+01 8.990653e-01 1.639108e+00 1.952062e+00 2.562149e+00 2.648245e+00 4.191317e+00 2.631272e+00 3.001996e+00 3.438151e+00 2.064696e+00 1.976950e+00 2.031602e+00 1.265127e+00 1.567596e-01 2.782550e-01 3.059167e-01 4.034393e-01 4.212622e-01 7.207088e-01 4.989082e-01 5.611361e-01 6.691414e-01 5.175026e-01 3.950708e-01 3.463925e-01 1.540961e-01
<GCONST> 1.174890e+02
<STATE> 4
<MEAN> 39
 -7.940436e+00 8.475432e+00 3.247638e+00 -5.524719e+00 -2.493901e+00 -1.204188e+01 -6.918849e+00 6.702915e-02 -1.201341e+01 -7.726067e+00 -7.200004e+00 -1.136834e+01 7.585221e+01 -2.287062e-01 -3.395766e-01 -3.235367e-01 -1.513445e-02 -9.867343e-02 2.582496e-01 -6.714673e-02 -2.538045e-01 2.486077e-01 3.470669e-01 1.707653e-01 3.194393e-01 -2.902152e-01 -8.031081e-03 -9.721281e-02 -5.775627e-02 2.954700e-02 4.952564e-02 3.405209e-02 1.083371e-03 -4.669381e-02 -4.932182e-02 -2.684174e-02 3.812971e-02 1.003555e-01 5.098068e-02
<VARIANCE> 39
 2.107508e+01 3.358072e+01 2.258799e+01 3.654297e+01 4.816797e+01 6.808210e+01 4.977016e+01 5.205122e+01 4.307563e+01 4.904905e+01 3.285170e+01 4.253384e+01 9.155374e+01 4.668813e-01 1.021288e+00 1.276476e+00 1.131952e+00 1.586285e+00 1.962935e+00 1.651027e+00 1.646507e+00 1.916893e+00 1.720970e+00 1.484523e+00 1.503492e+00 5.679214e-01 5.229989e-02 1.475846e-01 1.528018e-01 1.973558e-01 2.170598e-01 3.363053e-01 3.036721e-01 2.931353e-01 2.999494e-01 3.152587e-01 2.549948e-01 2.363190e-01 8.453666e-02
<GCONST> 1.024793e+02
<TRANSP> 5
 0.000000e+00 1.000000e+00 0.000000e+00 0.000000e+00 0.000000e+00
 0.000000e+00 7.686037e-01 2.313962e-01 0.000000e+00 0.000000e+00
 0.000000e+00 0.000000e+00 6.018448e-01 3.981552e-01 0.000000e+00
 0.000000e+00 0.000000e+00 0.000000e+00 8.467026e-01 1.532974e-01
 0.000000e+00 0.000000e+00 0.000000e+00 0.000000e+00 0.000000e+00
<ENDHMM>
~h "y"
<BEGINHMM>
<NUMSTATES> 5
<STATE> 2
<MEAN> 39
 -1.682518e+01 3.027196e+00 1.012507e+00 -8.080729e+00 -4.124330e+00 -5.116401e+00 -1.931366e+00 -5.030938e+00 -1.054923e+01 -2.766724e+00 -3.055007e+00 -5.869241e+00 7.155550e+01 1.534246e+00 1.181944e-01 1.616808e-01 -1.286282e-01 -6.641097e-01 -1.026875e+00 4.247123e-01 -1.455704e-01 -8.786817e-01 2.197496e-02 1.628688e-01 4.238708e-02 2.064456e+00 2.993243e-01 -2.357228e-01 -2.957078e-01 3.371309e-02 -1.539126e-01 -1.438854e-01 -1.031186e-01 1.306618e-01 1.141611e-02 3.294827e-02 1.231068e-01 7.935420e-02 3.358270e-01
<VARIANCE> 39
 4.369897e+01 2.962863e+01 2.732648e+01 2.828241e+01 2.770572e+01 3.588861e+01 3.680768e+01 4.256687e+01 3.643008e+01 4.179454e+01 1.810748e+01 1.827879e+01 3.654944e+01 4.676338e+00 3.473845e+00 2.724910e+00 2.331166e+00 3.339281e+00 4.229764e+00 2.799106e+00 3.458907e+00 2.893482e+00 3.352176e+00 1.838967e+00 1.603489e+00 3.494169e+00 7.172333e-01 8.076597e-01 4.745197e-01 4.708160e-01 5.410516e-01 7.147947e-01 5.741678e-01 5.215747e-01 6.708808e-01 5.500868e-01 3.439413e-01 3.491467e-01 4.753248e-01
<GCONST> 1.225798e+02
<STATE> 3
<MEAN> 39
 -4.188453e+00 -3.528630e+00 -5.948133e+00 -6.136247e+00 -8.906627e+00 -1.268288e+01 -1.676034e+00 -3.817259e-01 -1.147559e+01 -3.500499e+00 1.530513e+00 -3.210317e+00 8.752551e+01 2.371551e-01 -1.131451e+00 -1.082397e+00 3.974368e-01 7.903932e-01 -3.807082e-01 -6.707149e-01 -2.880852e-02 4.386241e-01 6.299811e-01 7.116544e-01 1.784127e-01 1.259724e+00 -3.723517e-01 1.967887e-01 2.779671e-01 2.040209e-01 4.170782e-01 4.620707e-02 -2.705607e-01 -2.771938e-01 2.968617e-02 7.850484e-02 -1.280661e-01 -9.329066e-02 -4.270353e-01
<VARIANCE> 39
 2.022310e+01 2.009150e+01 3.583412e+01 2.697480e+01 4.575382e+01 6.362034e+01 3.239241e+01 6.961756e+01 4.062503e+01 7.478386e+01 1.797827e+01 2.938262e+01 1.762289e+01 1.240746e+00 1.677766e+00 2.086341e+00 1.995949e+00 2.669140e+00 1.782893e+00 2.321350e+00 3.404902e+00 2.910214e+00 1.638327e+00 1.581642e+00 2.247184e+00 1.485523e+00 2.414734e-01 2.846325e-01 3.054227e-01 3.115925e-01 3.737923e-01 4.225333e-01 3.351075e-01 4.298509e-01 4.512049e-01 4.683256e-01 3.154335e-01 3.897181e-01 1.579616e-01
<GCONST> 1.121171e+02
<STATE> 4
<MEAN> 39
 -7.836881e+00 -4.211787e+00 -2.993606e+00 3.115615e+00 2.882811e+00 -2.086707e+01 -1.371228e+01 -7.280393e+00 -1.190814e+01 1.771063e+00 1.021389e+00 -6.981423e+00 8.988199e+01 3.211597e-03 1.830061e-02 9.422492e-03 3.088803e-02 5.478094e-02 -1.933274e-01 -2.740405e-01 -5.882677e-02 -9.519533e-02 1.286344e-01 6.434570e-02 -1.098064e-01 1.791020e-02 4.616975e-02 -6.588400e-03 -6.261303e-02 -1.728910e-01 -1.540053e-01 1.367036e-01 1.662092e-01 1.337325e-01 -4.378699e-03 -6.999461e-02 -2.330368e-03 2.163183e-02 -1.658371e-02
<VARIANCE> 39
 1.038725e+01 1.260412e+01 2.319134e+01 3.465254e+01 4.126334e+01 4.044958e+01 2.924736e+01 4.560840e+01 9.998383e+01 7.064338e+01 3.641299e+01 4.249579e+01 6.082321e+00 3.044895e-01 3.023439e-01 1.777385e+00 3.094208e+00 2.890668e+00 3.201323e+00 2.055726e+00 1.697799e+00 1.947091e+00 2.262486e+00 1.419523e+00 2.393340e+00 1.124941e-01 2.553163e-02 4.959213e-02 1.745490e-01 1.872749e-01 2.102459e-01 2.454854e-01 2.287950e-01 2.721971e-01 2.953138e-01 3.808307e-01 2.176324e-01 3.851229e-01 1.936140e-02
<GCONST> 9.474320e+01
<TRANSP> 5
 0.000000e+00 1.000000e+00 0.000000e+00 0.000000e+00 0.000000e+00
 0.000000e+00 8.346420e-01 1.653580e-01 0.000000e+00 0.000000e+00
 0.000000e+00 0.000000e+00 8.480225e-01 1.519775e-01 0.000000e+00
 0.000000e+00 0.000000e+00 0.000000e+00 9.401377e-01 5.986236e-02
 0.000000e+00 0.000000e+00 0.000000e+00 0.000000e+00 0.000000e+00
<ENDHMM>
~h "ay"
<BEGINHMM>
<NUMSTATES> 5
<STATE> 2
<MEAN> 39
 -2.610489e+01 -7.973169e+00 1.023971e+01 -1.283751e+01 -4.452513e+00 -3.362879e+00 -7.932954e+00 -5.781155e+00 -7.360757e+00 3.879242e-01 -8.526821e-01 -3.988199e+00 7.706224e+01 -2.976935e+00 -1.283485e+00 2.470289e+00 -1.732871e+00 3.868780e-01 -4.374164e-02 4.192908e-01 6.219354e-01 5.450910e-01 2.282696e-01 5.684636e-01 3.774566e-01 2.940831e+00 -4.029424e-02 7.950708e-01 -5.948280e-01 4.104631e-01 3.217750e-01 8.138153e-02 1.972762e-01 3.447690e-01 9.128553e-02 -1.753583e-01 -1.343992e-01 3.271675e-02 -2.884101e-01
<VARIANCE> 39
 1.454447e+01 1.011041e+01 3.694120e+01 3.678551e+01 1.825547e+01 2.589857e+01 5.391944e+01 4.375138e+01 4.228640e+01 2.476293e+01 1.401417e+01 1.463992e+01 1.118430e+02 1.058469e+00 2.316691e+00 2.721320e+00 2.065256e+00 2.371118e+00 2.385864e+00 2.081514e+00 2.091996e+00 2.191451e+00 1.460838e+00 1.353398e+00 1.263114e+00 1.034483e+00 2.952102e-01 2.372290e-01 5.397921e-01 4.362981e-01 3.342248e-01 3.837358e-01 4.650241e-01 5.676002e-01 4.809491e-01 3.345487e-01 2.784971e-01 2.572188e-01 2.411301e-01
<GCONST> 1.089869e+02
<STATE> 3
<MEAN> 39
 -3.384358e+01 -6.704400e+00 1.278442e+01 -1.384539e+01 -2.438054e+00 -2.326392e+00 -4.495275e+00 -2.070270e+00 -6.383652e+00 -5.783141e-05 -1.825169e-01 -2.741920e+00 8.235985e+01 -8.320421e-01 5.862309e-01 -3.536568e-01 -3.277045e-01 7.388314e-01 2.332136e-02 2.792889e-01 1.635830e-01 7.145821e-02 5.146879e-02 -2.069423e-01 1.727320e-01 8.572090e-01 8.312331e-01 1.638807e-01 -5.855045e-01 3.161480e-01 -1.351747e-02 -3.483949e-01 -2.899691e-01 -3.210568e-01 -1.197698e-01 -1.253847e-01 -2.674645e-01 -1.198977e-01 -4.316384e-01
<VARIANCE> 39
 7.922643e+00 1.511320e+01 2.565856e+01 2.633314e+01 2.563648e+01 3.676862e+01 3.937461e+01 3.233708e+01 4.015512e+01 2.079275e+01 1.461556e+01 1.298015e+01 1.213900e+02 1.815011e+00 8.760458e-01 1.856129e+00 1.114994e+00 1.520283e+00 1.939839e+00 1.797064e+00 2.535111e+00 1.470442e+00 1.545955e+00 1.381745e+00 9.975539e-01 8.640064e-01 2.553779e-01 2.746752e-01 3.491802e-01 2.641422e-01 2.636690e-01 5.726599e-01 3.485928e-01 4.307809e-01 3.606591e-01 3.116702e-01 2.963739e-01 1.963084e-01 1.136635e-01
<GCONST> 1.025015e+02
<STATE> 4
<MEAN> 39
 -2.929225e+01 -5.743726e+00 6.824528e+00 -1.211281e+01 2.064383e-01 -8.389629e+00 -8.687640e+00 -5.516617e+00 -5.888489e+00 -1.359808e+00 -3.820088e+00 -2.718235e+00 8.328395e+01 3.228588e+00 3.423940e-01 -8.543447e-01 1.513299e+00 -6.582789e-01 -1.549714e+00 -4.965330e-01 -6.272883e-01 -6.469923e-01 -1.147385e+00 -9.057324e-01 -8.074430e-02 -3.135056e-01 8.551081e-01 3.836022e-01 1.408090e-01 4.313339e-02 -4.344725e-01 2.156728e-01 2.499734e-01 1.667235e-01 -4.046354e-01 -2.443044e-01 1.354716e-01 -6.330730e-02 -5.568105e-02
<VARIANCE> 39
 2.594468e+01 2.271783e+01 2.479935e+01 2.844061e+01 4.126400e+01 4.282913e+01 4.663778e+01 3.243798e+01 4.142516e+01 2.365271e+01 2.192434e+01 1.538446e+01 1.122915e+02 2.870129e+00 4.976013e+00 3.622071e+00 2.195385e+00 2.913051e+00 4.968586e+00 5.177022e+00 4.418138e+00 5.179588e+00 2.646427e+00 2.413793e+00 1.650884e+00 1.112286e+00 3.167476e-01 1.093189e+00 5.219235e-01 6.573132e-01 6.283836e-01 1.117704e+00 1.015587e+00 1.058380e+00 1.090265e+00 5.799686e-01 4.762073e-01 3.632745e-01 2.400302e-01
<GCONST> 1.254335e+02
<TRANSP> 5
 0.000000e+00 1.000000e+00 0.000000e+00 0.000000e+00 0.000000e+00
 0.000000e+00 6.032572e-01 3.967429e-01 0.000000e+00 0.000000e+00
 0.000000e+00 0.000000e+00 7.819275e-01 2.180725e-01 0.000000e+00
 0.000000e+00 0.000000e+00 0.000000e+00 7.629186e-01 2.370814e-01
 0.000000e+00 0.000000e+00 0.000000e+00 0.000000e+00 0.000000e+00
<ENDHMM>
~h "ny"
<BEGINHMM>
<NUMSTATES> 5
<STATE> 2
<MEAN> 39
 -9.116931e+00 4.928730e-01 -4.516433e+00 -1.115960e+00 6.220495e+00 -6.213648e+00 -5.957656e+00 -4.322654e+00 -7.767973e+00 -1.407587e-01 4.280748e+00 -3.177552e+00 7.812579e+01 -2.675324e-01 -7.316140e-02 1.793372e-02 -3.739240e-01 -3.769956e-01 1.630500e+00 8.319282e-01 -2.843080e-01 -3.209445e-01 -1.135732e-01 -2.564293e-01 5.643659e-02 -1.275480e+00 -5.147062e-02 -7.796657e-02 7.930701e-02 6.793670e-02 -1.762314e-01 -1.604584e-01 -1.454649e-01 5.456120e-02 -6.324915e-03 -1.231517e-01 -1.822218e-01 -7.476467e-03 -4.265146e-02
<VARIANCE> 39
 8.448901e+00 2.186393e+01 1.385932e+01 2.776031e+01 1.918299e+01 5.511601e+01 5.269415e+01 2.983576e+01 7.511079e+01 1.770945e+01 1.954667e+01 3.670882e+01 5.466640e+01 4.459150e-01 1.949188e+00 1.251757e+00 1.396592e+00 1.737242e+00 1.568436e+00 2.211551e+00 1.697998e+00 1.898306e+00 1.501266e+00 2.421865e+00 1.676539e+00 3.870824e-01 6.960656e-02 3.044936e-01 2.350339e-01 2.702851e-01 3.025491e-01 2.385678e-01 3.613946e-01 2.907856e-01 3.101031e-01 2.946422e-01 3.164473e-01 2.554894e-01 6.526157e-02
<GCONST> 1.000565e+02
<STATE> 3
<MEAN> 39
 -1.093001e+01 -1.510934e+00 -3.873827e+00 -3.030174e+00 -2.561355e+00 -2.545875e-01 -2.786629e+00 -5.566726e+00 -1.136174e+01 -3.823529e+00 -1.851286e+00 -1.378949e+00 7.065581e+01 -2.939473e-01 8.165664e-01 9.129532e-02 1.169278e-01 -5.712137e-01 6.681294e-02 -3.075614e-01 2.129291e-01 2.900459e-01 -3.237943e-01 -2.557566e-01 -7.018457e-02 -8.754795e-01 -7.363802e-03 1.585718e-01 3.888550e-02 -9.269883e-03 1.773692e-01 -8.717006e-02 1.879826e-02 7.580161e-02 4.313126e-02 1.215777e-01 1.348016e-01 -4.074561e-02 7.516963e-02
<VARIANCE> 39
 3.911189e+00 3.433546e+01 9.303425e+00 1.456851e+01 3.105245e+01 1.479171e+01 3.150809e+01 1.627500e+01 1.646834e+01 1.579454e+01 1.419635e+01 1.973390e+01 1.729322e+01 2.136341e-01 1.361454e+00 5.400820e-01 8.825468e-01 1.428906e+00 1.085680e+00 1.340692e+00 1.115997e+00 1.319858e+00 1.263416e+00 1.045669e+00 9.154113e-01 1.410999e-01 4.404141e-02 2.580041e-01 8.814730e-02 1.703620e-01 2.085093e-01 2.099020e-01 2.633852e-01 2.342012e-01 2.379251e-01 2.180845e-01 2.174646e-01 1.699404e-01 2.703202e-02
<GCONST> 8.082027e+01
<STATE> 4
<MEAN> 39
 -1.419689e+01 7.626538e+00 -1.742963e+00 -3.620600e+00 -2.923894e+00 -1.295080e+00 -5.660636e+00 -3.797878e+00 -9.336277e+00 -6.696479e+00 -5.017106e+00 -6.202308e+00 6.528001e+01 -1.452232e-01 8.462059e-03 -3.508182e-02 -1.268447e-01 -1.788323e-01 -1.127812e-01 -5.732747e-02 3.489204e-02 1.692605e-02 -4.858731e-02 -1.174568e-01 -8.246367e-02 -1.333753e-01 1.456809e-02 -3.653844e-02 -1.269324e-02 -8.001640e-03 2.028385e-02 1.150288e-02 -1.682583e-04 -2.644406e-02 -1.991099e-02 8.145547e-03 2.606137e-02 1.706928e-02 3.228080e-02
<VARIANCE> 39
 3.645985e+00 8.643565e+00 6.930908e+00 1.122646e+01 1.146702e+01 1.107095e+01 1.261814e+01 9.459767e+00 1.136919e+01 1.457046e+01 1.620595e+01 1.313910e+01 3.876162e+00 1.022777e-01 2.754102e-01 2.755886e-01 4.343512e-01 5.702817e-01 6.723155e-01 7.467327e-01 8.718520e-01 8.270531e-01 6.773263e-01 6.790718e-01 6.555669e-01 6.517394e-02 1.659331e-02 4.861087e-02 5.045992e-02 9.219612e-02 1.090382e-01 1.308226e-01 1.611059e-01 1.665601e-01 1.593076e-01 1.391847e-01 1.432619e-01 1.300451e-01 9.229475e-03
<GCONST> 5.689567e+01
<TRANSP> 5
 0.000000e+00 1.000000e+00 0.000000e+00 0.000000e+00 0.000000e+00
 0.000000e+00 8.867342e-01 1.132658e-01 0.000000e+00 0.000000e+00
 0.000000e+00 0.000000e+00 8.481862e-01 1.518138e-01 0.000000e+00
 0.000000e+00 0.000000e+00 0.000000e+00 9.045355e-01 9.546456e-02
 0.000000e+00 0.000000e+00 0.000000e+00 0.000000e+00 0.000000e+00
<ENDHMM>
~h "sp"
<BEGINHMM>
<NUMSTATES> 3
<STATE> 2
~s "silst"
<TRANSP> 3
 0.000000e+00 1.349937e-01 8.650063e-01
 0.000000e+00 9.373964e-01 6.260361e-02
 0.000000e+00 0.000000e+00 0.000000e+00
<ENDHMM>
~h "sil"
<BEGINHMM>
<NUMSTATES> 5
<STATE> 2
<MEAN> 39
 -1.668494e+01 2.164236e+00 -2.966072e+00 -3.106222e+00 -4.086868e+00 -3.252774e+00 -9.231040e+00 -2.698807e+00 -8.212431e+00 -4.906680e+00 -2.832882e+00 -3.029295e+00 6.422971e+01 -5.167374e-02 3.063385e-02 4.954188e-02 1.042348e-01 1.332892e-02 6.127126e-02 3.008303e-02 1.556831e-02 3.487588e-02 2.715650e-02 -4.835949e-02 -1.718516e-02 -1.191802e-01 -3.599155e-03 5.636797e-03 1.308767e-02 -5.849667e-04 2.829149e-02 1.956458e-02 3.412643e-02 3.317553e-02 1.795173e-02 1.529694e-02 2.913775e-03 -6.772387e-03 1.791304e-02
<VARIANCE> 39
 1.064095e+01 1.531834e+01 2.134851e+01 2.495961e+01 2.049393e+01 1.850949e+01 1.462352e+01 1.514733e+01 1.410674e+01 1.456221e+01 1.182968e+01 1.171566e+01 2.237313e+02 1.404135e-01 2.163414e-01 3.315227e-01 4.840122e-01 5.952221e-01 6.581506e-01 7.553305e-01 7.990059e-01 8.227738e-01 7.908472e-01 7.038412e-01 6.830762e-01 6.953340e-02 2.122538e-02 3.816339e-02 6.162281e-02 8.789767e-02 1.134372e-01 1.267950e-01 1.447717e-01 1.518092e-01 1.528067e-01 1.451661e-01 1.338403e-01 1.289009e-01 8.583849e-03
<GCONST> 6.643892e+01
<STATE> 3
~s "silst"
<STATE> 4
<MEAN> 39
 -1.831302e+01 2.749824e+00 -2.055087e+00 -5.084589e+00 -2.938876e+00 -2.856870e+00 -7.520791e+00 -2.552191e+00 -7.283333e+00 -5.542015e+00 -2.696080e+00 -3.629907e+00 6.552511e+01 -8.191972e-02 -5.764585e-03 3.983542e-02 -2.477434e-02 3.168901e-02 3.957200e-02 -1.389390e-02 -2.821505e-02 3.243972e-02 1.601640e-03 2.844067e-02 -3.623126e-02 7.014522e-03 1.917199e-02 -3.995525e-03 -1.316457e-02 9.131160e-03 -2.014267e-02 1.499439e-02 -2.758722e-03 -2.049964e-02 -2.936646e-03 -6.690670e-04 -6.833685e-03 -1.162358e-02 -9.162465e-03
<VARIANCE> 39
 1.046092e+01 1.495249e+01 1.656450e+01 2.358174e+01 1.750890e+01 1.359872e+01 1.759989e+01 1.451802e+01 1.851779e+01 2.193331e+01 1.290951e+01 1.278324e+01 1.195040e+02 8.503326e-01 8.694239e-01 1.206229e+00 1.600246e+00 1.322625e+00 1.190085e+00 1.456227e+00 1.348017e+00 1.713892e+00 1.473014e+00 1.209059e+00 1.036769e+00 7.533153e-01 1.715506e-01 1.704045e-01 2.326173e-01 3.090660e-01 2.662734e-01 2.414736e-01 2.881456e-01 2.575066e-01 3.321910e-01 2.711865e-01 2.318940e-01 1.966024e-01 1.443035e-01
<GCONST> 9.302099e+01
<TRANSP> 5
 0.000000e+00 1.000000e+00 0.000000e+00 0.000000e+00 0.000000e+00
 0.000000e+00 8.412629e-01 9.270047e-02 6.603657e-02 0.000000e+00
 0.000000e+00 0.000000e+00 9.338048e-01 6.619526e-02 0.000000e+00
 0.000000e+00 9.255523e-02 0.000000e+00 7.568535e-01 1.505914e-01
 0.000000e+00 0.000000e+00 0.000000e+00 0.000000e+00 0.000000e+00
<ENDHMM>
