~o
<STREAMINFO> 1 39
<VECSIZE> 39<NULLD><MFCC_D_A_0><DIAGC>
~h "a"
<BEGINHMM>
<NUMSTATES> 5
<STATE> 2
<MEAN> 39
 -6.327964e+00 -1.217765e+00 -6.158584e+00 -8.460328e+00 -5.521692e+00 -1.091960e+01 -4.505735e+00 -1.619325e-01 -1.315807e+01 -2.145985e+00 7.702189e-01 -4.637150e+00 8.161900e+01 -1.870121e-01 2.549803e-02 -9.284715e-02 -4.672837e-02 -3.627959e-02 4.116153e-01 2.095793e-01 3.342371e-02 2.506935e-01 1.795705e-01 1.167139e-01 2.315948e-01 -5.445976e-01 -1.121644e-01 1.173165e-01 1.156154e-01 5.323807e-02 7.885329e-02 3.534751e-02 -1.136532e-01 -7.444222e-02 3.669995e-02 -8.682568e-02 -7.261284e-02 8.707136e-03 -1.483754e-01
<VARIANCE> 39
 2.714414e+01 2.147013e+01 2.794222e+01 2.234525e+01 3.447397e+01 6.492207e+01 4.661984e+01 4.789088e+01 6.358504e+01 4.865796e+01 2.849848e+01 2.686446e+01 1.410796e+02 6.208109e-01 1.164243e+00 1.233464e+00 1.022990e+00 1.449889e+00 1.822582e+00 1.391320e+00 1.591575e+00 1.954950e+00 1.622344e+00 1.348651e+00 1.613786e+00 1.425451e+00 1.210022e-01 1.793787e-01 2.242975e-01 1.852999e-01 2.564079e-01 3.162659e-01 2.516726e-01 2.682111e-01 3.482995e-01 2.623403e-01 2.592140e-01 3.153309e-01 1.631330e-01
<GCONST> 1.045656e+02
<STATE> 3
<MEAN> 39
 -8.893624e+00 1.897633e-01 -6.428313e+00 -8.296438e+00 -4.029747e+00 -6.626484e+00 -3.507246e+00 -1.715090e+00 -9.554592e+00 -2.169031e+00 5.847942e-01 -3.325388e+00 7.918303e+01 -2.838686e-01 3.137810e-01 1.899885e-01 1.883308e-02 8.177897e-02 2.496102e-01 -1.800905e-01 -1.131044e-01 1.359701e-01 -1.629604e-01 -8.285029e-02 1.248439e-01 -6.806077e-01 4.230389e-03 1.054053e-01 1.431172e-01 1.037700e-01 9.609783e-02 -8.337134e-02 -1.077570e-01 -6.585597e-02 -7.566735e-02 -7.768729e-02 -6.927009e-02 -4.610198e-02 -4.097965e-02
<VARIANCE> 39
 2.116751e+01 2.054161e+01 2.696103e+01 2.194806e+01 3.619378e+01 4.182982e+01 5.456990e+01 3.230653e+01 3.940827e+01 3.550374e+01 2.534809e+01 2.323798e+01 1.542101e+02 5.188731e-01 8.823327e-01 1.124089e+00 9.997288e-01 1.259305e+00 1.426187e+00 1.548204e+00 1.332584e+00 1.661134e+00 1.312825e+00 1.361847e+00 1.244591e+00 8.439041e-01 7.894398e-02 1.549050e-01 1.801038e-01 1.972816e-01 2.254112e-01 2.629111e-01 2.571208e-01 2.336006e-01 2.786688e-01 2.148098e-01 2.259766e-01 2.326712e-01 1.306643e-01
<GCONST> 9.819995e+01
<STATE> 4
<MEAN> 39
 -1.325711e+01 3.496618e+00 -4.119637e+00 -6.770583e+00 -4.416568e+00 -4.578856e+00 -6.391145e+00 -3.107909e+00 -8.703434e+00 -3.944271e+00 -1.349927e+00 -3.277647e+00 6.933327e+01 -2.377052e-01 1.585069e-01 1.703127e-01 1.934142e-01 8.244304e-02 2.489641e-03 -1.769390e-01 -5.556623e-02 2.115939e-02 -9.634248e-02 -9.473228e-02 -7.487243e-02 -3.762468e-01 2.423559e-02 -2.037069e-02 3.103639e-02 5.847197e-02 4.685079e-02 -2.207139e-02 5.594653e-02 -2.172737e-02 -3.625537e-02 1.641135e-02 -1.240037e-02 -3.103008e-02 8.651181e-02
<VARIANCE> 39
 2.309221e+01 2.003703e+01 1.643491e+01 1.766777e+01 2.404555e+01 3.207663e+01 2.728581e+01 2.463957e+01 2.307611e+01 2.521507e+01 2.038916e+01 1.679501e+01 8.619355e+01 4.924150e-01 8.622369e-01 9.518884e-01 9.726396e-01 1.116344e+00 1.382870e+00 1.495421e+00 1.402774e+00 1.361925e+00 1.164147e+00 1.226058e+00 1.048087e+00 5.328400e-01 1.180883e-01 1.933048e-01 1.974269e-01 2.158767e-01 2.337681e-01 2.972721e-01 2.716441e-01 2.855184e-01 2.919162e-01 2.448055e-01 2.478149e-01 2.292944e-01 1.706279e-01
<GCONST> 9.419350e+01
<TRANSP> 5
 0.000000e+00 1.000000e+00 0.000000e+00 0.000000e+00 0.000000e+00
 0.000000e+00 6.481811e-01 3.518189e-01 0.000000e+00 0.000000e+00
 0.000000e+00 0.000000e+00 5.313243e-01 4.686757e-01 0.000000e+00
 0.000000e+00 0.000000e+00 0.000000e+00 7.594551e-01 2.405448e-01
 0.000000e+00 0.000000e+00 0.000000e+00 0.000000e+00 0.000000e+00
<ENDHMM>
~h "b"
<BEGINHMM>
<NUMSTATES> 5
<STATE> 2
<MEAN> 39
 -2.036906e+01 2.071991e+00 5.509002e+00 -1.275267e+01 4.882297e+00 -5.826967e+00 -9.714001e+00 -6.285152e+00 -8.861191e+00 -1.266451e+00 -1.797168e+00 -4.532353e+00 8.150177e+01 1.671074e-01 -2.036890e-02 3.383277e-01 1.974605e-01 4.388679e-01 7.636747e-02 9.503967e-02 -2.705596e-01 -7.379855e-01 -2.987693e-01 -1.624062e-01 -5.470710e-02 3.839181e-01 3.571216e-01 -1.393822e-02 -2.276477e-01 3.782215e-01 -6.676255e-02 -1.197515e-01 6.251872e-03 3.025095e-02 -2.006686e-01 -1.085106e-01 -3.439471e-02 -9.763230e-02 -2.295985e-02
<VARIANCE> 39
 1.332278e+02 5.023631e+01 5.417086e+01 7.424288e+01 4.373879e+01 4.672333e+01 4.386268e+01 3.591852e+01 5.177264e+01 3.478347e+01 2.372347e+01 1.948700e+01 7.458254e+01 1.213146e+01 3.554137e+00 5.194112e+00 7.477259e+00 3.795650e+00 3.448151e+00 2.919832e+00 3.497432e+00 4.972008e+00 3.006147e+00 1.643759e+00 1.512789e+00 4.232014e+00 1.316501e+00 7.856839e-01 8.475545e-01 9.548187e-01 5.888503e-01 7.319378e-01 6.164363e-01 6.485666e-01 7.853832e-01 5.092448e-01 3.484295e-01 2.773693e-01 7.856879e-01
<GCONST> 1.336605e+02
<STATE> 3
<MEAN> 39
 -7.223621e+00 5.767649e+00 3.927756e+00 -1.526197e+00 6.817218e+00 -6.456468e+00 -1.042620e+01 -6.041663e+00 -1.295876e+01 -5.397047e+00 -4.134043e+00 -7.160346e+00 8.009217e+01 6.019210e-02 -8.835740e-01 -2.331982e-01 1.494928e+00 5.667065e-01 -1.106378e+00 -1.170892e-01 2.504584e-01 -3.451793e-01 -7.417998e-01 -1.162714e-01 -1.771922e-01 5.083613e-01 -1.459960e-01 -2.608554e-01 8.700700e-02 -4.043682e-02 -1.500503e-01 -2.323453e-01 -1.188507e-01 1.852884e-01 -6.572735e-03 -1.904643e-01 4.889475e-02 3.355224e-02 9.402911e-02
<VARIANCE> 39
 8.267306e+00 5.366930e+01 3.684664e+01 3.692787e+01 3.607689e+01 4.949513e+01 4.290223e+01 4.505216e+01 6.734774e+01 4.372470e+01 3.037163e+01 2.160050e+01 7.727473e+01 1.877428e+00 7.143189e+00 4.139965e+00 3.642880e+00 3.058028e+00 7.078526e+00 3.534702e+00 5.435312e+00 5.793406e+00 3.377677e+00 2.361775e+00 2.308475e+00 4.859453e+00 4.002388e-01 8.979874e-01 7.664839e-01 7.122241e-01 5.698953e-01 1.135819e+00 5.590003e-01 1.091051e+00 1.257987e+00 7.326675e-01 3.485922e-01 3.983306e-01 7.092103e-01
<GCONST> 1.314970e+02
<STATE> 4
<MEAN> 39
 -4.778458e+00 -3.688359e-02 6.585100e-01 -6.855702e-01 4.472767e+00 -1.231359e+01 -1.025702e+01 -4.439991e+00 -1.610760e+01 -7.831021e+00 -2.103068e+00 -7.763741e+00 8.463754e+01 4.772335e-02 1.500254e-01 1.443838e-01 -1.059347e-01 -1.799729e-01 -1.751308e-02 7.727025e-02 3.433318e-01 2.666837e-02 -1.391897e-01 -6.564976e-02 2.177449e-02 -1.987995e-01 -4.552602e-02 1.143826e-01 7.419655e-02 -1.267990e-01 -1.288656e-01 2.171068e-01 3.233512e-02 -2.587290e-03 1.980193e-01 1.064543e-01 -4.585963e-02 2.921468e-02 -1.016275e-01
<VARIANCE> 39
 1.046156e+01 3.306628e+01 3.429133e+01 5.035694e+01 7.003316e+01 5.077214e+01 7.825298e+01 6.314862e+01 1.027735e+02 1.126494e+02 5.836923e+01 3.285405e+01 3.416285e+01 7.320676e-01 1.732806e+00 2.181676e+00 2.579941e+00 3.061625e+00 5.695897e+00 3.689372e+00 3.165387e+00 4.762723e+00 3.105638e+00 2.935054e+00 2.004935e+00 1.739739e+00 1.236610e-01 2.264812e-01 3.718280e-01 3.923492e-01 5.699463e-01 8.602389e-01 6.465961e-01 6.290764e-01 7.001982e-01 5.994365e-01 5.211250e-01 4.168162e-01 2.121099e-01
<GCONST> 1.233501e+02
<TRANSP> 5
 0.000000e+00 1.000000e+00 0.000000e+00 0.000000e+00 0.000000e+00
 0.000000e+00 7.344629e-01 2.655371e-01 0.000000e+00 0.000000e+00
 0.000000e+00 0.000000e+00 6.987305e-01 3.012695e-01 0.000000e+00
 0.000000e+00 0.000000e+00 0.000000e+00 8.447909e-01 1.552090e-01
 0.000000e+00 0.000000e+00 0.000000e+00 0.000000e+00 0.000000e+00
<ENDHMM>
~h "d"
<BEGINHMM>
<NUMSTATES> 5
<STATE> 2
<MEAN> 39
 -1.312792e+01 1.272249e+00 5.836867e+00 -6.467324e+00 -3.211418e+00 -9.668324e+00 -6.329124e+00 -5.765944e+00 -1.109064e+01 -6.799056e+00 -5.988199e+00 -3.919854e+00 8.063628e+01 4.327371e+00 1.574018e+00 -1.311647e+00 -8.473739e-02 -1.438893e+00 -8.927284e-01 9.091209e-02 1.054294e-01 -2.059877e+00 -1.227159e+00 -7.690530e-02 -5.483725e-01 9.001906e-01 -5.498245e-01 -5.776457e-01 -6.280419e-01 -4.871696e-01 -6.939887e-02 -1.032322e-01 -1.903158e-01 2.966210e-01 9.785669e-02 5.165961e-01 4.896322e-01 -4.825897e-02 5.231332e-01
<VARIANCE> 39
 4.261201e+01 3.778833e+01 3.823586e+01 2.545258e+01 3.378400e+01 4.411465e+01 3.654907e+01 5.338383e+01 4.997047e+01 2.656090e+01 2.443259e+01 2.713357e+01 1.114910e+02 4.364528e+00 4.667706e+00 3.219748e+00 3.111711e+00 3.855765e+00 4.666995e+00 4.291616e+00 5.163315e+00 7.645514e+00 3.640571e+00 2.715126e+00 3.017288e+00 1.811793e+00 6.639380e-01 9.697901e-01 5.303460e-01 4.794626e-01 5.094991e-01 5.917040e-01 8.110650e-01 8.764661e-01 1.533526e+00 6.902241e-01 5.019023e-01 4.694499e-01 2.943814e-01
<GCONST> 1.305956e+02
<STATE> 3
<MEAN> 39
 -5.636910e+00 -2.480270e-01 -8.458450e-01 -8.841486e+00 -8.703001e+00 -1.358012e+01 -7.315351e+00 -3.908650e+00 -1.393571e+01 -7.379918e+00 -3.926230e+00 -5.255597e+00 8.588156e+01 1.300269e+00 -1.043449e+00 -2.699232e+00 -4.901434e-01 -7.068528e-01 -5.303676e-01 -2.558691e-01 9.258664e-01 9.938711e-02 9.208959e-01 1.427716e+00 1.351521e-01 1.348845e+00 -1.010739e+00 -5.336391e-01 6.952758e-02 6.203894e-02 5.725880e-01 2.467101e-01 -5.099031e-02 1.208743e-01 5.959696e-01 5.635741e-01 2.572637e-01 1.609388e-01 -8.596054e-02
<VARIANCE> 39
 1.830223e+01 1.549953e+01 3.570349e+01 1.977179e+01 4.119234e+01 4.770278e+01 3.889427e+01 5.174311e+01 4.774444e+01 3.045028e+01 2.332299e+01 3.466473e+01 8.817507e+01 2.416070e+00 1.475157e+00 1.830044e+00 1.407014e+00 2.386987e+00 3.487662e+00 2.748866e+00 3.303956e+00 5.716165e+00 3.368875e+00 2.282236e+00 2.494401e+00 8.389518e-01 4.028873e-01 4.860300e-01 4.179407e-01 3.780921e-01 3.970543e-01 4.597923e-01 6.231357e-01 6.747113e-01 1.264036e+00 5.369216e-01 4.641831e-01 6.123685e-01 1.572218e-01
<GCONST> 1.190568e+02
<STATE> 4
<MEAN> 39
 -6.113836e+00 -4.102292e+00 -7.054019e+00 -7.246521e+00 -4.013280e+00 -1.449379e+01 -1.122074e+01 -3.011444e+00 -1.299940e+01 -1.616873e+00 3.055518e+00 -4.542625e+00 8.781114e+01 -1.925801e-01 -8.208061e-02 -9.637725e-02 5.186706e-01 1.033087e+00 -2.634374e-01 -7.472108e-01 -3.599482e-01 -1.777537e-01 2.860131e-01 5.423242e-01 -2.176330e-01 -9.506197e-02 -9.198020e-02 2.388853e-01 3.763257e-01 7.962842e-02 1.145223e-01 1.299260e-01 2.628042e-02 -1.721028e-01 -5.580683e-02 -2.092928e-01 -2.080080e-01 -3.643882e-02 -2.666830e-01
<VARIANCE> 39
 1.707643e+01 1.243687e+01 2.155424e+01 1.774968e+01 4.066630e+01 4.869613e+01 4.766806e+01 3.439067e+01 9.001836e+01 4.170139e+01 2.047433e+01 2.109662e+01 1.059636e+02 3.978176e-01 8.878344e-01 1.858400e+00 1.179414e+00 2.237400e+00 1.919331e+00 1.997604e+00 2.166996e+00 3.344381e+00 1.995461e+00 1.764132e+00 1.912820e+00 1.013770e+00 1.133267e-01 1.149251e-01 2.252572e-01 2.030371e-01 3.801616e-01 5.005773e-01 4.306303e-01 3.712471e-01 5.774382e-01 3.093025e-01 2.942800e-01 3.380806e-01 1.807078e-01
<GCONST> 1.060726e+02
<TRANSP> 5
 0.000000e+00 1.000000e+00 0.000000e+00 0.000000e+00 0.000000e+00
 0.000000e+00 5.269616e-01 4.730384e-01 0.000000e+00 0.000000e+00
 0.000000e+00 0.000000e+00 5.876237e-01 4.123763e-01 0.000000e+00
 0.000000e+00 0.000000e+00 0.000000e+00 8.734954e-01 1.265046e-01
 0.000000e+00 0.000000e+00 0.000000e+00 0.000000e+00 0.000000e+00
<ENDHMM>
~h "e"
<BEGINHMM>
<NUMSTATES> 5
<STATE> 2
<MEAN> 39
 -1.864494e+01 -1.051847e+00 1.540199e+00 -9.905155e+00 -1.438992e+00 -6.823589e+00 -7.894203e+00 -6.062078e+00 -1.164497e+01 -2.611908e+00 -3.484893e-01 -4.409514e+00 8.156993e+01 7.178509e-01 -9.625563e-02 2.728109e-01 1.724555e-01 1.421646e-01 -4.181704e-01 1.398534e-01 -5.155188e-02 -6.020775e-01 -3.650908e-01 -1.846692e-01 -1.973765e-01 1.156436e+00 5.943192e-01 6.291437e-02 -1.258091e-01 2.562462e-01 -5.901098e-02 -2.017773e-01 -1.047939e-01 1.120852e-01 -1.651708e-01 -1.497549e-01 4.277103e-03 -2.318974e-02 -1.175573e-01
<VARIANCE> 39
 9.601340e+01 3.622599e+01 7.638546e+01 5.193750e+01 3.968318e+01 4.439381e+01 4.118779e+01 3.743959e+01 4.435144e+01 4.499830e+01 2.288658e+01 1.833395e+01 1.119747e+02 1.297924e+01 3.635400e+00 5.640380e+00 4.728834e+00 3.225003e+00 4.455385e+00 2.970768e+00 3.551448e+00 5.113394e+00 3.346143e+00 2.410604e+00 2.091003e+00 5.528325e+00 1.792914e+00 6.919695e-01 7.294372e-01 8.674062e-01 5.671183e-01 7.678418e-01 5.943801e-01 6.313219e-01 8.993044e-01 5.885736e-01 5.119388e-01 3.987327e-01 7.631526e-01
<GCONST> 1.350654e+02
<STATE> 3
<MEAN> 39
 -9.020441e+00 8.090594e-01 -1.071948e+00 -4.822193e+00 -1.059510e-01 -1.086901e+01 -9.667945e+00 -5.638391e+00 -1.511156e+01 -5.644152e+00 -1.455336e+00 -5.815714e+00 8.311384e+01 1.810945e+00 2.272571e-01 -4.335454e-02 8.755989e-01 9.708022e-02 -7.994972e-01 -8.300045e-02 5.713404e-01 -5.669431e-01 -8.537155e-01 -5.077165e-01 -3.073332e-01 2.682011e-01 -4.630439e-01 -9.202848e-02 -6.971017e-03 -2.093125e-01 -7.364855e-02 2.360511e-01 7.888937e-03 1.052652e-01 4.150422e-01 2.607217e-01 7.042748e-02 9.119610e-02 -3.424173e-01
<VARIANCE> 39
 3.796489e+01 2.571293e+01 3.737288e+01 5.080518e+01 4.110928e+01 5.245752e+01 4.504052e+01 4.493883e+01 5.447459e+01 5.538578e+01 3.203621e+01 2.241339e+01 1.248744e+02 7.140072e+00 3.582321e+00 4.074954e+00 3.711392e+00 4.320203e+00 6.094610e+00 3.530446e+00 3.308076e+00 6.685464e+00 4.302610e+00 3.790860e+00 2.786733e+00 4.524808e+00 1.063834e+00 4.962128e-01 7.082513e-01 6.258951e-01 7.179248e-01 9.966618e-01 5.797075e-01 5.389965e-01 1.097994e+00 6.560566e-01 6.326600e-01 4.096707e-01 6.650101e-01
<GCONST> 1.346909e+02
<STATE> 4
<MEAN> 39
 -5.292035e+00 1.089881e+00 -1.038882e+00 -4.081866e+00 -2.496840e+00 -1.364639e+01 -7.213789e+00 -9.228277e-01 -1.422505e+01 -7.257606e+00 -3.740890e+00 -6.769466e+00 8.259328e+01 8.727496e-02 2.072961e-01 7.518697e-02 5.756690e-02 -1.405188e-02 2.599143e-01 1.309259e-02 2.056778e-01 3.701749e-01 5.024716e-02 5.926479e-02 1.370138e-01 -3.699854e-01 -2.899435e-01 -4.019647e-02 -2.524668e-02 -1.402867e-01 -1.709178e-02 1.465719e-01 -2.135357e-02 -1.068732e-01 1.008029e-01 1.054635e-01 8.791798e-02 9.914956e-02 -5.238892e-02
<VARIANCE> 39
 3.030838e+01 3.465271e+01 4.787020e+01 4.500597e+01 5.178785e+01 7.541950e+01 5.496746e+01 6.043576e+01 6.055244e+01 7.134095e+01 3.914598e+01 4.013049e+01 8.191876e+01 2.487307e+00 1.971707e+00 2.444990e+00 2.187381e+00 2.937352e+00 4.394686e+00 2.707835e+00 2.387059e+00 3.462667e+00 2.970547e+00 2.545913e+00 2.378917e+00 3.191363e+00 4.171486e-01 3.238701e-01 4.977508e-01 3.503038e-01 4.673824e-01 7.652851e-01 4.492077e-01 4.212889e-01 7.355288e-01 5.807468e-01 4.701340e-01 4.143996e-01 4.685737e-01
<GCONST> 1.261218e+02
<TRANSP> 5
 0.000000e+00 1.000000e+00 0.000000e+00 0.000000e+00 0.000000e+00
 0.000000e+00 7.172286e-01 2.827714e-01 0.000000e+00 0.000000e+00
 0.000000e+00 0.000000e+00 4.565924e-01 5.434077e-01 0.000000e+00
 0.000000e+00 0.000000e+00 0.000000e+00 7.046602e-01 2.953398e-01
 0.000000e+00 0.000000e+00 0.000000e+00 0.000000e+00 0.000000e+00
<ENDHMM>
~h "g"
<BEGINHMM>
<NUMSTATES> 5
<STATE> 2
<MEAN> 39
 -7.752274e+00 -8.503989e-01 -1.751777e-01 -2.652974e-01 4.483515e+00 -1.481465e+01 -2.112611e+01 -8.786879e+00 -1.165141e+01 5.013880e-01 -1.275550e+00 -7.703453e+00 8.420971e+01 3.439711e-01 -3.986272e-01 -7.560041e-01 -1.195388e+00 -7.868753e-01 -6.129666e-01 -2.287541e-01 -6.854082e-01 -5.386009e-01 5.392339e-01 1.018064e+00 7.592242e-01 2.932795e-01 -5.545656e-02 1.146732e-01 2.242267e-01 1.401066e-01 -2.091919e-02 1.851413e-01 2.214131e-01 1.480454e-01 7.109432e-02 -1.237376e-01 7.613400e-02 5.183993e-02 -2.931706e-01
<VARIANCE> 39
 1.518438e+01 1.094567e+01 2.259205e+01 2.709340e+01 3.684058e+01 2.788682e+01 9.797313e+01 4.480272e+01 7.887492e+01 4.046491e+01 4.962680e+01 3.878923e+01 9.013788e+01 1.099396e+00 8.540222e-01 1.047569e+00 1.788036e+00 2.779964e+00 2.744946e+00 9.134043e+00 2.967569e+00 2.304708e+00 1.820622e+00 4.738219e+00 3.565571e+00 2.804243e+00 2.407843e-01 8.530827e-02 2.641859e-01 3.362018e-01 4.432930e-01 4.045340e-01 9.928498e-01 3.954126e-01 5.630810e-01 3.128839e-01 9.005384e-01 5.611274e-01 2.032259e-01
<GCONST> 1.168778e+02
<STATE> 3
<MEAN> 39
 -5.915051e+00 -1.075476e+00 -6.181955e+00 -3.814445e+00 -3.849406e-01 -1.475470e+01 -1.118553e+01 -5.632384e+00 -1.763961e+01 2.241444e+00 3.788602e+00 -2.984059e+00 8.020986e+01 -1.857431e-01 -1.927083e-02 -4.129378e-01 -2.779151e-01 -5.229946e-01 8.390940e-01 1.129689e+00 2.505071e-01 4.292387e-01 2.394595e-01 1.545637e-01 1.631957e-01 -6.645372e-01 -1.214333e-01 4.784995e-02 1.357616e-01 1.709438e-01 2.063494e-01 1.258630e-01 -1.561976e-01 -2.197921e-04 4.862326e-02 -1.694916e-01 -1.829993e-01 -1.836028e-01 -6.448729e-02
<VARIANCE> 39
 1.209196e+01 9.628868e+00 1.933727e+01 2.170916e+01 2.813473e+01 2.418780e+01 7.589020e+01 5.010344e+01 5.916313e+01 6.196739e+01 2.148407e+01 1.522800e+01 1.840955e+02 5.168772e-01 5.159442e-01 3.475130e-01 9.849172e-01 1.062870e+00 1.110569e+00 1.992151e+00 9.592125e-01 1.163360e+00 1.408075e+00 1.160612e+00 1.131421e+00 5.923908e-01 4.435028e-02 7.574213e-02 6.439636e-02 1.448709e-01 1.619139e-01 1.816547e-01 2.311482e-01 1.570955e-01 1.821877e-01 2.159708e-01 1.749220e-01 1.964269e-01 7.367110e-02
<GCONST> 8.868828e+01
<STATE> 4
<MEAN> 39
 -1.085769e+01 1.257161e+00 -7.454784e+00 -3.685606e+00 -1.740336e+00 -4.777725e+00 -9.498033e+00 -7.548548e+00 -1.096800e+01 1.664633e+00 3.205734e+00 -9.028189e-01 7.185370e+01 -4.284254e-01 1.889317e-01 5.138956e-03 -4.641766e-02 -2.443809e-01 4.802526e-01 1.775032e-01 -9.147407e-03 2.393690e-01 -4.417205e-01 -1.130377e-01 1.840055e-01 -8.393856e-01 1.860848e-02 5.156763e-03 6.355961e-02 -3.022393e-02 1.311276e-02 -7.240754e-02 -7.691646e-02 7.832781e-03 -4.810461e-02 8.071348e-03 3.451796e-03 -5.547154e-02 3.124389e-02
<VARIANCE> 39
 1.447671e+01 1.099093e+01 3.045161e+01 1.341911e+01 3.511378e+01 3.337989e+01 3.392143e+01 4.201159e+01 4.000407e+01 3.668340e+01 1.694316e+01 1.554953e+01 2.584049e+02 3.562131e-01 8.179454e-01 8.413085e-01 8.868418e-01 1.571809e+00 1.963560e+00 2.215201e+00 9.931811e-01 1.431396e+00 9.281432e-01 1.307183e+00 8.554097e-01 4.706658e-01 5.413561e-02 1.452441e-01 1.516831e-01 1.840829e-01 2.581300e-01 2.980689e-01 3.548831e-01 1.688631e-01 2.991399e-01 1.642080e-01 1.932085e-01 1.607492e-01 5.892545e-02
<GCONST> 9.241937e+01
<TRANSP> 5
 0.000000e+00 1.000000e+00 0.000000e+00 0.000000e+00 0.000000e+00
 0.000000e+00 5.961291e-01 4.038709e-01 0.000000e+00 0.000000e+00
 0.000000e+00 0.000000e+00 8.137342e-01 1.862658e-01 0.000000e+00
 0.000000e+00 0.000000e+00 0.000000e+00 8.654891e-01 1.345109e-01
 0.000000e+00 0.000000e+00 0.000000e+00 0.000000e+00 0.000000e+00
<ENDHMM>
~h "h"
<BEGINHMM>
<NUMSTATES> 5
<STATE> 2
<MEAN> 39
 -1.633219e+01 -5.782418e+00 5.494096e+00 6.460568e-01 7.690485e-01 -9.897164e+00 -9.418655e+00 -2.868394e+00 -6.178189e+00 -2.331971e+00 -4.776696e+00 -4.948061e+00 8.073038e+01 5.901835e-04 -2.905328e-01 -1.019003e-01 -7.393818e-03 -4.101260e-01 -2.684052e-01 -4.666653e-02 1.987805e-01 3.952745e-01 2.104071e-01 -2.512419e-01 2.287034e-01 -4.945634e-01 2.319511e-01 2.871210e-01 -6.204801e-02 9.167006e-02 1.089641e-01 -5.503684e-02 -5.405545e-03 1.072009e-02 -1.969533e-01 -7.628696e-02 4.718296e-03 -1.259510e-01 -5.197776e-02
<VARIANCE> 39
 1.795007e+01 3.704079e+01 3.905146e+01 4.964565e+01 2.897088e+01 5.659011e+01 3.600044e+01 4.290073e+01 3.224958e+01 3.411515e+01 2.543428e+01 1.999362e+01 3.293128e+01 1.087635e+00 1.742408e+00 1.936834e+00 2.156437e+00 2.000002e+00 2.225726e+00 1.743290e+00 1.509696e+00 2.069478e+00 1.879385e+00 1.528159e+00 1.606315e+00 6.044930e-01 2.101237e-01 2.493384e-01 2.078778e-01 3.085093e-01 3.280586e-01 4.060074e-01 3.095400e-01 3.103575e-01 4.279619e-01 3.937307e-01 2.851346e-01 2.830911e-01 8.222362e-02
<GCONST> 1.066526e+02
<STATE> 3
<MEAN> 39
 -1.333529e+01 -3.967360e+00 2.749125e+00 6.406924e-01 -1.170015e+00 -5.979195e+00 -9.481661e+00 -4.544853e+00 -4.789626e+00 -2.694347e+00 -5.115025e+00 -4.919639e+00 7.459856e+01 1.069390e-01 7.805189e-01 -3.203592e-01 4.293817e-01 -1.339013e-01 2.551623e-01 2.850253e-01 4.374036e-02 -2.672941e-01 -3.887248e-01 -8.533277e-02 -2.239291e-02 -8.783985e-01 -1.626079e-02 2.145406e-01 4.800944e-02 2.111614e-03 2.054830e-01 2.416968e-03 -4.928444e-03 8.615095e-03 -2.319301e-01 -9.344770e-02 6.742782e-02 -1.077081e-01 5.334568e-02
<VARIANCE> 39
 1.142255e+01 4.189170e+01 2.528813e+01 4.465852e+01 2.764309e+01 5.814874e+01 3.343430e+01 3.492815e+01 3.178849e+01 2.502183e+01 2.025670e+01 2.069187e+01 4.131077e+01 5.592979e-01 1.182112e+00 1.361024e+00 1.376516e+00 1.317813e+00 1.389988e+00 1.810869e+00 1.306233e+00 1.437082e+00 1.266005e+00 1.327994e+00 1.145585e+00 2.808145e-01 1.494007e-01 2.023904e-01 2.135230e-01 2.629285e-01 2.547963e-01 2.555540e-01 2.891192e-01 2.226604e-01 2.745942e-01 2.503968e-01 2.454979e-01 2.585846e-01 4.560765e-02
<GCONST> 9.681392e+01
<STATE> 4
<MEAN> 39
 -1.485966e+01 4.680327e+00 -2.512402e-01 -1.663092e+00 -1.646212e+00 -2.660576e+00 -5.881214e+00 -3.441308e+00 -8.271585e+00 -6.218728e+00 -5.317796e+00 -6.108642e+00 6.640619e+01 -1.814484e-01 1.804533e-01 -3.238920e-02 -5.513541e-02 2.539562e-02 8.423367e-02 2.331662e-02 7.939252e-02 -5.840585e-02 2.847320e-02 1.013599e-01 -2.362620e-02 -2.708559e-01 2.500281e-02 -1.843540e-02 3.626482e-02 -1.360037e-02 3.485610e-02 -4.500715e-03 -2.800869e-02 -1.191498e-02 3.996247e-03 1.183164e-02 1.974441e-02 -2.531455e-03 6.853473e-02
<VARIANCE> 39
 8.457232e+00 2.704849e+01 1.901308e+01 2.488585e+01 1.898091e+01 2.136772e+01 1.872622e+01 1.398038e+01 1.926535e+01 1.873877e+01 1.259298e+01 1.083150e+01 2.554851e+01 3.850559e-01 9.089994e-01 1.045019e+00 1.122233e+00 1.054646e+00 9.727441e-01 1.194534e+00 1.226183e+00 1.268758e+00 9.565387e-01 9.849859e-01 8.694342e-01 2.749104e-01 7.851198e-02 1.395782e-01 1.807183e-01 1.995683e-01 2.188665e-01 1.790693e-01 2.461033e-01 2.384381e-01 2.571987e-01 1.787142e-01 1.911667e-01 1.705048e-01 4.879572e-02
<GCONST> 8.371677e+01
<TRANSP> 5
 0.000000e+00 1.000000e+00 0.000000e+00 0.000000e+00 0.000000e+00
 0.000000e+00 7.322320e-01 2.677679e-01 0.000000e+00 0.000000e+00
 0.000000e+00 0.000000e+00 6.440487e-01 3.559513e-01 0.000000e+00
 0.000000e+00 0.000000e+00 0.000000e+00 8.822946e-01 1.177054e-01
 0.000000e+00 0.000000e+00 0.000000e+00 0.000000e+00 0.000000e+00
<ENDHMM>
~h "i"
<BEGINHMM>
<NUMSTATES> 5
<STATE> 2
<MEAN> 39
 -1.077645e+01 -3.766614e-01 8.436583e+00 6.495989e+00 8.299840e+00 -1.518111e+01 -1.580432e+01 -2.769193e+00 -1.315417e+01 -7.209103e+00 -3.178815e+00 -9.394593e+00 8.077193e+01 1.995161e-01 2.335645e-01 1.333700e-01 1.252344e-01 2.013100e-01 -2.271431e-02 -3.191039e-01 -1.150919e-01 1.253740e-01 1.806215e-01 -1.020684e-01 -2.196451e-01 1.010059e-02 1.463835e-02 5.032517e-02 -2.488049e-01 -2.662314e-01 -2.090461e-01 2.241125e-01 1.369448e-01 -4.201389e-02 1.282586e-01 7.730429e-02 1.846078e-02 1.431175e-01 -1.539702e-01
<VARIANCE> 39
 1.911650e+01 3.031406e+01 5.448090e+01 3.879890e+01 4.401207e+01 7.470957e+01 5.893245e+01 5.105157e+01 6.070453e+01 4.163965e+01 3.554302e+01 3.553482e+01 9.124203e+01 1.735881e+00 2.865943e+00 4.523042e+00 3.835785e+00 4.140755e+00 7.303510e+00 5.367891e+00 3.144634e+00 6.230181e+00 3.314491e+00 2.935646e+00 3.034282e+00 4.084480e+00 3.033915e-01 4.704897e-01 6.871508e-01 6.001967e-01 6.651679e-01 1.155572e+00 9.623162e-01 5.942799e-01 1.058906e+00 6.832380e-01 5.352345e-01 5.627308e-01 4.879573e-01
<GCONST> 1.327124e+02
<STATE> 3
<MEAN> 39
 -8.505051e+00 2.301992e+00 3.076734e+00 1.508603e+00 4.677149e+00 -1.149874e+01 -1.432678e+01 -4.593827e+00 -8.637103e+00 -5.502864e+00 -4.428645e+00 -7.821624e+00 8.091109e+01 3.151046e-01 1.360791e-01 -1.304402e+00 -1.256097e+00 -1.308904e+00 6.759257e-01 7.442573e-01 1.636992e-02 3.604801e-01 1.559066e-01 2.099316e-01 9.516207e-01 -5.110679e-01 -7.510596e-02 -1.994055e-01 -1.110216e-02 5.644125e-02 -9.849095e-02 -2.281229e-01 1.522313e-01 9.384979e-02 -2.652870e-01 -7.773137e-02 1.714302e-01 7.827912e-02 1.159986e-01
<VARIANCE> 39
 2.375390e+01 2.461893e+01 3.557869e+01 2.887294e+01 4.164261e+01 5.536693e+01 6.169050e+01 5.816524e+01 7.468336e+01 4.298857e+01 4.105109e+01 3.249750e+01 9.182483e+01 1.139157e+00 1.520307e+00 1.916217e+00 1.979102e+00 2.387745e+00 6.002812e+00 2.576181e+00 3.467534e+00 2.990783e+00 2.642609e+00 2.577747e+00 2.502069e+00 2.022207e+00 1.678910e-01 2.420245e-01 3.948893e-01 3.841553e-01 3.858106e-01 7.776432e-01 5.646168e-01 4.806521e-01 5.761869e-01 4.196242e-01 4.053192e-01 4.707393e-01 2.538570e-01
<GCONST> 1.200274e+02
<STATE> 4
<MEAN> 39
 -8.614197e+00 3.623307e+00 -3.048780e-01 6.476378e-01 3.867842e+00 -7.721347e+00 -1.134247e+01 -6.108701e+00 -9.208869e+00 -4.113782e+00 -2.953288e+00 -4.486136e+00 7.618951e+01 -1.617959e-01 -2.708038e-01 -7.782171e-01 -7.041949e-01 -8.855387e-01 3.493016e-01 7.430639e-01 1.647875e-01 -1.330476e-01 5.218863e-02 4.294673e-01 4.271632e-01 -1.752724e-01 -1.116828e-01 -1.415477e-01 1.181833e-01 -8.685327e-02 9.515788e-04 -1.288882e-01 4.406722e-02 6.780067e-02 -1.545177e-02 3.642845e-02 5.170186e-02 -1.044237e-01 2.780472e-01
<VARIANCE> 39
 2.033993e+01 2.310464e+01 3.207444e+01 2.697065e+01 3.904842e+01 3.401234e+01 4.952674e+01 3.557615e+01 3.840730e+01 3.554136e+01 4.305606e+01 2.040420e+01 1.021318e+02 7.057983e-01 1.313172e+00 1.288976e+00 2.340443e+00 2.289265e+00 2.104052e+00 2.198944e+00 1.919350e+00 1.890453e+00 1.636108e+00 2.353500e+00 1.524556e+00 1.248438e+00 1.102503e-01 2.340176e-01 2.552787e-01 4.486408e-01 3.895544e-01 5.042332e-01 3.886874e-01 3.626969e-01 3.851356e-01 3.340747e-01 3.629385e-01 3.104286e-01 3.266123e-01
<GCONST> 1.097869e+02
<TRANSP> 5
 0.000000e+00 1.000000e+00 0.000000e+00 0.000000e+00 0.000000e+00
 0.000000e+00 8.793252e-01 1.206749e-01 0.000000e+00 0.000000e+00
 0.000000e+00 0.000000e+00 5.757474e-01 4.242526e-01 0.000000e+00
 0.000000e+00 0.000000e+00 0.000000e+00 6.664115e-01 3.335886e-01
 0.000000e+00 0.000000e+00 0.000000e+00 0.000000e+00 0.000000e+00
<ENDHMM>
~h "j"
<BEGINHMM>
<NUMSTATES> 5
<STATE> 2
<MEAN> 39
 -1.347584e+01 -2.379048e-01 8.192405e+00 3.164727e+00 7.920926e+00 -7.705666e+00 -1.360662e+01 -1.325234e+00 -8.675630e+00 -7.585209e+00 -1.975877e+00 -6.283394e+00 8.082952e+01 -1.229215e-01 -2.599572e-01 5.466715e-01 2.070836e-01 4.072360e-01 2.446779e-01 -5.350420e-01 -3.320593e-01 3.847921e-01 -9.072118e-02 -6.832317e-02 3.981512e-03 5.848070e-01 2.213669e-01 1.002061e-01 -1.568752e-01 -2.924396e-02 -1.199314e-02 3.741454e-02 2.190615e-02 -1.425772e-01 -1.929279e-01 -8.071572e-02 7.077308e-03 1.348239e-02 -7.032500e-02
<VARIANCE> 39
 6.130863e+01 4.144092e+01 5.211899e+01 3.642349e+01 4.657997e+01 4.455423e+01 5.779779e+01 3.924740e+01 7.739274e+01 6.194249e+01 2.817640e+01 3.644221e+01 8.399924e+01 8.959245e+00 5.770992e+00 4.496408e+00 3.729577e+00 4.243083e+00 4.349004e+00 6.428337e+00 5.630309e+00 6.730024e+00 5.456591e+00 3.156036e+00 3.638369e+00 6.866376e+00 1.796288e+00 1.268882e+00 1.036507e+00 6.908104e-01 7.346345e-01 8.640653e-01 1.299206e+00 8.578727e-01 1.233019e+00 1.091531e+00 6.709485e-01 6.913416e-01 1.312004e+00
<GCONST> 1.434553e+02
<STATE> 3
<MEAN> 39
 -8.602017e+00 -1.662216e+00 7.920897e+00 2.799496e+00 1.078305e+01 -3.265082e+00 -1.928815e+01 -1.217539e+01 -1.162422e+01 -1.014627e+01 -1.259271e+00 -6.565773e+00 8.616090e+01 1.861545e+00 1.098517e+00 -1.624856e+00 -9.358775e-01 -7.265628e-01 -7.806736e-02 1.699094e+00 -1.560816e-01 -1.975751e+00 -1.214466e+00 -5.979633e-02 6.214891e-01 -6.464833e-01 -6.511511e-01 4.313210e-02 3.729013e-01 -3.263307e-01 -3.878905e-01 -1.811422e-01 4.864476e-01 7.495273e-01 4.455693e-01 7.880922e-02 -4.119980e-01 -4.145849e-03 -1.595818e-02
<VARIANCE> 39
 2.229711e+01 2.014935e+01 2.283295e+01 1.278325e+01 3.086850e+01 2.834420e+01 4.049647e+01 3.632713e+01 4.952131e+01 1.045041e+02 2.224711e+01 3.454964e+01 3.259620e+01 2.745240e+00 5.444016e-01 1.408968e+00 1.342176e+00 1.299325e+00 1.452115e+00 2.122526e+00 3.204936e+00 3.415074e+00 2.357277e+00 2.257318e+00 1.908493e+00 3.062206e-01 4.598210e-01 1.076905e-01 2.603653e-01 2.530944e-01 2.283193e-01 2.558627e-01 4.380238e-01 4.806105e-01 5.833235e-01 6.262186e-01 3.092241e-01 2.882991e-01 8.963278e-02
<GCONST> 1.062035e+02
<STATE> 4
<MEAN> 39
 -5.084883e+00 4.069936e+00 3.524225e+00 -3.254091e+00 4.482548e+00 -5.550444e+00 -7.614186e+00 -6.100808e+00 -1.519974e+01 -1.597430e+01 -6.987642e+00 -5.356362e+00 8.113860e+01 -2.548467e-01 8.302070e-01 7.593712e-02 -1.034285e+00 -1.233680e+00 -1.331735e-01 1.748089e+00 9.175751e-01 4.076399e-01 4.926610e-01 -6.236086e-01 -4.206979e-01 -6.539921e-01 -2.803450e-01 -2.021409e-01 1.153256e-01 1.904227e-01 1.177595e-01 2.112889e-01 -1.925613e-01 -1.195389e-01 2.436542e-01 2.926344e-01 1.728897e-01 -1.697003e-01 -6.423175e-03
<VARIANCE> 39
 1.259227e+01 2.573393e+01 1.872838e+01 1.623707e+01 2.924286e+01 3.810456e+01 6.387573e+01 3.518634e+01 2.821528e+01 9.645625e+01 4.664772e+01 4.076313e+01 2.691012e+01 8.238342e-01 7.873549e-01 5.656000e-01 1.087788e+00 1.180970e+00 1.999132e+00 1.951608e+00 1.268531e+00 1.506244e+00 3.004890e+00 1.511070e+00 1.800711e+00 3.760793e-01 9.906857e-02 2.102623e-01 1.311573e-01 1.550631e-01 1.718574e-01 2.418798e-01 3.463628e-01 2.046066e-01 2.673732e-01 4.914857e-01 2.775833e-01 1.746332e-01 3.949315e-02
<GCONST> 9.715903e+01
<TRANSP> 5
 0.000000e+00 1.000000e+00 0.000000e+00 0.000000e+00 0.000000e+00
 0.000000e+00 9.443207e-01 5.567934e-02 0.000000e+00 0.000000e+00
 0.000000e+00 0.000000e+00 7.772037e-01 2.227962e-01 0.000000e+00
 0.000000e+00 0.000000e+00 0.000000e+00 7.858803e-01 2.141197e-01
 0.000000e+00 0.000000e+00 0.000000e+00 0.000000e+00 0.000000e+00
<ENDHMM>
~h "k"
<BEGINHMM>
<NUMSTATES> 5
<STATE> 2
<MEAN> 39
 -9.079282e+00 -1.516258e+00 -2.867762e+00 -5.763444e+00 8.622866e-01 -1.250721e+01 -1.076786e+01 -6.269537e+00 -1.530674e+01 -3.186934e+00 1.065886e+00 -6.150945e+00 8.248978e+01 -2.888818e-01 5.535123e-01 9.269648e-01 2.240832e-01 5.129099e-01 9.347920e-01 1.255105e-01 -1.888348e-01 2.235578e-01 -1.919587e-01 -3.858106e-01 2.857276e-02 -9.314646e-01 -1.020205e-02 -1.032296e-02 -9.457596e-02 -1.241521e-01 -3.602469e-01 2.841421e-01 2.058727e-01 2.541222e-01 3.006372e-01 1.757563e-01 -1.871657e-02 2.530645e-01 -2.838733e-01
<VARIANCE> 39
 3.797255e+01 3.018068e+01 3.193707e+01 4.103155e+01 3.595427e+01 7.593414e+01 6.998558e+01 3.398082e+01 1.157359e+02 3.443365e+01 3.428861e+01 2.307655e+01 9.735871e+01 3.570318e+00 2.945314e+00 3.515061e+00 5.138515e+00 4.107634e+00 5.984939e+00 3.682796e+00 3.029303e+00 6.731581e+00 2.615309e+00 2.313966e+00 2.198338e+00 5.631917e+00 6.491677e-01 5.420414e-01 7.123325e-01 9.170898e-01 8.870957e-01 1.085840e+00 8.134457e-01 6.090734e-01 1.136594e+00 5.439678e-01 5.122769e-01 4.218414e-01 8.166811e-01
<GCONST> 1.337867e+02
<STATE> 3
<MEAN> 39
 -1.202171e+01 3.972409e-01 -4.793451e+00 -5.304542e+00 -1.121495e+00 -6.765542e+00 -1.304020e+01 -5.615720e+00 -1.068808e+01 -1.829897e+00 1.437383e+00 -2.928752e+00 6.934206e+01 -5.440192e-01 -6.940998e-03 -3.266631e-01 -3.539963e-01 -7.132643e-01 5.979384e-01 2.887909e-01 2.141714e-01 5.047998e-01 3.860241e-01 -3.154967e-02 5.101931e-01 -1.244664e+00 -6.926863e-02 -1.986057e-01 -1.890315e-01 -1.152852e-01 -9.557600e-02 -3.274375e-01 -9.077537e-02 -2.929314e-02 -1.017822e-01 -1.685756e-02 4.362830e-02 -6.665915e-02 3.897060e-01
<VARIANCE> 39
 3.073071e+01 2.331840e+01 3.315474e+01 3.062660e+01 4.434425e+01 4.060146e+01 3.033280e+01 2.530352e+01 5.383626e+01 2.719307e+01 2.159592e+01 1.988763e+01 2.434589e+02 2.339787e+00 2.566941e+00 3.221169e+00 2.496063e+00 4.612141e+00 5.052299e+00 3.513518e+00 2.721094e+00 3.925543e+00 2.707479e+00 2.740360e+00 2.157437e+00 6.231911e+00 4.765123e-01 5.379821e-01 7.524616e-01 4.846967e-01 1.000903e+00 9.550879e-01 7.170405e-01 5.388295e-01 7.225064e-01 6.026665e-01 6.026112e-01 4.644109e-01 9.778544e-01
<GCONST> 1.279207e+02
<STATE> 4
<MEAN> 39
 -1.288076e+01 -8.401558e-01 -4.435943e+00 -7.887687e+00 -1.419944e+00 -9.577880e+00 -1.264023e+01 -7.218417e+00 -1.101052e+01 -1.476078e+00 2.102004e+00 -3.161074e+00 7.838432e+01 -4.787853e-01 5.449951e-03 1.619400e-01 -2.813833e-01 1.335441e-01 -1.876197e-02 1.613543e-01 -5.514971e-02 -2.491478e-02 -1.210227e-01 -2.440335e-01 -1.894597e-01 5.109546e-01 1.291003e-02 2.207898e-02 1.449623e-01 5.813790e-02 1.502926e-01 -5.790520e-03 3.461283e-02 1.509900e-02 -4.166125e-02 -6.910000e-02 -6.538168e-02 -7.482196e-02 2.041021e-01
<VARIANCE> 39
 4.254368e+01 1.537717e+01 2.782716e+01 2.890742e+01 3.265605e+01 4.019405e+01 2.783712e+01 3.091462e+01 3.148161e+01 3.258903e+01 1.856004e+01 2.018150e+01 1.296410e+02 4.519414e+00 1.532799e+00 2.615054e+00 3.059021e+00 2.843691e+00 3.022019e+00 2.664682e+00 2.247664e+00 2.212112e+00 2.126161e+00 1.965601e+00 1.864076e+00 3.836064e+00 9.369844e-01 2.980103e-01 4.867537e-01 6.185041e-01 5.362299e-01 6.298548e-01 5.253341e-01 4.408412e-01 4.356790e-01 4.664518e-01 4.074107e-01 3.537776e-01 6.986110e-01
<GCONST> 1.197456e+02
<TRANSP> 5
 0.000000e+00 1.000000e+00 0.000000e+00 0.000000e+00 0.000000e+00
 0.000000e+00 6.945353e-01 3.054648e-01 0.000000e+00 0.000000e+00
 0.000000e+00 0.000000e+00 8.037634e-01 1.962366e-01 0.000000e+00
 0.000000e+00 0.000000e+00 0.000000e+00 8.748167e-01 1.251833e-01
 0.000000e+00 0.000000e+00 0.000000e+00 0.000000e+00 0.000000e+00
<ENDHMM>
~h "l"
<BEGINHMM>
<NUMSTATES> 5
<STATE> 2
<MEAN> 39
 -1.665223e+01 3.241572e+00 -2.418662e+00 -5.416516e+00 -3.190098e+00 -3.509901e+00 -6.907932e+00 -3.219984e+00 -8.073171e+00 -4.604929e+00 -2.919456e+00 -4.479232e+00 6.847336e+01 -9.176497e-02 -1.074637e-01 7.670514e-02 4.035681e-03 -8.278287e-02 7.145226e-03 -6.144966e-03 -9.321988e-02 -2.545651e-02 7.428339e-02 3.141959e-02 -4.786477e-02 -2.237089e-02 -8.469322e-02 -1.146052e-01 1.295146e-01 -7.941547e-02 7.798208e-03 -4.962158e-02 1.357691e-02 -2.864029e-02 -1.068111e-02 3.369492e-02 5.062372e-03 1.237531e-03 1.389512e-01
<VARIANCE> 39
 1.869610e+01 1.691521e+01 1.581920e+01 1.559744e+01 1.640615e+01 1.915473e+01 1.804761e+01 1.689561e+01 1.908838e+01 2.073888e+01 1.516123e+01 1.282390e+01 1.239410e+02 6.935569e-01 8.058779e-01 1.054670e+00 1.220895e+00 1.314312e+00 1.250082e+00 1.595880e+00 1.438554e+00 1.425222e+00 1.353137e+00 1.176935e+00 1.039880e+00 5.083929e-01 1.462318e-01 1.768027e-01 2.300849e-01 2.522246e-01 2.673664e-01 2.770517e-01 3.114437e-01 2.828067e-01 2.906680e-01 2.784386e-01 2.457937e-01 2.117997e-01 1.125060e-01
<GCONST> 9.247573e+01
<STATE> 3
<MEAN> 39
 -1.636312e+01 1.875304e+00 -1.385368e+00 -4.746944e+00 -2.464759e+00 -3.768501e+00 -7.255245e+00 -3.675986e+00 -8.707925e+00 -4.009646e+00 -2.934974e+00 -4.792388e+00 6.912310e+01 -3.852604e-01 -8.773735e-01 8.221567e-01 -6.693648e-01 -3.281465e-01 -2.098897e-01 9.683243e-02 -3.181456e-01 -9.929301e-02 4.487229e-01 2.035290e-01 6.343836e-02 7.989792e-01 -2.781716e-01 -2.972519e-01 4.154695e-01 -2.390700e-01 -9.173022e-03 -1.198203e-01 2.976028e-03 4.896852e-03 -2.249893e-03 6.354441e-02 4.394145e-02 3.927342e-02 4.406535e-01
<VARIANCE> 39
 3.660062e+01 1.954557e+01 2.015491e+01 1.966195e+01 2.335492e+01 2.621130e+01 2.229218e+01 2.341039e+01 2.669360e+01 3.119619e+01 1.570444e+01 1.500753e+01 1.386380e+02 1.653755e+00 1.880069e+00 2.427759e+00 2.411834e+00 2.252000e+00 2.095234e+00 2.435671e+00 2.553562e+00 2.126359e+00 2.006916e+00 1.558246e+00 1.374530e+00 1.386923e+00 4.104942e-01 3.653830e-01 4.903290e-01 4.364311e-01 4.200923e-01 4.197563e-01 4.056025e-01 4.616700e-01 4.544448e-01 3.703270e-01 2.843194e-01 2.827345e-01 3.236879e-01
<GCONST> 1.105658e+02
<STATE> 4
<MEAN> 39
 -1.727957e+01 9.589623e-01 3.387619e-01 -6.244514e+00 -3.489778e+00 -4.668142e+00 -6.827960e+00 -4.120798e+00 -9.246612e+00 -3.869120e+00 -3.399857e+00 -4.993700e+00 7.019464e+01 -2.393911e-01 -9.422405e-01 8.974723e-01 -6.980253e-01 -2.836863e-01 -3.883688e-01 -2.790391e-03 -2.322050e-01 -2.376370e-01 3.295344e-01 2.687186e-01 4.897184e-02 1.291010e+00 -1.648684e-01 -9.952708e-02 1.352290e-01 -7.285865e-02 9.989241e-02 1.391118e-02 -1.672747e-03 1.088740e-01 3.023493e-02 -1.669610e-02 8.951443e-02 4.567645e-02 2.081249e-01
<VARIANCE> 39
 4.786316e+01 3.089249e+01 2.714528e+01 3.046507e+01 3.473588e+01 3.463813e+01 3.567844e+01 3.628518e+01 3.248967e+01 3.939318e+01 2.384632e+01 2.252518e+01 1.219425e+02 3.597385e+00 3.575438e+00 5.025097e+00 3.722770e+00 2.928729e+00 3.340977e+00 3.330338e+00 3.675219e+00 3.347311e+00 2.880437e+00 2.286191e+00 2.187740e+00 3.447195e+00 6.665573e-01 6.029242e-01 7.642602e-01 6.160555e-01 5.881752e-01 6.166580e-01 6.217934e-01 5.829489e-01 5.576483e-01 4.739872e-01 4.240804e-01 4.154477e-01 5.915384e-01
<GCONST> 1.262933e+02
<TRANSP> 5
 0.000000e+00 1.000000e+00 0.000000e+00 0.000000e+00 0.000000e+00
 0.000000e+00 7.827123e-01 2.172877e-01 0.000000e+00 0.000000e+00
 0.000000e+00 0.000000e+00 2.462880e-01 7.537120e-01 0.000000e+00
 0.000000e+00 0.000000e+00 0.000000e+00 5.171722e-01 4.828278e-01
 0.000000e+00 0.000000e+00 0.000000e+00 0.000000e+00 0.000000e+00
<ENDHMM>
~h "m"
<BEGINHMM>
<NUMSTATES> 5
<STATE> 2
<MEAN> 39
 -4.161813e+00 1.284165e+00 -4.294903e+00 -5.626605e+00 -2.733706e+00 -1.101887e+01 -3.192778e+00 2.894320e+00 -1.127547e+01 -6.935610e+00 -1.801904e+00 -6.362990e+00 8.202136e+01 -1.145672e-01 2.311411e-01 1.450710e-01 1.138057e-01 3.068940e-01 6.115448e-01 3.134544e-01 -1.906478e-01 9.105341e-02 1.042757e-01 -6.091101e-02 -7.705568e-02 -4.900581e-01 -8.814149e-02 -3.130313e-02 4.259855e-02 2.752449e-02 5.541647e-02 1.026374e-01 -8.510612e-05 -8.496450e-02 1.145979e-02 3.847289e-02 9.298120e-03 -8.244775e-04 -5.444660e-02
<VARIANCE> 39
 1.366795e+01 2.217420e+01 5.146082e+01 3.946745e+01 5.849932e+01 5.846393e+01 8.276625e+01 6.464613e+01 7.168914e+01 4.037997e+01 3.841783e+01 3.510166e+01 6.515376e+01 3.628617e-01 1.241979e+00 2.767824e+00 2.286356e+00 3.323476e+00 2.856662e+00 2.598435e+00 2.377905e+00 1.968534e+00 1.469336e+00 2.574324e+00 2.228834e+00 1.105353e+00 5.334503e-02 1.647765e-01 3.085398e-01 3.218247e-01 5.202646e-01 4.426953e-01 4.286085e-01 3.904738e-01 3.175248e-01 2.788703e-01 3.535110e-01 3.456378e-01 1.247948e-01
<GCONST> 1.122060e+02
<STATE> 3
<MEAN> 39
 -6.575324e+00 1.820919e+00 -3.464021e+00 -5.985307e+00 8.955801e-01 -6.449960e+00 -3.314483e+00 -1.439141e+00 -1.115287e+01 -4.203621e+00 -2.189354e+00 -5.840654e+00 8.185054e+01 -2.343787e-01 1.571436e-01 2.030740e-01 1.383211e-01 2.162317e-01 6.276228e-01 6.891300e-02 -2.085159e-01 2.043054e-01 1.561719e-01 3.288679e-02 1.560667e-01 -6.885964e-01 -2.283210e-02 5.311763e-02 -1.336088e-02 -4.224999e-02 -1.491908e-01 -5.090146e-02 -3.229991e-02 2.166605e-02 4.953165e-02 -2.086641e-02 2.990181e-02 7.209718e-02 -3.863421e-02
<VARIANCE> 39
 8.440493e+00 2.623321e+01 4.050361e+01 2.573861e+01 5.534538e+01 3.770204e+01 9.364974e+01 3.914187e+01 4.367530e+01 3.490750e+01 5.155674e+01 3.388340e+01 1.085580e+02 2.977140e-01 7.732065e-01 9.524075e-01 9.839058e-01 1.524044e+00 1.307262e+00 1.160643e+00 1.085886e+00 1.356648e+00 1.071802e+00 1.496809e+00 1.338009e+00 4.038697e-01 3.242232e-02 1.285978e-01 1.690741e-01 2.002838e-01 2.883680e-01 2.244117e-01 2.365407e-01 1.910497e-01 2.121581e-01 2.419273e-01 2.576823e-01 2.358503e-01 5.871944e-02
<GCONST> 9.560300e+01
<STATE> 4
<MEAN> 39
 -1.155181e+01 4.475523e+00 -2.970386e+00 -4.431578e+00 -1.006308e+00 -1.383638e+00 -1.701991e+00 -2.060665e+00 -8.292739e+00 -5.171322e+00 -2.218524e+00 -3.971456e+00 7.314706e+01 -3.090866e-01 2.708147e-02 -2.199747e-04 -1.764829e-02 -1.034101e-01 1.513043e-01 -1.634163e-01 -7.621329e-02 9.337808e-02 7.629819e-02 6.018741e-02 4.092382e-02 -4.552185e-01 -2.102496e-03 -2.458270e-02 -1.015426e-02 -8.708520e-04 -1.372614e-02 -5.474188e-02 -4.227635e-03 6.618414e-03 -2.023651e-02 -5.065803e-04 -1.316577e-02 -9.962026e-03 3.192665e-02
<VARIANCE> 39
 1.491113e+01 1.718274e+01 1.966028e+01 1.716691e+01 4.045826e+01 2.482178e+01 4.770735e+01 2.133776e+01 2.360661e+01 1.712550e+01 2.376176e+01 1.583520e+01 1.379082e+02 2.697216e-01 7.336216e-01 8.044943e-01 7.717310e-01 1.070860e+00 9.580835e-01 1.026222e+00 9.178903e-01 1.168705e+00 1.002341e+00 1.003976e+00 8.381550e-01 2.835733e-01 4.772806e-02 1.198047e-01 1.341919e-01 1.455138e-01 1.858474e-01 1.807901e-01 1.845468e-01 1.806428e-01 2.221585e-01 1.867805e-01 1.841191e-01 1.580653e-01 3.735653e-02
<GCONST> 8.443501e+01
<TRANSP> 5
 0.000000e+00 1.000000e+00 0.000000e+00 0.000000e+00 0.000000e+00
 0.000000e+00 8.210106e-01 1.789894e-01 0.000000e+00 0.000000e+00
 0.000000e+00 0.000000e+00 7.412900e-01 2.587100e-01 0.000000e+00
 0.000000e+00 0.000000e+00 0.000000e+00 8.996552e-01 1.003448e-01
 0.000000e+00 0.000000e+00 0.000000e+00 0.000000e+00 0.000000e+00
<ENDHMM>
~h "n"
<BEGINHMM>
<NUMSTATES> 5
<STATE> 2
<MEAN> 39
 -4.977684e+00 1.841215e+00 -5.481054e-01 -4.875629e+00 9.206687e-02 -1.077955e+01 -1.174882e+01 -2.136913e+00 -8.018302e+00 -4.735300e+00 -2.314134e+00 -5.969985e+00 8.554440e+01 1.290686e-01 2.037096e-01 1.105195e-02 1.162301e-02 3.611159e-02 9.870195e-02 1.487076e-02 2.037083e-01 2.216078e-01 -1.429419e-01 -6.559539e-02 2.586867e-02 -1.812430e-01 -5.879118e-02 -2.195112e-02 -4.641889e-02 -5.777039e-02 -1.223001e-01 5.402337e-02 1.548859e-01 -2.174510e-02 -1.525143e-03 1.862204e-02 1.280775e-02 2.802282e-02 -1.586874e-02
<VARIANCE> 39
 1.267169e+01 2.337822e+01 2.680262e+01 3.163749e+01 5.475749e+01 6.001728e+01 6.439528e+01 8.547900e+01 5.707142e+01 5.613919e+01 5.541213e+01 3.085071e+01 7.174822e+01 5.854365e-01 1.148364e+00 1.755315e+00 2.217515e+00 2.345919e+00 2.976486e+00 3.067495e+00 2.596658e+00 2.149641e+00 1.362110e+00 3.595028e+00 2.412851e+00 1.803728e+00 7.171395e-02 1.580878e-01 2.381495e-01 2.882325e-01 2.738281e-01 4.331038e-01 4.279577e-01 4.281955e-01 3.565980e-01 2.449999e-01 6.226703e-01 4.258567e-01 1.326923e-01
<GCONST> 1.126442e+02
<STATE> 3
<MEAN> 39
 -5.777113e+00 5.376417e+00 2.792926e-01 -2.107327e+00 2.121133e+00 -8.798122e+00 -9.167500e+00 -1.933324e+00 -8.134045e+00 -5.246279e+00 -3.467961e+00 -5.572414e+00 7.942101e+01 -3.694173e-01 1.074535e-01 1.646287e-02 5.287715e-02 -1.946128e-01 4.553781e-01 5.017642e-01 3.736267e-02 1.790874e-01 9.610662e-02 8.128452e-02 1.979530e-01 -6.158578e-01 -4.775413e-02 -5.395001e-02 -6.157618e-02 -3.625564e-02 -4.886990e-02 4.425768e-03 -5.203203e-02 -1.919165e-02 1.278707e-02 3.805430e-02 2.754201e-02 9.131135e-03 -1.441072e-02
<VARIANCE> 39
 8.448643e+00 1.430734e+01 2.791253e+01 2.723484e+01 6.018645e+01 6.163769e+01 5.149171e+01 6.040539e+01 2.951654e+01 3.112526e+01 4.202369e+01 2.498809e+01 5.382957e+01 2.251459e-01 4.832779e-01 8.621190e-01 8.507070e-01 1.123608e+00 1.415127e+00 1.170438e+00 1.068451e+00 1.211052e+00 9.331080e-01 1.216661e+00 1.207113e+00 2.581783e-01 2.204802e-02 7.687415e-02 1.212253e-01 1.786485e-01 2.003302e-01 2.417417e-01 2.324368e-01 2.320920e-01 2.052643e-01 1.742095e-01 2.402001e-01 2.008419e-01 4.363701e-02
<GCONST> 8.878953e+01
<STATE> 4
<MEAN> 39
 -1.204841e+01 5.414165e+00 -1.391328e+00 -3.165277e+00 -1.912006e+00 -3.517909e+00 -6.292656e+00 -1.141585e+00 -6.882896e+00 -4.450963e+00 -2.632584e+00 -4.345376e+00 6.739066e+01 -2.811984e-01 -1.884167e-01 -1.095654e-01 -1.536995e-01 -1.925692e-01 -5.279450e-02 -8.870713e-02 -5.036899e-02 3.065711e-02 9.557791e-03 -2.102788e-02 -7.547075e-03 -1.722642e-01 3.517423e-02 2.066074e-04 2.694866e-02 5.401265e-03 2.644751e-02 -6.375583e-02 -3.954916e-02 -9.750627e-03 -2.376472e-02 -2.769371e-02 -7.213588e-03 -2.334068e-02 5.764615e-02
<VARIANCE> 39
 1.723478e+01 1.307814e+01 1.555248e+01 1.514781e+01 3.582338e+01 3.635344e+01 2.521375e+01 2.450098e+01 2.055237e+01 1.938310e+01 2.130951e+01 1.263314e+01 6.035986e+01 5.296032e-01 5.943637e-01 8.306623e-01 7.358771e-01 1.262792e+00 1.343827e+00 9.555034e-01 1.160300e+00 1.135474e+00 1.060431e+00 1.170780e+00 7.897075e-01 4.421710e-01 7.316078e-02 1.011499e-01 1.384147e-01 1.319714e-01 1.987905e-01 2.397791e-01 2.017831e-01 2.152372e-01 2.261228e-01 2.111251e-01 2.390809e-01 1.648762e-01 4.021180e-02
<GCONST> 8.553535e+01
<TRANSP> 5
 0.000000e+00 1.000000e+00 0.000000e+00 0.000000e+00 0.000000e+00
 0.000000e+00 8.399836e-01 1.600164e-01 0.000000e+00 0.000000e+00
 0.000000e+00 0.000000e+00 7.580659e-01 2.419340e-01 0.000000e+00
 0.000000e+00 0.000000e+00 0.000000e+00 8.844250e-01 1.155750e-01
 0.000000e+00 0.000000e+00 0.000000e+00 0.000000e+00 0.000000e+00
<ENDHMM>
~h "o"
<BEGINHMM>
<NUMSTATES> 5
<STATE> 2
<MEAN> 39
 -2.147987e+00 3.057219e+00 -2.822019e+00 -9.752795e+00 -1.098239e+01 -1.740831e+01 -2.922283e+00 6.213365e+00 -3.457192e+00 -4.442886e+00 -1.010147e+00 -5.023993e+00 8.097654e+01 -6.225987e-02 3.029062e-01 1.870731e-01 1.119477e-01 -1.269356e-01 3.120060e-01 -3.044829e-04 -2.824019e-01 1.271098e-01 3.797991e-01 2.295734e-02 -8.568595e-02 -6.284032e-01 -8.387664e-02 3.523811e-02 3.865429e-02 4.369704e-02 1.284517e-01 1.500531e-01 -2.518559e-02 -4.889750e-02 -2.206259e-02 2.303508e-03 -1.302004e-02 7.234969e-03 -8.514778e-02
<VARIANCE> 39
 8.287910e+00 1.003887e+01 1.903969e+01 2.413442e+01 2.648466e+01 7.616844e+01 9.521643e+01 3.750201e+01 4.124044e+01 2.965025e+01 2.909669e+01 3.123747e+01 3.385611e+01 3.456979e-01 4.473734e-01 4.536384e-01 6.122547e-01 9.727722e-01 1.862863e+00 1.154777e+00 1.262277e+00 1.197402e+00 7.066967e-01 1.116282e+00 7.818317e-01 4.034590e-01 3.446832e-02 6.804411e-02 6.700993e-02 1.229441e-01 1.453263e-01 2.076473e-01 2.077193e-01 1.806795e-01 1.767332e-01 1.156695e-01 1.623375e-01 1.274453e-01 3.537290e-02
<GCONST> 8.332726e+01
<STATE> 3
<MEAN> 39
 -6.885306e+00 7.640979e+00 2.535860e-01 -8.933828e+00 -7.834918e+00 -7.527731e+00 -3.225977e+00 2.708159e+00 -1.608046e+00 -3.352046e+00 -2.014987e+00 -4.103751e+00 7.453685e+01 -6.030462e-01 6.202908e-02 1.498581e-02 3.845133e-01 4.437400e-01 7.266870e-01 -1.961848e-01 -2.532552e-02 1.847325e-01 3.107192e-01 8.680964e-02 8.428895e-02 -8.674822e-01 -8.785342e-03 -1.442665e-01 -1.314003e-01 -1.392548e-02 -3.705796e-02 -1.134542e-01 -3.310408e-02 -2.922121e-02 -7.105716e-02 -3.529149e-02 -1.907704e-02 -1.707253e-03 8.185366e-02
<VARIANCE> 39
 3.796884e+00 8.814199e+00 1.575044e+01 3.069251e+01 2.194740e+01 2.619064e+01 6.982431e+01 1.369964e+01 2.990031e+01 3.300788e+01 1.209676e+01 1.648215e+01 9.857294e+01 2.961085e-01 5.740798e-01 7.994826e-01 7.971421e-01 1.211906e+00 1.327473e+00 1.186557e+00 5.916808e-01 1.112996e+00 1.084523e+00 8.002238e-01 7.440254e-01 2.106734e-01 3.901859e-02 8.869208e-02 1.098233e-01 1.403641e-01 2.083540e-01 2.675795e-01 1.852846e-01 1.119554e-01 2.439160e-01 1.793878e-01 1.552592e-01 1.288893e-01 3.092490e-02
<GCONST> 8.026021e+01
<STATE> 4
<MEAN> 39
 -1.279811e+01 6.370921e+00 -1.875367e+00 -4.657043e+00 -6.853785e+00 -5.894603e+00 -6.728655e+00 6.616716e-01 -2.378196e+00 1.075091e-01 -4.989654e-01 -3.353681e+00 6.373940e+01 -4.098532e-01 -1.520175e-01 -6.220337e-02 7.547985e-02 1.035080e-01 2.145804e-01 -1.370881e-01 -2.588149e-01 -2.422440e-01 -9.945483e-02 1.875410e-02 1.423561e-02 -2.723525e-01 3.063780e-02 1.091464e-02 4.719226e-02 -9.035472e-03 -2.442112e-03 -2.917551e-02 2.564833e-02 7.874819e-03 -2.873802e-02 -7.178484e-03 -1.000053e-02 -1.329245e-02 3.971285e-02
<VARIANCE> 39
 7.033698e+00 1.478688e+01 1.466714e+01 7.861960e+00 2.014363e+01 2.181210e+01 3.040348e+01 1.507734e+01 1.608218e+01 1.528452e+01 9.234118e+00 9.307350e+00 2.488079e+01 1.696337e-01 3.349169e-01 5.162418e-01 5.718672e-01 8.251653e-01 7.088652e-01 9.832605e-01 8.480799e-01 9.828348e-01 8.083251e-01 8.446680e-01 6.853511e-01 1.043027e-01 2.425100e-02 6.829372e-02 1.008918e-01 8.925657e-02 1.391730e-01 1.375253e-01 1.658244e-01 1.436491e-01 1.713547e-01 1.539415e-01 1.716409e-01 1.419723e-01 1.551907e-02
<GCONST> 6.828989e+01
<TRANSP> 5
 0.000000e+00 1.000000e+00 0.000000e+00 0.000000e+00 0.000000e+00
 0.000000e+00 9.276154e-01 7.238460e-02 0.000000e+00 0.000000e+00
 0.000000e+00 0.000000e+00 8.637254e-01 1.362746e-01 0.000000e+00
 0.000000e+00 0.000000e+00 0.000000e+00 8.944540e-01 1.055460e-01
 0.000000e+00 0.000000e+00 0.000000e+00 0.000000e+00 0.000000e+00
<ENDHMM>
~h "p"
<BEGINHMM>
<NUMSTATES> 5
<STATE> 2
<MEAN> 39
 -4.399219e+00 8.152583e-01 -5.358960e+00 -5.059117e+00 -7.806257e+00 -1.416464e+01 -5.290538e+00 3.081901e+00 -8.104122e+00 -3.794719e+00 -2.117638e+00 -4.793137e+00 7.926363e+01 -1.356921e-01 3.138587e-01 5.517818e-03 -5.738653e-03 -6.834347e-02 2.704690e-01 6.723936e-02 -1.084194e-01 2.336384e-01 4.865475e-02 5.085319e-02 2.543573e-01 -6.149261e-01 -7.415935e-02 -2.839800e-02 -3.465468e-02 -1.024218e-01 2.600044e-03 8.320469e-02 -6.069302e-02 -1.473480e-02 5.587496e-03 -5.297453e-02 -1.710467e-03 7.753488e-03 3.890774e-02
<VARIANCE> 39
 2.928120e+01 3.571205e+01 2.922107e+01 2.954799e+01 6.537609e+01 8.587613e+01 4.024889e+01 5.934487e+01 5.725380e+01 4.318235e+01 2.647819e+01 3.340688e+01 9.816240e+01 2.819168e+00 3.251393e+00 2.175497e+00 2.208357e+00 2.967587e+00 5.473404e+00 2.368673e+00 2.858375e+00 4.113730e+00 2.765280e+00 1.907399e+00 2.339464e+00 5.761515e+00 4.706138e-01 4.265500e-01 3.799385e-01 3.751419e-01 4.838659e-01 8.146264e-01 4.192910e-01 5.014752e-01 6.145309e-01 4.936334e-01 3.317564e-01 3.953881e-01 7.267682e-01
<GCONST> 1.255627e+02
<STATE> 3
<MEAN> 39
 -8.152232e+00 3.347118e+00 -4.702467e+00 -4.849506e+00 -1.869949e+00 -6.955428e+00 -9.315380e+00 -4.301051e+00 -9.551461e+00 -2.880577e+00 4.835129e-03 -3.763388e+00 7.355980e+01 -4.336613e-01 4.366016e-01 1.420023e-01 -9.319982e-02 -2.854833e-01 4.634910e-01 -2.000256e-01 -9.828301e-02 4.900203e-01 -3.978298e-01 -4.820960e-01 -1.687139e-02 -7.964286e-01 -2.923625e-02 -1.221571e-01 -9.084795e-03 -3.688517e-02 2.356930e-03 -9.701220e-02 3.308795e-02 9.562798e-02 2.075143e-02 -2.233354e-02 -9.479465e-02 -1.338132e-01 3.499716e-01
<VARIANCE> 39
 1.503035e+01 2.244867e+01 1.680710e+01 1.950204e+01 2.871698e+01 2.594093e+01 3.371154e+01 3.229632e+01 4.409491e+01 4.242236e+01 2.288700e+01 2.913280e+01 7.345477e+01 1.414829e+00 1.763464e+00 1.766427e+00 1.343995e+00 2.317285e+00 2.375417e+00 2.114450e+00 1.996310e+00 3.225176e+00 2.275673e+00 2.303756e+00 2.347205e+00 3.969501e+00 2.345363e-01 2.689049e-01 3.422829e-01 2.668906e-01 4.151244e-01 3.961796e-01 3.592485e-01 3.887441e-01 6.547285e-01 3.865357e-01 4.689714e-01 3.938502e-01 4.748321e-01
<GCONST> 1.124762e+02
<STATE> 4
<MEAN> 39
 -9.881603e+00 3.663426e+00 -3.861924e+00 -5.268279e+00 -4.346055e+00 -6.451313e+00 -6.114798e+00 -1.174914e+00 -5.990062e+00 -5.264257e+00 -4.009426e+00 -4.825976e+00 7.491974e+01 2.210974e-01 -4.614481e-01 -3.888751e-01 -4.391208e-01 -5.060565e-01 -3.409545e-01 1.697965e-01 2.549885e-01 7.243722e-02 -2.798223e-02 1.200672e-01 -2.104614e-01 1.124345e+00 1.676393e-01 -6.419055e-02 -2.248511e-02 2.165692e-02 7.621100e-02 -1.242685e-01 1.325248e-01 5.056532e-02 -2.292387e-01 6.704209e-02 1.225295e-01 -5.233774e-02 1.193945e-01
<VARIANCE> 39
 3.838584e+01 3.968838e+01 4.507083e+01 3.514324e+01 5.146516e+01 6.071166e+01 5.755385e+01 3.133405e+01 3.957015e+01 3.363408e+01 2.677891e+01 2.533885e+01 1.466453e+02 4.467372e+00 3.648513e+00 3.770814e+00 3.245301e+00 3.894461e+00 4.874427e+00 3.477071e+00 2.752835e+00 3.558334e+00 2.377541e+00 1.929955e+00 2.497137e+00 6.949528e+00 7.929925e-01 5.610652e-01 6.073644e-01 5.520672e-01 7.063131e-01 8.623167e-01 6.606058e-01 5.478215e-01 6.173065e-01 5.301041e-01 3.552485e-01 4.338979e-01 1.110403e+00
<GCONST> 1.304673e+02
<TRANSP> 5
 0.000000e+00 1.000000e+00 0.000000e+00 0.000000e+00 0.000000e+00
 0.000000e+00 7.683434e-01 2.316566e-01 0.000000e+00 0.000000e+00
 0.000000e+00 0.000000e+00 7.631724e-01 2.368276e-01 0.000000e+00
 0.000000e+00 0.000000e+00 0.000000e+00 8.213696e-01 1.786304e-01
 0.000000e+00 0.000000e+00 0.000000e+00 0.000000e+00 0.000000e+00
<ENDHMM>
~h "r"
<BEGINHMM>
<NUMSTATES> 5
<STATE> 2
<MEAN> 39
 -7.361030e+00 -1.642360e-01 -6.371941e+00 -4.967048e+00 -9.704468e-02 -1.007645e+01 -1.253214e+01 -6.714849e+00 -1.195742e+01 -6.136177e-01 3.276753e+00 -3.161847e+00 7.733442e+01 -2.739338e-01 3.914913e-01 6.761438e-02 1.844506e-01 1.775280e-01 3.766444e-01 1.560842e-01 -1.499701e-01 1.045744e-01 -2.307838e-01 -2.783036e-01 1.497194e-02 -7.137957e-01 -1.092901e-01 1.288545e-01 1.697944e-01 7.164668e-02 4.446208e-02 1.163667e-01 2.073662e-01 5.853010e-02 7.963872e-02 -7.774056e-02 -1.956904e-01 -1.284102e-01 1.040448e-01
<VARIANCE> 39
 1.547898e+01 2.147854e+01 1.953808e+01 2.094686e+01 3.159949e+01 3.392924e+01 3.649274e+01 3.097872e+01 3.727262e+01 4.557228e+01 2.461302e+01 2.204804e+01 9.025001e+01 1.037162e+00 1.266605e+00 1.985110e+00 1.768144e+00 1.976289e+00 2.179111e+00 1.832616e+00 1.697362e+00 2.874325e+00 2.134953e+00 2.069696e+00 1.667983e+00 1.298185e+00 2.645496e-01 2.289485e-01 3.569700e-01 3.092589e-01 3.471707e-01 4.991476e-01 3.445053e-01 3.959981e-01 5.550122e-01 4.145983e-01 3.808710e-01 3.591461e-01 3.050849e-01
<GCONST> 1.097821e+02
<STATE> 3
<MEAN> 39
 -8.728691e+00 3.267160e+00 -4.144685e+00 -4.018334e+00 9.118319e-01 -6.690500e+00 -8.200865e+00 -4.281756e+00 -1.104154e+01 -3.095354e+00 6.148822e-01 -4.108891e+00 7.608260e+01 -4.437421e-01 4.614682e-01 5.207127e-01 2.107471e-01 1.626841e-02 5.185345e-01 4.658405e-01 3.247674e-01 3.893193e-01 -3.207582e-01 -5.742161e-01 -3.024020e-01 -3.677708e-01 -6.073788e-03 -2.036577e-01 6.227473e-02 -3.530910e-02 -1.582070e-01 -2.268446e-01 -6.644915e-03 2.853853e-02 -6.167141e-02 4.143166e-02 2.257660e-03 1.071929e-02 2.373997e-01
<VARIANCE> 39
 2.746195e+01 3.074994e+01 2.462518e+01 3.206907e+01 2.802197e+01 3.761641e+01 3.495940e+01 3.508711e+01 3.516220e+01 4.026299e+01 2.584784e+01 2.231969e+01 7.574150e+01 2.436130e+00 2.443329e+00 3.054969e+00 2.802663e+00 2.617718e+00 3.632559e+00 2.492990e+00 2.434920e+00 3.701881e+00 2.674425e+00 2.430010e+00 2.291207e+00 3.639248e+00 4.781713e-01 4.030964e-01 4.985923e-01 4.568226e-01 4.689701e-01 6.881534e-01 4.323184e-01 5.222836e-01 7.635779e-01 5.212280e-01 4.498132e-01 4.782404e-01 5.144623e-01
<GCONST> 1.215211e+02
<STATE> 4
<MEAN> 39
 -1.013697e+01 3.097354e+00 7.610607e-01 -2.396194e+00 3.324391e+00 -9.626794e+00 -7.498579e+00 -4.431871e+00 -1.421481e+01 -5.740008e+00 -2.981947e+00 -7.325877e+00 8.059023e+01 -1.962494e-01 -1.211764e-01 3.404778e-01 2.512633e-01 -9.277508e-03 -1.194260e-01 -2.211086e-02 -2.228895e-02 -3.307935e-02 -9.155919e-02 -8.177170e-02 -2.512284e-02 2.485022e-03 2.647087e-02 -3.843416e-02 -7.723754e-02 2.402429e-02 -7.536581e-02 -4.711683e-02 -6.302235e-02 -3.050257e-02 2.387100e-02 5.171860e-02 7.772292e-02 7.549643e-02 -1.138791e-01
<VARIANCE> 39
 3.814186e+01 4.222108e+01 4.669540e+01 8.505168e+01 6.224566e+01 8.731199e+01 4.595815e+01 4.293568e+01 6.226852e+01 4.950203e+01 3.397459e+01 3.876173e+01 5.502067e+01 4.154244e+00 3.892381e+00 4.253031e+00 7.401192e+00 4.271011e+00 9.326343e+00 4.387109e+00 4.150393e+00 7.191345e+00 4.254771e+00 3.075988e+00 4.136230e+00 6.044787e+00 8.147383e-01 7.075222e-01 8.471279e-01 1.330684e+00 6.919323e-01 1.743254e+00 8.947074e-01 7.533674e-01 1.411731e+00 8.383805e-01 6.148265e-01 7.732559e-01 8.808370e-01
<GCONST> 1.420031e+02
<TRANSP> 5
 0.000000e+00 1.000000e+00 0.000000e+00 0.000000e+00 0.000000e+00
 0.000000e+00 7.273978e-01 2.726021e-01 0.000000e+00 0.000000e+00
 0.000000e+00 0.000000e+00 6.188881e-01 3.811119e-01 0.000000e+00
 0.000000e+00 0.000000e+00 0.000000e+00 8.421969e-01 1.578031e-01
 0.000000e+00 0.000000e+00 0.000000e+00 0.000000e+00 0.000000e+00
<ENDHMM>
~h "s"
<BEGINHMM>
<NUMSTATES> 5
<STATE> 2
<MEAN> 39
 -1.568095e+01 3.195961e+00 -1.990667e+00 -4.563939e+00 -2.700376e+00 -3.716662e+00 -7.083327e+00 -3.535964e+00 -9.028208e+00 -5.707880e+00 -3.943094e+00 -5.273868e+00 6.977216e+01 -2.160860e-01 -5.189393e-02 -5.412874e-02 -1.000860e-01 2.667207e-02 6.520700e-02 -2.292657e-02 -3.554579e-02 5.044540e-02 1.683376e-01 1.185411e-01 3.621237e-02 -7.364102e-02 -7.138969e-02 -6.180008e-03 8.164676e-02 -5.197629e-02 2.914684e-02 -3.484929e-02 -3.021915e-03 -3.611915e-02 -2.763333e-02 4.121643e-02 2.149316e-03 3.386313e-03 7.464810e-02
<VARIANCE> 39
 2.741332e+01 2.446743e+01 2.159036e+01 2.198088e+01 1.550878e+01 1.981438e+01 1.545520e+01 1.644338e+01 1.821336e+01 1.915645e+01 1.891474e+01 1.407230e+01 1.453327e+02 5.597782e-01 6.896713e-01 1.007047e+00 9.377319e-01 1.000488e+00 1.191963e+00 1.157684e+00 1.125822e+00 1.340973e+00 1.000614e+00 1.042651e+00 8.669241e-01 3.956162e-01 2.028614e-01 1.559390e-01 2.262713e-01 2.084191e-01 2.200378e-01 2.826383e-01 2.423714e-01 2.374167e-01 3.008576e-01 2.344071e-01 2.169036e-01 1.850621e-01 1.195017e-01
<GCONST> 9.059718e+01
<STATE> 3
<MEAN> 39
 -1.710526e+01 2.029308e+00 -1.796705e+00 -4.632033e+00 -2.454557e+00 -3.599530e+00 -7.800071e+00 -2.890334e+00 -8.043585e+00 -3.808591e+00 -2.232738e+00 -4.402333e+00 6.870660e+01 -7.094507e-01 -7.679006e-02 3.908907e-01 -5.012460e-01 1.975934e-01 -1.149229e-01 4.690090e-02 -1.758252e-01 -1.722844e-02 3.796811e-01 -1.438977e-02 -5.624816e-02 4.872402e-01 -1.554862e-01 -1.135281e-01 2.440032e-01 -1.171493e-01 4.581494e-03 -3.799496e-02 -6.853278e-03 -1.159966e-01 -6.797982e-02 4.276538e-02 -5.073128e-02 -2.765238e-03 2.056915e-01
<VARIANCE> 39
 3.080895e+01 1.656798e+01 1.923330e+01 2.646333e+01 1.771521e+01 1.881403e+01 1.548027e+01 1.675117e+01 1.711775e+01 1.816519e+01 1.581288e+01 1.343200e+01 1.969402e+02 1.369707e+00 1.255353e+00 1.675311e+00 1.742432e+00 1.501235e+00 1.573177e+00 1.533054e+00 1.465927e+00 1.366945e+00 1.536332e+00 1.232882e+00 1.102708e+00 7.761585e-01 3.765548e-01 1.968338e-01 3.233893e-01 3.372966e-01 2.956461e-01 2.785704e-01 3.034303e-01 2.984214e-01 3.332824e-01 2.746808e-01 2.273103e-01 2.018236e-01 1.923462e-01
<GCONST> 9.913358e+01
<STATE> 4
<MEAN> 39
 -2.261820e+01 3.244253e-01 2.715673e+00 -8.271518e+00 -1.556494e+00 -3.344451e+00 -6.942334e+00 -3.833117e+00 -7.761393e+00 -3.221128e+00 -2.654830e+00 -4.041479e+00 7.510838e+01 -1.653163e-01 -1.997748e-01 1.274782e-01 -2.279740e-01 -9.216979e-02 -6.064589e-02 9.144996e-02 -1.480352e-03 -2.412550e-02 1.766947e-01 4.416905e-03 3.378396e-02 2.418156e-01 3.272188e-01 1.788726e-04 -1.483734e-01 1.447888e-01 -1.098819e-01 -3.708512e-02 -4.782125e-02 -5.206000e-04 -5.997626e-02 -4.736366e-02 4.009285e-02 -1.260605e-02 -1.280029e-01
<VARIANCE> 39
 5.934620e+01 3.334628e+01 4.850726e+01 3.398365e+01 2.700276e+01 2.825564e+01 2.562245e+01 2.054805e+01 2.552213e+01 2.398300e+01 2.197970e+01 1.772985e+01 1.808881e+02 5.471261e+00 2.415802e+00 3.685339e+00 2.490058e+00 2.078540e+00 2.340977e+00 2.263452e+00 1.836593e+00 1.862070e+00 1.859476e+00 1.489341e+00 1.471877e+00 2.210338e+00 7.724311e-01 5.285505e-01 5.987121e-01 5.099261e-01 4.440937e-01 4.547654e-01 5.098771e-01 3.867705e-01 3.944946e-01 3.609905e-01 3.240938e-01 3.066499e-01 3.860512e-01
<GCONST> 1.172689e+02
<TRANSP> 5
 0.000000e+00 1.000000e+00 0.000000e+00 0.000000e+00 0.000000e+00
 0.000000e+00 6.599189e-01 3.400811e-01 0.000000e+00 0.000000e+00
 0.000000e+00 0.000000e+00 1.744902e-01 8.255097e-01 0.000000e+00
 0.000000e+00 0.000000e+00 0.000000e+00 7.191409e-01 2.808592e-01
 0.000000e+00 0.000000e+00 0.000000e+00 0.000000e+00 0.000000e+00
<ENDHMM>
~h "t"
<BEGINHMM>
<NUMSTATES> 5
<STATE> 2
<MEAN> 39
 -1.402566e+01 7.171099e-01 -1.175517e-01 -5.083202e+00 -2.324274e+00 -7.842183e+00 -7.394639e+00 -4.231096e+00 -1.078671e+01 -4.762024e+00 -1.759233e+00 -4.524682e+00 7.767242e+01 4.823018e-01 -4.443363e-01 8.331330e-02 5.890683e-02 3.059871e-01 -6.922349e-01 1.967707e-01 2.489323e-01 -4.413705e-01 -3.625957e-01 -3.714180e-02 -1.392161e-01 1.418146e+00 3.225683e-01 1.280598e-01 -7.961222e-02 4.161573e-02 4.100297e-02 -8.015202e-02 -2.904962e-02 2.467008e-01 -3.189386e-02 -5.824216e-02 -5.042258e-02 -1.554146e-01 -1.378396e-01
<VARIANCE> 39
 4.848699e+01 4.022748e+01 4.374092e+01 5.680131e+01 4.780669e+01 6.564757e+01 4.671836e+01 5.275146e+01 4.773016e+01 3.619283e+01 2.945111e+01 2.202919e+01 1.187714e+02 5.130664e+00 5.045641e+00 4.254354e+00 5.029692e+00 4.313537e+00 5.728445e+00 4.044564e+00 5.734601e+00 5.585272e+00 3.525932e+00 3.742553e+00 2.892860e+00 9.046540e+00 8.062109e-01 7.639810e-01 6.641324e-01 8.144338e-01 6.961059e-01 8.721385e-01 7.012863e-01 9.808400e-01 9.846001e-01 5.819888e-01 5.872098e-01 4.399098e-01 1.335146e+00
<GCONST> 1.382779e+02
<STATE> 3
<MEAN> 39
 -7.095321e+00 5.997702e-01 -1.630406e+00 -4.382689e+00 -2.214195e+00 -1.346088e+01 -7.543817e+00 3.120872e-01 -1.135419e+01 -5.605879e+00 -8.605494e-01 -5.673297e+00 8.000175e+01 5.792197e-01 5.908203e-01 -2.464851e-01 2.039892e-01 6.006941e-02 3.957859e-01 -2.198068e-01 5.730098e-01 6.582674e-01 8.608553e-02 -1.418945e-01 -4.061405e-01 -9.548768e-01 -3.243313e-01 -2.432453e-02 4.442615e-03 -7.892168e-02 -1.198528e-01 1.751668e-01 -4.715472e-02 -1.630404e-01 1.684185e-01 1.173592e-01 -3.082574e-02 6.332219e-03 -1.026897e-01
<VARIANCE> 39
 3.499969e+01 3.444661e+01 4.666095e+01 6.055641e+01 7.202312e+01 8.885252e+01 7.038987e+01 7.684816e+01 7.167217e+01 5.041167e+01 3.385048e+01 3.137639e+01 1.094656e+02 1.911633e+00 2.654691e+00 3.148739e+00 2.247365e+00 3.291622e+00 4.482258e+00 4.020798e+00 3.284313e+00 3.940941e+00 2.190825e+00 2.684268e+00 2.653419e+00 2.956059e+00 2.902642e-01 4.175574e-01 4.223012e-01 3.720190e-01 4.758406e-01 6.805250e-01 6.272734e-01 6.157129e-01 7.319221e-01 5.016234e-01 4.889854e-01 3.917533e-01 5.279534e-01
<GCONST> 1.286569e+02
<STATE> 4
<MEAN> 39
 -8.071356e+00 2.052566e+00 -2.815476e+00 -5.179326e+00 -2.659025e+00 -1.049739e+01 -1.013366e+01 -2.279537e+00 -9.952446e+00 -4.612446e+00 -7.739897e-01 -5.633877e+00 7.707951e+01 -1.434366e-01 1.519357e-01 -7.967176e-02 -3.377015e-02 -1.489363e-01 1.107003e-01 1.862575e-02 7.822067e-02 2.077669e-01 1.150684e-02 -1.899123e-01 -2.044204e-01 -3.908923e-01 -1.927290e-01 -6.693395e-02 1.650919e-01 -4.952829e-03 3.123187e-02 4.569609e-02 2.882899e-02 -1.297796e-01 -8.576915e-03 6.512050e-03 -1.032095e-02 8.260500e-02 1.569777e-01
<VARIANCE> 39
 2.292818e+01 3.420065e+01 3.943672e+01 3.912908e+01 4.428691e+01 4.531039e+01 5.146915e+01 4.306692e+01 6.568888e+01 3.942691e+01 2.880276e+01 2.756331e+01 1.229523e+02 7.997304e-01 1.237591e+00 1.439230e+00 1.306074e+00 1.806234e+00 2.030993e+00 1.817860e+00 1.785858e+00 1.856290e+00 1.680749e+00 1.447190e+00 1.399460e+00 1.213207e+00 1.958036e-01 3.336165e-01 2.903322e-01 2.656707e-01 4.059924e-01 4.025021e-01 4.234869e-01 3.798842e-01 4.952890e-01 3.979553e-01 3.463502e-01 3.004893e-01 3.951000e-01
<GCONST> 1.117299e+02
<TRANSP> 5
 0.000000e+00 1.000000e+00 0.000000e+00 0.000000e+00 0.000000e+00
 0.000000e+00 7.667108e-01 2.332892e-01 0.000000e+00 0.000000e+00
 0.000000e+00 0.000000e+00 3.412844e-01 6.587157e-01 0.000000e+00
 0.000000e+00 0.000000e+00 0.000000e+00 6.039802e-01 3.960198e-01
 0.000000e+00 0.000000e+00 0.000000e+00 0.000000e+00 0.000000e+00
<ENDHMM>
~h "u"
<BEGINHMM>
<NUMSTATES> 5
<STATE> 2
<MEAN> 39
 -7.440430e+00 6.216532e+00 3.138166e+00 -3.595300e+00 2.981101e+00 -1.122687e+01 -7.220293e+00 -1.774229e+00 -1.518147e+01 -1.050229e+01 -6.494839e+00 -8.408109e+00 7.986462e+01 -1.857777e-02 3.320291e-01 3.150777e-01 1.871967e-01 2.258724e-01 -2.812774e-01 2.186981e-01 5.521916e-01 -1.093288e-01 1.547960e-01 -1.461904e-01 -2.961430e-01 -1.768250e-01 -1.593157e-01 -1.403395e-01 -1.014157e-01 4.790498e-02 -1.113723e-01 1.048622e-01 -7.385582e-03 -8.102208e-02 2.062609e-01 2.699702e-01 1.781494e-01 1.497552e-01 -1.202522e-01
<VARIANCE> 39
 1.718668e+01 3.495644e+01 2.161819e+01 3.942233e+01 5.531557e+01 6.314893e+01 5.244065e+01 5.053184e+01 6.954205e+01 6.256919e+01 3.603402e+01 4.277129e+01 6.779449e+01 1.549046e+00 2.563655e+00 1.935033e+00 3.318645e+00 4.257644e+00 5.839310e+00 3.300828e+00 3.841003e+00 4.670831e+00 5.495799e+00 3.039110e+00 3.167439e+00 2.602087e+00 2.785293e-01 4.899456e-01 3.748693e-01 4.848584e-01 7.679384e-01 9.161490e-01 6.412309e-01 6.747934e-01 8.714525e-01 1.029747e+00 5.663666e-01 5.285715e-01 4.100805e-01
<GCONST> 1.291654e+02
<STATE> 3
<MEAN> 39
 -8.112695e+00 6.123068e+00 3.916117e+00 -1.572098e+00 2.298329e+00 -1.284521e+01 -7.895467e+00 -6.510221e-01 -1.376648e+01 -8.120772e+00 -5.227142e+00 -8.902065e+00 7.842282e+01 -2.657360e-01 -2.775202e-01 -1.924614e-01 3.499888e-01 -2.334732e-01 -2.297433e-01 -2.026431e-01 1.809802e-01 5.979611e-01 7.092620e-01 3.687030e-01 2.407939e-01 -2.591777e-01 -6.036738e-02 -1.861826e-01 -2.106695e-01 -1.114934e-01 -2.563963e-02 1.481955e-01 -1.106380e-01 -1.923076e-01 1.474056e-01 6.852274e-02 4.649935e-02 1.142262e-01 7.061779e-02
<VARIANCE> 39
 2.013780e+01 3.174760e+01 2.438357e+01 4.972496e+01 4.402076e+01 8.123807e+01 4.939087e+01 5.556260e+01 6.206640e+01 4.512768e+01 3.782564e+01 3.986287e+01 8.466293e+01 7.052422e-01 1.515512e+00 1.603432e+00 2.149815e+00 2.055609e+00 4.270801e+00 2.081926e+00 2.890957e+00 3.202752e+00 1.954789e+00 1.944629e+00 1.946813e+00 1.320230e+00 1.393399e-01 2.557099e-01 2.772490e-01 4.150192e-01 4.169462e-01 7.886256e-01 4.161722e-01 5.214817e-01 6.164192e-01 4.320951e-01 3.867004e-01 3.162592e-01 1.893883e-01
<GCONST> 1.165218e+02
<STATE> 4
<MEAN> 39
 -8.982339e+00 8.082821e+00 3.166593e+00 -4.982050e+00 -9.965132e-01 -1.142417e+01 -6.313093e+00 -7.938473e-01 -1.235712e+01 -6.453570e+00 -6.876602e+00 -1.038305e+01 7.607232e+01 -1.635425e-01 -5.319647e-01 -4.961036e-01 4.029815e-03 -1.614729e-01 1.335202e-01 -1.342089e-01 -1.638431e-01 3.850736e-01 3.284083e-01 2.338732e-01 3.803502e-01 -8.425732e-02 6.030208e-03 -9.725074e-02 -6.128263e-02 -2.019157e-02 1.844407e-02 1.590559e-02 7.995686e-03 -5.235510e-02 -2.401422e-02 -2.881109e-02 5.003401e-02 7.284448e-02 7.471167e-02
<VARIANCE> 39
 2.144555e+01 3.966315e+01 2.529095e+01 4.773794e+01 5.075341e+01 7.104256e+01 5.353499e+01 4.692044e+01 4.860908e+01 3.872031e+01 3.178341e+01 4.693368e+01 1.042394e+02 5.324602e-01 1.076186e+00 1.343499e+00 1.513001e+00 1.761494e+00 2.044091e+00 1.860590e+00 2.276181e+00 2.214709e+00 1.873131e+00 1.564843e+00 1.717485e+00 8.617017e-01 7.640418e-02 1.698003e-01 2.064710e-01 2.621853e-01 2.723108e-01 3.845174e-01 3.464438e-01 3.974993e-01 3.529996e-01 3.297787e-01 2.705568e-01 2.584625e-01 1.256739e-01
<GCONST> 1.077872e+02
<TRANSP> 5
 0.000000e+00 1.000000e+00 0.000000e+00 0.000000e+00 0.000000e+00
 0.000000e+00 6.793995e-01 3.206005e-01 0.000000e+00 0.000000e+00
 0.000000e+00 0.000000e+00 4.776361e-01 5.223639e-01 0.000000e+00
 0.000000e+00 0.000000e+00 0.000000e+00 8.080510e-01 1.919489e-01
 0.000000e+00 0.000000e+00 0.000000e+00 0.000000e+00 0.000000e+00
<ENDHMM>
~h "y"
<BEGINHMM>
<NUMSTATES> 5
<STATE> 2
<MEAN> 39
 -1.722181e+01 2.405382e+00 1.077724e+00 -8.304135e+00 -4.260669e+00 -4.513821e+00 -1.824079e+00 -4.971200e+00 -1.034244e+01 -2.864266e+00 -3.277907e+00 -5.508098e+00 7.127473e+01 1.546546e+00 5.126753e-02 2.477736e-01 -1.022597e-01 -6.640053e-01 -9.938781e-01 3.564118e-01 -1.971486e-01 -9.635748e-01 -1.451324e-02 1.256624e-01 1.019160e-01 2.164855e+00 3.733149e-01 -1.933282e-01 -3.528421e-01 4.537742e-02 -1.755162e-01 -1.928164e-01 -7.760286e-02 1.399708e-01 -1.804857e-02 9.865589e-03 1.294577e-01 6.458035e-02 3.694471e-01
<VARIANCE> 39
 4.023187e+01 3.327584e+01 2.915041e+01 3.169042e+01 2.918837e+01 4.229070e+01 3.856777e+01 4.304026e+01 3.395331e+01 4.458579e+01 1.865035e+01 1.747775e+01 3.566877e+01 4.580590e+00 3.873791e+00 3.236077e+00 2.907449e+00 3.410450e+00 4.519745e+00 2.907082e+00 3.206897e+00 3.022551e+00 3.611856e+00 1.931483e+00 1.695041e+00 3.716914e+00 7.039943e-01 8.790556e-01 5.790169e-01 6.011575e-01 5.978523e-01 7.775136e-01 5.956641e-01 5.010787e-01 6.300629e-01 6.411457e-01 3.507431e-01 3.409546e-01 5.727252e-01
<GCONST> 1.247984e+02
<STATE> 3
<MEAN> 39
 -5.081073e+00 -2.328172e+00 -4.603328e+00 -6.763182e+00 -9.169888e+00 -1.162309e+01 -1.238026e+00 -1.212437e+00 -1.173044e+01 -3.425125e+00 3.881719e-01 -3.789471e+00 8.677782e+01 6.423303e-01 -1.419462e+00 -1.598372e+00 2.144175e-01 2.981180e-01 -5.215776e-01 -2.788143e-01 5.189016e-01 5.683507e-01 7.582110e-01 7.542448e-01 1.280858e-01 1.752274e+00 -4.550800e-01 1.359734e-01 1.401996e-01 1.816030e-01 4.148931e-01 1.882549e-01 -2.232476e-01 -2.280377e-01 1.703961e-01 1.342471e-01 -7.393679e-02 -6.691088e-02 -5.220287e-01
<VARIANCE> 39
 2.111128e+01 2.367815e+01 3.124034e+01 2.623252e+01 3.682201e+01 5.989882e+01 3.075701e+01 7.321005e+01 4.422987e+01 6.984163e+01 1.723457e+01 2.358925e+01 2.243757e+01 1.954660e+00 1.741041e+00 1.456899e+00 2.148894e+00 2.519624e+00 2.342819e+00 2.399400e+00 2.574812e+00 3.117012e+00 2.118457e+00 1.670247e+00 2.176216e+00 1.840953e+00 3.291472e-01 4.358514e-01 3.424749e-01 3.962870e-01 3.841179e-01 4.434193e-01 4.523087e-01 4.605009e-01 5.458634e-01 5.668279e-01 3.474931e-01 3.897428e-01 1.810406e-01
<GCONST> 1.147642e+02
<STATE> 4
<MEAN> 39
 -7.009999e+00 -4.571491e+00 -4.066570e+00 1.679397e+00 1.378344e+00 -1.993219e+01 -1.226043e+01 -6.126633e+00 -1.225809e+01 1.064376e+00 1.453363e+00 -6.203079e+00 8.974395e+01 -2.569548e-02 3.028838e-02 1.880200e-02 2.356919e-02 2.165517e-01 -1.145852e-01 -3.337134e-01 -1.458148e-01 -7.890279e-02 1.176636e-01 4.541798e-02 -9.564744e-02 4.915260e-04 5.818944e-03 3.421671e-02 2.871777e-02 -9.766890e-02 -6.307776e-02 9.029158e-02 8.106096e-02 5.135682e-02 -1.516447e-02 -5.978827e-02 -3.588399e-02 8.827234e-03 -4.447010e-02
<VARIANCE> 39
 1.425067e+01 1.242914e+01 2.827048e+01 4.318920e+01 5.335594e+01 4.574145e+01 4.126180e+01 5.309419e+01 9.485911e+01 8.017258e+01 3.411138e+01 4.612089e+01 6.223761e+00 3.236463e-01 3.846963e-01 1.734895e+00 2.977219e+00 3.027067e+00 2.967695e+00 2.174620e+00 2.009163e+00 2.041775e+00 2.120339e+00 1.573039e+00 2.315244e+00 1.627546e-01 3.910920e-02 6.291141e-02 2.124636e-01 2.143553e-01 2.653581e-01 2.737232e-01 2.621624e-01 3.175186e-01 3.118521e-01 3.668659e-01 2.320144e-01 3.917379e-01 2.704260e-02
<GCONST> 9.936890e+01
<TRANSP> 5
 0.000000e+00 1.000000e+00 0.000000e+00 0.000000e+00 0.000000e+00
 0.000000e+00 8.248932e-01 1.751068e-01 0.000000e+00 0.000000e+00
 0.000000e+00 0.000000e+00 8.072602e-01 1.927398e-01 0.000000e+00
 0.000000e+00 0.000000e+00 0.000000e+00 9.502068e-01 4.979323e-02
 0.000000e+00 0.000000e+00 0.000000e+00 0.000000e+00 0.000000e+00
<ENDHMM>
~h "ay"
<BEGINHMM>
<NUMSTATES> 5
<STATE> 2
<MEAN> 39
 -2.620824e+01 -6.189258e+00 8.884768e+00 -1.144988e+01 -4.435349e+00 -2.274617e+00 -7.275713e+00 -5.560962e+00 -7.474774e+00 2.024536e-01 -1.387873e+00 -4.279558e+00 7.292355e+01 -2.451083e+00 -1.398620e+00 2.258154e+00 -1.755684e+00 1.949254e-01 2.200036e-02 3.928936e-01 2.596084e-01 4.165828e-01 2.821968e-01 5.474474e-01 3.311540e-01 2.670294e+00 -1.082789e-01 4.897651e-01 -3.672882e-01 2.193344e-01 2.779649e-01 7.832758e-04 8.231150e-02 3.081253e-01 8.892298e-02 -1.711508e-01 -5.455028e-02 5.254553e-02 -1.181954e-01
<VARIANCE> 39
 2.796416e+01 1.497333e+01 3.782397e+01 3.056596e+01 2.074555e+01 2.075177e+01 3.790864e+01 3.435001e+01 3.766061e+01 2.353610e+01 1.336778e+01 1.439714e+01 1.493145e+02 1.744073e+00 2.812780e+00 3.884491e+00 2.294211e+00 2.284761e+00 2.258726e+00 2.203895e+00 2.017356e+00 2.499632e+00 1.537950e+00 1.385485e+00 1.202597e+00 1.590476e+00 4.314790e-01 3.697506e-01 5.786612e-01 4.515435e-01 3.688563e-01 3.626607e-01 4.023790e-01 4.368904e-01 4.213862e-01 3.235468e-01 2.538606e-01 2.482543e-01 3.122831e-01
<GCONST> 1.114407e+02
<STATE> 3
<MEAN> 39
 -3.292361e+01 -7.263299e+00 1.271562e+01 -1.405125e+01 -2.821668e+00 -3.126052e+00 -4.869765e+00 -2.451154e+00 -6.771943e+00 1.337124e-01 -2.771896e-02 -2.862060e+00 8.295448e+01 -9.700421e-01 3.651211e-01 -1.093819e-01 -3.764828e-01 6.889898e-01 -4.469916e-02 1.936587e-01 2.865355e-01 8.272880e-02 5.264393e-02 -1.535035e-01 1.840775e-01 1.055771e+00 7.738562e-01 2.913727e-01 -6.131764e-01 3.688926e-01 2.416406e-02 -2.590514e-01 -1.954973e-01 -2.435961e-01 -9.377256e-02 -1.354780e-01 -2.816417e-01 -1.084564e-01 -4.558793e-01
<VARIANCE> 39
 1.382500e+01 1.495060e+01 2.869564e+01 3.108649e+01 2.467069e+01 3.886974e+01 4.979353e+01 3.931044e+01 4.347387e+01 2.240872e+01 1.436869e+01 1.308967e+01 8.567493e+01 2.959568e+00 1.374530e+00 2.974671e+00 1.388745e+00 1.680117e+00 2.237231e+00 1.921923e+00 2.764943e+00 1.592885e+00 1.591741e+00 1.438894e+00 1.058937e+00 1.336265e+00 2.967548e-01 3.458176e-01 4.112118e-01 3.112901e-01 2.920309e-01 6.039849e-01 4.295716e-01 5.304637e-01 3.985597e-01 3.291846e-01 3.007457e-01 2.127479e-01 1.245716e-01
<GCONST> 1.078643e+02
<STATE> 4
<MEAN> 39
 -2.923451e+01 -5.415663e+00 7.070184e+00 -1.220725e+01 4.358337e-01 -8.010891e+00 -8.419953e+00 -5.495813e+00 -5.972089e+00 -1.091517e+00 -3.658642e+00 -2.674721e+00 8.304506e+01 3.160556e+00 4.520115e-01 -8.703097e-01 1.488487e+00 -5.201060e-01 -1.524356e+00 -4.175246e-01 -6.854259e-01 -5.465050e-01 -1.106632e+00 -9.378688e-01 -9.681138e-02 -2.946583e-01 8.558643e-01 3.165984e-01 9.490323e-02 5.674889e-02 -4.661002e-01 1.333655e-01 1.682775e-01 1.371742e-01 -3.568254e-01 -2.805409e-01 1.131558e-01 -7.045381e-02 -3.942916e-02
<VARIANCE> 39
 2.931950e+01 2.415117e+01 2.653433e+01 2.940872e+01 4.129127e+01 4.453819e+01 4.711151e+01 3.340115e+01 3.941240e+01 2.257675e+01 2.210448e+01 1.537208e+01 1.065017e+02 3.533010e+00 5.098042e+00 3.404118e+00 2.304582e+00 3.064230e+00 5.087143e+00 5.255468e+00 4.526330e+00 4.747588e+00 2.653530e+00 2.413348e+00 1.718945e+00 1.099115e+00 3.424923e-01 1.124775e+00 5.744073e-01 6.387928e-01 6.053425e-01 1.198372e+00 1.061621e+00 1.115091e+00 1.064538e+00 5.514706e-01 4.844269e-01 3.540302e-01 2.591596e-01
<GCONST> 1.262276e+02
<TRANSP> 5
 0.000000e+00 1.000000e+00 0.000000e+00 0.000000e+00 0.000000e+00
 0.000000e+00 6.498508e-01 3.501492e-01 0.000000e+00 0.000000e+00
 0.000000e+00 0.000000e+00 7.906353e-01 2.093647e-01 0.000000e+00
 0.000000e+00 0.000000e+00 0.000000e+00 7.560506e-01 2.439494e-01
 0.000000e+00 0.000000e+00 0.000000e+00 0.000000e+00 0.000000e+00
<ENDHMM>
~h "ny"
<BEGINHMM>
<NUMSTATES> 5
<STATE> 2
<MEAN> 39
 -9.686779e+00 4.552491e-01 -4.678481e+00 -1.354491e+00 5.867938e+00 -4.205099e+00 -6.619838e+00 -5.707588e+00 -6.946859e+00 -4.157343e-01 3.796563e+00 -2.472752e+00 7.587292e+01 -2.248745e-01 -1.003700e-01 -2.179609e-02 -2.710962e-01 -5.432452e-01 1.437493e+00 6.867141e-01 -2.711202e-01 -3.908455e-01 -3.038015e-01 -2.050204e-01 1.937689e-01 -1.217314e+00 -1.603576e-02 -9.869590e-03 7.676595e-02 1.086119e-01 -1.057510e-01 -1.982550e-01 -1.239156e-01 1.127933e-01 -1.406276e-02 -6.389759e-02 -1.600304e-01 -6.627820e-02 -4.488036e-03
<VARIANCE> 39
 7.113161e+00 2.640622e+01 1.354944e+01 2.805068e+01 2.386247e+01 3.846607e+01 5.442307e+01 2.528374e+01 6.010879e+01 1.512149e+01 2.270821e+01 3.426513e+01 6.570147e+01 3.390197e-01 1.975597e+00 1.107115e+00 1.538544e+00 1.990705e+00 1.577822e+00 2.354950e+00 1.592390e+00 1.648015e+00 1.433233e+00 2.297966e+00 1.473288e+00 3.333357e-01 6.342202e-02 3.625040e-01 2.176151e-01 2.933625e-01 3.434984e-01 2.004234e-01 3.568361e-01 2.750311e-01 2.438984e-01 2.792098e-01 3.200640e-01 2.625216e-01 5.146294e-02
<GCONST> 9.848325e+01
<STATE> 3
<MEAN> 39
 -1.089656e+01 -1.750945e+00 -4.469506e+00 -2.885086e+00 -3.246262e+00 -9.370494e-02 -2.927605e+00 -5.025067e+00 -1.099315e+01 -3.544240e+00 -1.540718e+00 -1.360844e+00 6.966541e+01 -2.968082e-01 9.741384e-01 6.572633e-02 1.128485e-01 -4.037569e-01 4.135770e-02 -2.851483e-01 2.829500e-01 2.683479e-01 -2.825926e-01 -2.438360e-01 -1.663390e-01 -9.030066e-01 -3.818738e-02 1.253190e-01 4.492683e-02 -4.508532e-02 1.839463e-01 -1.227356e-01 -1.995981e-02 2.258669e-02 4.103474e-02 1.115132e-01 1.154755e-01 -3.584172e-02 7.145734e-02
<VARIANCE> 39
 3.968328e+00 2.706709e+01 1.255201e+01 1.825808e+01 3.487079e+01 1.319482e+01 3.221598e+01 1.677339e+01 2.077796e+01 1.466367e+01 1.488129e+01 1.856409e+01 3.218758e+01 2.081987e-01 1.165542e+00 5.183544e-01 8.320849e-01 1.205032e+00 1.021665e+00 1.301261e+00 1.155242e+00 1.200573e+00 1.247362e+00 1.071275e+00 9.416479e-01 1.356226e-01 3.820386e-02 1.776618e-01 9.093592e-02 1.726430e-01 1.781877e-01 2.075692e-01 2.504812e-01 2.360143e-01 2.254806e-01 2.185423e-01 2.027887e-01 1.517738e-01 2.283049e-02
<GCONST> 8.025437e+01
<STATE> 4
<MEAN> 39
 -1.420870e+01 7.187598e+00 -1.916663e+00 -3.383246e+00 -2.765543e+00 -1.261654e+00 -5.623994e+00 -3.829259e+00 -9.286521e+00 -6.281122e+00 -4.394890e+00 -5.811144e+00 6.526833e+01 -1.775832e-01 9.131950e-02 3.949876e-02 -8.039322e-02 -1.298971e-01 -1.366345e-01 -1.153085e-01 3.699119e-02 4.143725e-02 -7.756257e-02 -1.121566e-01 -8.358199e-02 -1.622494e-01 7.908800e-03 -6.023632e-02 -5.968222e-03 -6.787615e-03 4.922989e-03 8.299103e-03 2.342227e-02 -7.124105e-03 -1.003823e-02 1.130073e-02 1.890735e-02 1.343969e-02 4.609491e-02
<VARIANCE> 39
 3.862384e+00 9.764432e+00 7.541424e+00 1.071273e+01 1.097081e+01 1.178853e+01 1.374850e+01 9.735660e+00 1.192266e+01 1.581307e+01 1.596073e+01 1.339249e+01 5.174672e+00 1.214781e-01 3.258666e-01 3.206275e-01 5.097479e-01 5.950596e-01 7.539966e-01 8.135274e-01 8.430102e-01 8.485802e-01 7.555705e-01 6.432924e-01 6.607147e-01 7.489028e-02 2.095073e-02 5.301676e-02 5.765336e-02 1.015974e-01 1.195458e-01 1.469653e-01 1.652240e-01 1.652869e-01 1.623284e-01 1.551870e-01 1.385116e-01 1.314648e-01 1.189066e-02
<GCONST> 5.989106e+01
<TRANSP> 5
 0.000000e+00 1.000000e+00 0.000000e+00 0.000000e+00 0.000000e+00
 0.000000e+00 8.697246e-01 1.302755e-01 0.000000e+00 0.000000e+00
 0.000000e+00 0.000000e+00 8.265211e-01 1.734788e-01 0.000000e+00
 0.000000e+00 0.000000e+00 0.000000e+00 9.199604e-01 8.003955e-02
 0.000000e+00 0.000000e+00 0.000000e+00 0.000000e+00 0.000000e+00
<ENDHMM>
~h "sil"
<BEGINHMM>
<NUMSTATES> 5
<STATE> 2
<MEAN> 39
 -1.593322e+01 2.126691e+00 -2.615003e+00 -3.528600e+00 -3.711480e+00 -3.390574e+00 -8.503557e+00 -2.890494e+00 -7.847451e+00 -5.076660e+00 -2.942416e+00 -3.377089e+00 6.609354e+01 -6.959723e-02 3.003508e-02 3.148176e-02 9.867421e-02 -3.686148e-03 4.740075e-02 1.241700e-02 5.239258e-03 4.810014e-03 2.101651e-02 -3.419919e-02 -1.133437e-02 -1.355686e-01 4.467024e-03 2.756804e-03 6.041926e-03 5.359730e-03 1.524624e-02 8.825917e-03 1.577038e-02 1.698156e-02 7.978410e-03 9.371449e-03 -2.654332e-04 -5.025886e-03 1.318961e-02
<VARIANCE> 39
 8.237921e+00 1.571708e+01 1.709571e+01 2.153952e+01 1.735352e+01 1.600273e+01 1.584556e+01 1.389705e+01 1.421049e+01 1.527076e+01 1.247029e+01 1.167030e+01 1.494917e+02 1.388004e-01 2.520639e-01 3.559331e-01 4.838249e-01 5.934283e-01 6.465136e-01 7.980703e-01 8.086165e-01 8.260763e-01 7.864275e-01 7.057812e-01 6.593561e-01 8.892523e-02 1.930508e-02 4.163716e-02 6.282813e-02 8.376409e-02 1.086060e-01 1.243021e-01 1.482981e-01 1.504190e-01 1.544152e-01 1.444528e-01 1.334238e-01 1.205422e-01 8.744132e-03
<GCONST> 6.556061e+01
<STATE> 3
<MEAN> 39
 -1.713171e+01 2.446227e+00 -2.357400e+00 -2.888946e+00 -2.434469e+00 -2.302761e+00 -6.790239e+00 -2.062325e+00 -6.691816e+00 -4.410352e+00 -2.897902e+00 -3.804892e+00 6.427378e+01 -1.524198e-02 -8.850449e-03 4.381385e-03 2.963987e-02 1.375493e-02 1.070091e-02 1.471601e-02 4.702611e-04 -1.308056e-02 1.016117e-02 -2.571237e-02 -1.604797e-02 -2.748943e-02 -3.605028e-03 -3.566737e-03 7.450709e-04 -1.479838e-02 -3.226270e-03 -8.614460e-03 -6.218255e-03 -6.687437e-03 -5.248859e-03 -1.712130e-03 4.359813e-03 2.138707e-03 1.062613e-02
<VARIANCE> 39
 3.021831e+00 7.833077e+00 7.711808e+00 1.037626e+01 9.403318e+00 7.563505e+00 1.058617e+01 9.080346e+00 9.573907e+00 9.832540e+00 8.215049e+00 8.061750e+00 4.676007e+01 1.466239e-01 2.271030e-01 3.728952e-01 5.517275e-01 6.122454e-01 6.868636e-01 7.690880e-01 8.243007e-01 8.729086e-01 8.428078e-01 7.586935e-01 7.078629e-01 6.841113e-02 2.930113e-02 4.712488e-02 7.714108e-02 1.106728e-01 1.258230e-01 1.421141e-01 1.591388e-01 1.686143e-01 1.805256e-01 1.722007e-01 1.544854e-01 1.458918e-01 1.340261e-02
<GCONST> 6.015407e+01
<STATE> 4
<MEAN> 39
 -1.863237e+01 2.899326e+00 -2.520656e+00 -3.974847e+00 -3.582365e+00 -2.466716e+00 -7.859561e+00 -2.313390e+00 -7.339950e+00 -5.096917e+00 -2.746322e+00 -3.484136e+00 6.253091e+01 -7.448702e-02 -1.483458e-02 4.663071e-02 -5.820230e-02 1.038341e-02 1.354907e-02 -2.799427e-02 -1.757697e-02 8.259293e-02 -1.208653e-02 3.339605e-02 -2.866364e-02 3.045491e-02 -9.146451e-03 -1.867399e-03 5.825142e-03 -1.575598e-02 1.129732e-02 3.858342e-03 -5.429482e-03 -1.536027e-02 1.778890e-03 1.449508e-02 1.120864e-02 2.750713e-03 1.408187e-02
<VARIANCE> 39
 9.894639e+00 1.327378e+01 1.795324e+01 2.242606e+01 1.865263e+01 1.293369e+01 1.629928e+01 1.333294e+01 1.504489e+01 1.939067e+01 1.142303e+01 1.149072e+01 1.593177e+02 6.062654e-01 5.654256e-01 8.706833e-01 1.254525e+00 1.049428e+00 9.743003e-01 1.220357e+00 1.055626e+00 1.420770e+00 1.240600e+00 1.032775e+00 9.291371e-01 5.445248e-01 1.250936e-01 1.122855e-01 1.666320e-01 2.404159e-01 2.108112e-01 1.914620e-01 2.410562e-01 2.037685e-01 2.732184e-01 2.185768e-01 1.981432e-01 1.798255e-01 1.068347e-01
<GCONST> 8.615971e+01
<TRANSP> 5
 0.000000e+00 1.000000e+00 0.000000e+00 0.000000e+00 0.000000e+00
 0.000000e+00 9.123848e-01 8.761518e-02 0.000000e+00 0.000000e+00
 0.000000e+00 0.000000e+00 9.247466e-01 7.525334e-02 0.000000e+00
 0.000000e+00 0.000000e+00 0.000000e+00 8.204947e-01 1.795053e-01
 0.000000e+00 0.000000e+00 0.000000e+00 0.000000e+00 0.000000e+00
<ENDHMM>
~h "sp"
<BEGINHMM>
<NUMSTATES> 3
<STATE> 2
<MEAN> 39
 -1.713171e+01 2.446227e+00 -2.357400e+00 -2.888946e+00 -2.434469e+00 -2.302761e+00 -6.790239e+00 -2.062325e+00 -6.691816e+00 -4.410352e+00 -2.897902e+00 -3.804892e+00 6.427378e+01 -1.524198e-02 -8.850449e-03 4.381385e-03 2.963987e-02 1.375493e-02 1.070091e-02 1.471601e-02 4.702611e-04 -1.308056e-02 1.016117e-02 -2.571237e-02 -1.604797e-02 -2.748943e-02 -3.605028e-03 -3.566737e-03 7.450709e-04 -1.479838e-02 -3.226270e-03 -8.614460e-03 -6.218255e-03 -6.687437e-03 -5.248859e-03 -1.712130e-03 4.359813e-03 2.138707e-03 1.062613e-02
<VARIANCE> 39
 3.021831e+00 7.833077e+00 7.711808e+00 1.037626e+01 9.403318e+00 7.563505e+00 1.058617e+01 9.080346e+00 9.573907e+00 9.832540e+00 8.215049e+00 8.061750e+00 4.676007e+01 1.466239e-01 2.271030e-01 3.728952e-01 5.517275e-01 6.122454e-01 6.868636e-01 7.690880e-01 8.243007e-01 8.729086e-01 8.428078e-01 7.586935e-01 7.078629e-01 6.841113e-02 2.930113e-02 4.712488e-02 7.714108e-02 1.106728e-01 1.258230e-01 1.421141e-01 1.591388e-01 1.686143e-01 1.805256e-01 1.722007e-01 1.544854e-01 1.458918e-01 1.340261e-02
<GCONST> 6.015407e+01
<TRANSP> 3
 0.0 1.0 0.0
 0.0 0.9 0.1
 0.0 0.0 0.0
<ENDHMM>
