~o
<STREAMINFO> 1 39
<VECSIZE> 39<NULLD><MFCC_D_A_0><DIAGC>
~s "silst"
<MEAN> 39
 -1.803344e+01 4.155143e+00 -3.996028e+00 -6.076712e+00 -4.094921e+00 -2.143210e+00 -5.576381e+00 -2.764179e+00 -7.387548e+00 -5.592654e+00 -2.710880e+00 -4.523389e+00 6.376592e+01 -3.113443e-03 -2.068105e-02 9.494317e-03 5.666764e-02 -3.639114e-02 8.067045e-03 1.945833e-02 -5.629685e-02 -6.273668e-02 1.104802e-01 -3.715748e-02 -3.763098e-02 -3.806264e-02 -4.633592e-02 -2.122083e-02 2.754139e-02 -4.399265e-02 4.096708e-03 -1.370911e-02 -3.277959e-02 -4.890444e-03 3.249002e-02 -1.632691e-02 1.840112e-02 1.300784e-02 5.393672e-02
<VARIANCE> 39
 3.543895e+00 6.292161e+00 8.445838e+00 1.063831e+01 8.618976e+00 7.702779e+00 1.054186e+01 1.086152e+01 1.241013e+01 1.378774e+01 1.085227e+01 8.398880e+00 3.108279e+00 2.469482e-01 5.489314e-01 7.283612e-01 7.894017e-01 8.858758e-01 8.394707e-01 9.981467e-01 1.089061e+00 1.128454e+00 1.006014e+00 9.594713e-01 8.451191e-01 2.122248e-01 6.247977e-02 1.129626e-01 1.562092e-01 1.674589e-01 1.900375e-01 1.692378e-01 2.139901e-01 2.219510e-01 2.484412e-01 2.057024e-01 2.083521e-01 1.700058e-01 4.733167e-02
<GCONST> 7.016126e+01
~h "a"
<BEGINHMM>
<NUMSTATES> 5
<STATE> 2
<MEAN> 39
 -7.358155e+00 9.487618e-01 -5.076803e+00 -8.327892e+00 -4.678329e+00 -9.497792e+00 -2.299378e+00 -6.493435e-01 -1.196917e+01 -1.902691e+00 -2.438592e+00 -6.143983e+00 8.073449e+01 -6.224480e-02 -2.344848e-01 -2.215896e-01 -2.160272e-01 -6.115038e-02 1.817243e-01 3.095682e-01 9.409128e-02 1.250157e-01 1.841395e-01 1.266213e-01 1.806255e-01 -1.220277e-02 -1.189829e-01 6.599072e-02 1.176154e-01 7.793558e-02 1.006000e-01 3.319585e-02 -8.946134e-02 -7.444160e-02 -5.136901e-04 -7.351539e-02 7.733722e-02 6.780276e-02 -9.786360e-02
<VARIANCE> 39
 4.225325e+01 3.691000e+01 3.246308e+01 2.646766e+01 4.591590e+01 6.967979e+01 4.691107e+01 4.031051e+01 5.006849e+01 4.996637e+01 3.544586e+01 2.808119e+01 1.024711e+02 7.528323e-01 1.474092e+00 1.312622e+00 1.135296e+00 1.500659e+00 1.887943e+00 1.631988e+00 1.534570e+00 1.779611e+00 1.661562e+00 1.684455e+00 1.574158e+00 1.239112e+00 1.897969e-01 2.394057e-01 2.344239e-01 2.235779e-01 2.851549e-01 3.362204e-01 3.381842e-01 3.214996e-01 3.456044e-01 3.125356e-01 2.886711e-01 3.251693e-01 1.435813e-01
<GCONST> 1.083587e+02
<STATE> 3
<MEAN> 39
 -1.153857e+01 3.023595e+00 -4.416015e+00 -7.333491e+00 -4.506009e+00 -5.910974e+00 -2.943131e+00 -2.212601e+00 -1.013347e+01 -3.143658e+00 -2.707842e+00 -5.117294e+00 7.356879e+01 -1.863587e-01 1.584275e-02 8.149486e-02 1.302840e-02 1.157141e-01 9.191822e-02 -5.011865e-02 -5.639318e-02 -1.859317e-02 -9.944743e-03 1.246179e-01 6.615020e-02 -1.907420e-01 -7.065585e-03 6.281707e-02 6.683707e-02 5.973804e-02 6.529113e-02 6.607377e-03 -4.131296e-02 -4.254965e-02 -5.461283e-03 -2.686594e-02 -5.145166e-03 4.000416e-03 -3.327096e-02
<VARIANCE> 39
 3.827657e+01 2.979950e+01 2.017709e+01 1.844132e+01 2.997286e+01 4.303898e+01 3.939595e+01 2.835408e+01 2.769391e+01 3.384297e+01 2.216106e+01 1.637752e+01 1.160803e+02 4.231068e-01 8.466343e-01 8.774796e-01 8.548687e-01 1.042575e+00 1.217071e+00 1.190153e+00 1.271105e+00 1.254898e+00 1.086201e+00 1.238684e+00 1.017528e+00 5.783576e-01 9.063404e-02 1.519420e-01 1.563150e-01 1.685666e-01 2.127714e-01 2.253626e-01 2.415712e-01 2.603246e-01 2.442092e-01 2.287210e-01 2.229297e-01 2.118343e-01 9.268694e-02
<GCONST> 9.359772e+01
<STATE> 4
<MEAN> 39
 -9.922420e+00 1.644188e+00 -4.368835e+00 -6.713901e+00 -3.036464e+00 -6.302038e+00 -4.055990e+00 -3.754794e+00 -1.025873e+01 -1.163579e-01 -1.405568e+00 -5.461395e+00 7.650179e+01 -1.391291e-01 1.758297e-01 1.994257e-01 2.244017e-01 2.317146e-01 1.867979e-01 -3.246379e-02 -4.510736e-02 9.161694e-02 -1.793285e-01 -3.034640e-02 9.457171e-02 -3.530306e-01 2.102142e-02 1.714089e-02 3.163198e-02 8.396958e-02 8.037631e-02 3.631556e-02 8.195576e-03 -3.741736e-02 5.728799e-03 -5.094679e-02 -2.127370e-02 2.611773e-02 1.487622e-02
<VARIANCE> 39
 4.280451e+01 2.991947e+01 2.313754e+01 2.307534e+01 3.347745e+01 5.048737e+01 3.926180e+01 5.282264e+01 3.595498e+01 5.967927e+01 3.050527e+01 2.218634e+01 1.165625e+02 4.995479e-01 1.171519e+00 1.399166e+00 1.304977e+00 1.389290e+00 1.805618e+00 1.746606e+00 1.792236e+00 1.809690e+00 1.851552e+00 1.769665e+00 1.515253e+00 1.107837e+00 1.277100e-01 2.951190e-01 2.550858e-01 2.350537e-01 2.805518e-01 3.491432e-01 3.173738e-01 3.391073e-01 3.570921e-01 3.388999e-01 3.443751e-01 2.604213e-01 3.099307e-01
<GCONST> 1.072150e+02
<TRANSP> 5
 0.000000e+00 1.000000e+00 0.000000e+00 0.000000e+00 0.000000e+00
 0.000000e+00 4.402115e-01 5.597885e-01 0.000000e+00 0.000000e+00
 0.000000e+00 0.000000e+00 6.464633e-01 3.535366e-01 0.000000e+00
 0.000000e+00 0.000000e+00 0.000000e+00 5.172092e-01 4.827908e-01
 0.000000e+00 0.000000e+00 0.000000e+00 0.000000e+00 0.000000e+00
<ENDHMM>
~h "b"
<BEGINHMM>
<NUMSTATES> 5
<STATE> 2
<MEAN> 39
 -2.512457e+01 -2.888988e-01 7.451179e+00 -1.509882e+01 2.677267e+00 -3.548142e+00 -7.768473e+00 -4.764407e+00 -8.214539e+00 -1.089568e+00 -9.780438e-01 -3.802355e+00 8.323637e+01 -1.388611e-01 -2.422293e-01 1.624829e-01 -2.270677e-01 2.524076e-01 -7.640737e-02 7.270425e-02 2.207186e-02 -3.864664e-01 -1.356888e-01 9.230636e-04 1.036244e-01 7.142192e-01 4.937283e-01 1.581180e-01 -2.116366e-01 3.554422e-01 5.383107e-03 -1.795372e-01 -4.471184e-02 -1.872466e-02 -1.700364e-01 -1.040898e-01 -6.032433e-02 -1.080319e-01 -8.324739e-02
<VARIANCE> 39
 9.957072e+01 3.437005e+01 5.399868e+01 5.242201e+01 6.503951e+01 4.183908e+01 3.886456e+01 3.204155e+01 3.520172e+01 2.654891e+01 2.023949e+01 1.302704e+01 4.405422e+01 1.380582e+01 3.402050e+00 6.270414e+00 6.595160e+00 3.208494e+00 3.071336e+00 2.808672e+00 3.024843e+00 3.417069e+00 2.756464e+00 2.361170e+00 1.527177e+00 3.528504e+00 1.196342e+00 5.729976e-01 8.756236e-01 7.400387e-01 5.167415e-01 4.408709e-01 5.261496e-01 4.941400e-01 4.628506e-01 4.610085e-01 4.427919e-01 2.962192e-01 6.076689e-01
<GCONST> 1.280731e+02
<STATE> 3
<MEAN> 39
 -6.937057e+00 4.178640e+00 2.933488e+00 -4.455128e+00 2.668519e+00 -7.738378e+00 -7.257871e+00 -4.778018e+00 -1.639526e+01 -6.156997e+00 -3.324561e+00 -6.454996e+00 8.325803e+01 1.098479e+00 -7.604645e-02 -5.678925e-01 1.250124e+00 3.707889e-01 -7.762002e-01 3.095990e-02 5.540149e-01 -3.979750e-01 -4.458000e-01 -8.554685e-02 -8.182529e-01 2.947003e-01 -6.384068e-01 -1.905049e-01 4.395517e-01 -2.460190e-01 5.549476e-02 2.341127e-01 6.154129e-02 8.741380e-02 3.048284e-01 1.206633e-01 1.449628e-01 4.797852e-02 -9.426595e-02
<VARIANCE> 39
 9.962371e+00 4.863482e+01 3.632228e+01 4.558525e+01 6.067250e+01 3.888078e+01 4.947218e+01 4.617062e+01 5.240532e+01 5.751667e+01 3.436127e+01 1.739860e+01 3.932697e+01 4.937405e+00 7.524916e+00 3.973075e+00 2.559270e+00 3.365257e+00 4.640789e+00 3.161507e+00 4.747053e+00 6.379043e+00 3.731569e+00 2.725221e+00 1.806135e+00 3.779608e+00 7.446960e-01 9.488516e-01 8.412331e-01 6.229893e-01 4.767404e-01 8.522485e-01 6.994694e-01 9.730148e-01 1.226115e+00 8.692121e-01 5.841464e-01 3.772121e-01 6.663142e-01
<GCONST> 1.321992e+02
<STATE> 4
<MEAN> 39
 -4.844373e+00 -2.525252e-01 1.019364e+00 -2.287269e+00 4.171083e+00 -1.326536e+01 -8.970191e+00 -3.730330e+00 -1.624543e+01 -5.509058e+00 -2.516943e-01 -8.168080e+00 8.562585e+01 9.937271e-02 2.077188e-01 4.353829e-02 -1.701109e-01 -7.076719e-02 1.821563e-01 -1.538196e-02 1.857460e-01 2.703826e-01 7.664336e-02 -5.937639e-02 -2.555071e-02 -2.657171e-01 -3.390922e-02 8.407421e-02 4.424209e-02 -8.755088e-03 -1.286427e-02 1.282140e-01 -8.189575e-03 -6.267554e-02 1.206200e-01 4.726825e-02 -9.339988e-02 3.786469e-02 -9.246455e-02
<VARIANCE> 39
 1.018069e+01 4.082632e+01 4.384376e+01 5.045808e+01 9.128036e+01 4.757073e+01 7.584199e+01 7.070025e+01 1.002343e+02 1.154029e+02 4.697939e+01 3.146954e+01 2.092762e+01 5.978692e-01 1.637461e+00 2.620730e+00 2.110849e+00 2.355458e+00 3.699218e+00 3.572097e+00 3.228293e+00 4.139375e+00 2.855979e+00 3.678185e+00 2.154304e+00 1.312013e+00 1.036233e-01 2.155366e-01 3.899084e-01 2.988826e-01 3.575640e-01 6.697351e-01 6.372840e-01 6.097232e-01 6.093049e-01 4.973703e-01 5.717043e-01 4.275363e-01 1.564880e-01
<GCONST> 1.203952e+02
<TRANSP> 5
 0.000000e+00 1.000000e+00 0.000000e+00 0.000000e+00 0.000000e+00
 0.000000e+00 8.623341e-01 1.376659e-01 0.000000e+00 0.000000e+00
 0.000000e+00 0.000000e+00 7.253898e-01 2.746101e-01 0.000000e+00
 0.000000e+00 0.000000e+00 0.000000e+00 8.944495e-01 1.055505e-01
 0.000000e+00 0.000000e+00 0.000000e+00 0.000000e+00 0.000000e+00
<ENDHMM>
~h "d"
<BEGINHMM>
<NUMSTATES> 5
<STATE> 2
<MEAN> 39
 -1.373138e+01 4.279971e+00 3.806671e+00 -7.317407e+00 -3.375896e+00 -5.036705e+00 -2.543334e+00 -4.902531e+00 -1.188431e+01 -5.540233e+00 -6.511660e+00 -4.930483e+00 7.618571e+01 2.498773e+00 4.287208e-01 -1.059716e+00 2.684046e-01 -5.485118e-01 -1.119554e+00 3.479007e-01 2.371506e-01 -1.475489e+00 -1.731979e-01 2.956282e-02 -4.575527e-01 1.216461e+00 -4.448236e-01 -7.195026e-01 -4.574111e-01 -2.653731e-01 1.470833e-01 -2.292015e-01 -2.431667e-01 2.647947e-01 1.108596e-01 1.893699e-01 3.186088e-01 -1.492206e-03 5.961019e-01
<VARIANCE> 39
 5.029874e+01 3.231653e+01 4.621925e+01 3.653485e+01 3.092162e+01 4.179567e+01 2.857352e+01 3.772401e+01 5.206083e+01 2.355117e+01 2.841429e+01 1.892076e+01 7.883110e+01 1.040803e+01 6.041929e+00 5.104965e+00 4.666150e+00 5.294559e+00 5.265675e+00 4.519717e+00 4.127611e+00 7.086571e+00 3.602970e+00 2.544718e+00 2.763790e+00 4.194118e+00 1.090455e+00 8.589279e-01 1.008718e+00 6.611454e-01 6.985667e-01 6.058849e-01 7.816575e-01 7.189608e-01 1.494896e+00 8.858894e-01 5.651780e-01 4.172167e-01 6.295453e-01
<GCONST> 1.350724e+02
<STATE> 3
<MEAN> 39
 -7.156919e+00 -5.220196e-01 -5.699049e-01 -7.593267e+00 -6.199775e+00 -1.180107e+01 -2.658148e+00 -4.717937e+00 -1.583710e+01 -4.456450e+00 -5.019804e+00 -5.731442e+00 8.618629e+01 1.560524e+00 -1.221587e+00 -2.424699e+00 -7.636145e-02 -1.362516e-02 -1.168383e+00 -1.583103e-01 1.153449e+00 -6.744605e-01 4.365498e-01 9.861479e-01 -2.930851e-01 2.037380e+00 -8.237078e-01 -3.139695e-01 7.031378e-02 -9.982055e-02 4.741177e-01 3.559563e-01 -2.273858e-01 1.681674e-01 5.674064e-01 2.183175e-01 1.602923e-01 8.058654e-02 -1.925852e-01
<VARIANCE> 39
 3.805309e+01 2.313330e+01 3.674304e+01 2.932151e+01 6.826155e+01 5.514726e+01 3.753953e+01 4.735489e+01 5.587967e+01 4.063093e+01 3.254081e+01 3.048942e+01 2.191185e+01 3.421688e+00 2.288444e+00 4.523479e+00 2.371775e+00 4.640368e+00 5.548962e+00 3.097771e+00 3.802339e+00 7.128036e+00 6.685085e+00 3.148900e+00 2.333942e+00 2.662915e+00 1.113017e+00 1.058974e+00 5.501912e-01 7.099845e-01 7.170047e-01 7.529142e-01 9.486860e-01 9.495990e-01 1.634423e+00 6.975977e-01 6.348285e-01 8.108244e-01 4.239654e-01
<GCONST> 1.329668e+02
<STATE> 4
<MEAN> 39
 -6.126383e+00 -4.551946e+00 -6.242796e+00 -5.843193e+00 -3.052939e+00 -1.472615e+01 -5.050978e+00 -3.148392e+00 -1.716920e+01 -1.645634e+00 6.447966e-01 -5.569229e+00 8.919638e+01 -2.074900e-02 -6.221658e-02 -2.248693e-01 3.398210e-01 1.025686e+00 -5.455197e-02 -6.625600e-01 -1.282817e-01 -1.013441e-01 1.337050e-01 5.571168e-01 -1.676448e-02 -1.101803e-02 -1.617752e-01 2.346340e-01 3.262299e-01 2.240666e-02 1.226206e-02 1.688703e-01 -2.135029e-02 -9.515129e-02 1.573527e-01 -6.520677e-02 -9.882699e-02 1.668573e-02 -3.303273e-01
<VARIANCE> 39
 4.229376e+01 1.964319e+01 4.609760e+01 3.222440e+01 7.556886e+01 6.001584e+01 4.860698e+01 4.423748e+01 6.735689e+01 8.084695e+01 3.039344e+01 2.076674e+01 2.262727e+01 1.731679e+00 1.989003e+00 3.836017e+00 2.111916e+00 3.526792e+00 3.562718e+00 3.469687e+00 3.075900e+00 5.013844e+00 3.178139e+00 2.369029e+00 2.595320e+00 2.104729e+00 3.395959e-01 3.124991e-01 4.369859e-01 4.263809e-01 7.328725e-01 6.851338e-01 6.898227e-01 5.465574e-01 8.173712e-01 4.777253e-01 3.474515e-01 3.982148e-01 2.893904e-01
<GCONST> 1.237755e+02
<TRANSP> 5
 0.000000e+00 1.000000e+00 0.000000e+00 0.000000e+00 0.000000e+00
 0.000000e+00 6.105542e-01 3.894458e-01 0.000000e+00 0.000000e+00
 0.000000e+00 0.000000e+00 4.222407e-01 5.777593e-01 0.000000e+00
 0.000000e+00 0.000000e+00 0.000000e+00 8.198115e-01 1.801885e-01
 0.000000e+00 0.000000e+00 0.000000e+00 0.000000e+00 0.000000e+00
<ENDHMM>
~h "e"
<BEGINHMM>
<NUMSTATES> 5
<STATE> 2
<MEAN> 39
 -1.311691e+01 8.581450e-01 1.274770e-01 -6.164625e+00 -2.546422e+00 -6.467297e+00 -6.328280e+00 -3.681072e+00 -1.072832e+01 -3.982014e+00 -2.337111e+00 -4.809567e+00 7.802177e+01 3.281756e-01 -6.526273e-01 5.702943e-01 4.463159e-01 7.320349e-01 -3.000040e-01 -2.788543e-01 -3.442942e-01 -4.451897e-01 -2.709973e-01 -1.683063e-01 -1.681036e-01 1.702832e+00 3.114732e-01 -1.776285e-03 -5.547695e-03 2.243368e-01 1.989184e-01 -2.174547e-01 -1.193656e-01 6.160532e-02 -2.130719e-01 -1.561209e-01 1.803674e-02 -1.488846e-01 1.338683e-01
<VARIANCE> 39
 6.101265e+01 5.424473e+01 5.346596e+01 5.706242e+01 6.061649e+01 3.214298e+01 3.972486e+01 4.098875e+01 4.380362e+01 5.430839e+01 2.621632e+01 2.226608e+01 8.153546e+01 6.257140e+00 6.069483e+00 4.307953e+00 5.239676e+00 3.836469e+00 4.114744e+00 4.098245e+00 4.463377e+00 5.645277e+00 4.106174e+00 2.935182e+00 2.280385e+00 9.498633e+00 1.046504e+00 9.552366e-01 7.685358e-01 7.480879e-01 6.338362e-01 6.951649e-01 6.266163e-01 8.428257e-01 8.803786e-01 7.151329e-01 5.035618e-01 4.616161e-01 1.243502e+00
<GCONST> 1.373191e+02
<STATE> 3
<MEAN> 39
 -1.043228e+01 5.092192e-01 6.782795e+00 3.078719e+00 6.241591e+00 -9.384099e+00 -1.125708e+01 -2.861217e+00 -1.113878e+01 -6.033802e+00 -3.050880e+00 -6.778898e+00 8.277120e+01 5.935121e-01 2.587447e-02 -2.130503e-01 3.265623e-01 4.875605e-01 -3.012572e-01 -4.309466e-01 -2.549643e-01 -1.979139e-01 -8.061795e-02 5.664680e-03 -2.260938e-01 4.270960e-01 -7.435458e-02 7.843009e-02 -1.564562e-01 -2.087473e-01 -1.967278e-01 5.024781e-02 9.191995e-02 1.438208e-02 8.474234e-02 7.443183e-02 3.079650e-02 5.620095e-02 -2.111057e-01
<VARIANCE> 39
 3.329616e+01 5.074911e+01 7.745476e+01 7.856965e+01 4.994132e+01 6.687262e+01 5.638337e+01 6.257476e+01 8.400402e+01 7.341032e+01 3.780816e+01 3.958250e+01 4.884744e+01 5.441208e+00 5.238113e+00 5.139629e+00 4.433676e+00 3.558010e+00 6.339212e+00 6.146119e+00 4.836318e+00 8.121623e+00 4.237123e+00 3.736495e+00 3.609708e+00 5.957156e+00 1.004912e+00 1.003815e+00 9.133111e-01 8.250564e-01 6.330923e-01 9.764724e-01 1.075902e+00 8.101858e-01 1.401869e+00 7.539198e-01 7.320308e-01 5.676945e-01 1.071983e+00
<GCONST> 1.432950e+02
<STATE> 4
<MEAN> 39
 -5.186290e+00 2.397017e+00 1.217913e+00 -2.658809e+00 4.998444e-01 -9.955194e+00 -8.144065e+00 -3.345780e+00 -1.176280e+01 -7.613017e+00 -5.703537e+00 -8.870642e+00 8.332125e+01 1.012154e-01 4.012508e-01 -1.198623e-01 -3.028535e-01 -3.129588e-01 1.415915e-01 2.599121e-01 2.986015e-01 3.142602e-01 1.241814e-01 -6.457634e-02 2.785968e-02 -4.049326e-01 -1.798889e-01 -3.048023e-02 3.352119e-02 -8.005081e-02 -5.860451e-02 1.122341e-01 5.554845e-02 -1.295789e-02 6.848340e-02 4.586163e-02 5.111725e-02 9.099185e-02 -6.458975e-02
<VARIANCE> 39
 1.398650e+01 3.177125e+01 4.384253e+01 4.899813e+01 6.578515e+01 7.893403e+01 7.676497e+01 7.916244e+01 8.446046e+01 1.222905e+02 7.339624e+01 4.146475e+01 2.894679e+01 1.309854e+00 1.626713e+00 2.126522e+00 2.082703e+00 2.880790e+00 4.648046e+00 3.282289e+00 2.746807e+00 3.662914e+00 2.839201e+00 3.237410e+00 2.135677e+00 1.881619e+00 2.144488e-01 2.642692e-01 3.280304e-01 2.992796e-01 4.259296e-01 7.175966e-01 5.550126e-01 4.227663e-01 7.083095e-01 5.072131e-01 5.303124e-01 3.653693e-01 3.205220e-01
<GCONST> 1.236588e+02
<TRANSP> 5
 0.000000e+00 1.000000e+00 0.000000e+00 0.000000e+00 0.000000e+00
 0.000000e+00 6.921526e-01 3.078474e-01 0.000000e+00 0.000000e+00
 0.000000e+00 0.000000e+00 7.710468e-01 2.289532e-01 0.000000e+00
 0.000000e+00 0.000000e+00 0.000000e+00 8.252146e-01 1.747854e-01
 0.000000e+00 0.000000e+00 0.000000e+00 0.000000e+00 0.000000e+00
<ENDHMM>
~h "g"
<BEGINHMM>
<NUMSTATES> 5
<STATE> 2
<MEAN> 39
 -1.311586e+01 5.055354e+00 -1.386662e+00 -8.320529e+00 -2.705260e+00 -5.324651e+00 -2.731842e+00 -2.756479e+00 -1.160234e+01 -5.567715e+00 -3.704559e+00 -4.697813e+00 7.406969e+01 -2.624475e-01 -9.462941e-02 6.429510e-01 -4.459841e-01 2.392186e-01 4.423970e-02 -7.321082e-01 -1.107087e+00 6.655800e-02 2.054641e-01 -1.938329e-01 -3.696194e-02 8.494492e-01 3.102161e-01 1.795044e-03 2.105244e-01 4.313761e-01 -2.396651e-01 -4.614566e-01 -3.687496e-01 1.919619e-01 -1.080458e-02 -3.969486e-02 2.220703e-02 -2.453864e-01 -2.166271e-03
<VARIANCE> 39
 4.986220e+01 7.285719e+01 4.031041e+01 1.778654e+01 3.869439e+01 6.056112e+01 4.125346e+01 6.413999e+01 4.042317e+01 3.636959e+01 2.014424e+01 5.092221e+01 4.112706e+01 1.081305e+00 3.443873e+00 1.639586e+00 1.989557e+00 5.715624e+00 3.740871e+00 3.091694e+00 3.907576e+00 1.744513e+00 2.508423e+00 1.929855e+00 1.367091e+00 6.227127e+00 2.740609e-01 4.198120e-01 6.925672e-01 5.588560e-01 1.148096e+00 8.361059e-01 9.093680e-01 6.940418e-01 2.979490e-01 6.009261e-01 4.172384e-01 2.459560e-01 7.134285e-01
<GCONST> 1.244125e+02
<STATE> 3
<MEAN> 39
 -1.169847e+01 3.658746e+00 2.699997e+00 -5.089511e+00 -2.585261e+00 -7.597244e+00 -8.353831e+00 -4.167492e+00 -1.066605e+01 -4.831042e+00 -3.695381e+00 -6.524782e+00 7.640052e+01 7.310925e-01 6.233727e-01 1.785135e+00 1.710559e+00 -7.597479e-01 -1.524616e+00 -1.171904e+00 4.361576e-01 1.854074e-01 1.671153e-01 2.737966e-01 -1.216149e+00 -2.089716e-01 4.622994e-02 -1.097501e-01 -2.742538e-01 6.725225e-02 -3.104312e-01 -3.190679e-01 4.764988e-01 4.766334e-01 1.576191e-01 1.459093e-01 4.302680e-02 -5.713554e-02 -4.085771e-01
<VARIANCE> 39
 2.465624e+01 5.268699e+01 6.592698e+01 4.251425e+01 5.822544e+01 7.980534e+01 9.194657e+01 3.926672e+01 2.771092e+01 2.723539e+01 2.507804e+01 5.056437e+01 4.296066e+01 1.803125e+00 1.351843e+00 6.383389e+00 4.655374e+00 3.771784e+00 7.109846e+00 5.166042e+00 2.960206e+00 1.376647e+00 1.822179e+00 1.939111e+00 1.794118e+00 3.491931e+00 1.803444e-01 5.430364e-01 6.851198e-01 8.983312e-01 7.642989e-01 9.663345e-01 1.039900e+00 4.646428e-01 2.060536e-01 4.138828e-01 4.646876e-01 4.910329e-01 5.228893e-01
<GCONST> 1.262413e+02
<STATE> 4
<MEAN> 39
 -8.990171e+00 5.021734e+00 8.517532e+00 9.199152e-01 -2.528971e+00 -1.340732e+01 -8.459978e+00 1.539207e-02 -8.436707e+00 -2.942980e+00 -2.912688e+00 -9.168749e+00 7.648440e+01 1.434679e-01 4.762626e-01 -6.529748e-01 -1.547437e-01 -7.590483e-01 1.683502e-01 9.899807e-01 6.992075e-01 8.872367e-01 5.023464e-01 -1.023535e-01 1.965741e-01 -8.129542e-01 -6.923559e-02 -2.174578e-02 -4.743075e-01 -3.338954e-01 1.622912e-01 2.915094e-01 1.260208e-01 3.872455e-02 -2.856365e-02 -3.898942e-02 4.140338e-02 2.273681e-01 -4.655889e-02
<VARIANCE> 39
 1.140661e+01 4.373743e+01 8.354327e+01 5.990335e+01 6.266549e+01 1.100038e+02 4.765720e+01 3.395262e+01 4.229735e+01 2.630337e+01 2.329560e+01 3.011980e+01 4.257972e+01 5.263406e-01 2.104020e+00 1.966037e+00 7.805901e-01 2.037330e+00 3.443394e+00 2.397679e+00 1.671586e+00 7.661734e-01 9.955044e-01 1.044965e+00 1.977940e+00 9.537012e-01 9.891059e-02 3.336693e-01 2.717339e-01 1.916446e-01 2.796450e-01 7.577738e-01 3.473288e-01 3.049764e-01 2.019118e-01 1.682049e-01 2.661888e-01 2.692204e-01 1.226025e-01
<GCONST> 1.059489e+02
<TRANSP> 5
 0.000000e+00 1.000000e+00 0.000000e+00 0.000000e+00 0.000000e+00
 0.000000e+00 3.975947e-01 6.024053e-01 0.000000e+00 0.000000e+00
 0.000000e+00 0.000000e+00 3.826801e-01 6.173199e-01 0.000000e+00
 0.000000e+00 0.000000e+00 0.000000e+00 4.818519e-01 5.181481e-01
 0.000000e+00 0.000000e+00 0.000000e+00 0.000000e+00 0.000000e+00
<ENDHMM>
~h "h"
<BEGINHMM>
<NUMSTATES> 5
<STATE> 2
<MEAN> 39
 -1.558628e+01 -3.487891e+00 8.817376e+00 3.497434e+00 2.273993e+00 -1.296470e+01 -9.064339e+00 -1.084304e+00 -7.574986e+00 -3.571454e+00 -5.701100e+00 -5.568580e+00 8.126344e+01 3.229432e-02 1.650938e-02 -4.210771e-01 -2.857421e-01 -3.948987e-01 1.937415e-01 5.919706e-03 -9.977712e-02 4.786995e-01 3.292779e-01 6.986158e-02 3.172491e-01 -4.242588e-01 7.118707e-02 1.246197e-01 -8.354620e-02 -3.596392e-03 7.464392e-03 -8.638625e-03 -3.289774e-02 -6.783618e-02 -1.201567e-01 -3.130549e-02 5.571267e-02 -5.699252e-02 -8.933179e-03
<VARIANCE> 39
 2.008943e+01 4.241632e+01 4.892796e+01 4.298664e+01 2.907545e+01 7.128603e+01 3.945318e+01 4.821109e+01 3.904242e+01 5.008478e+01 2.039572e+01 1.577420e+01 2.479865e+01 9.421947e-01 2.052425e+00 1.768833e+00 1.863418e+00 1.736551e+00 3.163429e+00 1.867320e+00 1.822238e+00 2.153025e+00 1.519328e+00 1.215477e+00 1.260026e+00 6.626660e-01 1.734847e-01 3.974909e-01 2.291491e-01 2.484128e-01 3.111522e-01 4.981641e-01 2.999201e-01 2.617436e-01 4.186493e-01 2.920012e-01 2.274912e-01 2.238999e-01 9.038614e-02
<GCONST> 1.063748e+02
<STATE> 3
<MEAN> 39
 -1.266318e+01 -3.198901e+00 2.659578e+00 -2.885693e-01 -1.075612e+00 -4.889863e+00 -8.493486e+00 -4.611597e+00 -4.455412e+00 -1.316534e+00 -3.431634e+00 -4.133210e+00 7.498936e+01 1.398159e-01 7.274106e-01 -3.580350e-01 2.543344e-01 -4.037279e-01 2.832708e-01 4.217283e-01 2.664365e-02 -2.189648e-01 -4.863552e-01 4.344177e-02 4.975805e-03 -9.843271e-01 -4.261763e-02 1.817908e-01 4.741850e-02 7.305299e-02 1.504395e-01 -8.948408e-02 6.556071e-02 2.597586e-02 -2.067054e-01 -1.421968e-01 -3.234655e-02 -1.404093e-01 3.822087e-02
<VARIANCE> 39
 1.439911e+01 5.461961e+01 2.681570e+01 3.688399e+01 3.357175e+01 5.111849e+01 3.865851e+01 4.755235e+01 3.830031e+01 3.228875e+01 2.705108e+01 1.880576e+01 2.800970e+01 7.037327e-01 1.474745e+00 1.216622e+00 1.349081e+00 1.369969e+00 1.872575e+00 2.328343e+00 1.586196e+00 1.384095e+00 1.229546e+00 1.152732e+00 1.363483e+00 2.922668e-01 1.386147e-01 2.496783e-01 2.403015e-01 2.500321e-01 2.313268e-01 3.023070e-01 3.003631e-01 3.447920e-01 2.856821e-01 2.707297e-01 2.194576e-01 2.806324e-01 6.242813e-02
<GCONST> 1.002016e+02
<STATE> 4
<MEAN> 39
 -1.395710e+01 4.705835e+00 -1.495776e+00 -2.500091e+00 -3.699495e+00 -2.528203e+00 -3.872921e+00 -1.216915e+00 -6.480624e+00 -5.272370e+00 -4.497323e+00 -5.512578e+00 6.700661e+01 -2.123855e-01 2.064730e-01 -1.095426e-01 -6.607868e-02 2.593889e-02 6.007272e-02 2.546114e-02 -1.807981e-02 -1.055800e-01 -2.573217e-02 5.564383e-02 -8.299847e-02 -3.042327e-01 -1.866793e-02 -5.301090e-02 2.603097e-02 -3.054934e-02 5.046131e-02 -1.684639e-02 -1.658240e-02 -1.201648e-03 4.124532e-03 2.449787e-02 4.776956e-03 -1.812783e-02 8.859046e-02
<VARIANCE> 39
 1.110075e+01 2.434909e+01 1.626919e+01 2.618606e+01 2.580658e+01 2.140457e+01 2.239947e+01 2.789718e+01 1.784628e+01 1.741043e+01 1.590170e+01 1.339832e+01 1.637630e+01 2.933694e-01 1.192600e+00 8.079232e-01 1.092063e+00 1.217947e+00 1.017469e+00 1.304693e+00 1.480137e+00 1.401393e+00 1.172837e+00 1.017453e+00 9.878826e-01 3.790295e-01 7.399406e-02 2.042325e-01 1.563083e-01 2.095837e-01 2.243978e-01 1.927353e-01 2.596411e-01 2.605194e-01 2.684513e-01 2.283862e-01 1.997752e-01 1.934321e-01 1.084461e-01
<GCONST> 8.749650e+01
<TRANSP> 5
 0.000000e+00 1.000000e+00 0.000000e+00 0.000000e+00 0.000000e+00
 0.000000e+00 7.901808e-01 2.098192e-01 0.000000e+00 0.000000e+00
 0.000000e+00 0.000000e+00 6.436759e-01 3.563241e-01 0.000000e+00
 0.000000e+00 0.000000e+00 0.000000e+00 8.914804e-01 1.085196e-01
 0.000000e+00 0.000000e+00 0.000000e+00 0.000000e+00 0.000000e+00
<ENDHMM>
~h "i"
<BEGINHMM>
<NUMSTATES> 5
<STATE> 2
<MEAN> 39
 -1.119028e+01 1.773158e+00 6.059146e+00 2.874383e+00 6.463082e+00 -1.276506e+01 -1.303713e+01 -4.739562e+00 -1.187326e+01 -4.621331e+00 -2.621762e+00 -7.736413e+00 7.953231e+01 2.343721e-01 1.160437e-01 6.314076e-02 1.553853e-01 2.331716e-01 -1.715055e-01 -2.616489e-01 1.091683e-01 1.794052e-01 -1.156500e-01 -1.009070e-01 -7.659411e-02 1.076604e-01 3.523041e-03 2.187474e-02 -1.859824e-01 -1.216521e-01 -1.119691e-01 1.401627e-01 1.220124e-01 4.215362e-02 7.652794e-02 3.705349e-03 2.447819e-02 7.383622e-02 -1.282527e-01
<VARIANCE> 39
 2.473350e+01 3.076165e+01 5.660388e+01 5.931777e+01 7.040973e+01 9.807402e+01 8.480647e+01 4.716911e+01 4.900438e+01 4.222250e+01 3.748843e+01 3.188369e+01 4.348288e+01 1.776495e+00 3.131472e+00 4.985306e+00 4.768058e+00 3.993059e+00 7.873194e+00 4.565817e+00 3.842362e+00 6.430868e+00 3.819250e+00 2.244347e+00 2.219944e+00 5.067996e+00 3.108063e-01 4.986105e-01 7.320557e-01 8.086482e-01 6.454439e-01 1.207279e+00 8.016456e-01 7.816957e-01 1.251503e+00 7.926465e-01 4.835255e-01 3.994094e-01 5.910540e-01
<GCONST> 1.344015e+02
<STATE> 3
<MEAN> 39
 -8.881263e+00 3.571689e+00 3.956359e-01 -1.089966e+00 2.788672e+00 -7.354812e+00 -9.042226e+00 -4.751400e+00 -8.954039e+00 -4.258018e+00 -2.173424e+00 -5.471761e+00 7.564085e+01 1.050216e-01 5.159935e-01 -7.759005e-01 -3.003540e-01 -6.969755e-01 9.886567e-01 3.965127e-01 1.048919e-01 2.698603e-01 -2.788141e-01 -1.289003e-03 3.745593e-01 -1.072633e+00 -1.230471e-01 -1.901499e-01 2.739410e-02 8.120538e-02 -6.305666e-02 -3.092725e-01 -5.563350e-02 -1.132997e-02 -2.658168e-01 5.184297e-02 1.014547e-01 -1.483107e-02 2.542411e-01
<VARIANCE> 39
 3.087070e+01 3.148072e+01 4.989086e+01 3.574789e+01 5.549109e+01 4.743955e+01 8.240906e+01 5.201881e+01 3.200993e+01 4.735233e+01 3.835554e+01 2.813450e+01 3.958076e+01 1.135517e+00 1.862093e+00 1.864681e+00 1.954928e+00 2.365686e+00 3.207895e+00 2.939811e+00 2.293279e+00 2.359900e+00 2.247289e+00 1.943962e+00 1.438934e+00 1.549069e+00 2.039666e-01 3.660346e-01 4.043939e-01 4.584151e-01 4.032755e-01 6.627753e-01 4.756432e-01 5.184874e-01 5.678073e-01 4.199872e-01 4.137821e-01 3.303774e-01 3.568830e-01
<GCONST> 1.179261e+02
<STATE> 4
<MEAN> 39
 -8.176352e+00 6.013535e+00 -2.102512e+00 -1.090775e+00 1.797357e+00 -5.264709e+00 -8.167326e+00 -4.909477e+00 -9.077829e+00 -3.141930e+00 -1.685833e+00 -4.589962e+00 7.248112e+01 -2.743139e-01 8.311057e-02 -7.563813e-02 -1.629018e-01 -3.341459e-01 3.363926e-01 3.564788e-01 1.902903e-01 3.864033e-02 -1.335818e-01 -4.032034e-02 8.634299e-02 -2.746817e-01 -6.327565e-02 -1.314564e-01 4.573005e-02 -8.488724e-02 3.263225e-02 -8.162947e-02 -1.966785e-02 -4.145766e-02 -5.834071e-02 -2.011739e-02 -2.892796e-02 -3.558942e-02 2.630064e-01
<VARIANCE> 39
 2.046730e+01 2.270693e+01 3.073774e+01 2.359616e+01 4.210220e+01 2.275538e+01 4.122251e+01 2.696037e+01 2.256206e+01 3.306108e+01 3.152826e+01 1.639926e+01 3.860546e+01 6.281891e-01 1.574470e+00 1.387615e+00 1.777560e+00 1.716819e+00 1.574795e+00 1.896271e+00 1.650211e+00 1.660863e+00 1.671551e+00 1.671669e+00 1.140814e+00 1.585667e+00 1.083837e-01 2.706811e-01 2.081537e-01 3.126743e-01 3.126644e-01 3.440486e-01 3.148185e-01 3.295228e-01 3.624642e-01 3.319096e-01 2.687638e-01 2.136658e-01 2.645147e-01
<GCONST> 1.028933e+02
<TRANSP> 5
 0.000000e+00 1.000000e+00 0.000000e+00 0.000000e+00 0.000000e+00
 0.000000e+00 7.571671e-01 2.428329e-01 0.000000e+00 0.000000e+00
 0.000000e+00 0.000000e+00 2.863496e-01 7.136504e-01 0.000000e+00
 0.000000e+00 0.000000e+00 0.000000e+00 7.833887e-01 2.166113e-01
 0.000000e+00 0.000000e+00 0.000000e+00 0.000000e+00 0.000000e+00
<ENDHMM>
~h "j"
<BEGINHMM>
<NUMSTATES> 5
<STATE> 2
<MEAN> 39
 -4.244281e+00 9.835724e-01 -2.413125e+00 -2.296170e+00 -2.677091e+00 -5.226728e+00 -2.212853e+00 -7.191076e+00 -8.698338e+00 -6.081710e-03 -9.064717e+00 -7.397908e+00 8.435297e+01 -5.672339e-02 -1.147517e-01 -1.574272e-02 2.339657e-02 -2.254331e-01 1.695643e-02 6.493394e-01 1.305003e-01 -2.413209e-02 -6.475076e-02 4.379503e-01 1.858538e-01 -5.538237e-02 -2.200890e-02 -2.112705e-02 2.993423e-02 -3.483467e-03 4.860668e-02 -1.528198e-02 -5.332565e-02 -3.889909e-02 6.463261e-02 -3.406632e-02 -7.919878e-03 2.875546e-02 -1.877605e-02
<VARIANCE> 39
 6.271873e+00 2.037041e+01 4.597888e+01 1.362169e+01 7.777597e+01 3.119163e+01 9.696432e+01 1.294347e+02 4.554299e+01 8.261084e+01 7.902261e+01 4.602575e+01 2.922790e+01 2.790529e-01 6.941770e-01 1.560983e+00 1.046938e+00 2.891294e+00 1.507727e+00 3.026865e+00 1.314976e+00 1.813195e+00 1.576109e+00 4.373507e+00 2.480216e+00 7.333993e-01 4.856565e-02 9.144004e-02 2.157302e-01 2.137990e-01 3.681231e-01 2.758346e-01 3.561932e-01 2.360365e-01 3.446304e-01 2.935192e-01 7.784609e-01 3.697628e-01 9.579556e-02
<GCONST> 1.056942e+02
<STATE> 3
<MEAN> 39
 -5.576245e+00 3.252272e+00 4.781872e+00 -8.768975e-01 2.802122e+00 -4.172733e+00 -7.961310e+00 1.722919e+00 -5.664274e+00 -8.744906e+00 -8.688592e+00 -9.331986e+00 8.010284e+01 -2.999173e-01 -3.229342e-01 2.681194e-01 9.288792e-02 6.844326e-01 -6.174999e-02 -6.664470e-02 1.921997e-01 4.808300e-01 -3.048802e-01 4.189003e-02 1.401883e-01 2.995737e-03 -1.818556e-01 -1.395914e-01 -4.601115e-03 -1.291929e-01 5.199515e-02 -1.335827e-01 -1.260558e-01 3.043014e-02 6.917056e-02 1.093641e-01 5.901358e-02 1.647811e-02 1.186112e-01
<VARIANCE> 39
 9.902604e+00 1.747448e+01 4.938210e+01 1.814416e+01 5.566654e+01 4.905804e+01 1.373467e+02 8.062670e+01 9.258779e+01 7.740545e+01 6.564157e+01 2.517908e+01 3.339026e+01 7.902412e-01 7.907224e-01 7.990391e-01 7.835545e-01 1.003975e+00 1.241647e+00 2.304788e+00 6.224620e-01 2.497363e+00 1.454119e+00 8.178787e-01 1.074598e+00 8.689657e-01 1.448316e-01 1.186936e-01 2.203359e-01 1.295500e-01 2.961364e-01 2.010725e-01 3.707526e-01 2.878060e-01 2.552506e-01 1.912594e-01 2.498791e-01 2.037093e-01 2.145333e-01
<GCONST> 1.010969e+02
<STATE> 4
<MEAN> 39
 -1.109799e+01 9.006597e-01 8.867731e+00 2.774536e+00 1.106573e+01 -6.790058e+00 -1.571061e+01 1.251304e+00 -5.014388e+00 -2.023815e+00 -1.684159e+00 -8.927195e+00 8.112549e+01 -8.149125e-02 -1.109257e-01 -1.490927e-01 -2.634813e-01 5.879730e-01 1.506548e-01 -3.529742e-01 -5.758997e-01 -3.299034e-01 1.511180e-02 -6.021498e-02 -7.301489e-02 2.367023e-01 9.547462e-02 9.566414e-02 -1.284746e-01 -2.082589e-01 -1.796673e-01 4.044198e-02 1.659818e-01 -1.391859e-02 -2.769058e-01 -2.513751e-02 5.915302e-02 2.419682e-02 -5.052666e-02
<VARIANCE> 39
 5.464276e+01 3.084178e+01 5.247298e+01 2.781719e+01 7.317372e+01 2.826053e+01 1.396177e+02 8.060629e+01 7.270275e+01 4.176873e+01 4.772099e+01 2.193572e+01 3.331861e+01 4.764810e+00 4.779927e+00 2.248580e+00 2.022855e+00 2.895473e+00 1.513640e+00 5.419084e+00 3.882213e+00 7.044971e+00 1.581890e+00 1.737915e+00 2.040310e+00 3.237671e+00 6.841829e-01 1.083606e+00 3.393977e-01 2.228913e-01 6.211008e-01 3.380796e-01 8.975210e-01 6.276808e-01 8.353927e-01 4.142454e-01 4.108399e-01 3.187513e-01 6.032953e-01
<GCONST> 1.272350e+02
<TRANSP> 5
 0.000000e+00 1.000000e+00 0.000000e+00 0.000000e+00 0.000000e+00
 0.000000e+00 7.775311e-01 2.224689e-01 0.000000e+00 0.000000e+00
 0.000000e+00 0.000000e+00 3.454975e-01 6.545025e-01 0.000000e+00
 0.000000e+00 0.000000e+00 0.000000e+00 6.901958e-01 3.098042e-01
 0.000000e+00 0.000000e+00 0.000000e+00 0.000000e+00 0.000000e+00
<ENDHMM>
~h "k"
<BEGINHMM>
<NUMSTATES> 5
<STATE> 2
<MEAN> 39
 -9.786804e+00 2.040981e+00 -1.077875e+00 -3.646830e+00 3.541998e+00 -1.011136e+01 -6.064893e+00 -5.477113e+00 -1.513364e+01 -4.936200e+00 -1.757164e+00 -6.173179e+00 8.103937e+01 -4.132515e-01 -1.776863e-02 2.376455e-01 -1.723087e-01 -6.441454e-02 1.818510e-01 3.475958e-02 -5.702051e-02 7.110009e-02 -1.238062e-01 -1.539077e-01 -8.763637e-02 -6.909978e-02 -3.625419e-02 -4.893334e-02 3.525023e-02 1.938522e-02 -4.608582e-02 -5.492036e-02 -5.573959e-02 -4.308206e-03 -1.423583e-02 2.088556e-02 -9.437671e-03 2.014996e-03 6.991766e-02
<VARIANCE> 39
 3.359226e+01 4.158721e+01 5.200400e+01 8.309839e+01 6.939713e+01 7.857735e+01 4.578872e+01 3.277364e+01 6.686407e+01 5.445467e+01 2.941900e+01 3.380152e+01 5.833920e+01 4.662637e+00 4.088802e+00 4.547074e+00 7.746648e+00 5.148621e+00 8.457423e+00 4.497341e+00 3.336520e+00 6.670260e+00 4.440411e+00 2.404598e+00 3.084731e+00 7.519307e+00 1.027445e+00 7.095999e-01 8.924536e-01 1.453727e+00 8.856077e-01 1.530218e+00 8.948371e-01 6.380461e-01 1.221441e+00 9.361499e-01 4.976466e-01 5.976350e-01 1.204856e+00
<GCONST> 1.415738e+02
<STATE> 3
<MEAN> 39
 -1.450594e+01 1.063125e+00 2.415750e+00 -5.620039e+00 4.194574e-01 -7.685626e+00 -7.827332e+00 -8.016714e+00 -1.105956e+01 -3.425994e+00 -3.989785e+00 -5.562371e+00 8.146699e+01 1.144463e-01 -4.610965e-01 6.448975e-01 8.321090e-01 4.672624e-01 -7.821345e-01 -7.537183e-01 -6.235741e-02 -4.547143e-01 1.137097e-01 2.697133e-01 2.417438e-01 7.716116e-01 3.174040e-01 6.237547e-02 -1.851095e-01 8.596700e-02 3.212264e-02 -1.855270e-01 1.017111e-01 1.573904e-01 -1.067254e-01 1.141963e-02 1.402458e-01 2.210563e-02 -7.382062e-02
<VARIANCE> 39
 6.151863e+01 6.491253e+01 5.238326e+01 4.999862e+01 3.610567e+01 5.490957e+01 3.567235e+01 3.632955e+01 6.845811e+01 3.756665e+01 4.170895e+01 2.418329e+01 5.189023e+01 8.249811e+00 4.907286e+00 5.071538e+00 4.323732e+00 4.256942e+00 5.368440e+00 3.306616e+00 3.863544e+00 5.978824e+00 1.975458e+00 4.564632e+00 2.276092e+00 3.633687e+00 1.335930e+00 1.046916e+00 8.555425e-01 8.693880e-01 8.549433e-01 9.979316e-01 6.679482e-01 7.066218e-01 9.658828e-01 4.155923e-01 7.813969e-01 3.544192e-01 6.273372e-01
<GCONST> 1.363494e+02
<STATE> 4
<MEAN> 39
 -1.218941e+01 -1.877405e+00 2.217927e+00 -9.917315e+00 1.637249e+00 -9.362620e+00 -7.290073e+00 -7.067902e+00 -1.471739e+01 2.087985e+00 1.026270e+00 -4.817597e+00 8.601685e+01 3.079329e-01 4.023967e-02 -3.303923e-01 -1.112577e-01 -2.642128e-01 -1.995463e-01 2.100777e-01 6.018400e-01 2.492382e-01 -7.942592e-02 -8.335625e-02 3.242931e-01 -2.794070e-01 2.791222e-02 1.561955e-02 -1.407244e-01 -2.925076e-02 -1.923708e-02 5.679983e-02 5.099166e-02 5.095536e-02 6.857629e-02 1.044627e-03 -5.749374e-02 -3.301119e-02 -8.583550e-02
<VARIANCE> 39
 1.177711e+02 2.675994e+01 8.405904e+01 6.883538e+01 6.987381e+01 5.709480e+01 4.823419e+01 6.406448e+01 5.598540e+01 4.266982e+01 2.923814e+01 2.781134e+01 2.826799e+01 9.147728e+00 1.851352e+00 5.867716e+00 3.022473e+00 2.593419e+00 4.720708e+00 2.135999e+00 3.157143e+00 3.194019e+00 1.591210e+00 1.736510e+00 1.992777e+00 1.373450e+00 1.234955e+00 3.263850e-01 8.122968e-01 4.845969e-01 4.147545e-01 6.612204e-01 4.487415e-01 5.608183e-01 6.037522e-01 3.092876e-01 3.287908e-01 2.768706e-01 1.932200e-01
<GCONST> 1.256148e+02
<TRANSP> 5
 0.000000e+00 1.000000e+00 0.000000e+00 0.000000e+00 0.000000e+00
 0.000000e+00 9.462684e-01 5.373164e-02 0.000000e+00 0.000000e+00
 0.000000e+00 0.000000e+00 8.279928e-01 1.720072e-01 0.000000e+00
 0.000000e+00 0.000000e+00 0.000000e+00 8.592350e-01 1.407650e-01
 0.000000e+00 0.000000e+00 0.000000e+00 0.000000e+00 0.000000e+00
<ENDHMM>
~h "l"
<BEGINHMM>
<NUMSTATES> 5
<STATE> 2
<MEAN> 39
 -1.536221e+01 5.646629e+00 -3.003465e+00 -5.119083e+00 -3.943246e+00 -2.838239e+00 -5.760081e+00 -3.364567e+00 -8.517676e+00 -5.760003e+00 -3.902394e+00 -5.145714e+00 6.541505e+01 -1.661792e-01 2.234332e-03 2.415290e-03 4.600452e-02 -1.343560e-02 -2.299247e-02 -2.725403e-02 -6.077947e-02 5.147193e-03 3.106095e-02 -3.495089e-02 -4.339242e-02 -1.618541e-01 -3.326571e-02 -6.059404e-02 6.398934e-02 -2.834231e-02 3.085099e-02 -2.346915e-02 1.178988e-02 5.472210e-03 -1.615234e-02 2.202614e-02 3.027505e-03 -9.909044e-03 9.313615e-02
<VARIANCE> 39
 1.415951e+01 1.283246e+01 1.374668e+01 1.464468e+01 1.529926e+01 1.319976e+01 1.477463e+01 1.507062e+01 1.639372e+01 2.003498e+01 1.545903e+01 1.174415e+01 9.261407e+00 3.398243e-01 5.292339e-01 6.776958e-01 7.968279e-01 8.807374e-01 9.526338e-01 1.184046e+00 1.081517e+00 1.155664e+00 1.055205e+00 9.514217e-01 7.964796e-01 2.499905e-01 7.415460e-02 1.130486e-01 1.451788e-01 1.603018e-01 1.838275e-01 2.008880e-01 2.416312e-01 2.152868e-01 2.474677e-01 2.081960e-01 1.889358e-01 1.648550e-01 5.633590e-02
<GCONST> 7.828644e+01
<STATE> 3
<MEAN> 39
 -1.805659e+01 4.212683e+00 -1.753197e+00 -6.183191e+00 -3.355237e+00 -3.202757e+00 -5.947952e+00 -4.461082e+00 -8.564113e+00 -4.635226e+00 -4.136663e+00 -5.966874e+00 6.630675e+01 -2.279930e-01 -3.661805e-01 4.479892e-01 -2.608207e-01 1.625555e-01 -1.116083e-01 1.243980e-01 -1.061072e-01 -1.916782e-01 2.406397e-01 9.658282e-02 -8.089825e-02 5.160867e-01 6.681368e-03 -2.083508e-01 2.117940e-01 -8.553264e-02 2.706371e-02 -3.170549e-02 1.833645e-02 -4.247961e-02 -8.080705e-02 4.498048e-02 7.014582e-02 6.588932e-02 3.369770e-01
<VARIANCE> 39
 2.145857e+01 1.717273e+01 1.997631e+01 1.656073e+01 1.844471e+01 1.527815e+01 2.593063e+01 1.767623e+01 1.976712e+01 2.212192e+01 1.684163e+01 1.512812e+01 1.647190e+01 1.596812e+00 1.887836e+00 1.985517e+00 1.850574e+00 1.749460e+00 1.595808e+00 2.480323e+00 1.793911e+00 1.702240e+00 1.873398e+00 1.492320e+00 1.395761e+00 9.701585e-01 4.116716e-01 3.909351e-01 4.758522e-01 3.956528e-01 3.702830e-01 3.583079e-01 4.824393e-01 3.783266e-01 3.592586e-01 3.758389e-01 3.351289e-01 3.133944e-01 3.381623e-01
<GCONST> 1.038098e+02
<STATE> 4
<MEAN> 39
 -1.603246e+01 3.494692e+00 8.258688e-02 -6.329744e+00 -2.455950e+00 -4.201688e+00 -4.684031e+00 -3.988094e+00 -9.470176e+00 -4.351104e+00 -4.214511e+00 -5.974062e+00 7.034222e+01 6.328935e-01 -5.484934e-01 4.372284e-01 -2.019609e-01 -1.748277e-01 -4.827453e-01 1.814359e-02 -2.377409e-01 -5.399716e-01 1.005256e-01 1.437668e-01 4.194662e-03 1.507786e+00 4.425608e-03 -1.441507e-01 -5.049973e-03 -5.793447e-02 -4.526880e-02 -3.910861e-02 5.964208e-03 2.865596e-02 -8.026877e-03 3.918198e-02 1.078626e-01 8.183356e-02 1.577072e-01
<VARIANCE> 39
 5.280641e+01 3.411374e+01 2.935536e+01 3.779377e+01 3.491408e+01 3.470369e+01 4.853376e+01 3.813474e+01 3.796177e+01 2.944271e+01 2.694176e+01 2.037640e+01 4.325121e+01 4.086109e+00 3.857962e+00 3.781340e+00 3.319259e+00 2.870834e+00 3.704032e+00 3.542587e+00 3.671442e+00 3.450280e+00 2.864861e+00 2.496018e+00 2.007793e+00 3.531063e+00 6.073213e-01 7.078460e-01 7.750040e-01 6.709621e-01 5.139540e-01 6.471860e-01 6.083310e-01 6.352818e-01 5.587887e-01 4.999984e-01 4.849379e-01 3.691827e-01 5.926903e-01
<GCONST> 1.262157e+02
<TRANSP> 5
 0.000000e+00 1.000000e+00 0.000000e+00 0.000000e+00 0.000000e+00
 0.000000e+00 9.052623e-01 9.473775e-02 0.000000e+00 0.000000e+00
 0.000000e+00 0.000000e+00 5.623444e-01 4.376556e-01 0.000000e+00
 0.000000e+00 0.000000e+00 0.000000e+00 6.403936e-01 3.596065e-01
 0.000000e+00 0.000000e+00 0.000000e+00 0.000000e+00 0.000000e+00
<ENDHMM>
~h "m"
<BEGINHMM>
<NUMSTATES> 5
<STATE> 2
<MEAN> 39
 -5.082165e+00 -3.057839e-01 -4.669131e+00 -5.408290e+00 1.203463e+00 -1.131669e+01 -4.147065e+00 -3.159896e+00 -1.489539e+01 -1.923037e+00 -1.401240e-01 -4.376107e+00 8.492268e+01 -6.072216e-02 -5.241862e-02 -2.736853e-01 -4.441483e-01 -2.580252e-01 5.932084e-01 7.512276e-01 2.696376e-02 4.434019e-02 1.268480e-01 4.652566e-01 2.158423e-01 -3.022143e-01 -7.978308e-02 4.985262e-02 9.816322e-02 6.808542e-02 6.070178e-02 6.975063e-02 -6.723615e-02 -5.039187e-03 5.053741e-02 -3.717253e-02 -5.727457e-02 -6.663790e-02 -8.231091e-02
<VARIANCE> 39
 1.241512e+01 2.082386e+01 1.983397e+01 2.896282e+01 6.070317e+01 4.856097e+01 8.401043e+01 5.036867e+01 6.133635e+01 6.356548e+01 5.013176e+01 3.952742e+01 3.046403e+01 3.834126e-01 8.945398e-01 1.450572e+00 2.039009e+00 2.674737e+00 1.734956e+00 1.950686e+00 1.613565e+00 1.744564e+00 1.479257e+00 3.047365e+00 1.715391e+00 9.130228e-01 5.240107e-02 1.157367e-01 1.987266e-01 3.171546e-01 4.210472e-01 2.647065e-01 3.042606e-01 2.484416e-01 2.913510e-01 2.755306e-01 4.385181e-01 2.910689e-01 8.571666e-02
<GCONST> 1.047246e+02
<STATE> 3
<MEAN> 39
 -7.863501e+00 1.922040e+00 -4.654613e+00 -6.600842e+00 3.112617e+00 -3.294913e+00 3.937858e-01 -3.623810e+00 -1.156930e+01 -1.892535e+00 9.394732e-01 -4.264746e+00 7.938306e+01 -2.985422e-01 3.404806e-01 2.105663e-01 2.209444e-01 -2.254296e-02 6.087976e-01 -1.813358e-02 -1.938199e-01 2.699017e-01 -1.411386e-01 -1.082429e-01 1.091156e-01 -9.757169e-01 -2.805748e-02 3.490225e-02 1.091947e-02 8.466849e-04 -9.364274e-02 -9.373261e-02 -8.937453e-02 2.588746e-02 4.755044e-03 -6.897077e-03 -4.638307e-02 -8.459687e-03 -3.092257e-02
<VARIANCE> 39
 1.041804e+01 2.544316e+01 2.769925e+01 1.977400e+01 4.207614e+01 3.669605e+01 7.739967e+01 3.204012e+01 2.604216e+01 4.108594e+01 3.966013e+01 2.404679e+01 3.821333e+01 2.442400e-01 9.946643e-01 1.070956e+00 1.027305e+00 1.517684e+00 1.568094e+00 1.572250e+00 9.070958e-01 1.234406e+00 1.134428e+00 1.399818e+00 1.103200e+00 3.916729e-01 3.977718e-02 1.727066e-01 1.705747e-01 2.010833e-01 2.550414e-01 2.294505e-01 2.735907e-01 1.588038e-01 2.082151e-01 1.923271e-01 2.224847e-01 1.971902e-01 4.327760e-02
<GCONST> 9.212431e+01
<STATE> 4
<MEAN> 39
 -1.407659e+01 5.204380e+00 -3.635090e+00 -4.818256e+00 -2.737914e+00 -2.187833e+00 -4.963405e+00 -3.665424e+00 -8.433408e+00 -4.039340e+00 -1.717443e+00 -3.559618e+00 6.641481e+01 -3.307213e-01 2.673369e-02 5.510658e-02 -5.138379e-03 -1.571722e-01 -1.229565e-02 -1.426933e-01 2.145496e-02 5.431865e-02 -1.728529e-02 -8.461791e-02 -1.006165e-01 -3.171861e-01 2.028129e-02 -5.029119e-02 5.315728e-03 -2.289974e-03 3.232756e-02 -3.181139e-02 2.474156e-02 2.798012e-03 -2.964385e-02 1.054830e-02 6.657220e-03 -3.666164e-03 6.630930e-02
<VARIANCE> 39
 1.250850e+01 1.287690e+01 1.262524e+01 1.189996e+01 2.452946e+01 1.915288e+01 2.640492e+01 2.019846e+01 1.792988e+01 1.834830e+01 1.601910e+01 1.316248e+01 1.315166e+01 2.511102e-01 7.456576e-01 8.061347e-01 8.581330e-01 1.123104e+00 1.305320e+00 1.278296e+00 1.177393e+00 1.267967e+00 1.046598e+00 1.176856e+00 9.083234e-01 2.825564e-01 4.896979e-02 1.354508e-01 1.499263e-01 1.727816e-01 1.992531e-01 2.514839e-01 2.439120e-01 2.478840e-01 2.622876e-01 1.982480e-01 2.416460e-01 1.835894e-01 4.145022e-02
<GCONST> 8.203627e+01
<TRANSP> 5
 0.000000e+00 1.000000e+00 0.000000e+00 0.000000e+00 0.000000e+00
 0.000000e+00 8.223607e-01 1.776393e-01 0.000000e+00 0.000000e+00
 0.000000e+00 0.000000e+00 8.467994e-01 1.532006e-01 0.000000e+00
 0.000000e+00 0.000000e+00 0.000000e+00 9.220958e-01 7.790422e-02
 0.000000e+00 0.000000e+00 0.000000e+00 0.000000e+00 0.000000e+00
<ENDHMM>
~h "n"
<BEGINHMM>
<NUMSTATES> 5
<STATE> 2
<MEAN> 39
 -2.438510e+00 2.757978e-01 -3.603877e+00 -6.726350e+00 -5.673392e+00 -1.385285e+01 -5.197271e+00 6.673686e+00 -6.406714e+00 -8.280549e+00 -1.779810e+00 -3.669799e+00 8.538879e+01 8.987679e-02 1.504197e-02 -4.314583e-01 -3.701102e-01 -4.157204e-01 -1.020818e-01 5.241406e-01 4.898153e-01 -7.612775e-02 1.343732e-01 3.708887e-01 8.309642e-02 -8.229892e-02 -6.559101e-02 1.225846e-01 1.067595e-01 7.158579e-02 5.896729e-02 1.628358e-01 1.538562e-02 -1.711527e-01 6.493665e-02 1.111042e-01 -1.260017e-01 -1.043826e-01 -1.889439e-01
<VARIANCE> 39
 5.626820e+00 1.941776e+01 2.632489e+01 2.663854e+01 7.729424e+01 7.325979e+01 5.961621e+01 8.262858e+01 8.012445e+01 7.317993e+01 4.469034e+01 2.270555e+01 1.945762e+01 2.436698e-01 1.574776e+00 1.578918e+00 1.903916e+00 2.434153e+00 3.094157e+00 3.261155e+00 3.059917e+00 2.816330e+00 1.406404e+00 3.133726e+00 1.882557e+00 1.672324e+00 4.397611e-02 1.629688e-01 2.319642e-01 2.926998e-01 3.708273e-01 3.599662e-01 4.611876e-01 4.751906e-01 4.796774e-01 2.300392e-01 5.504722e-01 3.334917e-01 1.187007e-01
<GCONST> 1.095725e+02
<STATE> 3
<MEAN> 39
 -2.823786e+00 1.622294e+00 -6.140695e+00 -8.008100e+00 -6.112855e+00 -1.461084e+01 3.449174e-01 6.403754e+00 -1.020382e+01 -5.246216e+00 4.048874e-01 -4.771233e+00 8.291431e+01 -2.780170e-01 5.187433e-01 2.683908e-01 1.833542e-01 3.301834e-02 7.969502e-01 1.468356e-01 -4.872259e-01 3.143728e-01 2.432154e-01 -1.879721e-01 9.144120e-02 -1.077606e+00 -7.575668e-02 -2.531203e-02 2.839892e-02 3.050484e-02 -2.142444e-02 2.434186e-02 -1.038837e-01 -6.424043e-02 2.750606e-02 9.509806e-03 -2.399646e-02 2.294290e-02 -6.150601e-02
<VARIANCE> 39
 7.965734e+00 1.926249e+01 2.573347e+01 2.037470e+01 5.349083e+01 9.167513e+01 4.586995e+01 4.646532e+01 5.416856e+01 3.151702e+01 2.192389e+01 1.892039e+01 3.123317e+01 3.979279e-01 1.040544e+00 9.758355e-01 9.314259e-01 1.340711e+00 2.456386e+00 1.496028e+00 1.323673e+00 1.346880e+00 8.849288e-01 1.128517e+00 1.118214e+00 1.499942e+00 4.803717e-02 1.502602e-01 1.607393e-01 1.785104e-01 2.073965e-01 3.566658e-01 2.503701e-01 2.332636e-01 1.902629e-01 1.605376e-01 2.058309e-01 1.734022e-01 1.677819e-01
<GCONST> 9.522507e+01
<STATE> 4
<MEAN> 39
 -9.311277e+00 6.366593e+00 -3.182039e+00 -5.663414e+00 -4.515841e+00 -4.800014e+00 -2.599109e+00 1.947465e+00 -6.760770e+00 -4.915202e+00 -2.341036e+00 -4.576378e+00 7.041113e+01 -4.541328e-01 5.074949e-02 1.513147e-02 1.963824e-04 -5.835127e-02 1.421689e-01 -2.820820e-03 -1.714283e-01 5.585215e-02 1.444648e-01 1.295865e-02 -2.202804e-02 -4.612313e-01 1.713215e-02 -5.736701e-02 1.656321e-02 -6.544890e-03 3.475007e-02 -6.855739e-02 -3.668517e-02 -2.186855e-02 -6.378571e-02 -2.749291e-02 -5.921023e-03 5.165669e-03 9.915666e-02
<VARIANCE> 39
 1.933415e+01 1.300469e+01 1.525292e+01 1.237789e+01 4.459728e+01 3.154031e+01 2.255341e+01 3.522169e+01 1.801883e+01 3.053706e+01 1.792638e+01 1.522139e+01 3.717903e+01 4.099645e-01 5.117962e-01 6.624351e-01 6.620701e-01 1.380108e+00 1.508128e+00 1.076326e+00 1.078286e+00 1.128445e+00 9.307159e-01 1.002668e+00 1.025368e+00 4.191167e-01 5.757856e-02 8.440028e-02 1.100662e-01 1.300596e-01 2.237447e-01 2.810524e-01 2.091283e-01 2.066883e-01 2.016454e-01 1.583236e-01 1.899812e-01 2.174870e-01 5.849825e-02
<GCONST> 8.465941e+01
<TRANSP> 5
 0.000000e+00 1.000000e+00 0.000000e+00 0.000000e+00 0.000000e+00
 0.000000e+00 7.705266e-01 2.294734e-01 0.000000e+00 0.000000e+00
 0.000000e+00 0.000000e+00 7.622392e-01 2.377608e-01 0.000000e+00
 0.000000e+00 0.000000e+00 0.000000e+00 8.040249e-01 1.959751e-01
 0.000000e+00 0.000000e+00 0.000000e+00 0.000000e+00 0.000000e+00
<ENDHMM>
~h "o"
<BEGINHMM>
<NUMSTATES> 5
<STATE> 2
<MEAN> 39
 -4.096215e+00 4.350646e+00 -2.006693e+00 -9.747355e+00 -1.045633e+01 -9.860264e+00 1.976472e+00 1.984251e+00 -3.118640e+00 -1.826289e+00 -2.576650e+00 -8.327835e+00 7.901326e+01 -2.811948e-01 3.006794e-01 1.979518e-01 3.570040e-01 1.332995e-01 4.698818e-01 -1.405420e-01 -5.131796e-02 9.128877e-02 2.479198e-01 1.676490e-01 -4.511802e-02 -8.410020e-01 -2.567509e-02 -1.710678e-02 -7.573427e-02 6.337749e-03 5.656436e-02 2.247046e-02 -5.060294e-02 6.188108e-03 8.133464e-03 2.405169e-02 -5.149946e-03 4.695588e-02 -1.724117e-02
<VARIANCE> 39
 7.616719e+00 1.229732e+01 9.903641e+00 2.535450e+01 3.488287e+01 4.281898e+01 9.834777e+01 2.273209e+01 2.148559e+01 1.164523e+01 1.532411e+01 2.837457e+01 2.894585e+01 2.775937e-01 4.950516e-01 5.871295e-01 7.417679e-01 1.570070e+00 1.391095e+00 1.004502e+00 1.002272e+00 7.214453e-01 6.688232e-01 9.396998e-01 6.442645e-01 2.909454e-01 3.794614e-02 8.418534e-02 9.720165e-02 1.608710e-01 2.209100e-01 2.241806e-01 1.653344e-01 1.530411e-01 1.531450e-01 1.220692e-01 1.507151e-01 1.044975e-01 3.239870e-02
<GCONST> 7.908682e+01
<STATE> 3
<MEAN> 39
 -1.045689e+01 7.207807e+00 -2.341605e+00 -4.508150e+00 -6.346651e+00 -4.720387e+00 -3.883636e+00 2.314081e+00 -6.314069e-01 1.456655e+00 -4.462599e-01 -4.734022e+00 6.765717e+01 -6.575104e-01 1.634104e-01 2.294789e-02 -1.791402e-01 -3.146470e-02 1.277083e-01 -1.699934e-01 -3.657032e-01 -8.018729e-02 6.679738e-02 2.259223e-02 8.711857e-02 -5.110102e-01 2.405074e-02 3.222726e-02 6.125244e-02 1.694961e-02 8.728791e-03 -4.059685e-02 1.728613e-02 -2.727496e-02 -8.462335e-02 -1.337577e-01 -6.630097e-02 1.983277e-03 4.325069e-02
<VARIANCE> 39
 6.101721e+00 2.242705e+01 2.301512e+01 1.001591e+01 2.709384e+01 2.062167e+01 1.830144e+01 1.963210e+01 2.065423e+01 1.114198e+01 9.587698e+00 1.165108e+01 3.028468e+00 1.431551e-01 5.717809e-01 7.168924e-01 5.530856e-01 9.939150e-01 8.988401e-01 9.311686e-01 6.329414e-01 9.589765e-01 1.047895e+00 1.004686e+00 7.348531e-01 1.125619e-01 2.898563e-02 8.220325e-02 1.052296e-01 1.131760e-01 1.766474e-01 1.693820e-01 1.598928e-01 1.086148e-01 1.921990e-01 1.889537e-01 2.314711e-01 1.507678e-01 2.019046e-02
<GCONST> 7.035101e+01
<STATE> 4
<MEAN> 39
 -1.671423e+01 6.920975e+00 -1.799014e+00 -3.452555e+00 -4.137744e+00 -2.392393e+00 -4.618285e+00 -1.285812e+00 -5.453298e+00 -2.605680e+00 -1.822169e+00 -4.458879e+00 6.313079e+01 -1.704392e-01 -1.202413e-01 -5.661275e-02 7.720979e-02 9.013423e-02 8.090447e-02 -4.018126e-02 -1.025007e-01 -1.616378e-01 -1.665121e-01 -6.032035e-02 -1.302382e-02 -1.069987e-01 1.369892e-02 -2.509721e-02 -2.235318e-03 -1.932060e-02 -9.997025e-03 -1.540962e-02 2.198722e-05 1.262006e-03 -1.400450e-02 8.621151e-04 -9.076240e-03 -1.923300e-02 2.898747e-02
<VARIANCE> 39
 3.935881e+00 4.179246e+00 7.936084e+00 6.874633e+00 8.642048e+00 6.937591e+00 8.693691e+00 8.994508e+00 1.091937e+01 8.945365e+00 6.770108e+00 5.750528e+00 1.927402e+00 1.122462e-01 2.100879e-01 3.484558e-01 4.120812e-01 5.798630e-01 5.643685e-01 7.066122e-01 6.916804e-01 6.278743e-01 7.125898e-01 7.678522e-01 6.467271e-01 5.857122e-02 1.859909e-02 4.246312e-02 7.168641e-02 7.830304e-02 1.202818e-01 1.177516e-01 1.437330e-01 1.294295e-01 1.261716e-01 1.428921e-01 1.608953e-01 1.379123e-01 1.062108e-02
<GCONST> 5.102972e+01
<TRANSP> 5
 0.000000e+00 1.000000e+00 0.000000e+00 0.000000e+00 0.000000e+00
 0.000000e+00 8.942043e-01 1.057957e-01 0.000000e+00 0.000000e+00
 0.000000e+00 0.000000e+00 8.773652e-01 1.226348e-01 0.000000e+00
 0.000000e+00 0.000000e+00 0.000000e+00 9.507338e-01 4.926620e-02
 0.000000e+00 0.000000e+00 0.000000e+00 0.000000e+00 0.000000e+00
<ENDHMM>
~h "p"
<BEGINHMM>
<NUMSTATES> 5
<STATE> 2
<MEAN> 39
 -9.170084e+00 1.880127e+00 -3.681307e+00 -3.849416e+00 -1.963663e-01 -7.242880e+00 -6.245879e+00 -4.672827e+00 -1.139931e+01 -1.216191e+00 -1.002531e+00 -6.078833e+00 7.681442e+01 6.613278e-01 -2.192962e-01 2.183536e-01 2.073176e-01 1.718825e-01 -9.916297e-02 2.393177e-01 -3.338901e-01 -2.977451e-01 -2.234508e-01 -3.593088e-01 -2.134519e-01 6.896030e-01 8.727140e-02 2.303462e-02 2.461533e-02 -8.483388e-02 -3.575951e-02 2.134765e-02 5.932786e-03 6.992082e-02 -1.207505e-01 -2.069494e-01 -2.352149e-01 -1.246911e-01 1.242325e-01
<VARIANCE> 39
 3.659416e+01 5.271125e+01 2.341212e+01 3.822741e+01 3.776914e+01 5.849103e+01 3.463519e+01 3.996490e+01 5.813778e+01 8.606805e+01 2.127136e+01 2.012870e+01 1.062546e+02 2.655154e+00 3.665488e+00 1.742108e+00 3.122058e+00 3.133159e+00 3.395577e+00 3.120653e+00 3.381107e+00 6.539364e+00 4.453843e+00 2.564786e+00 2.160356e+00 6.063066e+00 3.864523e-01 6.989977e-01 3.700201e-01 4.957896e-01 4.931346e-01 7.581619e-01 5.008491e-01 7.062454e-01 1.070982e+00 6.124936e-01 4.599639e-01 4.249075e-01 7.482224e-01
<GCONST> 1.284191e+02
<STATE> 3
<MEAN> 39
 -6.215169e+00 5.105155e+00 -2.043134e+00 -2.395968e+00 1.018428e+00 -6.974350e+00 -5.753615e+00 -3.562219e+00 -1.094801e+01 -5.401046e+00 -5.262560e+00 -7.621812e+00 7.598839e+01 -1.166547e-01 3.656178e-01 1.379620e-01 2.283983e-03 -3.145310e-01 3.116852e-01 -1.064297e-01 2.765221e-01 5.838545e-01 -2.333784e-01 -3.590078e-01 1.455528e-02 -3.488542e-01 -1.769159e-01 -1.044230e-01 -2.902944e-02 -1.004667e-01 -7.893549e-02 -2.578055e-02 -2.412870e-02 -1.456093e-02 5.258393e-02 1.185892e-01 1.734450e-01 8.828019e-02 6.829335e-02
<VARIANCE> 39
 1.262076e+01 2.477149e+01 1.948275e+01 2.773820e+01 4.973779e+01 3.169390e+01 5.492120e+01 3.058289e+01 5.978169e+01 7.422522e+01 4.301690e+01 3.122720e+01 4.925834e+01 1.722862e+00 2.477507e+00 1.595445e+00 1.876394e+00 3.393838e+00 3.926678e+00 2.094253e+00 1.870723e+00 3.826224e+00 2.707625e+00 2.411561e+00 2.106766e+00 4.459529e+00 2.051449e-01 3.982107e-01 3.440138e-01 3.629460e-01 4.920264e-01 5.800697e-01 4.043273e-01 3.776806e-01 7.264837e-01 5.426249e-01 4.236346e-01 4.057495e-01 5.308355e-01
<GCONST> 1.189195e+02
<STATE> 4
<MEAN> 39
 -7.940269e+00 3.148458e+00 -2.205819e+00 -4.400149e+00 -6.037945e+00 -8.949300e+00 -3.687977e+00 6.303775e-01 -5.671122e+00 -5.974309e+00 -5.201488e+00 -4.935740e+00 7.829633e+01 3.466728e-02 -5.818073e-01 -2.210334e-01 -3.478768e-01 -2.589533e-01 -5.328038e-01 6.638825e-03 -1.392922e-02 -2.773071e-01 1.036216e-01 2.598059e-01 2.729302e-02 8.655984e-01 1.278815e-01 -2.490994e-02 -2.525935e-02 6.326108e-02 1.299789e-01 -1.181511e-01 2.671595e-02 7.841147e-02 -1.931367e-01 8.568088e-03 3.587263e-02 -7.662562e-02 6.640701e-02
<VARIANCE> 39
 4.041516e+01 6.255843e+01 5.843285e+01 3.870063e+01 7.060381e+01 9.256864e+01 4.634285e+01 6.458879e+01 5.128351e+01 3.514956e+01 2.355984e+01 3.051087e+01 8.409508e+01 3.916746e+00 5.455049e+00 4.034019e+00 3.591883e+00 4.392400e+00 6.249665e+00 3.874270e+00 3.380847e+00 4.479222e+00 2.503467e+00 2.041704e+00 2.725183e+00 7.758685e+00 6.792145e-01 8.356389e-01 6.854169e-01 6.193620e-01 7.180364e-01 1.011596e+00 7.330222e-01 5.967547e-01 7.378610e-01 5.128012e-01 3.445486e-01 4.631015e-01 1.194117e+00
<GCONST> 1.351348e+02
<TRANSP> 5
 0.000000e+00 1.000000e+00 0.000000e+00 0.000000e+00 0.000000e+00
 0.000000e+00 7.434061e-01 2.565939e-01 0.000000e+00 0.000000e+00
 0.000000e+00 0.000000e+00 8.522834e-01 1.477166e-01 0.000000e+00
 0.000000e+00 0.000000e+00 0.000000e+00 8.952167e-01 1.047833e-01
 0.000000e+00 0.000000e+00 0.000000e+00 0.000000e+00 0.000000e+00
<ENDHMM>
~h "r"
<BEGINHMM>
<NUMSTATES> 5
<STATE> 2
<MEAN> 39
 -7.664065e+00 -1.547517e+00 -5.961312e+00 -6.108992e+00 1.660590e+00 -1.124967e+01 -1.061991e+01 -6.459033e+00 -1.355243e+01 1.535866e+00 3.788457e+00 -4.742877e+00 8.517667e+01 -2.180391e-01 4.790936e-01 2.766745e-01 4.724322e-01 7.145273e-01 -3.642210e-02 -2.045871e-01 -3.088414e-01 -6.370860e-02 -4.172977e-01 -5.389837e-02 9.579324e-02 -6.900493e-01 -1.376207e-01 1.458842e-01 1.096691e-01 1.097798e-02 -7.206190e-02 2.466849e-01 2.670865e-01 8.895058e-02 1.437592e-01 -1.211485e-01 -2.524908e-01 -2.885807e-02 -1.332629e-01
<VARIANCE> 39
 1.995232e+01 2.066743e+01 1.636893e+01 2.061327e+01 2.179757e+01 4.032545e+01 3.822310e+01 3.735050e+01 4.087560e+01 6.275327e+01 2.865249e+01 2.135274e+01 6.158932e+01 1.583398e+00 1.424481e+00 2.383780e+00 1.721042e+00 2.533743e+00 3.000314e+00 2.551336e+00 1.920406e+00 3.238075e+00 2.428109e+00 2.578438e+00 1.781377e+00 1.876279e+00 3.803721e-01 2.463650e-01 3.813396e-01 2.627141e-01 3.240444e-01 6.322466e-01 4.497760e-01 4.164618e-01 6.878948e-01 4.723497e-01 4.346008e-01 4.588793e-01 4.414208e-01
<GCONST> 1.145253e+02
<STATE> 3
<MEAN> 39
 -1.055860e+01 6.307183e-01 -3.291031e+00 -5.820772e+00 2.656855e+00 -8.926142e+00 -8.017657e+00 -4.654766e+00 -1.249408e+01 -2.606670e+00 1.670841e+00 -3.953749e+00 8.112844e+01 -3.960474e-01 6.915245e-01 5.820488e-01 4.113006e-01 -1.186661e-01 5.462792e-01 3.384519e-01 5.879889e-02 5.126373e-01 -1.433733e-01 -6.778216e-01 -2.787773e-01 -1.011289e+00 1.706273e-01 -2.449794e-02 5.956948e-02 4.841265e-02 -2.888009e-01 6.407572e-02 8.275772e-02 7.828062e-02 1.398450e-01 8.879319e-02 -1.470865e-01 -2.035211e-02 -9.205951e-02
<VARIANCE> 39
 3.596006e+01 3.566120e+01 3.568901e+01 3.886690e+01 3.344289e+01 5.028502e+01 2.916704e+01 4.449372e+01 4.433952e+01 5.182055e+01 3.222105e+01 2.184187e+01 6.222289e+01 2.928995e+00 2.893748e+00 3.393745e+00 2.621007e+00 2.524821e+00 3.956464e+00 2.308522e+00 3.115777e+00 4.237046e+00 3.192045e+00 2.679477e+00 2.480392e+00 3.572377e+00 5.450581e-01 4.141959e-01 6.015921e-01 5.092105e-01 6.712905e-01 8.395563e-01 4.621649e-01 7.026339e-01 1.011728e+00 5.574316e-01 5.127340e-01 4.886544e-01 5.548421e-01
<GCONST> 1.265451e+02
<STATE> 4
<MEAN> 39
 -1.038158e+01 1.622909e+00 1.710683e+00 -2.796255e+00 1.159191e+00 -9.484529e+00 -7.168369e+00 -3.401725e+00 -1.321188e+01 -5.350756e+00 -2.099836e+00 -7.394311e+00 7.955595e+01 3.531464e-01 -1.487420e-02 -1.748508e-02 9.736970e-02 -3.118209e-01 -2.438651e-02 2.542191e-01 4.632063e-01 1.276567e-01 -4.054906e-02 -9.936226e-02 -8.257494e-02 -1.556809e-01 5.117320e-02 -9.105515e-02 -2.007121e-01 -8.164086e-02 -8.530062e-02 -9.929306e-02 -1.589828e-02 6.750657e-02 2.512402e-02 8.912194e-02 1.158732e-01 6.996144e-02 9.145737e-04
<VARIANCE> 39
 3.709704e+01 5.215048e+01 5.616792e+01 6.936273e+01 7.530067e+01 7.740086e+01 4.015759e+01 5.274953e+01 5.879357e+01 4.403937e+01 3.128695e+01 3.517404e+01 6.521169e+01 3.795999e+00 4.680429e+00 3.691957e+00 3.767462e+00 4.865591e+00 9.173118e+00 3.529999e+00 6.006500e+00 7.787840e+00 2.872419e+00 3.199375e+00 3.839258e+00 9.365976e+00 6.834724e-01 7.242935e-01 6.440452e-01 6.172026e-01 8.516203e-01 1.442696e+00 7.303420e-01 1.157481e+00 1.257015e+00 5.372546e-01 6.076642e-01 7.233338e-01 1.058765e+00
<GCONST> 1.403520e+02
<TRANSP> 5
 0.000000e+00 1.000000e+00 0.000000e+00 0.000000e+00 0.000000e+00
 0.000000e+00 6.996354e-01 3.003646e-01 0.000000e+00 0.000000e+00
 0.000000e+00 0.000000e+00 5.955188e-01 4.044812e-01 0.000000e+00
 0.000000e+00 0.000000e+00 0.000000e+00 7.823335e-01 2.176665e-01
 0.000000e+00 0.000000e+00 0.000000e+00 0.000000e+00 0.000000e+00
<ENDHMM>
~h "s"
<BEGINHMM>
<NUMSTATES> 5
<STATE> 2
<MEAN> 39
 -1.445318e+01 6.010833e+00 -2.759611e+00 -5.227546e+00 -3.014519e+00 -3.971131e+00 -6.039239e+00 -4.288335e+00 -9.387680e+00 -6.028337e+00 -5.218706e+00 -7.096419e+00 6.755324e+01 -2.858169e-01 -1.134738e-01 -6.865346e-02 -2.252663e-02 5.585360e-02 9.899525e-02 -2.974011e-02 -8.239809e-02 4.588435e-02 9.164520e-02 4.228740e-02 9.184565e-02 -1.309738e-01 -4.143257e-02 -4.522125e-02 6.562006e-02 -2.838707e-02 1.748947e-02 -2.269517e-02 -5.258973e-03 -2.263415e-02 -2.536986e-03 1.402495e-02 4.021954e-03 2.155949e-02 7.997791e-02
<VARIANCE> 39
 1.918835e+01 1.948210e+01 2.335274e+01 1.658896e+01 1.502588e+01 2.226966e+01 1.261861e+01 1.522269e+01 1.520931e+01 2.401728e+01 1.638942e+01 1.636300e+01 3.298903e+01 4.725530e-01 7.638232e-01 1.017257e+00 9.586831e-01 1.310022e+00 1.363140e+00 1.150487e+00 1.125017e+00 1.321111e+00 1.089105e+00 1.098309e+00 7.835966e-01 5.174369e-01 9.555299e-02 1.470247e-01 1.793870e-01 1.898729e-01 2.488341e-01 2.833523e-01 2.323744e-01 2.236077e-01 2.365505e-01 1.890100e-01 2.026968e-01 1.414437e-01 9.749104e-02
<GCONST> 8.672694e+01
<STATE> 3
<MEAN> 39
 -1.705861e+01 4.358591e+00 -3.083554e+00 -6.826073e+00 -3.535966e+00 -3.979906e+00 -6.199125e+00 -3.506745e+00 -9.352432e+00 -4.350224e+00 -2.833237e+00 -5.525559e+00 6.908540e+01 -7.267503e-01 -5.220463e-01 6.117510e-01 -4.314185e-01 1.803352e-01 -3.205828e-02 -1.316231e-01 -2.956582e-01 5.017224e-02 1.884141e-01 -1.888052e-01 1.162704e-01 6.389133e-01 -5.381361e-02 -2.483568e-01 2.400451e-01 -6.697038e-02 -5.573659e-02 -5.867404e-02 -2.216615e-02 -4.051933e-02 -3.939734e-02 -2.439853e-02 -3.791056e-02 3.738721e-02 1.855364e-01
<VARIANCE> 39
 3.011744e+01 2.166534e+01 1.819412e+01 1.514005e+01 1.985828e+01 1.627202e+01 1.596662e+01 2.048414e+01 2.257794e+01 2.854640e+01 1.946477e+01 1.912156e+01 7.724200e+01 1.730762e+00 2.173655e+00 2.347214e+00 2.203748e+00 2.359112e+00 1.892682e+00 1.793387e+00 1.772529e+00 1.499936e+00 1.741432e+00 1.194248e+00 1.346848e+00 1.483700e+00 3.294242e-01 3.012435e-01 4.197174e-01 3.725327e-01 3.631735e-01 3.172119e-01 3.039981e-01 3.447613e-01 3.854842e-01 3.253007e-01 2.965931e-01 2.858303e-01 3.064986e-01
<GCONST> 1.052216e+02
<STATE> 4
<MEAN> 39
 -2.201502e+01 -2.065420e-01 2.276485e+00 -8.924558e+00 -2.812645e+00 -3.171653e+00 -5.264234e+00 -4.530873e+00 -8.509644e+00 -3.921595e+00 -4.067428e+00 -4.319443e+00 7.258134e+01 5.412155e-02 -2.433662e-01 6.175835e-02 -1.066457e-01 -9.838690e-02 -1.304085e-01 6.506669e-02 -6.806833e-02 -9.540375e-02 1.416387e-01 1.131653e-02 2.381563e-02 2.339925e-01 3.179604e-01 2.288475e-01 -2.742261e-01 1.614927e-01 -6.508810e-02 -3.438636e-02 1.053599e-02 4.772019e-02 -7.645710e-02 -4.930117e-03 8.301686e-02 -7.343293e-02 -2.147676e-01
<VARIANCE> 39
 4.355575e+01 4.527987e+01 5.148661e+01 3.235202e+01 3.327679e+01 2.755583e+01 3.208186e+01 2.218428e+01 2.369978e+01 3.021481e+01 2.136110e+01 1.996736e+01 6.447950e+01 3.741333e+00 3.618768e+00 4.204338e+00 3.147861e+00 2.246998e+00 2.445931e+00 2.856142e+00 2.053781e+00 2.357070e+00 2.276732e+00 1.556182e+00 1.624617e+00 3.064723e+00 5.895969e-01 6.726156e-01 6.470397e-01 6.499462e-01 5.061402e-01 4.952902e-01 6.148733e-01 4.536874e-01 4.561493e-01 4.548336e-01 3.535533e-01 3.405787e-01 4.631600e-01
<GCONST> 1.203453e+02
<TRANSP> 5
 0.000000e+00 1.000000e+00 0.000000e+00 0.000000e+00 0.000000e+00
 0.000000e+00 8.024341e-01 1.975659e-01 0.000000e+00 0.000000e+00
 0.000000e+00 0.000000e+00 3.308350e-01 6.691650e-01 0.000000e+00
 0.000000e+00 0.000000e+00 0.000000e+00 7.357590e-01 2.642411e-01
 0.000000e+00 0.000000e+00 0.000000e+00 0.000000e+00 0.000000e+00
<ENDHMM>
~h "t"
<BEGINHMM>
<NUMSTATES> 5
<STATE> 2
<MEAN> 39
 -7.000228e+00 -5.529810e-01 -5.044635e+00 -7.583197e+00 -2.923602e+00 -1.221511e+01 -4.346642e+00 -8.893750e-01 -1.350950e+01 -4.715137e-01 1.682220e-01 -5.801538e+00 8.335555e+01 3.380078e-01 3.782136e-01 -6.685648e-03 4.049294e-03 1.291656e-01 3.424255e-01 8.296003e-02 5.429912e-02 2.411817e-01 1.509308e-01 4.168347e-03 1.613815e-02 -3.749952e-01 -2.604770e-02 1.387798e-01 6.430584e-02 1.210811e-01 3.731828e-04 2.477271e-01 -5.207501e-03 -7.358864e-04 2.307232e-01 -7.451345e-02 -1.541272e-01 -3.555854e-02 -3.070560e-01
<VARIANCE> 39
 3.418518e+01 2.414206e+01 3.140807e+01 5.029275e+01 4.583437e+01 8.277660e+01 4.532921e+01 8.502003e+01 5.238736e+01 4.513892e+01 2.993784e+01 2.421681e+01 7.561956e+01 1.880024e+00 2.914016e+00 2.862480e+00 2.318774e+00 2.095884e+00 4.235425e+00 2.851106e+00 3.975983e+00 4.263957e+00 2.166336e+00 2.168189e+00 2.442814e+00 6.801148e+00 3.364916e-01 2.872573e-01 4.562608e-01 3.226469e-01 3.953283e-01 6.307418e-01 4.114612e-01 7.107373e-01 7.998779e-01 3.633418e-01 3.438345e-01 3.850916e-01 5.912492e-01
<GCONST> 1.242946e+02
<STATE> 3
<MEAN> 39
 -7.375978e+00 2.367270e+00 -4.034936e+00 -6.200661e+00 -7.699925e-01 -9.133714e+00 -3.657903e+00 -1.583712e-01 -1.051199e+01 -7.338364e-01 -8.289042e-01 -6.170670e+00 7.866911e+01 -1.414105e-01 4.605827e-01 -7.212492e-02 5.976192e-02 -1.598879e-01 1.087789e+00 1.745370e-01 7.162038e-03 1.020005e+00 4.221309e-02 -4.158268e-01 -2.958083e-02 -1.257399e+00 -5.688655e-02 -1.454888e-01 -4.338767e-02 -4.960464e-02 -9.125999e-02 -2.130588e-01 -1.356899e-01 -9.443655e-02 -1.606665e-01 -1.008728e-01 1.451735e-02 3.893396e-02 2.312643e-01
<VARIANCE> 39
 2.332520e+01 2.743158e+01 3.208196e+01 3.431121e+01 4.363219e+01 4.738336e+01 5.060285e+01 5.053780e+01 5.458036e+01 3.181176e+01 2.824923e+01 2.412828e+01 7.638728e+01 6.841534e-01 1.410049e+00 2.648367e+00 1.732659e+00 3.417946e+00 3.632587e+00 2.645402e+00 3.015371e+00 3.222558e+00 1.709312e+00 1.867100e+00 1.781807e+00 2.795441e+00 1.236363e-01 3.174207e-01 3.653539e-01 2.591744e-01 4.221054e-01 6.146566e-01 4.126297e-01 5.259997e-01 6.765661e-01 3.529227e-01 2.814209e-01 3.011800e-01 4.150983e-01
<GCONST> 1.157109e+02
<STATE> 4
<MEAN> 39
 -8.191827e+00 3.822510e+00 -4.985952e+00 -6.326900e+00 -4.050864e+00 -7.868866e+00 -5.712393e+00 -2.043095e+00 -8.959899e+00 -1.995774e+00 -1.464635e+00 -5.108007e+00 7.373856e+01 -2.693515e-01 1.960963e-01 2.362064e-02 -7.246899e-02 -2.026513e-01 3.561221e-01 -5.032680e-02 -1.618384e-01 1.134184e-01 -2.134560e-01 -1.732577e-01 5.804531e-02 -4.127773e-01 -5.735749e-02 -7.572372e-02 1.259869e-01 7.841784e-03 5.848629e-02 -6.287488e-02 4.056683e-02 -3.295367e-02 -1.441361e-01 -3.335902e-02 3.376858e-02 6.310210e-02 2.375872e-01
<VARIANCE> 39
 1.961753e+01 2.533175e+01 2.755546e+01 2.720033e+01 3.974874e+01 3.465840e+01 5.161937e+01 3.662359e+01 4.163892e+01 2.809136e+01 1.738853e+01 1.788895e+01 5.874705e+01 6.127253e-01 1.264648e+00 1.215980e+00 1.125515e+00 2.052919e+00 1.760332e+00 1.763856e+00 1.933776e+00 1.963971e+00 1.398533e+00 1.253518e+00 1.205463e+00 9.649305e-01 1.088855e-01 2.520388e-01 2.467521e-01 2.236038e-01 3.805618e-01 3.490988e-01 3.369733e-01 3.777156e-01 3.893664e-01 2.999166e-01 2.497818e-01 2.139745e-01 2.920367e-01
<GCONST> 1.032334e+02
<TRANSP> 5
 0.000000e+00 1.000000e+00 0.000000e+00 0.000000e+00 0.000000e+00
 0.000000e+00 7.213063e-01 2.786937e-01 0.000000e+00 0.000000e+00
 0.000000e+00 0.000000e+00 4.469641e-01 5.530360e-01 0.000000e+00
 0.000000e+00 0.000000e+00 0.000000e+00 6.823242e-01 3.176757e-01
 0.000000e+00 0.000000e+00 0.000000e+00 0.000000e+00 0.000000e+00
<ENDHMM>
~h "u"
<BEGINHMM>
<NUMSTATES> 5
<STATE> 2
<MEAN> 39
 -8.256569e+00 4.682946e+00 1.850246e+00 -3.256032e+00 3.680167e+00 -9.691646e+00 -6.873741e+00 -3.422970e+00 -1.498457e+01 -8.390538e+00 -5.803948e+00 -7.306435e+00 8.140224e+01 3.277161e-01 1.916134e-01 2.938334e-01 3.305740e-01 5.212336e-01 -8.752720e-01 -7.040726e-02 6.083909e-01 -4.440799e-01 -1.163794e-01 -1.925117e-01 -4.715377e-01 4.762829e-01 -6.573065e-02 7.387190e-02 -2.024501e-02 -4.109157e-02 -2.017582e-01 1.616259e-01 8.425176e-02 -5.152698e-02 2.661852e-01 2.499729e-01 4.841550e-02 2.495828e-02 -2.158471e-01
<VARIANCE> 39
 2.443763e+01 4.408306e+01 2.698127e+01 4.210662e+01 6.422604e+01 5.725356e+01 6.366302e+01 6.804839e+01 9.292619e+01 5.956324e+01 4.893233e+01 3.419298e+01 5.043436e+01 2.058729e+00 3.598971e+00 2.831337e+00 3.951550e+00 5.715789e+00 5.539715e+00 4.825200e+00 4.550593e+00 6.253899e+00 4.326521e+00 5.109412e+00 3.640601e+00 3.345176e+00 3.685891e-01 6.142697e-01 3.873594e-01 5.737875e-01 1.055021e+00 8.123882e-01 7.531683e-01 7.694359e-01 1.061701e+00 8.439112e-01 7.844285e-01 5.442551e-01 5.549253e-01
<GCONST> 1.353921e+02
<STATE> 3
<MEAN> 39
 -7.695364e+00 3.895054e+00 3.308958e+00 -5.446886e-01 4.430971e+00 -1.388811e+01 -7.814266e+00 8.043755e-01 -1.191970e+01 -6.568444e+00 -5.004199e+00 -8.910860e+00 8.317003e+01 3.396149e-02 -2.391765e-02 -3.570355e-02 2.964400e-01 -1.861132e-01 -3.077632e-01 -1.470039e-01 1.219769e-01 4.480675e-01 7.077659e-01 3.375353e-01 -4.120034e-02 -1.273988e-01 -6.871293e-02 -7.467356e-02 -1.603409e-01 -2.283168e-01 -7.476932e-02 3.843871e-01 2.827635e-03 -3.004251e-01 1.982801e-01 6.329206e-02 3.626755e-02 1.289077e-01 -5.513258e-02
<VARIANCE> 39
 2.107767e+01 4.586520e+01 3.847989e+01 5.387870e+01 5.607100e+01 8.024479e+01 7.822026e+01 6.239655e+01 7.580570e+01 4.423949e+01 5.602833e+01 3.979810e+01 3.211163e+01 6.002663e-01 1.410549e+00 2.131499e+00 1.765090e+00 2.590548e+00 4.591126e+00 2.623179e+00 2.666662e+00 3.397681e+00 1.884183e+00 2.020113e+00 2.063468e+00 9.905140e-01 1.537895e-01 3.075353e-01 3.184888e-01 4.270056e-01 4.938687e-01 1.035810e+00 5.944417e-01 6.062288e-01 6.172726e-01 3.993247e-01 4.578283e-01 3.579413e-01 1.359405e-01
<GCONST> 1.193018e+02
<STATE> 4
<MEAN> 39
 -6.589618e+00 6.777632e+00 3.008916e+00 -4.955916e+00 1.732934e-02 -1.424176e+01 -5.614283e+00 1.619482e+00 -1.268591e+01 -5.324614e+00 -6.078085e+00 -1.222925e+01 8.173035e+01 -2.485237e-02 -2.441909e-01 -3.656060e-01 -1.304293e-01 -3.021800e-01 2.006132e-01 8.702642e-02 -2.440774e-01 3.356827e-01 4.415089e-01 2.216237e-01 3.063648e-01 -1.842113e-01 -2.644693e-02 -6.938377e-02 -6.581066e-02 -3.784746e-02 1.754600e-02 9.039499e-02 2.322689e-02 -3.269060e-02 -2.291099e-02 -7.587297e-02 1.449969e-02 1.012743e-01 -2.808659e-04
<VARIANCE> 39
 2.356800e+01 5.279041e+01 3.411162e+01 6.372884e+01 7.154852e+01 7.562085e+01 6.123678e+01 5.927380e+01 7.103106e+01 5.295567e+01 5.100228e+01 4.699212e+01 2.816050e+01 3.929846e-01 1.219133e+00 1.313435e+00 1.348315e+00 1.520977e+00 2.195062e+00 1.956175e+00 1.882989e+00 2.024345e+00 1.673949e+00 1.416828e+00 1.814078e+00 7.196111e-01 5.271534e-02 1.667120e-01 1.664688e-01 2.270072e-01 2.034881e-01 3.201717e-01 3.785517e-01 3.030995e-01 3.228194e-01 3.166719e-01 2.595325e-01 2.336051e-01 7.453019e-02
<GCONST> 1.062272e+02
<TRANSP> 5
 0.000000e+00 1.000000e+00 0.000000e+00 0.000000e+00 0.000000e+00
 0.000000e+00 7.314650e-01 2.685350e-01 0.000000e+00 0.000000e+00
 0.000000e+00 0.000000e+00 5.621977e-01 4.378023e-01 0.000000e+00
 0.000000e+00 0.000000e+00 0.000000e+00 8.207796e-01 1.792204e-01
 0.000000e+00 0.000000e+00 0.000000e+00 0.000000e+00 0.000000e+00
<ENDHMM>
~h "y"
<BEGINHMM>
<NUMSTATES> 5
<STATE> 2
<MEAN> 39
 -1.362442e+01 1.868126e+00 9.773626e-01 -8.455029e+00 -5.005081e+00 -5.393868e+00 8.571243e-01 -5.570315e+00 -1.259006e+01 -4.315484e-02 -2.903822e+00 -4.579118e+00 7.736844e+01 1.937064e+00 -4.351669e-01 -4.850222e-01 -1.113139e-01 -2.292844e-01 -8.240675e-01 -1.306829e-02 2.463671e-01 -4.187828e-01 1.598631e-01 4.647605e-01 2.964620e-01 2.676425e+00 2.616399e-01 -3.432305e-01 -4.582355e-01 8.772889e-02 2.491090e-02 -2.143819e-01 -2.515424e-01 2.258107e-01 1.239961e-01 -1.012449e-01 1.669019e-01 -5.643009e-02 2.868216e-01
<VARIANCE> 39
 5.573022e+01 3.748394e+01 4.140141e+01 2.759840e+01 3.071555e+01 3.929740e+01 2.931776e+01 4.652071e+01 3.005591e+01 4.764434e+01 1.667890e+01 2.124273e+01 6.337835e+01 3.453689e+00 3.970589e+00 3.387351e+00 1.612506e+00 2.692877e+00 3.472584e+00 3.018170e+00 4.492665e+00 3.821864e+00 3.583271e+00 2.076750e+00 1.857272e+00 2.188720e+00 7.833272e-01 6.228650e-01 5.228940e-01 3.787658e-01 5.389392e-01 5.879613e-01 5.828409e-01 6.273623e-01 6.310120e-01 4.415283e-01 3.759094e-01 3.600006e-01 4.452338e-01
<GCONST> 1.232925e+02
<STATE> 3
<MEAN> 39
 -4.805101e+00 -4.743999e+00 -7.624068e+00 -6.886016e+00 -6.772439e+00 -1.026512e+01 -3.164956e-01 8.274531e-02 -1.053289e+01 -1.198538e+00 9.827604e-01 -3.836199e+00 8.911045e+01 3.681786e-01 -1.164728e+00 -1.147489e+00 7.393668e-01 7.218127e-01 -2.915792e-01 -7.574295e-01 1.265652e-01 3.066115e-01 4.758858e-01 6.778442e-01 -1.299838e-01 1.065985e+00 -3.057744e-01 3.158420e-01 4.219948e-01 2.821352e-01 2.568555e-01 -9.822353e-02 -2.977759e-01 -4.404117e-01 -1.432771e-01 1.056247e-01 -1.183964e-01 -8.103810e-02 -4.575564e-01
<VARIANCE> 39
 2.899086e+01 1.566912e+01 2.833535e+01 2.326296e+01 3.639642e+01 4.446121e+01 1.981491e+01 4.723036e+01 2.796293e+01 6.061682e+01 1.387549e+01 2.599751e+01 1.580892e+01 1.310673e+00 1.525974e+00 1.955563e+00 1.521772e+00 1.756118e+00 1.767702e+00 1.809956e+00 3.101291e+00 2.779031e+00 1.524185e+00 1.738541e+00 2.420071e+00 1.551942e+00 2.214295e-01 2.094370e-01 1.988380e-01 2.220192e-01 3.136178e-01 3.963781e-01 3.261702e-01 2.967023e-01 2.779831e-01 4.255419e-01 3.015853e-01 3.560991e-01 1.527748e-01
<GCONST> 1.057069e+02
<STATE> 4
<MEAN> 39
 -7.137312e+00 -4.667166e+00 -3.946043e+00 2.395154e+00 2.787937e+00 -1.964870e+01 -1.162569e+01 -5.852454e+00 -1.391689e+01 2.978698e+00 1.452127e+00 -6.544291e+00 9.027783e+01 -3.868639e-02 5.823405e-02 7.859167e-02 -6.731139e-02 1.776311e-01 -1.223047e-01 -2.605467e-01 -5.945446e-02 -8.601186e-02 1.032755e-01 1.268550e-02 -1.078117e-01 -2.505728e-03 7.410381e-03 1.686175e-02 -2.276164e-03 -1.287464e-01 -8.250791e-02 1.150477e-01 1.200064e-01 6.895413e-02 2.429169e-02 -7.987236e-02 -3.982972e-02 1.275062e-02 -2.972995e-02
<VARIANCE> 39
 1.692324e+01 1.366924e+01 2.735902e+01 4.154361e+01 4.408377e+01 4.049218e+01 3.506827e+01 4.586709e+01 8.157130e+01 8.629128e+01 3.627088e+01 4.668959e+01 6.508047e+00 3.372102e-01 3.459889e-01 1.738068e+00 3.244823e+00 2.905294e+00 3.267524e+00 2.076170e+00 1.707270e+00 1.863302e+00 2.062781e+00 1.396721e+00 2.268983e+00 1.583921e-01 3.918674e-02 5.515886e-02 1.858155e-01 2.147360e-01 2.327142e-01 2.726711e-01 2.081773e-01 2.775733e-01 2.739037e-01 3.576955e-01 2.123145e-01 4.140694e-01 2.202878e-02
<GCONST> 9.741183e+01
<TRANSP> 5
 0.000000e+00 1.000000e+00 0.000000e+00 0.000000e+00 0.000000e+00
 0.000000e+00 6.618329e-01 3.381672e-01 0.000000e+00 0.000000e+00
 0.000000e+00 0.000000e+00 7.643705e-01 2.356295e-01 0.000000e+00
 0.000000e+00 0.000000e+00 0.000000e+00 9.490241e-01 5.097589e-02
 0.000000e+00 0.000000e+00 0.000000e+00 0.000000e+00 0.000000e+00
<ENDHMM>
~h "ay"
<BEGINHMM>
<NUMSTATES> 5
<STATE> 2
<MEAN> 39
 -2.187580e+01 -3.092631e+00 3.661246e+00 -9.727675e+00 -5.416621e+00 -2.268451e+00 -5.879956e+00 -6.570575e+00 -8.744380e+00 -1.211072e+00 -2.320825e+00 -5.751209e+00 7.145911e+01 -1.811580e+00 -2.501013e+00 2.465626e+00 -1.795164e+00 -4.518490e-02 2.668873e-01 1.260236e-01 -3.060826e-01 -6.722222e-02 6.540070e-01 8.607124e-01 5.016870e-01 2.949377e+00 -4.662338e-01 1.427321e-01 1.704879e-01 -2.142382e-01 2.379967e-01 -5.740301e-02 -6.364826e-04 2.848202e-01 1.608448e-01 -1.751262e-01 -2.900762e-03 1.254582e-01 3.287255e-01
<VARIANCE> 39
 2.859606e+01 3.103388e+01 4.201554e+01 3.321215e+01 1.975272e+01 2.782215e+01 4.868147e+01 2.809841e+01 3.268029e+01 2.594065e+01 1.855267e+01 1.742971e+01 2.525002e+01 3.293073e+00 3.875350e+00 6.185488e+00 2.785225e+00 2.308351e+00 3.313157e+00 3.168924e+00 2.649462e+00 2.876944e+00 2.246655e+00 2.077788e+00 1.929124e+00 2.958364e+00 7.106981e-01 9.000760e-01 8.893465e-01 5.911905e-01 3.382387e-01 5.921164e-01 4.329395e-01 4.983351e-01 4.342667e-01 3.913226e-01 3.523628e-01 3.322285e-01 5.460357e-01
<GCONST> 1.201274e+02
<STATE> 3
<MEAN> 39
 -3.165598e+01 -8.213831e+00 1.196148e+01 -1.584385e+01 -4.724516e+00 -1.265273e+00 -3.024668e+00 -4.399565e+00 -8.750414e+00 -1.859403e-01 -2.726666e-01 -3.656442e+00 8.332315e+01 -1.387096e+00 -9.769067e-02 5.142307e-01 -7.412024e-01 6.160378e-01 3.379511e-02 1.349816e-01 3.666992e-01 2.226588e-01 1.126713e-01 9.553303e-02 3.627553e-01 1.682695e+00 5.624530e-01 4.310362e-01 -5.613394e-01 3.574500e-01 7.960033e-02 -2.011646e-01 -1.117035e-01 -1.077123e-01 -5.843138e-02 -1.263623e-01 -2.751801e-01 -7.520574e-02 -4.976330e-01
<VARIANCE> 39
 1.995619e+01 1.430869e+01 3.528099e+01 2.089737e+01 2.331292e+01 2.847441e+01 6.467803e+01 2.397088e+01 4.356215e+01 2.670723e+01 1.519351e+01 1.538050e+01 2.033856e+01 2.811917e+00 2.181911e+00 3.796377e+00 2.029525e+00 1.650869e+00 1.947700e+00 1.504136e+00 1.946550e+00 1.626568e+00 1.402446e+00 1.395871e+00 1.051260e+00 2.134803e+00 4.060325e-01 3.982319e-01 4.330320e-01 3.768507e-01 2.811528e-01 4.543679e-01 3.345213e-01 4.118079e-01 4.215858e-01 2.996941e-01 2.928911e-01 2.219083e-01 1.688239e-01
<GCONST> 1.071133e+02
<STATE> 4
<MEAN> 39
 -2.871835e+01 -6.537798e+00 8.373343e+00 -1.482394e+01 3.177567e-01 -6.663042e+00 -7.143600e+00 -6.270785e+00 -7.108479e+00 -1.575672e+00 -2.981534e+00 -2.122177e+00 8.533062e+01 2.938118e+00 8.423384e-01 -4.656355e-01 1.433505e+00 -4.163648e-01 -1.188152e+00 2.065577e-01 -5.949700e-01 -7.995827e-01 -8.379306e-01 -1.083107e+00 -7.604331e-02 -2.350441e-01 8.540120e-01 3.452984e-01 -8.394555e-02 1.881516e-01 -4.329246e-01 6.150112e-03 2.715628e-01 1.405367e-01 -4.154605e-01 -3.072969e-02 6.588030e-02 -2.189905e-01 -7.880168e-02
<VARIANCE> 39
 3.674493e+01 2.390047e+01 3.067665e+01 3.497211e+01 5.110299e+01 4.772342e+01 6.527480e+01 3.553065e+01 3.404115e+01 2.735685e+01 2.843683e+01 1.629334e+01 1.508727e+01 7.347111e+00 5.657396e+00 3.805102e+00 3.455590e+00 4.107255e+00 4.719184e+00 5.182686e+00 4.054755e+00 5.714740e+00 2.228457e+00 2.908084e+00 1.681901e+00 1.749824e+00 5.659775e-01 1.150652e+00 6.801264e-01 7.820011e-01 7.154343e-01 1.158268e+00 9.924570e-01 9.880865e-01 9.538545e-01 5.109224e-01 6.382647e-01 3.399499e-01 3.837786e-01
<GCONST> 1.292026e+02
<TRANSP> 5
 0.000000e+00 1.000000e+00 0.000000e+00 0.000000e+00 0.000000e+00
 0.000000e+00 5.812811e-01 4.187189e-01 0.000000e+00 0.000000e+00
 0.000000e+00 0.000000e+00 8.313457e-01 1.686543e-01 0.000000e+00
 0.000000e+00 0.000000e+00 0.000000e+00 8.048031e-01 1.951969e-01
 0.000000e+00 0.000000e+00 0.000000e+00 0.000000e+00 0.000000e+00
<ENDHMM>
~h "ny"
<BEGINHMM>
<NUMSTATES> 5
<STATE> 2
<MEAN> 39
 -1.010436e+01 -2.650186e+00 -2.884314e+00 -3.277608e+00 1.870683e+00 -1.449139e+00 -3.235940e+00 -6.122161e+00 -1.071355e+01 -2.374416e+00 8.353853e-01 -2.071002e+00 7.541057e+01 -1.331101e-01 3.419650e-02 -8.894633e-02 2.169742e-01 -9.725389e-01 9.290797e-01 2.397338e-01 -1.212575e-01 -8.138876e-02 -5.845452e-01 -5.975263e-01 2.496332e-02 -1.061798e+00 2.739768e-02 2.006472e-01 3.118217e-04 2.713342e-02 1.697166e-02 -1.968430e-01 -9.313089e-02 4.676180e-02 6.101983e-03 6.025269e-02 2.773409e-02 -7.363885e-03 3.794693e-02
<VARIANCE> 39
 2.983676e+00 3.824547e+01 8.839443e+00 1.483081e+01 6.450047e+01 1.964566e+01 3.724019e+01 2.041729e+01 2.129575e+01 1.525575e+01 3.430130e+01 3.489922e+01 1.026449e+01 2.734528e-01 2.471178e+00 8.695043e-01 1.164082e+00 1.980233e+00 1.449980e+00 1.593419e+00 1.258209e+00 1.571881e+00 1.580441e+00 1.849838e+00 1.274099e+00 2.568361e-01 5.884884e-02 4.499066e-01 1.513973e-01 2.252761e-01 4.436096e-01 1.920412e-01 2.992783e-01 2.392618e-01 2.608719e-01 3.224188e-01 3.586957e-01 2.164811e-01 3.352769e-02
<GCONST> 9.151116e+01
<STATE> 3
<MEAN> 39
 -1.122718e+01 2.987936e+00 -3.746826e+00 -2.383873e+00 -2.271051e+00 1.357893e+00 -1.922079e+00 -5.345670e+00 -1.070119e+01 -4.266599e+00 -2.042832e+00 -3.210373e+00 6.864919e+01 -4.008409e-01 1.301610e+00 1.357026e-01 -1.099383e-01 6.245607e-02 -8.471297e-02 -5.239668e-01 3.379138e-01 4.303868e-01 -3.876997e-02 5.689231e-02 -4.119317e-02 -9.167240e-01 -6.057831e-02 -1.411119e-01 4.975516e-02 -4.864439e-02 6.346750e-02 -1.554361e-01 -4.901344e-02 3.975382e-02 5.339408e-02 7.478034e-02 4.266237e-02 -5.156363e-02 1.034517e-01
<VARIANCE> 39
 3.748629e+00 1.614335e+01 9.600883e+00 1.671777e+01 3.092606e+01 1.085240e+01 2.630416e+01 1.323785e+01 1.319282e+01 1.674051e+01 1.184895e+01 1.329159e+01 4.717918e+00 1.946164e-01 1.018756e+00 4.687110e-01 8.456127e-01 9.822076e-01 1.165132e+00 1.446314e+00 9.564284e-01 9.912858e-01 1.119002e+00 8.351609e-01 8.024513e-01 1.410034e-01 3.675720e-02 1.322972e-01 7.499548e-02 1.737026e-01 1.589229e-01 1.882552e-01 2.847672e-01 1.934343e-01 1.761692e-01 1.977712e-01 1.851950e-01 1.414109e-01 2.164849e-02
<GCONST> 7.328846e+01
<STATE> 4
<MEAN> 39
 -1.426594e+01 7.770474e+00 -1.482461e+00 -2.258720e+00 -1.914513e+00 -3.605583e-01 -5.135496e+00 -3.583881e+00 -8.637687e+00 -5.542105e+00 -3.489843e+00 -5.301930e+00 6.475810e+01 -2.307240e-01 1.056129e-02 1.121245e-02 -1.020331e-01 -1.464679e-01 -1.142088e-01 -5.380837e-02 7.674816e-02 5.657685e-02 -8.043275e-02 -1.271183e-01 -4.512467e-02 -1.532273e-01 1.036999e-02 -6.221294e-02 -1.263786e-02 -2.058028e-02 -2.764161e-03 6.963257e-03 2.180745e-02 -3.274312e-02 -2.817179e-02 -1.317160e-04 -7.385030e-03 -8.208775e-03 5.451585e-02
<VARIANCE> 39
 3.713578e+00 5.286783e+00 6.285109e+00 5.783567e+00 8.921339e+00 9.331741e+00 1.142203e+01 9.595518e+00 9.296661e+00 1.176743e+01 1.378127e+01 1.048842e+01 2.409938e+00 1.102114e-01 2.299481e-01 2.865674e-01 4.443390e-01 6.212673e-01 6.566604e-01 7.188420e-01 7.658045e-01 7.237465e-01 6.704007e-01 6.571168e-01 6.142510e-01 5.273116e-02 2.090840e-02 4.719751e-02 5.841457e-02 9.770629e-02 1.303278e-01 1.395823e-01 1.484980e-01 1.507228e-01 1.358640e-01 1.363029e-01 1.340065e-01 1.136549e-01 1.468426e-02
<GCONST> 5.382409e+01
<TRANSP> 5
 0.000000e+00 1.000000e+00 0.000000e+00 0.000000e+00 0.000000e+00
 0.000000e+00 8.591353e-01 1.408647e-01 0.000000e+00 0.000000e+00
 0.000000e+00 0.000000e+00 7.943162e-01 2.056838e-01 0.000000e+00
 0.000000e+00 0.000000e+00 0.000000e+00 9.228559e-01 7.714417e-02
 0.000000e+00 0.000000e+00 0.000000e+00 0.000000e+00 0.000000e+00
<ENDHMM>
~h "sp"
<BEGINHMM>
<NUMSTATES> 3
<STATE> 2
~s "silst"
<TRANSP> 3
 0.000000e+00 7.000000e-01 3.000000e-01
 0.000000e+00 9.000000e-01 9.999999e-02
 0.000000e+00 0.000000e+00 0.000000e+00
<ENDHMM>
~h "sil"
<BEGINHMM>
<NUMSTATES> 5
<STATE> 2
<MEAN> 39
 -1.676589e+01 5.187278e+00 -3.512520e+00 -5.063211e+00 -4.094891e+00 -2.384109e+00 -5.782856e+00 -3.028277e+00 -7.777817e+00 -6.308930e+00 -3.515495e+00 -4.936422e+00 6.416061e+01 -9.060485e-03 6.382035e-03 -4.627608e-02 4.489148e-02 -4.639781e-02 -5.671095e-03 -2.938273e-03 -2.162527e-02 -4.336086e-02 6.078427e-02 -3.715916e-02 -3.826346e-02 -1.023481e-01 -2.056447e-03 -8.795397e-03 7.634872e-03 -6.004720e-03 3.440938e-03 2.041224e-03 4.970618e-03 4.122965e-03 8.322475e-04 1.569608e-03 6.131734e-03 1.234749e-03 1.330062e-02
<VARIANCE> 39
 5.086060e+00 9.071801e+00 7.388875e+00 1.260850e+01 9.155226e+00 8.976148e+00 1.147584e+01 1.119670e+01 1.396097e+01 1.606972e+01 1.300514e+01 1.060557e+01 4.822568e+00 1.382461e-01 2.754686e-01 3.924753e-01 5.059970e-01 5.569192e-01 6.370223e-01 7.254936e-01 7.805477e-01 8.079645e-01 8.057313e-01 7.231692e-01 6.664363e-01 8.086135e-02 2.138826e-02 4.708088e-02 7.362597e-02 9.024922e-02 1.086719e-01 1.263818e-01 1.399612e-01 1.516576e-01 1.587185e-01 1.527061e-01 1.399351e-01 1.279539e-01 1.089859e-02
<GCONST> 5.874083e+01
<STATE> 3
~s "silst"
<STATE> 4
<MEAN> 39
 -1.891530e+01 4.367570e+00 -2.032110e+00 -7.604398e+00 -4.129380e+00 -2.526411e+00 -7.003722e+00 -3.663786e+00 -6.838851e+00 -7.963345e+00 -2.481702e+00 -4.854016e+00 6.623138e+01 -2.116353e-01 7.021002e-03 1.949703e-01 -3.656654e-01 1.036626e-01 6.602738e-02 -1.670998e-01 -1.201512e-01 2.124675e-01 -2.641894e-01 2.238772e-01 2.305866e-02 2.324634e-01 5.426075e-02 5.405672e-02 -3.179199e-02 4.841425e-02 4.877707e-02 2.035112e-02 9.358889e-03 -2.028119e-02 -5.225820e-03 2.072006e-02 -4.072926e-02 -4.451785e-02 -6.782392e-02
<VARIANCE> 39
 1.367929e+01 1.739723e+01 2.016323e+01 2.028318e+01 1.560472e+01 1.322287e+01 2.002963e+01 1.490611e+01 2.969952e+01 2.974628e+01 1.917420e+01 1.485575e+01 1.254510e+01 1.558519e+00 1.245192e+00 1.766176e+00 2.448932e+00 1.423532e+00 1.389294e+00 1.981637e+00 1.443553e+00 3.123924e+00 2.126964e+00 1.750731e+00 1.280937e+00 1.605228e+00 2.926526e-01 2.612107e-01 3.288363e-01 4.387371e-01 2.718115e-01 2.740859e-01 4.082337e-01 2.824486e-01 5.434929e-01 3.587797e-01 3.062292e-01 2.393876e-01 3.102916e-01
<GCONST> 1.015093e+02
<TRANSP> 5
 0.000000e+00 1.000000e+00 0.000000e+00 0.000000e+00 0.000000e+00
 0.000000e+00 7.587132e-01 4.128682e-02 2.000000e-01 0.000000e+00
 0.000000e+00 0.000000e+00 8.533960e-01 1.466040e-01 0.000000e+00
 0.000000e+00 2.000000e-01 0.000000e+00 5.819247e-01 2.180753e-01
 0.000000e+00 0.000000e+00 0.000000e+00 0.000000e+00 0.000000e+00
<ENDHMM>
