~o
<STREAMINFO> 1 39
<VECSIZE> 39<NULLD><MFCC_D_A_0><DIAGC>
~s "silst"
<MEAN> 39
 -1.682858e+01 4.934920e+00 -3.495288e+00 -4.867703e+00 -3.630972e+00 -2.420212e+00 -5.812294e+00 -3.299717e+00 -7.579154e+00 -4.628783e+00 -2.796267e+00 -4.730805e+00 6.415261e+01 -1.315529e-01 -1.026710e-01 -7.201946e-03 8.330284e-03 2.797595e-03 1.316107e-02 -3.927448e-02 -2.062820e-02 -1.369380e-02 5.304777e-02 -1.978745e-02 -1.324261e-02 -7.126777e-02 -8.509220e-03 -2.827394e-02 3.428365e-02 -2.814833e-02 1.549463e-03 -1.538155e-02 2.119434e-03 -1.540999e-03 6.317953e-05 -1.065184e-02 -2.555869e-03 1.031631e-02 6.812508e-02
<VARIANCE> 39
 5.151857e+00 7.880184e+00 8.090130e+00 8.703652e+00 1.073563e+01 1.046329e+01 1.163111e+01 1.180567e+01 1.182530e+01 1.243990e+01 1.209935e+01 9.254411e+00 2.451845e+00 2.176076e-01 4.318231e-01 6.426855e-01 6.954625e-01 7.881131e-01 9.014766e-01 9.777571e-01 1.013274e+00 1.037043e+00 8.646939e-01 9.293386e-01 8.405144e-01 1.277912e-01 5.333177e-02 9.927736e-02 1.338408e-01 1.571883e-01 1.703679e-01 1.847330e-01 2.008752e-01 2.160409e-01 2.264884e-01 1.764139e-01 1.953200e-01 1.648083e-01 3.781166e-02
<GCONST> 6.832096e+01
~h "a"
<BEGINHMM>
<NUMSTATES> 5
<STATE> 2
<MEAN> 39
 -5.103466e+00 -1.465911e+00 -6.721006e+00 -7.868341e+00 -5.950048e+00 -1.231300e+01 -1.745736e+00 3.134875e-01 -1.343926e+01 -9.478072e-01 -1.164722e+00 -5.162296e+00 8.394238e+01 2.364234e-02 -3.556528e-01 -3.112689e-01 -3.346501e-01 -1.533959e-01 2.458776e-01 5.939453e-01 2.214219e-01 6.362521e-02 2.877940e-01 1.914396e-01 -1.236237e-01 8.064149e-02 -2.195150e-01 1.479478e-01 2.411908e-01 7.934887e-02 2.415046e-01 1.629417e-01 -1.492813e-01 -1.746449e-01 1.814537e-02 -1.200877e-01 -1.955475e-02 -1.231383e-02 -1.513603e-01
<VARIANCE> 39
 3.316249e+01 3.444608e+01 2.979116e+01 2.994217e+01 5.131222e+01 7.832843e+01 4.773752e+01 5.370259e+01 5.918264e+01 7.135613e+01 3.360923e+01 2.899178e+01 8.243446e+01 5.743546e-01 9.959543e-01 1.100534e+00 1.253658e+00 1.531242e+00 1.979402e+00 1.804601e+00 1.999910e+00 2.231624e+00 1.979922e+00 1.659061e+00 1.411336e+00 7.036640e-01 1.674027e-01 1.577555e-01 2.062488e-01 1.994128e-01 2.839430e-01 3.693753e-01 3.489404e-01 3.501277e-01 4.150942e-01 3.804922e-01 2.796562e-01 3.178889e-01 1.113496e-01
<GCONST> 1.077991e+02
<STATE> 3
<MEAN> 39
 -7.532633e+00 6.248320e-01 -6.190539e+00 -8.497351e+00 -4.329732e+00 -6.971120e+00 -1.245892e+00 -2.014733e+00 -1.011218e+01 -8.129065e-01 -1.877260e+00 -6.207400e+00 8.081535e+01 -2.273367e-01 1.686928e-01 2.136342e-01 -4.549155e-02 2.940590e-01 2.083941e-01 -2.482258e-02 -1.430218e-01 -1.220159e-01 6.630360e-02 6.389679e-02 2.169144e-02 -2.503462e-01 -4.089464e-02 1.563835e-01 1.544871e-01 8.720062e-02 1.186554e-01 -1.651584e-02 -1.217397e-01 -8.153483e-02 -4.505060e-02 -5.504403e-02 -3.734782e-03 7.111740e-02 -1.112859e-01
<VARIANCE> 39
 2.500453e+01 3.800185e+01 2.632391e+01 2.332550e+01 4.389160e+01 4.903443e+01 4.605184e+01 4.575631e+01 3.360762e+01 5.765908e+01 2.844538e+01 2.161067e+01 1.042663e+02 3.267422e-01 8.481465e-01 7.953908e-01 8.404853e-01 1.031226e+00 1.231229e+00 1.240100e+00 1.044554e+00 1.355479e+00 1.237433e+00 1.359122e+00 9.849136e-01 4.654158e-01 7.317616e-02 1.375791e-01 1.425343e-01 1.653886e-01 2.108817e-01 2.695023e-01 2.439316e-01 2.898382e-01 2.703631e-01 2.113482e-01 2.357788e-01 2.012572e-01 8.249332e-02
<GCONST> 9.550594e+01
<STATE> 4
<MEAN> 39
 -8.967182e+00 1.308605e+00 -4.198304e+00 -7.655846e+00 -2.233143e+00 -6.806347e+00 -3.536551e+00 -3.177720e+00 -1.084090e+01 -9.142194e-01 -1.795815e+00 -5.417395e+00 7.816169e+01 -1.296652e-01 5.973903e-01 4.126119e-01 3.494927e-01 4.420056e-01 1.084446e-01 -3.532889e-01 -1.738580e-01 -7.692441e-02 -3.846520e-01 -2.938918e-02 7.975486e-02 -6.861228e-01 4.636608e-02 1.054006e-01 -2.147727e-02 1.438646e-01 1.142078e-02 6.505403e-02 -2.144669e-02 1.280790e-02 1.328054e-01 -1.190215e-01 -8.771091e-03 6.254886e-02 -1.389185e-01
<VARIANCE> 39
 3.849795e+01 3.539643e+01 2.475718e+01 2.966724e+01 4.593954e+01 4.788770e+01 4.143840e+01 4.941066e+01 3.571360e+01 5.458356e+01 3.871168e+01 2.744095e+01 9.548343e+01 5.682493e-01 1.402376e+00 1.429010e+00 1.531228e+00 2.032795e+00 2.195640e+00 2.066943e+00 1.829703e+00 1.999308e+00 2.001662e+00 2.264294e+00 1.753343e+00 1.069281e+00 1.363011e-01 3.484491e-01 2.659810e-01 2.762602e-01 4.172192e-01 4.020533e-01 3.852890e-01 3.575757e-01 3.664043e-01 3.844335e-01 3.565076e-01 2.847006e-01 2.862265e-01
<GCONST> 1.112071e+02
<TRANSP> 5
 0.000000e+00 1.000000e+00 0.000000e+00 0.000000e+00 0.000000e+00
 0.000000e+00 4.950256e-01 5.049744e-01 0.000000e+00 0.000000e+00
 0.000000e+00 0.000000e+00 5.069390e-01 4.930610e-01 0.000000e+00
 0.000000e+00 0.000000e+00 0.000000e+00 4.263654e-01 5.736346e-01
 0.000000e+00 0.000000e+00 0.000000e+00 0.000000e+00 0.000000e+00
<ENDHMM>
~h "b"
<BEGINHMM>
<NUMSTATES> 5
<STATE> 2
<MEAN> 39
 -2.566753e+01 -2.475545e-01 7.163409e+00 -1.484856e+01 2.807457e+00 -3.252231e+00 -8.175026e+00 -4.733709e+00 -8.040695e+00 -1.009937e+00 -6.966679e-01 -3.809505e+00 8.282346e+01 -2.978426e-01 -2.570633e-01 3.880243e-01 -3.154427e-01 2.123412e-01 1.001188e-01 1.214035e-01 -1.100149e-01 -3.175908e-01 -2.078752e-01 -1.357556e-01 1.429050e-01 6.127921e-01 5.624179e-01 1.550600e-01 -2.139434e-01 3.233974e-01 -1.600851e-02 -1.420242e-01 -3.479801e-02 -4.761791e-02 -1.500859e-01 -1.064841e-01 -7.835814e-02 -8.560564e-02 -9.817512e-02
<VARIANCE> 39
 8.959861e+01 3.338634e+01 5.430930e+01 5.566816e+01 6.442518e+01 4.327471e+01 3.520330e+01 3.078123e+01 3.566797e+01 2.625275e+01 1.985497e+01 1.307051e+01 5.008516e+01 1.277252e+01 3.251529e+00 5.484505e+00 6.048813e+00 3.289346e+00 3.239309e+00 2.524662e+00 2.602405e+00 3.034885e+00 2.466156e+00 2.134790e+00 1.479566e+00 4.070217e+00 1.090764e+00 5.648160e-01 8.072699e-01 7.315587e-01 5.933883e-01 4.937210e-01 4.897276e-01 4.661473e-01 4.523344e-01 3.965609e-01 4.374270e-01 2.992574e-01 6.596981e-01
<GCONST> 1.270905e+02
<STATE> 3
<MEAN> 39
 -7.104619e+00 5.185166e+00 3.214581e+00 -4.490721e+00 4.133387e+00 -6.776144e+00 -8.152788e+00 -5.542592e+00 -1.474826e+01 -5.627456e+00 -3.842164e+00 -6.514688e+00 8.242509e+01 1.224816e+00 3.239354e-01 -3.401164e-01 1.287091e+00 2.957153e-01 -4.873220e-01 1.465420e-01 4.764695e-01 -2.017939e-01 -6.145270e-01 -2.245962e-01 -6.872242e-01 -1.069261e-01 -5.620188e-01 -2.215979e-01 3.243622e-01 -2.539073e-01 -3.852276e-02 1.789069e-01 4.687015e-02 1.622419e-01 2.606457e-01 1.556496e-01 1.730426e-01 3.499115e-02 -4.756276e-02
<VARIANCE> 39
 1.181784e+01 4.308944e+01 3.152024e+01 3.761209e+01 4.258278e+01 4.569521e+01 4.880649e+01 4.803572e+01 6.011616e+01 6.273634e+01 3.242236e+01 1.992790e+01 3.674111e+01 5.549013e+00 7.287943e+00 3.902182e+00 2.749082e+00 3.452735e+00 6.099572e+00 3.728667e+00 4.629668e+00 6.611301e+00 3.707106e+00 2.933847e+00 2.006407e+00 4.794935e+00 7.261425e-01 8.741722e-01 8.071774e-01 5.476730e-01 5.223851e-01 9.089089e-01 7.174154e-01 1.004713e+00 1.175242e+00 7.897359e-01 5.560499e-01 4.140265e-01 7.205468e-01
<GCONST> 1.329251e+02
<STATE> 4
<MEAN> 39
 -5.007592e+00 -2.810191e-01 1.325609e+00 -2.018727e+00 4.872993e+00 -1.363289e+01 -8.830595e+00 -4.122960e+00 -1.725008e+01 -5.738152e+00 -8.969754e-03 -8.019051e+00 8.548249e+01 1.129047e-01 2.590595e-01 8.046315e-02 -2.533886e-01 -1.255019e-01 2.186341e-01 3.066350e-02 2.359080e-01 2.199724e-01 4.200415e-02 1.200601e-02 6.274814e-02 -3.539145e-01 -1.660677e-02 8.800326e-02 1.691360e-03 3.014283e-03 -4.503449e-02 1.481280e-01 -3.962300e-02 -3.119681e-02 1.819723e-01 2.918106e-02 -1.389719e-01 1.785219e-02 -8.627720e-02
<VARIANCE> 39
 9.630430e+00 3.944187e+01 4.344380e+01 4.980518e+01 8.643329e+01 4.234903e+01 7.111308e+01 7.281998e+01 9.246298e+01 1.107013e+02 4.571202e+01 3.227431e+01 2.003001e+01 6.125591e-01 1.481859e+00 2.472248e+00 2.035366e+00 2.647486e+00 3.829776e+00 3.395641e+00 3.166375e+00 4.138984e+00 3.062896e+00 3.043786e+00 2.010622e+00 1.560515e+00 9.792136e-02 2.155921e-01 3.840594e-01 2.948219e-01 4.143274e-01 6.185809e-01 5.789546e-01 6.015721e-01 5.975578e-01 5.435359e-01 5.345429e-01 4.193723e-01 1.552490e-01
<GCONST> 1.196534e+02
<TRANSP> 5
 0.000000e+00 1.000000e+00 0.000000e+00 0.000000e+00 0.000000e+00
 0.000000e+00 8.619111e-01 1.380889e-01 0.000000e+00 0.000000e+00
 0.000000e+00 0.000000e+00 7.823810e-01 2.176190e-01 0.000000e+00
 0.000000e+00 0.000000e+00 0.000000e+00 8.927107e-01 1.072893e-01
 0.000000e+00 0.000000e+00 0.000000e+00 0.000000e+00 0.000000e+00
<ENDHMM>
~h "d"
<BEGINHMM>
<NUMSTATES> 5
<STATE> 2
<MEAN> 39
 -1.386722e+01 4.513276e+00 4.606932e+00 -5.920249e+00 -1.681785e+00 -4.489023e+00 -2.801003e+00 -5.188818e+00 -1.120099e+01 -4.560490e+00 -5.785220e+00 -4.819547e+00 7.518807e+01 3.065462e+00 1.271865e+00 -3.503856e-01 7.001704e-01 -1.791487e-01 -5.465208e-01 6.324691e-01 4.942439e-02 -1.605854e+00 -1.873757e-01 -1.214966e-01 -5.345150e-01 1.016982e+00 -2.575204e-01 -6.084056e-01 -5.800101e-01 -3.690448e-01 4.434957e-02 -2.702021e-01 -2.761429e-01 2.226176e-01 -2.259408e-02 1.039202e-01 2.379095e-01 -6.090233e-02 5.498106e-01
<VARIANCE> 39
 3.351247e+01 3.974593e+01 4.726193e+01 4.468518e+01 2.711000e+01 3.719997e+01 3.007374e+01 3.880401e+01 4.556102e+01 2.202209e+01 2.482046e+01 1.770265e+01 7.485124e+01 7.836827e+00 5.002379e+00 4.657439e+00 4.222083e+00 5.862021e+00 4.609190e+00 4.724340e+00 3.920813e+00 7.578913e+00 3.168411e+00 2.545288e+00 2.644620e+00 2.994816e+00 7.703099e-01 8.934066e-01 8.330338e-01 6.641297e-01 6.240786e-01 5.955902e-01 7.341903e-01 7.995990e-01 1.105379e+00 8.229268e-01 5.402000e-01 3.798542e-01 5.048087e-01
<GCONST> 1.320128e+02
<STATE> 3
<MEAN> 39
 -5.346395e+00 7.805208e-01 3.783548e-01 -7.552500e+00 -6.980842e+00 -1.173559e+01 -2.217567e+00 -4.574439e+00 -1.665231e+01 -4.428906e+00 -5.574030e+00 -6.514194e+00 8.601091e+01 1.467404e+00 -1.184719e+00 -2.849239e+00 -2.098128e-01 -4.641094e-01 -1.193054e+00 -1.958941e-01 1.465354e+00 -1.321270e-01 8.380729e-01 1.182084e+00 -1.376159e-01 1.659373e+00 -1.108832e+00 -6.100581e-01 -5.474772e-02 -1.767061e-01 4.288588e-01 2.964834e-01 -1.332265e-01 1.072398e-01 6.544166e-01 3.343059e-01 2.842166e-01 2.408549e-01 8.094072e-03
<VARIANCE> 39
 1.694928e+01 2.098863e+01 2.811494e+01 3.114005e+01 5.401712e+01 4.680159e+01 2.620820e+01 4.477165e+01 5.317944e+01 3.949918e+01 3.317142e+01 2.824528e+01 2.729367e+01 3.265385e+00 1.716422e+00 2.242927e+00 2.213426e+00 3.578714e+00 5.482785e+00 3.056443e+00 3.141183e+00 5.182225e+00 4.621970e+00 2.779878e+00 2.101505e+00 1.318973e+00 4.682432e-01 5.204640e-01 4.223551e-01 5.269251e-01 5.983222e-01 5.768740e-01 7.250541e-01 7.795773e-01 1.321372e+00 5.136214e-01 5.900224e-01 5.594985e-01 1.823908e-01
<GCONST> 1.230645e+02
<STATE> 4
<MEAN> 39
 -5.383259e+00 -4.804484e+00 -7.772730e+00 -6.849915e+00 -2.343649e+00 -1.518548e+01 -5.738743e+00 -3.175080e+00 -1.611823e+01 2.508735e+00 2.020428e+00 -6.188586e+00 9.061703e+01 -1.762526e-01 -1.273051e-01 -8.690922e-02 5.799832e-01 1.293004e+00 -3.615918e-01 -9.357376e-01 -5.474794e-01 -2.532963e-01 2.538453e-01 5.277863e-01 -2.214798e-01 -8.188471e-03 -8.032960e-02 3.326074e-01 4.300109e-01 6.274308e-02 1.428362e-02 2.042120e-01 1.399094e-02 -1.561110e-01 4.979013e-02 -2.311373e-01 -1.916085e-01 5.602855e-03 -3.866743e-01
<VARIANCE> 39
 1.406580e+01 1.479403e+01 2.133995e+01 2.193539e+01 6.949734e+01 5.603749e+01 5.171664e+01 4.128053e+01 6.203970e+01 6.404934e+01 2.652232e+01 2.198651e+01 9.260462e+00 4.047664e-01 1.435395e+00 2.619415e+00 1.253288e+00 2.383910e+00 2.718573e+00 2.841375e+00 2.758430e+00 3.660568e+00 2.628672e+00 1.999869e+00 2.039223e+00 1.288158e+00 1.038174e-01 1.305464e-01 2.293215e-01 2.535236e-01 5.381362e-01 6.862752e-01 6.391606e-01 5.027792e-01 7.670404e-01 3.533284e-01 3.270775e-01 3.480501e-01 1.635286e-01
<GCONST> 1.099087e+02
<TRANSP> 5
 0.000000e+00 1.000000e+00 0.000000e+00 0.000000e+00 0.000000e+00
 0.000000e+00 6.537334e-01 3.462666e-01 0.000000e+00 0.000000e+00
 0.000000e+00 0.000000e+00 6.038580e-01 3.961420e-01 0.000000e+00
 0.000000e+00 0.000000e+00 0.000000e+00 8.651999e-01 1.348002e-01
 0.000000e+00 0.000000e+00 0.000000e+00 0.000000e+00 0.000000e+00
<ENDHMM>
~h "e"
<BEGINHMM>
<NUMSTATES> 5
<STATE> 2
<MEAN> 39
 -1.464617e+01 1.981668e+00 1.524632e-01 -5.283119e+00 -2.814785e+00 -5.171662e+00 -5.979272e+00 -5.003354e+00 -1.013070e+01 -4.083667e+00 -2.473360e+00 -4.920864e+00 7.672100e+01 5.425321e-01 -6.710227e-01 2.755856e-01 1.495233e-01 4.028324e-01 -4.184260e-01 2.222613e-02 -2.120063e-01 -6.171446e-01 -3.009342e-01 -1.757920e-01 -3.309814e-02 1.794511e+00 3.583916e-01 -6.196538e-02 -7.977198e-02 2.033145e-01 2.548751e-01 -3.223748e-01 -1.684099e-01 1.125859e-01 -2.739901e-01 -6.522472e-02 4.632855e-02 -1.326896e-01 2.401775e-01
<VARIANCE> 39
 5.803923e+01 5.449950e+01 3.203791e+01 4.377457e+01 4.288574e+01 2.821238e+01 2.714016e+01 3.577797e+01 2.874707e+01 3.622002e+01 2.098846e+01 1.683372e+01 9.506830e+01 5.944233e+00 5.492510e+00 3.658190e+00 4.910664e+00 4.036930e+00 4.298656e+00 3.515824e+00 3.524838e+00 5.029553e+00 3.222095e+00 2.462239e+00 2.009881e+00 9.106444e+00 8.741024e-01 9.125221e-01 5.803525e-01 8.160637e-01 7.001995e-01 6.794935e-01 5.205840e-01 6.567138e-01 7.092403e-01 6.442978e-01 4.678717e-01 3.944849e-01 1.248480e+00
<GCONST> 1.316273e+02
<STATE> 3
<MEAN> 39
 -1.009059e+01 5.664017e-01 5.948587e+00 3.972405e+00 7.177193e+00 -9.439868e+00 -1.133785e+01 -2.995455e+00 -1.202809e+01 -7.124577e+00 -3.596472e+00 -6.978156e+00 8.246234e+01 6.187441e-01 3.919173e-02 -2.907889e-01 2.353154e-01 4.493834e-01 -3.357582e-01 -5.247342e-01 -1.406959e-01 -1.051780e-01 -9.311984e-02 -8.552552e-02 -1.864715e-01 3.891991e-01 -1.173640e-01 5.737786e-02 -1.116514e-01 -2.371549e-01 -2.030597e-01 1.128285e-01 8.541998e-02 1.162446e-02 1.336813e-01 8.275612e-02 1.856312e-02 8.567794e-02 -1.774359e-01
<VARIANCE> 39
 3.394810e+01 4.555234e+01 6.854527e+01 7.355305e+01 4.811724e+01 6.799129e+01 5.378678e+01 6.086515e+01 7.698071e+01 7.795668e+01 4.045512e+01 4.147897e+01 4.768132e+01 5.676726e+00 5.259184e+00 4.810375e+00 4.836664e+00 4.182493e+00 6.603567e+00 5.751719e+00 4.544466e+00 8.365727e+00 4.934311e+00 4.196077e+00 3.629877e+00 6.060875e+00 1.041348e+00 9.444522e-01 8.178198e-01 8.212854e-01 6.808320e-01 9.890885e-01 1.063941e+00 7.408011e-01 1.339582e+00 8.483436e-01 7.917591e-01 6.080272e-01 1.047202e+00
<GCONST> 1.434884e+02
<STATE> 4
<MEAN> 39
 -5.268435e+00 2.875097e+00 4.262459e-01 -2.993848e+00 2.539358e+00 -7.642476e+00 -8.343021e+00 -4.723156e+00 -1.187602e+01 -7.538404e+00 -7.699533e+00 -8.352367e+00 8.210932e+01 3.739493e-02 2.554782e-01 -1.440395e-01 -3.295996e-01 -4.092281e-01 2.240247e-01 1.484645e-01 2.150850e-01 2.684260e-01 1.510550e-01 2.198796e-02 1.521424e-01 -2.983081e-01 -2.164507e-01 -2.345813e-02 5.801942e-02 -8.177998e-02 -7.761696e-02 5.859422e-02 8.211497e-02 5.396798e-04 1.951547e-02 3.437589e-02 1.278060e-01 1.098587e-01 -1.881538e-02
<VARIANCE> 39
 1.534834e+01 2.748289e+01 3.473376e+01 3.817967e+01 3.870196e+01 7.469486e+01 8.614427e+01 5.202212e+01 1.129957e+02 1.098938e+02 7.450540e+01 3.664677e+01 3.349566e+01 1.293601e+00 1.366017e+00 1.634729e+00 1.735216e+00 2.564044e+00 4.090669e+00 2.764696e+00 2.456670e+00 3.095281e+00 2.567195e+00 2.861574e+00 2.174134e+00 1.315414e+00 2.556517e-01 2.473319e-01 3.204608e-01 2.679121e-01 4.254147e-01 7.885892e-01 5.091856e-01 4.297388e-01 7.113885e-01 4.775962e-01 5.053809e-01 3.468432e-01 2.930799e-01
<GCONST> 1.203162e+02
<TRANSP> 5
 0.000000e+00 1.000000e+00 0.000000e+00 0.000000e+00 0.000000e+00
 0.000000e+00 6.747245e-01 3.252755e-01 0.000000e+00 0.000000e+00
 0.000000e+00 0.000000e+00 7.700549e-01 2.299450e-01 0.000000e+00
 0.000000e+00 0.000000e+00 0.000000e+00 7.456819e-01 2.543181e-01
 0.000000e+00 0.000000e+00 0.000000e+00 0.000000e+00 0.000000e+00
<ENDHMM>
~h "g"
<BEGINHMM>
<NUMSTATES> 5
<STATE> 2
<MEAN> 39
 -1.540656e+01 1.498541e+00 -4.349842e+00 -9.048307e+00 -3.254333e+00 -4.615064e+00 -2.802009e+00 -3.597837e+00 -9.149810e+00 -3.600321e+00 -3.417100e+00 -2.257110e+00 7.029057e+01 -4.514670e-01 -7.235073e-01 4.627759e-01 -6.079707e-01 8.346634e-01 3.308003e-02 -1.572807e+00 -5.698640e-01 7.726221e-01 3.593406e-01 -4.410133e-01 -1.277222e-01 1.756787e+00 4.323102e-01 3.720384e-03 6.228933e-01 3.566782e-01 1.209999e-01 -3.156523e-01 -6.277939e-01 6.914933e-02 -1.072302e-01 -1.563703e-01 7.874828e-02 -4.084566e-01 3.789198e-01
<VARIANCE> 39
 3.454288e+01 3.405247e+01 1.351850e+01 1.977608e+01 4.269886e+01 3.281374e+01 5.926150e+01 2.861308e+01 3.185326e+01 1.359870e+01 2.094152e+01 2.075852e+01 3.228482e+01 1.373274e+00 2.871389e+00 2.572792e+00 2.800459e+00 7.043375e+00 2.868095e+00 5.819707e+00 3.140781e+00 1.139278e+00 1.416025e+00 1.279442e+00 1.598355e+00 7.609985e+00 3.385202e-01 4.254787e-01 1.044821e+00 7.936220e-01 9.006628e-01 7.007951e-01 9.929864e-01 5.574124e-01 2.442010e-01 2.798849e-01 2.642936e-01 2.655648e-01 7.153075e-01
<GCONST> 1.182670e+02
<STATE> 3
<MEAN> 39
 -1.238451e+01 6.723125e-01 5.699467e+00 -4.822116e+00 1.731202e+00 -8.622872e+00 -1.526890e+01 -4.171809e+00 -7.508953e+00 -3.691870e+00 -4.420608e+00 -7.471940e+00 7.870635e+01 1.291358e+00 3.737500e-01 3.428770e+00 2.768186e+00 2.518786e-01 -2.591286e+00 -1.537930e+00 9.123247e-01 -5.414195e-01 -2.529725e-02 8.588870e-01 -1.181650e+00 3.388602e-01 -4.224240e-02 1.434887e-01 -3.419316e-01 1.222622e-01 -4.055929e-01 -2.853295e-01 1.001745e+00 5.174425e-01 -8.880405e-02 1.081370e-01 1.694050e-01 1.353362e-01 -6.752123e-01
<VARIANCE> 39
 1.848459e+01 2.944277e+01 9.322293e+01 4.811215e+01 1.153563e+02 8.631168e+01 1.436470e+02 2.645749e+01 4.435920e+01 9.819129e+00 2.421852e+01 3.267256e+01 3.487894e+01 2.128912e+00 1.818992e+00 9.976341e+00 4.358117e+00 4.843911e+00 5.245815e+00 6.170587e+00 1.862878e+00 1.990662e+00 1.867519e+00 1.743090e+00 1.894089e+00 3.013029e+00 3.137106e-01 5.782003e-01 1.477994e+00 1.318727e+00 7.792630e-01 1.065790e+00 8.847417e-01 4.693993e-01 4.824849e-01 3.812220e-01 3.896091e-01 5.166205e-01 5.361889e-01
<GCONST> 1.285261e+02
<STATE> 4
<MEAN> 39
 -9.055210e+00 2.676736e+00 1.342709e+01 2.441847e+00 1.336363e+00 -1.405522e+01 -1.199702e+01 2.232476e+00 -6.132455e+00 -1.151014e+00 -6.231109e-01 -7.783229e+00 7.755949e+01 2.610375e-01 1.069583e+00 -1.083712e+00 -1.831629e-01 -6.276333e-01 1.106615e+00 1.564508e+00 4.939694e-01 6.984582e-01 9.744463e-02 1.877009e-01 7.754854e-01 -1.106860e+00 -5.663749e-02 2.104748e-01 -4.890108e-01 -3.537664e-01 2.117185e-01 4.404782e-01 5.679291e-02 -2.211743e-01 -6.082504e-03 -1.538835e-01 -1.264179e-01 7.873632e-02 -1.496629e-01
<VARIANCE> 39
 4.107516e+00 2.664683e+01 1.047169e+02 3.997669e+01 7.090391e+01 9.273170e+01 6.980041e+01 2.489162e+01 2.846484e+01 6.071466e+00 1.154302e+01 2.167151e+01 2.770135e+01 3.363548e-01 1.888796e+00 2.430248e+00 1.410597e+00 1.298071e+00 4.959361e+00 2.758900e+00 1.480497e+00 9.122167e-01 1.135556e+00 1.181088e+00 1.512581e+00 6.589180e-01 6.321310e-02 3.678803e-01 4.592246e-01 3.356701e-01 3.901867e-01 9.873902e-01 3.201682e-01 2.287515e-01 3.754538e-01 1.293958e-01 2.644297e-01 2.932307e-01 8.144637e-02
<GCONST> 1.019171e+02
<TRANSP> 5
 0.000000e+00 1.000000e+00 0.000000e+00 0.000000e+00 0.000000e+00
 0.000000e+00 5.169515e-01 4.830485e-01 0.000000e+00 0.000000e+00
 0.000000e+00 0.000000e+00 4.716111e-01 5.283889e-01 0.000000e+00
 0.000000e+00 0.000000e+00 0.000000e+00 6.546706e-01 3.453294e-01
 0.000000e+00 0.000000e+00 0.000000e+00 0.000000e+00 0.000000e+00
<ENDHMM>
~h "h"
<BEGINHMM>
<NUMSTATES> 5
<STATE> 2
<MEAN> 39
 -1.618410e+01 -3.167961e+00 9.833815e+00 3.584635e+00 2.163420e+00 -1.292830e+01 -8.703117e+00 -6.409988e-01 -7.649359e+00 -4.188391e+00 -5.961185e+00 -5.684265e+00 8.183427e+01 -1.881240e-01 -2.122625e-01 -3.536960e-01 -3.791929e-01 -4.146169e-01 2.393595e-01 2.770962e-02 -1.453045e-01 6.762165e-01 4.206967e-01 3.613644e-02 4.188800e-01 -4.078736e-01 1.357738e-01 1.080381e-01 -1.523997e-01 -3.381858e-02 -1.218471e-02 -6.591289e-02 -3.823414e-02 -7.185217e-02 -1.777464e-01 3.913475e-02 7.888187e-02 -4.369541e-02 -1.673209e-02
<VARIANCE> 39
 1.701412e+01 4.046360e+01 4.543592e+01 3.871646e+01 2.693596e+01 6.603306e+01 3.316956e+01 4.440253e+01 3.793527e+01 5.110208e+01 2.111578e+01 1.563906e+01 1.985049e+01 1.048156e+00 2.206197e+00 1.940784e+00 1.751668e+00 1.841906e+00 3.199301e+00 1.660424e+00 1.711400e+00 2.324907e+00 1.455049e+00 1.351354e+00 1.266292e+00 6.877480e-01 2.042501e-01 3.847352e-01 2.512256e-01 2.575182e-01 3.459110e-01 5.311652e-01 2.738736e-01 2.397525e-01 4.177856e-01 3.012274e-01 2.258912e-01 2.235088e-01 7.792672e-02
<GCONST> 1.057723e+02
<STATE> 3
<MEAN> 39
 -1.322632e+01 -4.500939e+00 3.072682e+00 -8.837272e-02 -3.850809e-01 -5.111018e+00 -8.914356e+00 -5.110793e+00 -3.949111e+00 -6.996685e-01 -3.925997e+00 -4.446428e+00 7.568288e+01 2.072027e-01 6.190538e-01 -2.238285e-01 5.008446e-01 -2.801201e-01 1.877079e-01 2.604559e-01 -1.520383e-02 -2.291620e-01 -3.674309e-01 -1.725483e-02 -2.439075e-02 -9.272431e-01 3.255736e-03 2.653261e-01 6.325740e-02 8.476467e-02 1.372043e-01 -6.558099e-02 8.815242e-02 5.213065e-02 -2.467001e-01 -1.794045e-01 -3.233797e-03 -1.441451e-01 1.694368e-02
<VARIANCE> 39
 1.055645e+01 5.072866e+01 2.151263e+01 3.920879e+01 3.525992e+01 4.349066e+01 2.968584e+01 4.511688e+01 3.230551e+01 3.351081e+01 2.537042e+01 1.750051e+01 2.411792e+01 6.469227e-01 1.561621e+00 1.695467e+00 1.515622e+00 1.429299e+00 2.084882e+00 2.084581e+00 1.485368e+00 1.519579e+00 1.478146e+00 1.269409e+00 1.259012e+00 2.938722e-01 1.431378e-01 2.518463e-01 2.019698e-01 2.689648e-01 2.513927e-01 2.960870e-01 2.815994e-01 3.453286e-01 3.248875e-01 2.884920e-01 2.665704e-01 2.734709e-01 4.504155e-02
<GCONST> 9.947838e+01
<STATE> 4
<MEAN> 39
 -1.284365e+01 5.383864e+00 -9.524331e-01 -2.144058e+00 -3.206855e+00 -2.736852e+00 -3.250861e+00 -1.115175e+00 -6.986369e+00 -6.659171e+00 -5.948509e+00 -6.157961e+00 6.810358e+01 -2.407339e-01 2.420770e-01 -7.455048e-02 7.497048e-03 6.786504e-02 9.273303e-02 3.663527e-02 -3.275076e-03 -1.901131e-01 -1.093796e-02 1.382014e-01 -1.896000e-02 -3.923470e-01 2.100450e-03 -4.583240e-02 1.550884e-02 -2.838418e-02 7.265640e-02 -2.454319e-02 -5.199485e-02 1.853586e-02 -4.933885e-03 3.347089e-02 5.591238e-02 -1.842811e-02 7.734916e-02
<VARIANCE> 39
 8.114890e+00 2.711381e+01 2.024352e+01 3.326854e+01 3.059174e+01 2.298832e+01 2.183410e+01 3.177523e+01 2.078090e+01 1.703196e+01 1.522938e+01 1.265088e+01 1.491478e+01 3.516839e-01 1.135990e+00 9.657362e-01 1.218704e+00 1.404547e+00 1.130628e+00 1.150727e+00 1.522334e+00 1.332515e+00 1.172995e+00 1.121620e+00 1.056426e+00 3.374176e-01 7.740286e-02 1.656527e-01 1.576251e-01 2.197840e-01 2.654712e-01 1.898879e-01 2.232972e-01 2.366631e-01 2.641245e-01 2.049104e-01 1.822683e-01 2.082280e-01 5.932414e-02
<GCONST> 8.765228e+01
<TRANSP> 5
 0.000000e+00 1.000000e+00 0.000000e+00 0.000000e+00 0.000000e+00
 0.000000e+00 7.749988e-01 2.250012e-01 0.000000e+00 0.000000e+00
 0.000000e+00 0.000000e+00 7.368155e-01 2.631846e-01 0.000000e+00
 0.000000e+00 0.000000e+00 0.000000e+00 8.707322e-01 1.292678e-01
 0.000000e+00 0.000000e+00 0.000000e+00 0.000000e+00 0.000000e+00
<ENDHMM>
~h "i"
<BEGINHMM>
<NUMSTATES> 5
<STATE> 2
<MEAN> 39
 -1.088470e+01 4.494928e-01 6.646479e+00 4.096977e+00 9.114417e+00 -1.460347e+01 -1.322550e+01 -5.635661e+00 -1.402474e+01 -5.228432e+00 -2.345688e+00 -8.801434e+00 8.239027e+01 1.091132e-01 1.071370e-01 1.835930e-01 3.347675e-01 3.124272e-01 -3.362729e-02 -4.420972e-01 -1.416499e-01 1.065501e-01 4.305387e-02 -6.703386e-02 -1.548437e-01 -1.154791e-01 2.251839e-02 1.426389e-01 -2.015938e-01 -1.324357e-01 -2.271530e-01 2.541093e-01 1.558618e-01 9.033398e-02 1.754526e-01 3.036470e-02 -6.161641e-03 1.068967e-01 -3.009412e-01
<VARIANCE> 39
 2.231558e+01 2.785567e+01 5.604707e+01 5.381033e+01 6.482013e+01 1.093746e+02 7.059730e+01 5.163067e+01 5.737843e+01 4.995527e+01 3.501134e+01 3.691961e+01 3.519813e+01 1.593031e+00 3.164188e+00 4.774010e+00 4.491100e+00 3.994012e+00 1.039010e+01 4.488189e+00 3.927696e+00 7.194091e+00 3.657235e+00 3.100987e+00 3.068447e+00 4.414430e+00 2.915218e-01 4.500945e-01 8.233956e-01 6.944003e-01 6.096960e-01 1.483879e+00 8.243344e-01 8.267528e-01 1.296179e+00 7.665527e-01 4.864706e-01 5.165576e-01 4.717043e-01
<GCONST> 1.349481e+02
<STATE> 3
<MEAN> 39
 -9.098263e+00 4.484252e+00 1.287520e+00 2.943906e-01 4.608602e+00 -6.444278e+00 -1.087301e+01 -5.499900e+00 -8.593424e+00 -4.840574e+00 -2.132262e+00 -5.834951e+00 7.514822e+01 2.526089e-01 8.707583e-01 -1.021388e+00 -1.629377e-01 -9.026007e-01 9.417260e-01 5.378916e-01 2.376896e-01 4.029622e-01 -3.890115e-01 -3.023259e-01 3.246976e-01 -1.549860e+00 -1.113593e-01 -3.459413e-01 -6.633490e-03 3.109552e-02 -2.093186e-02 -5.271895e-01 -2.150569e-02 1.778668e-02 -3.696259e-01 -5.493732e-03 1.631635e-01 -5.097838e-02 3.854005e-01
<VARIANCE> 39
 2.579242e+01 2.210527e+01 4.167962e+01 3.330428e+01 4.186862e+01 4.027300e+01 7.698005e+01 4.366345e+01 3.036506e+01 4.375468e+01 3.930529e+01 2.460955e+01 3.549467e+01 1.312771e+00 1.928456e+00 2.719004e+00 2.092374e+00 2.284426e+00 3.822176e+00 3.397064e+00 3.076054e+00 2.637862e+00 2.655846e+00 2.909089e+00 1.519045e+00 1.736593e+00 2.351401e-01 2.829974e-01 4.966335e-01 4.828507e-01 4.143668e-01 7.100445e-01 6.947393e-01 5.332155e-01 5.640892e-01 4.472227e-01 5.353443e-01 3.639242e-01 2.974928e-01
<GCONST> 1.190307e+02
<STATE> 4
<MEAN> 39
 -8.526352e+00 5.399403e+00 -1.292040e+00 -4.213628e-01 3.607867e+00 -4.969161e+00 -7.372315e+00 -4.764202e+00 -9.202001e+00 -2.500431e+00 -1.767746e+00 -4.714129e+00 7.398528e+01 -3.341883e-01 -1.285447e-01 -2.929280e-01 -2.986065e-01 -4.826235e-01 2.749665e-01 3.611462e-01 1.151057e-01 -2.460066e-02 -1.019471e-01 6.725477e-02 1.036822e-01 -4.165888e-01 -1.053263e-01 -1.484607e-01 5.115106e-02 -1.941290e-01 -2.086173e-02 -7.016326e-02 5.309931e-03 -1.370933e-03 -9.908177e-03 -1.073729e-02 2.662363e-02 -2.456494e-02 2.993229e-01
<VARIANCE> 39
 1.549321e+01 2.285646e+01 3.239625e+01 2.808450e+01 4.317226e+01 2.157982e+01 4.692860e+01 2.275477e+01 2.320756e+01 2.942164e+01 3.764587e+01 1.729992e+01 5.144726e+01 4.838741e-01 1.383327e+00 1.460124e+00 1.575200e+00 1.541389e+00 1.472022e+00 2.015284e+00 1.610698e+00 1.596873e+00 1.503407e+00 1.315956e+00 1.233267e+00 1.178870e+00 7.009342e-02 2.714889e-01 2.177515e-01 3.139715e-01 2.995075e-01 3.277816e-01 3.430370e-01 3.224334e-01 3.347606e-01 3.144490e-01 3.162789e-01 2.412500e-01 3.503543e-01
<GCONST> 1.020284e+02
<TRANSP> 5
 0.000000e+00 1.000000e+00 0.000000e+00 0.000000e+00 0.000000e+00
 0.000000e+00 8.198549e-01 1.801451e-01 0.000000e+00 0.000000e+00
 0.000000e+00 0.000000e+00 5.138387e-01 4.861613e-01 0.000000e+00
 0.000000e+00 0.000000e+00 0.000000e+00 7.660796e-01 2.339204e-01
 0.000000e+00 0.000000e+00 0.000000e+00 0.000000e+00 0.000000e+00
<ENDHMM>
~h "j"
<BEGINHMM>
<NUMSTATES> 5
<STATE> 2
<MEAN> 39
 -3.818239e+00 -8.588396e-01 -4.646580e+00 -3.690298e+00 -3.770753e+00 -8.177368e+00 -3.486257e+00 9.037914e-01 -6.063328e+00 -5.611311e+00 -6.223441e+00 -6.117721e+00 8.704659e+01 -3.000917e-02 -8.074438e-02 1.364895e-01 -2.641934e-01 -1.017275e-01 -9.687580e-02 1.782777e-01 1.575333e-01 3.055327e-01 -9.427176e-02 2.299147e-01 1.854925e-01 8.753629e-03 -5.904606e-03 4.527443e-02 8.260466e-02 4.237005e-02 6.790845e-02 1.264610e-01 -3.182625e-02 -3.957304e-02 7.569428e-02 1.780858e-02 -5.798184e-02 -1.060201e-02 -1.024739e-01
<VARIANCE> 39
 4.203720e+00 1.593551e+01 4.136153e+01 2.753109e+01 8.013792e+01 4.706777e+01 8.726382e+01 1.875602e+02 7.178767e+01 9.909466e+01 7.634677e+01 4.629571e+01 1.647806e+01 3.152963e-01 8.633987e-01 3.060046e+00 1.905688e+00 3.439505e+00 3.315507e+00 5.188389e+00 1.541348e+00 3.196230e+00 1.436033e+00 4.479725e+00 3.838831e+00 1.110843e+00 5.107284e-02 8.559969e-02 3.404228e-01 3.094835e-01 4.060065e-01 4.274233e-01 5.013568e-01 2.015673e-01 4.671769e-01 2.904632e-01 6.934330e-01 4.625787e-01 9.132402e-02
<GCONST> 1.128947e+02
<STATE> 3
<MEAN> 39
 -5.418431e+00 3.244834e+00 6.448140e+00 -1.294912e+00 6.630778e+00 -5.293135e+00 -1.043353e+01 -4.978777e+00 -9.875990e+00 -5.856635e+00 -6.659564e+00 -1.183422e+01 8.096958e+01 -2.432089e-01 1.073622e-01 5.097241e-01 4.861736e-01 6.241993e-01 2.150097e-01 -4.140280e-01 1.947152e-01 1.101348e+00 3.556223e-01 2.212219e-01 -1.023749e-02 -2.879040e-01 -6.211631e-02 1.359842e-02 -6.931332e-02 -6.264686e-02 -1.775395e-01 -2.388234e-02 1.816688e-01 2.756462e-01 8.937933e-02 -2.373790e-02 1.013315e-02 2.084501e-01 -8.733866e-02
<VARIANCE> 39
 5.351606e+00 9.450577e+00 1.788695e+01 2.190306e+01 4.559328e+01 2.879754e+01 1.414830e+02 7.024361e+01 1.008836e+02 8.598331e+01 7.532063e+01 2.139165e+01 6.170257e+00 3.417915e-01 6.814021e-01 1.185071e+00 1.565234e+00 7.175594e-01 2.083218e+00 1.455079e+00 9.212765e-01 3.042165e+00 1.860921e+00 8.524606e-01 7.000012e-01 4.556637e-01 2.882583e-02 3.746241e-02 1.433954e-01 2.168350e-01 1.769152e-01 1.612102e-01 2.630831e-01 2.623559e-01 3.694271e-01 2.643211e-01 2.890938e-01 1.512521e-01 5.742747e-02
<GCONST> 9.166972e+01
<STATE> 4
<MEAN> 39
 -1.219862e+01 1.113850e-02 1.218719e+01 3.536265e+00 9.662520e+00 -6.101877e+00 -1.695787e+01 -2.543159e-01 -3.289634e+00 -2.907494e+00 -7.052025e-01 -8.039692e+00 8.140264e+01 -5.446326e-02 -8.074909e-02 -7.164109e-02 -2.503083e-01 -5.849706e-02 5.455660e-01 2.076139e-01 -4.618969e-01 -1.480844e-01 -1.172395e-01 -1.570263e-01 1.909580e-01 9.898562e-02 1.542219e-01 7.335629e-02 -2.076625e-01 -1.396490e-01 -6.759219e-02 -4.143553e-02 2.442276e-01 -1.149120e-01 -4.195817e-01 -1.662112e-01 4.173525e-02 -5.029491e-02 2.494742e-04
<VARIANCE> 39
 4.953723e+01 4.367548e+01 4.372130e+01 3.100521e+01 4.063016e+01 3.155085e+01 7.932921e+01 7.587109e+01 5.445811e+01 5.386022e+01 2.702812e+01 3.087879e+01 3.727554e+01 7.129106e+00 6.740633e+00 5.402884e+00 3.063086e+00 2.422206e+00 2.030935e+00 7.184167e+00 6.898985e+00 7.354573e+00 1.978895e+00 1.891373e+00 2.574425e+00 5.629164e+00 1.265823e+00 1.487810e+00 1.133339e+00 5.752314e-01 4.790613e-01 4.670662e-01 1.504338e+00 9.042029e-01 7.513289e-01 3.842883e-01 4.232917e-01 3.483968e-01 1.120902e+00
<GCONST> 1.348938e+02
<TRANSP> 5
 0.000000e+00 1.000000e+00 0.000000e+00 0.000000e+00 0.000000e+00
 0.000000e+00 8.393223e-01 1.606777e-01 0.000000e+00 0.000000e+00
 0.000000e+00 0.000000e+00 6.684928e-01 3.315072e-01 0.000000e+00
 0.000000e+00 0.000000e+00 0.000000e+00 8.641284e-01 1.358716e-01
 0.000000e+00 0.000000e+00 0.000000e+00 0.000000e+00 0.000000e+00
<ENDHMM>
~h "k"
<BEGINHMM>
<NUMSTATES> 5
<STATE> 2
<MEAN> 39
 -9.554543e+00 2.819303e+00 -1.928159e+00 -5.309527e+00 1.529211e+00 -9.215866e+00 -5.442682e+00 -5.199734e+00 -1.491139e+01 -5.258652e+00 -1.478956e+00 -5.804218e+00 7.995419e+01 -3.591848e-01 1.986161e-01 6.546570e-02 -3.756026e-01 -2.625683e-01 3.499432e-01 1.029546e-01 9.661508e-02 3.332995e-01 -2.052341e-01 -2.472290e-01 -1.766566e-02 -3.818840e-01 -1.058038e-01 -1.239428e-01 1.411294e-02 -1.466193e-02 -1.845090e-02 -7.401034e-02 -4.545669e-02 -1.852899e-02 -9.866863e-03 6.156562e-02 -5.944365e-02 -1.375369e-02 1.823065e-01
<VARIANCE> 39
 3.116360e+01 3.872641e+01 4.777208e+01 6.919947e+01 5.995753e+01 6.051601e+01 4.089205e+01 3.500574e+01 6.575645e+01 5.465039e+01 2.650197e+01 2.979438e+01 5.991280e+01 4.680547e+00 3.812861e+00 4.062281e+00 8.325884e+00 5.283626e+00 6.838208e+00 4.362502e+00 3.279180e+00 6.254903e+00 4.431244e+00 2.230701e+00 3.023861e+00 7.999747e+00 1.066183e+00 7.180871e-01 8.655407e-01 1.530390e+00 1.009930e+00 1.312052e+00 8.713217e-01 6.587708e-01 1.120996e+00 9.865748e-01 4.931313e-01 5.985642e-01 1.341839e+00
<GCONST> 1.401667e+02
<STATE> 3
<MEAN> 39
 -1.534086e+01 1.680149e+00 1.062838e+00 -6.917330e+00 -7.396676e-04 -6.858773e+00 -7.281682e+00 -7.829151e+00 -9.121993e+00 -3.503149e+00 -5.054472e+00 -5.730394e+00 8.042182e+01 -2.187951e-01 -7.183250e-01 9.885951e-01 6.994541e-01 5.271581e-01 -7.131428e-01 -6.096047e-01 -1.441139e-02 -3.783168e-01 2.309127e-01 5.356278e-02 -5.005641e-02 1.309991e+00 4.498399e-01 -3.566021e-02 8.206554e-03 3.492862e-01 7.106026e-02 -3.152915e-01 -9.696417e-03 1.618795e-01 -3.366352e-01 -2.892728e-02 2.859365e-01 7.896503e-02 -4.643745e-02
<VARIANCE> 39
 4.781329e+01 6.876968e+01 4.845929e+01 4.197162e+01 2.681781e+01 4.223721e+01 3.754969e+01 3.077764e+01 4.889650e+01 2.584479e+01 3.730920e+01 2.025513e+01 5.170710e+01 8.558237e+00 5.742466e+00 4.333132e+00 4.803870e+00 3.960343e+00 4.799956e+00 3.443309e+00 3.274763e+00 7.040390e+00 2.217231e+00 4.329276e+00 2.430066e+00 3.667666e+00 1.341936e+00 1.209453e+00 7.582117e-01 8.935337e-01 7.433907e-01 8.658847e-01 6.639792e-01 5.492607e-01 1.016967e+00 4.178113e-01 6.487942e-01 3.090328e-01 6.501049e-01
<GCONST> 1.336440e+02
<STATE> 4
<MEAN> 39
 -1.338354e+01 -2.187376e+00 3.162999e+00 -7.320487e+00 3.453395e+00 -1.089006e+01 -8.030410e+00 -8.123672e+00 -1.695714e+01 1.735851e+00 7.981175e-01 -5.251533e+00 8.717621e+01 8.939323e-02 -1.863067e-01 1.076874e-01 -1.402252e-01 -1.686988e-02 -2.172982e-01 1.413002e-01 4.426596e-01 1.814551e-01 -5.036286e-02 1.340695e-03 4.950885e-01 -6.882876e-03 1.436208e-01 4.285945e-02 -2.029515e-01 -1.254228e-01 -9.443574e-02 8.378020e-02 5.538197e-02 6.050896e-02 2.340508e-01 -2.665079e-02 -9.049641e-02 -1.294487e-02 -1.391321e-01
<VARIANCE> 39
 1.376009e+02 2.004021e+01 7.925348e+01 8.716167e+01 7.670748e+01 6.563960e+01 5.141000e+01 6.755898e+01 8.301784e+01 4.066330e+01 2.575196e+01 2.675926e+01 9.519714e+00 1.043772e+01 1.819472e+00 6.243747e+00 3.923378e+00 3.428632e+00 6.273420e+00 2.492819e+00 3.427986e+00 4.938772e+00 1.592806e+00 1.926390e+00 1.613996e+00 8.582969e-01 1.464958e+00 3.369968e-01 9.709929e-01 6.604701e-01 5.739066e-01 9.216501e-01 4.776301e-01 5.824847e-01 8.116293e-01 2.890082e-01 3.057023e-01 3.121522e-01 1.487782e-01
<GCONST> 1.276594e+02
<TRANSP> 5
 0.000000e+00 1.000000e+00 0.000000e+00 0.000000e+00 0.000000e+00
 0.000000e+00 9.274650e-01 7.253496e-02 0.000000e+00 0.000000e+00
 0.000000e+00 0.000000e+00 8.281937e-01 1.718064e-01 0.000000e+00
 0.000000e+00 0.000000e+00 0.000000e+00 8.022181e-01 1.977819e-01
 0.000000e+00 0.000000e+00 0.000000e+00 0.000000e+00 0.000000e+00
<ENDHMM>
~h "l"
<BEGINHMM>
<NUMSTATES> 5
<STATE> 2
<MEAN> 39
 -1.567159e+01 5.186365e+00 -3.119851e+00 -4.986276e+00 -3.820147e+00 -2.896779e+00 -6.007855e+00 -3.831489e+00 -8.896669e+00 -5.798206e+00 -3.610928e+00 -4.788041e+00 6.547561e+01 -1.286934e-01 1.488011e-02 7.137824e-04 3.215264e-02 -5.079454e-02 7.512124e-03 -1.433922e-02 1.221132e-02 3.056095e-02 1.758411e-02 -3.158518e-02 -7.901280e-02 -1.554807e-01 -3.474928e-02 -6.322200e-02 6.540383e-02 -3.514116e-02 3.386286e-02 -2.158868e-02 1.878207e-02 1.033713e-02 -7.912573e-03 2.552345e-02 1.014021e-04 -3.237150e-03 9.019953e-02
<VARIANCE> 39
 1.219444e+01 1.602307e+01 1.310650e+01 1.460598e+01 1.464088e+01 1.309510e+01 1.481715e+01 1.409886e+01 1.570367e+01 1.875792e+01 1.407842e+01 1.200327e+01 9.089717e+00 2.926260e-01 4.246399e-01 5.856110e-01 6.922189e-01 8.016896e-01 8.583806e-01 1.029518e+00 9.557647e-01 1.093059e+00 1.005812e+00 8.828018e-01 7.389160e-01 1.414010e-01 6.861862e-02 9.744199e-02 1.307523e-01 1.533132e-01 1.799168e-01 1.928741e-01 2.278285e-01 1.920810e-01 2.306276e-01 1.930166e-01 1.834685e-01 1.600881e-01 4.645599e-02
<GCONST> 7.504402e+01
<STATE> 3
<MEAN> 39
 -1.780821e+01 4.226991e+00 -1.953461e+00 -6.210275e+00 -3.262679e+00 -2.889323e+00 -6.148735e+00 -3.953618e+00 -8.292723e+00 -4.452703e+00 -3.917549e+00 -5.696984e+00 6.588136e+01 -2.678790e-01 -3.378381e-01 4.694589e-01 -2.489616e-01 2.435438e-01 -9.639098e-02 6.846096e-02 -8.345007e-02 -1.493499e-01 2.181002e-01 1.010425e-01 -4.457190e-02 5.148274e-01 -1.068494e-02 -2.111110e-01 2.273443e-01 -6.917671e-02 6.380844e-02 -7.252264e-02 3.129203e-02 -8.345848e-02 -1.138288e-01 3.545384e-02 7.354406e-02 4.817890e-02 3.728916e-01
<VARIANCE> 39
 1.972936e+01 1.517389e+01 1.725727e+01 1.772139e+01 1.767854e+01 1.460219e+01 2.910967e+01 1.913465e+01 1.892736e+01 2.055457e+01 1.774007e+01 1.352625e+01 1.340880e+01 1.585964e+00 1.776367e+00 2.125951e+00 2.098670e+00 1.754644e+00 1.760413e+00 2.567548e+00 1.801458e+00 1.709511e+00 1.824042e+00 1.469400e+00 1.376675e+00 9.569038e-01 3.778510e-01 3.933126e-01 4.856160e-01 4.105226e-01 3.462927e-01 3.530941e-01 4.892874e-01 3.955841e-01 3.821535e-01 3.852651e-01 3.241142e-01 2.828129e-01 3.323230e-01
<GCONST> 1.033366e+02
<STATE> 4
<MEAN> 39
 -1.607564e+01 2.849400e+00 4.062477e-01 -5.976411e+00 -1.392739e+00 -4.202399e+00 -4.892504e+00 -3.675344e+00 -9.729051e+00 -4.968607e+00 -4.192878e+00 -5.730454e+00 7.157771e+01 6.818663e-01 -7.357874e-01 4.318036e-01 -1.710354e-01 -1.600823e-01 -7.281065e-01 1.541255e-02 -1.819746e-01 -6.856479e-01 1.465388e-02 1.423989e-01 2.489407e-02 1.735561e+00 3.155293e-02 -1.484554e-01 -2.107512e-02 -5.231262e-02 -1.657564e-01 -4.400701e-02 1.283356e-02 5.644974e-02 3.282427e-02 6.825039e-02 1.095032e-01 7.236300e-02 8.517048e-02
<VARIANCE> 39
 5.889213e+01 4.138654e+01 3.322203e+01 4.504324e+01 4.279603e+01 4.201145e+01 4.526720e+01 3.985938e+01 4.044262e+01 5.042074e+01 3.213968e+01 2.147386e+01 5.192974e+01 4.188233e+00 4.340123e+00 4.359998e+00 3.854828e+00 4.134398e+00 4.413499e+00 3.800363e+00 4.014977e+00 4.419248e+00 3.615068e+00 2.793051e+00 2.141601e+00 4.011482e+00 6.672279e-01 8.299395e-01 8.447553e-01 8.007466e-01 6.458774e-01 8.325006e-01 6.726663e-01 7.143554e-01 7.257976e-01 6.336036e-01 5.471832e-01 4.136211e-01 7.158232e-01
<GCONST> 1.322540e+02
<TRANSP> 5
 0.000000e+00 1.000000e+00 0.000000e+00 0.000000e+00 0.000000e+00
 0.000000e+00 8.759909e-01 1.240091e-01 0.000000e+00 0.000000e+00
 0.000000e+00 0.000000e+00 6.663792e-01 3.336208e-01 0.000000e+00
 0.000000e+00 0.000000e+00 0.000000e+00 6.769212e-01 3.230788e-01
 0.000000e+00 0.000000e+00 0.000000e+00 0.000000e+00 0.000000e+00
<ENDHMM>
~h "m"
<BEGINHMM>
<NUMSTATES> 5
<STATE> 2
<MEAN> 39
 -4.506891e+00 -1.039999e+00 -5.311774e+00 -5.770386e+00 -6.790173e-01 -1.279015e+01 -3.582542e+00 -2.353689e+00 -1.641888e+01 -1.786137e+00 4.880477e-01 -4.039865e+00 8.579176e+01 -8.098693e-02 -2.075078e-01 -3.748420e-01 -6.509396e-01 -4.954052e-01 6.409293e-01 9.870616e-01 2.044796e-01 4.958556e-02 1.485987e-01 6.113633e-01 2.937399e-01 -1.398063e-01 -1.084344e-01 7.060984e-02 1.376842e-01 1.282337e-01 1.469784e-01 1.048180e-01 -4.172649e-02 -5.356671e-02 5.919720e-02 -2.454187e-02 -1.077479e-01 -8.092957e-02 -1.323562e-01
<VARIANCE> 39
 1.224585e+01 1.839011e+01 1.714291e+01 2.831814e+01 5.978852e+01 4.836480e+01 7.719860e+01 6.046615e+01 5.504234e+01 6.627335e+01 4.259074e+01 3.895570e+01 2.785111e+01 4.425449e-01 8.399651e-01 1.306424e+00 1.876662e+00 2.398500e+00 1.838254e+00 1.714220e+00 1.638471e+00 1.715759e+00 1.472446e+00 2.478430e+00 1.745590e+00 9.264024e-01 4.674083e-02 1.069007e-01 1.707252e-01 2.919310e-01 3.508599e-01 2.365483e-01 2.869293e-01 2.454205e-01 2.932599e-01 2.630879e-01 3.644920e-01 2.793340e-01 8.263305e-02
<GCONST> 1.025987e+02
<STATE> 3
<MEAN> 39
 -8.247561e+00 2.242635e+00 -4.410064e+00 -6.254867e+00 2.999825e+00 -2.733133e+00 1.039287e+00 -3.045536e+00 -1.124810e+01 -2.565231e+00 4.844318e-01 -4.625507e+00 7.829086e+01 -2.939934e-01 3.193237e-01 1.521777e-01 2.201748e-01 -1.110963e-01 5.535289e-01 -1.654050e-01 -1.936629e-01 2.841609e-01 -1.076779e-01 -1.761603e-01 1.716770e-01 -1.041668e+00 -1.023310e-02 2.586670e-02 -4.762596e-03 -2.615262e-02 -1.240665e-01 -1.251791e-01 -1.173581e-01 3.907569e-02 9.365498e-03 -1.287465e-02 -3.082843e-02 4.955438e-03 -3.026351e-03
<VARIANCE> 39
 9.183052e+00 2.502185e+01 3.017225e+01 2.005400e+01 4.288386e+01 3.408809e+01 6.677685e+01 3.043321e+01 2.562625e+01 3.474271e+01 3.832565e+01 2.486637e+01 3.744480e+01 2.751835e-01 1.096037e+00 1.190187e+00 1.055734e+00 1.767864e+00 1.766635e+00 1.662346e+00 1.023339e+00 1.318021e+00 1.261143e+00 1.403581e+00 1.146903e+00 4.082316e-01 5.174241e-02 1.852478e-01 1.891045e-01 2.143503e-01 2.737083e-01 2.597639e-01 2.781443e-01 1.799923e-01 2.089220e-01 2.162078e-01 2.464321e-01 2.065247e-01 4.692707e-02
<GCONST> 9.386055e+01
<STATE> 4
<MEAN> 39
 -1.347242e+01 5.536561e+00 -3.475938e+00 -5.115088e+00 -3.644540e+00 -2.197150e+00 -4.894917e+00 -3.495019e+00 -8.730744e+00 -4.302406e+00 -1.823662e+00 -3.228581e+00 6.658161e+01 -3.645618e-01 5.724822e-02 7.654329e-02 -4.614436e-02 -1.621597e-01 -5.645102e-02 -1.585932e-01 -8.848842e-03 9.411117e-02 -4.168618e-02 -5.525135e-02 -6.243576e-02 -3.056863e-01 1.762616e-02 -5.979780e-02 1.490536e-02 1.087059e-02 5.491951e-02 -1.906198e-02 3.821962e-02 -2.145490e-03 -3.214407e-02 2.077731e-02 3.084457e-03 -2.298863e-02 6.797706e-02
<VARIANCE> 39
 1.063769e+01 1.318813e+01 1.412135e+01 1.178983e+01 2.167324e+01 2.003380e+01 2.594493e+01 2.080768e+01 1.789595e+01 1.801993e+01 1.481101e+01 1.325320e+01 1.027726e+01 2.705606e-01 6.905409e-01 7.548925e-01 8.616636e-01 9.894722e-01 1.106930e+00 1.183290e+00 1.128744e+00 1.233832e+00 1.033800e+00 1.088040e+00 9.147241e-01 2.211857e-01 4.762330e-02 1.357456e-01 1.388016e-01 1.688841e-01 1.808369e-01 2.172049e-01 2.336545e-01 2.245323e-01 2.571221e-01 2.013577e-01 2.021241e-01 1.751419e-01 3.710522e-02
<GCONST> 7.991364e+01
<TRANSP> 5
 0.000000e+00 1.000000e+00 0.000000e+00 0.000000e+00 0.000000e+00
 0.000000e+00 8.090081e-01 1.909918e-01 0.000000e+00 0.000000e+00
 0.000000e+00 0.000000e+00 8.776052e-01 1.223948e-01 0.000000e+00
 0.000000e+00 0.000000e+00 0.000000e+00 8.923199e-01 1.076801e-01
 0.000000e+00 0.000000e+00 0.000000e+00 0.000000e+00 0.000000e+00
<ENDHMM>
~h "n"
<BEGINHMM>
<NUMSTATES> 5
<STATE> 2
<MEAN> 39
 -2.461133e+00 8.611279e-01 -3.048935e+00 -6.458993e+00 -5.260681e+00 -1.281505e+01 -6.435187e+00 6.099545e+00 -5.053297e+00 -9.550406e+00 -3.215343e+00 -3.344399e+00 8.501025e+01 1.610319e-01 7.216915e-03 -5.088490e-01 -5.055693e-01 -6.553596e-01 -4.374369e-01 5.221557e-01 8.021128e-01 -2.094878e-01 -3.277519e-02 7.590697e-01 2.929606e-01 3.981780e-02 -6.031466e-02 8.666472e-02 1.257415e-01 1.156949e-01 6.428865e-02 1.895408e-01 8.223648e-02 -1.565879e-01 4.765476e-02 2.004660e-01 -1.130754e-01 -2.136897e-01 -2.125859e-01
<VARIANCE> 39
 5.685129e+00 1.613982e+01 2.393130e+01 2.582486e+01 7.551642e+01 6.825885e+01 7.268620e+01 7.940574e+01 8.427916e+01 7.871928e+01 3.482553e+01 2.426477e+01 1.885075e+01 3.429593e-01 1.974401e+00 2.668216e+00 2.150052e+00 3.232239e+00 4.640117e+00 4.683329e+00 3.790814e+00 3.050494e+00 1.955966e+00 4.525791e+00 2.989555e+00 2.107553e+00 5.093660e-02 1.743423e-01 3.083875e-01 2.861151e-01 4.470976e-01 4.637297e-01 5.442878e-01 4.865275e-01 5.058960e-01 2.605871e-01 6.562799e-01 5.055789e-01 1.351178e-01
<GCONST> 1.152005e+02
<STATE> 3
<MEAN> 39
 -2.066762e+00 1.292835e+00 -5.123219e+00 -7.700127e+00 -8.296230e+00 -1.730341e+01 -3.648364e-01 8.138803e+00 -9.453959e+00 -6.120652e+00 5.060585e-01 -3.462315e+00 8.378493e+01 -2.229364e-01 5.209825e-01 2.372603e-01 5.943278e-02 1.342800e-01 8.609086e-01 2.109507e-01 -4.831268e-01 2.830120e-01 3.558458e-01 -1.439793e-01 -1.658306e-01 -9.126146e-01 -7.847115e-02 1.942579e-02 3.310550e-02 5.446914e-02 4.069929e-02 1.181168e-01 -7.192156e-02 -1.056108e-01 6.018799e-02 3.229974e-02 -1.001967e-01 1.188636e-03 -1.029593e-01
<VARIANCE> 39
 5.510659e+00 1.900008e+01 2.167446e+01 2.373085e+01 4.806238e+01 7.882944e+01 4.677580e+01 4.992257e+01 7.351891e+01 3.902642e+01 2.187690e+01 2.056666e+01 2.601010e+01 3.610916e-01 9.665183e-01 7.327901e-01 8.374641e-01 1.087641e+00 2.281608e+00 1.214808e+00 1.363014e+00 1.327384e+00 8.105859e-01 9.812728e-01 1.010726e+00 1.425853e+00 4.877383e-02 1.316656e-01 1.396710e-01 1.425468e-01 1.764120e-01 3.047130e-01 2.160481e-01 1.918627e-01 2.019938e-01 1.285762e-01 1.879586e-01 1.455088e-01 1.017848e-01
<GCONST> 9.158237e+01
<STATE> 4
<MEAN> 39
 -7.433071e+00 6.911805e+00 -3.327084e+00 -5.850709e+00 -5.622437e+00 -5.804601e+00 -2.804366e+00 2.907109e+00 -5.937469e+00 -5.265482e+00 -2.969598e+00 -3.987148e+00 7.175161e+01 -5.805650e-01 1.365057e-01 -1.272609e-01 -1.133573e-02 -2.507046e-01 1.568696e-01 2.215702e-02 -2.529548e-01 4.237141e-02 2.785771e-01 1.328953e-01 6.885960e-02 -6.882022e-01 1.895877e-02 -8.741932e-02 5.763154e-04 -6.095758e-03 2.801806e-02 -1.254247e-01 -5.137060e-02 -2.167358e-02 -8.909724e-02 -6.859309e-02 -6.339354e-03 -2.595187e-02 1.294232e-01
<VARIANCE> 39
 1.183880e+01 1.254347e+01 1.410342e+01 1.425889e+01 4.295696e+01 2.582293e+01 2.732043e+01 4.386463e+01 1.966162e+01 3.902816e+01 1.787767e+01 1.647146e+01 3.516350e+01 3.861890e-01 5.192653e-01 7.021450e-01 8.562018e-01 1.979648e+00 1.627568e+00 1.473307e+00 1.365141e+00 1.387207e+00 1.133904e+00 1.339436e+00 1.071189e+00 4.493801e-01 5.983371e-02 9.870151e-02 1.219395e-01 1.737564e-01 2.820105e-01 3.178692e-01 2.560984e-01 2.581947e-01 2.547033e-01 1.755643e-01 2.532289e-01 2.427889e-01 9.117969e-02
<GCONST> 8.933147e+01
<TRANSP> 5
 0.000000e+00 1.000000e+00 0.000000e+00 0.000000e+00 0.000000e+00
 0.000000e+00 6.934209e-01 3.065791e-01 0.000000e+00 0.000000e+00
 0.000000e+00 0.000000e+00 7.636182e-01 2.363818e-01 0.000000e+00
 0.000000e+00 0.000000e+00 0.000000e+00 7.580829e-01 2.419171e-01
 0.000000e+00 0.000000e+00 0.000000e+00 0.000000e+00 0.000000e+00
<ENDHMM>
~h "o"
<BEGINHMM>
<NUMSTATES> 5
<STATE> 2
<MEAN> 39
 -3.920115e+00 3.961245e+00 -2.092519e+00 -1.084053e+01 -1.016110e+01 -9.546061e+00 2.429193e+00 1.090762e+00 -3.816611e+00 -2.109786e+00 -2.976940e+00 -9.556865e+00 7.966074e+01 -2.205999e-01 2.912014e-01 2.630115e-01 4.250231e-01 9.721317e-02 3.784086e-01 -7.277762e-02 2.278176e-02 1.256171e-01 2.403796e-01 1.486095e-01 -2.707252e-02 -8.265607e-01 -3.700715e-02 1.699398e-03 -7.353304e-02 2.481686e-02 6.302961e-02 5.148075e-02 -5.827427e-02 1.409533e-02 7.124932e-03 4.994706e-02 1.948497e-02 7.871421e-02 -3.326432e-02
<VARIANCE> 39
 6.565686e+00 1.143343e+01 9.287227e+00 2.218295e+01 3.609094e+01 3.354831e+01 9.347271e+01 2.272751e+01 1.388414e+01 9.437086e+00 1.844151e+01 1.872934e+01 2.405807e+01 2.209776e-01 4.900831e-01 5.292726e-01 7.330467e-01 1.610867e+00 1.320367e+00 7.884720e-01 1.012277e+00 7.282025e-01 6.332044e-01 9.244721e-01 5.344594e-01 3.071949e-01 2.838033e-02 8.501245e-02 1.026547e-01 1.523670e-01 2.138017e-01 2.048066e-01 1.628787e-01 1.463160e-01 1.601300e-01 1.085872e-01 1.421114e-01 9.222340e-02 2.595188e-02
<GCONST> 7.559634e+01
<STATE> 3
<MEAN> 39
 -1.096650e+01 7.485525e+00 -1.952455e+00 -4.920128e+00 -6.415912e+00 -4.362987e+00 -3.442817e+00 2.080926e+00 -1.019310e+00 1.279058e+00 -5.239044e-01 -4.720541e+00 6.746684e+01 -6.136336e-01 1.036481e-01 -2.202544e-02 -7.464953e-02 9.381652e-02 1.835346e-01 -2.303528e-01 -3.785519e-01 -5.779409e-02 7.656277e-02 4.104607e-03 1.144521e-01 -4.962957e-01 2.109544e-02 1.076123e-03 3.211943e-02 1.776822e-02 1.366304e-02 -4.113708e-02 1.807326e-02 -2.472610e-02 -9.302116e-02 -1.343143e-01 -7.294052e-02 -2.136296e-02 3.970189e-02
<VARIANCE> 39
 7.714065e+00 1.960208e+01 2.124268e+01 1.069821e+01 2.651628e+01 1.922318e+01 2.268643e+01 1.754665e+01 1.872704e+01 1.074829e+01 8.737623e+00 1.079064e+01 3.864289e+00 1.660104e-01 5.653740e-01 7.004112e-01 5.615494e-01 9.711916e-01 8.871014e-01 1.193146e+00 6.645816e-01 9.336048e-01 1.010488e+00 1.021936e+00 6.993963e-01 1.197843e-01 2.947789e-02 8.065820e-02 9.766133e-02 1.099392e-01 1.863545e-01 1.572453e-01 1.631700e-01 1.087030e-01 1.724988e-01 1.925911e-01 2.292776e-01 1.411788e-01 1.890674e-02
<GCONST> 7.040776e+01
<STATE> 4
<MEAN> 39
 -1.707768e+01 6.592625e+00 -1.797991e+00 -3.062001e+00 -4.114751e+00 -2.326792e+00 -4.460285e+00 -1.269555e+00 -5.790381e+00 -3.041569e+00 -2.280697e+00 -4.842895e+00 6.290945e+01 -1.346811e-01 -9.973032e-02 -5.383338e-02 4.797864e-02 5.736769e-02 4.654745e-02 -3.652416e-02 -8.786329e-02 -1.839974e-01 -1.947416e-01 -7.814629e-02 -4.025049e-02 -8.404282e-02 1.033866e-02 -1.445964e-02 -2.661318e-03 -1.836732e-02 -1.252914e-02 -1.031706e-02 -3.647985e-03 4.288802e-03 -3.038836e-03 4.465140e-03 6.407735e-03 -3.375440e-03 2.412736e-02
<VARIANCE> 39
 3.212751e+00 3.971007e+00 7.252372e+00 7.189361e+00 8.176553e+00 6.239406e+00 7.035936e+00 6.938095e+00 9.125412e+00 8.563650e+00 7.438795e+00 6.105969e+00 1.473808e+00 1.092815e-01 2.109467e-01 3.848422e-01 4.408375e-01 5.856667e-01 5.764365e-01 6.433706e-01 6.947520e-01 6.663465e-01 7.278478e-01 8.158014e-01 6.963708e-01 5.166143e-02 1.869553e-02 4.236525e-02 7.626858e-02 9.072904e-02 1.236299e-01 1.185603e-01 1.323253e-01 1.355757e-01 1.296862e-01 1.406141e-01 1.673511e-01 1.435909e-01 9.265232e-03
<GCONST> 5.010062e+01
<TRANSP> 5
 0.000000e+00 1.000000e+00 0.000000e+00 0.000000e+00 0.000000e+00
 0.000000e+00 8.768023e-01 1.231977e-01 0.000000e+00 0.000000e+00
 0.000000e+00 0.000000e+00 9.051343e-01 9.486572e-02 0.000000e+00
 0.000000e+00 0.000000e+00 0.000000e+00 9.484199e-01 5.158014e-02
 0.000000e+00 0.000000e+00 0.000000e+00 0.000000e+00 0.000000e+00
<ENDHMM>
~h "p"
<BEGINHMM>
<NUMSTATES> 5
<STATE> 2
<MEAN> 39
 -8.558670e+00 2.147621e+00 -3.238140e+00 -4.720037e+00 -1.696375e+00 -8.720646e+00 -5.083325e+00 -3.836442e+00 -1.278658e+01 -3.987094e+00 -1.896908e+00 -6.628054e+00 7.591476e+01 9.815766e-01 4.204304e-01 4.506774e-01 6.580992e-01 3.578729e-01 3.161902e-01 5.802636e-01 1.660138e-01 2.596337e-01 -4.229915e-01 -9.206453e-01 -3.399774e-01 1.806671e-01 3.029253e-02 3.816260e-02 -7.187790e-02 -4.550445e-02 -1.779177e-02 8.799757e-02 -1.737333e-02 1.307902e-01 1.709536e-01 9.597659e-03 -1.918091e-01 -8.366248e-02 -2.688995e-02
<VARIANCE> 39
 4.636742e+01 4.742443e+01 2.164532e+01 4.935262e+01 5.684740e+01 5.814797e+01 3.653384e+01 4.073316e+01 7.186477e+01 5.969129e+01 3.506431e+01 2.358192e+01 8.490456e+01 3.247367e+00 4.670307e+00 1.787125e+00 3.782957e+00 3.085103e+00 4.742474e+00 2.879396e+00 3.531723e+00 7.745114e+00 3.516947e+00 3.748423e+00 3.211601e+00 8.598955e+00 5.801905e-01 6.656565e-01 3.845949e-01 5.673187e-01 5.785974e-01 6.918853e-01 4.999698e-01 7.033474e-01 1.006959e+00 5.999319e-01 6.718677e-01 5.370364e-01 8.033123e-01
<GCONST> 1.326788e+02
<STATE> 3
<MEAN> 39
 -6.325196e+00 6.994810e+00 -1.311975e+00 -1.501445e+00 3.479976e-01 -5.574324e+00 -5.998469e+00 -1.779563e+00 -7.275793e+00 -4.327784e+00 -5.504512e+00 -7.878937e+00 7.316935e+01 -6.190381e-01 4.726473e-01 3.262059e-02 -1.396696e-01 -2.783767e-01 5.289874e-01 -1.321300e-01 6.704906e-02 5.904931e-01 -1.293273e-02 -4.145101e-02 1.728021e-01 -8.657291e-01 -1.839855e-01 -2.409870e-01 -5.034203e-02 -1.975951e-01 -5.593628e-03 -1.400211e-01 -2.091354e-03 -1.143064e-01 -1.741498e-01 2.671231e-02 1.345126e-01 5.995916e-02 3.482953e-01
<VARIANCE> 39
 1.142063e+01 1.580402e+01 2.363820e+01 2.331354e+01 4.630482e+01 2.692401e+01 5.147619e+01 3.707202e+01 7.051843e+01 3.724925e+01 3.784846e+01 2.966246e+01 2.953521e+01 9.680946e-01 1.657172e+00 1.425637e+00 1.540408e+00 2.325999e+00 2.276265e+00 1.611169e+00 1.549561e+00 2.639168e+00 1.939023e+00 1.768533e+00 1.417729e+00 2.897776e+00 1.419699e-01 3.175611e-01 2.953970e-01 3.428418e-01 3.243606e-01 4.626741e-01 3.482139e-01 2.815401e-01 5.090169e-01 4.205775e-01 3.461635e-01 2.994528e-01 5.224732e-01
<GCONST> 1.095409e+02
<STATE> 4
<MEAN> 39
 -9.472217e+00 3.625354e+00 -3.805868e+00 -5.866890e+00 -6.613297e+00 -9.143587e+00 -3.033751e+00 -6.681255e-01 -6.088791e+00 -5.950017e+00 -4.764919e+00 -3.858183e+00 7.799774e+01 2.328241e-01 -1.399170e+00 -5.885975e-01 -8.852257e-01 -6.841097e-01 -1.093089e+00 1.722719e-01 -1.617328e-01 -2.170704e-01 1.807010e-01 9.439435e-02 5.825241e-02 2.129391e+00 3.786791e-01 -4.327007e-02 9.542117e-03 1.715824e-01 7.095849e-02 -1.520741e-01 3.778563e-02 1.684304e-01 -1.918328e-01 8.420373e-02 6.928728e-02 -1.702148e-01 9.504700e-02
<VARIANCE> 39
 4.114127e+01 5.051077e+01 4.579079e+01 3.543070e+01 6.031919e+01 8.868145e+01 3.694800e+01 5.240510e+01 2.643677e+01 3.355887e+01 1.843133e+01 2.397026e+01 8.420988e+01 5.151238e+00 5.297734e+00 4.122445e+00 3.759807e+00 4.425107e+00 6.601294e+00 4.189672e+00 3.916297e+00 3.887992e+00 2.747135e+00 2.328191e+00 3.152792e+00 8.045413e+00 8.650357e-01 9.092350e-01 7.462957e-01 7.350771e-01 8.942834e-01 1.245798e+00 8.461792e-01 5.291296e-01 8.542039e-01 5.124207e-01 3.684235e-01 5.562142e-01 1.573491e+00
<GCONST> 1.353460e+02
<TRANSP> 5
 0.000000e+00 1.000000e+00 0.000000e+00 0.000000e+00 0.000000e+00
 0.000000e+00 7.000615e-01 2.999386e-01 0.000000e+00 0.000000e+00
 0.000000e+00 0.000000e+00 8.684373e-01 1.315626e-01 0.000000e+00
 0.000000e+00 0.000000e+00 0.000000e+00 8.031008e-01 1.968992e-01
 0.000000e+00 0.000000e+00 0.000000e+00 0.000000e+00 0.000000e+00
<ENDHMM>
~h "r"
<BEGINHMM>
<NUMSTATES> 5
<STATE> 2
<MEAN> 39
 -6.602072e+00 -9.531915e-02 -6.735574e+00 -6.338845e+00 7.203637e-01 -1.077250e+01 -1.101716e+01 -5.540509e+00 -1.333680e+01 -4.445457e-01 3.056209e+00 -4.251603e+00 8.255874e+01 -2.843749e-01 6.710722e-01 2.202326e-01 2.679766e-01 5.078859e-01 2.916890e-01 7.134415e-02 -1.688121e-01 1.802678e-01 -4.997342e-01 -3.306534e-01 1.189301e-01 -7.475026e-01 -1.858788e-01 1.474302e-01 2.017407e-01 1.249935e-01 2.519932e-02 2.762125e-01 3.189171e-01 9.584612e-02 1.681459e-01 -9.888020e-02 -2.140473e-01 -4.181781e-02 -4.997751e-02
<VARIANCE> 39
 1.621283e+01 1.718656e+01 1.606606e+01 1.740047e+01 2.486347e+01 2.809793e+01 3.449357e+01 3.742458e+01 3.798262e+01 6.142153e+01 2.734284e+01 1.880858e+01 7.688705e+01 1.085338e+00 1.005383e+00 2.418550e+00 1.655866e+00 2.086065e+00 2.475580e+00 2.292926e+00 1.559531e+00 2.786819e+00 2.348750e+00 2.443777e+00 1.621866e+00 9.955643e-01 3.435189e-01 1.775475e-01 3.903939e-01 2.642759e-01 3.235559e-01 5.084678e-01 3.468807e-01 3.635027e-01 5.975858e-01 4.550718e-01 4.481080e-01 4.314229e-01 2.785292e-01
<GCONST> 1.094671e+02
<STATE> 3
<MEAN> 39
 -9.487069e+00 3.211953e+00 -3.281853e+00 -6.615627e+00 1.023338e+00 -6.702952e+00 -7.439097e+00 -3.774438e+00 -1.107136e+01 -3.657633e+00 2.736758e-01 -3.505177e+00 7.821665e+01 -4.012249e-01 8.133286e-01 5.402630e-01 5.514855e-01 -1.168278e-01 6.919733e-01 2.199856e-01 -1.273583e-02 7.211134e-01 -1.391086e-01 -5.219899e-01 -1.053518e-01 -1.044636e+00 9.630141e-02 -1.931748e-01 2.071072e-02 7.478444e-02 -1.716939e-01 -1.600515e-01 6.786145e-02 -2.583022e-02 -6.599499e-02 1.473481e-01 -4.048557e-02 -7.104275e-02 1.174183e-01
<VARIANCE> 39
 3.028785e+01 3.627530e+01 3.126694e+01 3.356156e+01 3.137760e+01 3.325217e+01 2.475405e+01 3.269909e+01 3.515979e+01 5.200072e+01 2.825501e+01 2.030214e+01 6.337147e+01 3.207668e+00 2.171529e+00 3.454797e+00 2.534197e+00 2.282508e+00 3.601448e+00 2.078482e+00 2.842935e+00 4.195310e+00 2.790967e+00 2.638461e+00 2.365852e+00 2.888031e+00 5.149327e-01 4.092469e-01 6.882280e-01 5.448583e-01 4.915706e-01 7.225550e-01 4.458539e-01 5.558314e-01 8.904321e-01 5.400720e-01 4.604508e-01 4.631601e-01 5.931261e-01
<GCONST> 1.228719e+02
<STATE> 4
<MEAN> 39
 -1.119129e+01 3.888103e+00 7.545060e-02 -4.263216e+00 -1.938276e+00 -5.954004e+00 -5.656938e+00 -3.630519e+00 -1.055056e+01 -5.321513e+00 -3.760036e+00 -6.626447e+00 7.887685e+01 -1.017417e-01 -6.971142e-01 3.166512e-01 -4.975221e-02 3.821494e-02 -2.805490e-01 1.444880e-01 2.398884e-01 -3.100459e-01 -2.332639e-01 -1.622698e-01 -2.081291e-01 8.120863e-01 9.158102e-02 -1.718586e-01 -2.115234e-01 -7.055978e-02 8.323157e-02 -2.437799e-01 -8.939358e-02 5.439311e-02 -1.427851e-01 6.995946e-02 1.586497e-01 4.871304e-02 1.146971e-01
<VARIANCE> 39
 6.579036e+01 5.983815e+01 4.552557e+01 6.286060e+01 4.699069e+01 5.143599e+01 2.369505e+01 4.015342e+01 4.728067e+01 4.035476e+01 3.445920e+01 3.138700e+01 6.812337e+01 4.179371e+00 4.863936e+00 3.961048e+00 3.980565e+00 3.868845e+00 6.304125e+00 3.155365e+00 5.194481e+00 5.392890e+00 2.677885e+00 2.964983e+00 3.105358e+00 8.056826e+00 8.065293e-01 8.683938e-01 7.045319e-01 6.999137e-01 6.263286e-01 1.082807e+00 5.894269e-01 1.031604e+00 9.211318e-01 4.979435e-01 6.323268e-01 6.202620e-01 8.922027e-01
<GCONST> 1.362831e+02
<TRANSP> 5
 0.000000e+00 1.000000e+00 0.000000e+00 0.000000e+00 0.000000e+00
 0.000000e+00 6.389366e-01 3.610634e-01 0.000000e+00 0.000000e+00
 0.000000e+00 0.000000e+00 6.879380e-01 3.120620e-01 0.000000e+00
 0.000000e+00 0.000000e+00 0.000000e+00 7.110463e-01 2.889538e-01
 0.000000e+00 0.000000e+00 0.000000e+00 0.000000e+00 0.000000e+00
<ENDHMM>
~h "s"
<BEGINHMM>
<NUMSTATES> 5
<STATE> 2
<MEAN> 39
 -1.498516e+01 2.900289e+00 -4.077977e+00 -7.272138e+00 -3.271616e+00 -5.492825e+00 -6.668146e+00 -4.951385e+00 -1.093327e+01 -5.401466e+00 -3.908216e+00 -5.934525e+00 6.990258e+01 -1.907829e-01 -6.040221e-02 1.373100e-01 1.813859e-02 -5.605998e-02 3.326656e-02 1.286100e-01 -1.161212e-01 1.814034e-01 2.343591e-01 -1.329649e-01 -2.755053e-02 -4.917830e-02 -2.122941e-01 -8.979630e-02 1.353335e-01 -8.227657e-02 6.299961e-02 2.089073e-02 -2.505254e-02 -4.846113e-02 2.981188e-02 6.213709e-02 -8.704677e-03 5.033224e-02 1.459173e-01
<VARIANCE> 39
 1.941432e+01 2.582897e+01 1.382127e+01 1.472290e+01 1.819072e+01 2.475883e+01 1.417959e+01 1.859803e+01 2.056359e+01 4.192796e+01 2.484089e+01 2.104675e+01 7.186825e+01 6.431267e-01 1.422646e+00 1.394497e+00 1.330849e+00 1.524004e+00 1.985299e+00 1.353977e+00 1.585940e+00 1.879596e+00 1.453533e+00 1.414352e+00 9.341419e-01 1.272908e+00 1.725459e-01 2.737374e-01 3.111842e-01 2.231690e-01 3.185705e-01 4.055445e-01 2.550386e-01 2.627724e-01 2.408114e-01 2.843603e-01 2.892294e-01 1.700782e-01 1.976265e-01
<GCONST> 9.833073e+01
<STATE> 3
<MEAN> 39
 -1.621198e+01 4.414300e+00 -2.957014e+00 -6.372193e+00 -3.520780e+00 -4.475636e+00 -6.242912e+00 -4.424877e+00 -9.412525e+00 -3.703413e+00 -3.027266e+00 -5.449744e+00 6.974075e+01 -1.006624e+00 -4.786786e-01 9.418278e-01 -5.035931e-01 1.095573e-01 1.680662e-01 3.955185e-02 -3.859441e-01 2.564317e-01 3.299667e-01 -4.274455e-01 1.198433e-01 6.599360e-01 -1.744467e-01 -2.760087e-01 2.834288e-01 -1.810579e-01 5.176744e-02 -3.659816e-02 -1.470166e-02 2.961985e-02 -8.284862e-02 -8.696796e-02 9.965401e-03 5.282808e-02 2.490291e-01
<VARIANCE> 39
 3.364637e+01 2.508803e+01 1.846409e+01 1.488813e+01 1.875413e+01 2.738142e+01 1.946841e+01 2.373903e+01 2.326129e+01 3.501028e+01 1.810895e+01 2.064497e+01 7.624710e+01 2.223644e+00 2.976602e+00 2.868993e+00 2.635874e+00 2.714351e+00 2.899739e+00 2.063560e+00 2.091635e+00 2.163435e+00 1.932207e+00 1.393960e+00 1.691527e+00 2.461374e+00 4.437833e-01 3.586732e-01 5.701801e-01 3.981047e-01 3.461484e-01 4.460328e-01 3.310844e-01 3.814210e-01 4.448246e-01 3.035928e-01 2.893616e-01 2.896969e-01 3.785165e-01
<GCONST> 1.112861e+02
<STATE> 4
<MEAN> 39
 -2.205239e+01 -1.589112e+00 3.292448e+00 -9.226933e+00 -2.621556e+00 -4.191785e+00 -4.654373e+00 -4.634115e+00 -9.026902e+00 -3.251433e+00 -3.998188e+00 -4.227094e+00 7.422859e+01 1.962249e-01 -1.190870e-01 -9.596983e-02 -5.202185e-02 -1.027751e-01 -1.461267e-01 1.279666e-01 6.143399e-02 -1.181034e-01 2.958949e-02 9.369306e-02 4.399009e-02 3.330401e-02 3.613026e-01 2.651269e-01 -3.477991e-01 1.575919e-01 -7.211441e-02 8.535893e-03 -2.365174e-02 6.564271e-02 -6.972249e-02 -5.024277e-02 7.901124e-02 -7.429933e-02 -2.684711e-01
<VARIANCE> 39
 5.598940e+01 4.623724e+01 6.838475e+01 4.108016e+01 3.388099e+01 3.658249e+01 3.713123e+01 2.743906e+01 2.824827e+01 3.398036e+01 2.397715e+01 2.187074e+01 7.641044e+01 5.142491e+00 4.006824e+00 5.311644e+00 3.199080e+00 2.509047e+00 2.756276e+00 2.806545e+00 2.513899e+00 2.263154e+00 2.317435e+00 1.485386e+00 1.690063e+00 3.213433e+00 7.397586e-01 7.490771e-01 6.575030e-01 6.533276e-01 5.294346e-01 5.933378e-01 6.259341e-01 5.528320e-01 4.961621e-01 5.078952e-01 3.172114e-01 3.490337e-01 4.759104e-01
<GCONST> 1.245056e+02
<TRANSP> 5
 0.000000e+00 1.000000e+00 0.000000e+00 0.000000e+00 0.000000e+00
 0.000000e+00 4.218068e-01 5.781932e-01 0.000000e+00 0.000000e+00
 0.000000e+00 0.000000e+00 3.924589e-01 6.075411e-01 0.000000e+00
 0.000000e+00 0.000000e+00 0.000000e+00 7.393619e-01 2.606381e-01
 0.000000e+00 0.000000e+00 0.000000e+00 0.000000e+00 0.000000e+00
<ENDHMM>
~h "t"
<BEGINHMM>
<NUMSTATES> 5
<STATE> 2
<MEAN> 39
 -7.001302e+00 -2.465117e+00 -4.878681e+00 -8.116637e+00 -3.234904e+00 -1.376296e+01 -3.328968e+00 1.226582e+00 -1.467555e+01 -2.889644e+00 6.784809e-01 -5.643906e+00 8.507178e+01 5.084021e-01 3.789891e-01 5.361797e-02 -2.235478e-01 9.254734e-02 3.215868e-01 3.558796e-01 4.206899e-01 2.911035e-01 1.151161e-01 7.375147e-02 1.855736e-01 -1.361563e-01 -1.789128e-02 3.097383e-01 9.811377e-02 1.823915e-01 -2.679848e-02 3.727864e-01 2.029445e-03 -6.571241e-02 4.510083e-01 6.430652e-03 -2.044757e-01 1.977127e-02 -5.715782e-01
<VARIANCE> 39
 4.121900e+01 2.459739e+01 3.648676e+01 5.376482e+01 5.318274e+01 9.398930e+01 5.346262e+01 9.032332e+01 5.544194e+01 4.500230e+01 2.452938e+01 2.513051e+01 5.795425e+01 2.618204e+00 4.007857e+00 3.269675e+00 2.609651e+00 2.392729e+00 5.849464e+00 3.139979e+00 4.661548e+00 3.883871e+00 2.365895e+00 2.105720e+00 2.419912e+00 8.040199e+00 4.693739e-01 2.583481e-01 4.479047e-01 3.582619e-01 5.099564e-01 7.912650e-01 4.486850e-01 8.470212e-01 7.798998e-01 3.454243e-01 3.387616e-01 4.151015e-01 5.823856e-01
<GCONST> 1.276047e+02
<STATE> 3
<MEAN> 39
 -6.700333e+00 3.718387e+00 -1.762884e+00 -6.352979e+00 -1.718436e-01 -7.760201e+00 -3.246068e+00 -1.253190e+00 -1.054407e+01 -1.183774e+00 -6.373162e-01 -5.385755e+00 7.733303e+01 -2.443058e-01 1.029039e+00 -4.406689e-02 8.114275e-02 -5.715017e-01 1.619832e+00 2.140491e-01 5.525009e-02 1.658020e+00 1.319560e-02 -4.686687e-01 3.787444e-01 -2.310255e+00 -5.314971e-02 -3.605652e-01 -4.619731e-01 -1.355244e-01 -2.644185e-01 -3.895494e-01 -1.423225e-01 5.630791e-02 -2.298322e-01 -5.238865e-02 3.454757e-02 -9.663992e-02 3.593692e-01
<VARIANCE> 39
 1.960162e+01 2.293451e+01 2.988828e+01 3.466088e+01 4.468345e+01 3.929025e+01 5.850350e+01 5.251195e+01 5.206672e+01 3.050145e+01 3.459938e+01 2.590197e+01 3.913337e+01 6.229023e-01 1.442590e+00 3.352134e+00 2.066539e+00 3.904706e+00 3.890303e+00 2.554581e+00 3.541959e+00 4.632370e+00 1.878248e+00 2.352288e+00 2.411795e+00 3.295548e+00 1.156388e-01 2.517911e-01 4.796019e-01 3.128326e-01 4.552112e-01 5.711460e-01 4.602629e-01 5.723953e-01 8.935193e-01 3.626434e-01 3.992239e-01 3.808795e-01 3.632393e-01
<GCONST> 1.177708e+02
<STATE> 4
<MEAN> 39
 -9.521460e+00 5.445054e+00 -5.066095e+00 -7.187761e+00 -5.267488e+00 -6.331425e+00 -7.030852e+00 -2.651778e+00 -7.879247e+00 -2.409474e+00 -7.585076e-01 -4.094939e+00 7.034790e+01 -4.446579e-01 7.014206e-02 -4.719118e-02 -5.945696e-02 -2.562800e-01 1.768660e-01 -3.403924e-02 -1.539117e-01 7.811394e-02 -1.563013e-01 -2.032290e-01 -1.135126e-02 -3.630992e-01 -7.781689e-02 -2.049858e-01 1.467898e-01 3.039278e-02 1.003561e-01 -8.749869e-02 7.993844e-02 -3.941391e-02 -1.237903e-01 -9.566475e-03 -1.176064e-02 1.899578e-02 3.756556e-01
<VARIANCE> 39
 1.712288e+01 1.485105e+01 2.074136e+01 2.546416e+01 3.311710e+01 1.914063e+01 3.585723e+01 3.046664e+01 2.709093e+01 3.162302e+01 1.859262e+01 1.675113e+01 2.684347e+01 5.879613e-01 1.116065e+00 1.318077e+00 1.163783e+00 1.494239e+00 1.717692e+00 1.793697e+00 1.859429e+00 1.982043e+00 1.540714e+00 1.307532e+00 1.161478e+00 9.277904e-01 1.164725e-01 2.859626e-01 2.752434e-01 2.462112e-01 3.294837e-01 3.566422e-01 3.570452e-01 4.374376e-01 4.234545e-01 3.632893e-01 2.560677e-01 2.405972e-01 3.335534e-01
<GCONST> 1.004821e+02
<TRANSP> 5
 0.000000e+00 1.000000e+00 0.000000e+00 0.000000e+00 0.000000e+00
 0.000000e+00 6.591875e-01 3.408125e-01 0.000000e+00 0.000000e+00
 0.000000e+00 0.000000e+00 5.311099e-01 4.688901e-01 0.000000e+00
 0.000000e+00 0.000000e+00 0.000000e+00 7.682891e-01 2.317109e-01
 0.000000e+00 0.000000e+00 0.000000e+00 0.000000e+00 0.000000e+00
<ENDHMM>
~h "u"
<BEGINHMM>
<NUMSTATES> 5
<STATE> 2
<MEAN> 39
 -9.515933e+00 2.466414e+00 1.490357e+00 -3.617549e+00 1.439092e+00 -9.359089e+00 -6.457762e+00 -4.243525e+00 -1.444224e+01 -8.452451e+00 -4.192906e+00 -6.340882e+00 8.201169e+01 8.296014e-01 -2.213082e-02 5.877678e-01 6.501110e-01 6.944582e-01 -1.524825e+00 -3.932694e-02 5.339387e-01 -1.537863e+00 -7.959267e-01 -3.248153e-01 -9.596879e-01 1.357273e+00 6.737247e-02 3.370445e-01 -4.690855e-02 -2.353607e-02 -1.857912e-01 5.763508e-02 6.128770e-02 2.284766e-01 2.049795e-01 1.976540e-01 -3.670703e-02 -1.604826e-01 -4.639848e-01
<VARIANCE> 39
 3.187695e+01 5.035614e+01 3.075289e+01 4.716249e+01 7.672536e+01 5.712074e+01 5.543473e+01 7.860962e+01 7.662205e+01 8.005647e+01 4.527957e+01 3.410053e+01 5.048591e+01 3.953019e+00 5.325507e+00 3.255689e+00 5.218155e+00 6.276248e+00 5.908556e+00 6.026978e+00 6.544868e+00 7.498220e+00 5.676414e+00 5.489937e+00 4.343335e+00 5.402928e+00 6.710521e-01 8.088308e-01 4.693507e-01 6.763360e-01 1.069975e+00 8.655536e-01 9.327181e-01 1.117420e+00 1.404603e+00 1.204263e+00 6.998397e-01 6.395710e-01 8.710238e-01
<GCONST> 1.426552e+02
<STATE> 3
<MEAN> 39
 -8.776004e+00 3.441773e+00 4.063211e+00 1.631850e+00 5.007973e+00 -1.692381e+01 -7.692496e+00 1.222955e+00 -1.294891e+01 -6.382233e+00 -4.078012e+00 -8.704179e+00 8.437750e+01 8.446570e-02 -1.492291e-01 -4.064501e-01 1.586041e-01 2.324209e-02 -5.049159e-01 -1.268958e-01 1.966309e-01 3.343740e-01 7.621287e-01 3.913826e-01 -2.167546e-01 -7.885601e-02 -1.070450e-01 -2.525148e-02 -1.088501e-01 -2.435457e-01 -1.564695e-01 5.216309e-01 8.477958e-02 -3.282257e-01 2.835504e-01 1.707371e-01 1.984754e-02 1.454418e-01 -1.345982e-01
<VARIANCE> 39
 2.302814e+01 4.064169e+01 3.450340e+01 5.109985e+01 4.306084e+01 6.642400e+01 6.480413e+01 6.548274e+01 7.071407e+01 4.883768e+01 5.491276e+01 3.794115e+01 1.505902e+01 6.583422e-01 1.383660e+00 2.121979e+00 1.899382e+00 2.780744e+00 4.086538e+00 2.557140e+00 3.382606e+00 3.237543e+00 1.771443e+00 1.950089e+00 2.092904e+00 8.026861e-01 2.186715e-01 2.541055e-01 2.755506e-01 3.851957e-01 5.306509e-01 8.266095e-01 6.509160e-01 6.021811e-01 7.050121e-01 4.147999e-01 4.960893e-01 4.026586e-01 1.163191e-01
<GCONST> 1.177427e+02
<STATE> 4
<MEAN> 39
 -5.755440e+00 7.370025e+00 3.100074e+00 -5.674574e+00 -2.622250e+00 -1.367811e+01 -5.153924e+00 7.593647e-01 -1.308274e+01 -6.670491e+00 -6.843877e+00 -1.271872e+01 8.049971e+01 -1.070549e-01 -6.705177e-02 -2.535874e-01 -1.283687e-01 -2.841609e-01 2.758654e-01 1.014845e-01 -1.336631e-01 2.650846e-01 3.454014e-01 1.128481e-01 2.547108e-01 -3.529878e-01 -5.501951e-02 -6.249536e-02 -4.419131e-02 1.092523e-02 3.862011e-02 1.084588e-01 -1.567956e-02 -7.721667e-02 1.348658e-02 -3.184138e-02 3.976491e-02 1.219094e-01 -1.076994e-02
<VARIANCE> 39
 2.199123e+01 4.981230e+01 2.838124e+01 4.470465e+01 6.252202e+01 6.422463e+01 4.498882e+01 6.675683e+01 6.023026e+01 7.268259e+01 4.957320e+01 4.222618e+01 3.253787e+01 3.341517e-01 1.116734e+00 1.066705e+00 9.739402e-01 1.421034e+00 1.841114e+00 1.775952e+00 1.620029e+00 1.780176e+00 1.559383e+00 1.473205e+00 1.522210e+00 5.673124e-01 3.889248e-02 1.198217e-01 1.411792e-01 1.559732e-01 1.978579e-01 2.637075e-01 3.122974e-01 2.559583e-01 3.247226e-01 2.770040e-01 2.706037e-01 2.109729e-01 4.892495e-02
<GCONST> 1.010199e+02
<TRANSP> 5
 0.000000e+00 1.000000e+00 0.000000e+00 0.000000e+00 0.000000e+00
 0.000000e+00 7.171337e-01 2.828663e-01 0.000000e+00 0.000000e+00
 0.000000e+00 0.000000e+00 6.798565e-01 3.201435e-01 0.000000e+00
 0.000000e+00 0.000000e+00 0.000000e+00 8.658118e-01 1.341882e-01
 0.000000e+00 0.000000e+00 0.000000e+00 0.000000e+00 0.000000e+00
<ENDHMM>
~h "y"
<BEGINHMM>
<NUMSTATES> 5
<STATE> 2
<MEAN> 39
 -1.289251e+01 3.494205e+00 1.237257e+00 -8.218499e+00 -5.100220e+00 -5.651293e+00 7.151639e-01 -6.676002e+00 -1.279786e+01 -3.643718e-01 -3.408712e+00 -4.945430e+00 7.679377e+01 1.978638e+00 -4.898175e-01 -7.331086e-01 1.140179e-02 -4.594243e-01 -8.809199e-01 -1.863393e-01 4.247773e-01 -2.567799e-01 2.312058e-01 5.528902e-01 5.189101e-01 2.662346e+00 1.004925e-01 -4.203474e-01 -5.009871e-01 5.765034e-02 3.149427e-02 -1.129439e-01 -1.042440e-01 3.324523e-01 2.014507e-01 -7.442421e-02 1.645965e-01 -2.424223e-04 2.397120e-01
<VARIANCE> 39
 5.476762e+01 3.190305e+01 3.724982e+01 2.704239e+01 3.302931e+01 3.878333e+01 2.581094e+01 4.813487e+01 2.820795e+01 4.992076e+01 1.870720e+01 2.080640e+01 5.342318e+01 3.218370e+00 3.835270e+00 3.637173e+00 1.434845e+00 2.853928e+00 3.643373e+00 2.229055e+00 3.889133e+00 3.084509e+00 2.890696e+00 1.998313e+00 1.335126e+00 2.047642e+00 8.424209e-01 5.535151e-01 4.357374e-01 3.477546e-01 5.544125e-01 6.682483e-01 5.500365e-01 4.706250e-01 5.501962e-01 4.477507e-01 3.397626e-01 3.679595e-01 4.038829e-01
<GCONST> 1.207021e+02
<STATE> 3
<MEAN> 39
 -4.391751e+00 -5.395705e+00 -8.854335e+00 -6.324730e+00 -5.896762e+00 -1.055513e+01 -1.505900e+00 -8.451313e-03 -1.025108e+01 -7.715048e-01 1.878277e+00 -3.808970e+00 8.954254e+01 3.112215e-02 -8.469331e-01 -6.850551e-01 8.466208e-01 1.133599e+00 -4.476649e-01 -9.631580e-01 -4.015546e-01 1.602159e-01 5.499198e-01 5.906937e-01 -1.320433e-01 7.296897e-01 -2.191710e-01 3.519569e-01 4.900254e-01 2.946501e-01 2.515863e-01 -2.101402e-01 -3.186213e-01 -4.458084e-01 -1.847447e-01 5.146081e-02 -1.617935e-01 -8.184138e-02 -3.683306e-01
<VARIANCE> 39
 2.994176e+01 1.189065e+01 2.523413e+01 2.298264e+01 4.020877e+01 3.850229e+01 2.708877e+01 3.984763e+01 2.973091e+01 6.505610e+01 1.682895e+01 3.116850e+01 1.315743e+01 6.629292e-01 1.358808e+00 2.019011e+00 1.506405e+00 1.801014e+00 1.770193e+00 2.092327e+00 3.209436e+00 2.692193e+00 1.351103e+00 1.601587e+00 2.143660e+00 9.807323e-01 1.306686e-01 1.164418e-01 1.165510e-01 1.703090e-01 2.852315e-01 3.647415e-01 2.271704e-01 2.801638e-01 2.118282e-01 3.187186e-01 3.079658e-01 3.516806e-01 1.305958e-01
<GCONST> 1.011517e+02
<STATE> 4
<MEAN> 39
 -7.760921e+00 -4.330163e+00 -2.971762e+00 3.825210e+00 3.849817e+00 -2.083890e+01 -1.266831e+01 -6.570649e+00 -1.378987e+01 3.227722e+00 1.112595e+00 -6.952473e+00 9.034505e+01 -4.883292e-03 3.542948e-02 3.211713e-02 -8.479402e-02 3.782722e-02 -1.307955e-01 -1.927534e-01 3.099311e-02 -1.106915e-01 8.671030e-02 7.483667e-02 -1.027010e-01 3.638039e-02 4.966696e-02 -3.002620e-02 -7.954945e-02 -2.074544e-01 -1.485857e-01 1.787986e-01 1.852972e-01 1.423453e-01 2.080530e-02 -7.991862e-02 -7.286035e-04 5.830725e-03 -4.476815e-03
<VARIANCE> 39
 1.387559e+01 1.390323e+01 2.340121e+01 3.264594e+01 3.971135e+01 3.412333e+01 3.023780e+01 4.490890e+01 8.269683e+01 7.895116e+01 3.863347e+01 4.469593e+01 6.231824e+00 3.054676e-01 3.024781e-01 1.821477e+00 3.353222e+00 2.833716e+00 3.407540e+00 1.853795e+00 1.408445e+00 1.766810e+00 2.212997e+00 1.231429e+00 2.378452e+00 1.123431e-01 2.306635e-02 4.109047e-02 1.618877e-01 1.891719e-01 1.991527e-01 2.334708e-01 1.841888e-01 2.474986e-01 2.746931e-01 3.767958e-01 1.959534e-01 4.009007e-01 1.617829e-02
<GCONST> 9.343817e+01
<TRANSP> 5
 0.000000e+00 1.000000e+00 0.000000e+00 0.000000e+00 0.000000e+00
 0.000000e+00 7.564162e-01 2.435838e-01 0.000000e+00 0.000000e+00
 0.000000e+00 0.000000e+00 8.292815e-01 1.707185e-01 0.000000e+00
 0.000000e+00 0.000000e+00 0.000000e+00 9.395137e-01 6.048632e-02
 0.000000e+00 0.000000e+00 0.000000e+00 0.000000e+00 0.000000e+00
<ENDHMM>
~h "ay"
<BEGINHMM>
<NUMSTATES> 5
<STATE> 2
<MEAN> 39
 -2.210108e+01 -5.790585e+00 5.856501e+00 -1.174648e+01 -5.976183e+00 -2.585887e+00 -5.660025e+00 -7.746509e+00 -9.321536e+00 1.662283e-01 -1.404599e+00 -5.478816e+00 7.364282e+01 -2.426790e+00 -2.825794e+00 3.094502e+00 -2.214502e+00 2.686754e-01 2.590993e-01 2.412194e-01 2.805044e-02 1.169967e-01 5.865768e-01 8.375546e-01 6.428469e-01 3.468853e+00 -5.877302e-01 4.911157e-01 8.076981e-03 -1.296283e-01 3.203382e-01 -6.472673e-02 1.394913e-02 4.701899e-01 2.713199e-01 -2.584255e-01 -1.265257e-01 1.102042e-01 2.237235e-01
<VARIANCE> 39
 2.353968e+01 2.370755e+01 4.580064e+01 3.007668e+01 2.568889e+01 2.778104e+01 7.203491e+01 2.705628e+01 3.907837e+01 2.403646e+01 1.885240e+01 1.846564e+01 2.209784e+01 2.255694e+00 2.029924e+00 4.160435e+00 2.216085e+00 2.381355e+00 2.835774e+00 3.148751e+00 2.584171e+00 2.928603e+00 1.879889e+00 2.055428e+00 1.885843e+00 1.557525e+00 3.821388e-01 5.253161e-01 7.097683e-01 5.502976e-01 4.371320e-01 4.815761e-01 4.775688e-01 4.274320e-01 5.058752e-01 3.230388e-01 3.616610e-01 3.728667e-01 3.784391e-01
<GCONST> 1.159415e+02
<STATE> 3
<MEAN> 39
 -3.257334e+01 -8.410467e+00 1.256996e+01 -1.611612e+01 -4.274137e+00 -1.282280e+00 -2.891129e+00 -3.713199e+00 -8.378857e+00 -3.468319e-01 -1.523224e-01 -3.370580e+00 8.436964e+01 -1.312932e+00 3.072852e-01 1.678509e-01 -6.289819e-01 5.927847e-01 2.081669e-01 1.906691e-01 4.035209e-01 2.711869e-01 1.101265e-01 8.981377e-02 3.398633e-01 1.450700e+00 6.740145e-01 3.989732e-01 -6.033157e-01 3.590141e-01 6.962480e-02 -2.141546e-01 -1.595051e-01 -2.292933e-01 -1.303973e-01 -1.125483e-01 -2.642148e-01 -9.906782e-02 -5.425737e-01
<VARIANCE> 39
 1.174175e+01 1.356670e+01 3.376631e+01 2.148211e+01 2.655285e+01 2.933069e+01 6.803211e+01 2.405124e+01 4.113884e+01 2.865287e+01 1.620508e+01 1.525832e+01 1.179817e+01 2.113347e+00 1.230032e+00 2.427366e+00 1.335740e+00 1.540950e+00 1.435841e+00 1.490738e+00 2.084185e+00 1.427101e+00 1.398869e+00 1.388090e+00 1.018662e+00 1.410455e+00 2.856651e-01 3.703709e-01 3.660340e-01 3.418026e-01 2.388711e-01 4.637004e-01 3.684987e-01 3.388747e-01 3.599851e-01 3.028113e-01 3.250865e-01 1.967453e-01 1.321458e-01
<GCONST> 1.022890e+02
<STATE> 4
<MEAN> 39
 -2.980524e+01 -6.615504e+00 7.834156e+00 -1.532412e+01 4.266858e-02 -6.529718e+00 -7.440032e+00 -6.447612e+00 -6.977039e+00 -1.662959e+00 -3.370757e+00 -2.200247e+00 8.593730e+01 3.266244e+00 7.553318e-01 -6.476085e-01 1.786852e+00 -3.669187e-01 -1.543327e+00 -7.406287e-02 -7.634523e-01 -7.378064e-01 -9.845423e-01 -1.286641e+00 -2.058906e-02 -3.914170e-01 1.032985e+00 4.044214e-01 5.133182e-02 2.875362e-01 -4.710467e-01 1.525859e-02 3.700579e-01 1.427974e-01 -4.483134e-01 -6.360244e-02 4.565083e-02 -2.151632e-01 -1.042401e-01
<VARIANCE> 39
 2.718472e+01 2.026821e+01 2.344480e+01 3.023537e+01 5.161947e+01 4.979553e+01 5.628220e+01 3.253416e+01 3.612994e+01 2.604748e+01 2.623836e+01 1.591875e+01 8.475161e+00 4.742061e+00 5.493634e+00 3.228243e+00 2.561140e+00 3.472159e+00 4.228974e+00 4.836323e+00 3.600776e+00 4.878688e+00 1.993208e+00 2.575465e+00 1.571649e+00 1.382283e+00 3.727789e-01 1.162941e+00 5.586954e-01 7.700316e-01 6.237124e-01 1.093953e+00 8.983420e-01 9.616267e-01 9.719845e-01 4.818563e-01 6.213295e-01 3.554309e-01 2.917977e-01
<GCONST> 1.241406e+02
<TRANSP> 5
 0.000000e+00 1.000000e+00 0.000000e+00 0.000000e+00 0.000000e+00
 0.000000e+00 6.136292e-01 3.863708e-01 0.000000e+00 0.000000e+00
 0.000000e+00 0.000000e+00 8.143751e-01 1.856249e-01 0.000000e+00
 0.000000e+00 0.000000e+00 0.000000e+00 7.710593e-01 2.289408e-01
 0.000000e+00 0.000000e+00 0.000000e+00 0.000000e+00 0.000000e+00
<ENDHMM>
~h "ny"
<BEGINHMM>
<NUMSTATES> 5
<STATE> 2
<MEAN> 39
 -1.006867e+01 -3.238759e+00 -2.750629e+00 -3.297525e+00 1.850119e+00 -1.216609e+00 -3.576367e+00 -6.374729e+00 -1.087526e+01 -2.302972e+00 3.237799e-01 -1.681425e+00 7.527543e+01 -1.316101e-01 -2.254251e-01 -1.353073e-01 2.783762e-01 -1.060713e+00 7.941034e-01 3.429863e-01 -8.943275e-02 -1.953504e-01 -6.633210e-01 -6.005690e-01 -6.868417e-02 -9.795573e-01 3.645571e-02 2.397100e-01 -2.222367e-02 2.126783e-02 4.419151e-03 -1.774744e-01 -1.053250e-01 4.784413e-02 3.585760e-03 4.579039e-02 6.658410e-02 -8.887290e-03 3.167628e-02
<VARIANCE> 39
 2.404259e+00 3.729768e+01 8.721905e+00 1.524374e+01 6.678876e+01 1.623943e+01 3.860086e+01 1.985665e+01 1.847129e+01 1.562971e+01 3.186810e+01 3.025982e+01 8.894895e+00 2.490093e-01 2.374984e+00 9.061717e-01 1.095193e+00 2.070135e+00 1.302135e+00 1.711152e+00 1.183992e+00 1.619259e+00 1.486931e+00 1.664406e+00 1.156583e+00 2.227968e-01 5.212409e-02 4.665015e-01 1.602912e-01 2.180725e-01 4.839637e-01 1.951004e-01 3.161435e-01 2.312602e-01 2.594571e-01 3.450112e-01 3.825524e-01 1.927710e-01 3.156231e-02
<GCONST> 9.009107e+01
<STATE> 3
<MEAN> 39
 -1.129398e+01 3.428225e+00 -3.214595e+00 -1.988813e+00 -1.797403e+00 1.390543e+00 -2.320218e+00 -5.590741e+00 -1.113210e+01 -4.713340e+00 -2.142379e+00 -3.090797e+00 6.854539e+01 -4.202635e-01 1.243529e+00 1.796398e-01 -1.173958e-01 -1.221996e-03 -6.883151e-02 -3.698326e-01 3.411219e-01 4.303896e-01 2.291442e-02 -2.154458e-02 -5.172905e-02 -8.567126e-01 -5.462040e-02 -1.383139e-01 3.444214e-02 -7.243307e-02 1.054073e-02 -1.421864e-01 -2.036239e-02 5.149315e-02 9.249526e-02 1.000744e-01 2.785613e-02 -7.679089e-02 1.058165e-01
<VARIANCE> 39
 3.786165e+00 1.820203e+01 8.550962e+00 1.279771e+01 2.622160e+01 1.156345e+01 2.803604e+01 1.262838e+01 1.117116e+01 1.582063e+01 1.143730e+01 1.205189e+01 4.874052e+00 1.721722e-01 1.005761e+00 4.807934e-01 7.138146e-01 9.568792e-01 1.163128e+00 1.458004e+00 8.886622e-01 1.010914e+00 1.232369e+00 8.034973e-01 8.062872e-01 1.638397e-01 3.351731e-02 1.315423e-01 7.596603e-02 1.510181e-01 1.588536e-01 1.921712e-01 2.933252e-01 1.916244e-01 1.731780e-01 1.893493e-01 1.654888e-01 1.354517e-01 1.922356e-02
<GCONST> 7.196690e+01
<STATE> 4
<MEAN> 39
 -1.400494e+01 8.178871e+00 -1.216971e+00 -2.173340e+00 -1.949260e+00 -5.265966e-01 -5.147228e+00 -3.426088e+00 -8.664363e+00 -5.905965e+00 -3.969798e+00 -5.477686e+00 6.485269e+01 -2.010869e-01 7.755977e-03 -1.927510e-02 -1.145739e-01 -1.854012e-01 -1.309375e-01 -4.449196e-02 7.199342e-02 6.184793e-02 -6.827079e-02 -1.241126e-01 -7.917512e-02 -1.345387e-01 1.693089e-02 -6.206737e-02 -2.535029e-02 -1.488036e-02 1.776416e-02 2.008464e-02 -2.394519e-03 -5.582277e-02 -4.405109e-02 -5.363744e-03 1.069624e-02 -2.737647e-03 4.305629e-02
<VARIANCE> 39
 2.783928e+00 4.119473e+00 5.847111e+00 6.111643e+00 9.703227e+00 8.960271e+00 1.112868e+01 9.243354e+00 9.117138e+00 1.090708e+01 1.381907e+01 1.115547e+01 2.002245e+00 8.997071e-02 2.050751e-01 2.673593e-01 4.289109e-01 5.730090e-01 5.758042e-01 6.777812e-01 8.383361e-01 7.685517e-01 6.195059e-01 6.060619e-01 5.214670e-01 3.963791e-02 1.630690e-02 3.643781e-02 5.096425e-02 9.191511e-02 1.279285e-01 1.211709e-01 1.409003e-01 1.415322e-01 1.465290e-01 1.304406e-01 1.257665e-01 1.037664e-01 1.266483e-02
<GCONST> 5.063027e+01
<TRANSP> 5
 0.000000e+00 1.000000e+00 0.000000e+00 0.000000e+00 0.000000e+00
 0.000000e+00 8.348441e-01 1.651559e-01 0.000000e+00 0.000000e+00
 0.000000e+00 0.000000e+00 8.207102e-01 1.792898e-01 0.000000e+00
 0.000000e+00 0.000000e+00 0.000000e+00 9.040325e-01 9.596748e-02
 0.000000e+00 0.000000e+00 0.000000e+00 0.000000e+00 0.000000e+00
<ENDHMM>
~h "sp"
<BEGINHMM>
<NUMSTATES> 3
<STATE> 2
~s "silst"
<TRANSP> 3
 0.000000e+00 3.366576e-01 6.633425e-01
 0.000000e+00 9.256746e-01 7.432541e-02
 0.000000e+00 0.000000e+00 0.000000e+00
<ENDHMM>
~h "sil"
<BEGINHMM>
<NUMSTATES> 5
<STATE> 2
<MEAN> 39
 -1.705365e+01 5.314844e+00 -3.676570e+00 -5.078439e+00 -4.151464e+00 -2.265553e+00 -5.797993e+00 -2.966132e+00 -7.706244e+00 -6.329208e+00 -3.646600e+00 -5.169545e+00 6.366626e+01 -1.313307e-03 -9.251262e-03 -3.554354e-02 4.905281e-02 -4.269647e-02 -1.067204e-02 1.180334e-02 -2.328835e-02 -4.191571e-02 5.150048e-02 -3.639536e-02 -3.003592e-02 -6.741887e-02 -5.327278e-03 -1.222826e-02 7.313714e-03 -1.188604e-02 7.009896e-03 -6.496071e-05 2.788550e-03 6.142984e-03 4.420885e-03 9.662621e-04 1.004172e-02 8.531844e-03 1.555722e-02
<VARIANCE> 39
 4.281301e+00 6.562582e+00 6.780406e+00 1.029627e+01 7.508253e+00 7.547883e+00 9.945812e+00 1.032064e+01 1.264663e+01 1.475354e+01 1.243407e+01 9.466369e+00 3.124718e+00 9.921855e-02 1.992581e-01 3.180652e-01 4.510129e-01 5.053303e-01 5.883254e-01 6.943874e-01 7.305889e-01 7.540699e-01 7.756870e-01 7.088875e-01 6.227677e-01 4.832555e-02 1.666360e-02 3.660206e-02 5.948145e-02 7.968414e-02 9.805841e-02 1.164152e-01 1.358602e-01 1.450244e-01 1.478353e-01 1.497698e-01 1.436958e-01 1.247459e-01 7.093280e-03
<GCONST> 5.298878e+01
<STATE> 3
~s "silst"
<STATE> 4
<MEAN> 39
 -1.882983e+01 4.147818e+00 -2.335115e+00 -7.995498e+00 -3.936822e+00 -2.435392e+00 -6.690777e+00 -3.352621e+00 -7.215144e+00 -7.994824e+00 -2.744062e+00 -4.576188e+00 6.614375e+01 -8.886477e-02 7.915407e-02 9.355484e-02 -1.533268e-01 4.318150e-02 6.130952e-02 -6.897851e-02 -1.175317e-01 9.878242e-02 -1.057337e-01 1.276176e-01 -3.650277e-02 3.984305e-02 4.454010e-02 4.725621e-02 -3.090976e-02 7.693104e-02 5.076382e-03 1.586940e-02 2.566269e-04 -7.514044e-03 2.168285e-02 3.288696e-02 -1.437046e-02 -4.073725e-02 -6.632978e-02
<VARIANCE> 39
 1.167395e+01 1.705497e+01 2.028689e+01 2.030197e+01 1.528553e+01 1.327723e+01 1.763751e+01 1.615624e+01 2.806257e+01 2.678857e+01 1.793663e+01 1.458912e+01 1.072439e+01 1.264285e+00 1.387629e+00 1.837054e+00 2.218046e+00 1.515803e+00 1.382828e+00 1.799530e+00 1.572367e+00 2.623672e+00 1.903267e+00 1.601962e+00 1.200562e+00 1.411722e+00 2.404939e-01 2.748615e-01 3.487275e-01 3.871851e-01 3.033709e-01 2.742819e-01 3.799430e-01 2.994258e-01 4.822528e-01 3.334386e-01 2.933350e-01 2.257397e-01 2.506578e-01
<GCONST> 9.956812e+01
<TRANSP> 5
 0.000000e+00 1.000000e+00 0.000000e+00 0.000000e+00 0.000000e+00
 0.000000e+00 9.192895e-01 4.595253e-02 3.475802e-02 0.000000e+00
 0.000000e+00 0.000000e+00 7.809845e-01 2.190155e-01 0.000000e+00
 0.000000e+00 8.689343e-02 0.000000e+00 7.460365e-01 1.670700e-01
 0.000000e+00 0.000000e+00 0.000000e+00 0.000000e+00 0.000000e+00
<ENDHMM>
