~o
<STREAMINFO> 1 39
<VECSIZE> 39<NULLD><MFCC_D_A_0><DIAGC>
~h "a"
<BEGINHMM>
<NUMSTATES> 5
<STATE> 2
<MEAN> 39
 -1.050083e+01 3.499752e+00 -2.387295e+00 -3.531116e+00 -3.309940e+00 -7.025797e+00 -5.284503e+00 4.861990e-01 -8.797565e+00 -8.836914e+00 -4.212388e+00 -5.171494e+00 7.355341e+01 -3.785701e-03 -3.134371e-03 9.329088e-03 -1.480710e-03 6.588707e-03 -3.166422e-02 -3.594143e-02 -8.280387e-03 -1.988409e-02 -1.389346e-02 6.427528e-03 -7.937135e-03 -2.843457e-03 2.566077e-06 -1.689750e-03 -6.688046e-04 -9.123191e-04 8.582254e-04 1.370552e-03 -2.253773e-03 -1.858698e-03 -1.630242e-03 -2.182975e-03 1.120802e-03 2.746007e-04 9.004879e-04
<VARIANCE> 39
 5.775549e+01 4.442832e+01 3.559525e+01 3.509531e+01 5.662606e+01 7.270984e+01 3.547110e+01 4.430210e+01 4.753580e+01 3.095574e+01 3.059443e+01 2.401715e+01 9.658576e+01 1.670292e+00 1.863823e+00 1.624308e+00 1.653890e+00 2.516088e+00 2.580775e+00 2.152686e+00 1.863112e+00 2.042061e+00 1.902251e+00 1.664085e+00 1.676188e+00 1.931003e+00 2.590420e-01 2.941154e-01 2.599267e-01 2.720498e-01 3.681562e-01 4.113551e-01 3.807335e-01 3.201491e-01 3.460237e-01 3.612925e-01 3.066837e-01 3.013933e-01 2.365084e-01
<GCONST> 1.141105e+02
<STATE> 3
<MEAN> 39
 -1.050277e+01 3.484519e+00 -2.353383e+00 -3.542281e+00 -3.272367e+00 -7.132629e+00 -5.429953e+00 4.518811e-01 -8.873436e+00 -8.892879e+00 -4.175684e+00 -5.194051e+00 7.355610e+01 -3.772859e-03 -7.297479e-03 7.830445e-03 -6.311629e-03 7.595488e-03 -2.633218e-02 -4.337121e-02 -1.315408e-02 -2.254155e-02 -2.131197e-02 9.808086e-03 -7.018973e-03 -7.501617e-04 -2.183648e-04 -5.868581e-04 2.885173e-04 -1.742172e-03 -1.240292e-04 1.394904e-03 -2.479402e-03 -5.769299e-04 7.737496e-04 -2.455939e-03 8.142052e-04 1.842947e-04 8.908136e-04
<VARIANCE> 39
 5.776033e+01 4.496737e+01 3.513662e+01 3.548667e+01 5.741582e+01 7.226913e+01 3.528714e+01 4.362106e+01 4.863572e+01 3.107630e+01 3.143068e+01 2.434279e+01 9.719381e+01 1.633709e+00 1.815678e+00 1.588403e+00 1.658644e+00 2.543989e+00 2.522894e+00 2.121134e+00 1.825762e+00 2.031937e+00 1.890163e+00 1.658677e+00 1.704607e+00 1.869211e+00 2.538528e-01 2.870511e-01 2.550575e-01 2.703850e-01 3.698450e-01 4.015471e-01 3.749585e-01 3.147857e-01 3.437706e-01 3.590046e-01 3.054960e-01 3.063616e-01 2.275417e-01
<GCONST> 1.138762e+02
<STATE> 4
<MEAN> 39
 -1.032077e+01 3.390588e+00 -2.205484e+00 -3.508111e+00 -3.266469e+00 -7.379359e+00 -5.705474e+00 6.388255e-01 -8.813842e+00 -9.088037e+00 -4.114773e+00 -5.129478e+00 7.376505e+01 -4.044180e-03 -5.991509e-03 1.184644e-02 -1.165739e-02 7.913630e-03 -1.855680e-02 -4.753507e-02 -1.318935e-02 -1.315156e-02 -2.684178e-02 1.285013e-02 -5.215607e-03 4.252700e-03 -1.906299e-03 2.807263e-04 1.962428e-03 -2.251647e-03 2.322599e-04 1.746859e-03 -2.655070e-03 -5.159560e-04 2.959977e-03 -3.684982e-03 9.095541e-04 5.687195e-04 1.557615e-03
<VARIANCE> 39
 5.711514e+01 4.565985e+01 3.462120e+01 3.625384e+01 5.937770e+01 7.261832e+01 3.586857e+01 4.405789e+01 5.040396e+01 3.253442e+01 3.243469e+01 2.492356e+01 9.844680e+01 1.626200e+00 1.798543e+00 1.549066e+00 1.679678e+00 2.617563e+00 2.523459e+00 2.146811e+00 1.823273e+00 2.094031e+00 1.941095e+00 1.704155e+00 1.756175e+00 1.882361e+00 2.545809e-01 2.810134e-01 2.487629e-01 2.725009e-01 3.798213e-01 3.992606e-01 3.771319e-01 3.160979e-01 3.555778e-01 3.668109e-01 3.116390e-01 3.151698e-01 2.253747e-01
<GCONST> 1.143236e+02
<TRANSP> 5
 0.000000e+00 1.000000e+00 0.000000e+00 0.000000e+00 0.000000e+00
 0.000000e+00 7.490199e-01 2.509800e-01 0.000000e+00 0.000000e+00
 0.000000e+00 0.000000e+00 7.490200e-01 2.509800e-01 0.000000e+00
 0.000000e+00 0.000000e+00 0.000000e+00 8.742785e-01 1.257215e-01
 0.000000e+00 0.000000e+00 0.000000e+00 0.000000e+00 0.000000e+00
<ENDHMM>
~h "b"
<BEGINHMM>
<NUMSTATES> 5
<STATE> 2
<MEAN> 39
 -9.487671e+00 -1.668134e-01 3.826470e-01 -5.322169e+00 -2.073790e+00 -7.232909e+00 -7.351768e+00 -7.556486e-01 -1.109286e+01 -9.792008e+00 -3.427007e+00 -4.924350e+00 8.219041e+01 2.409491e-01 1.950489e-01 -1.267149e-01 1.420119e-01 1.779577e-01 -1.949109e-02 -1.491616e-01 2.900720e-02 1.292804e-01 -1.084733e-01 -9.340726e-02 -2.288667e-02 -1.173041e-01 -4.507949e-03 3.977794e-03 3.217044e-03 4.117087e-03 5.569019e-03 6.906892e-03 -2.658085e-03 -2.889314e-03 6.737325e-03 -2.687853e-03 -6.713498e-03 -4.258235e-04 -1.112165e-02
<VARIANCE> 39
 1.279403e+02 5.517733e+01 7.501066e+01 3.673767e+01 7.042056e+01 7.084836e+01 5.428630e+01 3.305108e+01 5.130761e+01 4.031255e+01 5.651916e+01 3.231395e+01 7.962646e+01 6.119860e+00 2.697527e+00 4.285614e+00 1.848452e+00 4.029956e+00 4.329460e+00 3.558023e+00 2.420463e+00 2.913840e+00 2.809240e+00 3.442853e+00 2.445121e+00 2.423311e+00 8.123976e-01 4.125634e-01 6.912259e-01 3.193447e-01 5.786919e-01 7.240573e-01 6.318259e-01 4.394033e-01 5.137529e-01 5.428295e-01 5.907167e-01 4.612883e-01 3.352536e-01
<GCONST> 1.305686e+02
<STATE> 3
<MEAN> 39
 -8.699138e+00 5.599713e-01 -2.733696e-02 -4.807155e+00 -1.436324e+00 -7.239558e+00 -7.868697e+00 -6.706679e-01 -1.059655e+01 -1.016706e+01 -3.794337e+00 -5.003629e+00 8.167516e+01 2.193123e-01 2.025089e-01 -1.087879e-01 1.527670e-01 1.917723e-01 2.171670e-03 -1.536115e-01 1.868013e-02 1.502068e-01 -1.130353e-01 -1.170274e-01 -2.369792e-02 -1.463896e-01 -7.442119e-03 4.905833e-04 6.214539e-03 2.255352e-03 3.327728e-03 5.579676e-03 -4.006969e-04 -3.344741e-03 4.620659e-03 -5.495816e-04 -5.834374e-03 6.261065e-04 -5.665324e-03
<VARIANCE> 39
 1.118059e+02 5.445116e+01 6.948173e+01 3.489482e+01 6.877033e+01 7.004581e+01 5.248055e+01 3.295420e+01 5.439008e+01 4.098421e+01 5.937503e+01 3.235894e+01 8.149007e+01 5.398261e+00 2.646641e+00 4.134608e+00 1.771227e+00 4.034285e+00 4.507159e+00 3.522985e+00 2.389139e+00 2.909360e+00 2.886307e+00 3.499909e+00 2.363033e+00 2.375026e+00 7.319697e-01 4.052025e-01 6.848627e-01 3.074048e-01 5.839263e-01 7.643280e-01 6.229510e-01 4.337316e-01 5.095940e-01 5.618265e-01 6.012009e-01 4.449280e-01 3.237685e-01
<GCONST> 1.299916e+02
<STATE> 4
<MEAN> 39
 -7.896677e+00 1.740938e+00 -3.490192e-01 -3.913776e+00 -5.215571e-01 -6.978458e+00 -8.490086e+00 -4.494658e-01 -9.768812e+00 -1.072144e+01 -4.340002e+00 -4.997857e+00 8.037390e+01 1.554335e-01 1.819299e-01 -6.605843e-02 1.449840e-01 1.729806e-01 1.881781e-02 -1.267326e-01 6.253649e-03 1.542617e-01 -8.891616e-02 -1.263590e-01 -1.800087e-02 -1.509401e-01 -1.009813e-02 -4.507452e-03 7.748180e-03 1.278904e-04 -1.635228e-04 1.783275e-03 3.003902e-03 -2.932227e-03 6.330585e-04 2.735148e-03 -1.689908e-03 1.786754e-03 2.131721e-03
<VARIANCE> 39
 8.510821e+01 5.255444e+01 5.851903e+01 3.282196e+01 6.491621e+01 6.924137e+01 4.984177e+01 3.315044e+01 5.677507e+01 4.234620e+01 5.907041e+01 3.076377e+01 8.810582e+01 4.089531e+00 2.575907e+00 3.664994e+00 1.753844e+00 3.789679e+00 4.579574e+00 3.429072e+00 2.343768e+00 2.872378e+00 2.841805e+00 3.490345e+00 2.235090e+00 2.298361e+00 5.743092e-01 3.915702e-01 6.215548e-01 3.048970e-01 5.447531e-01 7.782085e-01 5.988404e-01 4.285583e-01 5.013076e-01 5.535327e-01 6.044937e-01 4.247020e-01 3.027689e-01
<GCONST> 1.281617e+02
<TRANSP> 5
 0.000000e+00 1.000000e+00 0.000000e+00 0.000000e+00 0.000000e+00
 0.000000e+00 7.288662e-01 2.711338e-01 0.000000e+00 0.000000e+00
 0.000000e+00 0.000000e+00 7.288663e-01 2.711338e-01 0.000000e+00
 0.000000e+00 0.000000e+00 0.000000e+00 8.525230e-01 1.474770e-01
 0.000000e+00 0.000000e+00 0.000000e+00 0.000000e+00 0.000000e+00
<ENDHMM>
~h "d"
<BEGINHMM>
<NUMSTATES> 5
<STATE> 2
<MEAN> 39
 -1.440558e+01 -9.671714e-01 3.928915e-01 -6.325873e+00 -4.447964e+00 -6.856827e+00 -4.304090e+00 -2.128462e+00 -1.189491e+01 -7.982419e+00 -4.307226e+00 -5.719541e+00 7.929040e+01 2.566327e-01 -1.102252e-01 -1.061185e-01 5.438235e-02 -6.432898e-03 -1.955990e-01 -4.039830e-02 5.009428e-02 -6.069061e-02 -3.736843e-02 8.271210e-02 3.094707e-02 3.007552e-01 1.092458e-02 1.168511e-02 -1.369120e-02 6.882483e-03 5.735539e-03 -1.979857e-03 -8.756481e-03 -6.644110e-04 -2.464224e-04 -6.169971e-03 8.889006e-04 3.543648e-03 -1.507134e-02
<VARIANCE> 39
 1.394834e+02 5.282862e+01 7.574818e+01 3.614514e+01 5.909311e+01 8.151422e+01 4.394011e+01 3.894169e+01 3.488531e+01 3.932645e+01 3.461825e+01 2.388433e+01 1.002598e+02 6.235893e+00 2.936798e+00 3.734160e+00 1.999143e+00 3.431802e+00 3.551058e+00 2.931453e+00 2.264991e+00 2.804507e+00 2.520061e+00 2.415970e+00 2.130436e+00 2.757366e+00 8.506000e-01 4.866548e-01 4.728463e-01 3.647369e-01 5.532479e-01 5.523928e-01 5.566745e-01 4.287993e-01 5.196484e-01 4.713746e-01 4.229402e-01 4.040247e-01 3.749331e-01
<GCONST> 1.274787e+02
<STATE> 3
<MEAN> 39
 -1.342510e+01 -1.259291e+00 -8.234811e-02 -6.081391e+00 -4.434598e+00 -7.563224e+00 -4.513144e+00 -1.950197e+00 -1.211363e+01 -8.167187e+00 -4.012034e+00 -5.571711e+00 8.022964e+01 2.793284e-01 -6.431516e-02 -1.438419e-01 7.634286e-02 1.560427e-02 -1.908746e-01 -7.021888e-02 4.524869e-02 -5.855952e-02 -5.572379e-02 8.302592e-02 4.444794e-02 2.351520e-01 3.400015e-03 1.304847e-02 -8.342331e-03 5.293974e-03 6.784546e-03 3.132219e-03 -7.916288e-03 -1.654418e-03 7.829153e-04 -4.537059e-03 -1.787457e-04 3.715577e-03 -1.936240e-02
<VARIANCE> 39
 1.397984e+02 5.146491e+01 7.806753e+01 3.668066e+01 6.328807e+01 8.320278e+01 4.565518e+01 4.025538e+01 3.691534e+01 3.892882e+01 3.678295e+01 2.447785e+01 9.722862e+01 6.311461e+00 2.919214e+00 3.775359e+00 2.029421e+00 3.726041e+00 3.750514e+00 3.082990e+00 2.333196e+00 2.943123e+00 2.569030e+00 2.500208e+00 2.173139e+00 2.781832e+00 8.609900e-01 4.829173e-01 4.764261e-01 3.694144e-01 5.916373e-01 5.877162e-01 5.879798e-01 4.390458e-01 5.396038e-01 4.826594e-01 4.347361e-01 4.127866e-01 3.761095e-01
<GCONST> 1.284862e+02
<STATE> 4
<MEAN> 39
 -1.185816e+01 -9.556026e-01 -9.073645e-01 -5.399070e+00 -4.105554e+00 -8.443895e+00 -5.091432e+00 -1.509529e+00 -1.218688e+01 -8.770393e+00 -3.885634e+00 -5.237579e+00 8.061887e+01 2.330057e-01 7.721106e-03 -1.400173e-01 8.316272e-02 4.004889e-02 -1.356410e-01 -8.967490e-02 3.480122e-02 -3.849990e-02 -6.238842e-02 6.061431e-02 5.119744e-02 1.059705e-01 -6.567396e-03 1.161601e-02 7.777396e-04 1.188686e-03 5.864645e-03 8.596079e-03 -4.031094e-03 -1.646405e-03 2.840071e-03 -1.327074e-03 -2.897882e-03 1.319579e-03 -1.912542e-02
<VARIANCE> 39
 1.253611e+02 5.048821e+01 7.515542e+01 3.765132e+01 6.762942e+01 8.187592e+01 4.675499e+01 4.241335e+01 3.923899e+01 3.958897e+01 3.883720e+01 2.449115e+01 9.660471e+01 5.964370e+00 2.793089e+00 3.688214e+00 2.076806e+00 3.947490e+00 3.820806e+00 3.185463e+00 2.361391e+00 3.005613e+00 2.731104e+00 2.480683e+00 2.100757e+00 2.853280e+00 8.415414e-01 4.614456e-01 4.792992e-01 3.791226e-01 6.232684e-01 6.081395e-01 6.114885e-01 4.394752e-01 5.489655e-01 5.170789e-01 4.293818e-01 3.990491e-01 3.856664e-01
<GCONST> 1.288395e+02
<TRANSP> 5
 0.000000e+00 1.000000e+00 0.000000e+00 0.000000e+00 0.000000e+00
 0.000000e+00 7.403477e-01 2.596523e-01 0.000000e+00 0.000000e+00
 0.000000e+00 0.000000e+00 7.403480e-01 2.596520e-01 0.000000e+00
 0.000000e+00 0.000000e+00 0.000000e+00 8.655367e-01 1.344633e-01
 0.000000e+00 0.000000e+00 0.000000e+00 0.000000e+00 0.000000e+00
<ENDHMM>
~h "e"
<BEGINHMM>
<NUMSTATES> 5
<STATE> 2
<MEAN> 39
 -9.443665e+00 9.040477e-01 -1.377575e+00 -4.237732e+00 -1.881763e+00 -7.667572e+00 -7.111111e+00 -5.726876e-01 -1.068984e+01 -1.012427e+01 -4.203025e+00 -5.084068e+00 7.994479e+01 7.238817e-02 1.094283e-01 -1.646434e-02 4.318329e-02 8.922508e-02 1.689429e-02 -5.932528e-02 2.771557e-02 8.180482e-02 -5.843388e-02 -7.864515e-02 -1.063825e-02 -6.027472e-02 -7.070880e-03 -1.037603e-03 4.829133e-03 -2.302177e-03 -1.454756e-03 2.289830e-03 5.305399e-03 -1.103781e-04 2.120863e-03 2.904149e-03 -2.205185e-03 -2.408527e-03 -1.881260e-04
<VARIANCE> 39
 8.832700e+01 4.654061e+01 6.637220e+01 4.091392e+01 6.674400e+01 6.938687e+01 5.066074e+01 4.451704e+01 5.549244e+01 4.013251e+01 4.858249e+01 2.840010e+01 9.196779e+01 4.713082e+00 2.585264e+00 3.696903e+00 2.167676e+00 3.534510e+00 4.188925e+00 3.170375e+00 2.313517e+00 2.952171e+00 2.894662e+00 2.670810e+00 1.976332e+00 2.958802e+00 7.170126e-01 3.998750e-01 5.965824e-01 3.765104e-01 5.603458e-01 7.075716e-01 5.727298e-01 4.122257e-01 5.167421e-01 5.513746e-01 4.604660e-01 3.712907e-01 4.114636e-01
<GCONST> 1.286681e+02
<STATE> 3
<MEAN> 39
 -9.221145e+00 1.290647e+00 -1.410288e+00 -4.100610e+00 -1.586619e+00 -7.598470e+00 -7.283248e+00 -4.612293e-01 -1.037707e+01 -1.031315e+01 -4.500783e+00 -5.148928e+00 7.972546e+01 5.147386e-02 1.020512e-01 -3.012092e-03 3.685564e-02 8.314986e-02 2.053727e-02 -3.963940e-02 2.744959e-02 8.646607e-02 -4.684843e-02 -8.206340e-02 -1.862465e-02 -5.696768e-02 -4.985403e-03 -2.672299e-03 3.093392e-03 -1.040352e-03 -1.823854e-03 3.732463e-04 5.462537e-03 -2.090690e-04 5.153088e-04 3.381224e-03 4.415400e-05 -1.949836e-03 1.365318e-03
<VARIANCE> 39
 8.296085e+01 4.545117e+01 6.415110e+01 4.112090e+01 6.642021e+01 7.018420e+01 5.068090e+01 4.510180e+01 5.618922e+01 4.112200e+01 4.917561e+01 2.837519e+01 9.087241e+01 4.488904e+00 2.559303e+00 3.642279e+00 2.231264e+00 3.401566e+00 4.320611e+00 3.115543e+00 2.353516e+00 2.915046e+00 2.936444e+00 2.678622e+00 1.939684e+00 2.984869e+00 6.953101e-01 3.935643e-01 5.976000e-01 3.859273e-01 5.397818e-01 7.278991e-01 5.591751e-01 4.167528e-01 5.097246e-01 5.584840e-01 4.644801e-01 3.632056e-01 4.160661e-01
<GCONST> 1.285056e+02
<STATE> 4
<MEAN> 39
 -9.128395e+00 1.901762e+00 -1.368185e+00 -3.808873e+00 -1.390247e+00 -7.410955e+00 -7.219219e+00 -7.614803e-02 -9.814537e+00 -1.052764e+01 -4.958880e+00 -5.270735e+00 7.891283e+01 3.396958e-02 7.803576e-02 1.311429e-03 3.088299e-02 6.309110e-02 1.401290e-02 -1.250769e-02 2.636755e-02 7.743934e-02 -2.474590e-02 -6.498521e-02 -2.356670e-02 -4.732448e-02 -2.244311e-03 -3.176121e-03 5.544657e-04 4.592179e-04 -1.709075e-03 -8.750287e-04 4.161205e-03 -5.509786e-04 -1.088657e-03 3.450655e-03 2.571736e-03 -5.453319e-04 9.219168e-04
<VARIANCE> 39
 7.410808e+01 4.423745e+01 5.887249e+01 4.147784e+01 6.604887e+01 7.191578e+01 5.052380e+01 4.699382e+01 5.495512e+01 4.284047e+01 4.655404e+01 2.793034e+01 9.249809e+01 4.005075e+00 2.506186e+00 3.347979e+00 2.301823e+00 3.130240e+00 4.328926e+00 3.020298e+00 2.388467e+00 2.833178e+00 2.942651e+00 2.605350e+00 1.901918e+00 2.942447e+00 6.355447e-01 3.823161e-01 5.547140e-01 3.942076e-01 4.954736e-01 7.203223e-01 5.367156e-01 4.185779e-01 4.963785e-01 5.548370e-01 4.562865e-01 3.549742e-01 4.069903e-01
<GCONST> 1.275367e+02
<TRANSP> 5
 0.000000e+00 1.000000e+00 0.000000e+00 0.000000e+00 0.000000e+00
 0.000000e+00 7.421867e-01 2.578133e-01 0.000000e+00 0.000000e+00
 0.000000e+00 0.000000e+00 7.421865e-01 2.578135e-01 0.000000e+00
 0.000000e+00 0.000000e+00 0.000000e+00 8.680636e-01 1.319364e-01
 0.000000e+00 0.000000e+00 0.000000e+00 0.000000e+00 0.000000e+00
<ENDHMM>
~h "g"
<BEGINHMM>
<NUMSTATES> 5
<STATE> 2
<MEAN> 39
 -1.150965e+01 3.030207e+00 -6.122482e-01 -1.889064e+00 -1.206949e+00 -7.915213e+00 -7.495331e+00 -1.575490e+00 -1.094607e+01 -8.184400e+00 -3.801208e+00 -3.700287e+00 7.300923e+01 2.549912e-02 8.902848e-03 -1.866985e-02 5.089262e-03 4.523803e-03 2.849275e-02 1.328431e-02 -1.322334e-02 2.150843e-02 1.800781e-02 2.196964e-03 2.019291e-02 1.161462e-03 8.080562e-04 1.155275e-03 -5.071400e-04 -1.330632e-03 -2.347322e-03 -1.614856e-04 1.290357e-04 1.811733e-03 2.750795e-03 9.824103e-05 -1.069106e-03 -9.188390e-04 -6.764636e-04
<VARIANCE> 39
 4.392566e+01 4.086644e+01 3.800752e+01 4.518932e+01 5.285172e+01 5.426792e+01 3.061931e+01 3.255780e+01 4.358633e+01 2.120049e+01 1.327285e+01 3.154539e+01 1.126662e+02 1.344745e+00 2.044513e+00 1.393506e+00 2.035716e+00 2.658801e+00 2.042923e+00 2.206033e+00 2.061862e+00 2.198854e+00 2.263010e+00 9.751843e-01 1.848487e+00 3.456150e+00 2.386284e-01 2.646109e-01 1.768554e-01 3.537137e-01 4.463361e-01 3.532594e-01 3.997439e-01 3.934605e-01 4.243780e-01 4.652458e-01 1.860830e-01 3.327031e-01 4.351447e-01
<GCONST> 1.133028e+02
<STATE> 3
<MEAN> 39
 -1.139105e+01 3.079256e+00 -6.951129e-01 -1.880241e+00 -1.211263e+00 -7.797590e+00 -7.438931e+00 -1.611062e+00 -1.082308e+01 -8.107121e+00 -3.803967e+00 -3.624917e+00 7.301064e+01 2.845044e-02 1.327685e-02 -2.054189e-02 -3.231741e-04 -5.166036e-03 2.754843e-02 1.394506e-02 -5.301866e-03 3.295998e-02 1.860589e-02 -2.116981e-03 1.602117e-02 -1.534377e-03 5.974172e-04 9.410777e-04 -3.988967e-04 -1.240344e-03 -2.200101e-03 -2.289352e-04 2.030740e-04 1.873282e-03 2.636205e-03 1.586756e-04 -9.897129e-04 -1.011407e-03 -6.273702e-04
<VARIANCE> 39
 4.411916e+01 4.049884e+01 3.731423e+01 4.419076e+01 5.126049e+01 5.459635e+01 3.092311e+01 3.337965e+01 4.589618e+01 2.109728e+01 1.361457e+01 3.227589e+01 1.116287e+02 1.386793e+00 2.035921e+00 1.381828e+00 2.011410e+00 2.657349e+00 2.083425e+00 2.195395e+00 2.031063e+00 2.242179e+00 2.213959e+00 9.917130e-01 1.859811e+00 3.432582e+00 2.444928e-01 2.636435e-01 1.771984e-01 3.501039e-01 4.500989e-01 3.602470e-01 3.960291e-01 3.843100e-01 4.282421e-01 4.521251e-01 1.883858e-01 3.341041e-01 4.318510e-01
<GCONST> 1.133692e+02
<STATE> 4
<MEAN> 39
 -1.119672e+01 3.201788e+00 -8.734072e-01 -1.917102e+00 -1.310931e+00 -7.561067e+00 -7.336054e+00 -1.606968e+00 -1.047145e+01 -7.969964e+00 -3.857015e+00 -3.542308e+00 7.296294e+01 3.268108e-02 1.714928e-02 -2.250773e-02 -8.083204e-03 -1.910361e-02 2.314207e-02 1.548236e-02 9.032274e-03 4.948145e-02 1.859771e-02 -8.203233e-03 8.319579e-03 -2.662090e-03 3.731916e-04 4.608165e-04 -3.559745e-04 -1.064501e-03 -1.840415e-03 -4.803910e-04 3.817340e-04 1.873674e-03 2.068468e-03 7.046829e-05 -7.242336e-04 -1.031533e-03 -3.247131e-04
<VARIANCE> 39
 4.446622e+01 3.957801e+01 3.605816e+01 4.263355e+01 4.911308e+01 5.539548e+01 3.149732e+01 3.545514e+01 4.972648e+01 2.109753e+01 1.447163e+01 3.344948e+01 1.090339e+02 1.462847e+00 2.016838e+00 1.362295e+00 1.960871e+00 2.658689e+00 2.175281e+00 2.172335e+00 1.993891e+00 2.322620e+00 2.120878e+00 1.030617e+00 1.875094e+00 3.378029e+00 2.552811e-01 2.614903e-01 1.780350e-01 3.415603e-01 4.568495e-01 3.747851e-01 3.894658e-01 3.713712e-01 4.344039e-01 4.270048e-01 1.938922e-01 3.357700e-01 4.252027e-01
<GCONST> 1.135236e+02
<TRANSP> 5
 0.000000e+00 1.000000e+00 0.000000e+00 0.000000e+00 0.000000e+00
 0.000000e+00 7.666137e-01 2.333863e-01 0.000000e+00 0.000000e+00
 0.000000e+00 0.000000e+00 7.666141e-01 2.333860e-01 0.000000e+00
 0.000000e+00 0.000000e+00 0.000000e+00 8.937348e-01 1.062652e-01
 0.000000e+00 0.000000e+00 0.000000e+00 0.000000e+00 0.000000e+00
<ENDHMM>
~h "h"
<BEGINHMM>
<NUMSTATES> 5
<STATE> 2
<MEAN> 39
 -1.213855e+01 2.269675e+00 -1.346969e+00 -2.214075e+00 1.357231e-01 -6.088794e+00 -5.780734e+00 -1.690643e+00 -1.056675e+01 -1.001246e+01 -4.202502e+00 -5.900609e+00 7.324262e+01 -9.810968e-02 8.053999e-02 2.666653e-02 -1.101805e-02 -7.235498e-02 1.021139e-01 2.368199e-02 3.100495e-03 6.086519e-02 1.579759e-02 -3.384404e-02 -4.307572e-03 -1.794605e-01 3.897361e-03 -2.254999e-03 -1.889651e-03 3.668605e-03 -3.188243e-03 -6.448237e-03 1.868604e-03 1.282322e-03 -1.477592e-03 3.618714e-03 4.453348e-03 -3.124926e-04 3.030264e-03
<VARIANCE> 39
 3.938833e+01 3.935388e+01 3.299390e+01 3.376439e+01 6.687332e+01 7.977242e+01 3.612738e+01 3.185837e+01 3.393027e+01 3.433318e+01 3.450054e+01 2.263771e+01 1.054487e+02 2.297684e+00 1.607888e+00 1.605170e+00 1.512796e+00 3.371387e+00 2.188878e+00 2.012002e+00 1.647404e+00 2.161754e+00 2.334057e+00 1.972717e+00 1.949524e+00 1.695726e+00 4.019255e-01 2.739758e-01 2.891473e-01 2.312093e-01 5.306717e-01 3.526877e-01 3.683015e-01 3.042713e-01 3.978921e-01 4.324851e-01 3.772958e-01 3.574859e-01 2.570525e-01
<GCONST> 1.150357e+02
<STATE> 3
<MEAN> 39
 -1.248197e+01 2.563258e+00 -1.259911e+00 -2.228391e+00 -1.642151e-01 -5.734877e+00 -5.677921e+00 -1.677083e+00 -1.034963e+01 -9.940567e+00 -4.323832e+00 -5.922096e+00 7.257242e+01 -8.014163e-02 7.038527e-02 1.853205e-02 -5.225977e-05 -8.815453e-02 7.540154e-02 3.295644e-02 1.152710e-02 5.583994e-02 2.795790e-02 -1.525204e-02 -3.321594e-03 -1.644608e-01 4.931798e-03 -2.995082e-03 -2.279076e-03 9.490734e-04 -4.709123e-03 -7.127683e-03 3.373479e-03 3.125127e-03 -3.501966e-04 2.415981e-03 4.944157e-03 9.198792e-04 4.722135e-03
<VARIANCE> 39
 3.874084e+01 3.773368e+01 3.357395e+01 3.084655e+01 6.678755e+01 7.504523e+01 3.584317e+01 3.184023e+01 3.114854e+01 3.446702e+01 3.259464e+01 2.125923e+01 1.016587e+02 2.229831e+00 1.640037e+00 1.523880e+00 1.412336e+00 3.238429e+00 2.223941e+00 2.006201e+00 1.659927e+00 2.038848e+00 2.297296e+00 1.959053e+00 1.839357e+00 1.794362e+00 3.862745e-01 2.810084e-01 2.783975e-01 2.233782e-01 5.223454e-01 3.674113e-01 3.653579e-01 3.041854e-01 3.785870e-01 4.234800e-01 3.715580e-01 3.423752e-01 2.701989e-01
<GCONST> 1.142125e+02
<STATE> 4
<MEAN> 39
 -1.267993e+01 2.793692e+00 -1.124688e+00 -2.175713e+00 -5.907009e-01 -5.399693e+00 -5.533635e+00 -1.479411e+00 -1.010344e+01 -1.001423e+01 -4.504909e+00 -5.935805e+00 7.201795e+01 -4.583311e-02 5.219338e-02 2.567003e-03 -1.734479e-03 -1.187695e-01 3.782379e-02 5.106096e-02 3.178820e-02 5.622858e-02 3.292426e-02 4.473235e-03 5.529851e-03 -1.322649e-01 5.003920e-03 -3.084036e-03 -2.724194e-03 -2.085615e-03 -5.781373e-03 -6.139140e-03 3.942410e-03 4.259896e-03 2.251998e-03 5.115967e-04 2.945550e-03 2.186973e-03 5.491549e-03
<VARIANCE> 39
 3.976487e+01 3.670831e+01 3.428200e+01 2.866482e+01 6.845464e+01 7.146513e+01 3.657037e+01 3.385075e+01 2.893286e+01 3.644616e+01 3.013616e+01 1.993475e+01 9.731110e+01 2.232184e+00 1.762219e+00 1.461872e+00 1.350461e+00 3.109930e+00 2.381142e+00 2.072165e+00 1.723387e+00 1.932525e+00 2.347812e+00 1.921350e+00 1.735269e+00 2.050632e+00 3.851764e-01 2.990316e-01 2.722203e-01 2.240082e-01 5.102521e-01 4.044210e-01 3.698929e-01 3.095412e-01 3.615609e-01 4.282988e-01 3.611705e-01 3.276664e-01 3.060065e-01
<GCONST> 1.142790e+02
<TRANSP> 5
 0.000000e+00 1.000000e+00 0.000000e+00 0.000000e+00 0.000000e+00
 0.000000e+00 7.463222e-01 2.536778e-01 0.000000e+00 0.000000e+00
 0.000000e+00 0.000000e+00 7.463220e-01 2.536779e-01 0.000000e+00
 0.000000e+00 0.000000e+00 0.000000e+00 8.694079e-01 1.305922e-01
 0.000000e+00 0.000000e+00 0.000000e+00 0.000000e+00 0.000000e+00
<ENDHMM>
~h "i"
<BEGINHMM>
<NUMSTATES> 5
<STATE> 2
<MEAN> 39
 -1.093071e+01 3.341348e+00 -9.663928e-01 -1.320647e+00 2.511954e-02 -6.954243e+00 -6.561369e+00 -8.572072e-01 -9.997433e+00 -9.410540e+00 -3.618190e+00 -5.404903e+00 7.368507e+01 -6.506544e-02 6.148857e-02 -5.223249e-03 -5.723403e-02 -1.363389e-01 5.556172e-02 1.041363e-01 5.701930e-02 7.882971e-02 1.535474e-02 -4.072122e-02 2.750544e-02 -1.128825e-01 5.065090e-03 -3.739519e-03 -2.749816e-03 -1.674343e-03 -4.788206e-03 -3.314524e-03 6.291454e-04 6.273643e-04 2.115475e-03 1.414558e-03 1.289754e-04 1.784497e-03 4.500394e-03
<VARIANCE> 39
 3.935589e+01 4.108612e+01 3.033679e+01 4.641826e+01 8.048862e+01 6.677747e+01 4.252368e+01 4.518999e+01 4.087292e+01 3.380788e+01 2.902748e+01 2.430671e+01 9.732716e+01 1.841888e+00 2.356395e+00 1.601622e+00 2.751617e+00 3.344998e+00 3.376220e+00 3.094225e+00 2.192454e+00 2.344225e+00 2.584328e+00 2.338942e+00 1.899732e+00 2.704440e+00 3.274833e-01 3.736098e-01 2.759353e-01 4.751239e-01 4.970645e-01 5.835181e-01 5.910937e-01 3.947423e-01 4.179142e-01 5.174831e-01 4.134081e-01 3.586150e-01 3.573449e-01
<GCONST> 1.211171e+02
<STATE> 3
<MEAN> 39
 -1.113468e+01 3.556780e+00 -1.014702e+00 -1.551924e+00 -5.348785e-01 -6.750992e+00 -6.155119e+00 -6.276670e-01 -9.673539e+00 -9.341877e+00 -3.771233e+00 -5.280633e+00 7.327347e+01 -4.628580e-02 4.762712e-02 -1.435304e-02 -6.103348e-02 -1.485151e-01 4.413848e-02 1.025127e-01 5.734760e-02 8.760998e-02 2.236064e-02 -4.050358e-02 3.327230e-02 -9.607469e-02 4.566566e-03 -2.964304e-03 -2.212390e-03 -1.787371e-05 -1.207366e-03 -2.009713e-03 -1.747741e-03 -1.239694e-03 2.335088e-03 2.598232e-03 9.975911e-05 1.121105e-03 3.424598e-03
<VARIANCE> 39
 4.030487e+01 4.004411e+01 2.930781e+01 4.412542e+01 7.727477e+01 6.659641e+01 4.172548e+01 4.562796e+01 4.038424e+01 3.350259e+01 2.827233e+01 2.353163e+01 9.700060e+01 1.832206e+00 2.371720e+00 1.532833e+00 2.745434e+00 3.197471e+00 3.331832e+00 3.117684e+00 2.130942e+00 2.191281e+00 2.598141e+00 2.284844e+00 1.851066e+00 2.681366e+00 3.286529e-01 3.804852e-01 2.654844e-01 4.815708e-01 4.811105e-01 5.763977e-01 5.980707e-01 3.773234e-01 3.895283e-01 5.259306e-01 4.028803e-01 3.484994e-01 3.540391e-01
<GCONST> 1.204503e+02
<STATE> 4
<MEAN> 39
 -1.118814e+01 3.734170e+00 -1.093520e+00 -1.942674e+00 -1.477821e+00 -6.508333e+00 -5.699125e+00 -1.251915e-01 -9.072371e+00 -9.222305e+00 -3.940668e+00 -5.018709e+00 7.282530e+01 -2.282285e-02 3.470803e-02 -2.192067e-02 -5.409140e-02 -1.365400e-01 3.547793e-02 8.251015e-02 4.811912e-02 9.611095e-02 3.690602e-02 -3.676862e-02 3.497618e-02 -7.841870e-02 2.558924e-03 -1.493590e-03 -8.108764e-04 1.550923e-03 3.359959e-03 -5.649743e-04 -4.180876e-03 -3.073932e-03 1.434357e-03 3.408056e-03 9.578088e-04 1.126435e-06 1.665185e-03
<VARIANCE> 39
 4.202106e+01 3.877400e+01 2.866003e+01 4.021289e+01 7.048853e+01 6.659619e+01 4.046540e+01 4.712551e+01 4.101080e+01 3.276012e+01 2.719175e+01 2.304984e+01 9.657223e+01 1.726248e+00 2.279387e+00 1.425423e+00 2.496126e+00 2.940704e+00 3.184351e+00 3.052222e+00 2.035532e+00 2.045495e+00 2.459150e+00 2.188218e+00 1.780776e+00 2.538973e+00 3.077266e-01 3.637636e-01 2.446571e-01 4.429583e-01 4.493981e-01 5.441347e-01 5.792680e-01 3.534332e-01 3.594241e-01 4.995027e-01 3.835081e-01 3.323413e-01 3.285209e-01
<GCONST> 1.186571e+02
<TRANSP> 5
 0.000000e+00 1.000000e+00 0.000000e+00 0.000000e+00 0.000000e+00
 0.000000e+00 7.470886e-01 2.529114e-01 0.000000e+00 0.000000e+00
 0.000000e+00 0.000000e+00 7.470883e-01 2.529118e-01 0.000000e+00
 0.000000e+00 0.000000e+00 0.000000e+00 8.719653e-01 1.280347e-01
 0.000000e+00 0.000000e+00 0.000000e+00 0.000000e+00 0.000000e+00
<ENDHMM>
~h "j"
<BEGINHMM>
<NUMSTATES> 5
<STATE> 2
<MEAN> 39
 -1.101781e+01 2.371064e+00 -1.786141e-01 -3.314944e+00 -1.473074e+00 -3.858522e+00 -4.274500e+00 1.698547e+00 -7.555137e+00 -1.239286e+01 -7.061178e+00 -6.160689e+00 7.462061e+01 -2.572460e-02 -1.552413e-02 2.737282e-02 4.580097e-02 5.283161e-02 9.929100e-03 -2.407664e-02 -7.207308e-02 -6.090345e-02 -3.032149e-02 -2.029969e-02 -7.105775e-04 -1.336056e-03 5.256900e-04 4.098274e-04 -1.295893e-04 1.400488e-04 -1.632057e-04 -3.570659e-04 -6.777890e-04 5.514591e-04 -2.133785e-04 1.129360e-04 2.494896e-04 -3.018955e-04 -4.322022e-04
<VARIANCE> 39
 5.090585e+01 3.645835e+01 3.475580e+01 5.795832e+01 7.013223e+01 3.673474e+01 4.400039e+01 3.294219e+01 5.025159e+01 4.330822e+01 2.590453e+01 1.737374e+01 8.397768e+01 3.374429e+00 1.927649e+00 2.104808e+00 1.941611e+00 2.789079e+00 2.093534e+00 2.765859e+00 1.536485e+00 2.549624e+00 2.992677e+00 2.274124e+00 1.647014e+00 2.472578e+00 6.345209e-01 3.188392e-01 3.844578e-01 3.168768e-01 5.235204e-01 3.191060e-01 4.495094e-01 2.910242e-01 4.373180e-01 5.489683e-01 4.380953e-01 3.111291e-01 3.686675e-01
<GCONST> 1.189754e+02
<STATE> 3
<MEAN> 39
 -1.112497e+01 2.308004e+00 -6.157148e-02 -3.119403e+00 -1.247447e+00 -3.816623e+00 -4.381896e+00 1.395129e+00 -7.818026e+00 -1.252073e+01 -7.145194e+00 -6.165601e+00 7.461060e+01 -2.340065e-02 -1.371490e-02 2.646524e-02 4.616669e-02 5.170369e-02 8.398523e-03 -2.673747e-02 -6.932457e-02 -6.162358e-02 -2.968265e-02 -1.909675e-02 -1.987476e-03 -3.293654e-03 6.071212e-04 4.476220e-04 -3.433819e-04 -2.114731e-05 -4.756008e-04 -4.202897e-04 -5.301702e-04 7.964410e-04 -2.038394e-05 2.283733e-04 3.249658e-04 -2.762681e-04 -4.719506e-04
<VARIANCE> 39
 5.177675e+01 3.671819e+01 3.458224e+01 5.727641e+01 7.146703e+01 3.719072e+01 4.369934e+01 3.228884e+01 4.951129e+01 4.486605e+01 2.567002e+01 1.738624e+01 8.348701e+01 3.520258e+00 2.001324e+00 2.129192e+00 1.960648e+00 2.833816e+00 2.098102e+00 2.744031e+00 1.558828e+00 2.575567e+00 3.154347e+00 2.266095e+00 1.649960e+00 2.550583e+00 6.629859e-01 3.336822e-01 3.931261e-01 3.201137e-01 5.294940e-01 3.209057e-01 4.498973e-01 2.992928e-01 4.489890e-01 5.771788e-01 4.387020e-01 3.112817e-01 3.847347e-01
<GCONST> 1.194996e+02
<STATE> 4
<MEAN> 39
 -1.126159e+01 2.272218e+00 8.539307e-02 -2.830684e+00 -9.815822e-01 -3.749404e+00 -4.576156e+00 9.910637e-01 -8.145912e+00 -1.269360e+01 -7.236327e+00 -6.183658e+00 7.455452e+01 -1.996316e-02 -1.086775e-02 2.383014e-02 4.507874e-02 4.868227e-02 6.577919e-03 -2.928272e-02 -6.361438e-02 -6.180733e-02 -2.769282e-02 -1.643948e-02 -3.248911e-03 -6.449580e-03 7.119764e-04 4.835557e-04 -6.641546e-04 -2.536608e-04 -8.413906e-04 -5.022357e-04 -2.907028e-04 1.098884e-03 2.433678e-04 3.695763e-04 4.289356e-04 -1.873303e-04 -4.652577e-04
<VARIANCE> 39
 5.277002e+01 3.713626e+01 3.392532e+01 5.514352e+01 7.286097e+01 3.818740e+01 4.322261e+01 3.135889e+01 4.830944e+01 4.746337e+01 2.525106e+01 1.747016e+01 8.323576e+01 3.682685e+00 2.098475e+00 2.146237e+00 1.977798e+00 2.891814e+00 2.102089e+00 2.709096e+00 1.584585e+00 2.596117e+00 3.404717e+00 2.247104e+00 1.659373e+00 2.647452e+00 6.948752e-01 3.536870e-01 4.025742e-01 3.243125e-01 5.371636e-01 3.232553e-01 4.485845e-01 3.093877e-01 4.626187e-01 6.203609e-01 4.380482e-01 3.124764e-01 4.042383e-01
<GCONST> 1.200970e+02
<TRANSP> 5
 0.000000e+00 1.000000e+00 0.000000e+00 0.000000e+00 0.000000e+00
 0.000000e+00 7.665477e-01 2.334523e-01 0.000000e+00 0.000000e+00
 0.000000e+00 0.000000e+00 7.665476e-01 2.334524e-01 0.000000e+00
 0.000000e+00 0.000000e+00 0.000000e+00 8.936315e-01 1.063685e-01
 0.000000e+00 0.000000e+00 0.000000e+00 0.000000e+00 0.000000e+00
<ENDHMM>
~h "k"
<BEGINHMM>
<NUMSTATES> 5
<STATE> 2
<MEAN> 39
 -1.012846e+01 1.595519e+00 -2.136889e+00 -2.885517e+00 4.424965e-01 -9.841929e+00 -4.463497e+00 -3.036553e+00 -1.304095e+01 -8.792069e+00 -4.835641e+00 -4.831765e+00 8.046907e+01 -5.002523e-02 7.999998e-02 4.119283e-02 3.422679e-02 -7.091583e-02 1.443631e-01 3.090725e-02 -2.986195e-02 1.183135e-01 3.483221e-02 -6.171128e-02 2.604971e-02 -1.562896e-01 9.956380e-04 -1.657531e-03 -3.727837e-03 1.757438e-03 -2.629251e-03 5.403850e-03 -2.293795e-03 -4.463131e-05 2.685948e-03 3.577687e-03 5.457351e-03 4.810104e-03 -8.448356e-03
<VARIANCE> 39
 6.244432e+01 4.481978e+01 4.891204e+01 6.138585e+01 7.767453e+01 6.424340e+01 4.445176e+01 3.676944e+01 3.454331e+01 4.107406e+01 4.170445e+01 3.055067e+01 6.887711e+01 6.251994e+00 3.847087e+00 3.590279e+00 5.386196e+00 4.531150e+00 4.629096e+00 4.581757e+00 2.401219e+00 2.963747e+00 4.583065e+00 3.312576e+00 2.823985e+00 4.010521e+00 1.159797e+00 7.033643e-01 5.621287e-01 9.776050e-01 7.501748e-01 7.666739e-01 9.849938e-01 4.286761e-01 5.524500e-01 9.920788e-01 5.766798e-01 5.154632e-01 5.889997e-01
<GCONST> 1.354314e+02
<STATE> 3
<MEAN> 39
 -1.028421e+01 1.912460e+00 -1.998137e+00 -2.733642e+00 1.682799e-01 -9.273340e+00 -4.382346e+00 -3.122161e+00 -1.257304e+01 -8.671579e+00 -5.062147e+00 -4.738547e+00 7.981113e+01 -4.813827e-02 7.411363e-02 2.822056e-02 4.125269e-02 -7.709488e-02 1.614508e-01 2.141545e-02 -2.804053e-02 1.252234e-01 4.745704e-02 -3.876015e-02 4.050976e-02 -1.884520e-01 3.601742e-05 -2.718181e-03 -3.158992e-03 1.638158e-03 -8.015785e-04 3.405521e-03 -2.217800e-03 1.137368e-03 2.228124e-04 3.598662e-03 7.767368e-03 3.378215e-03 -7.804172e-03
<VARIANCE> 39
 5.912555e+01 4.431536e+01 4.518414e+01 5.694316e+01 7.133699e+01 6.348083e+01 4.235381e+01 3.802432e+01 3.345822e+01 4.002340e+01 4.236147e+01 3.031922e+01 7.250966e+01 5.927238e+00 3.717369e+00 3.370505e+00 4.939459e+00 4.202207e+00 4.313838e+00 4.430715e+00 2.331870e+00 2.795825e+00 4.389424e+00 3.320241e+00 2.716171e+00 3.699858e+00 1.093221e+00 6.764870e-01 5.265719e-01 9.014835e-01 7.085164e-01 7.101447e-01 9.446809e-01 4.210519e-01 5.232310e-01 9.482774e-01 5.719604e-01 4.943138e-01 5.334715e-01
<GCONST> 1.337493e+02
<STATE> 4
<MEAN> 39
 -1.044024e+01 2.284606e+00 -1.753081e+00 -2.670261e+00 -6.409849e-01 -8.483860e+00 -4.330250e+00 -2.833828e+00 -1.183176e+01 -8.582257e+00 -5.407566e+00 -4.634714e+00 7.883415e+01 -4.813061e-02 7.486815e-02 1.916689e-02 5.064442e-02 -7.007493e-02 1.681541e-01 3.386730e-03 -1.346599e-02 1.235553e-01 4.879404e-02 -1.323036e-02 3.661753e-02 -2.293171e-01 -1.937259e-03 -2.031828e-03 -1.605524e-03 2.939920e-04 4.628304e-04 1.353005e-03 -1.297529e-03 2.175716e-03 -1.943460e-03 2.191407e-03 7.302787e-03 7.463205e-04 -6.811610e-03
<VARIANCE> 39
 5.658894e+01 4.208486e+01 4.174129e+01 5.053320e+01 6.392609e+01 6.254016e+01 4.008411e+01 4.151469e+01 3.225337e+01 3.815620e+01 4.238064e+01 2.948876e+01 7.822719e+01 5.413986e+00 3.287217e+00 3.149879e+00 4.123610e+00 3.581189e+00 3.949996e+00 3.998094e+00 2.240313e+00 2.554814e+00 3.888365e+00 3.117033e+00 2.417861e+00 3.213893e+00 9.839560e-01 5.931237e-01 4.876307e-01 7.557165e-01 6.201130e-01 6.503391e-01 8.294488e-01 4.075087e-01 4.859667e-01 8.277615e-01 5.285240e-01 4.344668e-01 4.487830e-01
<GCONST> 1.304784e+02
<TRANSP> 5
 0.000000e+00 1.000000e+00 0.000000e+00 0.000000e+00 0.000000e+00
 0.000000e+00 7.372374e-01 2.627626e-01 0.000000e+00 0.000000e+00
 0.000000e+00 0.000000e+00 7.372376e-01 2.627624e-01 0.000000e+00
 0.000000e+00 0.000000e+00 0.000000e+00 8.613508e-01 1.386491e-01
 0.000000e+00 0.000000e+00 0.000000e+00 0.000000e+00 0.000000e+00
<ENDHMM>
~h "l"
<BEGINHMM>
<NUMSTATES> 5
<STATE> 2
<MEAN> 39
 -1.490260e+01 3.847448e+00 -1.661417e+00 -5.383102e+00 -3.118197e+00 -3.624183e+00 -5.576044e+00 -2.013338e+00 -8.489277e+00 -8.274140e+00 -5.251723e+00 -5.526770e+00 7.024134e+01 -4.078582e-02 -7.712381e-02 8.373331e-02 -1.609183e-02 -4.807107e-02 -3.229478e-02 4.766699e-02 -2.084786e-02 -7.587807e-03 4.749095e-02 3.448552e-02 1.764340e-02 1.156601e-01 -3.402363e-03 -3.689999e-03 7.766760e-03 -1.934430e-03 -4.078564e-03 -3.484280e-03 2.705530e-03 1.452986e-03 1.310541e-04 6.671869e-04 2.594677e-03 2.763020e-04 1.008055e-02
<VARIANCE> 39
 5.585809e+01 3.084515e+01 3.122882e+01 2.567752e+01 3.599716e+01 4.866064e+01 3.310936e+01 3.290689e+01 3.875938e+01 3.261133e+01 3.014631e+01 1.849557e+01 7.643784e+01 1.804106e+00 1.573007e+00 1.719745e+00 1.229488e+00 1.716926e+00 2.527342e+00 1.908327e+00 1.462454e+00 1.946704e+00 1.666737e+00 1.815299e+00 1.187742e+00 1.378426e+00 2.851058e-01 2.625155e-01 2.835006e-01 2.319076e-01 3.075318e-01 4.170275e-01 3.627241e-01 2.807174e-01 3.594938e-01 3.141327e-01 3.331089e-01 2.194143e-01 1.886552e-01
<GCONST> 1.085145e+02
<STATE> 3
<MEAN> 39
 -1.504310e+01 3.531474e+00 -1.314942e+00 -5.440927e+00 -3.324776e+00 -3.806631e+00 -5.397338e+00 -2.049335e+00 -8.520169e+00 -8.104499e+00 -5.111710e+00 -5.466160e+00 7.077824e+01 -4.092089e-02 -9.239298e-02 9.744481e-02 -1.664321e-02 -5.680511e-02 -4.626019e-02 5.612314e-02 -1.056141e-02 -1.611420e-02 5.056235e-02 4.638771e-02 1.740478e-02 1.565194e-01 8.373202e-04 -4.486981e-03 2.113048e-03 -1.726119e-04 -2.133628e-03 -3.804839e-03 2.646522e-03 3.108231e-03 -3.281795e-03 1.083372e-03 2.870603e-03 -4.899084e-04 1.070351e-02
<VARIANCE> 39
 6.226942e+01 3.364646e+01 3.421550e+01 2.670625e+01 3.789960e+01 5.163462e+01 3.461027e+01 3.424159e+01 3.978631e+01 3.276257e+01 3.021430e+01 1.912382e+01 8.058811e+01 2.041700e+00 1.706702e+00 1.847560e+00 1.298150e+00 1.781551e+00 2.645121e+00 2.009858e+00 1.517974e+00 2.026821e+00 1.703384e+00 1.866919e+00 1.260792e+00 1.506298e+00 3.127067e-01 2.844390e-01 2.936411e-01 2.431524e-01 3.161868e-01 4.311921e-01 3.827028e-01 2.885517e-01 3.751645e-01 3.194451e-01 3.386821e-01 2.319331e-01 2.018469e-01
<GCONST> 1.104929e+02
<STATE> 4
<MEAN> 39
 -1.480077e+01 2.948211e+00 -9.342673e-01 -5.343960e+00 -3.702884e+00 -4.445137e+00 -5.065662e+00 -1.706980e+00 -8.643349e+00 -7.888653e+00 -4.731418e+00 -5.316657e+00 7.193411e+01 9.330674e-03 -1.065627e-01 6.463310e-02 -1.232695e-02 -5.207944e-02 -7.437088e-02 5.217140e-02 1.534200e-02 -3.372922e-02 3.897837e-02 5.843190e-02 1.291128e-02 2.016974e-01 8.087425e-03 -3.523513e-03 -5.441868e-03 3.822355e-04 5.208188e-04 -4.452136e-03 1.091636e-03 3.900475e-03 -4.117589e-03 -2.325911e-04 2.386949e-03 -4.972270e-04 7.956032e-03
<VARIANCE> 39
 7.480433e+01 3.865969e+01 3.963817e+01 2.827480e+01 4.188962e+01 5.879003e+01 3.668633e+01 3.727684e+01 4.118334e+01 3.349732e+01 2.972985e+01 2.046116e+01 9.010303e+01 2.564136e+00 1.921973e+00 2.060717e+00 1.434415e+00 1.997786e+00 2.802319e+00 2.214972e+00 1.594558e+00 2.108496e+00 1.821474e+00 1.961702e+00 1.431181e+00 1.739481e+00 3.780629e-01 3.219242e-01 3.096762e-01 2.658233e-01 3.449426e-01 4.480471e-01 4.207458e-01 2.975930e-01 3.887817e-01 3.398891e-01 3.489351e-01 2.636175e-01 2.268814e-01
<GCONST> 1.139926e+02
<TRANSP> 5
 0.000000e+00 1.000000e+00 0.000000e+00 0.000000e+00 0.000000e+00
 0.000000e+00 7.422261e-01 2.577739e-01 0.000000e+00 0.000000e+00
 0.000000e+00 0.000000e+00 7.422259e-01 2.577741e-01 0.000000e+00
 0.000000e+00 0.000000e+00 0.000000e+00 8.671647e-01 1.328352e-01
 0.000000e+00 0.000000e+00 0.000000e+00 0.000000e+00 0.000000e+00
<ENDHMM>
~h "m"
<BEGINHMM>
<NUMSTATES> 5
<STATE> 2
<MEAN> 39
 -1.045672e+01 3.842449e+00 -7.396669e-01 -3.051032e+00 -1.995994e+00 -4.838435e+00 -5.763564e+00 7.855741e-01 -7.641146e+00 -8.967546e+00 -4.795616e+00 -5.387678e+00 7.400208e+01 -8.623605e-02 7.643189e-02 -8.151265e-03 -4.175384e-02 -4.517909e-02 7.100508e-02 3.604550e-02 -5.136219e-02 -7.439417e-02 -7.090759e-03 -3.895114e-02 -3.090778e-02 -1.646821e-01 2.542946e-03 3.363242e-03 -3.883290e-04 -4.938675e-03 -3.719889e-03 -2.243156e-03 -4.291440e-03 1.851658e-03 3.251018e-03 -2.606198e-03 -3.856956e-03 -1.275203e-03 -3.778728e-04
<VARIANCE> 39
 5.004773e+01 4.392702e+01 3.738468e+01 4.034050e+01 5.427794e+01 5.119660e+01 4.203331e+01 4.680589e+01 4.413779e+01 3.448423e+01 3.036323e+01 2.314159e+01 8.769720e+01 1.452017e+00 1.785790e+00 1.563070e+00 1.655131e+00 2.042092e+00 2.801280e+00 2.365631e+00 1.823015e+00 2.229101e+00 1.658182e+00 1.977781e+00 1.557538e+00 1.728711e+00 2.239519e-01 2.581021e-01 2.512826e-01 2.715341e-01 3.278084e-01 4.260731e-01 3.979619e-01 3.192570e-01 3.665821e-01 2.953357e-01 3.390212e-01 2.942255e-01 2.029309e-01
<GCONST> 1.129605e+02
<STATE> 3
<MEAN> 39
 -1.075499e+01 4.133713e+00 -7.790787e-01 -3.228790e+00 -2.173651e+00 -4.589563e+00 -5.657748e+00 6.017462e-01 -7.895819e+00 -9.018516e+00 -4.960988e+00 -5.506423e+00 7.340653e+01 -7.574967e-02 8.720030e-02 -1.058480e-02 -5.827517e-02 -5.644581e-02 6.169043e-02 1.964196e-02 -4.433059e-02 -6.147141e-02 -1.481391e-02 -5.073434e-02 -3.393447e-02 -1.633347e-01 2.561557e-03 1.415365e-03 -6.077360e-04 -3.528742e-03 -1.837762e-03 -2.921809e-03 -5.561708e-03 1.292323e-03 3.792814e-03 -1.862304e-03 -1.992953e-03 -2.173405e-04 2.339971e-03
<VARIANCE> 39
 4.803002e+01 4.349411e+01 3.461486e+01 3.984148e+01 5.242798e+01 4.954373e+01 4.012704e+01 4.563653e+01 4.199810e+01 3.328109e+01 2.872166e+01 2.272990e+01 8.617313e+01 1.381222e+00 1.714514e+00 1.479691e+00 1.595492e+00 1.994926e+00 2.583555e+00 2.290367e+00 1.751011e+00 2.164021e+00 1.603656e+00 1.898249e+00 1.531910e+00 1.663543e+00 2.142789e-01 2.460719e-01 2.399116e-01 2.617585e-01 3.230939e-01 3.951698e-01 3.861253e-01 3.096203e-01 3.602730e-01 2.885624e-01 3.282812e-01 2.904053e-01 1.945750e-01
<GCONST> 1.115329e+02
<STATE> 4
<MEAN> 39
 -1.091048e+01 4.345904e+00 -8.699619e-01 -3.553135e+00 -2.549550e+00 -4.551900e+00 -5.629499e+00 7.101862e-01 -8.010016e+00 -9.278099e+00 -5.134595e+00 -5.580672e+00 7.288425e+01 -5.445511e-02 7.880380e-02 -1.598037e-02 -6.233877e-02 -5.289790e-02 4.265985e-02 -3.262776e-03 -3.477721e-02 -3.908757e-02 -2.001137e-02 -5.004194e-02 -2.857652e-02 -1.305847e-01 1.875546e-03 -1.712114e-03 -5.444567e-04 -1.572234e-03 -5.198353e-04 -3.433706e-03 -4.837263e-03 8.671193e-04 3.270155e-03 -1.540068e-03 1.133705e-03 4.593227e-04 4.920329e-03
<VARIANCE> 39
 4.561921e+01 4.252011e+01 3.212975e+01 3.878132e+01 5.092614e+01 4.866671e+01 3.932949e+01 4.480240e+01 4.123796e+01 3.310532e+01 2.727559e+01 2.250072e+01 8.573418e+01 1.357953e+00 1.657909e+00 1.428639e+00 1.539935e+00 2.012981e+00 2.403473e+00 2.285505e+00 1.707078e+00 2.166746e+00 1.589727e+00 1.864887e+00 1.548131e+00 1.634728e+00 2.139740e-01 2.361223e-01 2.349927e-01 2.525195e-01 3.271809e-01 3.719406e-01 3.887070e-01 3.035076e-01 3.642590e-01 2.895327e-01 3.289922e-01 2.943740e-01 1.919176e-01
<GCONST> 1.107931e+02
<TRANSP> 5
 0.000000e+00 1.000000e+00 0.000000e+00 0.000000e+00 0.000000e+00
 0.000000e+00 7.503273e-01 2.496726e-01 0.000000e+00 0.000000e+00
 0.000000e+00 0.000000e+00 7.503278e-01 2.496721e-01 0.000000e+00
 0.000000e+00 0.000000e+00 0.000000e+00 8.765152e-01 1.234848e-01
 0.000000e+00 0.000000e+00 0.000000e+00 0.000000e+00 0.000000e+00
<ENDHMM>
~h "n"
<BEGINHMM>
<NUMSTATES> 5
<STATE> 2
<MEAN> 39
 -9.105484e+00 4.552305e+00 9.675622e-03 -3.688151e+00 -5.700006e+00 -7.859218e+00 -6.042069e+00 4.368189e+00 -3.017166e+00 -7.008159e+00 -3.937385e+00 -4.046843e+00 7.377587e+01 -9.075773e-02 2.793566e-02 1.922531e-02 -4.227297e-03 4.970103e-02 8.768187e-02 2.291808e-02 -4.904484e-02 -3.981617e-02 3.489259e-02 2.188599e-02 -2.433012e-02 -9.838127e-02 -2.963630e-03 -9.280825e-04 -1.161932e-03 6.106228e-04 2.679420e-03 3.527171e-03 9.727473e-04 -2.439317e-03 -5.159617e-03 -3.264583e-03 -7.740537e-04 -1.204402e-03 -2.479236e-03
<VARIANCE> 39
 5.548972e+01 3.596262e+01 2.572802e+01 2.518470e+01 5.099281e+01 8.192958e+01 3.696553e+01 4.056076e+01 4.914237e+01 5.288412e+01 2.771765e+01 2.005270e+01 8.841642e+01 1.319917e+00 1.417747e+00 1.162437e+00 1.344216e+00 1.814066e+00 2.531629e+00 2.303348e+00 1.473831e+00 1.787336e+00 1.583230e+00 2.142773e+00 1.504954e+00 1.444349e+00 1.842329e-01 1.985169e-01 1.997761e-01 2.330936e-01 2.762200e-01 3.586749e-01 3.738453e-01 2.450487e-01 3.038498e-01 2.676010e-01 3.618384e-01 2.804084e-01 1.368132e-01
<GCONST> 1.085996e+02
<STATE> 3
<MEAN> 39
 -9.504731e+00 4.668558e+00 8.933353e-02 -3.702959e+00 -5.476062e+00 -7.470043e+00 -5.938192e+00 4.148549e+00 -3.206912e+00 -6.868974e+00 -3.845259e+00 -4.155337e+00 7.334490e+01 -1.026502e-01 2.345257e-02 1.409453e-02 -1.712663e-03 6.055036e-02 1.017687e-01 2.677643e-02 -5.913979e-02 -6.147696e-02 2.053850e-02 1.829815e-02 -2.922244e-02 -1.079320e-01 -1.804954e-03 -1.474021e-03 -1.310728e-03 4.982175e-04 1.780124e-03 1.972804e-03 4.910552e-04 -1.784456e-03 -4.334414e-03 -3.546229e-03 -1.122067e-03 -8.631629e-04 -9.822751e-04
<VARIANCE> 39
 5.584528e+01 3.640978e+01 2.600056e+01 2.521139e+01 4.948711e+01 7.706598e+01 3.649450e+01 3.970840e+01 4.800096e+01 5.215705e+01 2.706711e+01 1.936540e+01 8.836076e+01 1.302106e+00 1.398063e+00 1.165650e+00 1.317853e+00 1.748233e+00 2.396317e+00 2.252021e+00 1.459627e+00 1.763342e+00 1.538306e+00 2.081216e+00 1.489983e+00 1.375519e+00 1.811350e-01 1.953997e-01 1.996287e-01 2.275451e-01 2.696523e-01 3.430439e-01 3.646246e-01 2.458792e-01 3.013311e-01 2.597784e-01 3.540038e-01 2.818688e-01 1.331731e-01
<GCONST> 1.078796e+02
<STATE> 4
<MEAN> 39
 -9.999361e+00 4.792658e+00 1.332066e-01 -3.700878e+00 -5.180424e+00 -6.967565e+00 -5.837590e+00 3.855248e+00 -3.496575e+00 -6.813538e+00 -3.774159e+00 -4.299706e+00 7.283938e+01 -1.105265e-01 1.588241e-02 8.048506e-03 8.818284e-04 6.862456e-02 1.105877e-01 2.963044e-02 -6.804523e-02 -8.205124e-02 3.840170e-03 1.299638e-02 -3.284259e-02 -1.119754e-01 -5.328816e-04 -1.842306e-03 -1.362430e-03 3.520732e-04 7.184657e-04 2.959067e-04 -6.975792e-05 -1.082587e-03 -3.152805e-03 -3.522517e-03 -1.390131e-03 -4.305126e-04 5.337785e-04
<VARIANCE> 39
 5.586647e+01 3.682764e+01 2.632203e+01 2.536219e+01 4.771172e+01 7.129604e+01 3.606842e+01 3.862666e+01 4.675129e+01 5.110608e+01 2.632998e+01 1.860072e+01 8.850964e+01 1.290650e+00 1.381585e+00 1.173908e+00 1.292386e+00 1.677701e+00 2.236823e+00 2.203236e+00 1.443619e+00 1.736833e+00 1.491041e+00 2.016214e+00 1.476415e+00 1.303190e+00 1.799473e-01 1.932510e-01 1.999655e-01 2.221460e-01 2.624158e-01 3.235136e-01 3.554538e-01 2.471753e-01 2.986999e-01 2.527104e-01 3.464068e-01 2.841075e-01 1.299507e-01
<GCONST> 1.071050e+02
<TRANSP> 5
 0.000000e+00 1.000000e+00 0.000000e+00 0.000000e+00 0.000000e+00
 0.000000e+00 7.664465e-01 2.335535e-01 0.000000e+00 0.000000e+00
 0.000000e+00 0.000000e+00 7.664465e-01 2.335535e-01 0.000000e+00
 0.000000e+00 0.000000e+00 0.000000e+00 8.934304e-01 1.065696e-01
 0.000000e+00 0.000000e+00 0.000000e+00 0.000000e+00 0.000000e+00
<ENDHMM>
~h "o"
<BEGINHMM>
<NUMSTATES> 5
<STATE> 2
<MEAN> 39
 -1.426417e+01 7.581128e+00 2.737800e-01 -3.042728e+00 -5.341059e+00 -4.484879e+00 -4.310353e+00 1.579424e+00 -3.568161e+00 -2.818897e+00 -2.364154e+00 -4.293575e+00 6.573770e+01 -2.117644e-01 -3.025485e-02 -6.441564e-02 -1.116737e-02 8.625387e-02 1.701576e-01 4.732322e-02 -1.282511e-01 -2.198411e-01 -9.704962e-02 -2.705202e-02 -6.109260e-02 -1.883223e-01 6.587665e-03 -2.962843e-03 1.161015e-03 -4.412392e-04 -4.249305e-03 -9.533093e-03 -5.046648e-03 3.161876e-03 6.091915e-03 -1.620099e-03 -2.369693e-03 1.158303e-03 9.969086e-03
<VARIANCE> 39
 2.943954e+01 9.097851e+00 8.084862e+00 6.037026e+00 1.426871e+01 3.904673e+01 1.063231e+01 1.876068e+01 2.605754e+01 1.525768e+01 1.181076e+01 8.450621e+00 3.079559e+01 2.745413e-01 2.643248e-01 4.274882e-01 6.237757e-01 6.765565e-01 9.664848e-01 8.366535e-01 8.498583e-01 8.617414e-01 8.236982e-01 1.053019e+00 7.599059e-01 2.194211e-01 3.804816e-02 4.191716e-02 8.585944e-02 1.279550e-01 1.359613e-01 1.557051e-01 1.568241e-01 1.697271e-01 1.769602e-01 1.526597e-01 1.945911e-01 1.607525e-01 1.849204e-02
<GCONST> 7.049668e+01
<STATE> 3
<MEAN> 39
 -1.515057e+01 7.439559e+00 1.442313e-03 -3.092279e+00 -4.983366e+00 -3.783543e+00 -4.121774e+00 1.038181e+00 -4.495418e+00 -3.241849e+00 -2.488710e+00 -4.552497e+00 6.496214e+01 -1.833668e-01 -4.180011e-02 -5.810164e-02 -1.318069e-02 6.825417e-02 1.297188e-01 2.526878e-02 -1.147605e-01 -1.919336e-01 -1.028768e-01 -3.636455e-02 -5.609296e-02 -1.455352e-01 6.545575e-03 -1.447774e-03 2.948489e-03 -9.718456e-04 -3.803686e-03 -8.321010e-03 -5.386566e-03 2.495280e-03 8.341843e-03 -4.445382e-04 -1.069237e-03 1.083412e-03 9.927751e-03
<VARIANCE> 39
 2.359802e+01 7.818150e+00 7.688622e+00 5.667001e+00 1.210776e+01 3.021986e+01 9.196465e+00 1.623130e+01 2.341149e+01 1.395970e+01 1.078377e+01 7.912753e+00 2.278963e+01 2.482122e-01 2.396444e-01 4.349191e-01 5.980672e-01 6.387962e-01 8.430611e-01 7.622119e-01 8.425778e-01 8.315846e-01 8.047487e-01 1.006215e+00 7.337732e-01 1.839618e-01 3.682740e-02 4.017654e-02 8.830255e-02 1.230000e-01 1.325165e-01 1.422189e-01 1.446686e-01 1.722027e-01 1.717970e-01 1.527945e-01 1.919063e-01 1.566841e-01 1.762563e-02
<GCONST> 6.742595e+01
<STATE> 4
<MEAN> 39
 -1.600018e+01 7.248188e+00 -2.819009e-01 -3.155166e+00 -4.659562e+00 -3.171313e+00 -4.015318e+00 5.029367e-01 -5.368710e+00 -3.726882e+00 -2.659531e+00 -4.804290e+00 6.428921e+01 -1.538252e-01 -4.842449e-02 -4.320221e-02 -1.807151e-02 5.234591e-02 9.329837e-02 3.021420e-04 -1.045098e-01 -1.541594e-01 -1.057694e-01 -4.077811e-02 -5.175275e-02 -1.000344e-01 6.105663e-03 -2.151801e-04 4.092127e-03 -1.853879e-03 -2.815862e-03 -6.343713e-03 -5.148917e-03 1.158939e-03 9.180699e-03 -4.409509e-04 2.638608e-04 8.619725e-04 9.635471e-03
<VARIANCE> 39
 1.769783e+01 6.592478e+00 7.190382e+00 5.578732e+00 1.028036e+01 2.217333e+01 8.115126e+00 1.383532e+01 1.978483e+01 1.271059e+01 9.964905e+00 7.416795e+00 1.532410e+01 2.374023e-01 2.221462e-01 4.500296e-01 5.913199e-01 6.112989e-01 7.389498e-01 7.131126e-01 8.389968e-01 8.086870e-01 7.940646e-01 9.901726e-01 7.084798e-01 1.628507e-01 3.809207e-02 3.967526e-02 9.067652e-02 1.201437e-01 1.307487e-01 1.315058e-01 1.371638e-01 1.748042e-01 1.692021e-01 1.539081e-01 1.957372e-01 1.515203e-01 1.905074e-02
<GCONST> 6.471613e+01
<TRANSP> 5
 0.000000e+00 1.000000e+00 0.000000e+00 0.000000e+00 0.000000e+00
 0.000000e+00 7.663315e-01 2.336685e-01 0.000000e+00 0.000000e+00
 0.000000e+00 0.000000e+00 7.663315e-01 2.336685e-01 0.000000e+00
 0.000000e+00 0.000000e+00 0.000000e+00 8.931733e-01 1.068267e-01
 0.000000e+00 0.000000e+00 0.000000e+00 0.000000e+00 0.000000e+00
<ENDHMM>
~h "p"
<BEGINHMM>
<NUMSTATES> 5
<STATE> 2
<MEAN> 39
 -9.128360e+00 1.711553e+00 -3.409416e+00 -2.485690e+00 -2.588932e+00 -7.763362e+00 -6.283797e+00 -1.618250e+00 -1.062608e+01 -1.005199e+01 -3.204382e+00 -5.194987e+00 7.715970e+01 1.119826e-02 1.608127e-02 1.875461e-02 8.385128e-02 2.442455e-02 6.159058e-03 -2.724852e-02 -6.833270e-03 4.694128e-02 3.000984e-03 -4.108965e-02 -7.156348e-03 -3.344040e-02 -4.663572e-03 -1.657848e-03 2.579220e-03 1.691495e-03 7.432748e-03 4.690164e-04 -3.938138e-03 -1.892733e-03 -3.108979e-03 3.493786e-03 2.980239e-03 -5.265466e-04 -3.064801e-03
<VARIANCE> 39
 7.965141e+01 5.359873e+01 5.343306e+01 4.446824e+01 6.474968e+01 7.254641e+01 4.342487e+01 5.578201e+01 5.668122e+01 4.393739e+01 3.383685e+01 2.867469e+01 8.963248e+01 3.005206e+00 2.821998e+00 2.350515e+00 2.275510e+00 3.725895e+00 3.984028e+00 2.996382e+00 2.649884e+00 3.259350e+00 2.779695e+00 2.345661e+00 1.948242e+00 2.798652e+00 4.302799e-01 4.428334e-01 3.274078e-01 3.810924e-01 6.145114e-01 6.760663e-01 5.573509e-01 5.120108e-01 5.631004e-01 5.282786e-01 4.195730e-01 3.617681e-01 3.613606e-01
<GCONST> 1.266000e+02
<STATE> 3
<MEAN> 39
 -9.136958e+00 1.762097e+00 -3.304827e+00 -2.172493e+00 -2.456558e+00 -7.728150e+00 -6.403891e+00 -1.649729e+00 -1.046090e+01 -1.001108e+01 -3.332452e+00 -5.234066e+00 7.700865e+01 -7.942680e-03 7.298779e-03 2.858871e-02 8.469827e-02 5.239636e-02 9.135235e-03 -4.042211e-02 -1.340909e-02 3.566470e-02 1.836839e-02 -2.674772e-02 -1.145362e-02 -4.122261e-02 -4.943738e-03 -1.796013e-03 1.956384e-03 -1.662661e-03 5.995113e-03 1.165433e-03 -2.441528e-03 -8.261091e-04 -2.063094e-03 4.283926e-03 3.720904e-03 -1.433777e-03 -2.138808e-03
<VARIANCE> 39
 7.507207e+01 5.360866e+01 5.160342e+01 4.685792e+01 6.911852e+01 6.975787e+01 4.474532e+01 5.754886e+01 5.702224e+01 4.301092e+01 3.276143e+01 2.789900e+01 8.886507e+01 2.983046e+00 2.858734e+00 2.272354e+00 2.329971e+00 3.837446e+00 3.951702e+00 3.076689e+00 2.736535e+00 3.357201e+00 2.773463e+00 2.360441e+00 1.920265e+00 2.846969e+00 4.404637e-01 4.463947e-01 3.260900e-01 3.949771e-01 6.303074e-01 6.685590e-01 5.718480e-01 5.321071e-01 5.763485e-01 5.294498e-01 4.191218e-01 3.596558e-01 3.719870e-01
<GCONST> 1.268627e+02
<STATE> 4
<MEAN> 39
 -9.290659e+00 1.909992e+00 -3.026579e+00 -1.984178e+00 -2.376886e+00 -7.624536e+00 -6.476315e+00 -1.312289e+00 -9.954198e+00 -9.856567e+00 -3.526688e+00 -5.217478e+00 7.646058e+01 -3.189243e-02 -2.972906e-03 3.420752e-02 5.797255e-02 6.876697e-02 1.644301e-02 -4.096005e-02 -1.058679e-02 2.963633e-02 3.961275e-02 -4.796798e-03 -2.303721e-02 -4.256683e-02 -3.292868e-03 -4.947422e-04 -1.459818e-04 -4.948820e-03 1.707140e-03 1.617228e-03 6.640819e-04 1.206817e-03 3.386451e-04 3.783424e-03 2.463488e-03 -2.023572e-03 -1.518144e-03
<VARIANCE> 39
 6.785803e+01 5.279016e+01 4.760423e+01 5.059972e+01 7.486682e+01 6.781609e+01 4.634559e+01 6.030340e+01 5.721020e+01 4.086502e+01 3.169848e+01 2.728834e+01 8.853899e+01 2.864373e+00 2.842184e+00 2.103331e+00 2.356874e+00 3.851620e+00 3.854111e+00 3.118825e+00 2.767773e+00 3.427016e+00 2.677281e+00 2.343720e+00 1.870890e+00 2.874520e+00 4.466912e-01 4.341852e-01 3.174094e-01 4.034226e-01 6.265336e-01 6.444823e-01 5.736699e-01 5.373543e-01 5.866918e-01 5.109414e-01 4.117323e-01 3.525118e-01 3.765643e-01
<GCONST> 1.265298e+02
<TRANSP> 5
 0.000000e+00 1.000000e+00 0.000000e+00 0.000000e+00 0.000000e+00
 0.000000e+00 7.503717e-01 2.496283e-01 0.000000e+00 0.000000e+00
 0.000000e+00 0.000000e+00 7.503720e-01 2.496279e-01 0.000000e+00
 0.000000e+00 0.000000e+00 0.000000e+00 8.755149e-01 1.244852e-01
 0.000000e+00 0.000000e+00 0.000000e+00 0.000000e+00 0.000000e+00
<ENDHMM>
~h "r"
<BEGINHMM>
<NUMSTATES> 5
<STATE> 2
<MEAN> 39
 -7.865228e+00 4.921207e-01 -4.705481e+00 -2.285164e+00 4.528673e-01 -1.114956e+01 -7.140501e+00 -2.149900e+00 -1.372136e+01 -9.837973e+00 -8.849590e-01 -4.304137e+00 8.005880e+01 -5.941953e-02 9.655879e-02 7.139147e-02 -1.960760e-02 6.409762e-02 4.590410e-02 9.300467e-03 1.971814e-02 7.095862e-02 -1.790307e-02 -8.036578e-02 -7.477866e-02 -6.997867e-02 -5.841008e-03 1.251953e-03 4.556424e-03 1.137986e-03 -4.750797e-03 4.451479e-03 5.180469e-03 -1.739482e-03 7.164120e-03 4.571397e-03 -3.897539e-03 -4.990116e-03 -5.448487e-03
<VARIANCE> 39
 6.142098e+01 5.010728e+01 4.820713e+01 5.270657e+01 8.445115e+01 7.602190e+01 4.521403e+01 3.585369e+01 4.374789e+01 3.393581e+01 3.907337e+01 2.676035e+01 9.068700e+01 2.949373e+00 2.461228e+00 2.921879e+00 3.182280e+00 4.695845e+00 4.222748e+00 3.029062e+00 2.815465e+00 2.847824e+00 2.787130e+00 2.517121e+00 2.471080e+00 2.820911e+00 5.233583e-01 3.939674e-01 4.518384e-01 5.075381e-01 6.632976e-01 7.374434e-01 5.660197e-01 5.140082e-01 4.784337e-01 5.672508e-01 4.605666e-01 4.534180e-01 3.918468e-01
<GCONST> 1.279405e+02
<STATE> 3
<MEAN> 39
 -8.127460e+00 8.663561e-01 -4.411344e+00 -2.353765e+00 6.481416e-01 -1.093943e+01 -7.067279e+00 -2.085248e+00 -1.340951e+01 -9.856891e+00 -1.214468e+00 -4.620159e+00 7.973961e+01 -7.820652e-02 9.909108e-02 8.782831e-02 -7.198968e-03 5.039556e-02 6.114912e-02 2.262939e-02 9.910448e-03 9.480850e-02 -1.790894e-03 -9.067367e-02 -9.018379e-02 -8.976443e-02 -5.145398e-03 -3.088567e-04 4.605490e-03 3.710865e-03 -3.097608e-03 3.422129e-03 1.775187e-03 -3.178034e-03 5.873342e-03 2.905080e-03 -7.307980e-04 -2.372679e-03 -3.895486e-03
<VARIANCE> 39
 6.077324e+01 4.854967e+01 4.804189e+01 5.381483e+01 8.382764e+01 7.637886e+01 4.473140e+01 3.682090e+01 4.310905e+01 3.640001e+01 3.854743e+01 2.688863e+01 8.987208e+01 3.102351e+00 2.512086e+00 2.910130e+00 3.373766e+00 4.582564e+00 4.387010e+00 3.117382e+00 2.875251e+00 2.875777e+00 2.951161e+00 2.614056e+00 2.444620e+00 2.951087e+00 5.560560e-01 4.034858e-01 4.565660e-01 5.440087e-01 6.578764e-01 7.608905e-01 5.946771e-01 5.235471e-01 4.924293e-01 5.990317e-01 4.869664e-01 4.521920e-01 4.183609e-01
<GCONST> 1.287514e+02
<STATE> 4
<MEAN> 39
 -8.566429e+00 1.308711e+00 -3.832163e+00 -2.296010e+00 8.340054e-01 -1.065684e+01 -6.954554e+00 -2.018784e+00 -1.288557e+01 -9.784604e+00 -1.622886e+00 -5.109525e+00 7.921463e+01 -9.910477e-02 9.283827e-02 1.103822e-01 2.401459e-02 4.150572e-02 8.052839e-02 2.192533e-02 -1.259169e-02 1.150873e-01 1.444100e-02 -9.006222e-02 -9.786346e-02 -1.119584e-01 -3.242110e-03 -2.038910e-03 3.812005e-03 5.279946e-03 -1.059385e-03 2.584087e-03 -1.181457e-03 -4.273018e-03 2.479198e-03 1.103767e-03 2.112129e-03 6.028104e-04 -2.299599e-03
<VARIANCE> 39
 6.053083e+01 4.662938e+01 4.814459e+01 5.436041e+01 8.318509e+01 7.584172e+01 4.447300e+01 3.859666e+01 4.297033e+01 3.891104e+01 3.724673e+01 2.705057e+01 8.800489e+01 3.315344e+00 2.632286e+00 2.832705e+00 3.553509e+00 4.505404e+00 4.511437e+00 3.252849e+00 2.971874e+00 2.933790e+00 3.135112e+00 2.720739e+00 2.447072e+00 3.125005e+00 5.941147e-01 4.285578e-01 4.538533e-01 5.824406e-01 6.639240e-01 7.732985e-01 6.350898e-01 5.396814e-01 5.127019e-01 6.355122e-01 5.133559e-01 4.579464e-01 4.530392e-01
<GCONST> 1.297181e+02
<TRANSP> 5
 0.000000e+00 1.000000e+00 0.000000e+00 0.000000e+00 0.000000e+00
 0.000000e+00 7.322413e-01 2.677587e-01 0.000000e+00 0.000000e+00
 0.000000e+00 0.000000e+00 7.322415e-01 2.677585e-01 0.000000e+00
 0.000000e+00 0.000000e+00 0.000000e+00 8.518963e-01 1.481037e-01
 0.000000e+00 0.000000e+00 0.000000e+00 0.000000e+00 0.000000e+00
<ENDHMM>
~h "s"
<BEGINHMM>
<NUMSTATES> 5
<STATE> 2
<MEAN> 39
 -1.540740e+01 3.447486e+00 -1.526061e+00 -6.557363e+00 -3.731562e+00 -4.228700e+00 -6.474403e+00 -2.532969e+00 -1.013731e+01 -8.711464e+00 -5.170904e+00 -6.054604e+00 7.141885e+01 1.817649e-02 -4.436060e-02 -2.395541e-03 5.403187e-02 2.408004e-02 -6.785656e-03 -1.153172e-03 -1.085740e-02 -6.730453e-02 5.134082e-02 -5.100800e-03 6.801086e-03 4.578687e-02 -1.004507e-02 -1.012870e-03 5.209781e-03 -5.945729e-03 -1.695459e-03 -6.543342e-03 7.165303e-03 -1.209575e-04 6.796834e-03 -8.886890e-03 2.238338e-03 -2.608620e-03 5.619021e-03
<VARIANCE> 39
 6.288572e+01 3.902913e+01 3.621233e+01 2.618604e+01 3.600443e+01 3.812379e+01 2.621855e+01 2.971223e+01 2.819060e+01 2.503588e+01 3.110290e+01 1.800089e+01 9.247681e+01 2.901181e+00 1.718264e+00 2.067944e+00 1.481554e+00 1.891886e+00 2.067737e+00 1.938613e+00 1.520441e+00 1.764837e+00 1.624113e+00 1.806175e+00 1.286208e+00 1.437967e+00 4.452118e-01 2.858211e-01 3.291811e-01 2.767141e-01 3.365707e-01 3.700956e-01 3.609869e-01 2.955825e-01 3.344177e-01 3.086159e-01 3.345048e-01 2.515573e-01 2.246286e-01
<GCONST> 1.100465e+02
<STATE> 3
<MEAN> 39
 -1.543459e+01 3.262888e+00 -1.447477e+00 -6.412510e+00 -3.654203e+00 -4.296419e+00 -6.411179e+00 -2.593615e+00 -1.033479e+01 -8.590997e+00 -5.175247e+00 -6.055056e+00 7.163656e+01 -1.352577e-02 -4.820090e-02 3.029800e-02 3.131864e-02 1.921204e-02 -1.498687e-02 2.329625e-02 -1.450629e-02 -5.035696e-02 3.148206e-02 1.321382e-04 1.853750e-03 6.324194e-02 -9.075684e-03 -1.338043e-03 9.966776e-03 -6.604232e-03 -1.130277e-03 -6.362501e-04 6.520292e-03 -1.467352e-03 4.194543e-03 -4.548222e-03 1.155455e-03 -8.914833e-04 4.958143e-03
<VARIANCE> 39
 6.477859e+01 3.976000e+01 3.856153e+01 2.702416e+01 3.642963e+01 3.958008e+01 2.711796e+01 2.989478e+01 2.906444e+01 2.579479e+01 3.261766e+01 1.813495e+01 9.293070e+01 2.994648e+00 1.777011e+00 2.162652e+00 1.506819e+00 1.900617e+00 2.118894e+00 2.011290e+00 1.549222e+00 1.812599e+00 1.648916e+00 1.870232e+00 1.289692e+00 1.537218e+00 4.548216e-01 2.902794e-01 3.444751e-01 2.789644e-01 3.333479e-01 3.797587e-01 3.756517e-01 3.012058e-01 3.437775e-01 3.155748e-01 3.466731e-01 2.515014e-01 2.385610e-01
<GCONST> 1.110669e+02
<STATE> 4
<MEAN> 39
 -1.545028e+01 2.845092e+00 -8.961751e-01 -6.166828e+00 -3.527994e+00 -4.522645e+00 -6.147718e+00 -2.520921e+00 -1.047102e+01 -8.470268e+00 -5.208198e+00 -5.965294e+00 7.242776e+01 -4.300119e-02 -6.121543e-02 8.836673e-02 -5.675107e-03 1.039539e-02 -3.897960e-03 3.773835e-02 -1.478565e-02 -3.878797e-02 2.350000e-02 7.515111e-03 6.991453e-03 1.095350e-01 -5.476639e-03 -2.834010e-03 9.998607e-03 -5.866658e-03 -1.992634e-03 3.100792e-03 3.106492e-03 -5.844771e-05 1.848167e-03 -3.729655e-04 4.935392e-04 5.086363e-04 8.429062e-03
<VARIANCE> 39
 7.420371e+01 4.346987e+01 4.431300e+01 2.996210e+01 3.804273e+01 4.474446e+01 3.086502e+01 3.159068e+01 2.993379e+01 2.890888e+01 3.420704e+01 1.885028e+01 9.442141e+01 3.350950e+00 1.989444e+00 2.421114e+00 1.606919e+00 1.969947e+00 2.254284e+00 2.209372e+00 1.627237e+00 1.899682e+00 1.780782e+00 1.981692e+00 1.405595e+00 1.796194e+00 4.940249e-01 3.168188e-01 3.798273e-01 2.933674e-01 3.406310e-01 3.958768e-01 4.104775e-01 3.109082e-01 3.618492e-01 3.416281e-01 3.609927e-01 2.713495e-01 2.654955e-01
<GCONST> 1.140530e+02
<TRANSP> 5
 0.000000e+00 1.000000e+00 0.000000e+00 0.000000e+00 0.000000e+00
 0.000000e+00 7.361084e-01 2.638916e-01 0.000000e+00 0.000000e+00
 0.000000e+00 0.000000e+00 7.361078e-01 2.638923e-01 0.000000e+00
 0.000000e+00 0.000000e+00 0.000000e+00 8.606772e-01 1.393228e-01
 0.000000e+00 0.000000e+00 0.000000e+00 0.000000e+00 0.000000e+00
<ENDHMM>
~h "t"
<BEGINHMM>
<NUMSTATES> 5
<STATE> 2
<MEAN> 39
 -9.957409e+00 2.360051e+00 -1.690559e+00 -2.161837e+00 -1.969195e+00 -7.715392e+00 -5.403748e+00 -3.535869e-01 -9.193413e+00 -8.529539e+00 -3.898564e+00 -5.483470e+00 7.535049e+01 6.855516e-03 6.068599e-02 -4.602658e-02 -2.990922e-02 -5.836771e-02 7.726894e-02 4.018326e-02 4.200589e-02 6.594435e-02 3.154580e-02 -1.163496e-02 1.148257e-02 -1.335414e-01 -5.960568e-03 7.644280e-03 9.679113e-04 -2.973671e-03 8.612283e-05 5.129620e-03 -1.243194e-03 1.102537e-04 5.664751e-04 -3.915219e-03 -4.479482e-03 -2.122350e-04 -7.456240e-03
<VARIANCE> 39
 5.533990e+01 4.713174e+01 4.218868e+01 4.836617e+01 7.214803e+01 7.250803e+01 4.621113e+01 5.960421e+01 4.634665e+01 3.050389e+01 3.107529e+01 2.475494e+01 9.295788e+01 2.424021e+00 2.399571e+00 2.076555e+00 1.907255e+00 3.146483e+00 3.545388e+00 3.104921e+00 2.531488e+00 2.627981e+00 2.080320e+00 2.118660e+00 1.732442e+00 2.692474e+00 3.722668e-01 3.512262e-01 3.164636e-01 3.271923e-01 4.926424e-01 5.704453e-01 5.455306e-01 4.424409e-01 4.418333e-01 4.016810e-01 3.651326e-01 3.254172e-01 3.427370e-01
<GCONST> 1.217571e+02
<STATE> 3
<MEAN> 39
 -9.968736e+00 2.630632e+00 -1.859814e+00 -2.292670e+00 -2.182687e+00 -7.391718e+00 -5.259748e+00 -2.020587e-01 -8.939459e+00 -8.434207e+00 -3.971420e+00 -5.434614e+00 7.481346e+01 -1.896538e-02 8.483247e-02 -3.959058e-02 -4.069917e-02 -5.577803e-02 9.467046e-02 3.585508e-02 3.898950e-02 6.414980e-02 1.744766e-02 -2.795614e-02 9.904394e-03 -1.567311e-01 -7.115636e-03 4.449706e-03 2.010092e-03 -2.297419e-03 1.453830e-03 3.062239e-03 -1.417152e-03 -1.411704e-03 -1.375104e-03 -3.526161e-03 -3.736380e-03 -7.903300e-04 -4.114237e-03
<VARIANCE> 39
 5.297254e+01 4.544122e+01 4.045543e+01 4.573660e+01 6.692838e+01 7.137498e+01 4.329589e+01 5.693147e+01 4.531925e+01 2.945285e+01 2.915755e+01 2.375184e+01 9.377486e+01 2.186771e+00 2.234258e+00 1.964474e+00 1.785895e+00 2.951103e+00 3.330230e+00 2.913330e+00 2.360351e+00 2.500000e+00 1.987397e+00 1.980294e+00 1.655878e+00 2.533488e+00 3.359435e-01 3.254385e-01 3.018738e-01 3.062256e-01 4.625901e-01 5.356832e-01 5.108039e-01 4.090990e-01 4.211053e-01 3.813251e-01 3.443179e-01 3.112655e-01 3.215507e-01
<GCONST> 1.195687e+02
<STATE> 4
<MEAN> 39
 -1.011288e+01 3.131460e+00 -1.953300e+00 -2.583636e+00 -2.508571e+00 -6.973270e+00 -5.199046e+00 1.757993e-01 -8.552913e+00 -8.569969e+00 -4.243533e+00 -5.390566e+00 7.399564e+01 -5.120799e-02 8.558557e-02 -2.544509e-02 -4.706398e-02 -4.218518e-02 9.624626e-02 2.875735e-02 2.154499e-02 4.497321e-02 1.963472e-03 -4.034863e-02 6.657656e-03 -1.497708e-01 -6.047198e-03 -6.943162e-04 2.154680e-03 -1.185024e-03 1.821236e-03 -3.206325e-04 -1.150272e-03 -2.810962e-03 -3.452248e-03 -2.418696e-03 -1.918156e-03 -1.109169e-03 6.973880e-04
<VARIANCE> 39
 5.012642e+01 4.253269e+01 3.767727e+01 4.244240e+01 6.032397e+01 6.871480e+01 3.948091e+01 5.229492e+01 4.382225e+01 2.927649e+01 2.688961e+01 2.232695e+01 9.430318e+01 1.879563e+00 2.015346e+00 1.785081e+00 1.666278e+00 2.705935e+00 2.989357e+00 2.641788e+00 2.140742e+00 2.334437e+00 1.956093e+00 1.803318e+00 1.563079e+00 2.363701e+00 2.956533e-01 2.941104e-01 2.819341e-01 2.842664e-01 4.278913e-01 4.803575e-01 4.655317e-01 3.693247e-01 3.950256e-01 3.744204e-01 3.186429e-01 2.932985e-01 2.993112e-01
<GCONST> 1.166461e+02
<TRANSP> 5
 0.000000e+00 1.000000e+00 0.000000e+00 0.000000e+00 0.000000e+00
 0.000000e+00 7.475971e-01 2.524029e-01 0.000000e+00 0.000000e+00
 0.000000e+00 0.000000e+00 7.475967e-01 2.524033e-01 0.000000e+00
 0.000000e+00 0.000000e+00 0.000000e+00 8.726509e-01 1.273490e-01
 0.000000e+00 0.000000e+00 0.000000e+00 0.000000e+00 0.000000e+00
<ENDHMM>
~h "u"
<BEGINHMM>
<NUMSTATES> 5
<STATE> 2
<MEAN> 39
 -9.188168e+00 3.372292e+00 -7.807845e-01 -1.171292e+00 3.757155e-01 -6.462542e+00 -7.136553e+00 -1.539732e+00 -8.699125e+00 -1.087144e+01 -5.587748e+00 -5.683019e+00 7.579789e+01 -7.028449e-02 -4.412252e-02 -3.224650e-03 5.692942e-02 3.115734e-02 4.809823e-02 2.841665e-02 -6.647363e-02 -5.461776e-02 1.071903e-01 7.665392e-02 2.323739e-02 -9.653057e-02 -1.570520e-03 3.158469e-03 -2.871750e-03 -5.884869e-03 -5.607748e-03 3.094603e-03 3.749713e-03 3.830204e-03 -1.408594e-03 -4.022438e-04 -2.200339e-03 -2.270449e-03 -7.434449e-03
<VARIANCE> 39
 4.187385e+01 4.106403e+01 2.629804e+01 4.757948e+01 7.486630e+01 6.594660e+01 4.796012e+01 5.575209e+01 4.848700e+01 4.540622e+01 4.481086e+01 2.414612e+01 7.926566e+01 2.141445e+00 2.448793e+00 1.682000e+00 2.315218e+00 3.101200e+00 3.396282e+00 3.079698e+00 2.631545e+00 2.611919e+00 3.164259e+00 2.683646e+00 1.679106e+00 2.428016e+00 3.865235e-01 3.946146e-01 3.010239e-01 4.035845e-01 4.994457e-01 5.194108e-01 5.631511e-01 4.935403e-01 4.286169e-01 6.102943e-01 4.536991e-01 3.099194e-01 3.176830e-01
<GCONST> 1.226115e+02
<STATE> 3
<MEAN> 39
 -9.458191e+00 3.219468e+00 -8.005801e-01 -9.908566e-01 4.729531e-01 -6.277948e+00 -7.035191e+00 -1.770234e+00 -8.904438e+00 -1.049091e+01 -5.331477e+00 -5.613545e+00 7.541935e+01 -7.643710e-02 -2.693498e-02 -1.303626e-02 3.201560e-02 5.717501e-03 6.120155e-02 4.300199e-02 -5.074713e-02 -5.464166e-02 1.012288e-01 6.221560e-02 1.497465e-02 -1.260042e-01 -1.874745e-03 6.892750e-03 -1.799890e-03 -7.893054e-03 -8.490998e-03 4.131563e-03 3.728634e-03 4.867599e-03 1.453071e-03 -3.354237e-03 -6.149609e-03 -2.826633e-03 -9.021378e-03
<VARIANCE> 39
 4.074968e+01 4.113729e+01 2.562798e+01 4.797694e+01 7.557915e+01 6.524596e+01 4.692877e+01 5.518147e+01 4.672776e+01 4.433339e+01 4.265573e+01 2.435713e+01 7.974850e+01 2.030491e+00 2.360726e+00 1.616100e+00 2.162921e+00 3.032951e+00 3.161137e+00 2.970935e+00 2.558502e+00 2.587946e+00 2.982632e+00 2.568783e+00 1.616187e+00 2.342990e+00 3.642033e-01 3.756497e-01 2.875087e-01 3.741992e-01 4.861020e-01 4.774771e-01 5.340142e-01 4.834960e-01 4.263212e-01 5.688471e-01 4.310570e-01 2.972192e-01 3.023572e-01
<GCONST> 1.212647e+02
<STATE> 4
<MEAN> 39
 -9.925114e+00 3.184147e+00 -8.187103e-01 -1.153718e+00 5.034328e-02 -6.084195e+00 -6.813292e+00 -1.588360e+00 -9.048667e+00 -1.022410e+01 -5.268999e+00 -5.652729e+00 7.461793e+01 -7.953458e-02 6.456339e-03 -1.594512e-02 -4.524239e-03 -2.902052e-02 7.138853e-02 4.893088e-02 -2.811891e-02 -3.912951e-02 6.998186e-02 2.361665e-02 5.055467e-03 -1.459396e-01 -2.019682e-03 8.215144e-03 -2.757967e-04 -7.730045e-03 -8.346128e-03 3.555293e-03 2.219974e-03 4.692804e-03 3.285920e-03 -5.203218e-03 -7.281049e-03 -2.169415e-03 -7.365225e-03
<VARIANCE> 39
 4.112687e+01 4.059083e+01 2.528757e+01 4.826658e+01 7.531048e+01 6.423087e+01 4.365455e+01 5.274178e+01 4.261024e+01 4.291248e+01 3.688619e+01 2.332836e+01 8.175375e+01 1.925986e+00 2.179379e+00 1.543177e+00 1.943268e+00 2.874786e+00 2.728674e+00 2.716504e+00 2.379980e+00 2.465950e+00 2.795952e+00 2.272675e+00 1.518905e+00 2.247156e+00 3.448560e-01 3.409947e-01 2.736737e-01 3.318477e-01 4.613021e-01 4.091894e-01 4.783863e-01 4.526768e-01 4.147500e-01 5.249068e-01 3.870101e-01 2.789462e-01 2.887256e-01
<GCONST> 1.188115e+02
<TRANSP> 5
 0.000000e+00 1.000000e+00 0.000000e+00 0.000000e+00 0.000000e+00
 0.000000e+00 7.458584e-01 2.541416e-01 0.000000e+00 0.000000e+00
 0.000000e+00 0.000000e+00 7.458587e-01 2.541413e-01 0.000000e+00
 0.000000e+00 0.000000e+00 0.000000e+00 8.720873e-01 1.279127e-01
 0.000000e+00 0.000000e+00 0.000000e+00 0.000000e+00 0.000000e+00
<ENDHMM>
~h "y"
<BEGINHMM>
<NUMSTATES> 5
<STATE> 2
<MEAN> 39
 -9.641480e+00 1.137417e+00 -5.515298e+00 -3.808794e+00 -3.531045e+00 -9.447057e+00 -4.619871e+00 -1.088942e+00 -1.130208e+01 -9.056929e+00 -1.281332e+00 -4.895797e+00 7.479563e+01 4.363880e-01 -2.608983e-01 -9.501720e-02 1.943454e-01 1.467066e-01 -4.256560e-01 -1.174914e-01 1.066953e-01 -2.461240e-01 -1.067645e-01 2.293035e-01 1.148441e-01 5.693921e-01 -3.782620e-04 -8.074035e-03 4.890841e-03 1.034943e-02 1.500275e-02 -4.359968e-03 -8.824950e-03 -6.796495e-03 -9.104597e-03 -2.464042e-03 9.131005e-03 5.086344e-03 8.559468e-03
<VARIANCE> 39
 7.876160e+01 5.113730e+01 4.097191e+01 3.427412e+01 7.891357e+01 6.659955e+01 4.544695e+01 3.225050e+01 4.295905e+01 1.758636e+01 2.864025e+01 2.619555e+01 1.007013e+02 2.173044e+00 2.763799e+00 2.126740e+00 1.703688e+00 3.427501e+00 2.120133e+00 2.420574e+00 2.252544e+00 1.837929e+00 1.959226e+00 1.523289e+00 2.075782e+00 1.528926e+00 3.092613e-01 5.592998e-01 3.003967e-01 2.854455e-01 4.185275e-01 3.571017e-01 4.502153e-01 3.795478e-01 2.533615e-01 4.144650e-01 3.145858e-01 3.501764e-01 2.026206e-01
<GCONST> 1.166245e+02
<STATE> 3
<MEAN> 39
 -7.984516e+00 5.406857e-02 -5.811166e+00 -2.951447e+00 -2.819311e+00 -1.111936e+01 -5.160682e+00 -7.585291e-01 -1.232556e+01 -9.496487e+00 -3.138084e-01 -4.416680e+00 7.706464e+01 4.128019e-01 -2.810887e-01 -6.722524e-02 2.259239e-01 2.026715e-01 -4.230474e-01 -1.536416e-01 7.110673e-02 -2.752439e-01 -1.168742e-01 2.547353e-01 1.253526e-01 5.783787e-01 -9.141034e-03 -2.476343e-03 8.286997e-03 5.879530e-03 1.256770e-02 4.177575e-03 -8.518422e-03 -9.612168e-03 -5.470842e-03 -2.658540e-03 4.288583e-03 1.120992e-03 -2.145561e-03
<VARIANCE> 39
 7.607744e+01 5.600067e+01 4.560315e+01 4.074012e+01 9.853691e+01 7.010174e+01 5.203585e+01 3.540696e+01 5.121435e+01 1.933709e+01 3.135941e+01 2.898322e+01 1.045398e+02 2.268867e+00 2.848426e+00 2.290740e+00 1.975645e+00 4.067864e+00 2.290391e+00 2.511833e+00 2.466969e+00 2.038100e+00 2.102888e+00 1.577107e+00 2.431079e+00 1.572929e+00 3.188008e-01 5.621383e-01 3.033336e-01 3.143892e-01 4.640721e-01 3.804832e-01 4.468645e-01 4.113895e-01 2.692469e-01 4.426002e-01 3.217776e-01 4.019274e-01 2.033594e-01
<GCONST> 1.197021e+02
<STATE> 4
<MEAN> 39
 -5.869333e+00 -1.681407e+00 -5.829548e+00 -1.505627e+00 -1.475358e+00 -1.350543e+01 -6.276466e+00 -5.133899e-01 -1.396627e+01 -1.026749e+01 1.245518e+00 -3.641887e+00 8.036838e+01 3.134823e-01 -2.531626e-01 -6.885095e-03 2.131404e-01 2.480583e-01 -3.391399e-01 -1.950145e-01 1.448748e-02 -2.628832e-01 -1.279900e-01 2.413573e-01 1.113505e-01 4.972380e-01 -1.912672e-02 9.630139e-03 9.966291e-03 -6.642597e-03 2.643560e-03 1.856548e-02 -3.717771e-03 -8.133095e-03 6.427673e-03 -1.435752e-03 -6.420815e-03 -4.118145e-03 -1.987300e-02
<VARIANCE> 39
 6.353709e+01 5.767923e+01 5.015721e+01 4.997897e+01 1.204416e+02 6.920525e+01 5.834575e+01 3.967704e+01 5.941828e+01 2.168130e+01 3.318576e+01 3.315469e+01 9.464175e+01 2.259443e+00 2.734286e+00 2.474953e+00 2.408584e+00 5.102623e+00 2.541870e+00 2.643646e+00 2.714326e+00 2.351186e+00 2.275358e+00 1.698279e+00 3.006179e+00 1.584758e+00 3.113204e-01 5.089958e-01 3.065327e-01 3.504560e-01 5.473205e-01 4.159802e-01 4.456375e-01 4.579687e-01 3.004898e-01 4.721155e-01 3.338602e-01 4.911225e-01 1.930491e-01
<GCONST> 1.225597e+02
<TRANSP> 5
 0.000000e+00 1.000000e+00 0.000000e+00 0.000000e+00 0.000000e+00
 0.000000e+00 7.427084e-01 2.572916e-01 0.000000e+00 0.000000e+00
 0.000000e+00 0.000000e+00 7.427087e-01 2.572913e-01 0.000000e+00
 0.000000e+00 0.000000e+00 0.000000e+00 8.634326e-01 1.365674e-01
 0.000000e+00 0.000000e+00 0.000000e+00 0.000000e+00 0.000000e+00
<ENDHMM>
~h "ay"
<BEGINHMM>
<NUMSTATES> 5
<STATE> 2
<MEAN> 39
 -1.927095e+01 1.269500e-01 9.286247e-01 -8.183909e+00 -5.143139e+00 -3.896174e+00 -3.513319e+00 -4.291296e+00 -1.200073e+01 -6.175536e+00 -4.592559e+00 -5.860968e+00 7.466418e+01 4.503787e-02 -2.766103e-01 1.498409e-01 -3.464026e-02 -6.081023e-02 -1.159656e-01 8.795903e-02 3.722045e-02 -6.744425e-02 6.156252e-02 8.978111e-02 8.318148e-03 5.170754e-01 2.234946e-02 -1.354362e-03 -1.506628e-02 5.502820e-03 3.379195e-03 -1.432818e-02 -6.402534e-03 5.410780e-03 -4.868572e-05 -4.752262e-03 2.345061e-03 -1.304512e-03 1.045154e-02
<VARIANCE> 39
 1.001649e+02 5.519572e+01 7.115520e+01 2.471748e+01 3.159867e+01 5.355648e+01 3.381484e+01 2.047789e+01 2.466512e+01 2.312360e+01 2.609134e+01 2.115710e+01 1.009884e+02 5.577121e+00 2.946724e+00 3.679612e+00 1.813919e+00 2.385747e+00 2.713684e+00 2.504542e+00 1.707019e+00 2.240559e+00 1.781312e+00 2.113717e+00 1.882962e+00 2.442605e+00 7.647253e-01 4.957791e-01 4.732918e-01 3.442204e-01 4.323926e-01 4.435982e-01 4.892309e-01 3.355951e-01 4.364984e-01 3.512198e-01 3.740766e-01 3.572962e-01 3.515145e-01
<GCONST> 1.195173e+02
<STATE> 3
<MEAN> 39
 -1.888735e+01 -8.507428e-01 1.297458e+00 -8.251059e+00 -5.311831e+00 -4.447126e+00 -3.262954e+00 -4.103665e+00 -1.225986e+01 -6.026276e+00 -4.243969e+00 -5.830871e+00 7.658881e+01 1.345981e-01 -2.685990e-01 7.905880e-02 -1.019658e-02 -4.675635e-02 -1.683261e-01 6.000717e-02 5.406766e-02 -7.111262e-02 3.620720e-02 9.759781e-02 6.522053e-03 5.354497e-01 2.687212e-02 4.264960e-03 -2.192564e-02 7.750136e-03 4.480455e-03 -1.483834e-02 -9.082544e-03 4.297050e-03 -1.211822e-03 -8.026105e-03 2.220890e-03 1.910911e-05 2.538909e-03
<VARIANCE> 39
 1.201765e+02 5.486193e+01 7.880360e+01 2.619864e+01 3.593929e+01 6.150841e+01 3.665660e+01 2.254923e+01 2.641382e+01 2.330706e+01 2.819541e+01 2.272944e+01 1.042540e+02 6.394253e+00 3.139497e+00 4.055479e+00 1.941700e+00 2.692167e+00 3.088846e+00 2.694442e+00 1.882363e+00 2.455271e+00 1.880523e+00 2.274778e+00 2.068101e+00 2.606019e+00 8.592793e-01 5.275863e-01 5.042497e-01 3.650512e-01 4.720154e-01 4.955761e-01 5.203199e-01 3.682397e-01 4.723559e-01 3.678665e-01 3.971867e-01 3.931850e-01 3.728130e-01
<GCONST> 1.227132e+02
<STATE> 4
<MEAN> 39
 -1.737110e+01 -2.080107e+00 1.096667e+00 -7.998613e+00 -5.285147e+00 -5.868588e+00 -3.192806e+00 -3.653069e+00 -1.276857e+01 -6.126957e+00 -3.655385e+00 -5.603043e+00 7.956169e+01 2.560933e-01 -2.041003e-01 -4.487410e-02 3.768581e-02 -1.699723e-02 -2.210587e-01 3.730499e-03 6.708428e-02 -7.750887e-02 -2.083708e-02 1.008291e-01 1.936476e-02 4.775839e-01 2.261165e-02 1.135457e-02 -2.226374e-02 9.342890e-03 5.718075e-03 -9.431374e-03 -1.115711e-02 1.329367e-03 -1.258230e-03 -9.451793e-03 1.481061e-03 2.802159e-03 -1.046148e-02
<VARIANCE> 39
 1.471536e+02 4.961899e+01 8.983084e+01 2.939708e+01 4.428373e+01 7.356194e+01 4.181191e+01 2.701077e+01 2.976010e+01 2.365625e+01 3.229257e+01 2.505693e+01 9.884513e+01 7.461720e+00 3.274832e+00 4.491882e+00 2.165259e+00 3.357445e+00 3.715336e+00 3.090569e+00 2.124806e+00 2.802302e+00 2.008619e+00 2.524266e+00 2.261406e+00 2.824512e+00 1.008506e+00 5.508792e-01 5.364680e-01 4.071699e-01 5.707373e-01 5.925326e-01 5.971934e-01 4.108894e-01 5.275608e-01 3.935809e-01 4.319339e-01 4.299844e-01 3.999795e-01
<GCONST> 1.270311e+02
<TRANSP> 5
 0.000000e+00 1.000000e+00 0.000000e+00 0.000000e+00 0.000000e+00
 0.000000e+00 7.296728e-01 2.703271e-01 0.000000e+00 0.000000e+00
 0.000000e+00 0.000000e+00 7.296727e-01 2.703273e-01 0.000000e+00
 0.000000e+00 0.000000e+00 0.000000e+00 8.517500e-01 1.482501e-01
 0.000000e+00 0.000000e+00 0.000000e+00 0.000000e+00 0.000000e+00
<ENDHMM>
~h "ny"
<BEGINHMM>
<NUMSTATES> 5
<STATE> 2
<MEAN> 39
 -1.282424e+01 6.431529e+00 -1.575086e+00 -2.227821e+00 -3.428228e-01 -7.368560e-01 -4.306466e+00 -4.394186e+00 -1.013684e+01 -7.119379e+00 -4.649325e+00 -4.499915e+00 6.858387e+01 -2.180862e-01 2.051536e-01 1.626305e-02 -1.771552e-01 -2.147063e-01 1.040556e-01 8.198249e-04 9.342262e-02 6.579938e-02 -2.653644e-02 -1.283799e-01 -1.499582e-01 -3.954781e-01 2.009255e-03 -1.735255e-02 -4.372481e-03 1.080197e-04 5.579147e-03 -1.993897e-02 -8.183784e-03 1.186244e-03 5.303782e-03 -3.280551e-03 2.599053e-03 2.950262e-03 2.288718e-02
<VARIANCE> 39
 1.525767e+01 2.584483e+01 1.025006e+01 2.118562e+01 2.880030e+01 2.123505e+01 1.964222e+01 1.577862e+01 1.712712e+01 1.414967e+01 2.322275e+01 1.889173e+01 4.014920e+01 2.850342e-01 1.310980e+00 5.784543e-01 7.576427e-01 1.202427e+00 1.208259e+00 1.490809e+00 1.159353e+00 1.167302e+00 1.012413e+00 1.463239e+00 9.678159e-01 5.315114e-01 4.921842e-02 2.138972e-01 9.877510e-02 1.556981e-01 2.279519e-01 1.843073e-01 2.507398e-01 2.221467e-01 2.111315e-01 1.954034e-01 2.556928e-01 1.916632e-01 5.050117e-02
<GCONST> 8.547301e+01
<STATE> 3
<MEAN> 39
 -1.356407e+01 7.066967e+00 -1.538162e+00 -2.836900e+00 -1.063658e+00 -4.595180e-01 -4.331872e+00 -4.070724e+00 -9.891037e+00 -7.228095e+00 -5.091958e+00 -5.008097e+00 6.732336e+01 -2.069446e-01 1.395149e-01 -2.257533e-03 -1.742716e-01 -1.949373e-01 3.504479e-02 -2.216968e-02 9.410536e-02 7.808186e-02 -3.574259e-02 -1.146452e-01 -1.359830e-01 -3.151405e-01 5.206216e-03 -2.073789e-02 -6.754876e-03 1.070082e-03 4.276810e-03 -1.859033e-02 -4.353105e-03 -2.354236e-03 -1.551653e-04 -3.175858e-03 5.818590e-03 6.020376e-03 2.249375e-02
<VARIANCE> 39
 1.349720e+01 2.111659e+01 8.732857e+00 1.989250e+01 2.464221e+01 1.621695e+01 1.560262e+01 1.402848e+01 1.532294e+01 1.271764e+01 2.043219e+01 1.749432e+01 2.856500e+01 2.285247e-01 1.199569e+00 4.666800e-01 6.363665e-01 1.034667e+00 9.618306e-01 1.199748e+00 1.009020e+00 9.745868e-01 8.754424e-01 1.319178e+00 9.267166e-01 4.337421e-01 3.870406e-02 2.031097e-01 8.168053e-02 1.309417e-01 2.021703e-01 1.543588e-01 2.109412e-01 1.941008e-01 1.783085e-01 1.740659e-01 2.445892e-01 1.898835e-01 4.790539e-02
<GCONST> 7.962754e+01
<STATE> 4
<MEAN> 39
 -1.436756e+01 7.469735e+00 -1.642022e+00 -3.561244e+00 -1.848974e+00 -4.332886e-01 -4.435524e+00 -3.704922e+00 -9.599953e+00 -7.398945e+00 -5.555560e+00 -5.526301e+00 6.618687e+01 -1.795274e-01 5.816225e-02 -3.127205e-02 -1.664693e-01 -1.780329e-01 -3.338540e-02 -3.351013e-02 8.127493e-02 7.147480e-02 -4.684843e-02 -8.940779e-02 -1.105618e-01 -2.277372e-01 7.705796e-03 -1.849990e-02 -6.979203e-03 1.407121e-03 2.137440e-03 -1.331470e-02 -2.861791e-03 -5.141437e-03 -4.059582e-03 -3.323314e-03 7.404959e-03 7.317700e-03 1.848518e-02
<VARIANCE> 39
 1.128030e+01 1.663670e+01 7.665988e+00 1.770725e+01 2.058008e+01 1.246935e+01 1.237502e+01 1.240690e+01 1.389099e+01 1.179332e+01 1.814429e+01 1.608678e+01 1.817871e+01 1.883835e-01 1.110879e+00 3.706016e-01 5.392477e-01 9.012128e-01 7.817991e-01 9.415675e-01 8.632117e-01 8.029405e-01 7.734752e-01 1.229059e+00 9.218097e-01 3.570582e-01 3.108868e-02 2.006345e-01 6.697615e-02 1.107488e-01 1.828568e-01 1.361236e-01 1.748098e-01 1.666813e-01 1.495848e-01 1.593885e-01 2.389900e-01 1.956575e-01 4.992762e-02
<GCONST> 7.396011e+01
<TRANSP> 5
 0.000000e+00 1.000000e+00 0.000000e+00 0.000000e+00 0.000000e+00
 0.000000e+00 7.115770e-01 2.884230e-01 0.000000e+00 0.000000e+00
 0.000000e+00 0.000000e+00 7.115768e-01 2.884233e-01 0.000000e+00
 0.000000e+00 0.000000e+00 0.000000e+00 8.278787e-01 1.721213e-01
 0.000000e+00 0.000000e+00 0.000000e+00 0.000000e+00 0.000000e+00
<ENDHMM>
~h "sil"
<BEGINHMM>
<NUMSTATES> 5
<STATE> 2
<MEAN> 39
 -1.751167e+01 6.136203e+00 -2.887874e+00 -6.899213e+00 -3.845001e+00 -2.347892e+00 -5.796183e+00 -3.242455e+00 -8.022782e+00 -9.513186e+00 -5.219673e+00 -6.168159e+00 6.537511e+01 -7.223190e-03 8.253677e-02 4.420161e-02 8.776464e-02 -4.393582e-02 2.209606e-02 4.427227e-02 2.092160e-02 -7.717901e-02 1.073659e-01 -1.458335e-02 -1.145194e-01 -9.050061e-02 5.483463e-03 -2.507688e-02 -6.583190e-03 -1.151600e-02 2.306032e-02 2.358273e-02 -2.357339e-02 -2.713674e-02 5.494779e-03 1.948044e-02 2.328614e-02 2.618635e-02 1.405105e-02
<VARIANCE> 39
 7.957560e+00 1.169646e+01 9.061042e+00 1.631556e+01 1.044909e+01 1.040144e+01 1.436436e+01 1.295024e+01 1.752776e+01 1.770465e+01 1.464312e+01 1.414164e+01 8.737213e+00 3.616578e-01 5.576379e-01 5.700263e-01 8.140191e-01 6.814986e-01 7.278478e-01 1.134496e+00 7.916828e-01 1.139184e+00 1.037666e+00 1.011553e+00 9.186242e-01 4.183415e-01 6.834234e-02 9.187277e-02 9.508146e-02 1.257154e-01 1.271304e-01 1.286699e-01 1.995585e-01 1.392007e-01 2.054031e-01 1.597738e-01 1.818519e-01 1.462721e-01 6.267434e-02
<GCONST> 7.339698e+01
<STATE> 3
<MEAN> 39
 -1.753881e+01 6.179267e+00 -2.833887e+00 -6.788416e+00 -3.895833e+00 -2.156535e+00 -5.870859e+00 -3.339922e+00 -8.274227e+00 -9.061925e+00 -5.145788e+00 -6.325172e+00 6.519603e+01 -1.207264e-02 -2.480556e-03 1.987240e-02 -8.033065e-03 8.768681e-03 7.822213e-02 -3.585897e-02 -4.864804e-02 -4.580734e-02 7.246086e-02 4.745088e-02 -8.872869e-03 -1.620967e-02 5.267810e-03 -1.294998e-02 -9.765911e-03 -2.179035e-02 1.171167e-02 1.478185e-02 -1.708340e-02 -2.109686e-02 -1.870653e-03 -1.382388e-02 1.131358e-02 2.555363e-02 1.266473e-02
<VARIANCE> 39
 9.072325e+00 1.009113e+01 1.008958e+01 1.542572e+01 1.177791e+01 1.016013e+01 1.546700e+01 1.182913e+01 1.914015e+01 1.534740e+01 1.464693e+01 1.288262e+01 8.774300e+00 5.287408e-01 5.586490e-01 6.468391e-01 9.027725e-01 7.793503e-01 7.492579e-01 1.084531e+00 8.221116e-01 1.371065e+00 1.111590e+00 1.072579e+00 9.050769e-01 5.364304e-01 1.026179e-01 1.129753e-01 1.279868e-01 1.698457e-01 1.648095e-01 1.501520e-01 2.208219e-01 1.618431e-01 2.744828e-01 1.921897e-01 2.173835e-01 1.745401e-01 1.003323e-01
<GCONST> 7.785929e+01
<STATE> 4
<MEAN> 39
 -1.763556e+01 5.880125e+00 -2.792120e+00 -6.947741e+00 -3.888992e+00 -1.945682e+00 -5.984794e+00 -3.651233e+00 -8.438941e+00 -8.706934e+00 -4.920851e+00 -6.187233e+00 6.535435e+01 -1.306428e-02 -9.857761e-03 1.065177e-02 -6.709445e-02 9.242231e-03 5.441914e-02 -3.919508e-02 -9.195751e-02 -2.813242e-02 -3.906963e-02 3.932336e-02 2.023739e-02 3.478006e-02 4.791821e-03 4.785160e-03 -7.985733e-03 -8.375132e-03 -5.872317e-04 -4.323119e-03 -1.104791e-02 -1.635617e-02 -1.106730e-02 -1.659757e-02 -1.293439e-02 3.325352e-03 4.822823e-03
<VARIANCE> 39
 1.126207e+01 1.200915e+01 1.190006e+01 1.634852e+01 1.352117e+01 1.193617e+01 1.675565e+01 1.124119e+01 2.187527e+01 1.640951e+01 1.599616e+01 1.218598e+01 1.097848e+01 7.171239e-01 6.656722e-01 7.823166e-01 1.065808e+00 9.714147e-01 8.726628e-01 1.073027e+00 8.877616e-01 1.638980e+00 1.183555e+00 1.134521e+00 8.183227e-01 7.427967e-01 1.315168e-01 1.345416e-01 1.464366e-01 1.810647e-01 1.889290e-01 1.662877e-01 2.149157e-01 1.759958e-01 2.971687e-01 1.930901e-01 2.140411e-01 1.603357e-01 1.270474e-01
<GCONST> 8.219180e+01
<TRANSP> 5
 0.000000e+00 1.000000e+00 0.000000e+00 0.000000e+00 0.000000e+00
 0.000000e+00 7.335036e-01 2.664964e-01 0.000000e+00 0.000000e+00
 0.000000e+00 0.000000e+00 7.335035e-01 2.664965e-01 0.000000e+00
 0.000000e+00 0.000000e+00 0.000000e+00 8.551003e-01 1.448997e-01
 0.000000e+00 0.000000e+00 0.000000e+00 0.000000e+00 0.000000e+00
<ENDHMM>
