~o
<STREAMINFO> 1 39
<VECSIZE> 39<NULLD><MFCC_D_A_0><DIAGC>
~h "a"
<BEGINHMM>
<NUMSTATES> 5
<STATE> 2
<MEAN> 39
 -1.133878e+01 2.878083e+00 -2.499859e+00 -4.880490e+00 -2.136042e+00 -6.392413e+00 -4.762967e+00 -2.507472e+00 -9.994737e+00 -3.716340e+00 -2.599905e+00 -5.501091e+00 7.445149e+01 -1.405718e-02 5.554808e-04 1.173394e-02 2.398346e-02 -1.358558e-03 -2.654206e-02 -3.142722e-02 -5.342146e-03 1.159367e-02 1.926763e-03 -7.407573e-03 -7.772611e-03 -1.139528e-02 -2.555666e-06 -7.372964e-04 5.803299e-04 -4.016588e-04 1.101628e-03 -1.015987e-03 -2.470846e-03 -8.780550e-04 -5.921902e-04 -1.439015e-03 1.199697e-03 4.895876e-04 9.847833e-04
<VARIANCE> 39
 4.229050e+01 3.539698e+01 3.455076e+01 3.740726e+01 4.640876e+01 6.190805e+01 4.542915e+01 4.124510e+01 4.423533e+01 4.470532e+01 3.054418e+01 2.483124e+01 1.045856e+02 1.399445e+00 1.663312e+00 1.722410e+00 1.816580e+00 1.974697e+00 2.434048e+00 2.033214e+00 1.923910e+00 2.424760e+00 1.744346e+00 1.754215e+00 1.520348e+00 2.064857e+00 2.257917e-01 2.801266e-01 2.792872e-01 3.015490e-01 3.254248e-01 3.965707e-01 3.526565e-01 3.512703e-01 4.304930e-01 3.242057e-01 3.170353e-01 2.734187e-01 2.575435e-01
<GCONST> 1.134478e+02
<STATE> 3
<MEAN> 39
 -1.138329e+01 2.876377e+00 -2.452633e+00 -4.791625e+00 -2.131339e+00 -6.499354e+00 -4.893931e+00 -2.531878e+00 -9.946975e+00 -3.706169e+00 -2.618853e+00 -5.527037e+00 7.442591e+01 -1.420336e-02 -1.044747e-03 1.378925e-02 2.219306e-02 2.246350e-03 -2.896457e-02 -3.914865e-02 -8.292196e-03 9.972327e-03 -3.176882e-03 -3.153414e-03 -6.247041e-03 -8.821137e-03 -1.328902e-04 -8.171832e-05 5.262407e-04 -9.341275e-04 8.518026e-04 -2.244685e-04 -1.950615e-03 -8.084553e-04 1.108568e-04 -1.851611e-03 1.512237e-03 4.252928e-04 8.649400e-04
<VARIANCE> 39
 4.231178e+01 3.562978e+01 3.441887e+01 3.752476e+01 4.653027e+01 6.235890e+01 4.539821e+01 4.087786e+01 4.432730e+01 4.545938e+01 3.052381e+01 2.490501e+01 1.055243e+02 1.371284e+00 1.637501e+00 1.708139e+00 1.820999e+00 1.965728e+00 2.421777e+00 2.010717e+00 1.897406e+00 2.413014e+00 1.747808e+00 1.748206e+00 1.532918e+00 2.023599e+00 2.212432e-01 2.757237e-01 2.769652e-01 3.000439e-01 3.228126e-01 3.936197e-01 3.480708e-01 3.468803e-01 4.275497e-01 3.240313e-01 3.158386e-01 2.764423e-01 2.513701e-01
<GCONST> 1.132746e+02
<STATE> 4
<MEAN> 39
 -1.128439e+01 2.835196e+00 -2.351858e+00 -4.644191e+00 -2.073364e+00 -6.763011e+00 -5.218460e+00 -2.546927e+00 -9.839406e+00 -3.661935e+00 -2.605242e+00 -5.595951e+00 7.458162e+01 -1.257947e-02 1.084098e-03 1.522537e-02 1.798747e-02 6.486285e-03 -2.552804e-02 -4.193502e-02 -9.833910e-03 1.197922e-02 -9.093871e-03 2.957188e-03 -5.215377e-03 -3.971929e-03 -9.834322e-04 5.486163e-04 1.023373e-03 -1.741315e-03 7.163537e-04 1.046048e-03 -1.287273e-03 -5.714519e-04 1.449170e-03 -2.924042e-03 1.751122e-03 3.455598e-04 8.758291e-04
<VARIANCE> 39
 4.242390e+01 3.598191e+01 3.446218e+01 3.827032e+01 4.781519e+01 6.358140e+01 4.593987e+01 4.188355e+01 4.488308e+01 4.814707e+01 3.104469e+01 2.561213e+01 1.063605e+02 1.349846e+00 1.641990e+00 1.707857e+00 1.853336e+00 1.990065e+00 2.462567e+00 2.027525e+00 1.904407e+00 2.450085e+00 1.790095e+00 1.785492e+00 1.583363e+00 2.029372e+00 2.177003e-01 2.748442e-01 2.771022e-01 3.022318e-01 3.247624e-01 3.991593e-01 3.505715e-01 3.484416e-01 4.348488e-01 3.297124e-01 3.212715e-01 2.870844e-01 2.495852e-01
<GCONST> 1.137565e+02
<TRANSP> 5
 0.000000e+00 1.000000e+00 0.000000e+00 0.000000e+00 0.000000e+00
 0.000000e+00 7.473887e-01 2.526114e-01 0.000000e+00 0.000000e+00
 0.000000e+00 0.000000e+00 7.473887e-01 2.526113e-01 0.000000e+00
 0.000000e+00 0.000000e+00 0.000000e+00 8.724297e-01 1.275703e-01
 0.000000e+00 0.000000e+00 0.000000e+00 0.000000e+00 0.000000e+00
<ENDHMM>
~h "b"
<BEGINHMM>
<NUMSTATES> 5
<STATE> 2
<MEAN> 39
 -1.085470e+01 1.333993e+00 1.101155e+00 -5.821480e+00 7.977507e-01 -8.293795e+00 -7.079594e+00 -4.674206e+00 -1.267754e+01 -2.954044e+00 -1.551544e+00 -5.606623e+00 8.184987e+01 2.521655e-01 1.363350e-01 -7.842198e-02 1.727183e-01 9.441799e-02 -3.326616e-02 -2.681230e-02 2.731318e-02 -6.161530e-02 -1.131487e-01 -2.981457e-02 -4.208371e-02 -7.242212e-02 -4.917369e-03 2.231332e-03 1.166155e-03 2.921459e-03 1.204736e-03 2.527576e-03 1.104361e-03 1.766253e-03 4.535868e-03 -5.165573e-03 -3.898059e-03 -5.309416e-04 -1.163959e-02
<VARIANCE> 39
 9.703418e+01 4.589986e+01 5.796131e+01 5.551621e+01 6.343758e+01 6.181416e+01 5.013245e+01 4.089058e+01 6.530232e+01 6.430972e+01 3.720131e+01 2.513641e+01 7.480353e+01 4.468839e+00 2.734153e+00 3.526186e+00 3.063186e+00 3.172186e+00 4.188442e+00 3.040991e+00 2.902755e+00 4.129512e+00 2.740273e+00 2.511063e+00 1.848734e+00 3.181166e+00 5.900500e-01 4.340016e-01 5.748256e-01 5.150347e-01 5.126289e-01 7.255149e-01 5.623829e-01 5.482332e-01 7.403283e-01 4.967062e-01 4.599367e-01 3.448274e-01 4.560974e-01
<GCONST> 1.299470e+02
<STATE> 3
<MEAN> 39
 -1.000083e+01 1.833436e+00 8.371638e-01 -5.187484e+00 1.125641e+00 -8.390260e+00 -7.158586e+00 -4.569090e+00 -1.287207e+01 -3.385316e+00 -1.679342e+00 -5.754845e+00 8.150740e+01 2.256690e-01 1.393623e-01 -6.800006e-02 1.763585e-01 9.676882e-02 -2.685939e-02 -2.079165e-02 3.254077e-02 -4.414750e-02 -1.275481e-01 -4.521155e-02 -4.293616e-02 -1.047232e-01 -9.325504e-03 -6.314911e-04 4.228593e-03 -2.957715e-04 7.787695e-04 1.155588e-03 1.691694e-03 1.066282e-03 5.103537e-03 -2.711358e-03 -4.086060e-03 9.419980e-05 -6.430748e-03
<VARIANCE> 39
 8.448904e+01 4.466286e+01 5.378548e+01 5.272665e+01 6.270271e+01 6.214291e+01 4.956187e+01 4.136790e+01 6.803461e+01 6.571486e+01 3.911372e+01 2.545871e+01 7.564247e+01 3.917463e+00 2.626376e+00 3.317617e+00 2.967121e+00 3.198154e+00 4.315034e+00 2.979828e+00 2.875047e+00 4.159085e+00 2.772070e+00 2.513208e+00 1.837479e+00 3.150158e+00 5.261562e-01 4.106871e-01 5.518895e-01 5.046566e-01 5.152835e-01 7.476618e-01 5.481731e-01 5.413640e-01 7.467670e-01 5.073574e-01 4.613965e-01 3.430277e-01 4.482253e-01
<GCONST> 1.293089e+02
<STATE> 4
<MEAN> 39
 -9.069077e+00 2.505704e+00 5.851656e-01 -4.232756e+00 1.642677e+00 -8.452806e+00 -7.344380e+00 -4.390603e+00 -1.287613e+01 -3.958381e+00 -1.906630e+00 -5.945388e+00 8.066808e+01 1.571700e-01 1.207847e-01 -3.953050e-02 1.545623e-01 8.346874e-02 -2.449157e-02 -5.395289e-03 3.396977e-02 -1.826376e-02 -1.215432e-01 -6.145647e-02 -3.830846e-02 -1.148711e-01 -1.253813e-02 -4.105673e-03 5.902341e-03 -3.848403e-03 -6.463939e-04 -6.459822e-04 2.131880e-03 3.939784e-04 5.082796e-03 1.228359e-03 -3.100322e-03 6.824004e-04 4.075239e-04
<VARIANCE> 39
 6.626164e+01 4.250439e+01 4.706678e+01 4.993288e+01 6.259576e+01 6.341209e+01 5.003983e+01 4.253465e+01 7.160966e+01 6.655740e+01 4.112854e+01 2.608148e+01 7.855952e+01 3.046566e+00 2.462120e+00 2.963157e+00 2.883157e+00 3.119342e+00 4.422138e+00 2.911719e+00 2.774513e+00 4.096262e+00 2.757420e+00 2.516713e+00 1.836188e+00 2.983481e+00 4.189206e-01 3.762761e-01 5.039002e-01 4.899282e-01 4.970043e-01 7.630104e-01 5.309105e-01 5.198107e-01 7.364007e-01 5.103292e-01 4.635452e-01 3.445108e-01 4.178576e-01
<GCONST> 1.278758e+02
<TRANSP> 5
 0.000000e+00 1.000000e+00 0.000000e+00 0.000000e+00 0.000000e+00
 0.000000e+00 7.297159e-01 2.702840e-01 0.000000e+00 0.000000e+00
 0.000000e+00 0.000000e+00 7.297161e-01 2.702840e-01 0.000000e+00
 0.000000e+00 0.000000e+00 0.000000e+00 8.526763e-01 1.473237e-01
 0.000000e+00 0.000000e+00 0.000000e+00 0.000000e+00 0.000000e+00
<ENDHMM>
~h "d"
<BEGINHMM>
<NUMSTATES> 5
<STATE> 2
<MEAN> 39
 -1.477209e+01 1.965857e-01 8.258923e-01 -7.841814e+00 -2.433270e+00 -7.353110e+00 -5.779683e+00 -4.445930e+00 -1.132705e+01 -2.827035e+00 -2.639056e+00 -5.586180e+00 7.907836e+01 2.346419e-01 -2.841756e-02 -9.166483e-02 2.834784e-02 3.905860e-02 -1.527708e-01 -3.649829e-02 -1.200171e-02 -9.017088e-02 6.118185e-02 6.673997e-02 -2.140477e-03 2.770610e-01 9.178586e-03 1.068477e-02 -1.170007e-02 8.751305e-03 2.117097e-03 1.920862e-03 -4.097144e-03 1.444223e-03 7.709170e-04 -3.485569e-03 1.153682e-03 -8.213788e-04 -1.824930e-02
<VARIANCE> 39
 1.079006e+02 5.016233e+01 6.693616e+01 4.485783e+01 5.148554e+01 6.202177e+01 4.875851e+01 4.154542e+01 5.326579e+01 5.342514e+01 3.287473e+01 2.659301e+01 1.012488e+02 4.748442e+00 3.010252e+00 3.693072e+00 2.636812e+00 2.942823e+00 3.286211e+00 2.964667e+00 2.828056e+00 3.829483e+00 2.449746e+00 2.165319e+00 1.802495e+00 3.076593e+00 6.397355e-01 5.671935e-01 5.674928e-01 4.632276e-01 5.029967e-01 5.714591e-01 5.680887e-01 5.380754e-01 7.126830e-01 4.345548e-01 3.989585e-01 3.271765e-01 4.196716e-01
<GCONST> 1.285051e+02
<STATE> 3
<MEAN> 39
 -1.386846e+01 1.842678e-01 4.144349e-01 -7.674447e+00 -2.275322e+00 -7.875765e+00 -5.942274e+00 -4.476839e+00 -1.164328e+01 -2.633204e+00 -2.388574e+00 -5.594959e+00 7.991983e+01 2.526908e-01 9.882277e-03 -1.229626e-01 5.524230e-02 4.678221e-02 -1.364024e-01 -4.968346e-02 -7.003488e-03 -8.196760e-02 4.742530e-02 6.844027e-02 -3.611559e-03 2.027341e-01 2.452872e-03 1.020815e-02 -6.631491e-03 6.424518e-03 2.432267e-03 5.849694e-03 -3.374696e-03 1.145477e-03 2.860959e-03 -4.174483e-03 1.309725e-04 -4.442781e-05 -2.110809e-02
<VARIANCE> 39
 1.064364e+02 4.925761e+01 6.612639e+01 4.461718e+01 5.348772e+01 6.354420e+01 4.898167e+01 4.296405e+01 5.527887e+01 5.560537e+01 3.381601e+01 2.701844e+01 9.760593e+01 4.732083e+00 2.965062e+00 3.653487e+00 2.605718e+00 3.041190e+00 3.413247e+00 3.010685e+00 2.878405e+00 4.011215e+00 2.487502e+00 2.172700e+00 1.827731e+00 3.192089e+00 6.397917e-01 5.552288e-01 5.637223e-01 4.597472e-01 5.122648e-01 5.893380e-01 5.740736e-01 5.443172e-01 7.438744e-01 4.367287e-01 3.971321e-01 3.311479e-01 4.322217e-01
<GCONST> 1.289396e+02
<STATE> 4
<MEAN> 39
 -1.239523e+01 6.015215e-01 -3.175511e-01 -7.158430e+00 -1.889566e+00 -8.406940e+00 -6.305926e+00 -4.389026e+00 -1.198437e+01 -2.606651e+00 -2.119911e+00 -5.657809e+00 8.032320e+01 2.138712e-01 5.201177e-02 -1.188363e-01 6.564520e-02 4.977674e-02 -8.381280e-02 -5.256633e-02 1.527275e-03 -5.311328e-02 2.186131e-02 5.567493e-02 -6.000549e-04 8.398571e-02 -6.253423e-03 6.739899e-03 1.337602e-03 1.409657e-03 1.623555e-03 8.545296e-03 -6.035371e-04 1.066576e-03 4.444487e-03 -4.558436e-03 -2.072957e-03 6.421451e-04 -1.814119e-02
<VARIANCE> 39
 9.492362e+01 4.763239e+01 6.203413e+01 4.441944e+01 5.685903e+01 6.379617e+01 4.839832e+01 4.601838e+01 5.629271e+01 5.997821e+01 3.477732e+01 2.808938e+01 9.505029e+01 4.454152e+00 2.813615e+00 3.488790e+00 2.527776e+00 3.102425e+00 3.477079e+00 2.975169e+00 2.879454e+00 4.102626e+00 2.523050e+00 2.099083e+00 1.839975e+00 3.331437e+00 6.213011e-01 5.182903e-01 5.471261e-01 4.507693e-01 5.161200e-01 5.958938e-01 5.616426e-01 5.387888e-01 7.565933e-01 4.418875e-01 3.821367e-01 3.300717e-01 4.524203e-01
<GCONST> 1.287398e+02
<TRANSP> 5
 0.000000e+00 1.000000e+00 0.000000e+00 0.000000e+00 0.000000e+00
 0.000000e+00 7.371610e-01 2.628390e-01 0.000000e+00 0.000000e+00
 0.000000e+00 0.000000e+00 7.371607e-01 2.628393e-01 0.000000e+00
 0.000000e+00 0.000000e+00 0.000000e+00 8.613724e-01 1.386276e-01
 0.000000e+00 0.000000e+00 0.000000e+00 0.000000e+00 0.000000e+00
<ENDHMM>
~h "e"
<BEGINHMM>
<NUMSTATES> 5
<STATE> 2
<MEAN> 39
 -1.035112e+01 1.946485e+00 -7.176436e-01 -5.688626e+00 -7.571590e-02 -7.966308e+00 -6.665529e+00 -3.844111e+00 -1.192550e+01 -3.598215e+00 -2.062845e+00 -5.516451e+00 7.973568e+01 6.105588e-02 5.749459e-02 3.494222e-03 3.503966e-02 5.024428e-02 2.286367e-03 1.726472e-02 3.033659e-02 -9.682351e-03 -6.019750e-02 -3.843263e-02 -1.913372e-02 -2.787310e-02 -5.130144e-03 -3.415815e-03 3.589529e-03 -2.110137e-03 -1.830418e-03 -2.547251e-04 4.420335e-03 1.483342e-03 1.046152e-03 5.899824e-04 -2.125642e-03 -7.722281e-04 2.243124e-03
<VARIANCE> 39
 6.487386e+01 4.006016e+01 5.680467e+01 5.031065e+01 5.939661e+01 6.111103e+01 5.425894e+01 4.753172e+01 6.185796e+01 5.990656e+01 3.775431e+01 2.679042e+01 8.883059e+01 3.589945e+00 2.615716e+00 3.168877e+00 2.768031e+00 2.910766e+00 3.955651e+00 2.870740e+00 2.776566e+00 3.990456e+00 2.494339e+00 2.187851e+00 1.805290e+00 3.756809e+00 5.483471e-01 4.347818e-01 5.357162e-01 4.867693e-01 4.905196e-01 6.757846e-01 5.119966e-01 5.093167e-01 7.183557e-01 4.633028e-01 4.023202e-01 3.325120e-01 5.371514e-01
<GCONST> 1.281397e+02
<STATE> 3
<MEAN> 39
 -1.016181e+01 2.132235e+00 -6.825135e-01 -5.582663e+00 7.960629e-02 -7.960776e+00 -6.567844e+00 -3.716973e+00 -1.195314e+01 -3.813896e+00 -2.218882e+00 -5.597761e+00 7.964816e+01 4.659469e-02 4.460720e-02 1.300177e-02 2.955993e-02 4.294842e-02 -1.083415e-03 3.216797e-02 3.543124e-02 -6.799108e-03 -5.621714e-02 -4.409054e-02 -2.237731e-02 -1.810310e-02 -3.475111e-03 -3.585838e-03 2.036405e-03 -9.353777e-04 -2.088397e-03 -1.087516e-03 3.648408e-03 1.338085e-03 9.034381e-04 1.486003e-03 -1.036777e-03 -8.189146e-04 2.619013e-03
<VARIANCE> 39
 6.143919e+01 3.979580e+01 5.578649e+01 5.096956e+01 5.958180e+01 6.177266e+01 5.469408e+01 4.816482e+01 6.241864e+01 5.986813e+01 3.882011e+01 2.731312e+01 8.749616e+01 3.456939e+00 2.593833e+00 3.104328e+00 2.803644e+00 2.862654e+00 4.035846e+00 2.842946e+00 2.772989e+00 3.958941e+00 2.508343e+00 2.199681e+00 1.812557e+00 3.751058e+00 5.364408e-01 4.284564e-01 5.289704e-01 4.916180e-01 4.829719e-01 6.883448e-01 5.054189e-01 5.072435e-01 7.106777e-01 4.693805e-01 4.045901e-01 3.332056e-01 5.405235e-01
<GCONST> 1.280559e+02
<STATE> 4
<MEAN> 39
 -9.998650e+00 2.355097e+00 -6.430551e-01 -5.406465e+00 1.088383e-01 -7.872218e+00 -6.391232e+00 -3.414268e+00 -1.179882e+01 -4.096741e+00 -2.482446e+00 -5.745970e+00 7.920177e+01 3.489864e-02 2.849268e-02 1.309355e-02 2.570325e-02 2.601424e-02 -7.389986e-03 4.410655e-02 3.882061e-02 -1.833998e-03 -4.360740e-02 -4.277996e-02 -2.544039e-02 -1.029184e-02 -1.507955e-03 -2.481192e-03 -1.541467e-04 4.955602e-04 -2.022182e-03 -1.036636e-03 1.858786e-03 7.152762e-04 1.023527e-03 1.975098e-03 3.740758e-04 -3.103013e-04 9.283962e-04
<VARIANCE> 39
 5.685345e+01 3.956782e+01 5.383494e+01 5.184240e+01 6.051200e+01 6.313092e+01 5.517097e+01 4.998638e+01 6.231495e+01 5.983144e+01 3.980202e+01 2.836097e+01 8.764709e+01 3.177352e+00 2.530960e+00 2.939267e+00 2.797367e+00 2.742635e+00 4.014499e+00 2.786089e+00 2.737053e+00 3.838665e+00 2.482513e+00 2.207776e+00 1.827229e+00 3.581414e+00 5.002834e-01 4.157870e-01 5.006770e-01 4.847384e-01 4.609606e-01 6.804721e-01 4.931665e-01 4.986020e-01 6.849626e-01 4.669637e-01 4.039581e-01 3.328720e-01 5.174350e-01
<GCONST> 1.274193e+02
<TRANSP> 5
 0.000000e+00 1.000000e+00 0.000000e+00 0.000000e+00 0.000000e+00
 0.000000e+00 7.389503e-01 2.610497e-01 0.000000e+00 0.000000e+00
 0.000000e+00 0.000000e+00 7.389503e-01 2.610497e-01 0.000000e+00
 0.000000e+00 0.000000e+00 0.000000e+00 8.637686e-01 1.362315e-01
 0.000000e+00 0.000000e+00 0.000000e+00 0.000000e+00 0.000000e+00
<ENDHMM>
~h "g"
<BEGINHMM>
<NUMSTATES> 5
<STATE> 2
<MEAN> 39
 -1.126068e+01 2.597267e+00 -6.924530e-01 -2.936301e+00 -9.535264e-01 -7.794428e+00 -6.441918e+00 -3.646593e+00 -1.133257e+01 -3.090173e+00 -1.836794e+00 -5.020566e+00 7.530345e+01 -5.906707e-04 -2.110379e-02 7.770463e-03 3.432704e-02 3.934858e-02 -3.385833e-04 -2.910179e-02 -1.761681e-02 4.324540e-03 1.739905e-02 1.255840e-02 2.253496e-02 1.038031e-02 1.513420e-03 1.075766e-03 -1.502640e-03 -2.089233e-03 -1.460319e-03 -5.340319e-04 1.247950e-03 9.996837e-04 -3.157919e-04 3.988430e-04 -5.000270e-04 -6.857549e-04 3.429641e-04
<VARIANCE> 39
 3.313624e+01 3.808072e+01 6.004773e+01 5.124804e+01 5.484040e+01 6.532706e+01 6.173684e+01 4.484967e+01 5.028295e+01 4.686717e+01 2.690083e+01 3.168323e+01 1.024460e+02 1.289116e+00 2.384809e+00 2.470443e+00 2.491898e+00 2.546260e+00 3.532273e+00 2.933681e+00 2.048588e+00 2.918657e+00 1.961109e+00 1.721850e+00 1.928682e+00 3.253603e+00 2.348978e-01 3.934900e-01 3.668089e-01 4.520082e-01 4.379837e-01 5.799257e-01 4.895776e-01 3.555837e-01 5.347173e-01 3.694077e-01 3.160915e-01 3.315884e-01 4.278461e-01
<GCONST> 1.211334e+02
<STATE> 3
<MEAN> 39
 -1.124306e+01 2.520761e+00 -6.794717e-01 -2.824661e+00 -8.135486e-01 -7.797679e+00 -6.542580e+00 -3.711576e+00 -1.131719e+01 -3.014478e+00 -1.790455e+00 -4.936762e+00 7.535494e+01 5.113726e-03 -1.699773e-02 7.197498e-04 2.497318e-02 3.264134e-02 -1.567337e-03 -2.308696e-02 -1.353456e-02 3.667703e-03 1.891713e-02 1.057447e-02 2.005979e-02 1.093528e-02 1.318640e-03 1.048102e-03 -1.747453e-03 -2.346016e-03 -1.717473e-03 -2.242618e-04 1.564548e-03 1.008339e-03 -8.142495e-05 3.245543e-04 -5.395557e-04 -6.171141e-04 2.580532e-05
<VARIANCE> 39
 3.307863e+01 3.781422e+01 6.070477e+01 5.109758e+01 5.457802e+01 6.590145e+01 6.210396e+01 4.495579e+01 5.165157e+01 4.706134e+01 2.702108e+01 3.160181e+01 1.026890e+02 1.325055e+00 2.402203e+00 2.496930e+00 2.535537e+00 2.560205e+00 3.599208e+00 2.989921e+00 2.041775e+00 2.973238e+00 1.942392e+00 1.743170e+00 1.939126e+00 3.287448e+00 2.408155e-01 3.980171e-01 3.718311e-01 4.607023e-01 4.409095e-01 5.887080e-01 4.963783e-01 3.530643e-01 5.424494e-01 3.638261e-01 3.204224e-01 3.339137e-01 4.318297e-01
<GCONST> 1.214461e+02
<STATE> 4
<MEAN> 39
 -1.114526e+01 2.412735e+00 -7.788849e-01 -2.682863e+00 -6.874779e-01 -7.797505e+00 -6.892374e+00 -3.829409e+00 -1.121812e+01 -2.914442e+00 -1.704258e+00 -4.838918e+00 7.528867e+01 1.326716e-02 -1.067655e-02 -1.362342e-02 5.550867e-03 1.747780e-02 7.722331e-04 -8.776332e-03 -7.216268e-03 5.390134e-03 1.984793e-02 6.666781e-03 1.606902e-02 9.282606e-03 8.674936e-04 9.680387e-04 -1.932696e-03 -2.485220e-03 -1.949504e-03 3.050363e-04 1.912235e-03 1.011654e-03 3.409658e-04 6.682321e-05 -6.171297e-04 -5.267683e-04 -5.948263e-04
<VARIANCE> 39
 3.336496e+01 3.725101e+01 6.015091e+01 5.026483e+01 5.452794e+01 6.581076e+01 6.086391e+01 4.609028e+01 5.336517e+01 4.819063e+01 2.762502e+01 3.183827e+01 1.025988e+02 1.357419e+00 2.387804e+00 2.464821e+00 2.529606e+00 2.556993e+00 3.611923e+00 3.041793e+00 2.029282e+00 2.987613e+00 1.910432e+00 1.764702e+00 1.946949e+00 3.264192e+00 2.436426e-01 3.950973e-01 3.685684e-01 4.570573e-01 4.386508e-01 5.871652e-01 5.041191e-01 3.487050e-01 5.418892e-01 3.548818e-01 3.252695e-01 3.367564e-01 4.250455e-01
<GCONST> 1.214798e+02
<TRANSP> 5
 0.000000e+00 1.000000e+00 0.000000e+00 0.000000e+00 0.000000e+00
 0.000000e+00 7.566634e-01 2.433366e-01 0.000000e+00 0.000000e+00
 0.000000e+00 0.000000e+00 7.566638e-01 2.433362e-01 0.000000e+00
 0.000000e+00 0.000000e+00 0.000000e+00 8.835754e-01 1.164246e-01
 0.000000e+00 0.000000e+00 0.000000e+00 0.000000e+00 0.000000e+00
<ENDHMM>
~h "h"
<BEGINHMM>
<NUMSTATES> 5
<STATE> 2
<MEAN> 39
 -1.285882e+01 1.874608e+00 5.781841e-02 -1.804079e+00 5.095723e-01 -6.390110e+00 -6.857794e+00 -3.230541e+00 -9.301519e+00 -4.496716e+00 -2.876416e+00 -6.066886e+00 7.431895e+01 -3.643623e-02 9.739179e-02 -5.876754e-02 -5.505891e-02 -6.267641e-02 1.261335e-01 5.041636e-02 1.045019e-02 7.673387e-03 -6.785155e-02 3.901843e-03 1.277989e-02 -2.048526e-01 1.384422e-03 -1.449367e-03 -2.447727e-03 -1.172799e-03 -4.589491e-03 -7.238259e-04 4.407928e-03 3.183012e-03 -5.172536e-04 1.695165e-03 -2.285665e-03 -1.987064e-05 1.528005e-03
<VARIANCE> 39
 3.015477e+01 3.877609e+01 4.439115e+01 3.991901e+01 5.003395e+01 6.273568e+01 5.003553e+01 3.537595e+01 4.191038e+01 5.021038e+01 3.234748e+01 2.359524e+01 1.000926e+02 1.675327e+00 1.999888e+00 1.856175e+00 2.020042e+00 2.178331e+00 2.545288e+00 2.260110e+00 2.122844e+00 2.886170e+00 1.890526e+00 1.781279e+00 1.749596e+00 2.067697e+00 3.001117e-01 3.565619e-01 3.151719e-01 3.151681e-01 3.666157e-01 4.366390e-01 4.072069e-01 3.953834e-01 5.047143e-01 3.515209e-01 3.220913e-01 3.270843e-01 3.083725e-01
<GCONST> 1.166600e+02
<STATE> 3
<MEAN> 39
 -1.297606e+01 2.244843e+00 -1.925471e-01 -2.039233e+00 2.411238e-01 -5.915570e+00 -6.633742e+00 -3.174483e+00 -9.290966e+00 -4.755181e+00 -2.873698e+00 -6.021670e+00 7.355110e+01 -3.047242e-02 8.984454e-02 -6.614426e-02 -5.853913e-02 -7.873850e-02 1.203834e-01 6.483170e-02 2.304091e-02 7.377497e-03 -5.927699e-02 -4.992329e-03 1.305176e-02 -1.953222e-01 1.059170e-03 -1.913326e-03 -9.025134e-04 -1.048170e-03 -4.026618e-03 -1.941878e-03 3.214238e-03 3.138297e-03 3.472664e-04 2.357696e-03 -2.417208e-03 -7.620471e-05 2.677084e-03
<VARIANCE> 39
 3.003436e+01 3.670066e+01 4.305960e+01 3.850312e+01 4.967716e+01 5.777980e+01 4.868795e+01 3.420911e+01 3.912430e+01 4.699068e+01 3.173660e+01 2.294605e+01 9.864148e+01 1.627203e+00 1.968385e+00 1.786549e+00 1.943041e+00 2.121095e+00 2.475437e+00 2.228030e+00 2.127034e+00 2.798414e+00 1.847198e+00 1.765628e+00 1.686310e+00 2.143426e+00 2.898892e-01 3.485698e-01 3.101742e-01 3.074922e-01 3.612507e-01 4.326601e-01 4.049628e-01 3.984850e-01 4.967538e-01 3.448959e-01 3.198745e-01 3.172761e-01 3.158023e-01
<GCONST> 1.157668e+02
<STATE> 4
<MEAN> 39
 -1.301487e+01 2.733868e+00 -4.631380e-01 -2.425727e+00 -2.265062e-01 -5.310253e+00 -6.323541e+00 -2.929595e+00 -9.262113e+00 -5.173776e+00 -3.044652e+00 -6.059715e+00 7.266667e+01 -1.908540e-02 7.530273e-02 -6.890624e-02 -6.330588e-02 -9.091542e-02 1.023732e-01 7.542304e-02 3.538089e-02 9.656898e-03 -4.499082e-02 -1.402342e-02 1.400844e-02 -1.677402e-01 3.820249e-04 -2.161770e-03 7.238252e-04 -1.134876e-03 -2.343792e-03 -2.830463e-03 1.094292e-03 1.241499e-03 1.365137e-03 1.997627e-03 -1.691000e-03 4.078284e-04 3.690725e-03
<VARIANCE> 39
 3.082906e+01 3.394679e+01 4.129999e+01 3.688763e+01 4.991861e+01 5.128517e+01 4.675795e+01 3.318682e+01 3.647495e+01 4.383657e+01 3.042820e+01 2.209295e+01 9.634055e+01 1.590399e+00 1.920952e+00 1.696262e+00 1.839489e+00 2.055863e+00 2.368136e+00 2.191367e+00 2.098495e+00 2.667952e+00 1.806728e+00 1.729819e+00 1.593978e+00 2.247694e+00 2.811150e-01 3.362703e-01 3.015780e-01 2.985356e-01 3.522719e-01 4.217533e-01 4.019281e-01 3.935684e-01 4.793957e-01 3.377295e-01 3.123838e-01 3.005230e-01 3.263716e-01
<GCONST> 1.145467e+02
<TRANSP> 5
 0.000000e+00 1.000000e+00 0.000000e+00 0.000000e+00 0.000000e+00
 0.000000e+00 7.464223e-01 2.535777e-01 0.000000e+00 0.000000e+00
 0.000000e+00 0.000000e+00 7.464226e-01 2.535774e-01 0.000000e+00
 0.000000e+00 0.000000e+00 0.000000e+00 8.705330e-01 1.294670e-01
 0.000000e+00 0.000000e+00 0.000000e+00 0.000000e+00 0.000000e+00
<ENDHMM>
~h "i"
<BEGINHMM>
<NUMSTATES> 5
<STATE> 2
<MEAN> 39
 -1.144777e+01 2.613272e+00 -2.793030e-01 -2.453078e+00 4.491389e-02 -7.116889e+00 -6.310089e+00 -3.145320e+00 -1.024338e+01 -4.481960e+00 -2.504456e+00 -5.837957e+00 7.506609e+01 -4.403923e-02 6.256135e-02 -7.106645e-02 -6.825219e-02 -1.025264e-01 9.311938e-02 7.967824e-02 3.659243e-02 3.264165e-02 -2.990303e-02 -3.092464e-02 2.625003e-02 -1.580137e-01 1.107087e-03 -5.191500e-04 -3.149436e-04 -8.827465e-04 -8.177908e-04 -2.907458e-03 -1.628048e-03 -4.258549e-04 7.010011e-04 2.282260e-03 5.526557e-04 4.995679e-04 1.959919e-03
<VARIANCE> 39
 3.443427e+01 3.811026e+01 4.731536e+01 5.287025e+01 5.967708e+01 6.601498e+01 5.086017e+01 4.248106e+01 5.033502e+01 4.356138e+01 3.084770e+01 2.541559e+01 9.294779e+01 1.507553e+00 2.129403e+00 2.250800e+00 2.950163e+00 2.543497e+00 3.687333e+00 2.603738e+00 2.346443e+00 3.060331e+00 2.130787e+00 1.957814e+00 1.838080e+00 2.785930e+00 2.646674e-01 3.425982e-01 3.790664e-01 4.978864e-01 4.185849e-01 6.382359e-01 4.763573e-01 4.445595e-01 5.663096e-01 4.153832e-01 3.503779e-01 3.436550e-01 3.825748e-01
<GCONST> 1.213507e+02
<STATE> 3
<MEAN> 39
 -1.159304e+01 2.854510e+00 -5.751980e-01 -2.717837e+00 -3.481472e-01 -6.766433e+00 -6.009570e+00 -3.012268e+00 -1.011006e+01 -4.579377e+00 -2.614766e+00 -5.727857e+00 7.446550e+01 -4.039640e-02 5.946880e-02 -7.022113e-02 -6.828875e-02 -1.013128e-01 8.099120e-02 7.169994e-02 3.384705e-02 3.548518e-02 -2.093809e-02 -2.777800e-02 2.791287e-02 -1.493388e-01 1.014261e-03 -1.441926e-03 8.411014e-04 1.106553e-03 1.525697e-03 -3.516127e-03 -2.706454e-03 -1.046384e-03 1.181710e-03 2.625207e-03 1.230402e-03 5.614585e-04 2.960445e-03
<VARIANCE> 39
 3.462373e+01 3.624433e+01 4.445014e+01 4.979467e+01 5.741391e+01 6.367014e+01 4.945814e+01 4.145139e+01 4.879036e+01 4.153971e+01 2.978296e+01 2.438398e+01 9.393232e+01 1.476665e+00 2.051082e+00 2.155032e+00 2.860694e+00 2.452785e+00 3.524645e+00 2.533961e+00 2.286381e+00 2.908049e+00 2.067250e+00 1.921674e+00 1.767630e+00 2.699727e+00 2.609973e-01 3.324318e-01 3.644639e-01 4.894089e-01 4.072168e-01 6.112432e-01 4.651111e-01 4.312774e-01 5.396401e-01 4.045269e-01 3.442834e-01 3.293188e-01 3.693526e-01
<GCONST> 1.200785e+02
<STATE> 4
<MEAN> 39
 -1.165989e+01 3.099166e+00 -9.235338e-01 -3.042033e+00 -8.757609e-01 -6.395791e+00 -5.784503e+00 -2.781248e+00 -9.808262e+00 -4.642661e+00 -2.744179e+00 -5.590014e+00 7.375566e+01 -3.316814e-02 5.065976e-02 -6.583754e-02 -5.568698e-02 -8.361016e-02 6.393532e-02 5.592979e-02 2.545329e-02 3.949577e-02 -7.088092e-03 -1.852227e-02 2.936063e-02 -1.321277e-01 3.502489e-04 -2.254625e-03 1.800490e-03 2.658653e-03 3.282349e-03 -3.251135e-03 -3.266774e-03 -1.193546e-03 1.442987e-03 2.586741e-03 1.862210e-03 3.294240e-04 3.315354e-03
<VARIANCE> 39
 3.514063e+01 3.382963e+01 4.116581e+01 4.523372e+01 5.453802e+01 6.063246e+01 4.841630e+01 4.121789e+01 4.689062e+01 4.005654e+01 2.883935e+01 2.332709e+01 9.399473e+01 1.378754e+00 1.920177e+00 1.992023e+00 2.586703e+00 2.302172e+00 3.219364e+00 2.429204e+00 2.175806e+00 2.701682e+00 1.938954e+00 1.888136e+00 1.666299e+00 2.479475e+00 2.419629e-01 3.134333e-01 3.340344e-01 4.464858e-01 3.854232e-01 5.538961e-01 4.443900e-01 4.064981e-01 5.020252e-01 3.787978e-01 3.375632e-01 3.083046e-01 3.321482e-01
<GCONST> 1.178118e+02
<TRANSP> 5
 0.000000e+00 1.000000e+00 0.000000e+00 0.000000e+00 0.000000e+00
 0.000000e+00 7.452466e-01 2.547534e-01 0.000000e+00 0.000000e+00
 0.000000e+00 0.000000e+00 7.452468e-01 2.547532e-01 0.000000e+00
 0.000000e+00 0.000000e+00 0.000000e+00 8.701286e-01 1.298714e-01
 0.000000e+00 0.000000e+00 0.000000e+00 0.000000e+00 0.000000e+00
<ENDHMM>
~h "j"
<BEGINHMM>
<NUMSTATES> 5
<STATE> 2
<MEAN> 39
 -1.080387e+01 3.257587e+00 -9.092202e-01 -3.328621e+00 4.284675e-01 -4.491756e+00 -4.205628e+00 -2.402303e+00 -9.669703e+00 -5.624556e+00 -4.359713e+00 -6.264127e+00 7.466101e+01 -4.313027e-02 3.984571e-03 8.150724e-02 3.129951e-02 3.979454e-02 1.440093e-02 -6.146847e-02 -1.924840e-02 1.183804e-03 -3.160656e-02 -7.256420e-03 -8.021930e-03 -1.232331e-02 2.655546e-04 -2.270144e-04 7.929872e-04 1.944442e-04 3.041729e-05 -2.756678e-04 -1.076764e-03 -3.403634e-04 -4.581707e-04 -2.646386e-04 3.697518e-04 1.814979e-04 6.456376e-04
<VARIANCE> 39
 4.341742e+01 2.871368e+01 4.120289e+01 3.495695e+01 6.396208e+01 4.054255e+01 6.500974e+01 4.454683e+01 5.155388e+01 5.185358e+01 3.633112e+01 2.438241e+01 8.646722e+01 2.002038e+00 2.153551e+00 1.881312e+00 1.895288e+00 2.346147e+00 2.160528e+00 2.852405e+00 2.233751e+00 2.979694e+00 2.170929e+00 2.297960e+00 1.738843e+00 2.405117e+00 3.534363e-01 4.090301e-01 3.227053e-01 3.298077e-01 4.006729e-01 3.777124e-01 5.017388e-01 3.935482e-01 5.178036e-01 4.110755e-01 4.124418e-01 3.037880e-01 3.649927e-01
<GCONST> 1.190677e+02
<STATE> 3
<MEAN> 39
 -1.097805e+01 3.271402e+00 -5.754031e-01 -3.198207e+00 5.953102e-01 -4.432894e+00 -4.459421e+00 -2.485030e+00 -9.679571e+00 -5.756849e+00 -4.383492e+00 -6.298320e+00 7.461422e+01 -4.139499e-02 3.125876e-03 8.411884e-02 3.191072e-02 3.978052e-02 1.302408e-02 -6.544528e-02 -2.048413e-02 -9.977057e-04 -3.253825e-02 -5.815740e-03 -7.524922e-03 -9.359824e-03 6.181299e-04 -1.748668e-04 4.434177e-04 8.730090e-05 -1.405777e-04 -4.230220e-04 -7.523954e-04 -2.841128e-04 -5.937467e-04 -1.681792e-04 2.918477e-04 1.339987e-04 8.140816e-04
<VARIANCE> 39
 4.386295e+01 2.952505e+01 4.247096e+01 3.542827e+01 6.423557e+01 4.007887e+01 6.536821e+01 4.404237e+01 5.182154e+01 5.279187e+01 3.582417e+01 2.458469e+01 8.581741e+01 2.136247e+00 2.260084e+00 1.938064e+00 1.947808e+00 2.369194e+00 2.175084e+00 2.921461e+00 2.310320e+00 3.068565e+00 2.236528e+00 2.255559e+00 1.747816e+00 2.496486e+00 3.801678e-01 4.334315e-01 3.390757e-01 3.394465e-01 4.044335e-01 3.816189e-01 5.188288e-01 4.089155e-01 5.317571e-01 4.241436e-01 4.086387e-01 3.061332e-01 3.858030e-01
<GCONST> 1.198858e+02
<STATE> 4
<MEAN> 39
 -1.119432e+01 3.248941e+00 -1.264092e-01 -3.032119e+00 7.410524e-01 -4.361578e+00 -5.012877e+00 -2.600987e+00 -9.648265e+00 -5.925116e+00 -4.440111e+00 -6.403022e+00 7.447636e+01 -3.594514e-02 2.017328e-03 8.259777e-02 3.175389e-02 3.943666e-02 1.080477e-02 -6.672449e-02 -2.168334e-02 -8.294151e-03 -3.304100e-02 -3.138693e-03 -8.151809e-03 -4.452894e-03 1.058518e-03 -6.560858e-05 -1.503834e-04 -1.212598e-04 -4.112316e-04 -5.522043e-04 -2.504298e-04 -1.127819e-04 -6.666783e-04 -5.431939e-07 1.805484e-04 5.711429e-05 9.094236e-04
<VARIANCE> 39
 4.482453e+01 3.069502e+01 4.322957e+01 3.595867e+01 6.535538e+01 3.969760e+01 6.488631e+01 4.369631e+01 5.246104e+01 5.534328e+01 3.524860e+01 2.524986e+01 8.494682e+01 2.326617e+00 2.380971e+00 1.978117e+00 2.003567e+00 2.404281e+00 2.178600e+00 3.009415e+00 2.392943e+00 3.163053e+00 2.329104e+00 2.216323e+00 1.770870e+00 2.583959e+00 4.159062e-01 4.602306e-01 3.555954e-01 3.500621e-01 4.091129e-01 3.825030e-01 5.404062e-01 4.269095e-01 5.428914e-01 4.407114e-01 4.054159e-01 3.090709e-01 4.077136e-01
<GCONST> 1.208410e+02
<TRANSP> 5
 0.000000e+00 1.000000e+00 0.000000e+00 0.000000e+00 0.000000e+00
 0.000000e+00 7.565918e-01 2.434081e-01 0.000000e+00 0.000000e+00
 0.000000e+00 0.000000e+00 7.565917e-01 2.434083e-01 0.000000e+00
 0.000000e+00 0.000000e+00 0.000000e+00 8.834658e-01 1.165342e-01
 0.000000e+00 0.000000e+00 0.000000e+00 0.000000e+00 0.000000e+00
<ENDHMM>
~h "k"
<BEGINHMM>
<NUMSTATES> 5
<STATE> 2
<MEAN> 39
 -1.142622e+01 2.667809e-01 -1.911747e-02 -4.594357e+00 1.096493e+00 -9.883188e+00 -6.984367e+00 -5.212622e+00 -1.252088e+01 -2.604438e+00 -1.727417e+00 -5.171558e+00 8.146967e+01 -1.186830e-03 4.698748e-02 5.334614e-03 3.763943e-02 -4.661735e-03 5.008723e-02 -2.437331e-02 -1.055962e-03 5.643479e-02 1.843232e-02 1.821978e-02 4.348184e-02 -1.049116e-01 2.233337e-04 -3.427353e-04 -7.542912e-03 -2.381938e-03 -2.086677e-03 7.534120e-03 4.647617e-03 4.908479e-04 3.872163e-03 1.940257e-03 4.145090e-03 2.242551e-03 -8.130719e-03
<VARIANCE> 39
 5.843201e+01 4.444662e+01 5.781634e+01 6.855685e+01 5.689763e+01 7.202168e+01 5.368267e+01 4.553254e+01 6.302675e+01 5.295087e+01 3.471579e+01 2.774639e+01 6.134907e+01 4.727545e+00 3.140764e+00 3.825438e+00 4.521044e+00 3.339311e+00 5.146677e+00 3.317025e+00 2.919532e+00 4.526026e+00 2.862284e+00 2.340936e+00 2.157034e+00 3.841903e+00 8.338180e-01 5.948796e-01 6.389354e-01 8.112716e-01 5.835340e-01 8.780440e-01 6.259693e-01 5.390943e-01 8.190666e-01 5.587990e-01 4.327878e-01 3.736108e-01 5.993685e-01
<GCONST> 1.330047e+02
<STATE> 3
<MEAN> 39
 -1.142184e+01 4.517543e-01 -3.087187e-02 -4.469765e+00 1.058398e+00 -9.657998e+00 -7.032614e+00 -5.191994e+00 -1.229410e+01 -2.537905e+00 -1.654931e+00 -5.020071e+00 8.102997e+01 -2.233588e-03 4.619850e-02 -2.126384e-02 2.874652e-02 -1.381866e-02 7.828619e-02 -4.349689e-03 3.547666e-03 6.999587e-02 2.269079e-02 3.090024e-02 4.820798e-02 -1.364506e-01 -7.351712e-04 -2.702659e-04 -7.263170e-03 -2.512090e-03 -3.061637e-03 8.168381e-03 6.716250e-03 2.135644e-03 3.162229e-03 4.569012e-04 2.820899e-03 6.694203e-04 -8.971717e-03
<VARIANCE> 39
 5.523718e+01 4.396940e+01 5.511326e+01 6.535501e+01 5.521255e+01 7.282675e+01 5.417297e+01 4.592416e+01 6.036980e+01 5.173021e+01 3.539838e+01 2.798367e+01 6.349210e+01 4.543154e+00 3.063130e+00 3.716688e+00 4.164502e+00 3.166484e+00 4.896141e+00 3.190637e+00 2.912008e+00 4.286551e+00 2.750981e+00 2.308001e+00 2.105460e+00 3.589561e+00 7.951105e-01 5.798507e-01 6.172089e-01 7.482710e-01 5.566372e-01 8.251796e-01 5.992429e-01 5.361705e-01 7.821300e-01 5.348026e-01 4.257602e-01 3.611286e-01 5.496122e-01
<GCONST> 1.317420e+02
<STATE> 4
<MEAN> 39
 -1.132479e+01 7.436564e-01 -1.797704e-01 -4.671913e+00 6.850975e-01 -9.229509e+00 -6.884070e+00 -5.018507e+00 -1.198272e+01 -2.431975e+00 -1.561928e+00 -4.881830e+00 8.035233e+01 -6.495581e-03 5.452706e-02 -4.463015e-02 1.819281e-02 -3.484082e-02 1.097963e-01 2.917396e-02 2.281068e-02 7.948599e-02 1.113732e-02 2.832500e-02 3.527160e-02 -1.815308e-01 -2.047072e-03 1.083471e-03 -5.266345e-03 -2.323881e-03 -4.480801e-03 7.151661e-03 6.860250e-03 3.524128e-03 1.568262e-03 -2.019574e-03 -1.911198e-04 -1.696325e-03 -9.707079e-03
<VARIANCE> 39
 5.295917e+01 4.254591e+01 5.226369e+01 6.159087e+01 5.533258e+01 7.256228e+01 5.368572e+01 4.842831e+01 5.610728e+01 5.126193e+01 3.704576e+01 2.886289e+01 6.844273e+01 4.333421e+00 2.862704e+00 3.582132e+00 3.581885e+00 2.896143e+00 4.482303e+00 2.940685e+00 2.895017e+00 3.912839e+00 2.564198e+00 2.218919e+00 2.010574e+00 3.212633e+00 7.401358e-01 5.387725e-01 5.835081e-01 6.456554e-01 5.117401e-01 7.403318e-01 5.460517e-01 5.327514e-01 7.254788e-01 4.946408e-01 4.073229e-01 3.368858e-01 4.769374e-01
<GCONST> 1.296914e+02
<TRANSP> 5
 0.000000e+00 1.000000e+00 0.000000e+00 0.000000e+00 0.000000e+00
 0.000000e+00 7.323735e-01 2.676265e-01 0.000000e+00 0.000000e+00
 0.000000e+00 0.000000e+00 7.323734e-01 2.676266e-01 0.000000e+00
 0.000000e+00 0.000000e+00 0.000000e+00 8.555711e-01 1.444289e-01
 0.000000e+00 0.000000e+00 0.000000e+00 0.000000e+00 0.000000e+00
<ENDHMM>
~h "l"
<BEGINHMM>
<NUMSTATES> 5
<STATE> 2
<MEAN> 39
 -1.515661e+01 3.354826e+00 -1.761012e+00 -5.632509e+00 -2.805889e+00 -4.502403e+00 -5.655199e+00 -3.056676e+00 -9.127182e+00 -5.024568e+00 -3.362138e+00 -5.358120e+00 6.998777e+01 -5.463704e-02 -6.929307e-02 7.316253e-02 -3.132062e-02 -1.270513e-02 -2.702930e-02 2.577848e-02 -1.480414e-02 2.441194e-05 7.183725e-02 5.886845e-03 5.484884e-03 1.037020e-01 -1.766855e-03 -5.736488e-03 5.322424e-03 -6.287878e-03 2.167867e-04 -2.659127e-03 7.781421e-04 -7.094296e-05 1.363993e-03 -2.292381e-05 3.945072e-03 2.312776e-03 1.403152e-02
<VARIANCE> 39
 4.781653e+01 2.781389e+01 3.392843e+01 2.825483e+01 3.690368e+01 3.750092e+01 3.369944e+01 2.810882e+01 4.016099e+01 3.234586e+01 2.575826e+01 1.835600e+01 8.031067e+01 1.482236e+00 1.597320e+00 1.748124e+00 1.642614e+00 1.708196e+00 2.125105e+00 1.888663e+00 1.819161e+00 2.184140e+00 1.614018e+00 1.518116e+00 1.203846e+00 1.583309e+00 2.343611e-01 2.813206e-01 2.992159e-01 2.981103e-01 3.108836e-01 3.863809e-01 3.634019e-01 3.512187e-01 4.096489e-01 3.106286e-01 2.892214e-01 2.277143e-01 2.201737e-01
<GCONST> 1.086895e+02
<STATE> 3
<MEAN> 39
 -1.535176e+01 3.058576e+00 -1.465516e+00 -5.800120e+00 -2.844964e+00 -4.636706e+00 -5.560970e+00 -3.117122e+00 -9.132605e+00 -4.757958e+00 -3.312373e+00 -5.324128e+00 7.049802e+01 -5.088326e-02 -8.754349e-02 8.263828e-02 -5.011167e-02 -1.045890e-02 -3.900839e-02 2.679347e-02 -1.548211e-02 -2.506044e-03 7.319412e-02 1.990321e-02 1.167497e-02 1.560978e-01 1.864953e-03 -4.557060e-03 1.650655e-03 -4.748220e-03 4.771312e-04 -3.195288e-03 2.265521e-04 -5.367683e-04 -1.486562e-03 4.326818e-04 3.918334e-03 1.583566e-03 1.385155e-02
<VARIANCE> 39
 5.248258e+01 3.022036e+01 3.732134e+01 3.016973e+01 3.766586e+01 3.945319e+01 3.515939e+01 2.896079e+01 4.006721e+01 3.271872e+01 2.629708e+01 1.866264e+01 8.508457e+01 1.690147e+00 1.722035e+00 1.913000e+00 1.736870e+00 1.786796e+00 2.242012e+00 1.970293e+00 1.889691e+00 2.256547e+00 1.648556e+00 1.573621e+00 1.243869e+00 1.715025e+00 2.595825e-01 3.054843e-01 3.196894e-01 3.138889e-01 3.260415e-01 4.061857e-01 3.794964e-01 3.642077e-01 4.245581e-01 3.165873e-01 2.985511e-01 2.345142e-01 2.327188e-01
<GCONST> 1.106586e+02
<STATE> 4
<MEAN> 39
 -1.525827e+01 2.529382e+00 -1.146381e+00 -6.075316e+00 -2.872413e+00 -5.061406e+00 -5.487707e+00 -3.176189e+00 -9.229946e+00 -4.292384e+00 -3.098123e+00 -5.253398e+00 7.171011e+01 -9.245709e-03 -9.704644e-02 6.268713e-02 -5.979978e-02 -5.263390e-03 -6.328502e-02 2.034585e-02 -1.789001e-02 -1.925149e-02 6.929225e-02 3.604628e-02 1.569007e-02 2.148894e-01 6.974388e-03 -1.945781e-03 -3.266558e-03 -1.777537e-03 6.596836e-04 -4.176400e-03 -6.081008e-04 -6.407462e-04 -2.782179e-03 2.480402e-04 3.608264e-03 8.943619e-04 1.051264e-02
<VARIANCE> 39
 6.144862e+01 3.387960e+01 4.216206e+01 3.378472e+01 4.006097e+01 4.440012e+01 3.780284e+01 3.170795e+01 4.115121e+01 3.483980e+01 2.717108e+01 1.932945e+01 9.514147e+01 2.108104e+00 1.897429e+00 2.151359e+00 1.894751e+00 1.955342e+00 2.420664e+00 2.118335e+00 2.009286e+00 2.420953e+00 1.732868e+00 1.696678e+00 1.327151e+00 1.941972e+00 3.095730e-01 3.419136e-01 3.498405e-01 3.371521e-01 3.536039e-01 4.317069e-01 4.060636e-01 3.853341e-01 4.561158e-01 3.288110e-01 3.185242e-01 2.491181e-01 2.560252e-01
<GCONST> 1.140320e+02
<TRANSP> 5
 0.000000e+00 1.000000e+00 0.000000e+00 0.000000e+00 0.000000e+00
 0.000000e+00 7.412429e-01 2.587571e-01 0.000000e+00 0.000000e+00
 0.000000e+00 0.000000e+00 7.412432e-01 2.587567e-01 0.000000e+00
 0.000000e+00 0.000000e+00 0.000000e+00 8.658173e-01 1.341827e-01
 0.000000e+00 0.000000e+00 0.000000e+00 0.000000e+00 0.000000e+00
<ENDHMM>
~h "m"
<BEGINHMM>
<NUMSTATES> 5
<STATE> 2
<MEAN> 39
 -1.120606e+01 3.184694e+00 -1.974076e+00 -4.384009e+00 -6.453010e-01 -5.349268e+00 -4.683428e+00 -2.338709e+00 -9.539372e+00 -4.206127e+00 -2.429153e+00 -5.159574e+00 7.424187e+01 -6.391671e-02 3.776979e-02 -2.419098e-02 9.719254e-03 -3.131091e-02 7.103148e-02 -1.481512e-02 -3.740884e-02 5.252101e-03 -6.344846e-03 -2.958962e-03 -8.068255e-03 -1.451184e-01 1.419605e-03 2.326748e-03 1.608840e-03 -1.333221e-03 -2.622254e-03 -2.101822e-03 -4.868340e-04 1.554812e-03 -7.837649e-04 -1.708528e-03 -4.288689e-03 -2.321394e-03 -2.581838e-04
<VARIANCE> 39
 3.896662e+01 3.080045e+01 3.801171e+01 3.964630e+01 5.422667e+01 5.617791e+01 5.430925e+01 4.060208e+01 4.443761e+01 3.895695e+01 3.583630e+01 2.446687e+01 8.982199e+01 1.142437e+00 1.645634e+00 1.723228e+00 1.900613e+00 1.967565e+00 2.633551e+00 2.206795e+00 1.866585e+00 2.376388e+00 1.622584e+00 1.986041e+00 1.476683e+00 1.684743e+00 1.642199e-01 2.611279e-01 2.698942e-01 3.109537e-01 3.279546e-01 4.264039e-01 3.827245e-01 3.436843e-01 4.212473e-01 3.017169e-01 3.398387e-01 2.688548e-01 1.996261e-01
<GCONST> 1.126720e+02
<STATE> 3
<MEAN> 39
 -1.143215e+01 3.333209e+00 -2.056464e+00 -4.351429e+00 -7.697197e-01 -5.106644e+00 -4.747309e+00 -2.471645e+00 -9.524162e+00 -4.242118e+00 -2.462868e+00 -5.204238e+00 7.371476e+01 -5.768333e-02 4.515335e-02 -1.835800e-02 5.087488e-03 -4.008659e-02 6.172934e-02 -1.659329e-02 -3.074135e-02 3.544864e-03 -1.268457e-02 -1.784568e-02 -1.553825e-02 -1.430227e-01 1.621893e-03 1.353554e-03 1.670334e-03 -1.011815e-03 -2.048965e-03 -3.166541e-03 -1.022957e-03 1.931174e-03 1.510605e-06 -2.101074e-03 -3.783577e-03 -1.462656e-03 1.674865e-03
<VARIANCE> 39
 3.855497e+01 3.039135e+01 3.623172e+01 3.819170e+01 5.331921e+01 5.455201e+01 5.257378e+01 3.923670e+01 4.312428e+01 3.858703e+01 3.492401e+01 2.350897e+01 8.985965e+01 1.104717e+00 1.591668e+00 1.661773e+00 1.837584e+00 1.908895e+00 2.518121e+00 2.161818e+00 1.804855e+00 2.325500e+00 1.589427e+00 1.942173e+00 1.437960e+00 1.628458e+00 1.590441e-01 2.523582e-01 2.618193e-01 3.010518e-01 3.182339e-01 4.107386e-01 3.753049e-01 3.343331e-01 4.135416e-01 2.963718e-01 3.340057e-01 2.632201e-01 1.933286e-01
<GCONST> 1.116029e+02
<STATE> 4
<MEAN> 39
 -1.158402e+01 3.461029e+00 -2.115783e+00 -4.348914e+00 -1.009663e+00 -4.970634e+00 -4.979514e+00 -2.539764e+00 -9.431561e+00 -4.312503e+00 -2.588171e+00 -5.314526e+00 7.316379e+01 -4.320490e-02 4.394529e-02 -1.142849e-02 1.181921e-03 -4.198743e-02 4.053513e-02 -1.951206e-02 -1.953829e-02 4.901906e-03 -2.091095e-02 -2.911933e-02 -1.828244e-02 -1.164258e-01 1.547256e-03 -5.295213e-05 1.120510e-03 -8.695300e-04 -1.131327e-03 -3.336819e-03 -1.144125e-03 1.764407e-03 7.000467e-04 -2.199295e-03 -2.050478e-03 -4.564250e-04 3.251231e-03
<VARIANCE> 39
 3.910285e+01 2.993573e+01 3.424895e+01 3.706409e+01 5.308303e+01 5.220104e+01 5.108982e+01 3.898510e+01 4.299204e+01 3.998003e+01 3.409620e+01 2.267861e+01 9.038284e+01 1.094317e+00 1.545734e+00 1.594529e+00 1.782918e+00 1.867410e+00 2.385604e+00 2.132742e+00 1.760766e+00 2.322259e+00 1.582432e+00 1.936478e+00 1.420780e+00 1.599790e+00 1.582332e-01 2.445244e-01 2.531075e-01 2.907669e-01 3.098654e-01 3.948843e-01 3.713117e-01 3.273284e-01 4.133124e-01 2.963595e-01 3.365292e-01 2.617216e-01 1.926539e-01
<GCONST> 1.109419e+02
<TRANSP> 5
 0.000000e+00 1.000000e+00 0.000000e+00 0.000000e+00 0.000000e+00
 0.000000e+00 7.471228e-01 2.528772e-01 0.000000e+00 0.000000e+00
 0.000000e+00 0.000000e+00 7.471219e-01 2.528781e-01 0.000000e+00
 0.000000e+00 0.000000e+00 0.000000e+00 8.725747e-01 1.274253e-01
 0.000000e+00 0.000000e+00 0.000000e+00 0.000000e+00 0.000000e+00
<ENDHMM>
~h "n"
<BEGINHMM>
<NUMSTATES> 5
<STATE> 2
<MEAN> 39
 -9.401582e+00 3.772776e+00 -2.201317e+00 -5.202493e+00 -3.152976e+00 -7.152495e+00 -4.231375e+00 -1.063790e-01 -7.425501e+00 -3.679908e+00 -2.274767e+00 -5.099995e+00 7.467142e+01 -4.937118e-02 1.185616e-02 -2.092876e-03 1.314548e-04 -6.614184e-03 2.481002e-02 1.969796e-02 1.113589e-02 7.603858e-03 1.087031e-02 1.104438e-02 1.910539e-03 -6.180934e-02 -3.510322e-03 5.812222e-04 5.394492e-04 1.590104e-03 2.116596e-03 2.737670e-03 -1.904221e-03 -3.660335e-03 -1.853065e-03 -4.048132e-04 -2.749234e-04 3.236358e-04 -3.545825e-03
<VARIANCE> 39
 4.787499e+01 2.645202e+01 3.079520e+01 3.439359e+01 6.256692e+01 6.899557e+01 5.516921e+01 5.400934e+01 4.998920e+01 3.739308e+01 2.894301e+01 2.189175e+01 8.765710e+01 1.205845e+00 1.375786e+00 1.425801e+00 1.660172e+00 1.868269e+00 2.307941e+00 1.994053e+00 1.975639e+00 2.096199e+00 1.539050e+00 1.930028e+00 1.372526e+00 1.796254e+00 1.587054e-01 2.128308e-01 2.292539e-01 2.709028e-01 2.937321e-01 3.572071e-01 3.355592e-01 3.345916e-01 3.726858e-01 2.812839e-01 3.453722e-01 2.512573e-01 1.850563e-01
<GCONST> 1.105507e+02
<STATE> 3
<MEAN> 39
 -9.619963e+00 3.826036e+00 -2.204429e+00 -5.194174e+00 -3.168432e+00 -7.037179e+00 -4.153644e+00 -7.697296e-02 -7.401798e+00 -3.633404e+00 -2.229535e+00 -5.092047e+00 7.440083e+01 -6.372885e-02 1.400933e-02 3.086680e-04 6.639377e-03 2.048243e-03 3.581251e-02 1.201814e-02 -3.753754e-03 -2.854742e-04 8.713004e-03 9.474335e-03 3.110962e-03 -7.597721e-02 -3.205333e-03 3.561135e-04 7.142738e-04 1.368238e-03 2.022937e-03 2.624704e-03 -2.192543e-03 -3.776592e-03 -1.603425e-03 -5.194501e-04 -5.437420e-04 1.905424e-04 -3.156462e-03
<VARIANCE> 39
 4.882517e+01 2.649435e+01 3.103268e+01 3.398806e+01 6.152084e+01 6.853783e+01 5.427470e+01 5.315312e+01 4.884292e+01 3.684249e+01 2.822913e+01 2.146066e+01 8.789714e+01 1.203141e+00 1.369762e+00 1.433799e+00 1.641208e+00 1.830269e+00 2.269590e+00 1.959862e+00 1.941312e+00 2.045019e+00 1.522900e+00 1.891572e+00 1.355957e+00 1.730322e+00 1.567702e-01 2.119775e-01 2.301176e-01 2.669805e-01 2.888179e-01 3.507702e-01 3.285252e-01 3.290210e-01 3.621221e-01 2.780886e-01 3.389682e-01 2.488561e-01 1.800791e-01
<GCONST> 1.100463e+02
<STATE> 4
<MEAN> 39
 -9.908055e+00 3.868267e+00 -2.198683e+00 -5.159688e+00 -3.150648e+00 -6.857259e+00 -4.316213e+00 -1.270690e-01 -7.291592e+00 -3.574804e+00 -2.223314e+00 -5.111140e+00 7.394690e+01 -7.887976e-02 1.565231e-02 4.716574e-03 1.357684e-02 1.238603e-02 4.755776e-02 4.240767e-03 -2.089317e-02 -9.388713e-03 5.771206e-03 6.196016e-03 3.375078e-03 -8.977990e-02 -2.582199e-03 -7.715425e-07 7.571397e-04 1.069767e-03 1.831374e-03 2.091302e-03 -2.259777e-03 -3.403645e-03 -1.392715e-03 -7.477362e-04 -7.953269e-04 2.328926e-05 -2.301428e-03
<VARIANCE> 39
 5.014935e+01 2.673316e+01 3.055221e+01 3.368220e+01 5.996498e+01 6.645849e+01 5.172321e+01 5.177583e+01 4.754013e+01 3.705550e+01 2.785424e+01 2.112181e+01 8.806804e+01 1.201670e+00 1.363638e+00 1.414769e+00 1.619268e+00 1.782874e+00 2.209232e+00 1.910459e+00 1.865476e+00 1.978557e+00 1.497165e+00 1.878459e+00 1.347068e+00 1.626346e+00 1.551798e-01 2.106874e-01 2.276077e-01 2.617864e-01 2.820249e-01 3.412681e-01 3.199909e-01 3.169680e-01 3.475856e-01 2.721777e-01 3.369330e-01 2.480818e-01 1.714010e-01
<GCONST> 1.093185e+02
<TRANSP> 5
 0.000000e+00 1.000000e+00 0.000000e+00 0.000000e+00 0.000000e+00
 0.000000e+00 7.564839e-01 2.435162e-01 0.000000e+00 0.000000e+00
 0.000000e+00 0.000000e+00 7.564837e-01 2.435163e-01 0.000000e+00
 0.000000e+00 0.000000e+00 0.000000e+00 8.832560e-01 1.167440e-01
 0.000000e+00 0.000000e+00 0.000000e+00 0.000000e+00 0.000000e+00
<ENDHMM>
~h "o"
<BEGINHMM>
<NUMSTATES> 5
<STATE> 2
<MEAN> 39
 -1.239045e+01 5.627956e+00 -2.504352e+00 -4.626627e+00 -5.584150e+00 -6.006305e+00 -3.167681e+00 7.481103e-01 -6.001127e+00 -3.023579e+00 -1.774688e+00 -4.870339e+00 6.852589e+01 -2.136805e-01 2.494973e-02 -3.575993e-03 2.524718e-02 2.626288e-02 1.531249e-01 -5.229981e-02 -1.222932e-01 -4.171741e-02 -1.419055e-02 -1.051558e-02 2.206454e-02 -2.522627e-01 -1.996415e-04 -2.493379e-03 1.085920e-03 -9.264470e-04 3.040704e-03 -6.795110e-05 -4.281161e-03 -1.221639e-03 1.120204e-03 -1.494508e-03 -1.659907e-03 -9.889908e-04 1.610852e-03
<VARIANCE> 39
 4.092402e+01 1.168170e+01 1.511113e+01 1.708024e+01 2.885188e+01 5.955424e+01 3.193874e+01 3.446755e+01 2.804750e+01 1.683578e+01 1.286878e+01 1.308956e+01 6.283565e+01 4.456183e-01 5.316430e-01 7.953650e-01 7.729682e-01 1.052651e+00 1.411188e+00 1.145280e+00 1.356426e+00 1.108886e+00 1.003330e+00 8.949800e-01 8.424810e-01 6.052801e-01 5.631855e-02 9.275245e-02 1.376928e-01 1.376852e-01 1.777757e-01 1.979255e-01 1.949567e-01 2.297571e-01 1.993617e-01 1.831924e-01 1.717847e-01 1.642593e-01 6.159546e-02
<GCONST> 8.617198e+01
<STATE> 3
<MEAN> 39
 -1.327784e+01 5.719768e+00 -2.518187e+00 -4.525748e+00 -5.464584e+00 -5.382600e+00 -3.378794e+00 2.473958e-01 -6.185592e+00 -3.097837e+00 -1.826968e+00 -4.781393e+00 6.749915e+01 -2.122726e-01 1.370561e-02 -2.900900e-04 2.064250e-02 3.747427e-02 1.504225e-01 -6.890503e-02 -1.251136e-01 -3.654480e-02 -2.061841e-02 -1.704869e-02 1.733868e-02 -2.421583e-01 1.637024e-03 -3.379657e-03 -9.796367e-05 -1.132766e-03 2.624613e-03 -2.330854e-03 -2.811803e-03 1.341939e-03 1.079311e-03 -2.247022e-03 -1.312159e-03 -1.245853e-03 4.629816e-03
<VARIANCE> 39
 3.711099e+01 1.011101e+01 1.330418e+01 1.528669e+01 2.554413e+01 5.097042e+01 2.911530e+01 3.044509e+01 2.417226e+01 1.572912e+01 1.216880e+01 1.174501e+01 5.495813e+01 3.773458e-01 4.733420e-01 7.127751e-01 6.895381e-01 9.806399e-01 1.290429e+00 1.073338e+00 1.242048e+00 1.056708e+00 9.680720e-01 8.863474e-01 8.068668e-01 5.025428e-01 4.878715e-02 8.325407e-02 1.240204e-01 1.252567e-01 1.717961e-01 1.897579e-01 1.849799e-01 2.148799e-01 1.938343e-01 1.807854e-01 1.748994e-01 1.608077e-01 5.179545e-02
<GCONST> 8.267552e+01
<STATE> 4
<MEAN> 39
 -1.426756e+01 5.758309e+00 -2.524583e+00 -4.398639e+00 -5.221652e+00 -4.732325e+00 -3.771001e+00 -3.416328e-01 -6.343914e+00 -3.193931e+00 -1.943158e+00 -4.720210e+00 6.637164e+01 -2.030396e-01 -3.162843e-03 -2.374633e-03 1.319862e-02 4.528688e-02 1.354755e-01 -7.536783e-02 -1.161025e-01 -3.491312e-02 -3.358308e-02 -2.393338e-02 1.027491e-02 -2.140905e-01 3.520157e-03 -3.903948e-03 -8.132777e-04 -1.651980e-03 1.303622e-03 -4.059216e-03 -1.318679e-03 2.745974e-03 8.696584e-04 -2.929785e-03 -1.165866e-03 -1.408523e-03 7.593377e-03
<VARIANCE> 39
 3.202265e+01 8.604126e+00 1.141338e+01 1.359618e+01 2.171325e+01 4.125456e+01 2.466820e+01 2.540368e+01 2.055984e+01 1.469591e+01 1.157358e+01 1.038203e+01 4.412237e+01 3.175826e-01 4.149877e-01 6.249384e-01 6.216375e-01 8.959305e-01 1.168657e+00 1.006531e+00 1.118938e+00 1.001718e+00 9.269590e-01 8.738468e-01 7.797442e-01 3.947639e-01 4.248880e-02 7.383228e-02 1.102541e-01 1.148227e-01 1.625165e-01 1.818834e-01 1.771384e-01 1.989566e-01 1.877691e-01 1.766569e-01 1.767949e-01 1.589926e-01 4.137944e-02
<GCONST> 7.850742e+01
<TRANSP> 5
 0.000000e+00 1.000000e+00 0.000000e+00 0.000000e+00 0.000000e+00
 0.000000e+00 7.563607e-01 2.436393e-01 0.000000e+00 0.000000e+00
 0.000000e+00 0.000000e+00 7.563605e-01 2.436394e-01 0.000000e+00
 0.000000e+00 0.000000e+00 0.000000e+00 8.829862e-01 1.170138e-01
 0.000000e+00 0.000000e+00 0.000000e+00 0.000000e+00 0.000000e+00
<ENDHMM>
~h "p"
<BEGINHMM>
<NUMSTATES> 5
<STATE> 2
<MEAN> 39
 -9.872073e+00 2.315033e+00 -2.082421e+00 -4.800484e+00 -1.418450e+00 -8.173800e+00 -6.217608e+00 -3.313916e+00 -1.100414e+01 -3.830642e+00 -2.169388e+00 -5.628517e+00 7.780221e+01 3.547713e-02 4.323975e-02 1.328915e-03 3.743151e-02 -9.083725e-04 1.586067e-02 -1.142707e-02 1.505134e-02 1.920597e-02 -3.728371e-02 -1.641385e-02 -8.062623e-03 -5.857512e-02 -5.862075e-03 -2.051898e-03 5.079754e-03 1.463385e-03 1.738038e-03 1.706395e-03 -1.847301e-03 -4.672628e-04 1.943101e-03 -6.322731e-04 -1.004287e-03 2.968191e-04 -2.720919e-03
<VARIANCE> 39
 4.952288e+01 4.436684e+01 4.910448e+01 4.387706e+01 5.104325e+01 6.536257e+01 4.643002e+01 4.450500e+01 5.833190e+01 5.629082e+01 3.172656e+01 2.865974e+01 9.733712e+01 2.438048e+00 2.745494e+00 2.529882e+00 2.373812e+00 2.904216e+00 3.832246e+00 2.839463e+00 2.743217e+00 4.195515e+00 2.435492e+00 2.082944e+00 2.108803e+00 3.946626e+00 3.863985e-01 4.702459e-01 4.242700e-01 3.999407e-01 4.933263e-01 6.439475e-01 5.223492e-01 5.293640e-01 7.561629e-01 4.418009e-01 3.867202e-01 3.969432e-01 5.173452e-01
<GCONST> 1.260734e+02
<STATE> 3
<MEAN> 39
 -9.794172e+00 2.465525e+00 -2.017027e+00 -4.657414e+00 -1.418259e+00 -8.096549e+00 -6.262688e+00 -3.245662e+00 -1.091751e+01 -3.991735e+00 -2.245627e+00 -5.659291e+00 7.755181e+01 1.195490e-02 3.087322e-02 2.218590e-02 4.048231e-02 6.019374e-03 1.964134e-02 -1.704230e-02 1.480221e-02 2.612443e-02 -3.721980e-02 -1.902430e-02 -6.697322e-03 -6.204461e-02 -5.929440e-03 -3.213434e-03 4.830679e-03 -3.323758e-04 1.410443e-03 9.075238e-04 -6.279002e-04 5.364117e-04 1.805600e-03 4.013997e-04 -4.817413e-04 4.987897e-04 -3.295346e-04
<VARIANCE> 39
 4.634512e+01 4.415448e+01 4.964025e+01 4.493476e+01 5.244838e+01 6.413336e+01 4.694714e+01 4.541399e+01 5.805489e+01 5.484155e+01 3.134940e+01 2.816187e+01 9.507924e+01 2.385140e+00 2.800113e+00 2.516306e+00 2.394238e+00 2.952508e+00 3.882246e+00 2.856382e+00 2.757380e+00 4.240085e+00 2.434394e+00 2.066764e+00 2.107813e+00 4.092726e+00 3.897037e-01 4.780642e-01 4.267829e-01 4.060317e-01 5.005600e-01 6.518740e-01 5.269197e-01 5.307491e-01 7.650409e-01 4.466588e-01 3.828056e-01 3.984228e-01 5.417889e-01
<GCONST> 1.262188e+02
<STATE> 4
<MEAN> 39
 -9.847088e+00 2.633269e+00 -1.771449e+00 -4.496524e+00 -1.468247e+00 -7.943036e+00 -6.335803e+00 -2.979911e+00 -1.063104e+01 -4.224878e+00 -2.412133e+00 -5.703317e+00 7.704700e+01 -1.903290e-02 5.392290e-03 4.837281e-02 3.263658e-02 1.138853e-02 1.593286e-02 -1.373847e-02 2.398215e-02 3.274710e-02 -3.037580e-02 -1.983554e-02 -4.532869e-03 -4.908445e-02 -4.171364e-03 -3.424785e-03 2.532305e-03 -1.886415e-03 6.540893e-04 -2.511237e-04 1.207757e-03 1.792142e-03 1.500426e-03 1.785571e-03 -1.180719e-05 4.559323e-04 1.818042e-03
<VARIANCE> 39
 4.300428e+01 4.375680e+01 5.176182e+01 4.750956e+01 5.493328e+01 6.349197e+01 4.774195e+01 4.735098e+01 5.727095e+01 5.223909e+01 3.125163e+01 2.759907e+01 9.211106e+01 2.283176e+00 2.849282e+00 2.499076e+00 2.432580e+00 2.981953e+00 3.893054e+00 2.852084e+00 2.748013e+00 4.197373e+00 2.386087e+00 2.042848e+00 2.093310e+00 4.184092e+00 3.892095e-01 4.838316e-01 4.302006e-01 4.142458e-01 5.038360e-01 6.503824e-01 5.264207e-01 5.261537e-01 7.570055e-01 4.458730e-01 3.766463e-01 3.970820e-01 5.596778e-01
<GCONST> 1.262079e+02
<TRANSP> 5
 0.000000e+00 1.000000e+00 0.000000e+00 0.000000e+00 0.000000e+00
 0.000000e+00 7.503366e-01 2.496634e-01 0.000000e+00 0.000000e+00
 0.000000e+00 0.000000e+00 7.503364e-01 2.496636e-01 0.000000e+00
 0.000000e+00 0.000000e+00 0.000000e+00 8.753042e-01 1.246959e-01
 0.000000e+00 0.000000e+00 0.000000e+00 0.000000e+00 0.000000e+00
<ENDHMM>
~h "r"
<BEGINHMM>
<NUMSTATES> 5
<STATE> 2
<MEAN> 39
 -1.007370e+01 8.699145e-01 -2.594388e+00 -3.834614e+00 3.612697e-01 -9.809446e+00 -7.155396e+00 -4.257435e+00 -1.190362e+01 -2.606308e+00 -1.027645e+00 -5.641318e+00 7.990280e+01 -4.678350e-02 4.116863e-02 8.882280e-02 4.996667e-03 3.458329e-02 2.278114e-02 4.953034e-02 5.637231e-02 2.009536e-02 -8.697038e-02 -7.057472e-02 -4.614726e-02 -4.476985e-02 -2.141265e-03 8.847911e-04 3.465996e-03 9.483694e-04 -2.952190e-03 2.973538e-03 2.051429e-03 8.163952e-04 2.083593e-03 -1.274870e-03 -2.322773e-04 -5.002657e-04 -3.209325e-03
<VARIANCE> 39
 4.002884e+01 4.092460e+01 4.385852e+01 5.587357e+01 4.809356e+01 7.398486e+01 4.473496e+01 4.046293e+01 5.223517e+01 5.777062e+01 3.060661e+01 2.719726e+01 1.059453e+02 2.231568e+00 2.304643e+00 2.651428e+00 3.012431e+00 2.816701e+00 4.397375e+00 2.591206e+00 2.628264e+00 3.753729e+00 2.427720e+00 2.106835e+00 2.160483e+00 3.717590e+00 4.214648e-01 3.865716e-01 4.605921e-01 4.875437e-01 4.590316e-01 7.430802e-01 4.688334e-01 4.993857e-01 6.717033e-01 4.636471e-01 3.810144e-01 4.181713e-01 5.388107e-01
<GCONST> 1.256917e+02
<STATE> 3
<MEAN> 39
 -1.025561e+01 1.047412e+00 -2.240669e+00 -3.818496e+00 4.633362e-01 -9.688128e+00 -6.958149e+00 -4.039413e+00 -1.182365e+01 -2.956980e+00 -1.297334e+00 -5.815432e+00 7.967896e+01 -5.243975e-02 4.577838e-02 9.944865e-02 1.053674e-02 2.329175e-02 3.560036e-02 5.463465e-02 5.727043e-02 2.666507e-02 -9.188100e-02 -6.935104e-02 -4.559434e-02 -5.940841e-02 -1.165810e-03 1.072510e-03 2.405268e-03 1.545582e-03 -2.719615e-03 3.421787e-03 -3.219332e-04 -4.227045e-05 2.493401e-03 -1.163470e-03 1.879405e-03 1.014462e-03 -3.458035e-03
<VARIANCE> 39
 4.046474e+01 4.133580e+01 4.616005e+01 5.736929e+01 4.853203e+01 7.411033e+01 4.538839e+01 4.136260e+01 5.288707e+01 5.682518e+01 3.053867e+01 2.745794e+01 1.047489e+02 2.301128e+00 2.372922e+00 2.682105e+00 3.174492e+00 2.853426e+00 4.551389e+00 2.655684e+00 2.690803e+00 3.879410e+00 2.485753e+00 2.166392e+00 2.216102e+00 3.766981e+00 4.381815e-01 4.011997e-01 4.676540e-01 5.184874e-01 4.710675e-01 7.729763e-01 4.872795e-01 5.121658e-01 6.925540e-01 4.793009e-01 3.932176e-01 4.276378e-01 5.578541e-01
<GCONST> 1.266059e+02
<STATE> 4
<MEAN> 39
 -1.047182e+01 1.325038e+00 -1.618821e+00 -3.711266e+00 5.650043e-01 -9.523440e+00 -6.778987e+00 -3.712777e+00 -1.160782e+01 -3.397259e+00 -1.639277e+00 -6.106798e+00 7.940747e+01 -5.408256e-02 5.224086e-02 1.069070e-01 1.696061e-02 7.777235e-03 5.743410e-02 5.155673e-02 5.297756e-02 3.236228e-02 -1.009580e-01 -5.997832e-02 -3.505806e-02 -8.551829e-02 -6.076433e-04 -4.555648e-04 9.177503e-04 5.958996e-04 -2.009278e-03 2.742623e-03 -2.404934e-03 -1.435901e-03 2.444364e-03 -2.672866e-04 4.053865e-03 3.017374e-03 -2.752929e-03
<VARIANCE> 39
 4.038690e+01 4.218677e+01 4.928856e+01 5.906586e+01 4.851375e+01 7.352156e+01 4.771522e+01 4.244712e+01 5.374914e+01 5.516330e+01 3.046247e+01 2.813400e+01 1.008246e+02 2.374947e+00 2.497639e+00 2.729215e+00 3.331406e+00 2.916801e+00 4.667473e+00 2.764843e+00 2.778368e+00 4.056070e+00 2.561099e+00 2.241026e+00 2.322712e+00 3.850636e+00 4.537880e-01 4.279599e-01 4.771723e-01 5.475291e-01 4.897588e-01 7.957371e-01 5.166435e-01 5.301669e-01 7.251675e-01 4.981577e-01 4.055401e-01 4.473811e-01 5.777942e-01
<GCONST> 1.277328e+02
<TRANSP> 5
 0.000000e+00 1.000000e+00 0.000000e+00 0.000000e+00 0.000000e+00
 0.000000e+00 7.334467e-01 2.665533e-01 0.000000e+00 0.000000e+00
 0.000000e+00 0.000000e+00 7.334473e-01 2.665527e-01 0.000000e+00
 0.000000e+00 0.000000e+00 0.000000e+00 8.546948e-01 1.453052e-01
 0.000000e+00 0.000000e+00 0.000000e+00 0.000000e+00 0.000000e+00
<ENDHMM>
~h "s"
<BEGINHMM>
<NUMSTATES> 5
<STATE> 2
<MEAN> 39
 -1.574227e+01 2.906725e+00 -2.036743e+00 -7.024291e+00 -3.164712e+00 -4.927088e+00 -6.537770e+00 -3.787677e+00 -9.549819e+00 -4.770019e+00 -2.869706e+00 -5.286402e+00 7.106532e+01 7.530886e-03 -2.643528e-03 5.875444e-03 6.518448e-02 1.452521e-02 -2.216920e-02 3.979012e-03 -2.614054e-02 -5.028453e-02 8.594748e-02 -3.269282e-02 -3.777967e-02 1.875753e-02 -8.455480e-03 1.486511e-03 8.939824e-03 -9.958881e-03 3.014748e-03 -2.512582e-03 9.660183e-04 4.445697e-03 7.012731e-03 -1.276745e-02 1.795999e-03 3.771930e-03 5.885039e-03
<VARIANCE> 39
 5.288937e+01 3.047579e+01 3.587261e+01 2.852726e+01 3.462938e+01 3.683105e+01 2.696865e+01 2.794876e+01 3.295875e+01 3.702337e+01 2.377835e+01 1.902046e+01 9.669412e+01 2.367344e+00 1.713573e+00 2.022438e+00 1.758291e+00 1.643345e+00 2.021402e+00 1.784195e+00 1.811446e+00 2.195662e+00 1.657453e+00 1.477190e+00 1.242598e+00 1.639125e+00 3.457637e-01 3.029939e-01 3.324378e-01 3.186905e-01 2.953609e-01 3.653468e-01 3.383403e-01 3.540292e-01 4.214905e-01 3.067729e-01 2.864780e-01 2.313262e-01 2.467107e-01
<GCONST> 1.099892e+02
<STATE> 3
<MEAN> 39
 -1.579457e+01 2.895947e+00 -1.894164e+00 -6.889829e+00 -3.084793e+00 -5.014898e+00 -6.506721e+00 -3.852842e+00 -9.678614e+00 -4.554947e+00 -2.975404e+00 -5.404103e+00 7.118947e+01 -1.893959e-02 -4.927434e-03 4.866819e-02 2.864330e-02 2.271606e-02 -2.179308e-02 1.042509e-02 -1.612417e-02 -3.291251e-02 5.583142e-02 -2.717492e-02 -2.869498e-02 4.034834e-02 -7.071091e-03 -1.539302e-03 1.240114e-02 -1.012845e-02 1.818579e-03 5.945702e-04 2.337349e-03 2.488532e-03 4.284898e-03 -7.353867e-03 1.389281e-03 2.380066e-03 6.605601e-03
<VARIANCE> 39
 5.475823e+01 3.143073e+01 3.745858e+01 2.988830e+01 3.558098e+01 3.755270e+01 2.789932e+01 2.827543e+01 3.308298e+01 3.694135e+01 2.408204e+01 1.922301e+01 9.759776e+01 2.466118e+00 1.778296e+00 2.124961e+00 1.845884e+00 1.688434e+00 2.090676e+00 1.839389e+00 1.847967e+00 2.218847e+00 1.661623e+00 1.484476e+00 1.250258e+00 1.746325e+00 3.607039e-01 3.083176e-01 3.490743e-01 3.335309e-01 3.033419e-01 3.789703e-01 3.484516e-01 3.627559e-01 4.247144e-01 3.105809e-01 2.868025e-01 2.318812e-01 2.639561e-01
<GCONST> 1.110077e+02
<STATE> 4
<MEAN> 39
 -1.582287e+01 2.715157e+00 -1.268479e+00 -6.942998e+00 -2.888330e+00 -5.261666e+00 -6.398151e+00 -3.862467e+00 -9.806615e+00 -4.250721e+00 -3.099393e+00 -5.573062e+00 7.188490e+01 -4.479493e-02 -3.123409e-02 1.124896e-01 -2.122816e-02 2.894651e-02 -1.634159e-02 1.959015e-02 -1.252079e-02 -2.173219e-02 4.076303e-02 -1.578417e-02 -1.855688e-02 1.001671e-01 -3.758669e-03 -5.057208e-03 1.038265e-02 -7.615824e-03 4.958095e-04 9.126405e-04 2.406519e-03 3.688676e-04 7.142226e-04 -1.806333e-03 1.518138e-03 1.775543e-03 1.108880e-02
<VARIANCE> 39
 6.237879e+01 3.531927e+01 4.326764e+01 3.407920e+01 3.863361e+01 4.055204e+01 3.126831e+01 3.044763e+01 3.443497e+01 3.931797e+01 2.549012e+01 2.043798e+01 9.951379e+01 2.749358e+00 1.987113e+00 2.426300e+00 2.058693e+00 1.848680e+00 2.270578e+00 1.978949e+00 1.980433e+00 2.314852e+00 1.769224e+00 1.577685e+00 1.334980e+00 2.009204e+00 3.960143e-01 3.378025e-01 3.940845e-01 3.641835e-01 3.336260e-01 4.106593e-01 3.734376e-01 3.874775e-01 4.387114e-01 3.332832e-01 3.030069e-01 2.452344e-01 2.968157e-01
<GCONST> 1.143018e+02
<TRANSP> 5
 0.000000e+00 1.000000e+00 0.000000e+00 0.000000e+00 0.000000e+00
 0.000000e+00 7.342921e-01 2.657079e-01 0.000000e+00 0.000000e+00
 0.000000e+00 0.000000e+00 7.342929e-01 2.657071e-01 0.000000e+00
 0.000000e+00 0.000000e+00 0.000000e+00 8.579667e-01 1.420333e-01
 0.000000e+00 0.000000e+00 0.000000e+00 0.000000e+00 0.000000e+00
<ENDHMM>
~h "t"
<BEGINHMM>
<NUMSTATES> 5
<STATE> 2
<MEAN> 39
 -1.048038e+01 2.533973e+00 -1.342877e+00 -4.626974e+00 -1.492031e+00 -7.426939e+00 -4.755088e+00 -2.254013e+00 -1.032208e+01 -3.973948e+00 -2.882567e+00 -5.921304e+00 7.638136e+01 -1.233438e-02 3.319492e-02 -5.545587e-02 4.550898e-03 -2.504679e-02 8.577894e-02 4.121636e-02 2.916417e-02 5.928028e-02 -4.692875e-03 -7.387549e-03 1.367777e-02 -1.388984e-01 -5.806944e-03 2.774241e-03 4.633753e-04 -1.747061e-03 -1.450414e-03 4.440761e-03 -1.075256e-03 -1.828935e-03 4.919951e-04 -2.180665e-03 -1.095833e-03 8.529113e-04 -6.396397e-03
<VARIANCE> 39
 4.008100e+01 4.050461e+01 4.858179e+01 4.774789e+01 5.221361e+01 6.694623e+01 5.304870e+01 5.046111e+01 4.785715e+01 4.348519e+01 3.308483e+01 2.898082e+01 8.909909e+01 1.710401e+00 2.226178e+00 2.229419e+00 2.001129e+00 2.479365e+00 3.200624e+00 2.450512e+00 2.485656e+00 2.962828e+00 1.996110e+00 1.957353e+00 1.769913e+00 2.933631e+00 2.735119e-01 3.666953e-01 3.577893e-01 3.420557e-01 4.135155e-01 5.078323e-01 4.353212e-01 4.492165e-01 5.352480e-01 3.775830e-01 3.405674e-01 3.152332e-01 3.834541e-01
<GCONST> 1.202913e+02
<STATE> 3
<MEAN> 39
 -1.057652e+01 2.665734e+00 -1.541434e+00 -4.616041e+00 -1.593185e+00 -7.074414e+00 -4.601527e+00 -2.155494e+00 -1.009180e+01 -4.002614e+00 -2.921953e+00 -5.856424e+00 7.582211e+01 -3.342998e-02 4.197466e-02 -5.370888e-02 -2.287006e-03 -2.999041e-02 9.945800e-02 3.622453e-02 2.084099e-02 5.861898e-02 -1.185611e-02 -1.052016e-02 1.683367e-02 -1.579787e-01 -5.542332e-03 1.611101e-03 1.094988e-03 -1.629555e-03 -8.724715e-04 2.258068e-03 -1.711041e-03 -2.261964e-03 -7.041487e-04 -1.725124e-03 -7.470896e-04 5.585925e-04 -3.475430e-03
<VARIANCE> 39
 3.815819e+01 3.922147e+01 4.667042e+01 4.561804e+01 5.045579e+01 6.468981e+01 5.177493e+01 4.857743e+01 4.641191e+01 4.195675e+01 3.263857e+01 2.832648e+01 8.991057e+01 1.549089e+00 2.094827e+00 2.094429e+00 1.898399e+00 2.380261e+00 2.972821e+00 2.348941e+00 2.347437e+00 2.791940e+00 1.931067e+00 1.892345e+00 1.707016e+00 2.748341e+00 2.492989e-01 3.430743e-01 3.361282e-01 3.249136e-01 3.977215e-01 4.718047e-01 4.149737e-01 4.235231e-01 5.029990e-01 3.652174e-01 3.306904e-01 3.039174e-01 3.582739e-01
<GCONST> 1.184608e+02
<STATE> 4
<MEAN> 39
 -1.082087e+01 2.912872e+00 -1.697489e+00 -4.544230e+00 -1.754179e+00 -6.590132e+00 -4.564396e+00 -2.007886e+00 -9.735829e+00 -4.178287e+00 -3.077301e+00 -5.825423e+00 7.488928e+01 -5.497606e-02 4.221931e-02 -4.635492e-02 -7.739417e-03 -3.022874e-02 9.863665e-02 2.460603e-02 6.552956e-03 4.776835e-02 -1.525371e-02 -1.016439e-02 1.911779e-02 -1.561656e-01 -3.665344e-03 3.494885e-05 1.287090e-03 -9.413180e-04 1.683959e-05 -8.233207e-04 -2.333005e-03 -2.250860e-03 -1.923701e-03 -6.893685e-04 1.369839e-04 -2.181560e-04 2.871497e-04
<VARIANCE> 39
 3.652730e+01 3.737963e+01 4.441633e+01 4.292468e+01 4.881475e+01 6.110648e+01 4.976521e+01 4.603925e+01 4.468935e+01 4.119752e+01 3.198523e+01 2.740265e+01 9.029879e+01 1.362169e+00 1.932339e+00 1.921873e+00 1.797522e+00 2.256752e+00 2.679477e+00 2.224949e+00 2.166972e+00 2.601806e+00 1.868158e+00 1.812320e+00 1.628543e+00 2.490274e+00 2.225112e-01 3.164274e-01 3.094301e-01 3.079834e-01 3.787784e-01 4.276474e-01 3.914575e-01 3.921295e-01 4.677806e-01 3.542157e-01 3.190386e-01 2.897377e-01 3.248948e-01
<GCONST> 1.161385e+02
<TRANSP> 5
 0.000000e+00 1.000000e+00 0.000000e+00 0.000000e+00 0.000000e+00
 0.000000e+00 7.453822e-01 2.546178e-01 0.000000e+00 0.000000e+00
 0.000000e+00 0.000000e+00 7.453808e-01 2.546192e-01 0.000000e+00
 0.000000e+00 0.000000e+00 0.000000e+00 8.702219e-01 1.297780e-01
 0.000000e+00 0.000000e+00 0.000000e+00 0.000000e+00 0.000000e+00
<ENDHMM>
~h "u"
<BEGINHMM>
<NUMSTATES> 5
<STATE> 2
<MEAN> 39
 -1.011905e+01 3.788657e+00 2.316991e-01 -3.144343e+00 2.428259e-01 -7.607126e+00 -5.693162e+00 -2.805008e+00 -1.098342e+01 -5.575177e+00 -4.005058e+00 -6.790810e+00 7.650520e+01 -5.359275e-02 -4.591433e-02 9.428452e-03 5.538604e-02 1.554791e-02 3.904646e-02 -1.145651e-02 -4.225467e-03 4.815706e-02 4.248092e-02 4.797518e-02 3.091468e-02 -6.683677e-02 -1.198458e-03 9.808959e-04 -3.124957e-03 -3.065843e-03 -3.018349e-03 5.242578e-03 2.885666e-03 3.593156e-04 -4.094980e-04 -3.477322e-04 2.457473e-04 -9.488661e-05 -5.198433e-03
<VARIANCE> 39
 3.423785e+01 4.265191e+01 4.378733e+01 4.187260e+01 5.950521e+01 6.995618e+01 5.472863e+01 4.930736e+01 5.646031e+01 5.320726e+01 4.137888e+01 3.447237e+01 7.849360e+01 1.656033e+00 2.444452e+00 2.154548e+00 2.263849e+00 2.630173e+00 3.513701e+00 2.707778e+00 2.644894e+00 3.352266e+00 2.546322e+00 2.209275e+00 1.991277e+00 2.598351e+00 2.944393e-01 4.400655e-01 3.696693e-01 3.926668e-01 4.483179e-01 5.533464e-01 5.002412e-01 4.770150e-01 5.888204e-01 4.889373e-01 3.836441e-01 3.452251e-01 3.599631e-01
<GCONST> 1.230128e+02
<STATE> 3
<MEAN> 39
 -1.033109e+01 3.612797e+00 2.733004e-01 -2.943807e+00 2.943543e-01 -7.447032e+00 -5.734268e+00 -2.815597e+00 -1.081423e+01 -5.428918e+00 -3.834211e+00 -6.678654e+00 7.624563e+01 -5.787946e-02 -3.938199e-02 -2.917008e-03 4.209523e-02 1.922042e-03 5.895903e-02 1.050818e-04 -2.215202e-03 4.716369e-02 3.955129e-02 4.599407e-02 3.022188e-02 -8.759608e-02 -1.190064e-03 3.301512e-03 -3.059215e-03 -4.217871e-03 -4.500648e-03 5.796636e-03 3.276948e-03 6.476353e-04 -6.131687e-04 -1.728759e-03 -1.964128e-03 -7.338854e-04 -6.748306e-03
<VARIANCE> 39
 3.370815e+01 4.295179e+01 4.493061e+01 4.185300e+01 5.989195e+01 7.075047e+01 5.458541e+01 4.892980e+01 5.451357e+01 5.168732e+01 4.079468e+01 3.442995e+01 7.830185e+01 1.573479e+00 2.403727e+00 2.115500e+00 2.147081e+00 2.562669e+00 3.373726e+00 2.651987e+00 2.570895e+00 3.226840e+00 2.453779e+00 2.142144e+00 1.927040e+00 2.468529e+00 2.783708e-01 4.312086e-01 3.602329e-01 3.699625e-01 4.344030e-01 5.218136e-01 4.858884e-01 4.622500e-01 5.642807e-01 4.701943e-01 3.709520e-01 3.324575e-01 3.379027e-01
<GCONST> 1.219811e+02
<STATE> 4
<MEAN> 39
 -1.064409e+01 3.457522e+00 2.683440e-01 -2.822762e+00 1.260382e-01 -7.149759e+00 -5.850968e+00 -2.719636e+00 -1.056439e+01 -5.307908e+00 -3.728178e+00 -6.625913e+00 7.563531e+01 -6.000553e-02 -2.284858e-02 -1.214420e-02 2.181909e-02 -1.720598e-02 7.449541e-02 9.858890e-03 8.727047e-04 4.080080e-02 2.639221e-02 3.031884e-02 2.584798e-02 -1.047677e-01 -1.013104e-03 4.735597e-03 -2.686914e-03 -4.465650e-03 -4.883369e-03 4.597273e-03 2.452032e-03 5.390926e-04 -5.728226e-04 -2.340892e-03 -3.265697e-03 -9.198686e-04 -6.437034e-03
<VARIANCE> 39
 3.433855e+01 4.245214e+01 4.669345e+01 4.170331e+01 6.053451e+01 7.020273e+01 5.331528e+01 4.862817e+01 5.167478e+01 5.131789e+01 3.840633e+01 3.376825e+01 7.923590e+01 1.484361e+00 2.314466e+00 2.041866e+00 2.002120e+00 2.459815e+00 3.070755e+00 2.561038e+00 2.436628e+00 3.037275e+00 2.333444e+00 2.005170e+00 1.843651e+00 2.303375e+00 2.601565e-01 4.128798e-01 3.456434e-01 3.419185e-01 4.135681e-01 4.686422e-01 4.642019e-01 4.374802e-01 5.277976e-01 4.442875e-01 3.499998e-01 3.163415e-01 3.126393e-01
<GCONST> 1.203543e+02
<TRANSP> 5
 0.000000e+00 1.000000e+00 0.000000e+00 0.000000e+00 0.000000e+00
 0.000000e+00 7.448325e-01 2.551675e-01 0.000000e+00 0.000000e+00
 0.000000e+00 0.000000e+00 7.448312e-01 2.551688e-01 0.000000e+00
 0.000000e+00 0.000000e+00 0.000000e+00 8.704368e-01 1.295632e-01
 0.000000e+00 0.000000e+00 0.000000e+00 0.000000e+00 0.000000e+00
<ENDHMM>
~h "y"
<BEGINHMM>
<NUMSTATES> 5
<STATE> 2
<MEAN> 39
 -1.265981e+01 3.246219e-01 -3.423080e+00 -5.164041e+00 -3.093355e+00 -8.247010e+00 -5.005490e+00 -4.093089e+00 -1.149794e+01 -2.263635e+00 -1.713197e+00 -5.458364e+00 7.616706e+01 2.580899e-01 -1.532718e-01 9.220350e-03 1.181259e-01 1.277059e-01 -3.111941e-01 -7.573766e-02 -5.935641e-02 -1.442410e-01 1.734958e-01 1.025109e-01 -1.780507e-02 5.538092e-01 -1.113103e-04 -2.421564e-04 -1.197352e-03 7.207641e-03 7.488353e-03 -8.602455e-04 -6.650741e-03 -3.033718e-05 3.527878e-03 9.571385e-04 1.432678e-03 3.557865e-05 4.758814e-04
<VARIANCE> 39
 5.774140e+01 3.570219e+01 3.018383e+01 3.955958e+01 3.777522e+01 6.942145e+01 4.080608e+01 3.300854e+01 4.272672e+01 5.083418e+01 2.585879e+01 2.405384e+01 1.278552e+02 1.879337e+00 1.781340e+00 2.187766e+00 2.147958e+00 2.017827e+00 2.469448e+00 2.156791e+00 2.023518e+00 2.113571e+00 1.974644e+00 1.605470e+00 1.629697e+00 1.970905e+00 3.051148e-01 3.445219e-01 3.670890e-01 3.414528e-01 3.159580e-01 3.981717e-01 3.546992e-01 3.616832e-01 3.627771e-01 3.698414e-01 2.947850e-01 3.078603e-01 2.478455e-01
<GCONST> 1.150833e+02
<STATE> 3
<MEAN> 39
 -1.164209e+01 -2.869837e-01 -3.393059e+00 -4.610486e+00 -2.513796e+00 -9.495245e+00 -5.386649e+00 -4.328690e+00 -1.200610e+01 -1.552003e+00 -1.298687e+00 -5.543710e+00 7.838724e+01 2.473391e-01 -1.474359e-01 5.100648e-03 1.418620e-01 1.530908e-01 -3.032013e-01 -1.040359e-01 -5.525123e-02 -1.214393e-01 1.670255e-01 1.036096e-01 -1.860282e-02 5.335873e-01 -4.807957e-03 2.695066e-03 -1.523946e-04 4.339142e-03 5.295737e-03 4.487740e-03 -6.373368e-03 1.497393e-03 6.915310e-03 -3.221633e-03 -8.096241e-04 -3.510183e-04 -8.897957e-03
<VARIANCE> 39
 5.835839e+01 3.697137e+01 3.318168e+01 4.575415e+01 4.308758e+01 7.567805e+01 4.594767e+01 3.684505e+01 4.705081e+01 5.771870e+01 2.798993e+01 2.668238e+01 1.271589e+02 1.904248e+00 1.822057e+00 2.309665e+00 2.316592e+00 2.159260e+00 2.672407e+00 2.228308e+00 2.136119e+00 2.234494e+00 2.081052e+00 1.687986e+00 1.808260e+00 2.000653e+00 3.080915e-01 3.447991e-01 3.722114e-01 3.478800e-01 3.206010e-01 4.166014e-01 3.544914e-01 3.775235e-01 3.709351e-01 3.840350e-01 3.023915e-01 3.387617e-01 2.413123e-01
<GCONST> 1.171921e+02
<STATE> 4
<MEAN> 39
 -1.036183e+01 -1.100272e+00 -3.212054e+00 -3.596908e+00 -1.400023e+00 -1.126752e+01 -6.337381e+00 -4.663982e+00 -1.228192e+01 -3.905785e-01 -7.484300e-01 -5.831801e+00 8.155432e+01 1.937624e-01 -1.100971e-01 9.539606e-03 1.483528e-01 1.680085e-01 -2.475460e-01 -1.408687e-01 -3.394410e-02 -5.273648e-02 1.224351e-01 8.357221e-02 -2.387162e-02 4.230247e-01 -1.011672e-02 7.411812e-03 2.141174e-03 -1.756461e-03 5.494123e-04 1.180152e-02 -3.202957e-03 3.771404e-03 1.035825e-02 -9.348694e-03 -4.319930e-03 -4.534127e-04 -2.162930e-02
<VARIANCE> 39
 5.192944e+01 3.697845e+01 3.641553e+01 5.413483e+01 4.759954e+01 8.106325e+01 5.230265e+01 4.138285e+01 5.172953e+01 6.716592e+01 3.044198e+01 3.128807e+01 1.120544e+02 1.812963e+00 1.805636e+00 2.417891e+00 2.535267e+00 2.331039e+00 2.995531e+00 2.289230e+00 2.248498e+00 2.446115e+00 2.200647e+00 1.814771e+00 2.082146e+00 2.003864e+00 2.925738e-01 3.260505e-01 3.692314e-01 3.455845e-01 3.279335e-01 4.442978e-01 3.546842e-01 3.995366e-01 3.925402e-01 3.945659e-01 3.144912e-01 3.886106e-01 2.230408e-01
<GCONST> 1.190256e+02
<TRANSP> 5
 0.000000e+00 1.000000e+00 0.000000e+00 0.000000e+00 0.000000e+00
 0.000000e+00 7.525879e-01 2.474121e-01 0.000000e+00 0.000000e+00
 0.000000e+00 0.000000e+00 7.525882e-01 2.474119e-01 0.000000e+00
 0.000000e+00 0.000000e+00 0.000000e+00 8.758790e-01 1.241210e-01
 0.000000e+00 0.000000e+00 0.000000e+00 0.000000e+00 0.000000e+00
<ENDHMM>
~h "ay"
<BEGINHMM>
<NUMSTATES> 5
<STATE> 2
<MEAN> 39
 -1.954384e+01 -2.050529e-01 1.088924e+00 -8.954056e+00 -3.834955e+00 -5.003221e+00 -5.565434e+00 -4.900730e+00 -9.902167e+00 -2.864240e+00 -2.784581e+00 -4.910847e+00 7.409860e+01 4.597937e-02 -2.011208e-01 1.459112e-01 -1.299086e-01 2.823973e-02 -1.466740e-01 2.860933e-02 -4.538917e-02 -8.389521e-02 1.315299e-01 6.014265e-02 2.351454e-02 5.568367e-01 2.086126e-02 3.479226e-03 -1.638808e-02 6.280438e-03 2.301576e-03 -1.023432e-02 -4.508389e-03 3.353721e-04 -5.006607e-03 -5.750568e-04 2.946182e-03 -9.172282e-04 8.662397e-03
<VARIANCE> 39
 7.979587e+01 4.481588e+01 6.805025e+01 3.616185e+01 3.067699e+01 4.274825e+01 4.064491e+01 2.653901e+01 3.767163e+01 3.340545e+01 2.352282e+01 1.761757e+01 1.123776e+02 4.484437e+00 2.932076e+00 3.832503e+00 2.620544e+00 2.448121e+00 2.772187e+00 2.552349e+00 2.335094e+00 2.767490e+00 1.955441e+00 1.888050e+00 1.520624e+00 2.537504e+00 6.052533e-01 5.488750e-01 5.774851e-01 4.677392e-01 4.615757e-01 5.177035e-01 5.047845e-01 4.675120e-01 5.405475e-01 3.668726e-01 3.657665e-01 2.911299e-01 3.631037e-01
<GCONST> 1.218168e+02
<STATE> 3
<MEAN> 39
 -1.916851e+01 -8.768435e-01 1.443418e+00 -9.350348e+00 -3.703798e+00 -5.626365e+00 -5.506652e+00 -5.062469e+00 -1.025601e+01 -2.403245e+00 -2.536044e+00 -4.831038e+00 7.615518e+01 1.301122e-01 -1.760115e-01 7.352446e-02 -9.550776e-02 3.601348e-02 -1.817617e-01 1.054284e-02 -4.137404e-02 -1.022999e-01 1.248822e-01 7.010177e-02 1.730750e-02 5.630735e-01 2.435255e-02 8.620393e-03 -2.145639e-02 1.089742e-02 2.270833e-03 -9.385802e-03 -5.461248e-03 1.494821e-03 -4.850109e-03 -2.340056e-03 2.703193e-03 -2.077008e-03 -1.697593e-03
<VARIANCE> 39
 9.519543e+01 4.452981e+01 7.269052e+01 3.752535e+01 3.412700e+01 4.937110e+01 4.383871e+01 2.904852e+01 4.277354e+01 3.551699e+01 2.523004e+01 1.860773e+01 1.155765e+02 5.098361e+00 3.130373e+00 4.147871e+00 2.801915e+00 2.675700e+00 3.069610e+00 2.752996e+00 2.544271e+00 3.145584e+00 2.086499e+00 2.050860e+00 1.620350e+00 2.766480e+00 6.737733e-01 5.907500e-01 6.170083e-01 4.949758e-01 4.936758e-01 5.634948e-01 5.427075e-01 5.057908e-01 6.115240e-01 3.835173e-01 3.912550e-01 3.087482e-01 3.916031e-01
<GCONST> 1.249412e+02
<STATE> 4
<MEAN> 39
 -1.773272e+01 -1.576281e+00 1.254477e+00 -9.572910e+00 -3.328274e+00 -6.900363e+00 -5.644081e+00 -5.295816e+00 -1.099202e+01 -1.756676e+00 -2.028953e+00 -4.742929e+00 7.915436e+01 2.464799e-01 -1.008421e-01 -4.429319e-02 -2.002739e-02 4.986123e-02 -2.045213e-01 -2.143665e-02 -2.954837e-02 -1.180264e-01 1.000677e-01 8.042845e-02 5.213911e-03 4.773484e-01 2.004757e-02 1.350774e-02 -2.028092e-02 1.359795e-02 2.577433e-03 -3.345961e-03 -6.083916e-03 2.228108e-03 -2.126595e-03 -4.239977e-03 1.865660e-03 -2.394435e-03 -1.666782e-02
<VARIANCE> 39
 1.160732e+02 4.142203e+01 7.651531e+01 3.905949e+01 4.033155e+01 5.834717e+01 4.710710e+01 3.368518e+01 5.065402e+01 3.959497e+01 2.806527e+01 2.002588e+01 1.079549e+02 5.769286e+00 3.257665e+00 4.409443e+00 2.971595e+00 3.045082e+00 3.509710e+00 3.016146e+00 2.821606e+00 3.766009e+00 2.264097e+00 2.231690e+00 1.734927e+00 3.110129e+00 7.582229e-01 6.193452e-01 6.512344e-01 5.234477e-01 5.439633e-01 6.293616e-01 5.917826e-01 5.537472e-01 7.272696e-01 4.035224e-01 4.154296e-01 3.269453e-01 4.298983e-01
<GCONST> 1.284699e+02
<TRANSP> 5
 0.000000e+00 1.000000e+00 0.000000e+00 0.000000e+00 0.000000e+00
 0.000000e+00 7.287604e-01 2.712396e-01 0.000000e+00 0.000000e+00
 0.000000e+00 0.000000e+00 7.287598e-01 2.712402e-01 0.000000e+00
 0.000000e+00 0.000000e+00 0.000000e+00 8.503571e-01 1.496429e-01
 0.000000e+00 0.000000e+00 0.000000e+00 0.000000e+00 0.000000e+00
<ENDHMM>
~h "ny"
<BEGINHMM>
<NUMSTATES> 5
<STATE> 2
<MEAN> 39
 -1.322584e+01 4.136259e+00 -2.494979e+00 -2.979449e+00 -5.604541e-01 -2.343497e+00 -4.333432e+00 -3.744978e+00 -9.401278e+00 -3.994486e+00 -1.687879e+00 -4.742581e+00 6.953754e+01 -1.850285e-01 1.736710e-01 -3.719189e-02 -6.462067e-02 -2.034409e-01 1.856999e-01 -4.830088e-03 2.362476e-02 7.854399e-02 -6.487946e-02 -1.188076e-01 -4.846470e-02 -4.490761e-01 2.372562e-04 -5.532389e-03 4.695414e-03 -2.500450e-04 4.454521e-03 -2.134752e-02 -9.491822e-03 2.413508e-03 1.267518e-03 -1.829393e-03 -1.830098e-03 1.508839e-04 1.740112e-02
<VARIANCE> 39
 1.261287e+01 2.775613e+01 1.407362e+01 1.489355e+01 3.429738e+01 4.258498e+01 2.635822e+01 1.927045e+01 2.180429e+01 1.784391e+01 2.811979e+01 2.196495e+01 5.117211e+01 3.434675e-01 1.166778e+00 8.744044e-01 9.117773e-01 1.253503e+00 1.838493e+00 1.394333e+00 1.310967e+00 1.342909e+00 1.137527e+00 1.466086e+00 1.042152e+00 5.885983e-01 6.154834e-02 1.850134e-01 1.523809e-01 1.753142e-01 2.301813e-01 2.561476e-01 2.511230e-01 2.491297e-01 2.438615e-01 2.198486e-01 2.575920e-01 1.828684e-01 6.514737e-02
<GCONST> 9.092435e+01
<STATE> 3
<MEAN> 39
 -1.386812e+01 4.717658e+00 -2.606947e+00 -3.204212e+00 -1.256071e+00 -1.778289e+00 -4.388674e+00 -3.656216e+00 -9.122978e+00 -4.232535e+00 -2.109600e+00 -4.910384e+00 6.804309e+01 -1.810479e-01 1.484230e-01 -2.249083e-02 -6.533252e-02 -1.847890e-01 1.107067e-01 -3.566565e-02 3.090928e-02 8.164467e-02 -6.834173e-02 -1.203135e-01 -4.576141e-02 -3.830265e-01 2.479008e-03 -1.039134e-02 2.693888e-03 -7.731352e-04 6.326648e-03 -2.024180e-02 -7.227991e-03 6.323723e-04 -1.061064e-03 -1.090275e-04 2.479449e-03 1.866657e-03 2.109970e-02
<VARIANCE> 39
 1.144909e+01 2.373934e+01 1.184636e+01 1.350517e+01 2.973496e+01 3.151575e+01 2.245980e+01 1.630933e+01 1.892303e+01 1.650836e+01 2.504450e+01 1.895223e+01 3.969920e+01 2.859235e-01 9.865990e-01 7.463379e-01 8.088459e-01 1.118910e+00 1.475190e+00 1.231183e+00 1.167303e+00 1.188637e+00 1.027806e+00 1.327127e+00 9.620550e-01 4.948719e-01 5.104398e-02 1.566124e-01 1.344329e-01 1.571409e-01 2.089833e-01 2.148669e-01 2.269625e-01 2.287198e-01 2.179818e-01 2.012676e-01 2.438662e-01 1.743657e-01 5.728435e-02
<GCONST> 8.563474e+01
<STATE> 4
<MEAN> 39
 -1.458907e+01 5.235846e+00 -2.727679e+00 -3.494689e+00 -1.996871e+00 -1.469697e+00 -4.608500e+00 -3.552536e+00 -8.815003e+00 -4.496747e+00 -2.566566e+00 -5.098381e+00 6.660374e+01 -1.654285e-01 1.021751e-01 -1.284473e-02 -6.667095e-02 -1.572129e-01 3.381570e-02 -6.001872e-02 3.067204e-02 7.409406e-02 -6.654307e-02 -1.059010e-01 -3.530080e-02 -2.944036e-01 4.393655e-03 -1.257527e-02 1.150948e-03 -9.724121e-04 6.520675e-03 -1.613638e-02 -4.662137e-03 -1.877911e-03 -4.417024e-03 5.219879e-04 5.648095e-03 3.400815e-03 2.133957e-02
<VARIANCE> 39
 9.904895e+00 1.870367e+01 1.004294e+01 1.200371e+01 2.407912e+01 2.181219e+01 1.860277e+01 1.370547e+01 1.613841e+01 1.544457e+01 2.206629e+01 1.582879e+01 2.710328e+01 2.363909e-01 8.076151e-01 6.376936e-01 7.107497e-01 9.836692e-01 1.153681e+00 1.063385e+00 1.044781e+00 1.060980e+00 9.328583e-01 1.202503e+00 8.862247e-01 4.077768e-01 4.196540e-02 1.311622e-01 1.192336e-01 1.399440e-01 1.886785e-01 1.818530e-01 2.022315e-01 2.124291e-01 1.987926e-01 1.860902e-01 2.316855e-01 1.675440e-01 5.170363e-02
<GCONST> 7.978741e+01
<TRANSP> 5
 0.000000e+00 1.000000e+00 0.000000e+00 0.000000e+00 0.000000e+00
 0.000000e+00 7.156749e-01 2.843251e-01 0.000000e+00 0.000000e+00
 0.000000e+00 0.000000e+00 7.156745e-01 2.843255e-01 0.000000e+00
 0.000000e+00 0.000000e+00 0.000000e+00 8.329856e-01 1.670144e-01
 0.000000e+00 0.000000e+00 0.000000e+00 0.000000e+00 0.000000e+00
<ENDHMM>
~h "sil"
<BEGINHMM>
<NUMSTATES> 5
<STATE> 2
<MEAN> 39
 -1.778381e+01 4.784435e+00 -3.089296e+00 -6.737295e+00 -3.843686e+00 -2.664020e+00 -6.215414e+00 -2.606258e+00 -6.852719e+00 -7.820741e+00 -2.927297e+00 -4.457137e+00 6.503529e+01 4.244842e-02 1.773419e-02 -2.870215e-02 7.399597e-02 -3.936351e-02 4.615241e-02 1.245490e-02 -9.357110e-02 -1.274192e-01 9.575684e-02 -5.925460e-02 -7.714148e-02 -9.858463e-02 -1.063289e-02 -8.353034e-03 8.941144e-03 -3.481891e-03 3.613916e-04 8.876591e-03 -1.205647e-02 5.061466e-03 7.950447e-03 2.080902e-02 2.932384e-02 2.878834e-03 9.047958e-04
<VARIANCE> 39
 7.750357e+00 1.334817e+01 1.048560e+01 1.822408e+01 9.900722e+00 9.636531e+00 1.216836e+01 1.387031e+01 1.849311e+01 2.282869e+01 1.558095e+01 1.250018e+01 8.861885e+00 3.732643e-01 6.623029e-01 7.650678e-01 9.081873e-01 8.277589e-01 7.978414e-01 1.021636e+00 1.055149e+00 1.194196e+00 1.171063e+00 9.811301e-01 8.639892e-01 4.242667e-01 6.098405e-02 1.012405e-01 1.219517e-01 1.434662e-01 1.466126e-01 1.398412e-01 1.886968e-01 1.742119e-01 2.055553e-01 1.998747e-01 1.729825e-01 1.462549e-01 6.378070e-02
<GCONST> 7.590930e+01
<STATE> 3
<MEAN> 39
 -1.772469e+01 4.750923e+00 -3.182168e+00 -6.491902e+00 -4.004120e+00 -2.508173e+00 -6.275152e+00 -2.909096e+00 -7.226890e+00 -7.359404e+00 -2.987977e+00 -4.682072e+00 6.473366e+01 -6.327554e-03 -1.916760e-02 2.776050e-03 2.300237e-02 -3.030854e-02 4.420066e-02 -3.226424e-02 -8.026668e-02 -5.397297e-02 9.246532e-02 2.058765e-02 -4.526290e-02 -4.798955e-02 -9.281998e-03 -5.130974e-03 7.187625e-03 -1.108262e-02 6.019778e-03 2.674990e-04 -1.127407e-02 8.970418e-04 1.899490e-02 -2.868325e-03 1.392893e-02 6.171023e-03 1.084674e-02
<VARIANCE> 39
 7.635735e+00 1.140176e+01 1.096673e+01 1.563649e+01 1.004180e+01 9.095201e+00 1.264852e+01 1.227770e+01 1.779619e+01 2.077062e+01 1.491326e+01 1.201955e+01 7.924103e+00 4.624722e-01 6.096255e-01 7.900613e-01 1.058512e+00 8.334181e-01 7.866697e-01 1.035676e+00 9.978162e-01 1.331013e+00 1.301605e+00 1.037014e+00 8.937249e-01 4.945348e-01 8.897946e-02 1.196238e-01 1.494796e-01 1.921148e-01 1.736405e-01 1.600017e-01 2.154555e-01 1.958944e-01 2.542448e-01 2.367708e-01 2.067616e-01 1.739161e-01 9.299902e-02
<GCONST> 7.860234e+01
<STATE> 4
<MEAN> 39
 -1.783983e+01 4.526537e+00 -3.187316e+00 -6.375311e+00 -4.120911e+00 -2.453994e+00 -6.379050e+00 -3.208397e+00 -7.357425e+00 -6.890377e+00 -2.894289e+00 -4.811815e+00 6.471465e+01 -4.049012e-02 -1.899710e-02 3.850708e-02 -3.298238e-02 1.064722e-02 2.272319e-02 -4.718061e-02 -7.356656e-02 2.210099e-02 1.506254e-02 3.907792e-02 -2.125438e-02 1.575088e-02 8.055704e-04 8.961261e-03 2.295173e-03 2.388997e-03 1.126682e-02 -3.727140e-04 -4.873896e-03 -2.571856e-03 3.978658e-03 -7.417279e-03 -6.546643e-03 -3.330436e-03 1.103151e-04
<VARIANCE> 39
 8.721624e+00 1.210212e+01 1.280049e+01 1.514311e+01 1.088158e+01 9.985535e+00 1.369569e+01 1.186614e+01 1.893474e+01 2.045575e+01 1.506152e+01 1.153220e+01 9.201828e+00 5.959415e-01 6.644437e-01 8.608967e-01 1.218207e+00 8.923098e-01 8.935778e-01 1.117552e+00 1.000420e+00 1.504387e+00 1.333792e+00 1.113664e+00 8.968993e-01 6.151925e-01 1.135548e-01 1.316203e-01 1.623651e-01 2.175772e-01 1.756502e-01 1.768437e-01 2.193609e-01 1.924056e-01 2.747926e-01 2.297020e-01 2.096755e-01 1.706938e-01 1.138429e-01
<GCONST> 8.148499e+01
<TRANSP> 5
 0.000000e+00 1.000000e+00 0.000000e+00 0.000000e+00 0.000000e+00
 0.000000e+00 7.357846e-01 2.642154e-01 0.000000e+00 0.000000e+00
 0.000000e+00 0.000000e+00 7.357848e-01 2.642152e-01 0.000000e+00
 0.000000e+00 0.000000e+00 0.000000e+00 8.582630e-01 1.417370e-01
 0.000000e+00 0.000000e+00 0.000000e+00 0.000000e+00 0.000000e+00
<ENDHMM>
