~h "b"
<BEGINHMM>
<NUMSTATES> 5
<STATE> 2
<MEAN> 39
 -1.268831e+01 2.655436e+00 -1.425630e+00 -5.099942e+00 -1.688096e+00 -6.314624e+00 -5.744937e+00 -3.113625e+00 -9.963200e+00 -4.243892e+00 -2.633278e+00 -5.497469e+00 7.433167e+01 1.220833e-03 4.692104e-03 3.358004e-03 7.251707e-03 -1.882230e-03 4.915826e-03 -2.292708e-04 -6.445816e-03 -1.769459e-03 8.244880e-03 -7.176534e-04 -5.441471e-03 -7.030310e-03 -8.428005e-04 1.595972e-04 7.003391e-04 -1.034429e-03 6.841473e-04 1.339922e-04 -1.251661e-03 1.965782e-04 1.482624e-03 -1.001767e-03 1.177395e-03 3.356396e-04 4.316468e-04
<VARIANCE> 39
 5.415834e+01 3.630687e+01 4.229399e+01 4.135492e+01 4.817136e+01 5.776150e+01 4.393672e+01 3.889725e+01 4.697247e+01 4.512576e+01 3.020147e+01 2.381779e+01 1.042261e+02 2.028465e+00 1.949042e+00 2.143597e+00 2.103590e+00 2.166699e+00 2.781598e+00 2.240457e+00 2.127003e+00 2.771489e+00 1.942779e+00 1.822041e+00 1.571687e+00 2.323098e+00 3.145719e-01 3.356884e-01 3.522972e-01 3.597100e-01 3.684410e-01 4.687421e-01 4.079363e-01 3.954299e-01 5.021030e-01 3.616183e-01 3.314692e-01 2.879243e-01 3.139019e-01
<GCONST> 1.176950e+02
<STATE> 3
<MEAN> 39
 -1.268831e+01 2.655436e+00 -1.425630e+00 -5.099942e+00 -1.688096e+00 -6.314624e+00 -5.744937e+00 -3.113625e+00 -9.963200e+00 -4.243892e+00 -2.633278e+00 -5.497469e+00 7.433167e+01 1.220833e-03 4.692104e-03 3.358004e-03 7.251707e-03 -1.882230e-03 4.915826e-03 -2.292708e-04 -6.445816e-03 -1.769459e-03 8.244880e-03 -7.176534e-04 -5.441471e-03 -7.030310e-03 -8.428005e-04 1.595972e-04 7.003391e-04 -1.034429e-03 6.841473e-04 1.339922e-04 -1.251661e-03 1.965782e-04 1.482624e-03 -1.001767e-03 1.177395e-03 3.356396e-04 4.316468e-04
<VARIANCE> 39
 5.415834e+01 3.630687e+01 4.229399e+01 4.135492e+01 4.817136e+01 5.776150e+01 4.393672e+01 3.889725e+01 4.697247e+01 4.512576e+01 3.020147e+01 2.381779e+01 1.042261e+02 2.028465e+00 1.949042e+00 2.143597e+00 2.103590e+00 2.166699e+00 2.781598e+00 2.240457e+00 2.127003e+00 2.771489e+00 1.942779e+00 1.822041e+00 1.571687e+00 2.323098e+00 3.145719e-01 3.356884e-01 3.522972e-01 3.597100e-01 3.684410e-01 4.687421e-01 4.079363e-01 3.954299e-01 5.021030e-01 3.616183e-01 3.314692e-01 2.879243e-01 3.139019e-01
<GCONST> 1.176950e+02
<STATE> 4
<MEAN> 39
 -1.268831e+01 2.655436e+00 -1.425630e+00 -5.099942e+00 -1.688096e+00 -6.314624e+00 -5.744937e+00 -3.113625e+00 -9.963200e+00 -4.243892e+00 -2.633278e+00 -5.497469e+00 7.433167e+01 1.220833e-03 4.692104e-03 3.358004e-03 7.251707e-03 -1.882230e-03 4.915826e-03 -2.292708e-04 -6.445816e-03 -1.769459e-03 8.244880e-03 -7.176534e-04 -5.441471e-03 -7.030310e-03 -8.428005e-04 1.595972e-04 7.003391e-04 -1.034429e-03 6.841473e-04 1.339922e-04 -1.251661e-03 1.965782e-04 1.482624e-03 -1.001767e-03 1.177395e-03 3.356396e-04 4.316468e-04
<VARIANCE> 39
 5.415834e+01 3.630687e+01 4.229399e+01 4.135492e+01 4.817136e+01 5.776150e+01 4.393672e+01 3.889725e+01 4.697247e+01 4.512576e+01 3.020147e+01 2.381779e+01 1.042261e+02 2.028465e+00 1.949042e+00 2.143597e+00 2.103590e+00 2.166699e+00 2.781598e+00 2.240457e+00 2.127003e+00 2.771489e+00 1.942779e+00 1.822041e+00 1.571687e+00 2.323098e+00 3.145719e-01 3.356884e-01 3.522972e-01 3.597100e-01 3.684410e-01 4.687421e-01 4.079363e-01 3.954299e-01 5.021030e-01 3.616183e-01 3.314692e-01 2.879243e-01 3.139019e-01
<GCONST> 1.176950e+02
<TRANSP> 5
 0.000000e+00 1.000000e+00 0.000000e+00 0.000000e+00 0.000000e+00
 0.000000e+00 6.000000e-01 4.000000e-01 0.000000e+00 0.000000e+00
 0.000000e+00 0.000000e+00 6.000000e-01 4.000000e-01 0.000000e+00
 0.000000e+00 0.000000e+00 0.000000e+00 7.000000e-01 3.000000e-01
 0.000000e+00 0.000000e+00 0.000000e+00 0.000000e+00 0.000000e+00
<ENDHMM>
~h "e"
<BEGINHMM>
<NUMSTATES> 5
<STATE> 2
<MEAN> 39
 -1.268831e+01 2.655436e+00 -1.425630e+00 -5.099942e+00 -1.688096e+00 -6.314624e+00 -5.744937e+00 -3.113625e+00 -9.963200e+00 -4.243892e+00 -2.633278e+00 -5.497469e+00 7.433167e+01 1.220833e-03 4.692104e-03 3.358004e-03 7.251707e-03 -1.882230e-03 4.915826e-03 -2.292708e-04 -6.445816e-03 -1.769459e-03 8.244880e-03 -7.176534e-04 -5.441471e-03 -7.030310e-03 -8.428005e-04 1.595972e-04 7.003391e-04 -1.034429e-03 6.841473e-04 1.339922e-04 -1.251661e-03 1.965782e-04 1.482624e-03 -1.001767e-03 1.177395e-03 3.356396e-04 4.316468e-04
<VARIANCE> 39
 5.415834e+01 3.630687e+01 4.229399e+01 4.135492e+01 4.817136e+01 5.776150e+01 4.393672e+01 3.889725e+01 4.697247e+01 4.512576e+01 3.020147e+01 2.381779e+01 1.042261e+02 2.028465e+00 1.949042e+00 2.143597e+00 2.103590e+00 2.166699e+00 2.781598e+00 2.240457e+00 2.127003e+00 2.771489e+00 1.942779e+00 1.822041e+00 1.571687e+00 2.323098e+00 3.145719e-01 3.356884e-01 3.522972e-01 3.597100e-01 3.684410e-01 4.687421e-01 4.079363e-01 3.954299e-01 5.021030e-01 3.616183e-01 3.314692e-01 2.879243e-01 3.139019e-01
<GCONST> 1.176950e+02
<STATE> 3
<MEAN> 39
 -1.268831e+01 2.655436e+00 -1.425630e+00 -5.099942e+00 -1.688096e+00 -6.314624e+00 -5.744937e+00 -3.113625e+00 -9.963200e+00 -4.243892e+00 -2.633278e+00 -5.497469e+00 7.433167e+01 1.220833e-03 4.692104e-03 3.358004e-03 7.251707e-03 -1.882230e-03 4.915826e-03 -2.292708e-04 -6.445816e-03 -1.769459e-03 8.244880e-03 -7.176534e-04 -5.441471e-03 -7.030310e-03 -8.428005e-04 1.595972e-04 7.003391e-04 -1.034429e-03 6.841473e-04 1.339922e-04 -1.251661e-03 1.965782e-04 1.482624e-03 -1.001767e-03 1.177395e-03 3.356396e-04 4.316468e-04
<VARIANCE> 39
 5.415834e+01 3.630687e+01 4.229399e+01 4.135492e+01 4.817136e+01 5.776150e+01 4.393672e+01 3.889725e+01 4.697247e+01 4.512576e+01 3.020147e+01 2.381779e+01 1.042261e+02 2.028465e+00 1.949042e+00 2.143597e+00 2.103590e+00 2.166699e+00 2.781598e+00 2.240457e+00 2.127003e+00 2.771489e+00 1.942779e+00 1.822041e+00 1.571687e+00 2.323098e+00 3.145719e-01 3.356884e-01 3.522972e-01 3.597100e-01 3.684410e-01 4.687421e-01 4.079363e-01 3.954299e-01 5.021030e-01 3.616183e-01 3.314692e-01 2.879243e-01 3.139019e-01
<GCONST> 1.176950e+02
<STATE> 4
<MEAN> 39
 -1.268831e+01 2.655436e+00 -1.425630e+00 -5.099942e+00 -1.688096e+00 -6.314624e+00 -5.744937e+00 -3.113625e+00 -9.963200e+00 -4.243892e+00 -2.633278e+00 -5.497469e+00 7.433167e+01 1.220833e-03 4.692104e-03 3.358004e-03 7.251707e-03 -1.882230e-03 4.915826e-03 -2.292708e-04 -6.445816e-03 -1.769459e-03 8.244880e-03 -7.176534e-04 -5.441471e-03 -7.030310e-03 -8.428005e-04 1.595972e-04 7.003391e-04 -1.034429e-03 6.841473e-04 1.339922e-04 -1.251661e-03 1.965782e-04 1.482624e-03 -1.001767e-03 1.177395e-03 3.356396e-04 4.316468e-04
<VARIANCE> 39
 5.415834e+01 3.630687e+01 4.229399e+01 4.135492e+01 4.817136e+01 5.776150e+01 4.393672e+01 3.889725e+01 4.697247e+01 4.512576e+01 3.020147e+01 2.381779e+01 1.042261e+02 2.028465e+00 1.949042e+00 2.143597e+00 2.103590e+00 2.166699e+00 2.781598e+00 2.240457e+00 2.127003e+00 2.771489e+00 1.942779e+00 1.822041e+00 1.571687e+00 2.323098e+00 3.145719e-01 3.356884e-01 3.522972e-01 3.597100e-01 3.684410e-01 4.687421e-01 4.079363e-01 3.954299e-01 5.021030e-01 3.616183e-01 3.314692e-01 2.879243e-01 3.139019e-01
<GCONST> 1.176950e+02
<TRANSP> 5
 0.000000e+00 1.000000e+00 0.000000e+00 0.000000e+00 0.000000e+00
 0.000000e+00 6.000000e-01 4.000000e-01 0.000000e+00 0.000000e+00
 0.000000e+00 0.000000e+00 6.000000e-01 4.000000e-01 0.000000e+00
 0.000000e+00 0.000000e+00 0.000000e+00 7.000000e-01 3.000000e-01
 0.000000e+00 0.000000e+00 0.000000e+00 0.000000e+00 0.000000e+00
<ENDHMM>
~h "r"
<BEGINHMM>
<NUMSTATES> 5
<STATE> 2
<MEAN> 39
 -1.268831e+01 2.655436e+00 -1.425630e+00 -5.099942e+00 -1.688096e+00 -6.314624e+00 -5.744937e+00 -3.113625e+00 -9.963200e+00 -4.243892e+00 -2.633278e+00 -5.497469e+00 7.433167e+01 1.220833e-03 4.692104e-03 3.358004e-03 7.251707e-03 -1.882230e-03 4.915826e-03 -2.292708e-04 -6.445816e-03 -1.769459e-03 8.244880e-03 -7.176534e-04 -5.441471e-03 -7.030310e-03 -8.428005e-04 1.595972e-04 7.003391e-04 -1.034429e-03 6.841473e-04 1.339922e-04 -1.251661e-03 1.965782e-04 1.482624e-03 -1.001767e-03 1.177395e-03 3.356396e-04 4.316468e-04
<VARIANCE> 39
 5.415834e+01 3.630687e+01 4.229399e+01 4.135492e+01 4.817136e+01 5.776150e+01 4.393672e+01 3.889725e+01 4.697247e+01 4.512576e+01 3.020147e+01 2.381779e+01 1.042261e+02 2.028465e+00 1.949042e+00 2.143597e+00 2.103590e+00 2.166699e+00 2.781598e+00 2.240457e+00 2.127003e+00 2.771489e+00 1.942779e+00 1.822041e+00 1.571687e+00 2.323098e+00 3.145719e-01 3.356884e-01 3.522972e-01 3.597100e-01 3.684410e-01 4.687421e-01 4.079363e-01 3.954299e-01 5.021030e-01 3.616183e-01 3.314692e-01 2.879243e-01 3.139019e-01
<GCONST> 1.176950e+02
<STATE> 3
<MEAN> 39
 -1.268831e+01 2.655436e+00 -1.425630e+00 -5.099942e+00 -1.688096e+00 -6.314624e+00 -5.744937e+00 -3.113625e+00 -9.963200e+00 -4.243892e+00 -2.633278e+00 -5.497469e+00 7.433167e+01 1.220833e-03 4.692104e-03 3.358004e-03 7.251707e-03 -1.882230e-03 4.915826e-03 -2.292708e-04 -6.445816e-03 -1.769459e-03 8.244880e-03 -7.176534e-04 -5.441471e-03 -7.030310e-03 -8.428005e-04 1.595972e-04 7.003391e-04 -1.034429e-03 6.841473e-04 1.339922e-04 -1.251661e-03 1.965782e-04 1.482624e-03 -1.001767e-03 1.177395e-03 3.356396e-04 4.316468e-04
<VARIANCE> 39
 5.415834e+01 3.630687e+01 4.229399e+01 4.135492e+01 4.817136e+01 5.776150e+01 4.393672e+01 3.889725e+01 4.697247e+01 4.512576e+01 3.020147e+01 2.381779e+01 1.042261e+02 2.028465e+00 1.949042e+00 2.143597e+00 2.103590e+00 2.166699e+00 2.781598e+00 2.240457e+00 2.127003e+00 2.771489e+00 1.942779e+00 1.822041e+00 1.571687e+00 2.323098e+00 3.145719e-01 3.356884e-01 3.522972e-01 3.597100e-01 3.684410e-01 4.687421e-01 4.079363e-01 3.954299e-01 5.021030e-01 3.616183e-01 3.314692e-01 2.879243e-01 3.139019e-01
<GCONST> 1.176950e+02
<STATE> 4
<MEAN> 39
 -1.268831e+01 2.655436e+00 -1.425630e+00 -5.099942e+00 -1.688096e+00 -6.314624e+00 -5.744937e+00 -3.113625e+00 -9.963200e+00 -4.243892e+00 -2.633278e+00 -5.497469e+00 7.433167e+01 1.220833e-03 4.692104e-03 3.358004e-03 7.251707e-03 -1.882230e-03 4.915826e-03 -2.292708e-04 -6.445816e-03 -1.769459e-03 8.244880e-03 -7.176534e-04 -5.441471e-03 -7.030310e-03 -8.428005e-04 1.595972e-04 7.003391e-04 -1.034429e-03 6.841473e-04 1.339922e-04 -1.251661e-03 1.965782e-04 1.482624e-03 -1.001767e-03 1.177395e-03 3.356396e-04 4.316468e-04
<VARIANCE> 39
 5.415834e+01 3.630687e+01 4.229399e+01 4.135492e+01 4.817136e+01 5.776150e+01 4.393672e+01 3.889725e+01 4.697247e+01 4.512576e+01 3.020147e+01 2.381779e+01 1.042261e+02 2.028465e+00 1.949042e+00 2.143597e+00 2.103590e+00 2.166699e+00 2.781598e+00 2.240457e+00 2.127003e+00 2.771489e+00 1.942779e+00 1.822041e+00 1.571687e+00 2.323098e+00 3.145719e-01 3.356884e-01 3.522972e-01 3.597100e-01 3.684410e-01 4.687421e-01 4.079363e-01 3.954299e-01 5.021030e-01 3.616183e-01 3.314692e-01 2.879243e-01 3.139019e-01
<GCONST> 1.176950e+02
<TRANSP> 5
 0.000000e+00 1.000000e+00 0.000000e+00 0.000000e+00 0.000000e+00
 0.000000e+00 6.000000e-01 4.000000e-01 0.000000e+00 0.000000e+00
 0.000000e+00 0.000000e+00 6.000000e-01 4.000000e-01 0.000000e+00
 0.000000e+00 0.000000e+00 0.000000e+00 7.000000e-01 3.000000e-01
 0.000000e+00 0.000000e+00 0.000000e+00 0.000000e+00 0.000000e+00
<ENDHMM>
~h "i"
<BEGINHMM>
<NUMSTATES> 5
<STATE> 2
<MEAN> 39
 -1.268831e+01 2.655436e+00 -1.425630e+00 -5.099942e+00 -1.688096e+00 -6.314624e+00 -5.744937e+00 -3.113625e+00 -9.963200e+00 -4.243892e+00 -2.633278e+00 -5.497469e+00 7.433167e+01 1.220833e-03 4.692104e-03 3.358004e-03 7.251707e-03 -1.882230e-03 4.915826e-03 -2.292708e-04 -6.445816e-03 -1.769459e-03 8.244880e-03 -7.176534e-04 -5.441471e-03 -7.030310e-03 -8.428005e-04 1.595972e-04 7.003391e-04 -1.034429e-03 6.841473e-04 1.339922e-04 -1.251661e-03 1.965782e-04 1.482624e-03 -1.001767e-03 1.177395e-03 3.356396e-04 4.316468e-04
<VARIANCE> 39
 5.415834e+01 3.630687e+01 4.229399e+01 4.135492e+01 4.817136e+01 5.776150e+01 4.393672e+01 3.889725e+01 4.697247e+01 4.512576e+01 3.020147e+01 2.381779e+01 1.042261e+02 2.028465e+00 1.949042e+00 2.143597e+00 2.103590e+00 2.166699e+00 2.781598e+00 2.240457e+00 2.127003e+00 2.771489e+00 1.942779e+00 1.822041e+00 1.571687e+00 2.323098e+00 3.145719e-01 3.356884e-01 3.522972e-01 3.597100e-01 3.684410e-01 4.687421e-01 4.079363e-01 3.954299e-01 5.021030e-01 3.616183e-01 3.314692e-01 2.879243e-01 3.139019e-01
<GCONST> 1.176950e+02
<STATE> 3
<MEAN> 39
 -1.268831e+01 2.655436e+00 -1.425630e+00 -5.099942e+00 -1.688096e+00 -6.314624e+00 -5.744937e+00 -3.113625e+00 -9.963200e+00 -4.243892e+00 -2.633278e+00 -5.497469e+00 7.433167e+01 1.220833e-03 4.692104e-03 3.358004e-03 7.251707e-03 -1.882230e-03 4.915826e-03 -2.292708e-04 -6.445816e-03 -1.769459e-03 8.244880e-03 -7.176534e-04 -5.441471e-03 -7.030310e-03 -8.428005e-04 1.595972e-04 7.003391e-04 -1.034429e-03 6.841473e-04 1.339922e-04 -1.251661e-03 1.965782e-04 1.482624e-03 -1.001767e-03 1.177395e-03 3.356396e-04 4.316468e-04
<VARIANCE> 39
 5.415834e+01 3.630687e+01 4.229399e+01 4.135492e+01 4.817136e+01 5.776150e+01 4.393672e+01 3.889725e+01 4.697247e+01 4.512576e+01 3.020147e+01 2.381779e+01 1.042261e+02 2.028465e+00 1.949042e+00 2.143597e+00 2.103590e+00 2.166699e+00 2.781598e+00 2.240457e+00 2.127003e+00 2.771489e+00 1.942779e+00 1.822041e+00 1.571687e+00 2.323098e+00 3.145719e-01 3.356884e-01 3.522972e-01 3.597100e-01 3.684410e-01 4.687421e-01 4.079363e-01 3.954299e-01 5.021030e-01 3.616183e-01 3.314692e-01 2.879243e-01 3.139019e-01
<GCONST> 1.176950e+02
<STATE> 4
<MEAN> 39
 -1.268831e+01 2.655436e+00 -1.425630e+00 -5.099942e+00 -1.688096e+00 -6.314624e+00 -5.744937e+00 -3.113625e+00 -9.963200e+00 -4.243892e+00 -2.633278e+00 -5.497469e+00 7.433167e+01 1.220833e-03 4.692104e-03 3.358004e-03 7.251707e-03 -1.882230e-03 4.915826e-03 -2.292708e-04 -6.445816e-03 -1.769459e-03 8.244880e-03 -7.176534e-04 -5.441471e-03 -7.030310e-03 -8.428005e-04 1.595972e-04 7.003391e-04 -1.034429e-03 6.841473e-04 1.339922e-04 -1.251661e-03 1.965782e-04 1.482624e-03 -1.001767e-03 1.177395e-03 3.356396e-04 4.316468e-04
<VARIANCE> 39
 5.415834e+01 3.630687e+01 4.229399e+01 4.135492e+01 4.817136e+01 5.776150e+01 4.393672e+01 3.889725e+01 4.697247e+01 4.512576e+01 3.020147e+01 2.381779e+01 1.042261e+02 2.028465e+00 1.949042e+00 2.143597e+00 2.103590e+00 2.166699e+00 2.781598e+00 2.240457e+00 2.127003e+00 2.771489e+00 1.942779e+00 1.822041e+00 1.571687e+00 2.323098e+00 3.145719e-01 3.356884e-01 3.522972e-01 3.597100e-01 3.684410e-01 4.687421e-01 4.079363e-01 3.954299e-01 5.021030e-01 3.616183e-01 3.314692e-01 2.879243e-01 3.139019e-01
<GCONST> 1.176950e+02
<TRANSP> 5
 0.000000e+00 1.000000e+00 0.000000e+00 0.000000e+00 0.000000e+00
 0.000000e+00 6.000000e-01 4.000000e-01 0.000000e+00 0.000000e+00
 0.000000e+00 0.000000e+00 6.000000e-01 4.000000e-01 0.000000e+00
 0.000000e+00 0.000000e+00 0.000000e+00 7.000000e-01 3.000000e-01
 0.000000e+00 0.000000e+00 0.000000e+00 0.000000e+00 0.000000e+00
<ENDHMM>
~h "k"
<BEGINHMM>
<NUMSTATES> 5
<STATE> 2
<MEAN> 39
 -1.268831e+01 2.655436e+00 -1.425630e+00 -5.099942e+00 -1.688096e+00 -6.314624e+00 -5.744937e+00 -3.113625e+00 -9.963200e+00 -4.243892e+00 -2.633278e+00 -5.497469e+00 7.433167e+01 1.220833e-03 4.692104e-03 3.358004e-03 7.251707e-03 -1.882230e-03 4.915826e-03 -2.292708e-04 -6.445816e-03 -1.769459e-03 8.244880e-03 -7.176534e-04 -5.441471e-03 -7.030310e-03 -8.428005e-04 1.595972e-04 7.003391e-04 -1.034429e-03 6.841473e-04 1.339922e-04 -1.251661e-03 1.965782e-04 1.482624e-03 -1.001767e-03 1.177395e-03 3.356396e-04 4.316468e-04
<VARIANCE> 39
 5.415834e+01 3.630687e+01 4.229399e+01 4.135492e+01 4.817136e+01 5.776150e+01 4.393672e+01 3.889725e+01 4.697247e+01 4.512576e+01 3.020147e+01 2.381779e+01 1.042261e+02 2.028465e+00 1.949042e+00 2.143597e+00 2.103590e+00 2.166699e+00 2.781598e+00 2.240457e+00 2.127003e+00 2.771489e+00 1.942779e+00 1.822041e+00 1.571687e+00 2.323098e+00 3.145719e-01 3.356884e-01 3.522972e-01 3.597100e-01 3.684410e-01 4.687421e-01 4.079363e-01 3.954299e-01 5.021030e-01 3.616183e-01 3.314692e-01 2.879243e-01 3.139019e-01
<GCONST> 1.176950e+02
<STATE> 3
<MEAN> 39
 -1.268831e+01 2.655436e+00 -1.425630e+00 -5.099942e+00 -1.688096e+00 -6.314624e+00 -5.744937e+00 -3.113625e+00 -9.963200e+00 -4.243892e+00 -2.633278e+00 -5.497469e+00 7.433167e+01 1.220833e-03 4.692104e-03 3.358004e-03 7.251707e-03 -1.882230e-03 4.915826e-03 -2.292708e-04 -6.445816e-03 -1.769459e-03 8.244880e-03 -7.176534e-04 -5.441471e-03 -7.030310e-03 -8.428005e-04 1.595972e-04 7.003391e-04 -1.034429e-03 6.841473e-04 1.339922e-04 -1.251661e-03 1.965782e-04 1.482624e-03 -1.001767e-03 1.177395e-03 3.356396e-04 4.316468e-04
<VARIANCE> 39
 5.415834e+01 3.630687e+01 4.229399e+01 4.135492e+01 4.817136e+01 5.776150e+01 4.393672e+01 3.889725e+01 4.697247e+01 4.512576e+01 3.020147e+01 2.381779e+01 1.042261e+02 2.028465e+00 1.949042e+00 2.143597e+00 2.103590e+00 2.166699e+00 2.781598e+00 2.240457e+00 2.127003e+00 2.771489e+00 1.942779e+00 1.822041e+00 1.571687e+00 2.323098e+00 3.145719e-01 3.356884e-01 3.522972e-01 3.597100e-01 3.684410e-01 4.687421e-01 4.079363e-01 3.954299e-01 5.021030e-01 3.616183e-01 3.314692e-01 2.879243e-01 3.139019e-01
<GCONST> 1.176950e+02
<STATE> 4
<MEAN> 39
 -1.268831e+01 2.655436e+00 -1.425630e+00 -5.099942e+00 -1.688096e+00 -6.314624e+00 -5.744937e+00 -3.113625e+00 -9.963200e+00 -4.243892e+00 -2.633278e+00 -5.497469e+00 7.433167e+01 1.220833e-03 4.692104e-03 3.358004e-03 7.251707e-03 -1.882230e-03 4.915826e-03 -2.292708e-04 -6.445816e-03 -1.769459e-03 8.244880e-03 -7.176534e-04 -5.441471e-03 -7.030310e-03 -8.428005e-04 1.595972e-04 7.003391e-04 -1.034429e-03 6.841473e-04 1.339922e-04 -1.251661e-03 1.965782e-04 1.482624e-03 -1.001767e-03 1.177395e-03 3.356396e-04 4.316468e-04
<VARIANCE> 39
 5.415834e+01 3.630687e+01 4.229399e+01 4.135492e+01 4.817136e+01 5.776150e+01 4.393672e+01 3.889725e+01 4.697247e+01 4.512576e+01 3.020147e+01 2.381779e+01 1.042261e+02 2.028465e+00 1.949042e+00 2.143597e+00 2.103590e+00 2.166699e+00 2.781598e+00 2.240457e+00 2.127003e+00 2.771489e+00 1.942779e+00 1.822041e+00 1.571687e+00 2.323098e+00 3.145719e-01 3.356884e-01 3.522972e-01 3.597100e-01 3.684410e-01 4.687421e-01 4.079363e-01 3.954299e-01 5.021030e-01 3.616183e-01 3.314692e-01 2.879243e-01 3.139019e-01
<GCONST> 1.176950e+02
<TRANSP> 5
 0.000000e+00 1.000000e+00 0.000000e+00 0.000000e+00 0.000000e+00
 0.000000e+00 6.000000e-01 4.000000e-01 0.000000e+00 0.000000e+00
 0.000000e+00 0.000000e+00 6.000000e-01 4.000000e-01 0.000000e+00
 0.000000e+00 0.000000e+00 0.000000e+00 7.000000e-01 3.000000e-01
 0.000000e+00 0.000000e+00 0.000000e+00 0.000000e+00 0.000000e+00
<ENDHMM>
~h "u"
<BEGINHMM>
<NUMSTATES> 5
<STATE> 2
<MEAN> 39
 -1.268831e+01 2.655436e+00 -1.425630e+00 -5.099942e+00 -1.688096e+00 -6.314624e+00 -5.744937e+00 -3.113625e+00 -9.963200e+00 -4.243892e+00 -2.633278e+00 -5.497469e+00 7.433167e+01 1.220833e-03 4.692104e-03 3.358004e-03 7.251707e-03 -1.882230e-03 4.915826e-03 -2.292708e-04 -6.445816e-03 -1.769459e-03 8.244880e-03 -7.176534e-04 -5.441471e-03 -7.030310e-03 -8.428005e-04 1.595972e-04 7.003391e-04 -1.034429e-03 6.841473e-04 1.339922e-04 -1.251661e-03 1.965782e-04 1.482624e-03 -1.001767e-03 1.177395e-03 3.356396e-04 4.316468e-04
<VARIANCE> 39
 5.415834e+01 3.630687e+01 4.229399e+01 4.135492e+01 4.817136e+01 5.776150e+01 4.393672e+01 3.889725e+01 4.697247e+01 4.512576e+01 3.020147e+01 2.381779e+01 1.042261e+02 2.028465e+00 1.949042e+00 2.143597e+00 2.103590e+00 2.166699e+00 2.781598e+00 2.240457e+00 2.127003e+00 2.771489e+00 1.942779e+00 1.822041e+00 1.571687e+00 2.323098e+00 3.145719e-01 3.356884e-01 3.522972e-01 3.597100e-01 3.684410e-01 4.687421e-01 4.079363e-01 3.954299e-01 5.021030e-01 3.616183e-01 3.314692e-01 2.879243e-01 3.139019e-01
<GCONST> 1.176950e+02
<STATE> 3
<MEAN> 39
 -1.268831e+01 2.655436e+00 -1.425630e+00 -5.099942e+00 -1.688096e+00 -6.314624e+00 -5.744937e+00 -3.113625e+00 -9.963200e+00 -4.243892e+00 -2.633278e+00 -5.497469e+00 7.433167e+01 1.220833e-03 4.692104e-03 3.358004e-03 7.251707e-03 -1.882230e-03 4.915826e-03 -2.292708e-04 -6.445816e-03 -1.769459e-03 8.244880e-03 -7.176534e-04 -5.441471e-03 -7.030310e-03 -8.428005e-04 1.595972e-04 7.003391e-04 -1.034429e-03 6.841473e-04 1.339922e-04 -1.251661e-03 1.965782e-04 1.482624e-03 -1.001767e-03 1.177395e-03 3.356396e-04 4.316468e-04
<VARIANCE> 39
 5.415834e+01 3.630687e+01 4.229399e+01 4.135492e+01 4.817136e+01 5.776150e+01 4.393672e+01 3.889725e+01 4.697247e+01 4.512576e+01 3.020147e+01 2.381779e+01 1.042261e+02 2.028465e+00 1.949042e+00 2.143597e+00 2.103590e+00 2.166699e+00 2.781598e+00 2.240457e+00 2.127003e+00 2.771489e+00 1.942779e+00 1.822041e+00 1.571687e+00 2.323098e+00 3.145719e-01 3.356884e-01 3.522972e-01 3.597100e-01 3.684410e-01 4.687421e-01 4.079363e-01 3.954299e-01 5.021030e-01 3.616183e-01 3.314692e-01 2.879243e-01 3.139019e-01
<GCONST> 1.176950e+02
<STATE> 4
<MEAN> 39
 -1.268831e+01 2.655436e+00 -1.425630e+00 -5.099942e+00 -1.688096e+00 -6.314624e+00 -5.744937e+00 -3.113625e+00 -9.963200e+00 -4.243892e+00 -2.633278e+00 -5.497469e+00 7.433167e+01 1.220833e-03 4.692104e-03 3.358004e-03 7.251707e-03 -1.882230e-03 4.915826e-03 -2.292708e-04 -6.445816e-03 -1.769459e-03 8.244880e-03 -7.176534e-04 -5.441471e-03 -7.030310e-03 -8.428005e-04 1.595972e-04 7.003391e-04 -1.034429e-03 6.841473e-04 1.339922e-04 -1.251661e-03 1.965782e-04 1.482624e-03 -1.001767e-03 1.177395e-03 3.356396e-04 4.316468e-04
<VARIANCE> 39
 5.415834e+01 3.630687e+01 4.229399e+01 4.135492e+01 4.817136e+01 5.776150e+01 4.393672e+01 3.889725e+01 4.697247e+01 4.512576e+01 3.020147e+01 2.381779e+01 1.042261e+02 2.028465e+00 1.949042e+00 2.143597e+00 2.103590e+00 2.166699e+00 2.781598e+00 2.240457e+00 2.127003e+00 2.771489e+00 1.942779e+00 1.822041e+00 1.571687e+00 2.323098e+00 3.145719e-01 3.356884e-01 3.522972e-01 3.597100e-01 3.684410e-01 4.687421e-01 4.079363e-01 3.954299e-01 5.021030e-01 3.616183e-01 3.314692e-01 2.879243e-01 3.139019e-01
<GCONST> 1.176950e+02
<TRANSP> 5
 0.000000e+00 1.000000e+00 0.000000e+00 0.000000e+00 0.000000e+00
 0.000000e+00 6.000000e-01 4.000000e-01 0.000000e+00 0.000000e+00
 0.000000e+00 0.000000e+00 6.000000e-01 4.000000e-01 0.000000e+00
 0.000000e+00 0.000000e+00 0.000000e+00 7.000000e-01 3.000000e-01
 0.000000e+00 0.000000e+00 0.000000e+00 0.000000e+00 0.000000e+00
<ENDHMM>
~h "t"
<BEGINHMM>
<NUMSTATES> 5
<STATE> 2
<MEAN> 39
 -1.268831e+01 2.655436e+00 -1.425630e+00 -5.099942e+00 -1.688096e+00 -6.314624e+00 -5.744937e+00 -3.113625e+00 -9.963200e+00 -4.243892e+00 -2.633278e+00 -5.497469e+00 7.433167e+01 1.220833e-03 4.692104e-03 3.358004e-03 7.251707e-03 -1.882230e-03 4.915826e-03 -2.292708e-04 -6.445816e-03 -1.769459e-03 8.244880e-03 -7.176534e-04 -5.441471e-03 -7.030310e-03 -8.428005e-04 1.595972e-04 7.003391e-04 -1.034429e-03 6.841473e-04 1.339922e-04 -1.251661e-03 1.965782e-04 1.482624e-03 -1.001767e-03 1.177395e-03 3.356396e-04 4.316468e-04
<VARIANCE> 39
 5.415834e+01 3.630687e+01 4.229399e+01 4.135492e+01 4.817136e+01 5.776150e+01 4.393672e+01 3.889725e+01 4.697247e+01 4.512576e+01 3.020147e+01 2.381779e+01 1.042261e+02 2.028465e+00 1.949042e+00 2.143597e+00 2.103590e+00 2.166699e+00 2.781598e+00 2.240457e+00 2.127003e+00 2.771489e+00 1.942779e+00 1.822041e+00 1.571687e+00 2.323098e+00 3.145719e-01 3.356884e-01 3.522972e-01 3.597100e-01 3.684410e-01 4.687421e-01 4.079363e-01 3.954299e-01 5.021030e-01 3.616183e-01 3.314692e-01 2.879243e-01 3.139019e-01
<GCONST> 1.176950e+02
<STATE> 3
<MEAN> 39
 -1.268831e+01 2.655436e+00 -1.425630e+00 -5.099942e+00 -1.688096e+00 -6.314624e+00 -5.744937e+00 -3.113625e+00 -9.963200e+00 -4.243892e+00 -2.633278e+00 -5.497469e+00 7.433167e+01 1.220833e-03 4.692104e-03 3.358004e-03 7.251707e-03 -1.882230e-03 4.915826e-03 -2.292708e-04 -6.445816e-03 -1.769459e-03 8.244880e-03 -7.176534e-04 -5.441471e-03 -7.030310e-03 -8.428005e-04 1.595972e-04 7.003391e-04 -1.034429e-03 6.841473e-04 1.339922e-04 -1.251661e-03 1.965782e-04 1.482624e-03 -1.001767e-03 1.177395e-03 3.356396e-04 4.316468e-04
<VARIANCE> 39
 5.415834e+01 3.630687e+01 4.229399e+01 4.135492e+01 4.817136e+01 5.776150e+01 4.393672e+01 3.889725e+01 4.697247e+01 4.512576e+01 3.020147e+01 2.381779e+01 1.042261e+02 2.028465e+00 1.949042e+00 2.143597e+00 2.103590e+00 2.166699e+00 2.781598e+00 2.240457e+00 2.127003e+00 2.771489e+00 1.942779e+00 1.822041e+00 1.571687e+00 2.323098e+00 3.145719e-01 3.356884e-01 3.522972e-01 3.597100e-01 3.684410e-01 4.687421e-01 4.079363e-01 3.954299e-01 5.021030e-01 3.616183e-01 3.314692e-01 2.879243e-01 3.139019e-01
<GCONST> 1.176950e+02
<STATE> 4
<MEAN> 39
 -1.268831e+01 2.655436e+00 -1.425630e+00 -5.099942e+00 -1.688096e+00 -6.314624e+00 -5.744937e+00 -3.113625e+00 -9.963200e+00 -4.243892e+00 -2.633278e+00 -5.497469e+00 7.433167e+01 1.220833e-03 4.692104e-03 3.358004e-03 7.251707e-03 -1.882230e-03 4.915826e-03 -2.292708e-04 -6.445816e-03 -1.769459e-03 8.244880e-03 -7.176534e-04 -5.441471e-03 -7.030310e-03 -8.428005e-04 1.595972e-04 7.003391e-04 -1.034429e-03 6.841473e-04 1.339922e-04 -1.251661e-03 1.965782e-04 1.482624e-03 -1.001767e-03 1.177395e-03 3.356396e-04 4.316468e-04
<VARIANCE> 39
 5.415834e+01 3.630687e+01 4.229399e+01 4.135492e+01 4.817136e+01 5.776150e+01 4.393672e+01 3.889725e+01 4.697247e+01 4.512576e+01 3.020147e+01 2.381779e+01 1.042261e+02 2.028465e+00 1.949042e+00 2.143597e+00 2.103590e+00 2.166699e+00 2.781598e+00 2.240457e+00 2.127003e+00 2.771489e+00 1.942779e+00 1.822041e+00 1.571687e+00 2.323098e+00 3.145719e-01 3.356884e-01 3.522972e-01 3.597100e-01 3.684410e-01 4.687421e-01 4.079363e-01 3.954299e-01 5.021030e-01 3.616183e-01 3.314692e-01 2.879243e-01 3.139019e-01
<GCONST> 1.176950e+02
<TRANSP> 5
 0.000000e+00 1.000000e+00 0.000000e+00 0.000000e+00 0.000000e+00
 0.000000e+00 6.000000e-01 4.000000e-01 0.000000e+00 0.000000e+00
 0.000000e+00 0.000000e+00 6.000000e-01 4.000000e-01 0.000000e+00
 0.000000e+00 0.000000e+00 0.000000e+00 7.000000e-01 3.000000e-01
 0.000000e+00 0.000000e+00 0.000000e+00 0.000000e+00 0.000000e+00
<ENDHMM>
~h "ny"
<BEGINHMM>
<NUMSTATES> 5
<STATE> 2
<MEAN> 39
 -1.268831e+01 2.655436e+00 -1.425630e+00 -5.099942e+00 -1.688096e+00 -6.314624e+00 -5.744937e+00 -3.113625e+00 -9.963200e+00 -4.243892e+00 -2.633278e+00 -5.497469e+00 7.433167e+01 1.220833e-03 4.692104e-03 3.358004e-03 7.251707e-03 -1.882230e-03 4.915826e-03 -2.292708e-04 -6.445816e-03 -1.769459e-03 8.244880e-03 -7.176534e-04 -5.441471e-03 -7.030310e-03 -8.428005e-04 1.595972e-04 7.003391e-04 -1.034429e-03 6.841473e-04 1.339922e-04 -1.251661e-03 1.965782e-04 1.482624e-03 -1.001767e-03 1.177395e-03 3.356396e-04 4.316468e-04
<VARIANCE> 39
 5.415834e+01 3.630687e+01 4.229399e+01 4.135492e+01 4.817136e+01 5.776150e+01 4.393672e+01 3.889725e+01 4.697247e+01 4.512576e+01 3.020147e+01 2.381779e+01 1.042261e+02 2.028465e+00 1.949042e+00 2.143597e+00 2.103590e+00 2.166699e+00 2.781598e+00 2.240457e+00 2.127003e+00 2.771489e+00 1.942779e+00 1.822041e+00 1.571687e+00 2.323098e+00 3.145719e-01 3.356884e-01 3.522972e-01 3.597100e-01 3.684410e-01 4.687421e-01 4.079363e-01 3.954299e-01 5.021030e-01 3.616183e-01 3.314692e-01 2.879243e-01 3.139019e-01
<GCONST> 1.176950e+02
<STATE> 3
<MEAN> 39
 -1.268831e+01 2.655436e+00 -1.425630e+00 -5.099942e+00 -1.688096e+00 -6.314624e+00 -5.744937e+00 -3.113625e+00 -9.963200e+00 -4.243892e+00 -2.633278e+00 -5.497469e+00 7.433167e+01 1.220833e-03 4.692104e-03 3.358004e-03 7.251707e-03 -1.882230e-03 4.915826e-03 -2.292708e-04 -6.445816e-03 -1.769459e-03 8.244880e-03 -7.176534e-04 -5.441471e-03 -7.030310e-03 -8.428005e-04 1.595972e-04 7.003391e-04 -1.034429e-03 6.841473e-04 1.339922e-04 -1.251661e-03 1.965782e-04 1.482624e-03 -1.001767e-03 1.177395e-03 3.356396e-04 4.316468e-04
<VARIANCE> 39
 5.415834e+01 3.630687e+01 4.229399e+01 4.135492e+01 4.817136e+01 5.776150e+01 4.393672e+01 3.889725e+01 4.697247e+01 4.512576e+01 3.020147e+01 2.381779e+01 1.042261e+02 2.028465e+00 1.949042e+00 2.143597e+00 2.103590e+00 2.166699e+00 2.781598e+00 2.240457e+00 2.127003e+00 2.771489e+00 1.942779e+00 1.822041e+00 1.571687e+00 2.323098e+00 3.145719e-01 3.356884e-01 3.522972e-01 3.597100e-01 3.684410e-01 4.687421e-01 4.079363e-01 3.954299e-01 5.021030e-01 3.616183e-01 3.314692e-01 2.879243e-01 3.139019e-01
<GCONST> 1.176950e+02
<STATE> 4
<MEAN> 39
 -1.268831e+01 2.655436e+00 -1.425630e+00 -5.099942e+00 -1.688096e+00 -6.314624e+00 -5.744937e+00 -3.113625e+00 -9.963200e+00 -4.243892e+00 -2.633278e+00 -5.497469e+00 7.433167e+01 1.220833e-03 4.692104e-03 3.358004e-03 7.251707e-03 -1.882230e-03 4.915826e-03 -2.292708e-04 -6.445816e-03 -1.769459e-03 8.244880e-03 -7.176534e-04 -5.441471e-03 -7.030310e-03 -8.428005e-04 1.595972e-04 7.003391e-04 -1.034429e-03 6.841473e-04 1.339922e-04 -1.251661e-03 1.965782e-04 1.482624e-03 -1.001767e-03 1.177395e-03 3.356396e-04 4.316468e-04
<VARIANCE> 39
 5.415834e+01 3.630687e+01 4.229399e+01 4.135492e+01 4.817136e+01 5.776150e+01 4.393672e+01 3.889725e+01 4.697247e+01 4.512576e+01 3.020147e+01 2.381779e+01 1.042261e+02 2.028465e+00 1.949042e+00 2.143597e+00 2.103590e+00 2.166699e+00 2.781598e+00 2.240457e+00 2.127003e+00 2.771489e+00 1.942779e+00 1.822041e+00 1.571687e+00 2.323098e+00 3.145719e-01 3.356884e-01 3.522972e-01 3.597100e-01 3.684410e-01 4.687421e-01 4.079363e-01 3.954299e-01 5.021030e-01 3.616183e-01 3.314692e-01 2.879243e-01 3.139019e-01
<GCONST> 1.176950e+02
<TRANSP> 5
 0.000000e+00 1.000000e+00 0.000000e+00 0.000000e+00 0.000000e+00
 0.000000e+00 6.000000e-01 4.000000e-01 0.000000e+00 0.000000e+00
 0.000000e+00 0.000000e+00 6.000000e-01 4.000000e-01 0.000000e+00
 0.000000e+00 0.000000e+00 0.000000e+00 7.000000e-01 3.000000e-01
 0.000000e+00 0.000000e+00 0.000000e+00 0.000000e+00 0.000000e+00
<ENDHMM>
~h "a"
<BEGINHMM>
<NUMSTATES> 5
<STATE> 2
<MEAN> 39
 -1.268831e+01 2.655436e+00 -1.425630e+00 -5.099942e+00 -1.688096e+00 -6.314624e+00 -5.744937e+00 -3.113625e+00 -9.963200e+00 -4.243892e+00 -2.633278e+00 -5.497469e+00 7.433167e+01 1.220833e-03 4.692104e-03 3.358004e-03 7.251707e-03 -1.882230e-03 4.915826e-03 -2.292708e-04 -6.445816e-03 -1.769459e-03 8.244880e-03 -7.176534e-04 -5.441471e-03 -7.030310e-03 -8.428005e-04 1.595972e-04 7.003391e-04 -1.034429e-03 6.841473e-04 1.339922e-04 -1.251661e-03 1.965782e-04 1.482624e-03 -1.001767e-03 1.177395e-03 3.356396e-04 4.316468e-04
<VARIANCE> 39
 5.415834e+01 3.630687e+01 4.229399e+01 4.135492e+01 4.817136e+01 5.776150e+01 4.393672e+01 3.889725e+01 4.697247e+01 4.512576e+01 3.020147e+01 2.381779e+01 1.042261e+02 2.028465e+00 1.949042e+00 2.143597e+00 2.103590e+00 2.166699e+00 2.781598e+00 2.240457e+00 2.127003e+00 2.771489e+00 1.942779e+00 1.822041e+00 1.571687e+00 2.323098e+00 3.145719e-01 3.356884e-01 3.522972e-01 3.597100e-01 3.684410e-01 4.687421e-01 4.079363e-01 3.954299e-01 5.021030e-01 3.616183e-01 3.314692e-01 2.879243e-01 3.139019e-01
<GCONST> 1.176950e+02
<STATE> 3
<MEAN> 39
 -1.268831e+01 2.655436e+00 -1.425630e+00 -5.099942e+00 -1.688096e+00 -6.314624e+00 -5.744937e+00 -3.113625e+00 -9.963200e+00 -4.243892e+00 -2.633278e+00 -5.497469e+00 7.433167e+01 1.220833e-03 4.692104e-03 3.358004e-03 7.251707e-03 -1.882230e-03 4.915826e-03 -2.292708e-04 -6.445816e-03 -1.769459e-03 8.244880e-03 -7.176534e-04 -5.441471e-03 -7.030310e-03 -8.428005e-04 1.595972e-04 7.003391e-04 -1.034429e-03 6.841473e-04 1.339922e-04 -1.251661e-03 1.965782e-04 1.482624e-03 -1.001767e-03 1.177395e-03 3.356396e-04 4.316468e-04
<VARIANCE> 39
 5.415834e+01 3.630687e+01 4.229399e+01 4.135492e+01 4.817136e+01 5.776150e+01 4.393672e+01 3.889725e+01 4.697247e+01 4.512576e+01 3.020147e+01 2.381779e+01 1.042261e+02 2.028465e+00 1.949042e+00 2.143597e+00 2.103590e+00 2.166699e+00 2.781598e+00 2.240457e+00 2.127003e+00 2.771489e+00 1.942779e+00 1.822041e+00 1.571687e+00 2.323098e+00 3.145719e-01 3.356884e-01 3.522972e-01 3.597100e-01 3.684410e-01 4.687421e-01 4.079363e-01 3.954299e-01 5.021030e-01 3.616183e-01 3.314692e-01 2.879243e-01 3.139019e-01
<GCONST> 1.176950e+02
<STATE> 4
<MEAN> 39
 -1.268831e+01 2.655436e+00 -1.425630e+00 -5.099942e+00 -1.688096e+00 -6.314624e+00 -5.744937e+00 -3.113625e+00 -9.963200e+00 -4.243892e+00 -2.633278e+00 -5.497469e+00 7.433167e+01 1.220833e-03 4.692104e-03 3.358004e-03 7.251707e-03 -1.882230e-03 4.915826e-03 -2.292708e-04 -6.445816e-03 -1.769459e-03 8.244880e-03 -7.176534e-04 -5.441471e-03 -7.030310e-03 -8.428005e-04 1.595972e-04 7.003391e-04 -1.034429e-03 6.841473e-04 1.339922e-04 -1.251661e-03 1.965782e-04 1.482624e-03 -1.001767e-03 1.177395e-03 3.356396e-04 4.316468e-04
<VARIANCE> 39
 5.415834e+01 3.630687e+01 4.229399e+01 4.135492e+01 4.817136e+01 5.776150e+01 4.393672e+01 3.889725e+01 4.697247e+01 4.512576e+01 3.020147e+01 2.381779e+01 1.042261e+02 2.028465e+00 1.949042e+00 2.143597e+00 2.103590e+00 2.166699e+00 2.781598e+00 2.240457e+00 2.127003e+00 2.771489e+00 1.942779e+00 1.822041e+00 1.571687e+00 2.323098e+00 3.145719e-01 3.356884e-01 3.522972e-01 3.597100e-01 3.684410e-01 4.687421e-01 4.079363e-01 3.954299e-01 5.021030e-01 3.616183e-01 3.314692e-01 2.879243e-01 3.139019e-01
<GCONST> 1.176950e+02
<TRANSP> 5
 0.000000e+00 1.000000e+00 0.000000e+00 0.000000e+00 0.000000e+00
 0.000000e+00 6.000000e-01 4.000000e-01 0.000000e+00 0.000000e+00
 0.000000e+00 0.000000e+00 6.000000e-01 4.000000e-01 0.000000e+00
 0.000000e+00 0.000000e+00 0.000000e+00 7.000000e-01 3.000000e-01
 0.000000e+00 0.000000e+00 0.000000e+00 0.000000e+00 0.000000e+00
<ENDHMM>
~h "d"
<BEGINHMM>
<NUMSTATES> 5
<STATE> 2
<MEAN> 39
 -1.268831e+01 2.655436e+00 -1.425630e+00 -5.099942e+00 -1.688096e+00 -6.314624e+00 -5.744937e+00 -3.113625e+00 -9.963200e+00 -4.243892e+00 -2.633278e+00 -5.497469e+00 7.433167e+01 1.220833e-03 4.692104e-03 3.358004e-03 7.251707e-03 -1.882230e-03 4.915826e-03 -2.292708e-04 -6.445816e-03 -1.769459e-03 8.244880e-03 -7.176534e-04 -5.441471e-03 -7.030310e-03 -8.428005e-04 1.595972e-04 7.003391e-04 -1.034429e-03 6.841473e-04 1.339922e-04 -1.251661e-03 1.965782e-04 1.482624e-03 -1.001767e-03 1.177395e-03 3.356396e-04 4.316468e-04
<VARIANCE> 39
 5.415834e+01 3.630687e+01 4.229399e+01 4.135492e+01 4.817136e+01 5.776150e+01 4.393672e+01 3.889725e+01 4.697247e+01 4.512576e+01 3.020147e+01 2.381779e+01 1.042261e+02 2.028465e+00 1.949042e+00 2.143597e+00 2.103590e+00 2.166699e+00 2.781598e+00 2.240457e+00 2.127003e+00 2.771489e+00 1.942779e+00 1.822041e+00 1.571687e+00 2.323098e+00 3.145719e-01 3.356884e-01 3.522972e-01 3.597100e-01 3.684410e-01 4.687421e-01 4.079363e-01 3.954299e-01 5.021030e-01 3.616183e-01 3.314692e-01 2.879243e-01 3.139019e-01
<GCONST> 1.176950e+02
<STATE> 3
<MEAN> 39
 -1.268831e+01 2.655436e+00 -1.425630e+00 -5.099942e+00 -1.688096e+00 -6.314624e+00 -5.744937e+00 -3.113625e+00 -9.963200e+00 -4.243892e+00 -2.633278e+00 -5.497469e+00 7.433167e+01 1.220833e-03 4.692104e-03 3.358004e-03 7.251707e-03 -1.882230e-03 4.915826e-03 -2.292708e-04 -6.445816e-03 -1.769459e-03 8.244880e-03 -7.176534e-04 -5.441471e-03 -7.030310e-03 -8.428005e-04 1.595972e-04 7.003391e-04 -1.034429e-03 6.841473e-04 1.339922e-04 -1.251661e-03 1.965782e-04 1.482624e-03 -1.001767e-03 1.177395e-03 3.356396e-04 4.316468e-04
<VARIANCE> 39
 5.415834e+01 3.630687e+01 4.229399e+01 4.135492e+01 4.817136e+01 5.776150e+01 4.393672e+01 3.889725e+01 4.697247e+01 4.512576e+01 3.020147e+01 2.381779e+01 1.042261e+02 2.028465e+00 1.949042e+00 2.143597e+00 2.103590e+00 2.166699e+00 2.781598e+00 2.240457e+00 2.127003e+00 2.771489e+00 1.942779e+00 1.822041e+00 1.571687e+00 2.323098e+00 3.145719e-01 3.356884e-01 3.522972e-01 3.597100e-01 3.684410e-01 4.687421e-01 4.079363e-01 3.954299e-01 5.021030e-01 3.616183e-01 3.314692e-01 2.879243e-01 3.139019e-01
<GCONST> 1.176950e+02
<STATE> 4
<MEAN> 39
 -1.268831e+01 2.655436e+00 -1.425630e+00 -5.099942e+00 -1.688096e+00 -6.314624e+00 -5.744937e+00 -3.113625e+00 -9.963200e+00 -4.243892e+00 -2.633278e+00 -5.497469e+00 7.433167e+01 1.220833e-03 4.692104e-03 3.358004e-03 7.251707e-03 -1.882230e-03 4.915826e-03 -2.292708e-04 -6.445816e-03 -1.769459e-03 8.244880e-03 -7.176534e-04 -5.441471e-03 -7.030310e-03 -8.428005e-04 1.595972e-04 7.003391e-04 -1.034429e-03 6.841473e-04 1.339922e-04 -1.251661e-03 1.965782e-04 1.482624e-03 -1.001767e-03 1.177395e-03 3.356396e-04 4.316468e-04
<VARIANCE> 39
 5.415834e+01 3.630687e+01 4.229399e+01 4.135492e+01 4.817136e+01 5.776150e+01 4.393672e+01 3.889725e+01 4.697247e+01 4.512576e+01 3.020147e+01 2.381779e+01 1.042261e+02 2.028465e+00 1.949042e+00 2.143597e+00 2.103590e+00 2.166699e+00 2.781598e+00 2.240457e+00 2.127003e+00 2.771489e+00 1.942779e+00 1.822041e+00 1.571687e+00 2.323098e+00 3.145719e-01 3.356884e-01 3.522972e-01 3.597100e-01 3.684410e-01 4.687421e-01 4.079363e-01 3.954299e-01 5.021030e-01 3.616183e-01 3.314692e-01 2.879243e-01 3.139019e-01
<GCONST> 1.176950e+02
<TRANSP> 5
 0.000000e+00 1.000000e+00 0.000000e+00 0.000000e+00 0.000000e+00
 0.000000e+00 6.000000e-01 4.000000e-01 0.000000e+00 0.000000e+00
 0.000000e+00 0.000000e+00 6.000000e-01 4.000000e-01 0.000000e+00
 0.000000e+00 0.000000e+00 0.000000e+00 7.000000e-01 3.000000e-01
 0.000000e+00 0.000000e+00 0.000000e+00 0.000000e+00 0.000000e+00
<ENDHMM>
~h "l"
<BEGINHMM>
<NUMSTATES> 5
<STATE> 2
<MEAN> 39
 -1.268831e+01 2.655436e+00 -1.425630e+00 -5.099942e+00 -1.688096e+00 -6.314624e+00 -5.744937e+00 -3.113625e+00 -9.963200e+00 -4.243892e+00 -2.633278e+00 -5.497469e+00 7.433167e+01 1.220833e-03 4.692104e-03 3.358004e-03 7.251707e-03 -1.882230e-03 4.915826e-03 -2.292708e-04 -6.445816e-03 -1.769459e-03 8.244880e-03 -7.176534e-04 -5.441471e-03 -7.030310e-03 -8.428005e-04 1.595972e-04 7.003391e-04 -1.034429e-03 6.841473e-04 1.339922e-04 -1.251661e-03 1.965782e-04 1.482624e-03 -1.001767e-03 1.177395e-03 3.356396e-04 4.316468e-04
<VARIANCE> 39
 5.415834e+01 3.630687e+01 4.229399e+01 4.135492e+01 4.817136e+01 5.776150e+01 4.393672e+01 3.889725e+01 4.697247e+01 4.512576e+01 3.020147e+01 2.381779e+01 1.042261e+02 2.028465e+00 1.949042e+00 2.143597e+00 2.103590e+00 2.166699e+00 2.781598e+00 2.240457e+00 2.127003e+00 2.771489e+00 1.942779e+00 1.822041e+00 1.571687e+00 2.323098e+00 3.145719e-01 3.356884e-01 3.522972e-01 3.597100e-01 3.684410e-01 4.687421e-01 4.079363e-01 3.954299e-01 5.021030e-01 3.616183e-01 3.314692e-01 2.879243e-01 3.139019e-01
<GCONST> 1.176950e+02
<STATE> 3
<MEAN> 39
 -1.268831e+01 2.655436e+00 -1.425630e+00 -5.099942e+00 -1.688096e+00 -6.314624e+00 -5.744937e+00 -3.113625e+00 -9.963200e+00 -4.243892e+00 -2.633278e+00 -5.497469e+00 7.433167e+01 1.220833e-03 4.692104e-03 3.358004e-03 7.251707e-03 -1.882230e-03 4.915826e-03 -2.292708e-04 -6.445816e-03 -1.769459e-03 8.244880e-03 -7.176534e-04 -5.441471e-03 -7.030310e-03 -8.428005e-04 1.595972e-04 7.003391e-04 -1.034429e-03 6.841473e-04 1.339922e-04 -1.251661e-03 1.965782e-04 1.482624e-03 -1.001767e-03 1.177395e-03 3.356396e-04 4.316468e-04
<VARIANCE> 39
 5.415834e+01 3.630687e+01 4.229399e+01 4.135492e+01 4.817136e+01 5.776150e+01 4.393672e+01 3.889725e+01 4.697247e+01 4.512576e+01 3.020147e+01 2.381779e+01 1.042261e+02 2.028465e+00 1.949042e+00 2.143597e+00 2.103590e+00 2.166699e+00 2.781598e+00 2.240457e+00 2.127003e+00 2.771489e+00 1.942779e+00 1.822041e+00 1.571687e+00 2.323098e+00 3.145719e-01 3.356884e-01 3.522972e-01 3.597100e-01 3.684410e-01 4.687421e-01 4.079363e-01 3.954299e-01 5.021030e-01 3.616183e-01 3.314692e-01 2.879243e-01 3.139019e-01
<GCONST> 1.176950e+02
<STATE> 4
<MEAN> 39
 -1.268831e+01 2.655436e+00 -1.425630e+00 -5.099942e+00 -1.688096e+00 -6.314624e+00 -5.744937e+00 -3.113625e+00 -9.963200e+00 -4.243892e+00 -2.633278e+00 -5.497469e+00 7.433167e+01 1.220833e-03 4.692104e-03 3.358004e-03 7.251707e-03 -1.882230e-03 4.915826e-03 -2.292708e-04 -6.445816e-03 -1.769459e-03 8.244880e-03 -7.176534e-04 -5.441471e-03 -7.030310e-03 -8.428005e-04 1.595972e-04 7.003391e-04 -1.034429e-03 6.841473e-04 1.339922e-04 -1.251661e-03 1.965782e-04 1.482624e-03 -1.001767e-03 1.177395e-03 3.356396e-04 4.316468e-04
<VARIANCE> 39
 5.415834e+01 3.630687e+01 4.229399e+01 4.135492e+01 4.817136e+01 5.776150e+01 4.393672e+01 3.889725e+01 4.697247e+01 4.512576e+01 3.020147e+01 2.381779e+01 1.042261e+02 2.028465e+00 1.949042e+00 2.143597e+00 2.103590e+00 2.166699e+00 2.781598e+00 2.240457e+00 2.127003e+00 2.771489e+00 1.942779e+00 1.822041e+00 1.571687e+00 2.323098e+00 3.145719e-01 3.356884e-01 3.522972e-01 3.597100e-01 3.684410e-01 4.687421e-01 4.079363e-01 3.954299e-01 5.021030e-01 3.616183e-01 3.314692e-01 2.879243e-01 3.139019e-01
<GCONST> 1.176950e+02
<TRANSP> 5
 0.000000e+00 1.000000e+00 0.000000e+00 0.000000e+00 0.000000e+00
 0.000000e+00 6.000000e-01 4.000000e-01 0.000000e+00 0.000000e+00
 0.000000e+00 0.000000e+00 6.000000e-01 4.000000e-01 0.000000e+00
 0.000000e+00 0.000000e+00 0.000000e+00 7.000000e-01 3.000000e-01
 0.000000e+00 0.000000e+00 0.000000e+00 0.000000e+00 0.000000e+00
<ENDHMM>
~h "p"
<BEGINHMM>
<NUMSTATES> 5
<STATE> 2
<MEAN> 39
 -1.268831e+01 2.655436e+00 -1.425630e+00 -5.099942e+00 -1.688096e+00 -6.314624e+00 -5.744937e+00 -3.113625e+00 -9.963200e+00 -4.243892e+00 -2.633278e+00 -5.497469e+00 7.433167e+01 1.220833e-03 4.692104e-03 3.358004e-03 7.251707e-03 -1.882230e-03 4.915826e-03 -2.292708e-04 -6.445816e-03 -1.769459e-03 8.244880e-03 -7.176534e-04 -5.441471e-03 -7.030310e-03 -8.428005e-04 1.595972e-04 7.003391e-04 -1.034429e-03 6.841473e-04 1.339922e-04 -1.251661e-03 1.965782e-04 1.482624e-03 -1.001767e-03 1.177395e-03 3.356396e-04 4.316468e-04
<VARIANCE> 39
 5.415834e+01 3.630687e+01 4.229399e+01 4.135492e+01 4.817136e+01 5.776150e+01 4.393672e+01 3.889725e+01 4.697247e+01 4.512576e+01 3.020147e+01 2.381779e+01 1.042261e+02 2.028465e+00 1.949042e+00 2.143597e+00 2.103590e+00 2.166699e+00 2.781598e+00 2.240457e+00 2.127003e+00 2.771489e+00 1.942779e+00 1.822041e+00 1.571687e+00 2.323098e+00 3.145719e-01 3.356884e-01 3.522972e-01 3.597100e-01 3.684410e-01 4.687421e-01 4.079363e-01 3.954299e-01 5.021030e-01 3.616183e-01 3.314692e-01 2.879243e-01 3.139019e-01
<GCONST> 1.176950e+02
<STATE> 3
<MEAN> 39
 -1.268831e+01 2.655436e+00 -1.425630e+00 -5.099942e+00 -1.688096e+00 -6.314624e+00 -5.744937e+00 -3.113625e+00 -9.963200e+00 -4.243892e+00 -2.633278e+00 -5.497469e+00 7.433167e+01 1.220833e-03 4.692104e-03 3.358004e-03 7.251707e-03 -1.882230e-03 4.915826e-03 -2.292708e-04 -6.445816e-03 -1.769459e-03 8.244880e-03 -7.176534e-04 -5.441471e-03 -7.030310e-03 -8.428005e-04 1.595972e-04 7.003391e-04 -1.034429e-03 6.841473e-04 1.339922e-04 -1.251661e-03 1.965782e-04 1.482624e-03 -1.001767e-03 1.177395e-03 3.356396e-04 4.316468e-04
<VARIANCE> 39
 5.415834e+01 3.630687e+01 4.229399e+01 4.135492e+01 4.817136e+01 5.776150e+01 4.393672e+01 3.889725e+01 4.697247e+01 4.512576e+01 3.020147e+01 2.381779e+01 1.042261e+02 2.028465e+00 1.949042e+00 2.143597e+00 2.103590e+00 2.166699e+00 2.781598e+00 2.240457e+00 2.127003e+00 2.771489e+00 1.942779e+00 1.822041e+00 1.571687e+00 2.323098e+00 3.145719e-01 3.356884e-01 3.522972e-01 3.597100e-01 3.684410e-01 4.687421e-01 4.079363e-01 3.954299e-01 5.021030e-01 3.616183e-01 3.314692e-01 2.879243e-01 3.139019e-01
<GCONST> 1.176950e+02
<STATE> 4
<MEAN> 39
 -1.268831e+01 2.655436e+00 -1.425630e+00 -5.099942e+00 -1.688096e+00 -6.314624e+00 -5.744937e+00 -3.113625e+00 -9.963200e+00 -4.243892e+00 -2.633278e+00 -5.497469e+00 7.433167e+01 1.220833e-03 4.692104e-03 3.358004e-03 7.251707e-03 -1.882230e-03 4.915826e-03 -2.292708e-04 -6.445816e-03 -1.769459e-03 8.244880e-03 -7.176534e-04 -5.441471e-03 -7.030310e-03 -8.428005e-04 1.595972e-04 7.003391e-04 -1.034429e-03 6.841473e-04 1.339922e-04 -1.251661e-03 1.965782e-04 1.482624e-03 -1.001767e-03 1.177395e-03 3.356396e-04 4.316468e-04
<VARIANCE> 39
 5.415834e+01 3.630687e+01 4.229399e+01 4.135492e+01 4.817136e+01 5.776150e+01 4.393672e+01 3.889725e+01 4.697247e+01 4.512576e+01 3.020147e+01 2.381779e+01 1.042261e+02 2.028465e+00 1.949042e+00 2.143597e+00 2.103590e+00 2.166699e+00 2.781598e+00 2.240457e+00 2.127003e+00 2.771489e+00 1.942779e+00 1.822041e+00 1.571687e+00 2.323098e+00 3.145719e-01 3.356884e-01 3.522972e-01 3.597100e-01 3.684410e-01 4.687421e-01 4.079363e-01 3.954299e-01 5.021030e-01 3.616183e-01 3.314692e-01 2.879243e-01 3.139019e-01
<GCONST> 1.176950e+02
<TRANSP> 5
 0.000000e+00 1.000000e+00 0.000000e+00 0.000000e+00 0.000000e+00
 0.000000e+00 6.000000e-01 4.000000e-01 0.000000e+00 0.000000e+00
 0.000000e+00 0.000000e+00 6.000000e-01 4.000000e-01 0.000000e+00
 0.000000e+00 0.000000e+00 0.000000e+00 7.000000e-01 3.000000e-01
 0.000000e+00 0.000000e+00 0.000000e+00 0.000000e+00 0.000000e+00
<ENDHMM>
~h "n"
<BEGINHMM>
<NUMSTATES> 5
<STATE> 2
<MEAN> 39
 -1.268831e+01 2.655436e+00 -1.425630e+00 -5.099942e+00 -1.688096e+00 -6.314624e+00 -5.744937e+00 -3.113625e+00 -9.963200e+00 -4.243892e+00 -2.633278e+00 -5.497469e+00 7.433167e+01 1.220833e-03 4.692104e-03 3.358004e-03 7.251707e-03 -1.882230e-03 4.915826e-03 -2.292708e-04 -6.445816e-03 -1.769459e-03 8.244880e-03 -7.176534e-04 -5.441471e-03 -7.030310e-03 -8.428005e-04 1.595972e-04 7.003391e-04 -1.034429e-03 6.841473e-04 1.339922e-04 -1.251661e-03 1.965782e-04 1.482624e-03 -1.001767e-03 1.177395e-03 3.356396e-04 4.316468e-04
<VARIANCE> 39
 5.415834e+01 3.630687e+01 4.229399e+01 4.135492e+01 4.817136e+01 5.776150e+01 4.393672e+01 3.889725e+01 4.697247e+01 4.512576e+01 3.020147e+01 2.381779e+01 1.042261e+02 2.028465e+00 1.949042e+00 2.143597e+00 2.103590e+00 2.166699e+00 2.781598e+00 2.240457e+00 2.127003e+00 2.771489e+00 1.942779e+00 1.822041e+00 1.571687e+00 2.323098e+00 3.145719e-01 3.356884e-01 3.522972e-01 3.597100e-01 3.684410e-01 4.687421e-01 4.079363e-01 3.954299e-01 5.021030e-01 3.616183e-01 3.314692e-01 2.879243e-01 3.139019e-01
<GCONST> 1.176950e+02
<STATE> 3
<MEAN> 39
 -1.268831e+01 2.655436e+00 -1.425630e+00 -5.099942e+00 -1.688096e+00 -6.314624e+00 -5.744937e+00 -3.113625e+00 -9.963200e+00 -4.243892e+00 -2.633278e+00 -5.497469e+00 7.433167e+01 1.220833e-03 4.692104e-03 3.358004e-03 7.251707e-03 -1.882230e-03 4.915826e-03 -2.292708e-04 -6.445816e-03 -1.769459e-03 8.244880e-03 -7.176534e-04 -5.441471e-03 -7.030310e-03 -8.428005e-04 1.595972e-04 7.003391e-04 -1.034429e-03 6.841473e-04 1.339922e-04 -1.251661e-03 1.965782e-04 1.482624e-03 -1.001767e-03 1.177395e-03 3.356396e-04 4.316468e-04
<VARIANCE> 39
 5.415834e+01 3.630687e+01 4.229399e+01 4.135492e+01 4.817136e+01 5.776150e+01 4.393672e+01 3.889725e+01 4.697247e+01 4.512576e+01 3.020147e+01 2.381779e+01 1.042261e+02 2.028465e+00 1.949042e+00 2.143597e+00 2.103590e+00 2.166699e+00 2.781598e+00 2.240457e+00 2.127003e+00 2.771489e+00 1.942779e+00 1.822041e+00 1.571687e+00 2.323098e+00 3.145719e-01 3.356884e-01 3.522972e-01 3.597100e-01 3.684410e-01 4.687421e-01 4.079363e-01 3.954299e-01 5.021030e-01 3.616183e-01 3.314692e-01 2.879243e-01 3.139019e-01
<GCONST> 1.176950e+02
<STATE> 4
<MEAN> 39
 -1.268831e+01 2.655436e+00 -1.425630e+00 -5.099942e+00 -1.688096e+00 -6.314624e+00 -5.744937e+00 -3.113625e+00 -9.963200e+00 -4.243892e+00 -2.633278e+00 -5.497469e+00 7.433167e+01 1.220833e-03 4.692104e-03 3.358004e-03 7.251707e-03 -1.882230e-03 4.915826e-03 -2.292708e-04 -6.445816e-03 -1.769459e-03 8.244880e-03 -7.176534e-04 -5.441471e-03 -7.030310e-03 -8.428005e-04 1.595972e-04 7.003391e-04 -1.034429e-03 6.841473e-04 1.339922e-04 -1.251661e-03 1.965782e-04 1.482624e-03 -1.001767e-03 1.177395e-03 3.356396e-04 4.316468e-04
<VARIANCE> 39
 5.415834e+01 3.630687e+01 4.229399e+01 4.135492e+01 4.817136e+01 5.776150e+01 4.393672e+01 3.889725e+01 4.697247e+01 4.512576e+01 3.020147e+01 2.381779e+01 1.042261e+02 2.028465e+00 1.949042e+00 2.143597e+00 2.103590e+00 2.166699e+00 2.781598e+00 2.240457e+00 2.127003e+00 2.771489e+00 1.942779e+00 1.822041e+00 1.571687e+00 2.323098e+00 3.145719e-01 3.356884e-01 3.522972e-01 3.597100e-01 3.684410e-01 4.687421e-01 4.079363e-01 3.954299e-01 5.021030e-01 3.616183e-01 3.314692e-01 2.879243e-01 3.139019e-01
<GCONST> 1.176950e+02
<TRANSP> 5
 0.000000e+00 1.000000e+00 0.000000e+00 0.000000e+00 0.000000e+00
 0.000000e+00 6.000000e-01 4.000000e-01 0.000000e+00 0.000000e+00
 0.000000e+00 0.000000e+00 6.000000e-01 4.000000e-01 0.000000e+00
 0.000000e+00 0.000000e+00 0.000000e+00 7.000000e-01 3.000000e-01
 0.000000e+00 0.000000e+00 0.000000e+00 0.000000e+00 0.000000e+00
<ENDHMM>
~h "m"
<BEGINHMM>
<NUMSTATES> 5
<STATE> 2
<MEAN> 39
 -1.268831e+01 2.655436e+00 -1.425630e+00 -5.099942e+00 -1.688096e+00 -6.314624e+00 -5.744937e+00 -3.113625e+00 -9.963200e+00 -4.243892e+00 -2.633278e+00 -5.497469e+00 7.433167e+01 1.220833e-03 4.692104e-03 3.358004e-03 7.251707e-03 -1.882230e-03 4.915826e-03 -2.292708e-04 -6.445816e-03 -1.769459e-03 8.244880e-03 -7.176534e-04 -5.441471e-03 -7.030310e-03 -8.428005e-04 1.595972e-04 7.003391e-04 -1.034429e-03 6.841473e-04 1.339922e-04 -1.251661e-03 1.965782e-04 1.482624e-03 -1.001767e-03 1.177395e-03 3.356396e-04 4.316468e-04
<VARIANCE> 39
 5.415834e+01 3.630687e+01 4.229399e+01 4.135492e+01 4.817136e+01 5.776150e+01 4.393672e+01 3.889725e+01 4.697247e+01 4.512576e+01 3.020147e+01 2.381779e+01 1.042261e+02 2.028465e+00 1.949042e+00 2.143597e+00 2.103590e+00 2.166699e+00 2.781598e+00 2.240457e+00 2.127003e+00 2.771489e+00 1.942779e+00 1.822041e+00 1.571687e+00 2.323098e+00 3.145719e-01 3.356884e-01 3.522972e-01 3.597100e-01 3.684410e-01 4.687421e-01 4.079363e-01 3.954299e-01 5.021030e-01 3.616183e-01 3.314692e-01 2.879243e-01 3.139019e-01
<GCONST> 1.176950e+02
<STATE> 3
<MEAN> 39
 -1.268831e+01 2.655436e+00 -1.425630e+00 -5.099942e+00 -1.688096e+00 -6.314624e+00 -5.744937e+00 -3.113625e+00 -9.963200e+00 -4.243892e+00 -2.633278e+00 -5.497469e+00 7.433167e+01 1.220833e-03 4.692104e-03 3.358004e-03 7.251707e-03 -1.882230e-03 4.915826e-03 -2.292708e-04 -6.445816e-03 -1.769459e-03 8.244880e-03 -7.176534e-04 -5.441471e-03 -7.030310e-03 -8.428005e-04 1.595972e-04 7.003391e-04 -1.034429e-03 6.841473e-04 1.339922e-04 -1.251661e-03 1.965782e-04 1.482624e-03 -1.001767e-03 1.177395e-03 3.356396e-04 4.316468e-04
<VARIANCE> 39
 5.415834e+01 3.630687e+01 4.229399e+01 4.135492e+01 4.817136e+01 5.776150e+01 4.393672e+01 3.889725e+01 4.697247e+01 4.512576e+01 3.020147e+01 2.381779e+01 1.042261e+02 2.028465e+00 1.949042e+00 2.143597e+00 2.103590e+00 2.166699e+00 2.781598e+00 2.240457e+00 2.127003e+00 2.771489e+00 1.942779e+00 1.822041e+00 1.571687e+00 2.323098e+00 3.145719e-01 3.356884e-01 3.522972e-01 3.597100e-01 3.684410e-01 4.687421e-01 4.079363e-01 3.954299e-01 5.021030e-01 3.616183e-01 3.314692e-01 2.879243e-01 3.139019e-01
<GCONST> 1.176950e+02
<STATE> 4
<MEAN> 39
 -1.268831e+01 2.655436e+00 -1.425630e+00 -5.099942e+00 -1.688096e+00 -6.314624e+00 -5.744937e+00 -3.113625e+00 -9.963200e+00 -4.243892e+00 -2.633278e+00 -5.497469e+00 7.433167e+01 1.220833e-03 4.692104e-03 3.358004e-03 7.251707e-03 -1.882230e-03 4.915826e-03 -2.292708e-04 -6.445816e-03 -1.769459e-03 8.244880e-03 -7.176534e-04 -5.441471e-03 -7.030310e-03 -8.428005e-04 1.595972e-04 7.003391e-04 -1.034429e-03 6.841473e-04 1.339922e-04 -1.251661e-03 1.965782e-04 1.482624e-03 -1.001767e-03 1.177395e-03 3.356396e-04 4.316468e-04
<VARIANCE> 39
 5.415834e+01 3.630687e+01 4.229399e+01 4.135492e+01 4.817136e+01 5.776150e+01 4.393672e+01 3.889725e+01 4.697247e+01 4.512576e+01 3.020147e+01 2.381779e+01 1.042261e+02 2.028465e+00 1.949042e+00 2.143597e+00 2.103590e+00 2.166699e+00 2.781598e+00 2.240457e+00 2.127003e+00 2.771489e+00 1.942779e+00 1.822041e+00 1.571687e+00 2.323098e+00 3.145719e-01 3.356884e-01 3.522972e-01 3.597100e-01 3.684410e-01 4.687421e-01 4.079363e-01 3.954299e-01 5.021030e-01 3.616183e-01 3.314692e-01 2.879243e-01 3.139019e-01
<GCONST> 1.176950e+02
<TRANSP> 5
 0.000000e+00 1.000000e+00 0.000000e+00 0.000000e+00 0.000000e+00
 0.000000e+00 6.000000e-01 4.000000e-01 0.000000e+00 0.000000e+00
 0.000000e+00 0.000000e+00 6.000000e-01 4.000000e-01 0.000000e+00
 0.000000e+00 0.000000e+00 0.000000e+00 7.000000e-01 3.000000e-01
 0.000000e+00 0.000000e+00 0.000000e+00 0.000000e+00 0.000000e+00
<ENDHMM>
~h "h"
<BEGINHMM>
<NUMSTATES> 5
<STATE> 2
<MEAN> 39
 -1.268831e+01 2.655436e+00 -1.425630e+00 -5.099942e+00 -1.688096e+00 -6.314624e+00 -5.744937e+00 -3.113625e+00 -9.963200e+00 -4.243892e+00 -2.633278e+00 -5.497469e+00 7.433167e+01 1.220833e-03 4.692104e-03 3.358004e-03 7.251707e-03 -1.882230e-03 4.915826e-03 -2.292708e-04 -6.445816e-03 -1.769459e-03 8.244880e-03 -7.176534e-04 -5.441471e-03 -7.030310e-03 -8.428005e-04 1.595972e-04 7.003391e-04 -1.034429e-03 6.841473e-04 1.339922e-04 -1.251661e-03 1.965782e-04 1.482624e-03 -1.001767e-03 1.177395e-03 3.356396e-04 4.316468e-04
<VARIANCE> 39
 5.415834e+01 3.630687e+01 4.229399e+01 4.135492e+01 4.817136e+01 5.776150e+01 4.393672e+01 3.889725e+01 4.697247e+01 4.512576e+01 3.020147e+01 2.381779e+01 1.042261e+02 2.028465e+00 1.949042e+00 2.143597e+00 2.103590e+00 2.166699e+00 2.781598e+00 2.240457e+00 2.127003e+00 2.771489e+00 1.942779e+00 1.822041e+00 1.571687e+00 2.323098e+00 3.145719e-01 3.356884e-01 3.522972e-01 3.597100e-01 3.684410e-01 4.687421e-01 4.079363e-01 3.954299e-01 5.021030e-01 3.616183e-01 3.314692e-01 2.879243e-01 3.139019e-01
<GCONST> 1.176950e+02
<STATE> 3
<MEAN> 39
 -1.268831e+01 2.655436e+00 -1.425630e+00 -5.099942e+00 -1.688096e+00 -6.314624e+00 -5.744937e+00 -3.113625e+00 -9.963200e+00 -4.243892e+00 -2.633278e+00 -5.497469e+00 7.433167e+01 1.220833e-03 4.692104e-03 3.358004e-03 7.251707e-03 -1.882230e-03 4.915826e-03 -2.292708e-04 -6.445816e-03 -1.769459e-03 8.244880e-03 -7.176534e-04 -5.441471e-03 -7.030310e-03 -8.428005e-04 1.595972e-04 7.003391e-04 -1.034429e-03 6.841473e-04 1.339922e-04 -1.251661e-03 1.965782e-04 1.482624e-03 -1.001767e-03 1.177395e-03 3.356396e-04 4.316468e-04
<VARIANCE> 39
 5.415834e+01 3.630687e+01 4.229399e+01 4.135492e+01 4.817136e+01 5.776150e+01 4.393672e+01 3.889725e+01 4.697247e+01 4.512576e+01 3.020147e+01 2.381779e+01 1.042261e+02 2.028465e+00 1.949042e+00 2.143597e+00 2.103590e+00 2.166699e+00 2.781598e+00 2.240457e+00 2.127003e+00 2.771489e+00 1.942779e+00 1.822041e+00 1.571687e+00 2.323098e+00 3.145719e-01 3.356884e-01 3.522972e-01 3.597100e-01 3.684410e-01 4.687421e-01 4.079363e-01 3.954299e-01 5.021030e-01 3.616183e-01 3.314692e-01 2.879243e-01 3.139019e-01
<GCONST> 1.176950e+02
<STATE> 4
<MEAN> 39
 -1.268831e+01 2.655436e+00 -1.425630e+00 -5.099942e+00 -1.688096e+00 -6.314624e+00 -5.744937e+00 -3.113625e+00 -9.963200e+00 -4.243892e+00 -2.633278e+00 -5.497469e+00 7.433167e+01 1.220833e-03 4.692104e-03 3.358004e-03 7.251707e-03 -1.882230e-03 4.915826e-03 -2.292708e-04 -6.445816e-03 -1.769459e-03 8.244880e-03 -7.176534e-04 -5.441471e-03 -7.030310e-03 -8.428005e-04 1.595972e-04 7.003391e-04 -1.034429e-03 6.841473e-04 1.339922e-04 -1.251661e-03 1.965782e-04 1.482624e-03 -1.001767e-03 1.177395e-03 3.356396e-04 4.316468e-04
<VARIANCE> 39
 5.415834e+01 3.630687e+01 4.229399e+01 4.135492e+01 4.817136e+01 5.776150e+01 4.393672e+01 3.889725e+01 4.697247e+01 4.512576e+01 3.020147e+01 2.381779e+01 1.042261e+02 2.028465e+00 1.949042e+00 2.143597e+00 2.103590e+00 2.166699e+00 2.781598e+00 2.240457e+00 2.127003e+00 2.771489e+00 1.942779e+00 1.822041e+00 1.571687e+00 2.323098e+00 3.145719e-01 3.356884e-01 3.522972e-01 3.597100e-01 3.684410e-01 4.687421e-01 4.079363e-01 3.954299e-01 5.021030e-01 3.616183e-01 3.314692e-01 2.879243e-01 3.139019e-01
<GCONST> 1.176950e+02
<TRANSP> 5
 0.000000e+00 1.000000e+00 0.000000e+00 0.000000e+00 0.000000e+00
 0.000000e+00 6.000000e-01 4.000000e-01 0.000000e+00 0.000000e+00
 0.000000e+00 0.000000e+00 6.000000e-01 4.000000e-01 0.000000e+00
 0.000000e+00 0.000000e+00 0.000000e+00 7.000000e-01 3.000000e-01
 0.000000e+00 0.000000e+00 0.000000e+00 0.000000e+00 0.000000e+00
<ENDHMM>
~h "y"
<BEGINHMM>
<NUMSTATES> 5
<STATE> 2
<MEAN> 39
 -1.268831e+01 2.655436e+00 -1.425630e+00 -5.099942e+00 -1.688096e+00 -6.314624e+00 -5.744937e+00 -3.113625e+00 -9.963200e+00 -4.243892e+00 -2.633278e+00 -5.497469e+00 7.433167e+01 1.220833e-03 4.692104e-03 3.358004e-03 7.251707e-03 -1.882230e-03 4.915826e-03 -2.292708e-04 -6.445816e-03 -1.769459e-03 8.244880e-03 -7.176534e-04 -5.441471e-03 -7.030310e-03 -8.428005e-04 1.595972e-04 7.003391e-04 -1.034429e-03 6.841473e-04 1.339922e-04 -1.251661e-03 1.965782e-04 1.482624e-03 -1.001767e-03 1.177395e-03 3.356396e-04 4.316468e-04
<VARIANCE> 39
 5.415834e+01 3.630687e+01 4.229399e+01 4.135492e+01 4.817136e+01 5.776150e+01 4.393672e+01 3.889725e+01 4.697247e+01 4.512576e+01 3.020147e+01 2.381779e+01 1.042261e+02 2.028465e+00 1.949042e+00 2.143597e+00 2.103590e+00 2.166699e+00 2.781598e+00 2.240457e+00 2.127003e+00 2.771489e+00 1.942779e+00 1.822041e+00 1.571687e+00 2.323098e+00 3.145719e-01 3.356884e-01 3.522972e-01 3.597100e-01 3.684410e-01 4.687421e-01 4.079363e-01 3.954299e-01 5.021030e-01 3.616183e-01 3.314692e-01 2.879243e-01 3.139019e-01
<GCONST> 1.176950e+02
<STATE> 3
<MEAN> 39
 -1.268831e+01 2.655436e+00 -1.425630e+00 -5.099942e+00 -1.688096e+00 -6.314624e+00 -5.744937e+00 -3.113625e+00 -9.963200e+00 -4.243892e+00 -2.633278e+00 -5.497469e+00 7.433167e+01 1.220833e-03 4.692104e-03 3.358004e-03 7.251707e-03 -1.882230e-03 4.915826e-03 -2.292708e-04 -6.445816e-03 -1.769459e-03 8.244880e-03 -7.176534e-04 -5.441471e-03 -7.030310e-03 -8.428005e-04 1.595972e-04 7.003391e-04 -1.034429e-03 6.841473e-04 1.339922e-04 -1.251661e-03 1.965782e-04 1.482624e-03 -1.001767e-03 1.177395e-03 3.356396e-04 4.316468e-04
<VARIANCE> 39
 5.415834e+01 3.630687e+01 4.229399e+01 4.135492e+01 4.817136e+01 5.776150e+01 4.393672e+01 3.889725e+01 4.697247e+01 4.512576e+01 3.020147e+01 2.381779e+01 1.042261e+02 2.028465e+00 1.949042e+00 2.143597e+00 2.103590e+00 2.166699e+00 2.781598e+00 2.240457e+00 2.127003e+00 2.771489e+00 1.942779e+00 1.822041e+00 1.571687e+00 2.323098e+00 3.145719e-01 3.356884e-01 3.522972e-01 3.597100e-01 3.684410e-01 4.687421e-01 4.079363e-01 3.954299e-01 5.021030e-01 3.616183e-01 3.314692e-01 2.879243e-01 3.139019e-01
<GCONST> 1.176950e+02
<STATE> 4
<MEAN> 39
 -1.268831e+01 2.655436e+00 -1.425630e+00 -5.099942e+00 -1.688096e+00 -6.314624e+00 -5.744937e+00 -3.113625e+00 -9.963200e+00 -4.243892e+00 -2.633278e+00 -5.497469e+00 7.433167e+01 1.220833e-03 4.692104e-03 3.358004e-03 7.251707e-03 -1.882230e-03 4.915826e-03 -2.292708e-04 -6.445816e-03 -1.769459e-03 8.244880e-03 -7.176534e-04 -5.441471e-03 -7.030310e-03 -8.428005e-04 1.595972e-04 7.003391e-04 -1.034429e-03 6.841473e-04 1.339922e-04 -1.251661e-03 1.965782e-04 1.482624e-03 -1.001767e-03 1.177395e-03 3.356396e-04 4.316468e-04
<VARIANCE> 39
 5.415834e+01 3.630687e+01 4.229399e+01 4.135492e+01 4.817136e+01 5.776150e+01 4.393672e+01 3.889725e+01 4.697247e+01 4.512576e+01 3.020147e+01 2.381779e+01 1.042261e+02 2.028465e+00 1.949042e+00 2.143597e+00 2.103590e+00 2.166699e+00 2.781598e+00 2.240457e+00 2.127003e+00 2.771489e+00 1.942779e+00 1.822041e+00 1.571687e+00 2.323098e+00 3.145719e-01 3.356884e-01 3.522972e-01 3.597100e-01 3.684410e-01 4.687421e-01 4.079363e-01 3.954299e-01 5.021030e-01 3.616183e-01 3.314692e-01 2.879243e-01 3.139019e-01
<GCONST> 1.176950e+02
<TRANSP> 5
 0.000000e+00 1.000000e+00 0.000000e+00 0.000000e+00 0.000000e+00
 0.000000e+00 6.000000e-01 4.000000e-01 0.000000e+00 0.000000e+00
 0.000000e+00 0.000000e+00 6.000000e-01 4.000000e-01 0.000000e+00
 0.000000e+00 0.000000e+00 0.000000e+00 7.000000e-01 3.000000e-01
 0.000000e+00 0.000000e+00 0.000000e+00 0.000000e+00 0.000000e+00
<ENDHMM>
~h "o"
<BEGINHMM>
<NUMSTATES> 5
<STATE> 2
<MEAN> 39
 -1.268831e+01 2.655436e+00 -1.425630e+00 -5.099942e+00 -1.688096e+00 -6.314624e+00 -5.744937e+00 -3.113625e+00 -9.963200e+00 -4.243892e+00 -2.633278e+00 -5.497469e+00 7.433167e+01 1.220833e-03 4.692104e-03 3.358004e-03 7.251707e-03 -1.882230e-03 4.915826e-03 -2.292708e-04 -6.445816e-03 -1.769459e-03 8.244880e-03 -7.176534e-04 -5.441471e-03 -7.030310e-03 -8.428005e-04 1.595972e-04 7.003391e-04 -1.034429e-03 6.841473e-04 1.339922e-04 -1.251661e-03 1.965782e-04 1.482624e-03 -1.001767e-03 1.177395e-03 3.356396e-04 4.316468e-04
<VARIANCE> 39
 5.415834e+01 3.630687e+01 4.229399e+01 4.135492e+01 4.817136e+01 5.776150e+01 4.393672e+01 3.889725e+01 4.697247e+01 4.512576e+01 3.020147e+01 2.381779e+01 1.042261e+02 2.028465e+00 1.949042e+00 2.143597e+00 2.103590e+00 2.166699e+00 2.781598e+00 2.240457e+00 2.127003e+00 2.771489e+00 1.942779e+00 1.822041e+00 1.571687e+00 2.323098e+00 3.145719e-01 3.356884e-01 3.522972e-01 3.597100e-01 3.684410e-01 4.687421e-01 4.079363e-01 3.954299e-01 5.021030e-01 3.616183e-01 3.314692e-01 2.879243e-01 3.139019e-01
<GCONST> 1.176950e+02
<STATE> 3
<MEAN> 39
 -1.268831e+01 2.655436e+00 -1.425630e+00 -5.099942e+00 -1.688096e+00 -6.314624e+00 -5.744937e+00 -3.113625e+00 -9.963200e+00 -4.243892e+00 -2.633278e+00 -5.497469e+00 7.433167e+01 1.220833e-03 4.692104e-03 3.358004e-03 7.251707e-03 -1.882230e-03 4.915826e-03 -2.292708e-04 -6.445816e-03 -1.769459e-03 8.244880e-03 -7.176534e-04 -5.441471e-03 -7.030310e-03 -8.428005e-04 1.595972e-04 7.003391e-04 -1.034429e-03 6.841473e-04 1.339922e-04 -1.251661e-03 1.965782e-04 1.482624e-03 -1.001767e-03 1.177395e-03 3.356396e-04 4.316468e-04
<VARIANCE> 39
 5.415834e+01 3.630687e+01 4.229399e+01 4.135492e+01 4.817136e+01 5.776150e+01 4.393672e+01 3.889725e+01 4.697247e+01 4.512576e+01 3.020147e+01 2.381779e+01 1.042261e+02 2.028465e+00 1.949042e+00 2.143597e+00 2.103590e+00 2.166699e+00 2.781598e+00 2.240457e+00 2.127003e+00 2.771489e+00 1.942779e+00 1.822041e+00 1.571687e+00 2.323098e+00 3.145719e-01 3.356884e-01 3.522972e-01 3.597100e-01 3.684410e-01 4.687421e-01 4.079363e-01 3.954299e-01 5.021030e-01 3.616183e-01 3.314692e-01 2.879243e-01 3.139019e-01
<GCONST> 1.176950e+02
<STATE> 4
<MEAN> 39
 -1.268831e+01 2.655436e+00 -1.425630e+00 -5.099942e+00 -1.688096e+00 -6.314624e+00 -5.744937e+00 -3.113625e+00 -9.963200e+00 -4.243892e+00 -2.633278e+00 -5.497469e+00 7.433167e+01 1.220833e-03 4.692104e-03 3.358004e-03 7.251707e-03 -1.882230e-03 4.915826e-03 -2.292708e-04 -6.445816e-03 -1.769459e-03 8.244880e-03 -7.176534e-04 -5.441471e-03 -7.030310e-03 -8.428005e-04 1.595972e-04 7.003391e-04 -1.034429e-03 6.841473e-04 1.339922e-04 -1.251661e-03 1.965782e-04 1.482624e-03 -1.001767e-03 1.177395e-03 3.356396e-04 4.316468e-04
<VARIANCE> 39
 5.415834e+01 3.630687e+01 4.229399e+01 4.135492e+01 4.817136e+01 5.776150e+01 4.393672e+01 3.889725e+01 4.697247e+01 4.512576e+01 3.020147e+01 2.381779e+01 1.042261e+02 2.028465e+00 1.949042e+00 2.143597e+00 2.103590e+00 2.166699e+00 2.781598e+00 2.240457e+00 2.127003e+00 2.771489e+00 1.942779e+00 1.822041e+00 1.571687e+00 2.323098e+00 3.145719e-01 3.356884e-01 3.522972e-01 3.597100e-01 3.684410e-01 4.687421e-01 4.079363e-01 3.954299e-01 5.021030e-01 3.616183e-01 3.314692e-01 2.879243e-01 3.139019e-01
<GCONST> 1.176950e+02
<TRANSP> 5
 0.000000e+00 1.000000e+00 0.000000e+00 0.000000e+00 0.000000e+00
 0.000000e+00 6.000000e-01 4.000000e-01 0.000000e+00 0.000000e+00
 0.000000e+00 0.000000e+00 6.000000e-01 4.000000e-01 0.000000e+00
 0.000000e+00 0.000000e+00 0.000000e+00 7.000000e-01 3.000000e-01
 0.000000e+00 0.000000e+00 0.000000e+00 0.000000e+00 0.000000e+00
<ENDHMM>
~h "s"
<BEGINHMM>
<NUMSTATES> 5
<STATE> 2
<MEAN> 39
 -1.268831e+01 2.655436e+00 -1.425630e+00 -5.099942e+00 -1.688096e+00 -6.314624e+00 -5.744937e+00 -3.113625e+00 -9.963200e+00 -4.243892e+00 -2.633278e+00 -5.497469e+00 7.433167e+01 1.220833e-03 4.692104e-03 3.358004e-03 7.251707e-03 -1.882230e-03 4.915826e-03 -2.292708e-04 -6.445816e-03 -1.769459e-03 8.244880e-03 -7.176534e-04 -5.441471e-03 -7.030310e-03 -8.428005e-04 1.595972e-04 7.003391e-04 -1.034429e-03 6.841473e-04 1.339922e-04 -1.251661e-03 1.965782e-04 1.482624e-03 -1.001767e-03 1.177395e-03 3.356396e-04 4.316468e-04
<VARIANCE> 39
 5.415834e+01 3.630687e+01 4.229399e+01 4.135492e+01 4.817136e+01 5.776150e+01 4.393672e+01 3.889725e+01 4.697247e+01 4.512576e+01 3.020147e+01 2.381779e+01 1.042261e+02 2.028465e+00 1.949042e+00 2.143597e+00 2.103590e+00 2.166699e+00 2.781598e+00 2.240457e+00 2.127003e+00 2.771489e+00 1.942779e+00 1.822041e+00 1.571687e+00 2.323098e+00 3.145719e-01 3.356884e-01 3.522972e-01 3.597100e-01 3.684410e-01 4.687421e-01 4.079363e-01 3.954299e-01 5.021030e-01 3.616183e-01 3.314692e-01 2.879243e-01 3.139019e-01
<GCONST> 1.176950e+02
<STATE> 3
<MEAN> 39
 -1.268831e+01 2.655436e+00 -1.425630e+00 -5.099942e+00 -1.688096e+00 -6.314624e+00 -5.744937e+00 -3.113625e+00 -9.963200e+00 -4.243892e+00 -2.633278e+00 -5.497469e+00 7.433167e+01 1.220833e-03 4.692104e-03 3.358004e-03 7.251707e-03 -1.882230e-03 4.915826e-03 -2.292708e-04 -6.445816e-03 -1.769459e-03 8.244880e-03 -7.176534e-04 -5.441471e-03 -7.030310e-03 -8.428005e-04 1.595972e-04 7.003391e-04 -1.034429e-03 6.841473e-04 1.339922e-04 -1.251661e-03 1.965782e-04 1.482624e-03 -1.001767e-03 1.177395e-03 3.356396e-04 4.316468e-04
<VARIANCE> 39
 5.415834e+01 3.630687e+01 4.229399e+01 4.135492e+01 4.817136e+01 5.776150e+01 4.393672e+01 3.889725e+01 4.697247e+01 4.512576e+01 3.020147e+01 2.381779e+01 1.042261e+02 2.028465e+00 1.949042e+00 2.143597e+00 2.103590e+00 2.166699e+00 2.781598e+00 2.240457e+00 2.127003e+00 2.771489e+00 1.942779e+00 1.822041e+00 1.571687e+00 2.323098e+00 3.145719e-01 3.356884e-01 3.522972e-01 3.597100e-01 3.684410e-01 4.687421e-01 4.079363e-01 3.954299e-01 5.021030e-01 3.616183e-01 3.314692e-01 2.879243e-01 3.139019e-01
<GCONST> 1.176950e+02
<STATE> 4
<MEAN> 39
 -1.268831e+01 2.655436e+00 -1.425630e+00 -5.099942e+00 -1.688096e+00 -6.314624e+00 -5.744937e+00 -3.113625e+00 -9.963200e+00 -4.243892e+00 -2.633278e+00 -5.497469e+00 7.433167e+01 1.220833e-03 4.692104e-03 3.358004e-03 7.251707e-03 -1.882230e-03 4.915826e-03 -2.292708e-04 -6.445816e-03 -1.769459e-03 8.244880e-03 -7.176534e-04 -5.441471e-03 -7.030310e-03 -8.428005e-04 1.595972e-04 7.003391e-04 -1.034429e-03 6.841473e-04 1.339922e-04 -1.251661e-03 1.965782e-04 1.482624e-03 -1.001767e-03 1.177395e-03 3.356396e-04 4.316468e-04
<VARIANCE> 39
 5.415834e+01 3.630687e+01 4.229399e+01 4.135492e+01 4.817136e+01 5.776150e+01 4.393672e+01 3.889725e+01 4.697247e+01 4.512576e+01 3.020147e+01 2.381779e+01 1.042261e+02 2.028465e+00 1.949042e+00 2.143597e+00 2.103590e+00 2.166699e+00 2.781598e+00 2.240457e+00 2.127003e+00 2.771489e+00 1.942779e+00 1.822041e+00 1.571687e+00 2.323098e+00 3.145719e-01 3.356884e-01 3.522972e-01 3.597100e-01 3.684410e-01 4.687421e-01 4.079363e-01 3.954299e-01 5.021030e-01 3.616183e-01 3.314692e-01 2.879243e-01 3.139019e-01
<GCONST> 1.176950e+02
<TRANSP> 5
 0.000000e+00 1.000000e+00 0.000000e+00 0.000000e+00 0.000000e+00
 0.000000e+00 6.000000e-01 4.000000e-01 0.000000e+00 0.000000e+00
 0.000000e+00 0.000000e+00 6.000000e-01 4.000000e-01 0.000000e+00
 0.000000e+00 0.000000e+00 0.000000e+00 7.000000e-01 3.000000e-01
 0.000000e+00 0.000000e+00 0.000000e+00 0.000000e+00 0.000000e+00
<ENDHMM>
~h "sil"
<BEGINHMM>
<NUMSTATES> 5
<STATE> 2
<MEAN> 39
 -1.268831e+01 2.655436e+00 -1.425630e+00 -5.099942e+00 -1.688096e+00 -6.314624e+00 -5.744937e+00 -3.113625e+00 -9.963200e+00 -4.243892e+00 -2.633278e+00 -5.497469e+00 7.433167e+01 1.220833e-03 4.692104e-03 3.358004e-03 7.251707e-03 -1.882230e-03 4.915826e-03 -2.292708e-04 -6.445816e-03 -1.769459e-03 8.244880e-03 -7.176534e-04 -5.441471e-03 -7.030310e-03 -8.428005e-04 1.595972e-04 7.003391e-04 -1.034429e-03 6.841473e-04 1.339922e-04 -1.251661e-03 1.965782e-04 1.482624e-03 -1.001767e-03 1.177395e-03 3.356396e-04 4.316468e-04
<VARIANCE> 39
 5.415834e+01 3.630687e+01 4.229399e+01 4.135492e+01 4.817136e+01 5.776150e+01 4.393672e+01 3.889725e+01 4.697247e+01 4.512576e+01 3.020147e+01 2.381779e+01 1.042261e+02 2.028465e+00 1.949042e+00 2.143597e+00 2.103590e+00 2.166699e+00 2.781598e+00 2.240457e+00 2.127003e+00 2.771489e+00 1.942779e+00 1.822041e+00 1.571687e+00 2.323098e+00 3.145719e-01 3.356884e-01 3.522972e-01 3.597100e-01 3.684410e-01 4.687421e-01 4.079363e-01 3.954299e-01 5.021030e-01 3.616183e-01 3.314692e-01 2.879243e-01 3.139019e-01
<GCONST> 1.176950e+02
<STATE> 3
<MEAN> 39
 -1.268831e+01 2.655436e+00 -1.425630e+00 -5.099942e+00 -1.688096e+00 -6.314624e+00 -5.744937e+00 -3.113625e+00 -9.963200e+00 -4.243892e+00 -2.633278e+00 -5.497469e+00 7.433167e+01 1.220833e-03 4.692104e-03 3.358004e-03 7.251707e-03 -1.882230e-03 4.915826e-03 -2.292708e-04 -6.445816e-03 -1.769459e-03 8.244880e-03 -7.176534e-04 -5.441471e-03 -7.030310e-03 -8.428005e-04 1.595972e-04 7.003391e-04 -1.034429e-03 6.841473e-04 1.339922e-04 -1.251661e-03 1.965782e-04 1.482624e-03 -1.001767e-03 1.177395e-03 3.356396e-04 4.316468e-04
<VARIANCE> 39
 5.415834e+01 3.630687e+01 4.229399e+01 4.135492e+01 4.817136e+01 5.776150e+01 4.393672e+01 3.889725e+01 4.697247e+01 4.512576e+01 3.020147e+01 2.381779e+01 1.042261e+02 2.028465e+00 1.949042e+00 2.143597e+00 2.103590e+00 2.166699e+00 2.781598e+00 2.240457e+00 2.127003e+00 2.771489e+00 1.942779e+00 1.822041e+00 1.571687e+00 2.323098e+00 3.145719e-01 3.356884e-01 3.522972e-01 3.597100e-01 3.684410e-01 4.687421e-01 4.079363e-01 3.954299e-01 5.021030e-01 3.616183e-01 3.314692e-01 2.879243e-01 3.139019e-01
<GCONST> 1.176950e+02
<STATE> 4
<MEAN> 39
 -1.268831e+01 2.655436e+00 -1.425630e+00 -5.099942e+00 -1.688096e+00 -6.314624e+00 -5.744937e+00 -3.113625e+00 -9.963200e+00 -4.243892e+00 -2.633278e+00 -5.497469e+00 7.433167e+01 1.220833e-03 4.692104e-03 3.358004e-03 7.251707e-03 -1.882230e-03 4.915826e-03 -2.292708e-04 -6.445816e-03 -1.769459e-03 8.244880e-03 -7.176534e-04 -5.441471e-03 -7.030310e-03 -8.428005e-04 1.595972e-04 7.003391e-04 -1.034429e-03 6.841473e-04 1.339922e-04 -1.251661e-03 1.965782e-04 1.482624e-03 -1.001767e-03 1.177395e-03 3.356396e-04 4.316468e-04
<VARIANCE> 39
 5.415834e+01 3.630687e+01 4.229399e+01 4.135492e+01 4.817136e+01 5.776150e+01 4.393672e+01 3.889725e+01 4.697247e+01 4.512576e+01 3.020147e+01 2.381779e+01 1.042261e+02 2.028465e+00 1.949042e+00 2.143597e+00 2.103590e+00 2.166699e+00 2.781598e+00 2.240457e+00 2.127003e+00 2.771489e+00 1.942779e+00 1.822041e+00 1.571687e+00 2.323098e+00 3.145719e-01 3.356884e-01 3.522972e-01 3.597100e-01 3.684410e-01 4.687421e-01 4.079363e-01 3.954299e-01 5.021030e-01 3.616183e-01 3.314692e-01 2.879243e-01 3.139019e-01
<GCONST> 1.176950e+02
<TRANSP> 5
 0.000000e+00 1.000000e+00 0.000000e+00 0.000000e+00 0.000000e+00
 0.000000e+00 6.000000e-01 4.000000e-01 0.000000e+00 0.000000e+00
 0.000000e+00 0.000000e+00 6.000000e-01 4.000000e-01 0.000000e+00
 0.000000e+00 0.000000e+00 0.000000e+00 7.000000e-01 3.000000e-01
 0.000000e+00 0.000000e+00 0.000000e+00 0.000000e+00 0.000000e+00
<ENDHMM>
~h "ay"
<BEGINHMM>
<NUMSTATES> 5
<STATE> 2
<MEAN> 39
 -1.268831e+01 2.655436e+00 -1.425630e+00 -5.099942e+00 -1.688096e+00 -6.314624e+00 -5.744937e+00 -3.113625e+00 -9.963200e+00 -4.243892e+00 -2.633278e+00 -5.497469e+00 7.433167e+01 1.220833e-03 4.692104e-03 3.358004e-03 7.251707e-03 -1.882230e-03 4.915826e-03 -2.292708e-04 -6.445816e-03 -1.769459e-03 8.244880e-03 -7.176534e-04 -5.441471e-03 -7.030310e-03 -8.428005e-04 1.595972e-04 7.003391e-04 -1.034429e-03 6.841473e-04 1.339922e-04 -1.251661e-03 1.965782e-04 1.482624e-03 -1.001767e-03 1.177395e-03 3.356396e-04 4.316468e-04
<VARIANCE> 39
 5.415834e+01 3.630687e+01 4.229399e+01 4.135492e+01 4.817136e+01 5.776150e+01 4.393672e+01 3.889725e+01 4.697247e+01 4.512576e+01 3.020147e+01 2.381779e+01 1.042261e+02 2.028465e+00 1.949042e+00 2.143597e+00 2.103590e+00 2.166699e+00 2.781598e+00 2.240457e+00 2.127003e+00 2.771489e+00 1.942779e+00 1.822041e+00 1.571687e+00 2.323098e+00 3.145719e-01 3.356884e-01 3.522972e-01 3.597100e-01 3.684410e-01 4.687421e-01 4.079363e-01 3.954299e-01 5.021030e-01 3.616183e-01 3.314692e-01 2.879243e-01 3.139019e-01
<GCONST> 1.176950e+02
<STATE> 3
<MEAN> 39
 -1.268831e+01 2.655436e+00 -1.425630e+00 -5.099942e+00 -1.688096e+00 -6.314624e+00 -5.744937e+00 -3.113625e+00 -9.963200e+00 -4.243892e+00 -2.633278e+00 -5.497469e+00 7.433167e+01 1.220833e-03 4.692104e-03 3.358004e-03 7.251707e-03 -1.882230e-03 4.915826e-03 -2.292708e-04 -6.445816e-03 -1.769459e-03 8.244880e-03 -7.176534e-04 -5.441471e-03 -7.030310e-03 -8.428005e-04 1.595972e-04 7.003391e-04 -1.034429e-03 6.841473e-04 1.339922e-04 -1.251661e-03 1.965782e-04 1.482624e-03 -1.001767e-03 1.177395e-03 3.356396e-04 4.316468e-04
<VARIANCE> 39
 5.415834e+01 3.630687e+01 4.229399e+01 4.135492e+01 4.817136e+01 5.776150e+01 4.393672e+01 3.889725e+01 4.697247e+01 4.512576e+01 3.020147e+01 2.381779e+01 1.042261e+02 2.028465e+00 1.949042e+00 2.143597e+00 2.103590e+00 2.166699e+00 2.781598e+00 2.240457e+00 2.127003e+00 2.771489e+00 1.942779e+00 1.822041e+00 1.571687e+00 2.323098e+00 3.145719e-01 3.356884e-01 3.522972e-01 3.597100e-01 3.684410e-01 4.687421e-01 4.079363e-01 3.954299e-01 5.021030e-01 3.616183e-01 3.314692e-01 2.879243e-01 3.139019e-01
<GCONST> 1.176950e+02
<STATE> 4
<MEAN> 39
 -1.268831e+01 2.655436e+00 -1.425630e+00 -5.099942e+00 -1.688096e+00 -6.314624e+00 -5.744937e+00 -3.113625e+00 -9.963200e+00 -4.243892e+00 -2.633278e+00 -5.497469e+00 7.433167e+01 1.220833e-03 4.692104e-03 3.358004e-03 7.251707e-03 -1.882230e-03 4.915826e-03 -2.292708e-04 -6.445816e-03 -1.769459e-03 8.244880e-03 -7.176534e-04 -5.441471e-03 -7.030310e-03 -8.428005e-04 1.595972e-04 7.003391e-04 -1.034429e-03 6.841473e-04 1.339922e-04 -1.251661e-03 1.965782e-04 1.482624e-03 -1.001767e-03 1.177395e-03 3.356396e-04 4.316468e-04
<VARIANCE> 39
 5.415834e+01 3.630687e+01 4.229399e+01 4.135492e+01 4.817136e+01 5.776150e+01 4.393672e+01 3.889725e+01 4.697247e+01 4.512576e+01 3.020147e+01 2.381779e+01 1.042261e+02 2.028465e+00 1.949042e+00 2.143597e+00 2.103590e+00 2.166699e+00 2.781598e+00 2.240457e+00 2.127003e+00 2.771489e+00 1.942779e+00 1.822041e+00 1.571687e+00 2.323098e+00 3.145719e-01 3.356884e-01 3.522972e-01 3.597100e-01 3.684410e-01 4.687421e-01 4.079363e-01 3.954299e-01 5.021030e-01 3.616183e-01 3.314692e-01 2.879243e-01 3.139019e-01
<GCONST> 1.176950e+02
<TRANSP> 5
 0.000000e+00 1.000000e+00 0.000000e+00 0.000000e+00 0.000000e+00
 0.000000e+00 6.000000e-01 4.000000e-01 0.000000e+00 0.000000e+00
 0.000000e+00 0.000000e+00 6.000000e-01 4.000000e-01 0.000000e+00
 0.000000e+00 0.000000e+00 0.000000e+00 7.000000e-01 3.000000e-01
 0.000000e+00 0.000000e+00 0.000000e+00 0.000000e+00 0.000000e+00
<ENDHMM>
~h "g"
<BEGINHMM>
<NUMSTATES> 5
<STATE> 2
<MEAN> 39
 -1.268831e+01 2.655436e+00 -1.425630e+00 -5.099942e+00 -1.688096e+00 -6.314624e+00 -5.744937e+00 -3.113625e+00 -9.963200e+00 -4.243892e+00 -2.633278e+00 -5.497469e+00 7.433167e+01 1.220833e-03 4.692104e-03 3.358004e-03 7.251707e-03 -1.882230e-03 4.915826e-03 -2.292708e-04 -6.445816e-03 -1.769459e-03 8.244880e-03 -7.176534e-04 -5.441471e-03 -7.030310e-03 -8.428005e-04 1.595972e-04 7.003391e-04 -1.034429e-03 6.841473e-04 1.339922e-04 -1.251661e-03 1.965782e-04 1.482624e-03 -1.001767e-03 1.177395e-03 3.356396e-04 4.316468e-04
<VARIANCE> 39
 5.415834e+01 3.630687e+01 4.229399e+01 4.135492e+01 4.817136e+01 5.776150e+01 4.393672e+01 3.889725e+01 4.697247e+01 4.512576e+01 3.020147e+01 2.381779e+01 1.042261e+02 2.028465e+00 1.949042e+00 2.143597e+00 2.103590e+00 2.166699e+00 2.781598e+00 2.240457e+00 2.127003e+00 2.771489e+00 1.942779e+00 1.822041e+00 1.571687e+00 2.323098e+00 3.145719e-01 3.356884e-01 3.522972e-01 3.597100e-01 3.684410e-01 4.687421e-01 4.079363e-01 3.954299e-01 5.021030e-01 3.616183e-01 3.314692e-01 2.879243e-01 3.139019e-01
<GCONST> 1.176950e+02
<STATE> 3
<MEAN> 39
 -1.268831e+01 2.655436e+00 -1.425630e+00 -5.099942e+00 -1.688096e+00 -6.314624e+00 -5.744937e+00 -3.113625e+00 -9.963200e+00 -4.243892e+00 -2.633278e+00 -5.497469e+00 7.433167e+01 1.220833e-03 4.692104e-03 3.358004e-03 7.251707e-03 -1.882230e-03 4.915826e-03 -2.292708e-04 -6.445816e-03 -1.769459e-03 8.244880e-03 -7.176534e-04 -5.441471e-03 -7.030310e-03 -8.428005e-04 1.595972e-04 7.003391e-04 -1.034429e-03 6.841473e-04 1.339922e-04 -1.251661e-03 1.965782e-04 1.482624e-03 -1.001767e-03 1.177395e-03 3.356396e-04 4.316468e-04
<VARIANCE> 39
 5.415834e+01 3.630687e+01 4.229399e+01 4.135492e+01 4.817136e+01 5.776150e+01 4.393672e+01 3.889725e+01 4.697247e+01 4.512576e+01 3.020147e+01 2.381779e+01 1.042261e+02 2.028465e+00 1.949042e+00 2.143597e+00 2.103590e+00 2.166699e+00 2.781598e+00 2.240457e+00 2.127003e+00 2.771489e+00 1.942779e+00 1.822041e+00 1.571687e+00 2.323098e+00 3.145719e-01 3.356884e-01 3.522972e-01 3.597100e-01 3.684410e-01 4.687421e-01 4.079363e-01 3.954299e-01 5.021030e-01 3.616183e-01 3.314692e-01 2.879243e-01 3.139019e-01
<GCONST> 1.176950e+02
<STATE> 4
<MEAN> 39
 -1.268831e+01 2.655436e+00 -1.425630e+00 -5.099942e+00 -1.688096e+00 -6.314624e+00 -5.744937e+00 -3.113625e+00 -9.963200e+00 -4.243892e+00 -2.633278e+00 -5.497469e+00 7.433167e+01 1.220833e-03 4.692104e-03 3.358004e-03 7.251707e-03 -1.882230e-03 4.915826e-03 -2.292708e-04 -6.445816e-03 -1.769459e-03 8.244880e-03 -7.176534e-04 -5.441471e-03 -7.030310e-03 -8.428005e-04 1.595972e-04 7.003391e-04 -1.034429e-03 6.841473e-04 1.339922e-04 -1.251661e-03 1.965782e-04 1.482624e-03 -1.001767e-03 1.177395e-03 3.356396e-04 4.316468e-04
<VARIANCE> 39
 5.415834e+01 3.630687e+01 4.229399e+01 4.135492e+01 4.817136e+01 5.776150e+01 4.393672e+01 3.889725e+01 4.697247e+01 4.512576e+01 3.020147e+01 2.381779e+01 1.042261e+02 2.028465e+00 1.949042e+00 2.143597e+00 2.103590e+00 2.166699e+00 2.781598e+00 2.240457e+00 2.127003e+00 2.771489e+00 1.942779e+00 1.822041e+00 1.571687e+00 2.323098e+00 3.145719e-01 3.356884e-01 3.522972e-01 3.597100e-01 3.684410e-01 4.687421e-01 4.079363e-01 3.954299e-01 5.021030e-01 3.616183e-01 3.314692e-01 2.879243e-01 3.139019e-01
<GCONST> 1.176950e+02
<TRANSP> 5
 0.000000e+00 1.000000e+00 0.000000e+00 0.000000e+00 0.000000e+00
 0.000000e+00 6.000000e-01 4.000000e-01 0.000000e+00 0.000000e+00
 0.000000e+00 0.000000e+00 6.000000e-01 4.000000e-01 0.000000e+00
 0.000000e+00 0.000000e+00 0.000000e+00 7.000000e-01 3.000000e-01
 0.000000e+00 0.000000e+00 0.000000e+00 0.000000e+00 0.000000e+00
<ENDHMM>
~h "j"
<BEGINHMM>
<NUMSTATES> 5
<STATE> 2
<MEAN> 39
 -1.268831e+01 2.655436e+00 -1.425630e+00 -5.099942e+00 -1.688096e+00 -6.314624e+00 -5.744937e+00 -3.113625e+00 -9.963200e+00 -4.243892e+00 -2.633278e+00 -5.497469e+00 7.433167e+01 1.220833e-03 4.692104e-03 3.358004e-03 7.251707e-03 -1.882230e-03 4.915826e-03 -2.292708e-04 -6.445816e-03 -1.769459e-03 8.244880e-03 -7.176534e-04 -5.441471e-03 -7.030310e-03 -8.428005e-04 1.595972e-04 7.003391e-04 -1.034429e-03 6.841473e-04 1.339922e-04 -1.251661e-03 1.965782e-04 1.482624e-03 -1.001767e-03 1.177395e-03 3.356396e-04 4.316468e-04
<VARIANCE> 39
 5.415834e+01 3.630687e+01 4.229399e+01 4.135492e+01 4.817136e+01 5.776150e+01 4.393672e+01 3.889725e+01 4.697247e+01 4.512576e+01 3.020147e+01 2.381779e+01 1.042261e+02 2.028465e+00 1.949042e+00 2.143597e+00 2.103590e+00 2.166699e+00 2.781598e+00 2.240457e+00 2.127003e+00 2.771489e+00 1.942779e+00 1.822041e+00 1.571687e+00 2.323098e+00 3.145719e-01 3.356884e-01 3.522972e-01 3.597100e-01 3.684410e-01 4.687421e-01 4.079363e-01 3.954299e-01 5.021030e-01 3.616183e-01 3.314692e-01 2.879243e-01 3.139019e-01
<GCONST> 1.176950e+02
<STATE> 3
<MEAN> 39
 -1.268831e+01 2.655436e+00 -1.425630e+00 -5.099942e+00 -1.688096e+00 -6.314624e+00 -5.744937e+00 -3.113625e+00 -9.963200e+00 -4.243892e+00 -2.633278e+00 -5.497469e+00 7.433167e+01 1.220833e-03 4.692104e-03 3.358004e-03 7.251707e-03 -1.882230e-03 4.915826e-03 -2.292708e-04 -6.445816e-03 -1.769459e-03 8.244880e-03 -7.176534e-04 -5.441471e-03 -7.030310e-03 -8.428005e-04 1.595972e-04 7.003391e-04 -1.034429e-03 6.841473e-04 1.339922e-04 -1.251661e-03 1.965782e-04 1.482624e-03 -1.001767e-03 1.177395e-03 3.356396e-04 4.316468e-04
<VARIANCE> 39
 5.415834e+01 3.630687e+01 4.229399e+01 4.135492e+01 4.817136e+01 5.776150e+01 4.393672e+01 3.889725e+01 4.697247e+01 4.512576e+01 3.020147e+01 2.381779e+01 1.042261e+02 2.028465e+00 1.949042e+00 2.143597e+00 2.103590e+00 2.166699e+00 2.781598e+00 2.240457e+00 2.127003e+00 2.771489e+00 1.942779e+00 1.822041e+00 1.571687e+00 2.323098e+00 3.145719e-01 3.356884e-01 3.522972e-01 3.597100e-01 3.684410e-01 4.687421e-01 4.079363e-01 3.954299e-01 5.021030e-01 3.616183e-01 3.314692e-01 2.879243e-01 3.139019e-01
<GCONST> 1.176950e+02
<STATE> 4
<MEAN> 39
 -1.268831e+01 2.655436e+00 -1.425630e+00 -5.099942e+00 -1.688096e+00 -6.314624e+00 -5.744937e+00 -3.113625e+00 -9.963200e+00 -4.243892e+00 -2.633278e+00 -5.497469e+00 7.433167e+01 1.220833e-03 4.692104e-03 3.358004e-03 7.251707e-03 -1.882230e-03 4.915826e-03 -2.292708e-04 -6.445816e-03 -1.769459e-03 8.244880e-03 -7.176534e-04 -5.441471e-03 -7.030310e-03 -8.428005e-04 1.595972e-04 7.003391e-04 -1.034429e-03 6.841473e-04 1.339922e-04 -1.251661e-03 1.965782e-04 1.482624e-03 -1.001767e-03 1.177395e-03 3.356396e-04 4.316468e-04
<VARIANCE> 39
 5.415834e+01 3.630687e+01 4.229399e+01 4.135492e+01 4.817136e+01 5.776150e+01 4.393672e+01 3.889725e+01 4.697247e+01 4.512576e+01 3.020147e+01 2.381779e+01 1.042261e+02 2.028465e+00 1.949042e+00 2.143597e+00 2.103590e+00 2.166699e+00 2.781598e+00 2.240457e+00 2.127003e+00 2.771489e+00 1.942779e+00 1.822041e+00 1.571687e+00 2.323098e+00 3.145719e-01 3.356884e-01 3.522972e-01 3.597100e-01 3.684410e-01 4.687421e-01 4.079363e-01 3.954299e-01 5.021030e-01 3.616183e-01 3.314692e-01 2.879243e-01 3.139019e-01
<GCONST> 1.176950e+02
<TRANSP> 5
 0.000000e+00 1.000000e+00 0.000000e+00 0.000000e+00 0.000000e+00
 0.000000e+00 6.000000e-01 4.000000e-01 0.000000e+00 0.000000e+00
 0.000000e+00 0.000000e+00 6.000000e-01 4.000000e-01 0.000000e+00
 0.000000e+00 0.000000e+00 0.000000e+00 7.000000e-01 3.000000e-01
 0.000000e+00 0.000000e+00 0.000000e+00 0.000000e+00 0.000000e+00
<ENDHMM>
