~o
<STREAMINFO> 1 39
<VECSIZE> 39<NULLD><MFCC_D_A_0><DIAGC>
~h "a"
<BEGINHMM>
<NUMSTATES> 5
<STATE> 2
<MEAN> 39
 -1.031950e+01 4.232721e+00 -3.814036e+00 -3.469864e+00 -3.716861e+00 -6.865811e+00 -5.224393e+00 1.532950e+00 -7.090700e+00 -8.919217e+00 -4.472573e+00 -5.544708e+00 7.274786e+01 1.926748e-01 1.497092e-01 2.850016e-02 -1.898449e-01 -9.930012e-02 -2.457811e-02 -1.311737e-01 9.739453e-02 1.681677e-01 1.488323e-01 -2.641435e-01 -8.542595e-02 -1.370301e-01 3.775417e-02 -1.329564e-02 9.372473e-03 -3.445875e-02 -4.195505e-02 -7.359781e-02 -3.684638e-05 -6.458538e-03 -1.016351e-01 -7.094425e-02 1.135623e-01 7.438121e-02 7.482607e-02
<VARIANCE> 39
 7.483525e+01 4.227119e+01 4.137517e+01 3.804428e+01 4.022576e+01 5.207937e+01 2.917742e+01 4.114179e+01 2.890305e+01 2.937646e+01 2.500121e+01 1.755957e+01 7.002959e+01 1.906201e+00 2.317722e+00 1.505909e+00 1.683768e+00 2.249734e+00 2.236707e+00 1.642453e+00 1.826497e+00 1.509036e+00 1.843344e+00 1.583427e+00 1.519592e+00 2.666972e+00 2.946680e-01 3.883954e-01 2.816302e-01 3.583121e-01 3.588730e-01 3.914825e-01 3.780202e-01 3.755990e-01 3.665563e-01 3.706124e-01 3.562027e-01 3.277884e-01 2.306326e-01
<GCONST> 1.129393e+02
<STATE> 3
<MEAN> 39
 -1.074389e+01 4.581347e+00 -3.353703e+00 -4.016821e+00 -4.126838e+00 -6.944207e+00 -5.737157e+00 1.203308e+00 -6.818278e+00 -8.531923e+00 -4.753278e+00 -5.784440e+00 7.168768e+01 3.576648e-02 1.058384e-01 9.648359e-02 -2.297829e-01 -2.168620e-01 -4.541785e-02 -1.807729e-01 -7.588583e-03 1.166702e-01 -1.772034e-01 -5.525261e-02 3.141830e-02 -4.098303e-02 1.727680e-02 1.595019e-02 1.840213e-02 -1.741487e-03 -2.318950e-02 -2.853389e-02 9.713301e-04 8.860876e-03 -5.714715e-02 -8.677049e-02 7.683413e-02 2.425962e-02 5.929136e-02
<VARIANCE> 39
 6.508233e+01 3.387755e+01 2.760675e+01 2.812970e+01 3.572490e+01 4.852272e+01 2.610961e+01 3.718791e+01 2.877529e+01 2.578947e+01 2.545292e+01 2.010338e+01 6.805576e+01 1.595387e+00 1.756838e+00 1.257371e+00 1.653340e+00 1.746620e+00 1.737451e+00 1.620771e+00 1.340652e+00 1.459884e+00 1.585418e+00 1.535351e+00 1.501159e+00 1.984336e+00 2.370581e-01 3.900790e-01 2.270254e-01 2.784818e-01 3.241436e-01 3.437917e-01 3.520361e-01 2.766942e-01 3.449282e-01 3.131417e-01 3.552298e-01 3.066303e-01 2.119758e-01
<GCONST> 1.077833e+02
<STATE> 4
<MEAN> 39
 -8.159834e+00 3.068964e+00 -3.488752e+00 -4.674592e+00 -4.994643e+00 -1.041002e+01 -7.145950e+00 4.402041e+00 -6.464046e+00 -9.681610e+00 -4.780382e+00 -6.036755e+00 7.523954e+01 2.735727e-02 1.091093e-02 8.768259e-02 -2.464740e-01 -2.598434e-01 -1.738323e-02 -7.853619e-02 1.194411e-01 1.947399e-02 -1.650734e-01 1.236975e-01 1.446357e-01 3.788994e-02 2.276431e-02 9.903303e-03 6.997479e-02 8.123621e-02 7.755072e-02 1.043270e-02 7.915480e-02 1.495197e-03 -4.376929e-02 3.287876e-02 1.552784e-02 -1.437083e-02 4.197474e-02
<VARIANCE> 39
 6.549911e+01 3.496941e+01 2.351345e+01 2.414511e+01 3.516988e+01 8.196751e+01 2.849800e+01 6.829512e+01 3.290684e+01 2.606699e+01 2.581770e+01 2.769331e+01 1.025385e+02 1.096581e+00 1.751294e+00 1.412322e+00 1.582034e+00 1.942074e+00 2.231008e+00 2.083339e+00 1.508334e+00 1.873467e+00 1.537667e+00 1.830960e+00 1.964680e+00 1.501291e+00 2.394225e-01 2.626380e-01 2.402442e-01 2.450271e-01 3.071544e-01 3.698398e-01 3.372563e-01 2.585858e-01 3.536432e-01 3.195481e-01 3.444170e-01 3.559908e-01 2.730674e-01
<GCONST> 1.102740e+02
<TRANSP> 5
 0.000000e+00 1.000000e+00 0.000000e+00 0.000000e+00 0.000000e+00
 0.000000e+00 5.011205e-01 4.988795e-01 0.000000e+00 0.000000e+00
 0.000000e+00 0.000000e+00 5.182901e-01 4.817099e-01 0.000000e+00
 0.000000e+00 0.000000e+00 0.000000e+00 6.745626e-01 3.254374e-01
 0.000000e+00 0.000000e+00 0.000000e+00 0.000000e+00 0.000000e+00
<ENDHMM>
~h "b"
<BEGINHMM>
<NUMSTATES> 5
<STATE> 2
<MEAN> 39
 -1.560275e+01 -2.775324e+00 6.571002e+00 -7.217136e+00 -1.636717e+00 -6.559401e+00 -7.164758e+00 -2.297284e-01 -1.346575e+01 -1.034991e+01 -1.608996e+00 -3.914983e+00 8.724063e+01 3.249872e-01 -2.817701e-01 -2.180543e-01 1.866075e-01 1.674033e-01 -5.696149e-01 -4.717827e-02 4.615803e-01 -8.468221e-02 -5.789566e-01 -3.851389e-01 -3.357090e-01 4.156376e-01 1.376387e-01 5.501505e-03 -2.391089e-02 6.215186e-02 4.162451e-02 4.407197e-02 -1.226593e-01 4.581985e-02 8.483519e-02 -7.225829e-02 -7.010181e-02 -8.481023e-02 -3.837741e-02
<VARIANCE> 39
 2.046010e+02 3.724747e+01 7.685863e+01 6.608029e+01 7.963291e+01 5.996321e+01 3.500471e+01 2.337807e+01 2.779342e+01 5.078322e+01 5.018382e+01 3.078899e+01 2.862011e+01 1.554351e+01 3.642481e+00 7.334953e+00 2.562521e+00 3.742218e+00 4.071603e+00 3.765393e+00 2.670458e+00 2.452322e+00 3.560102e+00 4.295687e+00 3.341186e+00 2.899003e+00 1.802477e+00 5.953667e-01 1.191784e+00 3.699039e-01 4.119090e-01 5.277958e-01 6.223661e-01 5.582618e-01 4.569393e-01 6.838327e-01 6.905667e-01 7.527806e-01 5.704474e-01
<GCONST> 1.344629e+02
<STATE> 3
<MEAN> 39
 -4.160728e+00 -1.807114e+00 8.767099e-01 -4.596655e+00 1.441059e+00 -1.125113e+01 -9.081070e+00 2.195481e+00 -1.197017e+01 -1.364797e+01 -5.724823e+00 -7.675557e+00 8.642906e+01 4.489428e-01 3.025504e-01 -1.305640e-04 3.334692e-01 5.812156e-01 3.272920e-01 -4.693212e-01 2.860257e-01 6.561768e-01 6.628380e-02 -1.840943e-01 -3.196474e-01 -4.790110e-01 -3.357623e-01 9.111756e-02 2.803699e-01 -5.290908e-02 -1.233232e-01 4.968995e-01 1.370812e-01 -1.940874e-01 1.635105e-01 2.744707e-01 1.258760e-01 1.682133e-01 -1.692642e-01
<VARIANCE> 39
 1.536898e+01 4.795561e+01 5.564084e+01 5.354519e+01 1.153185e+02 5.142116e+01 4.872812e+01 3.319417e+01 4.270697e+01 4.441269e+01 7.879567e+01 5.735896e+01 2.274750e+01 3.531938e+00 3.718088e+00 7.311899e+00 2.071544e+00 4.293916e+00 5.025325e+00 4.129547e+00 2.927947e+00 3.477140e+00 3.926615e+00 4.685665e+00 3.710794e+00 2.854795e+00 8.260890e-01 4.463298e-01 1.441752e+00 3.258891e-01 6.512305e-01 8.218546e-01 9.011598e-01 5.606308e-01 6.363282e-01 8.938199e-01 1.136536e+00 6.986193e-01 3.596390e-01
<GCONST> 1.339414e+02
<STATE> 4
<MEAN> 39
 -2.497925e+00 4.199277e-01 6.420502e-02 -2.889584e+00 2.566169e+00 -8.866414e+00 -1.303091e+01 2.105147e+00 -6.041184e+00 -1.487359e+01 -9.268105e+00 -8.226515e+00 8.494054e+01 4.126462e-02 2.035719e-01 6.306641e-02 6.563473e-02 -1.001355e-01 1.051238e-01 -2.135933e-01 -4.354024e-02 3.957064e-01 -7.208973e-02 -1.038987e-01 1.246490e-01 -1.612368e-01 -2.841526e-02 -2.199409e-02 -4.082483e-02 -3.867938e-02 -3.462360e-02 -2.753310e-02 6.609178e-02 -4.264612e-02 -7.947445e-02 2.243482e-02 9.249034e-02 5.909696e-02 1.602561e-02
<VARIANCE> 39
 1.240315e+01 4.780616e+01 4.773556e+01 3.429882e+01 5.955718e+01 9.308688e+01 6.028697e+01 3.909654e+01 7.601529e+01 4.187767e+01 9.624615e+01 2.831654e+01 1.647140e+01 1.123987e+00 2.608152e+00 4.351460e+00 1.556092e+00 2.724900e+00 7.171478e+00 4.282928e+00 3.361413e+00 3.457438e+00 2.671563e+00 4.603782e+00 1.785288e+00 1.819251e+00 2.490934e-01 3.536479e-01 7.426833e-01 2.712396e-01 3.991026e-01 1.192775e+00 7.445538e-01 6.285216e-01 5.654484e-01 4.818239e-01 7.475573e-01 3.532560e-01 2.483895e-01
<GCONST> 1.246244e+02
<TRANSP> 5
 0.000000e+00 1.000000e+00 0.000000e+00 0.000000e+00 0.000000e+00
 0.000000e+00 8.458119e-01 1.541882e-01 0.000000e+00 0.000000e+00
 0.000000e+00 0.000000e+00 6.927867e-01 3.072133e-01 0.000000e+00
 0.000000e+00 0.000000e+00 0.000000e+00 9.174199e-01 8.258010e-02
 0.000000e+00 0.000000e+00 0.000000e+00 0.000000e+00 0.000000e+00
<ENDHMM>
~h "d"
<BEGINHMM>
<NUMSTATES> 5
<STATE> 2
<MEAN> 39
 -8.961422e+00 -2.302725e-01 7.562836e-01 -4.318532e+00 -3.871848e+00 -9.133699e+00 -3.899684e+00 -1.351167e+00 -1.075930e+01 -8.155128e+00 -7.313868e+00 -8.865440e+00 8.241527e+01 1.939996e+00 -8.160196e-01 -1.428190e+00 6.777761e-01 -3.286372e-01 -2.108176e+00 -7.022381e-01 1.030065e+00 2.918555e-01 -9.628679e-01 -3.476534e-01 -6.913829e-01 1.603830e+00 -6.146204e-01 -4.125438e-01 3.815249e-02 -1.990991e-01 2.779101e-02 1.412310e-01 -4.632751e-02 -7.570014e-02 -1.521931e-01 8.217467e-02 3.992550e-01 3.352346e-01 3.841865e-01
<VARIANCE> 39
 8.413705e+01 4.187709e+01 5.379379e+01 4.220221e+01 8.224785e+01 7.632043e+01 4.673175e+01 2.762864e+01 2.301014e+01 1.977724e+01 2.229433e+01 2.390405e+01 5.668956e+01 1.733779e+01 6.686682e+00 4.502347e+00 3.097968e+00 5.219293e+00 7.333479e+00 3.889325e+00 3.790016e+00 2.824399e+00 2.653078e+00 3.107078e+00 4.392310e+00 4.022234e+00 1.587085e+00 8.629804e-01 4.254196e-01 3.278331e-01 5.375264e-01 1.006648e+00 6.907402e-01 9.049423e-01 5.028840e-01 4.261038e-01 6.326797e-01 6.871793e-01 6.425173e-01
<GCONST> 1.341044e+02
<STATE> 3
<MEAN> 39
 -6.583217e+00 -3.084841e+00 -3.137898e+00 -4.476532e+00 -5.679681e+00 -1.322807e+01 -4.123211e+00 -2.440424e-01 -1.067435e+01 -9.080059e+00 -6.251935e+00 -8.720272e+00 8.675690e+01 1.211146e+00 -1.022563e+00 -1.462108e+00 2.460339e-01 -1.774471e-01 -1.213903e+00 -2.675448e-01 2.417041e-01 -2.718199e-01 -5.632557e-01 6.287525e-01 5.062025e-01 1.417328e+00 -2.479424e-01 -5.153680e-02 1.036512e-01 -1.264746e-01 1.752436e-01 4.362733e-01 1.382411e-01 -2.290384e-01 -2.359161e-01 4.206869e-02 2.617639e-01 4.157507e-01 -2.175677e-01
<VARIANCE> 39
 9.315871e+01 3.249964e+01 8.990021e+01 2.739313e+01 1.191867e+02 9.760071e+01 7.003130e+01 3.718881e+01 2.873299e+01 1.887164e+01 2.477884e+01 3.049457e+01 2.774309e+01 8.558908e+00 3.697282e+00 3.703848e+00 1.934503e+00 5.037098e+00 6.897179e+00 4.611402e+00 5.361339e+00 3.065294e+00 3.304287e+00 2.966934e+00 4.008336e+00 3.778508e+00 1.976179e+00 8.655517e-01 5.606279e-01 3.590057e-01 6.869914e-01 1.131814e+00 9.286201e-01 8.942533e-01 5.237477e-01 5.925208e-01 5.781557e-01 8.283042e-01 5.055177e-01
<GCONST> 1.351822e+02
<STATE> 4
<MEAN> 39
 -8.837407e+00 -5.317519e+00 -4.115571e+00 -3.819695e+00 -4.889127e+00 -1.278303e+01 -5.386195e+00 -2.109065e+00 -1.334100e+01 -9.158055e+00 -2.089645e+00 -4.755219e+00 8.829912e+01 3.757776e-02 7.011037e-02 -1.031326e-01 -9.035363e-02 4.137790e-01 1.813066e-01 -2.365460e-01 -4.457336e-03 -2.845203e-01 -2.127533e-01 4.123896e-01 3.909044e-01 -1.373978e-01 -1.092517e-01 1.293725e-01 8.993247e-02 1.754945e-02 4.019118e-02 9.220381e-02 3.164262e-02 2.291564e-02 -1.116252e-02 1.726359e-02 -9.319074e-03 -1.779929e-02 -1.558766e-01
<VARIANCE> 39
 1.117902e+02 2.660283e+01 8.869609e+01 4.482164e+01 1.032068e+02 7.813599e+01 5.866162e+01 4.122159e+01 5.786597e+01 2.083655e+01 3.942285e+01 2.502898e+01 3.188580e+01 5.820982e+00 2.956983e+00 5.095340e+00 3.181909e+00 5.804744e+00 5.310841e+00 4.590922e+00 3.261176e+00 4.906237e+00 2.595303e+00 2.898174e+00 2.771187e+00 2.688044e+00 8.706362e-01 4.146910e-01 6.811916e-01 5.587837e-01 1.019063e+00 1.019478e+00 9.594582e-01 5.224816e-01 8.205038e-01 4.173265e-01 4.776322e-01 4.752323e-01 3.998313e-01
<GCONST> 1.334742e+02
<TRANSP> 5
 0.000000e+00 1.000000e+00 0.000000e+00 0.000000e+00 0.000000e+00
 0.000000e+00 3.800125e-01 6.199874e-01 0.000000e+00 0.000000e+00
 0.000000e+00 0.000000e+00 5.242192e-01 4.757808e-01 0.000000e+00
 0.000000e+00 0.000000e+00 0.000000e+00 8.639578e-01 1.360422e-01
 0.000000e+00 0.000000e+00 0.000000e+00 0.000000e+00 0.000000e+00
<ENDHMM>
~h "e"
<BEGINHMM>
<NUMSTATES> 5
<STATE> 2
<MEAN> 39
 -1.077525e+01 -1.615172e+00 -6.238112e-01 -3.865911e+00 -7.165307e-01 -8.958042e+00 -7.268860e+00 -5.595939e-01 -1.278794e+01 -1.107339e+01 -3.363326e+00 -3.873885e+00 8.278724e+01 9.906555e-01 -1.569436e-02 9.808831e-02 4.835497e-01 5.971092e-01 -2.447148e-01 -2.742356e-01 2.581640e-01 -7.090778e-02 -5.133600e-01 -3.320610e-01 -1.986006e-01 6.936356e-01 8.022476e-02 7.431889e-02 4.789330e-02 3.742804e-02 5.543526e-02 1.097233e-01 -9.841494e-02 9.904495e-03 1.247414e-01 -2.732145e-02 -1.470224e-01 -1.818143e-01 -3.380302e-02
<VARIANCE> 39
 9.588087e+01 4.294930e+01 7.202222e+01 5.251728e+01 8.362730e+01 6.266190e+01 6.505522e+01 3.854545e+01 5.432406e+01 5.996698e+01 4.378063e+01 2.933800e+01 7.038192e+01 8.251506e+00 3.202759e+00 4.605655e+00 2.620938e+00 4.862312e+00 4.944149e+00 5.677667e+00 3.027611e+00 4.042505e+00 4.236599e+00 3.324208e+00 2.973741e+00 5.129816e+00 1.262209e+00 4.343815e-01 6.337613e-01 4.491051e-01 7.007384e-01 8.251613e-01 9.979168e-01 5.210215e-01 7.825286e-01 7.991329e-01 5.861470e-01 4.855876e-01 5.964059e-01
<GCONST> 1.373842e+02
<STATE> 3
<MEAN> 39
 -7.858207e+00 -1.122131e+00 1.394126e+00 -1.182196e+00 2.520297e+00 -9.033047e+00 -9.808612e+00 -2.792703e-01 -1.184831e+01 -1.298169e+01 -5.216983e+00 -5.529458e+00 8.421729e+01 4.016099e-01 3.837652e-01 2.310042e-01 8.143817e-02 2.054041e-01 4.904482e-01 -3.368185e-01 5.620585e-02 6.142028e-01 -1.950630e-01 -3.609538e-01 -2.550083e-01 -4.101194e-03 -1.161023e-01 4.395788e-02 -2.768904e-02 -8.366425e-02 -9.984200e-02 7.505763e-02 -1.689156e-02 -2.590973e-02 7.768784e-02 1.004794e-01 5.067494e-02 4.433373e-03 -1.270988e-01
<VARIANCE> 39
 4.403865e+01 4.613231e+01 6.653914e+01 7.076237e+01 1.067376e+02 7.296397e+01 6.952086e+01 4.789684e+01 6.487984e+01 5.692035e+01 4.801721e+01 3.546498e+01 4.074079e+01 4.954655e+00 3.458348e+00 4.060631e+00 2.613702e+00 4.739716e+00 5.739287e+00 6.356784e+00 3.325114e+00 4.565171e+00 3.965376e+00 3.479882e+00 2.730662e+00 4.813996e+00 9.017280e-01 5.047816e-01 7.121202e-01 4.316399e-01 6.827181e-01 9.043535e-01 9.672746e-01 5.629295e-01 7.911789e-01 7.107290e-01 6.616754e-01 4.999826e-01 6.058857e-01
<GCONST> 1.372204e+02
<STATE> 4
<MEAN> 39
 -5.833583e+00 1.384540e+00 1.452252e+00 -1.565242e+00 1.106584e+00 -8.236135e+00 -1.023555e+01 1.501875e+00 -8.017986e+00 -1.445653e+01 -7.618829e+00 -6.078791e+00 8.294130e+01 1.261102e-01 1.525235e-01 -3.361406e-01 -2.734935e-01 -3.674983e-01 6.940001e-02 2.356657e-01 1.970917e-01 1.186842e-01 1.398177e-01 1.471551e-01 1.373345e-02 -1.572453e-01 -4.818934e-02 -9.530380e-02 -6.906708e-02 3.987201e-02 -1.819110e-02 -1.206944e-01 5.026767e-02 -4.700661e-02 -1.583081e-01 4.132494e-02 1.164647e-01 3.817013e-02 1.919355e-02
<VARIANCE> 39
 2.562202e+01 3.815210e+01 4.539666e+01 5.192575e+01 6.540517e+01 9.243742e+01 5.772277e+01 5.768886e+01 7.677406e+01 6.001282e+01 4.389043e+01 3.887860e+01 3.929412e+01 2.298625e+00 3.106706e+00 2.452404e+00 2.606917e+00 3.416477e+00 5.507562e+00 3.967386e+00 3.470195e+00 3.461125e+00 3.234835e+00 3.114030e+00 2.344986e+00 3.437801e+00 3.965947e-01 4.659290e-01 3.881624e-01 3.974665e-01 4.944639e-01 7.849665e-01 7.400815e-01 5.102221e-01 5.330775e-01 5.556512e-01 5.193138e-01 3.937356e-01 4.605935e-01
<GCONST> 1.286537e+02
<TRANSP> 5
 0.000000e+00 1.000000e+00 0.000000e+00 0.000000e+00 0.000000e+00
 0.000000e+00 7.210182e-01 2.789817e-01 0.000000e+00 0.000000e+00
 0.000000e+00 0.000000e+00 6.916379e-01 3.083622e-01 0.000000e+00
 0.000000e+00 0.000000e+00 0.000000e+00 8.528463e-01 1.471538e-01
 0.000000e+00 0.000000e+00 0.000000e+00 0.000000e+00 0.000000e+00
<ENDHMM>
~h "g"
<BEGINHMM>
<NUMSTATES> 5
<STATE> 2
<MEAN> 39
 -1.229923e+01 7.504595e+00 -2.211724e+00 -7.131643e+00 -4.985447e+00 -7.671678e+00 -5.659743e+00 3.643161e-01 -9.623373e+00 -7.311349e+00 -3.803487e+00 -3.973169e+00 6.847093e+01 -2.568138e-01 -7.702796e-02 -1.935286e-01 1.913791e-01 1.391397e-01 -2.195018e-02 7.138894e-02 -1.969346e-01 2.996611e-02 1.565347e-02 2.519344e-01 2.970460e-01 -2.552152e-01 -4.332589e-02 -8.093246e-02 -9.197152e-03 -7.698159e-03 -1.224492e-01 -2.756665e-02 -1.663051e-02 -1.059469e-01 -4.486070e-02 -1.095186e-02 5.543489e-03 -6.965817e-02 4.178218e-03
<VARIANCE> 39
 2.164923e+01 2.483784e+01 7.828520e+00 1.216147e+01 2.520591e+01 2.007423e+01 1.552744e+01 1.059852e+01 2.584483e+01 8.032332e+00 7.549911e+00 1.285740e+01 5.726689e+01 4.771755e-01 3.211826e-01 4.595080e-01 5.124416e-01 1.858006e+00 8.482196e-01 1.050754e+00 1.141898e+00 1.271701e+00 7.665408e-01 7.930191e-01 1.690392e+00 2.584173e-01 5.630805e-02 4.142134e-02 8.661518e-02 9.694424e-02 2.625654e-01 1.637244e-01 1.941153e-01 2.531443e-01 2.538894e-01 1.869473e-01 1.729022e-01 2.277274e-01 5.089331e-02
<GCONST> 7.777772e+01
<STATE> 3
<MEAN> 39
 -1.359622e+01 6.378026e+00 -2.664564e+00 -6.392770e+00 -4.351219e+00 -7.657321e+00 -6.239390e+00 -9.947570e-01 -9.928012e+00 -7.749024e+00 -2.810838e+00 -3.533329e+00 6.801191e+01 -3.063779e-01 -2.160527e-01 -8.050372e-02 1.176186e-01 2.263235e-02 3.558419e-02 -8.477368e-02 -3.146878e-01 -6.856170e-02 -2.437660e-01 1.873595e-01 1.783368e-02 -2.187466e-01 -1.145128e-02 -2.811686e-02 1.614406e-02 -1.196229e-02 -3.088044e-02 3.755429e-02 2.485933e-02 1.925278e-02 -8.475842e-03 -4.129722e-02 -6.417552e-02 -1.580211e-01 -3.657873e-03
<VARIANCE> 39
 3.134649e+01 2.379754e+01 7.796435e+00 8.944094e+00 1.839766e+01 2.802275e+01 1.397052e+01 1.073496e+01 2.010275e+01 9.754044e+00 6.335723e+00 1.795618e+01 6.041623e+01 4.317429e-01 2.702262e-01 3.641035e-01 5.302706e-01 1.948610e+00 7.355086e-01 1.120892e+00 6.395651e-01 8.137228e-01 6.261833e-01 6.203422e-01 1.214448e+00 2.487840e-01 6.802787e-02 5.400347e-02 6.878306e-02 1.191523e-01 3.128153e-01 1.391419e-01 1.120732e-01 1.646362e-01 1.857469e-01 1.367808e-01 1.277878e-01 2.793803e-01 4.094232e-02
<GCONST> 7.405292e+01
<STATE> 4
<MEAN> 39
 -1.519209e+01 5.946416e+00 -2.250353e+00 -6.007419e+00 -2.876070e+00 -5.985761e+00 -6.688580e+00 -2.379845e+00 -9.799198e+00 -8.211374e+00 -2.490988e+00 -4.143059e+00 6.702712e+01 -1.735319e-01 -1.101829e-01 -1.518216e-03 8.700248e-02 -3.711726e-02 3.012860e-01 1.539676e-01 -6.123420e-02 4.819907e-02 -5.401182e-02 -4.705273e-02 -9.481525e-02 -1.805926e-01 5.095086e-02 1.793023e-03 -1.608854e-03 3.130984e-02 -5.371324e-02 2.625628e-02 7.028484e-02 8.331525e-02 2.173206e-02 5.156425e-02 -2.409059e-02 -3.067544e-02 1.500024e-03
<VARIANCE> 39
 3.311198e+01 1.656024e+01 6.443435e+00 1.195271e+01 1.520181e+01 2.817045e+01 1.398795e+01 1.002645e+01 1.541404e+01 9.924638e+00 7.478713e+00 1.848979e+01 4.364184e+01 7.371224e-01 3.854111e-01 2.776597e-01 9.382016e-01 1.712140e+00 7.505488e-01 1.162740e+00 6.669891e-01 1.086285e+00 6.433864e-01 5.319255e-01 1.336504e+00 4.527372e-01 1.086965e-01 5.927319e-02 4.913592e-02 1.993937e-01 3.478737e-01 1.579371e-01 1.706597e-01 1.214962e-01 2.338968e-01 1.041252e-01 1.119795e-01 2.903908e-01 4.916593e-02
<GCONST> 7.636653e+01
<TRANSP> 5
 0.000000e+00 1.000000e+00 0.000000e+00 0.000000e+00 0.000000e+00
 0.000000e+00 6.758826e-01 3.241175e-01 0.000000e+00 0.000000e+00
 0.000000e+00 0.000000e+00 6.642498e-01 3.357502e-01 0.000000e+00
 0.000000e+00 0.000000e+00 0.000000e+00 8.125174e-01 1.874826e-01
 0.000000e+00 0.000000e+00 0.000000e+00 0.000000e+00 0.000000e+00
<ENDHMM>
~h "h"
<BEGINHMM>
<NUMSTATES> 5
<STATE> 2
<MEAN> 39
 -9.533199e+00 3.896369e+00 -4.736074e-01 1.503031e+00 2.284525e+00 -4.318713e+00 -7.907583e+00 -4.357976e+00 -1.005196e+01 -8.181490e+00 -5.540112e+00 -7.727025e+00 7.287116e+01 -5.046163e-01 6.049591e-01 -2.443682e-01 -9.064904e-01 -8.529027e-01 2.087917e-01 5.356210e-01 -5.712544e-01 6.192155e-03 -1.749847e-01 -6.843838e-01 6.800927e-02 -1.182906e+00 -1.327119e-02 -3.315065e-01 1.213123e-01 1.137782e-01 5.153695e-01 -8.574992e-02 -7.145795e-02 -5.089088e-02 -2.066289e-01 -9.787633e-02 1.452417e-01 -6.498907e-02 3.465941e-01
<VARIANCE> 39
 1.347730e+01 3.638879e+01 3.829242e+01 5.071124e+01 4.191800e+01 2.555116e+01 4.265331e+01 2.478684e+01 2.893143e+01 2.126982e+01 2.216453e+01 1.484892e+01 3.209353e+01 9.834410e-01 1.512897e+00 1.496711e+00 1.217632e+00 2.533659e+00 2.045141e+00 3.209650e+00 2.582793e+00 2.461428e+00 1.324165e+00 1.805304e+00 9.429546e-01 5.778857e-01 1.872892e-01 6.556656e-01 3.699305e-01 3.411314e-01 5.666217e-01 4.489539e-01 5.997400e-01 3.933051e-01 5.500868e-01 3.275845e-01 4.180594e-01 2.121051e-01 2.891985e-01
<GCONST> 1.086362e+02
<STATE> 3
<MEAN> 39
 -1.048907e+01 5.110002e+00 -7.459740e-01 1.243243e-01 1.577177e+00 -3.483763e+00 -7.161923e+00 -5.594301e+00 -1.071061e+01 -8.117925e+00 -4.639109e+00 -6.921877e+00 7.070970e+01 -3.728234e-01 4.731997e-01 -9.345341e-02 -4.195523e-01 -2.159989e-01 2.880246e-01 4.403357e-01 -1.828123e-01 -7.378452e-03 -1.475559e-01 -1.498465e-01 1.199390e-01 -8.426244e-01 -1.238370e-01 -3.313971e-01 1.939735e-01 1.482996e-01 2.507812e-01 6.580475e-02 -1.238891e-01 1.447449e-01 9.059489e-02 -2.981330e-02 5.160085e-02 -5.392669e-02 3.652557e-01
<VARIANCE> 39
 8.368339e+00 3.033392e+01 3.189944e+01 4.113346e+01 3.515213e+01 1.976789e+01 3.455309e+01 2.278766e+01 1.534620e+01 2.030553e+01 2.214166e+01 1.182854e+01 3.124689e+01 6.816633e-01 1.113570e+00 6.008523e-01 1.522624e+00 2.122964e+00 1.115287e+00 2.591449e+00 2.139320e+00 1.737450e+00 9.473009e-01 1.738986e+00 7.935578e-01 3.200294e-01 1.878626e-01 5.118865e-01 2.930189e-01 2.849618e-01 5.443535e-01 2.503933e-01 5.073023e-01 3.341499e-01 4.712209e-01 2.941550e-01 3.585898e-01 1.630877e-01 2.607783e-01
<GCONST> 9.949696e+01
<STATE> 4
<MEAN> 39
 -1.181488e+01 7.086802e+00 -7.321033e-01 -1.965640e-01 8.378641e-01 -2.117287e+00 -6.650076e+00 -6.248652e+00 -9.876861e+00 -6.236778e+00 -2.590567e+00 -5.871568e+00 6.809364e+01 -4.677635e-01 9.005588e-02 5.192631e-02 -2.099886e-01 -1.254264e-01 2.266331e-01 4.281676e-01 9.784052e-02 4.019558e-01 -1.968109e-01 -3.120872e-01 -1.065796e-01 -3.503153e-01 -2.152431e-01 -2.962606e-01 1.593730e-01 6.861731e-03 4.957891e-02 6.525146e-03 -1.206958e-01 8.743806e-02 7.781026e-02 -3.852757e-02 -4.814661e-02 -2.067064e-02 3.719497e-01
<VARIANCE> 39
 1.003551e+01 2.345306e+01 1.569614e+01 2.793735e+01 2.078356e+01 1.741409e+01 2.883128e+01 1.639491e+01 1.319357e+01 2.711630e+01 2.388672e+01 1.163652e+01 2.259157e+01 5.828543e-01 1.625870e+00 5.556799e-01 1.431802e+00 1.405030e+00 9.159759e-01 2.139800e+00 1.243812e+00 9.561989e-01 1.315466e+00 2.109749e+00 7.125922e-01 5.777749e-01 2.986434e-01 3.654129e-01 1.499236e-01 1.901400e-01 2.443555e-01 2.464218e-01 4.960642e-01 2.657810e-01 2.711397e-01 2.349811e-01 2.548791e-01 1.434762e-01 3.609050e-01
<GCONST> 9.324393e+01
<TRANSP> 5
 0.000000e+00 1.000000e+00 0.000000e+00 0.000000e+00 0.000000e+00
 0.000000e+00 2.004561e-01 7.995440e-01 0.000000e+00 0.000000e+00
 0.000000e+00 0.000000e+00 3.088542e-01 6.911458e-01 0.000000e+00
 0.000000e+00 0.000000e+00 0.000000e+00 4.954084e-01 5.045916e-01
 0.000000e+00 0.000000e+00 0.000000e+00 0.000000e+00 0.000000e+00
<ENDHMM>
~h "i"
<BEGINHMM>
<NUMSTATES> 5
<STATE> 2
<MEAN> 39
 -9.630285e+00 2.475457e+00 4.105735e-01 1.427844e+00 2.607564e+00 -6.969532e+00 -1.017399e+01 -1.683906e+00 -1.057578e+01 -9.697980e+00 -3.327024e+00 -6.630310e+00 7.339902e+01 -2.167003e-01 1.119294e-01 -2.051826e-01 -2.555614e-01 -2.085137e-01 4.648437e-01 3.094251e-01 -3.814636e-01 -1.092613e-01 -4.267206e-02 2.136340e-02 2.201459e-01 -2.603232e-01 -4.791413e-04 -8.382577e-02 -1.230607e-02 -7.793746e-02 -9.176927e-02 -2.339084e-01 1.699155e-01 2.301811e-01 -1.168663e-01 4.641842e-02 1.078635e-01 3.252550e-02 2.638641e-01
<VARIANCE> 39
 3.323841e+01 3.243609e+01 4.568042e+01 7.325864e+01 5.942373e+01 4.447265e+01 4.494069e+01 5.502051e+01 2.578995e+01 3.057115e+01 2.596149e+01 1.904594e+01 3.880121e+01 1.251935e+00 2.641284e+00 1.975295e+00 2.316886e+00 2.613607e+00 2.402565e+00 3.132628e+00 2.221399e+00 1.717780e+00 2.501114e+00 2.122447e+00 1.687808e+00 4.638582e+00 2.960503e-01 4.577133e-01 3.134260e-01 4.173956e-01 4.661777e-01 5.412388e-01 5.841724e-01 5.195125e-01 4.218498e-01 5.500687e-01 3.794382e-01 4.244708e-01 6.183647e-01
<GCONST> 1.193932e+02
<STATE> 3
<MEAN> 39
 -9.892211e+00 3.364408e+00 -9.764405e-01 -8.500495e-01 9.586496e-01 -4.745968e+00 -8.724739e+00 -3.280879e+00 -1.038134e+01 -9.203894e+00 -3.211474e+00 -5.473432e+00 7.247008e+01 -2.614916e-01 9.370714e-02 -7.932523e-02 -3.869048e-01 -6.405641e-01 4.003293e-02 6.925983e-01 1.783246e-01 4.520572e-02 2.080476e-01 1.846293e-01 3.784939e-01 -4.885413e-03 1.498502e-01 1.657807e-02 -4.061340e-02 3.517251e-02 -1.803267e-01 -3.749189e-01 1.747426e-01 2.949918e-01 -9.159666e-03 2.108997e-03 1.075962e-02 4.688957e-02 1.557398e-01
<VARIANCE> 39
 3.736522e+01 2.375147e+01 2.688557e+01 5.156639e+01 4.439806e+01 3.664967e+01 3.773829e+01 4.537772e+01 2.725369e+01 2.384353e+01 2.830897e+01 2.036084e+01 3.055981e+01 1.194690e+00 2.596155e+00 1.515898e+00 2.041223e+00 2.126102e+00 2.494520e+00 2.648432e+00 2.130686e+00 1.371048e+00 1.836339e+00 2.148036e+00 1.634504e+00 4.391543e+00 3.852105e-01 3.282848e-01 2.961499e-01 3.591890e-01 4.798486e-01 7.174252e-01 4.300030e-01 4.102314e-01 3.364621e-01 3.807487e-01 4.767470e-01 3.422196e-01 5.015006e-01
<GCONST> 1.144446e+02
<STATE> 4
<MEAN> 39
 -8.151014e+00 5.577040e+00 -1.584303e+00 -1.338374e+00 -7.791194e-01 -4.824821e+00 -7.227736e+00 -1.551927e+00 -9.249750e+00 -9.090304e+00 -3.201136e+00 -4.591222e+00 7.192268e+01 -1.117638e-02 2.998399e-01 4.026693e-02 4.407357e-02 -5.604277e-01 -2.873036e-01 8.172904e-01 3.049994e-01 1.071319e-01 -1.001776e-01 -4.032058e-01 2.296535e-01 9.418683e-02 6.514936e-02 -7.484039e-02 -1.302437e-01 -6.808785e-02 -3.885997e-02 -1.862402e-01 3.877356e-02 9.781499e-03 -3.047791e-02 -1.239055e-01 -1.669291e-01 -7.162575e-02 1.782316e-01
<VARIANCE> 39
 3.408468e+01 2.399601e+01 1.675112e+01 3.360141e+01 2.896289e+01 2.559960e+01 2.347238e+01 3.376601e+01 2.017095e+01 1.878364e+01 2.467399e+01 2.092764e+01 2.778899e+01 1.370281e+00 2.504712e+00 1.718169e+00 1.593764e+00 2.020886e+00 3.298438e+00 1.694719e+00 2.098866e+00 1.586739e+00 2.068719e+00 2.779788e+00 1.960546e+00 3.758358e+00 3.253895e-01 2.717945e-01 1.951138e-01 4.426403e-01 3.192112e-01 4.829287e-01 3.348794e-01 3.220520e-01 2.365946e-01 3.756914e-01 4.587587e-01 3.282170e-01 3.372278e-01
<GCONST> 1.087520e+02
<TRANSP> 5
 0.000000e+00 1.000000e+00 0.000000e+00 0.000000e+00 0.000000e+00
 0.000000e+00 3.747563e-01 6.252437e-01 0.000000e+00 0.000000e+00
 0.000000e+00 0.000000e+00 2.727489e-01 7.272512e-01 0.000000e+00
 0.000000e+00 0.000000e+00 0.000000e+00 4.601474e-01 5.398526e-01
 0.000000e+00 0.000000e+00 0.000000e+00 0.000000e+00 0.000000e+00
<ENDHMM>
~h "j"
<BEGINHMM>
<NUMSTATES> 5
<STATE> 2
<MEAN> 39
 -1.868979e+01 5.432259e+00 -1.261627e+00 -8.401837e+00 -1.280378e+00 -9.401391e-01 8.320379e-01 9.968682e-01 -9.746650e+00 -9.535850e+00 -6.713831e+00 -5.231755e+00 7.193253e+01 -7.208738e-01 -1.870397e-02 1.548084e+00 -7.268816e-01 1.095754e+00 3.441830e-01 -8.178371e-01 -1.801232e-01 -3.029212e-01 -7.255659e-01 -8.551567e-01 -3.626984e-02 1.346356e+00 6.014590e-02 -4.203266e-01 2.061282e-01 8.102901e-02 -7.312526e-02 1.125433e-01 -3.293647e-01 3.105515e-02 2.572125e-01 -9.102477e-02 -4.099638e-02 -4.865661e-02 -1.193938e-01
<VARIANCE> 39
 7.797695e+01 4.729507e+01 5.778810e+01 5.389421e+01 4.525111e+01 5.103761e+01 1.804952e+01 7.401181e+00 4.979669e+01 2.155907e+01 1.036864e+01 7.040905e+00 6.742956e+01 1.328087e+01 2.131251e+00 6.418480e+00 3.392013e+00 1.984444e+00 1.089624e+00 2.406450e+00 5.023953e-01 2.195178e+00 3.294563e+00 9.986743e-01 1.347010e+00 2.621071e+00 1.808044e+00 5.015931e-01 1.296019e+00 5.507447e-01 4.936205e-01 3.021712e-01 6.793953e-01 1.255863e-01 4.316739e-01 3.684155e-01 2.281975e-01 3.016128e-01 8.431124e-01
<GCONST> 1.171926e+02
<STATE> 3
<MEAN> 39
 -2.067102e+01 3.951782e+00 2.117857e+00 -1.122734e+01 3.582585e-02 -5.039995e-01 -1.062471e+00 1.237763e+00 -9.406478e+00 -1.082382e+01 -8.020691e+00 -4.976285e+00 7.348890e+01 2.842094e-01 -5.880523e-01 5.264681e-01 -1.645508e-01 2.996485e-01 -1.404092e-01 -6.250970e-01 -2.942319e-02 9.162056e-02 -3.950044e-01 -2.671037e-01 1.852069e-01 3.704255e-01 2.864718e-01 -1.548125e-01 -3.805516e-01 3.989930e-01 -2.262465e-01 -1.087499e-01 5.592816e-02 5.122066e-03 4.132161e-02 1.628037e-01 2.766529e-01 8.376947e-03 -2.674429e-01
<VARIANCE> 39
 1.155496e+02 3.433838e+01 5.377335e+01 9.338938e+01 4.405882e+01 4.574667e+01 1.587269e+01 9.853219e+00 5.329649e+01 3.157471e+01 1.166352e+01 1.102017e+01 5.880419e+01 1.097592e+01 2.287028e+00 7.949849e+00 4.521986e+00 3.018214e+00 1.357769e+00 2.600135e+00 1.096944e+00 3.179178e+00 2.199386e+00 1.451518e+00 1.400015e+00 4.505624e+00 1.958261e+00 5.145378e-01 1.358787e+00 6.034931e-01 8.165913e-01 2.709130e-01 3.372642e-01 2.366773e-01 8.534819e-01 3.857025e-01 2.858958e-01 3.261983e-01 1.023228e+00
<GCONST> 1.232394e+02
<STATE> 4
<MEAN> 39
 -1.393147e+01 6.036057e-01 1.117148e+00 -4.837248e+00 2.767308e+00 -2.979876e+00 -2.950439e+00 -1.542378e+00 -1.361176e+01 -1.441693e+01 -7.841809e+00 -3.353208e+00 7.672249e+01 1.439090e+00 -6.511609e-01 -3.316440e-02 1.179437e+00 1.402831e+00 -2.961766e-01 -9.863635e-01 -3.447519e-01 -6.707473e-01 -1.186194e+00 6.100456e-02 3.298887e-01 1.086214e+00 -1.722931e-01 1.276843e-01 7.314375e-02 5.085953e-02 1.176307e-01 6.230845e-02 -1.432112e-01 3.016650e-02 1.398622e-01 2.641597e-01 2.251404e-01 -5.503764e-02 -3.486804e-02
<VARIANCE> 39
 1.043129e+02 2.607679e+01 2.564354e+01 8.839626e+01 8.330734e+01 2.715233e+01 3.523959e+01 1.919169e+01 6.481107e+01 1.040316e+02 1.736941e+01 8.617924e+00 7.150373e+01 8.722274e+00 2.501262e+00 4.353943e+00 4.303692e+00 6.558524e+00 1.697829e+00 1.824579e+00 2.289672e+00 6.659683e+00 1.191995e+01 3.397748e+00 1.267861e+00 5.742944e+00 2.354230e+00 5.682185e-01 1.163502e+00 7.048983e-01 1.296448e+00 2.830662e-01 1.723536e-01 5.363860e-01 1.437037e+00 3.030104e+00 7.934797e-01 3.198189e-01 1.295602e+00
<GCONST> 1.341507e+02
<TRANSP> 5
 0.000000e+00 1.000000e+00 0.000000e+00 0.000000e+00 0.000000e+00
 0.000000e+00 4.999593e-01 5.000407e-01 0.000000e+00 0.000000e+00
 0.000000e+00 0.000000e+00 6.290521e-01 3.709478e-01 0.000000e+00
 0.000000e+00 0.000000e+00 0.000000e+00 8.938375e-01 1.061626e-01
 0.000000e+00 0.000000e+00 0.000000e+00 0.000000e+00 0.000000e+00
<ENDHMM>
~h "k"
<BEGINHMM>
<NUMSTATES> 5
<STATE> 2
<MEAN> 39
 -8.954655e+00 1.448212e+00 -2.661769e+00 -1.576400e+00 4.375900e+00 -1.310701e+01 -6.656494e+00 -3.171688e+00 -1.456178e+01 -9.206892e+00 -4.193098e+00 -5.893977e+00 8.230508e+01 -6.291114e-02 -1.199777e-01 1.383438e-01 2.499929e-02 3.120757e-01 -4.947414e-02 1.746600e-01 -1.154156e-01 -1.114241e-01 -2.101060e-03 -2.689541e-01 1.385478e-02 4.379907e-01 4.428325e-02 5.170730e-02 -1.854353e-02 4.095390e-02 -3.409760e-02 6.419173e-02 -1.094225e-02 -1.386755e-03 2.716362e-02 -2.130071e-02 9.554064e-03 4.185225e-02 -7.341349e-02
<VARIANCE> 39
 4.498798e+01 4.470221e+01 5.023692e+01 9.847459e+01 1.040260e+02 5.987286e+01 4.410604e+01 2.832817e+01 4.149319e+01 5.750294e+01 3.799758e+01 4.085674e+01 5.497556e+01 6.489127e+00 5.253731e+00 4.419373e+00 8.934809e+00 6.839994e+00 6.393511e+00 5.529517e+00 3.161803e+00 3.518301e+00 7.260799e+00 3.356051e+00 4.251290e+00 6.813949e+00 1.388804e+00 9.189610e-01 7.725142e-01 1.506922e+00 1.095178e+00 1.174114e+00 1.265900e+00 5.554537e-01 6.125162e-01 1.597963e+00 5.950190e-01 7.796856e-01 1.090445e+00
<GCONST> 1.440433e+02
<STATE> 3
<MEAN> 39
 -1.036266e+01 4.419124e+00 -1.037555e+00 -5.858812e-01 3.310138e+00 -9.212502e+00 -4.938290e+00 -6.207507e+00 -1.292022e+01 -9.849162e+00 -8.582190e+00 -4.431256e+00 8.065039e+01 -7.161183e-02 -1.550819e-01 -4.358007e-02 1.652571e-01 -2.598010e-01 1.201210e-01 -3.364696e-01 1.336162e-02 1.254870e-01 -1.177390e-01 4.287028e-01 3.840454e-01 1.300709e-01 3.589079e-02 -7.886298e-02 -6.744010e-02 -1.307917e-01 -9.145251e-03 -1.258824e-01 -7.546638e-02 2.350952e-01 8.175307e-02 -8.386026e-02 1.764696e-01 -1.082557e-01 2.077640e-02
<VARIANCE> 39
 3.914775e+01 5.648008e+01 2.331373e+01 4.326931e+01 4.549938e+01 3.649089e+01 4.303595e+01 2.188095e+01 3.164266e+01 4.053993e+01 5.113359e+01 3.317827e+01 5.034550e+01 6.108506e+00 5.057197e+00 2.538484e+00 6.893966e+00 4.965203e+00 5.037485e+00 5.613702e+00 2.504323e+00 3.011656e+00 6.313316e+00 6.253359e+00 4.990860e+00 4.890239e+00 1.039130e+00 7.198157e-01 4.084695e-01 1.170543e+00 7.485512e-01 5.745981e-01 1.320399e+00 4.648951e-01 5.656893e-01 1.159559e+00 1.037984e+00 8.314595e-01 6.536173e-01
<GCONST> 1.358436e+02
<STATE> 4
<MEAN> 39
 -1.007110e+01 3.495522e+00 -1.953377e+00 3.959274e-02 2.700185e+00 -8.539372e+00 -5.358037e+00 -5.873131e+00 -1.183457e+01 -9.161201e+00 -6.974680e+00 -3.350946e+00 8.051653e+01 -1.841545e-03 -5.367182e-01 -1.760870e-01 -9.237432e-02 -6.146462e-02 -6.189515e-02 -2.045571e-01 3.053877e-01 3.965217e-01 -2.821724e-02 5.988722e-01 2.965945e-01 2.712570e-01 -2.905799e-02 -1.078456e-01 -4.944083e-02 -3.879095e-02 1.004976e-01 -6.848099e-02 5.889054e-03 9.228896e-03 3.563044e-03 5.307811e-02 3.071447e-02 3.232479e-02 -1.328535e-03
<VARIANCE> 39
 4.080776e+01 4.311024e+01 3.172253e+01 4.089161e+01 3.109420e+01 3.485833e+01 3.793923e+01 2.271173e+01 2.331492e+01 3.348211e+01 5.900180e+01 3.597607e+01 4.634998e+01 5.178763e+00 3.263917e+00 2.703602e+00 4.366406e+00 4.451504e+00 3.875374e+00 4.991328e+00 2.951097e+00 2.770431e+00 3.615189e+00 5.829771e+00 2.991608e+00 3.080073e+00 6.961948e-01 5.644792e-01 4.849949e-01 8.461381e-01 8.031805e-01 5.431330e-01 9.351129e-01 5.581517e-01 4.564137e-01 6.094839e-01 9.513981e-01 5.671299e-01 4.589408e-01
<GCONST> 1.293636e+02
<TRANSP> 5
 0.000000e+00 1.000000e+00 0.000000e+00 0.000000e+00 0.000000e+00
 0.000000e+00 9.449339e-01 5.506610e-02 0.000000e+00 0.000000e+00
 0.000000e+00 0.000000e+00 7.736474e-01 2.263525e-01 0.000000e+00
 0.000000e+00 0.000000e+00 0.000000e+00 7.490267e-01 2.509733e-01
 0.000000e+00 0.000000e+00 0.000000e+00 0.000000e+00 0.000000e+00
<ENDHMM>
~h "l"
<BEGINHMM>
<NUMSTATES> 5
<STATE> 2
<MEAN> 39
 -1.416568e+01 6.278733e+00 -1.963930e+00 -3.978483e+00 -3.464349e+00 -1.751701e+00 -4.350830e+00 -2.429652e+00 -9.642927e+00 -8.589753e+00 -5.354457e+00 -6.378620e+00 6.652834e+01 -2.077964e-01 -4.790985e-02 -1.480958e-02 1.864644e-02 -6.712566e-02 8.736506e-03 6.515799e-02 -7.484247e-02 1.825514e-02 1.273601e-01 9.499891e-02 -3.959459e-02 -1.828229e-01 -1.594473e-02 -8.986085e-03 3.868191e-02 -1.022987e-02 2.462835e-02 -2.797783e-02 -2.546132e-02 2.625189e-02 2.641176e-02 -1.690420e-02 -1.283481e-02 1.468225e-02 5.198672e-02
<VARIANCE> 39
 1.963774e+01 1.819451e+01 1.489423e+01 1.774960e+01 1.490604e+01 1.427824e+01 1.558714e+01 1.939215e+01 2.056566e+01 1.801460e+01 1.993883e+01 1.519885e+01 1.677499e+01 4.827169e-01 6.597323e-01 7.271275e-01 6.268699e-01 8.521426e-01 1.021867e+00 1.126697e+00 8.887229e-01 1.145011e+00 1.081966e+00 1.125768e+00 8.318942e-01 3.929859e-01 9.290950e-02 1.409042e-01 1.419341e-01 1.202441e-01 1.731144e-01 1.955928e-01 2.291243e-01 1.697968e-01 2.261859e-01 2.434850e-01 2.393730e-01 1.752618e-01 6.532177e-02
<GCONST> 8.196384e+01
<STATE> 3
<MEAN> 39
 -1.694110e+01 4.900434e+00 -1.310291e+00 -4.997842e+00 -3.238145e+00 -1.845490e+00 -4.741922e+00 -3.385006e+00 -8.007571e+00 -7.487887e+00 -5.152663e+00 -6.561640e+00 6.741653e+01 -1.409367e-01 -1.207888e-01 3.822745e-01 -2.913937e-02 1.701228e-01 -1.034014e-01 1.434868e-01 1.024418e-01 -1.171325e-01 -2.188304e-01 2.005153e-01 1.421016e-01 3.964872e-01 9.516700e-03 -1.850523e-01 1.299971e-01 -5.633456e-02 1.411330e-03 -3.550569e-02 -2.477427e-02 5.249484e-02 -6.906916e-02 -3.107800e-02 2.845037e-03 1.083716e-01 2.243239e-01
<VARIANCE> 39
 2.853614e+01 1.947992e+01 1.887657e+01 1.996598e+01 1.813591e+01 1.996883e+01 2.727213e+01 2.533342e+01 3.176880e+01 1.507432e+01 1.910954e+01 1.427858e+01 3.685078e+01 1.567643e+00 1.896943e+00 1.283775e+00 9.776489e-01 1.089017e+00 1.091819e+00 1.503484e+00 1.209038e+00 1.354175e+00 1.086503e+00 1.311159e+00 9.664612e-01 1.478608e+00 2.466543e-01 3.135367e-01 2.287722e-01 1.466977e-01 2.498876e-01 2.389921e-01 3.520886e-01 2.501872e-01 3.123254e-01 2.780890e-01 3.016322e-01 1.945372e-01 2.333652e-01
<GCONST> 9.691301e+01
<STATE> 4
<MEAN> 39
 -1.774077e+01 4.195125e+00 -3.958425e-01 -4.397733e+00 -3.035797e+00 -2.330810e+00 -4.627331e+00 -3.316236e+00 -7.887250e+00 -7.859729e+00 -4.378376e+00 -5.846015e+00 6.841288e+01 7.431969e-02 -7.082421e-01 4.800586e-01 -1.902245e-01 1.711735e-01 -1.616299e-01 -1.224038e-01 2.864726e-01 -1.025503e-01 -2.425840e-01 -1.559732e-02 2.709341e-01 8.904253e-01 -1.011829e-02 -2.644008e-01 1.303080e-01 -8.665632e-03 -7.763084e-02 8.004239e-03 -1.620804e-02 3.448719e-02 -2.905258e-02 7.226396e-02 -3.793561e-02 -1.926908e-02 2.204932e-01
<VARIANCE> 39
 4.314042e+01 3.034548e+01 2.054782e+01 2.295937e+01 2.526803e+01 2.150912e+01 4.079882e+01 2.739136e+01 3.936234e+01 1.547932e+01 2.761084e+01 1.424806e+01 3.807724e+01 2.830256e+00 2.940712e+00 2.067732e+00 1.412190e+00 2.337162e+00 1.596887e+00 3.331514e+00 1.526874e+00 1.990861e+00 1.659097e+00 2.207331e+00 1.378327e+00 2.409488e+00 4.154252e-01 5.756440e-01 4.722150e-01 2.551425e-01 3.264814e-01 3.193979e-01 6.702833e-01 2.904962e-01 3.254494e-01 3.372988e-01 3.800001e-01 2.677784e-01 3.973064e-01
<GCONST> 1.108142e+02
<TRANSP> 5
 0.000000e+00 1.000000e+00 0.000000e+00 0.000000e+00 0.000000e+00
 0.000000e+00 8.979754e-01 1.020246e-01 0.000000e+00 0.000000e+00
 0.000000e+00 0.000000e+00 4.027567e-01 5.972433e-01 0.000000e+00
 0.000000e+00 0.000000e+00 0.000000e+00 3.565711e-01 6.434289e-01
 0.000000e+00 0.000000e+00 0.000000e+00 0.000000e+00 0.000000e+00
<ENDHMM>
~h "m"
<BEGINHMM>
<NUMSTATES> 5
<STATE> 2
<MEAN> 39
 -5.344602e+00 9.445732e-01 1.682415e+00 -5.688910e+00 -1.351222e+00 -5.175779e+00 -7.916979e+00 5.786232e+00 -3.585839e+00 -1.264471e+01 -6.094933e+00 -5.847220e+00 8.063202e+01 -2.011946e-01 2.031876e-01 8.986896e-02 -1.859160e-01 -1.850505e-01 5.811339e-01 4.418990e-01 -2.523197e-01 -5.103701e-02 3.852570e-02 -4.866915e-02 -1.163469e-01 -3.478985e-01 -1.134201e-01 5.141350e-03 -8.137891e-03 -2.129508e-02 -8.698750e-03 -3.354305e-02 1.325528e-01 1.561975e-02 -1.560812e-01 7.984786e-02 4.333423e-02 6.154163e-02 -5.755156e-02
<VARIANCE> 39
 3.227753e+01 3.242031e+01 5.181334e+01 4.945728e+01 4.414537e+01 4.195511e+01 7.562595e+01 5.758860e+01 5.343289e+01 5.508668e+01 5.608981e+01 2.307619e+01 5.861844e+01 6.489960e-01 1.460094e+00 1.601194e+00 1.510288e+00 1.855271e+00 2.810211e+00 3.387068e+00 1.374050e+00 2.515772e+00 1.610639e+00 4.330743e+00 1.543652e+00 1.637543e+00 8.135398e-02 1.765674e-01 1.987342e-01 2.417841e-01 2.900269e-01 2.713565e-01 3.827219e-01 2.657134e-01 4.384294e-01 3.139157e-01 5.209384e-01 2.862203e-01 8.818338e-02
<GCONST> 1.109960e+02
<STATE> 3
<MEAN> 39
 -7.721501e+00 3.768647e+00 -4.489239e-01 -4.550289e+00 -2.474069e+00 -3.934131e+00 -5.319495e+00 3.031559e+00 -5.627250e+00 -9.267155e+00 -3.797561e+00 -4.983923e+00 7.556839e+01 -5.621749e-01 4.336168e-01 8.858610e-02 -4.287829e-02 -1.046660e-01 5.400250e-01 5.802554e-01 -2.602071e-01 -2.689652e-01 1.610419e-01 -5.607956e-02 7.661563e-02 -7.651442e-01 3.875170e-03 -7.433080e-02 -2.228918e-02 3.200314e-02 1.544166e-02 -2.014749e-01 -6.815053e-02 6.834235e-02 -5.454783e-02 2.029886e-02 4.069944e-03 9.443761e-02 5.239065e-02
<VARIANCE> 39
 4.219476e+01 3.736223e+01 3.905440e+01 3.389986e+01 4.515374e+01 3.484484e+01 5.081797e+01 5.413531e+01 4.352818e+01 4.369849e+01 2.033125e+01 2.390464e+01 6.432281e+01 4.135370e-01 8.251242e-01 7.821323e-01 7.335331e-01 1.219744e+00 1.947858e+00 2.053516e+00 1.103059e+00 1.720180e+00 1.778485e+00 1.692219e+00 1.234128e+00 4.958166e-01 5.568841e-02 1.506032e-01 1.397999e-01 1.994080e-01 2.653332e-01 2.699152e-01 3.848026e-01 2.069705e-01 2.826657e-01 2.155927e-01 2.650925e-01 2.421024e-01 7.645368e-02
<GCONST> 9.897267e+01
<STATE> 4
<MEAN> 39
 -1.102572e+01 5.527079e+00 -1.080210e+00 -3.287852e+00 -3.214739e+00 -3.109447e+00 -4.763819e+00 2.066997e+00 -5.686858e+00 -7.284360e+00 -4.898119e+00 -5.655528e+00 6.973372e+01 -2.050643e-01 -1.415835e-02 3.420405e-02 6.742819e-02 5.637803e-02 1.156104e-01 7.111493e-02 -9.023049e-02 -4.565315e-02 1.233545e-01 -7.632393e-02 -5.179612e-02 -1.833953e-01 1.191096e-02 -4.142347e-03 -4.192913e-03 9.143043e-03 -1.564064e-03 -4.373446e-02 -3.687954e-02 1.082395e-02 -1.642952e-02 -5.172406e-03 8.298451e-03 2.482342e-03 1.877476e-02
<VARIANCE> 39
 2.908701e+01 2.462259e+01 2.347153e+01 2.901986e+01 2.217048e+01 2.182225e+01 3.001517e+01 3.786983e+01 5.009134e+01 1.980725e+01 2.326761e+01 2.634915e+01 4.031934e+01 8.980113e-01 7.933880e-01 7.171431e-01 9.492369e-01 1.143327e+00 1.190349e+00 1.343886e+00 1.239220e+00 1.745571e+00 1.124340e+00 1.153350e+00 1.167949e+00 1.093151e+00 1.227321e-01 1.345190e-01 1.210493e-01 2.108167e-01 2.314574e-01 2.131914e-01 2.410851e-01 1.931758e-01 2.688138e-01 2.071721e-01 2.172514e-01 2.206187e-01 1.358421e-01
<GCONST> 9.439359e+01
<TRANSP> 5
 0.000000e+00 1.000000e+00 0.000000e+00 0.000000e+00 0.000000e+00
 0.000000e+00 6.752499e-01 3.247502e-01 0.000000e+00 0.000000e+00
 0.000000e+00 0.000000e+00 5.394290e-01 4.605710e-01 0.000000e+00
 0.000000e+00 0.000000e+00 0.000000e+00 8.990045e-01 1.009954e-01
 0.000000e+00 0.000000e+00 0.000000e+00 0.000000e+00 0.000000e+00
<ENDHMM>
~h "n"
<BEGINHMM>
<NUMSTATES> 5
<STATE> 2
<MEAN> 39
 -1.743143e+00 6.160257e-01 -1.200550e+00 -4.814846e+00 -1.023206e+01 -1.438374e+01 -5.981736e+00 1.035814e+01 1.036571e+00 -1.118553e+01 -2.910716e+00 -2.867182e+00 8.424448e+01 -3.197238e-02 2.250391e-01 7.576495e-04 -1.183855e-01 -2.083277e-01 -1.411985e-01 3.783830e-01 -7.205557e-02 -1.837976e-01 3.121329e-01 1.741704e-01 2.190452e-01 -4.189642e-01 -6.096702e-02 1.027706e-01 3.395359e-03 1.246412e-02 8.494265e-02 1.017013e-01 -2.122620e-02 -9.516206e-02 3.067710e-03 2.217727e-02 -1.059635e-01 -6.405887e-02 -9.875478e-02
<VARIANCE> 39
 4.487976e+00 1.942603e+01 2.061728e+01 2.783046e+01 3.270000e+01 1.152656e+02 5.086416e+01 2.428643e+01 3.654832e+01 5.660644e+01 3.958810e+01 2.824969e+01 2.729538e+01 2.744976e-01 1.081602e+00 1.147484e+00 1.710925e+00 2.142621e+00 3.975515e+00 3.201922e+00 1.323520e+00 1.771608e+00 1.008042e+00 2.250700e+00 1.613672e+00 1.095457e+00 3.790237e-02 1.254448e-01 2.000626e-01 3.307120e-01 3.696870e-01 5.369378e-01 4.210787e-01 2.317021e-01 2.486956e-01 1.769875e-01 2.965624e-01 2.216432e-01 7.888088e-02
<GCONST> 1.004259e+02
<STATE> 3
<MEAN> 39
 -3.112925e+00 5.625786e+00 -6.944866e-01 -5.246552e+00 -1.043357e+01 -1.152469e+01 -5.174881e+00 8.726070e+00 -3.166125e-01 -8.157787e+00 -4.201172e+00 -2.822478e+00 7.664752e+01 -5.637106e-01 5.834129e-01 -5.053538e-02 1.210577e-02 -1.087778e-01 2.844762e-01 4.801959e-01 -3.530173e-01 -2.466493e-01 4.060531e-01 -1.238427e-01 -2.336636e-01 -9.698488e-01 -6.750425e-02 -7.195207e-02 -2.287040e-04 1.746421e-03 8.303528e-02 2.607617e-02 -2.317871e-02 -3.082930e-02 -3.811786e-02 -7.339122e-03 2.018526e-02 -1.536392e-02 3.279717e-02
<VARIANCE> 39
 1.197037e+01 1.949455e+01 1.266003e+01 1.273423e+01 2.326044e+01 8.827402e+01 4.024348e+01 1.662582e+01 3.477497e+01 4.430129e+01 2.142649e+01 1.929895e+01 3.826402e+01 5.010490e-01 5.625737e-01 1.064459e+00 9.238439e-01 1.662836e+00 2.873525e+00 2.119689e+00 1.400436e+00 1.141323e+00 1.108243e+00 1.485211e+00 1.263189e+00 4.930131e-01 6.188434e-02 9.862910e-02 1.603817e-01 2.092278e-01 3.160945e-01 4.206468e-01 3.191471e-01 2.740759e-01 1.666123e-01 1.952136e-01 2.437822e-01 2.436103e-01 5.305831e-02
<GCONST> 9.274745e+01
<STATE> 4
<MEAN> 39
 -1.132611e+01 6.622446e+00 -2.359322e+00 -5.107996e+00 -6.705898e+00 -3.980996e+00 -2.376804e+00 3.723898e+00 -5.653226e+00 -7.396988e+00 -3.414671e+00 -4.224573e+00 6.793347e+01 -4.027299e-01 -6.507365e-02 -5.697934e-02 9.491603e-02 2.151174e-01 2.229585e-01 -1.323240e-02 -3.515333e-01 -1.350861e-01 1.636856e-01 6.845178e-02 -6.099291e-03 -3.422192e-01 2.660353e-02 -4.561500e-02 -1.107759e-02 8.698277e-03 3.389722e-02 -1.192475e-02 -4.178295e-02 9.800020e-03 -1.068424e-02 -2.130211e-02 1.251324e-03 2.322457e-02 4.432658e-02
<VARIANCE> 39
 2.140454e+01 1.548739e+01 1.330905e+01 8.342712e+00 1.842827e+01 3.392339e+01 1.522620e+01 2.005563e+01 2.225903e+01 1.662226e+01 1.643413e+01 1.248972e+01 1.976341e+01 4.790032e-01 5.278577e-01 7.930400e-01 5.871453e-01 1.052740e+00 1.316439e+00 1.199622e+00 1.098229e+00 1.166547e+00 1.048830e+00 1.124245e+00 9.444280e-01 2.684494e-01 8.248617e-02 8.617362e-02 1.589957e-01 1.248361e-01 1.934714e-01 2.394762e-01 2.439787e-01 2.210980e-01 2.366396e-01 1.970726e-01 2.103609e-01 1.853158e-01 3.852384e-02
<GCONST> 8.155665e+01
<TRANSP> 5
 0.000000e+00 1.000000e+00 0.000000e+00 0.000000e+00 0.000000e+00
 0.000000e+00 8.962031e-01 1.037969e-01 0.000000e+00 0.000000e+00
 0.000000e+00 0.000000e+00 7.182562e-01 2.817439e-01 0.000000e+00
 0.000000e+00 0.000000e+00 0.000000e+00 9.201299e-01 7.987011e-02
 0.000000e+00 0.000000e+00 0.000000e+00 0.000000e+00 0.000000e+00
<ENDHMM>
~h "o"
<BEGINHMM>
<NUMSTATES> 5
<STATE> 2
<MEAN> 39
 -1.093508e+01 1.024398e+01 2.461659e+00 -2.587612e+00 -6.264183e+00 -7.457944e+00 -6.651307e+00 4.288703e+00 2.619493e+00 1.349844e+00 -8.524029e-01 -3.410564e+00 6.748260e+01 -6.241015e-01 2.472697e-02 5.884973e-02 -2.153563e-01 2.152921e-01 2.550341e-01 1.831130e-01 -2.649032e-01 -3.173709e-01 3.558818e-01 3.116001e-01 -3.035293e-02 -3.423655e-01 5.716877e-02 -1.342205e-02 -1.485264e-02 -1.869425e-02 -5.272532e-02 -2.495507e-03 3.009034e-02 -5.277438e-02 -3.065436e-02 -9.709137e-02 -9.011167e-02 -3.719599e-02 4.592481e-02
<VARIANCE> 39
 1.019462e+01 6.934365e+00 3.446557e+00 6.325198e+00 5.219728e+00 7.428122e+00 1.009216e+01 1.246858e+01 1.525988e+01 1.015565e+01 1.077678e+01 3.913684e+00 2.058128e+00 1.462062e-01 2.072570e-01 1.870037e-01 5.607678e-01 6.919031e-01 9.181244e-01 1.083375e+00 4.638774e-01 9.701212e-01 8.526905e-01 1.179497e+00 3.814613e-01 9.701772e-02 2.868787e-02 3.343339e-02 3.270430e-02 1.145845e-01 1.905642e-01 2.326412e-01 2.195015e-01 1.004825e-01 2.160701e-01 1.649012e-01 2.753374e-01 7.544281e-02 1.959793e-02
<GCONST> 5.619509e+01
<STATE> 3
<MEAN> 39
 -1.493779e+01 9.340499e+00 2.896926e+00 -3.215579e+00 -4.112914e+00 -3.679842e+00 -3.882201e+00 1.077256e+00 -1.160511e+00 1.306571e+00 -3.906193e-01 -3.939750e+00 6.546568e+01 -1.815919e-01 -2.313720e-01 -1.882523e-01 2.807299e-01 3.509615e-01 6.664146e-01 3.888915e-01 -5.584582e-01 -6.645002e-01 -6.489344e-01 -3.992483e-01 -1.862874e-01 -2.820486e-01 5.698774e-03 5.991834e-04 -1.262378e-02 -3.086912e-02 1.927865e-02 -4.949792e-02 -3.849057e-02 1.055598e-02 -6.711402e-02 -6.514025e-02 -4.695642e-02 -3.230669e-02 4.629050e-03
<VARIANCE> 39
 4.230957e+00 4.003539e+00 3.142502e+00 3.116573e+00 5.817887e+00 6.042115e+00 7.007275e+00 1.302747e+01 1.284003e+01 6.919016e+00 5.732939e+00 4.726939e+00 1.779818e+00 9.691940e-02 9.629583e-02 1.871431e-01 2.897536e-01 5.160240e-01 6.169170e-01 7.579082e-01 7.247092e-01 4.770558e-01 3.855723e-01 5.751877e-01 3.569905e-01 5.095512e-02 2.162220e-02 1.791677e-02 3.551840e-02 5.842800e-02 1.283384e-01 1.310297e-01 1.550092e-01 1.479529e-01 1.010773e-01 5.282335e-02 1.075942e-01 6.625721e-02 9.586239e-03
<GCONST> 4.092148e+01
<STATE> 4
<MEAN> 39
 -1.724298e+01 6.792274e+00 -6.827720e-01 -2.838712e+00 -4.227216e+00 -1.902723e+00 -3.314781e+00 -3.821460e-01 -6.533019e+00 -4.049263e+00 -2.943069e+00 -5.176922e+00 6.312437e+01 -6.421717e-02 -7.375887e-02 -5.796214e-02 6.696537e-03 -4.843544e-03 1.378445e-02 -2.136402e-02 -6.628524e-02 -1.410594e-01 -1.236823e-01 -7.820140e-02 -5.113586e-02 -3.720736e-02 -9.042112e-03 7.333509e-03 1.479334e-02 -2.384559e-02 9.356820e-03 -7.906176e-03 -2.677787e-02 3.353070e-04 2.531569e-02 1.419449e-03 4.678703e-03 8.311047e-04 1.760313e-02
<VARIANCE> 39
 2.025002e+00 3.776626e+00 6.138780e+00 4.704908e+00 6.146144e+00 5.886408e+00 5.201759e+00 6.785637e+00 8.656487e+00 8.110590e+00 8.279861e+00 6.649338e+00 1.006641e+00 1.222242e-01 1.850024e-01 4.523452e-01 4.945261e-01 5.691504e-01 5.384359e-01 5.443572e-01 8.742438e-01 7.607825e-01 7.784150e-01 9.553344e-01 7.509462e-01 5.437478e-02 2.756197e-02 3.653375e-02 9.196490e-02 1.121449e-01 1.257543e-01 1.086460e-01 1.112667e-01 1.780756e-01 1.616227e-01 1.640565e-01 1.936017e-01 1.678811e-01 1.157953e-02
<GCONST> 5.030909e+01
<TRANSP> 5
 0.000000e+00 1.000000e+00 0.000000e+00 0.000000e+00 0.000000e+00
 0.000000e+00 9.245626e-01 7.543741e-02 0.000000e+00 0.000000e+00
 0.000000e+00 0.000000e+00 7.085606e-01 2.914394e-01 0.000000e+00
 0.000000e+00 0.000000e+00 0.000000e+00 9.751212e-01 2.487883e-02
 0.000000e+00 0.000000e+00 0.000000e+00 0.000000e+00 0.000000e+00
<ENDHMM>
~h "p"
<BEGINHMM>
<NUMSTATES> 5
<STATE> 2
<MEAN> 39
 -4.780188e+00 5.100051e-01 -6.623478e+00 -6.207705e-01 5.560224e-01 -1.184831e+01 -5.708690e+00 2.652597e+00 -1.052103e+01 -1.244427e+01 -3.867800e+00 -3.965984e+00 8.064671e+01 3.258533e-01 -1.527995e-01 -2.129375e-01 -3.369361e-03 9.382083e-02 -1.703096e-01 5.594397e-02 2.117570e-01 -3.583729e-04 -5.568016e-01 -2.232430e-01 4.714165e-01 6.439796e-01 -1.083841e-01 8.078176e-03 7.330919e-02 -1.226134e-01 -2.043238e-01 2.315716e-02 -7.887948e-03 2.139192e-02 1.916006e-01 8.473086e-02 -1.011805e-01 -9.112332e-02 -9.603549e-02
<VARIANCE> 39
 3.966530e+01 5.935091e+01 7.421848e+01 3.242189e+01 8.425152e+01 1.452184e+02 3.959081e+01 7.512566e+01 8.944180e+01 8.877399e+01 3.873792e+01 2.529884e+01 7.126470e+01 2.956846e+00 3.365286e+00 2.564816e+00 2.351007e+00 5.999033e+00 8.342292e+00 3.597428e+00 2.790401e+00 6.085835e+00 6.406126e+00 3.810893e+00 2.276325e+00 6.539721e+00 3.981727e-01 4.444523e-01 3.594700e-01 4.738467e-01 8.806905e-01 1.382145e+00 6.718969e-01 4.763271e-01 1.005756e+00 1.076870e+00 6.789845e-01 4.387991e-01 7.403775e-01
<GCONST> 1.369096e+02
<STATE> 3
<MEAN> 39
 -4.516016e+00 1.952535e-01 -6.177531e+00 -1.083454e+00 -1.867212e+00 -1.173863e+01 -5.394971e+00 2.108398e+00 -1.044361e+01 -1.310949e+01 -4.876622e+00 -3.929331e+00 8.177835e+01 -1.227655e-01 -3.606617e-02 1.344165e-01 -3.220386e-01 -8.386418e-01 -1.051534e-01 1.894554e-01 1.215966e-02 3.456095e-01 2.602889e-01 -1.026862e-01 1.186846e-01 -7.223899e-02 -4.043959e-02 -5.953104e-02 2.642060e-02 -4.952171e-02 -1.349418e-01 -2.732526e-02 -6.838662e-03 -1.645456e-02 7.609748e-02 1.222272e-01 4.146226e-02 -4.188724e-02 -6.697826e-02
<VARIANCE> 39
 2.684022e+01 6.103634e+01 5.030246e+01 3.488911e+01 1.000312e+02 9.080112e+01 4.544316e+01 6.863929e+01 6.764927e+01 8.149209e+01 4.351540e+01 2.259437e+01 6.869013e+01 2.565005e+00 3.461228e+00 2.172438e+00 2.934736e+00 5.835390e+00 5.851933e+00 3.516425e+00 3.126850e+00 6.636674e+00 5.819356e+00 3.378210e+00 1.826193e+00 5.282329e+00 2.958737e-01 3.995127e-01 2.835125e-01 5.808885e-01 8.619852e-01 7.753320e-01 6.583939e-01 5.316280e-01 1.181141e+00 1.046607e+00 5.940205e-01 3.823647e-01 6.023425e-01
<GCONST> 1.333767e+02
<STATE> 4
<MEAN> 39
 -4.356899e+00 -3.336837e-01 -5.359769e+00 -3.667749e+00 -7.565042e+00 -1.460308e+01 -3.747132e+00 3.825928e+00 -7.982607e+00 -1.021123e+01 -4.658212e+00 -3.371898e+00 8.073520e+01 -1.042675e-01 -1.475099e-02 1.418598e-01 -1.229392e-02 3.522214e-01 1.125738e-01 -3.686115e-01 -6.484678e-02 6.965432e-02 3.982335e-02 8.668269e-02 -3.785689e-02 -5.580289e-02 1.148612e-02 3.355793e-02 1.830504e-02 5.156121e-02 6.022095e-02 -1.806821e-02 -4.570740e-02 5.876194e-02 1.606041e-02 -2.546218e-02 1.119767e-03 -3.621413e-02 1.102815e-02
<VARIANCE> 39
 2.725473e+01 6.040647e+01 3.001357e+01 4.917972e+01 9.422077e+01 8.490752e+01 6.211879e+01 9.516744e+01 5.157582e+01 4.260674e+01 2.987217e+01 2.020824e+01 6.952979e+01 2.406398e+00 5.066932e+00 1.834080e+00 2.697191e+00 5.411964e+00 5.000559e+00 4.358284e+00 3.752318e+00 4.457983e+00 3.347980e+00 2.892688e+00 1.808760e+00 4.742481e+00 4.119749e-01 6.257662e-01 3.209698e-01 4.295493e-01 8.344837e-01 7.191710e-01 7.280006e-01 7.303639e-01 7.338135e-01 6.360239e-01 4.927200e-01 3.392370e-01 5.980774e-01
<GCONST> 1.309549e+02
<TRANSP> 5
 0.000000e+00 1.000000e+00 0.000000e+00 0.000000e+00 0.000000e+00
 0.000000e+00 7.595260e-01 2.404741e-01 0.000000e+00 0.000000e+00
 0.000000e+00 0.000000e+00 7.679273e-01 2.320727e-01 0.000000e+00
 0.000000e+00 0.000000e+00 0.000000e+00 9.106681e-01 8.933192e-02
 0.000000e+00 0.000000e+00 0.000000e+00 0.000000e+00 0.000000e+00
<ENDHMM>
~h "r"
<BEGINHMM>
<NUMSTATES> 5
<STATE> 2
<MEAN> 39
 -3.987209e+00 -3.224953e+00 -8.648216e+00 -4.903764e+00 -9.564151e-01 -1.513346e+01 -5.501942e+00 -1.150867e+00 -1.644754e+01 -9.462865e+00 1.063826e+00 -2.163465e+00 8.462742e+01 -1.415393e-01 4.120879e-01 2.335354e-01 5.378603e-01 1.054233e+00 -1.393906e-01 -4.011345e-01 -2.625208e-01 -3.254426e-01 1.885489e-01 3.192072e-01 -2.652846e-01 -5.515869e-01 -1.229656e-01 2.252653e-01 1.673327e-01 6.990661e-02 -1.803373e-02 2.048302e-01 -6.918487e-03 3.050602e-02 2.599944e-01 -4.792930e-02 -1.213315e-01 -1.201263e-01 -1.384422e-01
<VARIANCE> 39
 2.950481e+01 4.097715e+01 3.627118e+01 2.443921e+01 6.554345e+01 5.260527e+01 6.792654e+01 4.185295e+01 3.142059e+01 2.698739e+01 3.126209e+01 1.872609e+01 5.763593e+01 2.732728e+00 2.861917e+00 2.324202e+00 1.774172e+00 6.950171e+00 5.018113e+00 3.915787e+00 2.628191e+00 4.289732e+00 2.376523e+00 2.934834e+00 2.425138e+00 1.957283e+00 5.030100e-01 4.573404e-01 3.469345e-01 3.822857e-01 1.002195e+00 8.361570e-01 6.818001e-01 4.622832e-01 7.369767e-01 5.330685e-01 4.924967e-01 5.047998e-01 2.966937e-01
<GCONST> 1.247797e+02
<STATE> 3
<MEAN> 39
 -6.440992e+00 2.494630e-01 -5.166893e+00 -3.239221e+00 2.378942e+00 -1.194108e+01 -7.208396e+00 -1.089596e+00 -1.467512e+01 -1.050959e+01 4.395624e-01 -4.380136e+00 8.138137e+01 -3.166734e-01 7.035978e-01 5.586729e-01 6.523494e-01 3.356123e-01 2.938042e-01 -1.611991e-01 8.417011e-02 3.296873e-01 1.989133e-01 -1.979306e-01 -4.677232e-01 -6.363111e-01 1.731350e-02 2.317172e-03 -2.803193e-03 -2.004793e-02 -2.571505e-01 5.441079e-02 1.208690e-02 5.026597e-02 1.436459e-01 3.137968e-02 -1.211316e-01 -2.790508e-03 -4.757256e-02
<VARIANCE> 39
 4.752120e+01 3.759353e+01 5.105564e+01 3.315366e+01 6.446695e+01 6.332273e+01 5.832694e+01 3.295040e+01 3.066553e+01 3.179191e+01 3.231657e+01 2.189890e+01 4.861293e+01 3.840953e+00 2.948634e+00 2.233360e+00 2.372247e+00 4.748820e+00 5.797431e+00 3.017630e+00 2.741603e+00 3.145186e+00 3.000463e+00 2.941263e+00 2.401392e+00 2.839566e+00 6.760942e-01 4.936695e-01 4.275896e-01 5.496247e-01 9.812962e-01 1.003269e+00 5.738800e-01 4.794111e-01 6.385657e-01 5.936525e-01 5.471552e-01 4.996370e-01 3.518071e-01
<GCONST> 1.274058e+02
<STATE> 4
<MEAN> 39
 -8.478715e+00 3.713981e-01 4.066694e-01 2.131881e+00 6.676909e+00 -1.174718e+01 -9.631667e+00 -2.315519e+00 -1.461154e+01 -1.141022e+01 -1.129387e+00 -7.689196e+00 8.061035e+01 -7.149935e-03 7.416990e-02 1.534668e-01 5.310826e-01 6.352434e-02 1.349283e-01 -2.123644e-01 -1.150665e-01 8.571747e-02 1.493469e-01 -5.166630e-02 -1.547445e-01 -3.706055e-01 -5.386954e-03 1.515109e-02 -9.758545e-02 -6.938793e-02 -1.023903e-01 7.262552e-02 1.640766e-02 -7.100541e-02 5.667543e-02 -1.649133e-02 -1.760445e-02 5.844165e-02 -9.209826e-02
<VARIANCE> 39
 4.185678e+01 4.343169e+01 5.408049e+01 4.891799e+01 1.030157e+02 6.499931e+01 5.326469e+01 4.597565e+01 4.381119e+01 4.130833e+01 3.293790e+01 2.471931e+01 4.431116e+01 3.455262e+00 4.240021e+00 2.680227e+00 2.961985e+00 6.303508e+00 5.978964e+00 3.975288e+00 3.651947e+00 4.084687e+00 3.499036e+00 3.492648e+00 2.990230e+00 5.183157e+00 5.490392e-01 6.307383e-01 4.625226e-01 4.416510e-01 9.367373e-01 1.033598e+00 7.551507e-01 7.398735e-01 6.992260e-01 6.652992e-01 6.409686e-01 5.862218e-01 6.153639e-01
<GCONST> 1.338896e+02
<TRANSP> 5
 0.000000e+00 1.000000e+00 0.000000e+00 0.000000e+00 0.000000e+00
 0.000000e+00 7.474958e-01 2.525042e-01 0.000000e+00 0.000000e+00
 0.000000e+00 0.000000e+00 6.465563e-01 3.534437e-01 0.000000e+00
 0.000000e+00 0.000000e+00 0.000000e+00 8.702845e-01 1.297155e-01
 0.000000e+00 0.000000e+00 0.000000e+00 0.000000e+00 0.000000e+00
<ENDHMM>
~h "s"
<BEGINHMM>
<NUMSTATES> 5
<STATE> 2
<MEAN> 39
 -1.547682e+01 6.465897e+00 -3.101116e+00 -5.856598e+00 -3.358027e+00 -3.420820e+00 -6.024108e+00 -3.913064e+00 -1.074772e+01 -8.617694e+00 -5.162590e+00 -5.851570e+00 6.774749e+01 -3.517411e-01 -8.578814e-02 -5.665574e-03 -2.466413e-02 7.365241e-02 1.057275e-01 -1.911613e-02 -1.586597e-01 -1.106214e-01 1.461889e-01 5.510981e-02 2.701106e-02 -5.232592e-02 1.401961e-02 -3.296121e-02 4.972084e-02 -1.581468e-02 -1.413077e-02 5.828445e-03 4.927278e-03 2.850140e-02 2.653687e-02 -3.976235e-03 1.069005e-02 2.190567e-02 2.567554e-02
<VARIANCE> 39
 2.656452e+01 2.406726e+01 2.096313e+01 1.873204e+01 2.030948e+01 1.545520e+01 1.384432e+01 1.464044e+01 1.513044e+01 1.489945e+01 1.933083e+01 1.451658e+01 2.597383e+01 1.217759e+00 1.252141e+00 1.032845e+00 9.522314e-01 1.345123e+00 1.345530e+00 1.289249e+00 1.155241e+00 1.522023e+00 1.013275e+00 1.151884e+00 6.224287e-01 7.982185e-01 2.291316e-01 2.394047e-01 2.173169e-01 1.935673e-01 2.792918e-01 2.880482e-01 2.809093e-01 2.338855e-01 2.908724e-01 1.867922e-01 2.263015e-01 1.233916e-01 1.361183e-01
<GCONST> 9.095596e+01
<STATE> 3
<MEAN> 39
 -1.843006e+01 4.593149e+00 -2.103648e+00 -6.501682e+00 -3.150092e+00 -3.168648e+00 -5.764097e+00 -4.179325e+00 -9.935273e+00 -7.342286e+00 -5.366603e+00 -5.907685e+00 6.858183e+01 -5.306048e-01 -3.033295e-01 4.521411e-01 -2.327102e-02 1.171773e-01 2.137670e-01 4.975188e-02 -4.234847e-02 -7.438726e-02 1.518252e-01 4.138251e-02 1.563499e-01 3.679597e-01 4.608963e-02 -1.757764e-01 1.281566e-01 -2.891239e-02 -1.046530e-02 -3.752016e-02 3.784874e-02 2.926771e-02 -3.233307e-02 -5.160052e-02 3.395427e-02 6.407216e-03 4.828226e-02
<VARIANCE> 39
 3.334793e+01 2.665610e+01 2.618684e+01 2.010027e+01 2.800967e+01 1.740298e+01 1.644978e+01 1.912549e+01 2.376874e+01 1.983040e+01 2.515609e+01 1.211573e+01 4.806496e+01 1.733388e+00 2.119333e+00 1.507332e+00 1.334870e+00 2.258460e+00 1.631989e+00 1.955979e+00 1.709195e+00 2.051298e+00 1.278203e+00 1.470121e+00 8.378968e-01 1.135923e+00 3.595337e-01 3.533136e-01 2.986849e-01 2.835175e-01 3.975787e-01 3.307831e-01 3.910075e-01 3.259784e-01 4.102178e-01 2.752703e-01 3.284918e-01 1.744593e-01 2.103946e-01
<GCONST> 1.030131e+02
<STATE> 4
<MEAN> 39
 -2.328602e+01 -7.024097e-01 3.263568e+00 -8.269064e+00 -4.067062e+00 -2.494794e+00 -4.282444e+00 -4.359208e+00 -9.465189e+00 -6.252238e+00 -5.066150e+00 -4.313767e+00 7.286358e+01 -2.263275e-01 -5.357713e-01 2.588020e-01 -2.577674e-01 -2.661296e-02 1.695690e-02 1.204294e-01 -1.699590e-02 -1.290193e-01 5.981594e-02 1.496242e-01 1.227477e-01 5.164910e-01 2.679911e-01 1.495828e-01 -1.906048e-01 5.654154e-02 -2.400395e-02 -7.530370e-02 6.121424e-03 3.653656e-02 -3.638241e-02 -5.169871e-02 3.075170e-02 -6.639265e-02 -1.937032e-01
<VARIANCE> 39
 4.993923e+01 5.156863e+01 5.993066e+01 2.726257e+01 2.762291e+01 2.342911e+01 2.769252e+01 1.787135e+01 2.521074e+01 2.680369e+01 2.402521e+01 1.653124e+01 5.688487e+01 2.775896e+00 3.101001e+00 3.347422e+00 2.119039e+00 2.163511e+00 1.879485e+00 2.527970e+00 1.531839e+00 2.115957e+00 1.428503e+00 1.696306e+00 1.457254e+00 2.808012e+00 5.757583e-01 5.549169e-01 4.876300e-01 4.088353e-01 4.344870e-01 3.935565e-01 4.573129e-01 3.114426e-01 3.147002e-01 3.060660e-01 3.525124e-01 3.031716e-01 4.793163e-01
<GCONST> 1.142796e+02
<TRANSP> 5
 0.000000e+00 1.000000e+00 0.000000e+00 0.000000e+00 0.000000e+00
 0.000000e+00 8.597163e-01 1.402837e-01 0.000000e+00 0.000000e+00
 0.000000e+00 0.000000e+00 5.809276e-01 4.190724e-01 0.000000e+00
 0.000000e+00 0.000000e+00 0.000000e+00 7.345963e-01 2.654037e-01
 0.000000e+00 0.000000e+00 0.000000e+00 0.000000e+00 0.000000e+00
<ENDHMM>
~h "t"
<BEGINHMM>
<NUMSTATES> 5
<STATE> 2
<MEAN> 39
 -6.231784e+00 -2.182612e+00 -2.961549e+00 -8.657085e-01 -6.080675e+00 -1.414085e+01 -2.610068e+00 3.974852e+00 -9.143394e+00 -9.145765e+00 -1.130344e+00 -2.613045e+00 8.042687e+01 4.813321e-01 -1.877039e-02 -1.053518e-01 2.321139e-01 -5.325345e-01 1.623733e-02 5.224391e-01 5.905986e-01 5.711489e-01 8.418973e-02 -2.018768e-01 -7.093711e-03 -3.771001e-01 -8.250282e-02 1.779576e-01 1.052127e-01 4.959181e-02 1.978046e-01 3.154877e-01 -2.199251e-01 -2.297848e-01 3.093697e-02 1.426486e-02 -7.525400e-02 -1.468935e-01 -2.493063e-01
<VARIANCE> 39
 6.427859e+01 3.754225e+01 3.826445e+01 5.157380e+01 1.202842e+02 8.210700e+01 6.032396e+01 7.710509e+01 2.922345e+01 3.112082e+01 2.540700e+01 3.747317e+01 7.078381e+01 2.936424e+00 3.262836e+00 2.237653e+00 2.012965e+00 3.882978e+00 6.235221e+00 4.554335e+00 3.469350e+00 2.038414e+00 1.899285e+00 1.779417e+00 2.178872e+00 3.685109e+00 4.088035e-01 3.951920e-01 2.884838e-01 4.224781e-01 4.785105e-01 7.696465e-01 5.112241e-01 4.306387e-01 2.932262e-01 3.384022e-01 3.260103e-01 3.466530e-01 5.636698e-01
<GCONST> 1.248482e+02
<STATE> 3
<MEAN> 39
 -7.219445e+00 1.191950e-01 -3.271384e+00 -1.307345e+00 -3.222208e+00 -9.785770e+00 -4.081805e+00 1.775516e+00 -7.731207e+00 -7.014480e+00 -2.691552e+00 -4.600384e+00 7.631890e+01 -2.280214e-01 3.347357e-01 3.680258e-01 7.539614e-02 -1.748611e-01 1.302108e+00 -1.377709e-02 -4.565369e-01 5.160853e-01 2.181515e-01 -4.674973e-01 -3.504523e-01 -8.593533e-01 -2.802089e-02 7.623827e-02 2.276906e-02 4.152995e-02 6.036728e-02 5.062225e-02 -1.616679e-01 -1.494763e-01 -1.406003e-01 -6.635635e-02 5.050090e-02 3.231483e-02 5.433933e-02
<VARIANCE> 39
 6.033849e+01 3.954086e+01 3.375157e+01 5.172281e+01 7.918549e+01 7.207467e+01 4.709273e+01 7.537510e+01 3.664358e+01 1.979490e+01 2.508251e+01 2.576203e+01 5.438979e+01 9.524503e-01 2.136214e+00 1.485558e+00 9.719997e-01 3.235781e+00 3.586331e+00 3.461639e+00 2.108660e+00 2.251538e+00 1.540076e+00 1.961603e+00 1.790147e+00 1.145310e+00 1.639531e-01 3.889499e-01 2.592113e-01 1.972743e-01 4.053637e-01 5.545856e-01 5.611951e-01 3.133048e-01 2.885881e-01 2.337626e-01 2.851026e-01 3.049233e-01 1.512594e-01
<GCONST> 1.129655e+02
<STATE> 4
<MEAN> 39
 -8.458197e+00 1.983549e+00 -3.064835e+00 -2.294357e+00 -3.723621e+00 -7.291070e+00 -4.934904e+00 -7.297064e-01 -8.328585e+00 -6.941665e+00 -4.107418e+00 -4.887054e+00 7.347719e+01 -3.020364e-01 3.075927e-01 1.153754e-01 1.622367e-02 -2.769580e-01 7.614359e-01 -1.207641e-01 -4.876566e-01 2.113598e-02 -1.074362e-01 -1.225414e-01 3.531434e-02 -6.062835e-01 -2.102162e-02 9.651928e-02 -8.480919e-03 -6.493490e-02 6.933989e-02 -1.731827e-01 -1.806216e-02 8.357000e-02 -1.172740e-01 -3.091474e-02 1.104904e-01 6.940690e-02 1.505126e-01
<VARIANCE> 39
 4.703802e+01 3.680777e+01 2.712158e+01 4.404911e+01 4.932025e+01 3.750403e+01 3.806208e+01 4.793704e+01 3.745665e+01 1.645364e+01 2.096646e+01 1.845009e+01 3.802676e+01 6.765175e-01 1.054009e+00 8.894496e-01 8.778961e-01 2.763350e+00 2.327943e+00 1.568128e+00 1.631782e+00 1.802615e+00 1.836551e+00 1.439046e+00 1.162828e+00 7.708021e-01 1.085378e-01 2.924137e-01 1.940477e-01 1.458909e-01 3.721389e-01 4.040915e-01 4.399669e-01 2.662964e-01 2.898513e-01 3.466472e-01 2.075261e-01 1.885355e-01 1.430058e-01
<GCONST> 1.024012e+02
<TRANSP> 5
 0.000000e+00 1.000000e+00 0.000000e+00 0.000000e+00 0.000000e+00
 0.000000e+00 4.818056e-01 5.181944e-01 0.000000e+00 0.000000e+00
 0.000000e+00 0.000000e+00 2.918448e-01 7.081552e-01 0.000000e+00
 0.000000e+00 0.000000e+00 0.000000e+00 4.969420e-01 5.030580e-01
 0.000000e+00 0.000000e+00 0.000000e+00 0.000000e+00 0.000000e+00
<ENDHMM>
~h "u"
<BEGINHMM>
<NUMSTATES> 5
<STATE> 2
<MEAN> 39
 -6.987851e+00 1.517481e+00 4.486514e-01 2.615021e+00 8.656121e+00 -6.444444e+00 -1.184564e+01 -2.306931e+00 -7.329149e+00 -1.219216e+01 -3.171816e+00 -3.733913e+00 8.173277e+01 -2.018604e-01 1.777779e-01 -1.196873e-01 6.397561e-01 3.238668e-01 -1.146222e+00 1.934246e-01 7.059412e-01 -3.953721e-01 1.236301e+00 9.819605e-01 -3.367171e-02 -1.388504e-01 -1.097917e-01 1.284131e-01 -9.753966e-02 -1.170393e-01 -3.097529e-01 1.358493e-01 2.681925e-01 -2.723316e-01 -4.164964e-02 3.349514e-01 -8.011298e-02 -1.865694e-02 -2.417477e-01
<VARIANCE> 39
 1.940642e+01 3.335193e+01 3.006049e+01 3.526852e+01 6.385759e+01 7.237236e+01 4.077258e+01 6.434521e+01 1.142370e+02 6.543272e+01 5.869105e+01 3.166883e+01 4.524048e+01 1.410429e+00 2.539726e+00 1.975040e+00 2.013062e+00 3.553477e+00 6.867562e+00 3.346614e+00 4.076578e+00 5.727709e+00 4.341560e+00 3.217771e+00 1.646456e+00 1.556458e+00 2.819975e-01 4.664024e-01 3.467925e-01 3.889760e-01 7.998776e-01 9.093828e-01 5.999047e-01 5.814483e-01 8.608629e-01 8.815026e-01 5.206637e-01 2.633332e-01 3.101756e-01
<GCONST> 1.266363e+02
<STATE> 3
<MEAN> 39
 -7.554437e+00 9.279068e-01 -2.060574e+00 4.084670e+00 9.302248e+00 -9.651888e+00 -1.043220e+01 -2.417020e+00 -1.062657e+01 -7.538783e+00 5.906072e-01 -2.881227e+00 8.084572e+01 -1.104883e-01 5.826724e-01 -3.169921e-01 -1.718932e-01 -4.969798e-01 1.788574e-01 8.698111e-01 -3.237900e-01 1.764785e-02 1.113044e+00 6.344203e-03 -4.804928e-02 -7.144637e-01 -4.004633e-02 -3.878743e-02 2.950006e-02 -2.855326e-01 -2.518079e-01 3.928788e-01 2.672250e-01 -2.843852e-01 9.573191e-02 -2.407068e-01 -4.325379e-01 -4.345113e-02 -1.440356e-01
<VARIANCE> 39
 2.232973e+01 4.150631e+01 4.007635e+01 4.089603e+01 6.512621e+01 5.088267e+01 6.487617e+01 5.844286e+01 3.749592e+01 4.503049e+01 4.643226e+01 4.038315e+01 5.566571e+01 1.084217e+00 2.869959e+00 2.134015e+00 1.843938e+00 3.279712e+00 4.313790e+00 3.144390e+00 2.038141e+00 4.578429e+00 2.813307e+00 2.631805e+00 1.468931e+00 2.021059e+00 2.960353e-01 5.112997e-01 4.571434e-01 3.495618e-01 6.709206e-01 6.168056e-01 7.734057e-01 5.531365e-01 7.569996e-01 5.512007e-01 3.668291e-01 2.577632e-01 2.851872e-01
<GCONST> 1.229278e+02
<STATE> 4
<MEAN> 39
 -7.787554e+00 1.988956e+00 -2.175412e+00 2.875150e+00 7.190327e+00 -8.406101e+00 -7.429140e+00 -3.351934e+00 -1.083322e+01 -6.481358e+00 -7.264576e-01 -3.617500e+00 7.853461e+01 -2.170922e-01 3.336425e-01 -1.051362e-01 -5.803193e-01 -7.349613e-01 7.813680e-01 1.247083e+00 -5.242089e-01 3.722671e-01 2.851515e-01 -7.098968e-01 -3.011035e-01 -8.176591e-01 -6.650506e-02 -2.602724e-01 7.604452e-02 -1.233106e-01 -1.576427e-02 1.509512e-01 -9.807026e-03 -4.244936e-03 2.538109e-03 -3.812671e-01 -2.729861e-01 -5.687692e-02 2.992519e-02
<VARIANCE> 39
 3.079501e+01 4.544924e+01 4.151008e+01 4.252553e+01 5.516994e+01 5.425031e+01 6.221230e+01 7.069778e+01 2.402424e+01 4.154102e+01 3.568849e+01 4.677977e+01 5.340907e+01 1.521199e+00 2.525898e+00 2.531084e+00 2.114016e+00 3.244872e+00 2.618241e+00 3.335203e+00 1.293554e+00 2.850628e+00 2.257959e+00 2.350284e+00 1.434740e+00 2.481455e+00 3.302620e-01 4.903442e-01 4.083585e-01 3.391898e-01 5.532019e-01 5.748549e-01 6.742601e-01 4.930317e-01 5.549372e-01 3.905483e-01 3.482570e-01 3.061098e-01 3.755157e-01
<GCONST> 1.209139e+02
<TRANSP> 5
 0.000000e+00 1.000000e+00 0.000000e+00 0.000000e+00 0.000000e+00
 0.000000e+00 5.557255e-01 4.442745e-01 0.000000e+00 0.000000e+00
 0.000000e+00 0.000000e+00 4.356211e-01 5.643788e-01 0.000000e+00
 0.000000e+00 0.000000e+00 0.000000e+00 3.017005e-01 6.982994e-01
 0.000000e+00 0.000000e+00 0.000000e+00 0.000000e+00 0.000000e+00
<ENDHMM>
~h "y"
<BEGINHMM>
<NUMSTATES> 5
<STATE> 2
<MEAN> 39
 -1.001353e+01 2.838238e+00 -4.431764e+00 -3.783114e+00 -5.664134e+00 -9.081139e+00 -3.245127e+00 -5.906754e-01 -7.209146e+00 -1.019161e+01 -2.436564e+00 -4.937184e+00 7.267289e+01 2.028374e+00 2.868955e-01 -6.213565e-01 5.099561e-01 -4.798360e-01 -1.598817e+00 -7.016629e-02 6.667144e-01 -1.215375e-01 -8.700184e-01 1.603173e-01 1.346158e-01 1.423688e+00 -3.154162e-02 -1.657785e-01 -2.853061e-01 -4.570912e-02 -4.974311e-02 -7.920999e-02 2.139959e-01 1.919195e-01 -1.658752e-01 -3.059098e-02 1.503648e-01 6.470133e-02 1.539181e-01
<VARIANCE> 39
 1.097726e+02 3.563069e+01 3.800657e+01 1.650677e+01 5.233258e+01 3.926538e+01 5.325670e+01 1.499811e+01 1.740471e+01 1.941283e+01 1.690032e+01 1.999152e+01 4.189054e+01 3.610965e+00 8.379371e+00 3.138006e+00 2.444991e+00 3.051409e+00 3.094935e+00 4.920434e+00 1.940682e+00 1.909944e+00 2.375642e+00 1.657040e+00 2.077523e+00 1.905437e+00 7.929705e-01 1.233845e+00 6.469744e-01 2.837932e-01 6.527436e-01 6.538893e-01 9.865351e-01 3.842701e-01 3.386188e-01 5.565147e-01 3.786852e-01 2.833885e-01 4.190180e-01
<GCONST> 1.211152e+02
<STATE> 3
<MEAN> 39
 -8.381214e-01 1.192967e+00 -9.545986e+00 -3.671734e+00 -7.809965e+00 -1.566958e+01 -2.647594e+00 3.475602e+00 -9.149601e+00 -1.233094e+01 -4.144080e-01 -4.698092e+00 8.147559e+01 1.398373e+00 -1.208893e+00 -1.486553e+00 3.748220e-01 -4.201483e-01 -1.046013e+00 2.990745e-01 7.106027e-01 -5.479613e-01 -2.386363e-01 6.053360e-01 7.106639e-01 1.609733e+00 -3.721491e-01 -3.235760e-01 3.027029e-02 -8.355699e-02 2.902516e-01 3.766101e-01 -1.936758e-03 -3.208300e-01 -7.083952e-02 3.344559e-01 2.983028e-02 2.335274e-01 -2.167180e-01
<VARIANCE> 39
 4.129709e+01 4.236332e+01 5.612731e+01 1.515668e+01 4.694164e+01 2.135117e+01 4.963543e+01 2.079095e+01 1.670927e+01 1.720773e+01 1.434588e+01 2.732151e+01 2.288106e+01 3.146599e+00 4.097684e+00 1.979001e+00 1.438835e+00 1.805719e+00 3.358633e+00 2.289847e+00 3.463776e+00 1.807411e+00 4.027710e+00 1.982674e+00 2.135501e+00 1.407434e+00 3.256250e-01 1.264530e+00 5.104025e-01 3.733218e-01 2.932909e-01 3.187116e-01 6.548774e-01 4.461855e-01 2.772871e-01 6.604575e-01 3.178075e-01 3.527178e-01 2.035008e-01
<GCONST> 1.141253e+02
<STATE> 4
<MEAN> 39
 -1.971561e+00 -6.870024e+00 -5.880822e+00 2.909828e+00 2.318544e+00 -1.939202e+01 -9.490748e+00 -6.070586e-01 -1.826124e+01 -1.145775e+01 5.299673e+00 -1.440634e+00 8.789125e+01 -9.493649e-02 -2.184658e-01 1.117927e-01 -1.614523e-01 2.879725e-01 3.950968e-02 -2.114248e-01 -1.224606e-01 -1.366509e-01 -8.345716e-02 1.400205e-01 9.546065e-02 1.954674e-01 -4.930517e-02 1.013634e-01 4.116631e-02 -7.453323e-02 1.915450e-02 7.765503e-02 1.732710e-03 4.033129e-03 7.360315e-02 -3.724015e-03 -8.295520e-02 -7.707898e-02 -8.713280e-02
<VARIANCE> 39
 1.855991e+01 2.330653e+01 5.981779e+01 4.365114e+01 1.573281e+02 3.278825e+01 6.138161e+01 5.364824e+01 5.822016e+01 2.273413e+01 2.290641e+01 4.175211e+01 1.224036e+01 9.550703e-01 1.080881e+00 2.673032e+00 3.161393e+00 8.007633e+00 1.913007e+00 2.788712e+00 3.335864e+00 3.152992e+00 2.244920e+00 2.061116e+00 4.490771e+00 4.398586e-01 1.326468e-01 1.343034e-01 2.733645e-01 3.235221e-01 7.349934e-01 3.414502e-01 3.631379e-01 5.887032e-01 2.742525e-01 4.671041e-01 3.427564e-01 7.211565e-01 4.900051e-02
<GCONST> 1.134580e+02
<TRANSP> 5
 0.000000e+00 1.000000e+00 0.000000e+00 0.000000e+00 0.000000e+00
 0.000000e+00 6.563544e-01 3.436455e-01 0.000000e+00 0.000000e+00
 0.000000e+00 0.000000e+00 6.549446e-01 3.450554e-01 0.000000e+00
 0.000000e+00 0.000000e+00 0.000000e+00 9.590598e-01 4.094021e-02
 0.000000e+00 0.000000e+00 0.000000e+00 0.000000e+00 0.000000e+00
<ENDHMM>
~h "ay"
<BEGINHMM>
<NUMSTATES> 5
<STATE> 2
<MEAN> 39
 -2.523795e+01 -1.123819e+00 6.271739e+00 -9.925290e+00 -5.700621e+00 -4.410548e-01 -2.609914e+00 -4.779778e+00 -1.237952e+01 -6.351607e+00 -4.078087e+00 -6.829000e+00 7.370288e+01 -1.370708e+00 -1.553035e+00 1.697751e+00 -5.910552e-01 -3.506490e-01 3.519671e-01 3.719622e-01 3.687858e-02 -2.386590e-01 3.947947e-01 6.669021e-01 -1.008462e-02 1.748725e+00 -3.858524e-02 7.996498e-03 -7.169764e-02 7.838379e-04 4.392400e-02 -5.765205e-02 -3.384651e-02 1.230937e-02 2.642571e-02 7.586176e-02 3.571021e-02 -4.938151e-03 1.370099e-01
<VARIANCE> 39
 3.360089e+01 5.611169e+01 5.812589e+01 2.664750e+01 2.562750e+01 1.543710e+01 2.877185e+01 1.255939e+01 1.716353e+01 2.129050e+01 1.835594e+01 1.909874e+01 5.729745e+01 2.399669e+00 4.055762e+00 4.896775e+00 1.881766e+00 1.275701e+00 1.309480e+00 2.382360e+00 1.388115e+00 2.115626e+00 1.824551e+00 1.807304e+00 1.571094e+00 2.927915e+00 5.471349e-01 8.083131e-01 1.000961e+00 4.062163e-01 2.208181e-01 2.093464e-01 3.748718e-01 2.446117e-01 3.445870e-01 3.264979e-01 3.548911e-01 2.419988e-01 5.675941e-01
<GCONST> 1.115325e+02
<STATE> 3
<MEAN> 39
 -3.126113e+01 -7.816334e+00 1.265265e+01 -1.221080e+01 -7.969455e+00 4.176135e-01 9.072030e-01 -3.655995e+00 -1.331142e+01 -3.257261e+00 -1.231979e+00 -5.513789e+00 8.155585e+01 -9.031334e-01 -7.510045e-01 4.260285e-01 -4.401892e-01 9.133939e-02 1.511859e-01 9.019720e-02 2.502818e-02 -2.287361e-02 3.641748e-01 1.772478e-01 2.192369e-01 1.724200e+00 4.864669e-01 3.680356e-01 -4.970647e-01 1.434689e-01 1.697502e-01 -9.983348e-02 -1.752018e-01 -8.076771e-02 6.929573e-02 -1.000527e-01 -2.414701e-01 3.480116e-03 -3.134409e-01
<VARIANCE> 39
 2.741193e+01 2.946820e+01 4.003091e+01 1.764122e+01 2.008112e+01 2.071762e+01 2.622009e+01 1.655320e+01 1.749440e+01 1.641834e+01 1.552230e+01 1.840653e+01 4.302439e+01 3.337249e+00 3.080601e+00 6.022678e+00 1.950805e+00 1.217838e+00 1.188948e+00 1.527210e+00 2.030195e+00 2.193928e+00 1.831698e+00 1.943134e+00 1.240040e+00 2.465956e+00 4.788652e-01 4.148506e-01 5.612620e-01 4.193663e-01 2.026851e-01 2.254259e-01 2.041058e-01 4.146707e-01 5.235273e-01 3.965904e-01 3.403919e-01 2.891895e-01 2.421606e-01
<GCONST> 1.076545e+02
<STATE> 4
<MEAN> 39
 -1.974650e+01 -5.456344e+00 4.563640e+00 -1.060715e+01 -5.393888e+00 -4.632487e+00 -2.331656e+00 -5.310435e+00 -1.347887e+01 -4.277029e+00 -3.531063e+00 -5.598798e+00 8.547186e+01 2.132340e+00 5.843327e-01 -9.695657e-01 4.797695e-01 -7.552461e-02 -1.030713e+00 -1.692007e-01 1.610084e-01 1.304238e-01 -3.336467e-01 -5.871904e-01 -3.552756e-01 1.032590e-01 3.973013e-01 6.649072e-02 -1.152959e-01 1.741659e-01 -1.384744e-01 -3.098812e-01 1.271327e-02 1.931909e-01 3.004507e-02 -1.452430e-01 -1.403687e-02 -1.143503e-01 -3.625750e-02
<VARIANCE> 39
 1.895083e+02 3.083444e+01 8.020172e+01 3.238331e+01 4.161032e+01 7.784008e+01 4.093570e+01 2.539795e+01 2.224051e+01 1.918098e+01 3.201550e+01 2.880873e+01 2.499300e+01 1.378503e+01 3.869104e+00 4.406108e+00 3.125619e+00 4.092793e+00 5.657932e+00 2.613552e+00 2.590330e+00 2.630099e+00 2.311980e+00 3.006375e+00 3.118021e+00 2.818866e+00 1.880443e+00 7.287816e-01 4.948407e-01 5.720620e-01 6.916621e-01 8.392074e-01 4.966368e-01 5.351057e-01 5.206355e-01 4.909240e-01 5.257300e-01 6.229141e-01 4.848334e-01
<GCONST> 1.300564e+02
<TRANSP> 5
 0.000000e+00 1.000000e+00 0.000000e+00 0.000000e+00 0.000000e+00
 0.000000e+00 7.770222e-01 2.229778e-01 0.000000e+00 0.000000e+00
 0.000000e+00 0.000000e+00 7.843947e-01 2.156053e-01 0.000000e+00
 0.000000e+00 0.000000e+00 0.000000e+00 8.896747e-01 1.103253e-01
 0.000000e+00 0.000000e+00 0.000000e+00 0.000000e+00 0.000000e+00
<ENDHMM>
~h "ny"
<BEGINHMM>
<NUMSTATES> 5
<STATE> 2
<MEAN> 39
 -9.463721e+00 2.194426e+00 -2.620792e+00 9.651525e-01 1.237537e+00 -7.640123e-02 -2.702007e+00 -6.168185e+00 -1.265067e+01 -6.514066e+00 -3.846725e+00 -2.104954e+00 7.109695e+01 -2.641674e-01 1.614973e+00 4.486420e-01 4.112780e-03 -2.998182e-01 6.168733e-01 -7.580149e-01 5.378066e-01 3.649593e-01 -3.940966e-01 2.905064e-01 -4.663441e-02 -1.059787e+00 -2.365682e-02 1.676136e-01 7.070375e-02 -6.801900e-02 2.900476e-01 -7.590906e-02 8.555996e-02 2.178186e-02 2.480015e-01 2.264429e-01 8.896132e-02 -6.476545e-02 9.586678e-02
<VARIANCE> 39
 3.261971e+00 2.664088e+01 6.958988e+00 1.173862e+01 2.834136e+01 9.210225e+00 1.457688e+01 1.117080e+01 1.214356e+01 9.736845e+00 1.125910e+01 5.133917e+00 9.633465e+00 1.683820e-01 1.331820e+00 4.729173e-01 7.413043e-01 1.620668e+00 7.288408e-01 1.183579e+00 9.633256e-01 1.178875e+00 1.160593e+00 7.906562e-01 6.401549e-01 1.753750e-01 3.366053e-02 3.334448e-01 8.115970e-02 1.708906e-01 2.957696e-01 1.413854e-01 2.272028e-01 2.012443e-01 2.377028e-01 1.872234e-01 1.879830e-01 1.268089e-01 1.304649e-02
<GCONST> 7.172832e+01
<STATE> 3
<MEAN> 39
 -1.130199e+01 8.188938e+00 -2.475349e-01 7.087183e-02 9.009564e-01 1.542945e+00 -3.848111e+00 -4.146819e+00 -1.006871e+01 -6.514729e+00 -2.975343e+00 -3.403875e+00 6.782057e+01 -3.706854e-01 1.017754e+00 5.858691e-01 -2.423394e-02 1.563162e-01 2.063274e-01 -9.059589e-02 3.000849e-01 5.673798e-01 1.118959e-01 -2.637313e-01 -5.952831e-01 -5.954493e-01 -7.153000e-03 -2.591845e-01 -3.733950e-02 -4.803820e-02 -2.783530e-02 -5.923463e-02 1.171077e-01 -3.826191e-02 -7.487226e-02 -2.917517e-02 -1.426778e-01 -6.075691e-02 1.155675e-01
<VARIANCE> 39
 3.715675e+00 1.014911e+01 7.988072e+00 9.918297e+00 1.154079e+01 6.869205e+00 1.134437e+01 8.467775e+00 1.074375e+01 1.043348e+01 9.661171e+00 1.121860e+01 6.528719e+00 2.143234e-01 1.127156e+00 4.708276e-01 5.814915e-01 9.019474e-01 5.031099e-01 1.215609e+00 8.163512e-01 1.033990e+00 7.971696e-01 7.489959e-01 6.043107e-01 1.457913e-01 4.500169e-02 8.983856e-02 1.054857e-01 1.275973e-01 1.564883e-01 9.269743e-02 2.269773e-01 1.578292e-01 1.646352e-01 1.492738e-01 1.599796e-01 1.267691e-01 1.573972e-02
<GCONST> 6.433644e+01
<STATE> 4
<MEAN> 39
 -1.476297e+01 8.735994e+00 -5.574191e-01 -3.275501e+00 -2.159943e+00 7.081732e-01 -4.323412e+00 -3.371650e+00 -8.608402e+00 -7.159116e+00 -5.627682e+00 -6.280696e+00 6.519088e+01 -1.956400e-01 -6.431762e-02 -1.228599e-01 -2.068266e-01 -2.403792e-01 -1.641097e-01 -1.189330e-01 2.506771e-02 1.227386e-02 -6.828378e-02 -1.188357e-01 -7.914798e-02 -1.376019e-01 8.591872e-03 -5.400430e-02 -2.096659e-02 -2.035708e-03 9.260724e-03 -2.540522e-02 -2.306394e-02 -3.505662e-02 -4.371267e-02 -1.515031e-02 -4.688974e-03 2.475802e-02 3.335196e-02
<VARIANCE> 39
 7.034236e+00 4.619371e+00 6.093328e+00 8.641870e+00 1.087381e+01 5.637853e+00 8.267444e+00 9.905762e+00 9.715044e+00 8.055036e+00 1.379146e+01 1.403152e+01 4.907842e+00 1.341986e-01 3.143640e-01 2.946291e-01 4.236738e-01 5.595611e-01 6.188821e-01 6.442699e-01 7.738168e-01 6.261734e-01 5.737448e-01 8.101653e-01 7.149578e-01 4.468872e-02 2.452394e-02 7.526702e-02 5.603315e-02 9.188908e-02 1.239536e-01 1.238214e-01 1.234598e-01 1.344982e-01 1.110892e-01 1.244486e-01 1.615370e-01 1.523604e-01 1.409784e-02
<GCONST> 5.509261e+01
<TRANSP> 5
 0.000000e+00 1.000000e+00 0.000000e+00 0.000000e+00 0.000000e+00
 0.000000e+00 8.072806e-01 1.927194e-01 0.000000e+00 0.000000e+00
 0.000000e+00 0.000000e+00 7.290418e-01 2.709582e-01 0.000000e+00
 0.000000e+00 0.000000e+00 0.000000e+00 9.545435e-01 4.545657e-02
 0.000000e+00 0.000000e+00 0.000000e+00 0.000000e+00 0.000000e+00
<ENDHMM>
~h "sil"
<BEGINHMM>
<NUMSTATES> 5
<STATE> 2
<MEAN> 39
 -1.647686e+01 6.469228e+00 -2.773791e+00 -5.447582e+00 -3.665691e+00 -2.061529e+00 -5.064799e+00 -3.229659e+00 -8.849227e+00 -8.315241e+00 -5.338422e+00 -6.324403e+00 6.481871e+01 -4.948496e-03 3.571850e-02 -1.519951e-02 2.958139e-02 -5.208430e-02 1.687736e-02 3.690426e-02 6.059737e-03 -6.172406e-02 6.591487e-02 -5.354047e-03 -3.521045e-02 -1.129392e-01 3.822305e-03 -2.020583e-02 -1.263518e-03 4.681935e-03 1.447717e-02 -2.684288e-03 -6.872751e-04 -1.063385e-02 -4.574747e-03 8.165661e-03 1.733679e-03 6.590242e-03 1.612566e-02
<VARIANCE> 39
 5.731705e+00 9.505016e+00 9.162209e+00 1.524838e+01 9.899154e+00 1.036377e+01 1.191173e+01 1.236582e+01 1.722164e+01 1.390298e+01 1.416542e+01 1.134150e+01 5.955668e+00 1.700904e-01 3.291503e-01 4.055558e-01 5.477127e-01 6.126252e-01 6.733770e-01 7.194188e-01 7.505877e-01 7.869110e-01 8.015256e-01 7.391374e-01 6.754472e-01 1.198455e-01 2.828529e-02 6.130973e-02 7.636429e-02 9.970436e-02 1.288932e-01 1.334658e-01 1.331254e-01 1.412311e-01 1.479527e-01 1.493387e-01 1.491005e-01 1.254017e-01 1.619764e-02
<GCONST> 6.222760e+01
<STATE> 3
<MEAN> 39
 -1.743438e+01 5.459112e+00 -3.461941e+00 -7.066448e+00 -4.265622e+00 -1.923556e+00 -4.802900e+00 -3.086754e+00 -8.450510e+00 -7.552457e+00 -4.908855e+00 -5.501966e+00 6.453233e+01 -3.697064e-02 -2.811838e-02 2.009515e-02 3.752572e-03 1.926211e-02 1.507893e-03 2.615967e-02 -5.965103e-02 -1.054613e-01 4.623561e-02 -2.229435e-02 -2.316141e-02 1.169444e-02 -3.781993e-02 2.087311e-03 9.470725e-03 -3.902428e-02 -1.231095e-02 1.210576e-02 -3.818156e-02 -2.332052e-03 4.012821e-02 -8.819069e-03 -5.868625e-03 1.706310e-02 6.034844e-02
<VARIANCE> 39
 5.899650e+00 7.590315e+00 1.121128e+01 1.155552e+01 1.018765e+01 9.408783e+00 1.272900e+01 1.111534e+01 1.559250e+01 8.940798e+00 9.391590e+00 1.202189e+01 3.582179e+00 3.216700e-01 5.524216e-01 7.690271e-01 7.689534e-01 8.434445e-01 8.186489e-01 9.611236e-01 1.108954e+00 1.319553e+00 7.306809e-01 9.993058e-01 8.252507e-01 2.426025e-01 7.066829e-02 1.250180e-01 1.520852e-01 1.766442e-01 1.712111e-01 1.673284e-01 2.256618e-01 2.343305e-01 2.960963e-01 1.546334e-01 2.380444e-01 1.619433e-01 7.187100e-02
<GCONST> 7.278197e+01
<STATE> 4
<MEAN> 39
 -1.488692e+01 5.203791e+00 -1.914432e+00 -5.974875e+00 -5.223860e+00 -3.975647e+00 -6.373346e+00 -2.789157e+00 -9.568641e+00 -8.930572e+00 -6.012741e+00 -5.092591e+00 7.051821e+01 -4.612256e-02 8.820852e-03 6.506832e-03 -5.738467e-02 -2.084364e-02 8.390408e-03 -4.557151e-02 -4.735111e-02 4.067613e-02 -8.747282e-02 2.087915e-02 3.172530e-03 6.426713e-02 -6.291165e-03 5.246098e-03 -1.162992e-02 2.509109e-03 8.467781e-03 2.988410e-03 -3.789056e-03 -1.136874e-02 -9.980746e-03 -1.126286e-03 -5.576929e-03 3.367573e-03 1.124106e-02
<VARIANCE> 39
 5.014712e+01 2.354442e+01 2.303399e+01 2.353207e+01 2.847939e+01 3.457126e+01 2.467838e+01 2.445266e+01 2.420242e+01 2.991966e+01 2.805798e+01 1.429180e+01 8.145732e+01 2.326593e+00 1.159361e+00 1.725625e+00 1.701875e+00 1.641783e+00 1.719211e+00 2.077286e+00 1.504639e+00 2.096523e+00 2.058168e+00 1.634465e+00 9.807671e-01 1.506635e+00 4.130702e-01 2.190996e-01 2.730907e-01 3.086229e-01 2.880139e-01 3.035121e-01 4.212358e-01 2.731525e-01 3.735684e-01 3.728584e-01 2.527535e-01 1.765433e-01 2.142602e-01
<GCONST> 1.058144e+02
<TRANSP> 5
 0.000000e+00 1.000000e+00 0.000000e+00 0.000000e+00 0.000000e+00
 0.000000e+00 9.523616e-01 4.763836e-02 0.000000e+00 0.000000e+00
 0.000000e+00 0.000000e+00 7.900411e-01 2.099589e-01 0.000000e+00
 0.000000e+00 0.000000e+00 0.000000e+00 9.007629e-01 9.923719e-02
 0.000000e+00 0.000000e+00 0.000000e+00 0.000000e+00 0.000000e+00
<ENDHMM>
