~o
<STREAMINFO> 1 39
<VECSIZE> 39<NULLD><MFCC_D_A_0><DIAGC>
~h "a"
<BEGINHMM>
<NUMSTATES> 5
<STATE> 2
<MEAN> 39
 -7.960176e+00 8.599604e-01 -5.405587e+00 -7.307550e+00 -4.829131e+00 -8.810075e+00 -4.911561e+00 -1.040924e+00 -1.094164e+01 -3.137119e+00 1.510525e-02 -4.593265e+00 7.886400e+01 -1.471593e-01 7.586568e-03 -5.447045e-02 9.053120e-03 -7.054678e-02 1.812911e-01 1.092116e-01 4.530012e-02 1.478817e-01 8.565089e-02 4.355433e-02 1.467180e-01 -4.130032e-01 -7.230987e-02 4.270691e-02 7.836057e-02 3.415065e-02 6.575937e-02 -1.748963e-02 -7.684487e-02 -3.924913e-02 -2.733106e-02 -5.905728e-02 -2.231788e-02 2.522860e-03 -5.161433e-02
<VARIANCE> 39
 3.185534e+01 2.635099e+01 2.926767e+01 2.502468e+01 3.797745e+01 6.334239e+01 4.920258e+01 4.276897e+01 5.740783e+01 3.895470e+01 3.094877e+01 2.660005e+01 1.474718e+02 7.768176e-01 1.205846e+00 1.325173e+00 1.200280e+00 1.638107e+00 1.814545e+00 1.530965e+00 1.536401e+00 1.812175e+00 1.576249e+00 1.488428e+00 1.522318e+00 1.528536e+00 1.319520e-01 2.032485e-01 2.251211e-01 2.111382e-01 2.706228e-01 3.061248e-01 2.809572e-01 2.649109e-01 3.349530e-01 2.641131e-01 2.689514e-01 2.996699e-01 1.791011e-01
<GCONST> 1.060814e+02
<STATE> 3
<MEAN> 39
 -9.330924e+00 1.540407e+00 -5.246859e+00 -7.123516e+00 -4.375632e+00 -7.239554e+00 -5.338645e+00 -1.713181e+00 -9.646186e+00 -3.230262e+00 -2.564688e-01 -3.811570e+00 7.627051e+01 -2.461012e-01 1.251101e-01 1.078900e-01 6.530994e-02 2.004133e-02 1.378619e-01 -9.874403e-02 -5.305930e-02 1.036234e-01 -6.986953e-02 -1.332816e-02 8.000343e-02 -4.551387e-01 -1.400000e-02 3.738454e-02 5.529177e-02 4.279101e-02 6.384066e-02 -1.431738e-02 -3.688804e-02 -4.568975e-02 -3.202249e-02 -3.785960e-02 -3.063040e-02 -2.266187e-02 -1.063350e-02
<VARIANCE> 39
 3.009069e+01 2.450813e+01 2.651698e+01 2.320719e+01 3.636440e+01 4.924763e+01 4.810910e+01 3.559573e+01 4.281641e+01 3.656365e+01 2.768691e+01 2.298830e+01 1.528995e+02 6.581098e-01 1.044669e+00 1.214684e+00 1.189530e+00 1.434240e+00 1.640654e+00 1.523857e+00 1.467550e+00 1.770293e+00 1.384962e+00 1.426518e+00 1.391347e+00 1.176265e+00 1.085661e-01 1.845094e-01 1.968606e-01 2.126574e-01 2.527511e-01 2.811408e-01 2.743451e-01 2.511679e-01 3.095729e-01 2.390750e-01 2.499857e-01 2.629917e-01 1.597688e-01
<GCONST> 1.023165e+02
<STATE> 4
<MEAN> 39
 -1.151192e+01 2.758643e+00 -4.329225e+00 -6.412371e+00 -4.203519e+00 -5.869302e+00 -6.163883e+00 -2.758144e+00 -9.019118e+00 -3.555247e+00 -1.015870e+00 -3.849322e+00 7.212811e+01 -2.480195e-01 1.036052e-01 1.583013e-01 1.431425e-01 1.019322e-01 1.046296e-01 -1.237436e-01 -8.502764e-02 2.412261e-02 -8.496863e-02 -8.482407e-02 -2.787112e-02 -3.886215e-01 7.270763e-03 -9.913757e-03 2.597749e-02 3.856941e-02 4.275688e-02 -1.103456e-02 3.363387e-02 -2.274206e-02 -3.081402e-02 1.139772e-02 -2.238960e-02 -1.240739e-02 5.850105e-02
<VARIANCE> 39
 3.110880e+01 2.321202e+01 2.068623e+01 2.097290e+01 3.124540e+01 4.095731e+01 3.702713e+01 3.409138e+01 3.024039e+01 3.578521e+01 2.478052e+01 2.149615e+01 1.268608e+02 5.620686e-01 9.589535e-01 1.087693e+00 1.129063e+00 1.287422e+00 1.564554e+00 1.588272e+00 1.468594e+00 1.633103e+00 1.302717e+00 1.435062e+00 1.339638e+00 8.861330e-01 1.145085e-01 1.891484e-01 1.895272e-01 2.248821e-01 2.474671e-01 2.889905e-01 2.862474e-01 2.824416e-01 3.053832e-01 2.477237e-01 2.717444e-01 2.727266e-01 1.924298e-01
<GCONST> 1.001846e+02
<TRANSP> 5
 0.000000e+00 1.000000e+00 0.000000e+00 0.000000e+00 0.000000e+00
 0.000000e+00 5.797801e-01 4.202198e-01 0.000000e+00 0.000000e+00
 0.000000e+00 0.000000e+00 5.646054e-01 4.353946e-01 0.000000e+00
 0.000000e+00 0.000000e+00 0.000000e+00 7.165005e-01 2.834995e-01
 0.000000e+00 0.000000e+00 0.000000e+00 0.000000e+00 0.000000e+00
<ENDHMM>
~h "b"
<BEGINHMM>
<NUMSTATES> 5
<STATE> 2
<MEAN> 39
 -1.626482e+01 1.635918e+00 6.004151e+00 -9.691434e+00 3.377448e+00 -8.049096e+00 -7.900239e+00 -6.355560e+00 -1.129785e+01 -1.659405e+00 -2.474408e+00 -5.208067e+00 8.197518e+01 3.666026e-01 -2.215004e-01 8.903332e-02 6.363894e-01 4.713456e-01 -2.828002e-01 -1.713373e-02 -8.651187e-02 -6.106316e-01 -1.554491e-01 5.352682e-02 -1.691143e-01 3.558896e-01 1.886789e-01 -6.239206e-02 -1.171605e-01 2.794011e-01 -4.819693e-02 -9.819188e-02 -7.188495e-02 3.858479e-02 -9.535121e-02 -1.249473e-01 -1.753073e-02 -6.022546e-02 -4.545893e-02
<VARIANCE> 39
 1.323761e+02 6.312129e+01 6.333035e+01 8.269530e+01 6.007098e+01 5.485501e+01 5.640198e+01 3.885168e+01 5.577120e+01 5.159701e+01 2.520467e+01 2.328809e+01 6.072238e+01 8.516548e+00 4.865844e+00 6.062936e+00 6.321776e+00 3.298765e+00 4.095901e+00 3.258395e+00 3.923913e+00 4.868349e+00 3.134723e+00 1.827035e+00 1.844939e+00 3.558205e+00 1.167860e+00 8.423896e-01 9.843032e-01 1.029712e+00 5.778909e-01 7.533336e-01 6.055883e-01 7.670445e-01 9.220138e-01 6.198306e-01 3.457494e-01 3.646378e-01 6.054534e-01
<GCONST> 1.365085e+02
<STATE> 3
<MEAN> 39
 -7.354925e+00 2.788780e+00 2.693601e+00 -1.470226e+00 5.766977e+00 -9.216928e+00 -1.078719e+01 -5.588202e+00 -1.371421e+01 -5.554117e+00 -2.895032e+00 -7.248675e+00 8.295770e+01 1.502967e-01 -5.189816e-01 -1.547928e-01 1.313574e+00 4.771146e-01 -9.294918e-01 -2.342263e-01 2.031918e-01 -3.746329e-01 -3.335866e-01 -1.128477e-01 -1.869501e-01 2.955813e-01 -1.239135e-01 -5.700637e-02 7.420789e-02 -5.682097e-02 -1.254702e-01 -9.305629e-02 -3.368227e-02 1.081631e-01 4.494988e-02 -9.609298e-02 -3.824437e-02 5.772046e-02 -2.188938e-02
<VARIANCE> 39
 1.560170e+01 5.300658e+01 5.563981e+01 5.505170e+01 6.297454e+01 5.746123e+01 5.437156e+01 4.165349e+01 7.404707e+01 6.621899e+01 3.874026e+01 2.624477e+01 6.331168e+01 2.178104e+00 5.538851e+00 3.976750e+00 3.990760e+00 3.515504e+00 6.216981e+00 3.422200e+00 4.496207e+00 5.458318e+00 3.108940e+00 2.454452e+00 2.423611e+00 3.423414e+00 3.733674e-01 7.652015e-01 7.619910e-01 7.204052e-01 6.402342e-01 1.088778e+00 5.758604e-01 8.547601e-01 1.064551e+00 6.564736e-01 3.594095e-01 4.149315e-01 5.035257e-01
<GCONST> 1.329595e+02
<STATE> 4
<MEAN> 39
 -5.401189e+00 1.165990e+00 8.708814e-01 -4.680400e-01 4.471767e+00 -1.152285e+01 -9.642603e+00 -4.303107e+00 -1.589033e+01 -7.639067e+00 -2.668571e+00 -7.077810e+00 8.348460e+01 5.469680e-03 -5.299078e-02 3.550541e-02 1.096799e-01 -6.845309e-02 -2.433021e-01 -6.166953e-02 2.131178e-01 -2.182325e-03 -1.622529e-01 -9.031424e-03 -3.901579e-02 -3.655118e-02 -2.725449e-02 5.742013e-02 2.441376e-02 -1.336116e-01 -8.899070e-02 1.029452e-01 1.713371e-02 -2.046159e-02 6.281517e-02 4.704138e-02 5.270164e-03 6.751618e-03 -2.649392e-02
<VARIANCE> 39
 1.403551e+01 3.993719e+01 4.076816e+01 5.369016e+01 6.689134e+01 6.582826e+01 6.596893e+01 5.703347e+01 8.604146e+01 9.932428e+01 5.475196e+01 3.116070e+01 5.009225e+01 8.753392e-01 2.467499e+00 2.588757e+00 3.112216e+00 3.341709e+00 6.086379e+00 3.370299e+00 3.672194e+00 4.700276e+00 3.307884e+00 3.240164e+00 2.084216e+00 2.285383e+00 1.535668e-01 3.358410e-01 4.393542e-01 4.793126e-01 5.239396e-01 1.013600e+00 5.985000e-01 7.023626e-01 7.837394e-01 6.059346e-01 5.598685e-01 4.149904e-01 3.229096e-01
<GCONST> 1.272379e+02
<TRANSP> 5
 0.000000e+00 1.000000e+00 0.000000e+00 0.000000e+00 0.000000e+00
 0.000000e+00 7.807826e-01 2.192174e-01 0.000000e+00 0.000000e+00
 0.000000e+00 0.000000e+00 5.701129e-01 4.298871e-01 0.000000e+00
 0.000000e+00 0.000000e+00 0.000000e+00 8.905022e-01 1.094978e-01
 0.000000e+00 0.000000e+00 0.000000e+00 0.000000e+00 0.000000e+00
<ENDHMM>
~h "d"
<BEGINHMM>
<NUMSTATES> 5
<STATE> 2
<MEAN> 39
 -1.371272e+01 -1.122445e+00 2.532993e+00 -7.421598e+00 -3.878811e+00 -1.050375e+01 -7.592604e+00 -4.661414e+00 -1.042686e+01 -5.690490e+00 -4.182345e+00 -4.280636e+00 8.305569e+01 2.614184e+00 3.916297e-01 -1.280098e+00 2.173653e-01 -8.688361e-01 -9.221718e-01 -1.633495e-01 3.152419e-01 -8.549955e-01 -5.525209e-01 7.626607e-02 -2.944489e-01 7.028037e-01 -3.496365e-01 -2.490722e-01 -1.485496e-01 -1.793994e-01 1.399652e-02 4.227730e-02 4.561445e-04 1.432005e-01 -3.704275e-02 2.606580e-01 2.643475e-01 7.878006e-03 1.900163e-01
<VARIANCE> 39
 8.644427e+01 3.847091e+01 6.132459e+01 3.519557e+01 4.828048e+01 4.921885e+01 3.813369e+01 4.808935e+01 5.443577e+01 3.283795e+01 2.848429e+01 2.790158e+01 1.144799e+02 6.895595e+00 4.868734e+00 3.994372e+00 3.093748e+00 3.902636e+00 4.358358e+00 3.834825e+00 4.378143e+00 6.742749e+00 4.040095e+00 3.043849e+00 2.469194e+00 2.034392e+00 9.335761e-01 1.036961e+00 6.683805e-01 5.343028e-01 6.802245e-01 7.399573e-01 7.797310e-01 8.293761e-01 1.379553e+00 7.233542e-01 5.225328e-01 4.624439e-01 3.640358e-01
<GCONST> 1.347553e+02
<STATE> 3
<MEAN> 39
 -7.932176e+00 -1.354593e+00 -1.635230e+00 -8.217709e+00 -6.349989e+00 -1.297423e+01 -8.021020e+00 -3.372676e+00 -1.235525e+01 -5.394531e+00 -2.715468e+00 -4.667584e+00 8.537518e+01 1.371745e+00 -3.834842e-01 -1.606334e+00 -5.245527e-02 -3.024251e-01 -6.206195e-01 -2.221972e-01 4.302647e-01 -5.866340e-01 3.778020e-01 8.076527e-01 -1.055434e-01 9.712691e-01 -5.372163e-01 -1.915524e-01 9.400592e-02 -1.226011e-02 3.364497e-01 1.431637e-01 -8.137153e-02 -3.953546e-02 1.884198e-01 2.546233e-01 1.693035e-01 3.255649e-02 -3.514680e-02
<VARIANCE> 39
 4.543564e+01 2.596721e+01 6.099964e+01 2.124417e+01 4.975879e+01 5.225932e+01 4.144153e+01 4.645970e+01 6.231843e+01 3.815136e+01 3.098355e+01 2.759095e+01 1.064479e+02 4.424981e+00 3.173627e+00 3.313201e+00 2.005016e+00 3.796134e+00 3.389097e+00 3.166469e+00 3.456705e+00 7.017683e+00 4.058519e+00 2.738699e+00 2.632669e+00 1.835104e+00 6.220040e-01 7.369975e-01 6.138251e-01 4.147481e-01 4.958923e-01 5.366004e-01 6.692481e-01 6.845072e-01 1.391779e+00 7.255021e-01 5.226443e-01 5.174134e-01 3.061106e-01
<GCONST> 1.292165e+02
<STATE> 4
<MEAN> 39
 -7.148962e+00 -2.809060e+00 -5.514165e+00 -7.635859e+00 -4.180136e+00 -1.307507e+01 -1.014448e+01 -3.725091e+00 -1.346954e+01 -2.260931e+00 1.608665e+00 -4.508423e+00 8.492144e+01 -1.112797e-01 -1.228493e-01 -2.331338e-01 2.031524e-01 6.733361e-01 -7.069217e-02 -4.887365e-01 -1.031503e-01 -1.304582e-01 2.557492e-01 5.786110e-01 -3.011991e-02 5.067155e-02 -1.632474e-01 1.218956e-01 2.462195e-01 6.721149e-02 1.239918e-01 8.715253e-02 -9.510707e-03 -8.695970e-02 4.402080e-02 -7.970089e-02 -7.950723e-02 -2.039486e-02 -1.894882e-01
<VARIANCE> 39
 3.890902e+01 2.391271e+01 4.299566e+01 2.154002e+01 5.435086e+01 6.009774e+01 5.132215e+01 4.498143e+01 8.638474e+01 4.476703e+01 2.694099e+01 2.306158e+01 1.404633e+02 2.190534e+00 1.875870e+00 3.232498e+00 1.800529e+00 3.391293e+00 2.934726e+00 2.736582e+00 2.691622e+00 4.728658e+00 2.736209e+00 2.267536e+00 2.266108e+00 2.612181e+00 3.627509e-01 3.466163e-01 4.606116e-01 3.178882e-01 5.740411e-01 5.477715e-01 5.276451e-01 4.915819e-01 8.156100e-01 4.853894e-01 3.763565e-01 3.888607e-01 3.522123e-01
<GCONST> 1.230500e+02
<TRANSP> 5
 0.000000e+00 1.000000e+00 0.000000e+00 0.000000e+00 0.000000e+00
 0.000000e+00 5.797981e-01 4.202019e-01 0.000000e+00 0.000000e+00
 0.000000e+00 0.000000e+00 5.917920e-01 4.082080e-01 0.000000e+00
 0.000000e+00 0.000000e+00 0.000000e+00 8.017128e-01 1.982872e-01
 0.000000e+00 0.000000e+00 0.000000e+00 0.000000e+00 0.000000e+00
<ENDHMM>
~h "e"
<BEGINHMM>
<NUMSTATES> 5
<STATE> 2
<MEAN> 39
 -1.266816e+01 -4.386328e-01 -7.193286e-01 -7.498426e+00 -1.236869e+00 -9.099516e+00 -9.375641e+00 -4.783109e+00 -1.267755e+01 -3.596735e+00 4.389608e-02 -4.968628e+00 8.194018e+01 6.354526e-01 -3.069735e-02 1.350026e-01 1.972431e-01 1.352643e-01 -3.282466e-01 -2.856597e-02 -8.614387e-03 -3.975080e-01 -2.355527e-01 -1.427619e-01 -9.878085e-02 5.854469e-01 7.330280e-02 6.557110e-02 4.250392e-02 6.088943e-02 1.867958e-02 6.409891e-03 -1.123590e-02 7.713679e-02 3.639601e-02 -5.316298e-02 -4.657814e-02 -2.980061e-02 -6.053810e-02
<VARIANCE> 39
 8.228257e+01 3.204163e+01 5.398865e+01 4.681962e+01 4.575006e+01 5.351836e+01 4.097369e+01 4.043270e+01 5.505057e+01 5.764579e+01 2.821532e+01 2.205258e+01 1.228301e+02 7.601274e+00 3.359672e+00 4.089614e+00 4.015558e+00 3.427819e+00 4.392677e+00 3.032448e+00 3.388566e+00 4.968205e+00 3.460046e+00 2.631151e+00 2.216961e+00 5.836110e+00 1.145953e+00 5.692162e-01 6.347343e-01 6.606423e-01 5.835145e-01 7.808651e-01 5.539705e-01 5.945795e-01 8.977205e-01 6.245955e-01 5.043830e-01 4.097253e-01 8.325694e-01
<GCONST> 1.338329e+02
<STATE> 3
<MEAN> 39
 -9.904381e+00 5.718881e-02 -4.305122e-01 -5.725400e+00 -7.155184e-01 -1.060266e+01 -9.421417e+00 -4.032186e+00 -1.369541e+01 -5.119077e+00 -9.692652e-01 -5.486866e+00 8.264589e+01 6.675201e-01 1.762301e-01 1.828664e-01 3.339593e-01 1.641576e-01 -2.667522e-01 -4.440711e-02 3.340546e-01 -1.041350e-01 -3.337683e-01 -2.536622e-01 -2.041078e-01 2.255068e-01 -1.435433e-01 8.573027e-03 9.273606e-03 -6.127890e-02 -5.344851e-03 7.321407e-02 4.900278e-03 5.940608e-02 1.365352e-01 7.035117e-02 8.085225e-03 1.100808e-02 -1.251355e-01
<VARIANCE> 39
 6.061605e+01 3.190095e+01 5.248109e+01 5.735170e+01 5.183162e+01 6.065033e+01 4.552859e+01 5.151013e+01 5.990477e+01 6.085501e+01 3.354834e+01 2.584785e+01 1.119452e+02 6.242825e+00 3.182543e+00 3.889438e+00 3.896453e+00 3.725307e+00 5.266216e+00 3.324838e+00 3.393454e+00 5.339089e+00 3.637406e+00 3.099554e+00 2.556288e+00 5.334300e+00 9.106017e-01 5.241202e-01 6.565942e-01 6.547443e-01 6.141411e-01 8.803458e-01 5.829234e-01 6.077007e-01 9.595090e-01 6.603614e-01 5.698493e-01 4.222988e-01 7.767345e-01
<GCONST> 1.351992e+02
<STATE> 4
<MEAN> 39
 -6.866549e+00 1.237155e+00 4.129266e-01 -3.799109e+00 -9.510604e-01 -1.216257e+01 -8.502378e+00 -8.290212e-01 -1.311365e+01 -6.548804e+00 -2.823150e+00 -6.872659e+00 8.228831e+01 7.578804e-02 1.128373e-01 -4.702342e-02 -7.385567e-02 -1.007438e-02 7.900871e-02 6.334097e-02 1.872934e-01 2.434752e-01 6.106924e-02 -5.213355e-02 2.665431e-02 -3.717481e-02 -1.311346e-01 -5.382589e-02 -5.630805e-02 -7.666100e-02 -2.756855e-02 4.280869e-02 1.936340e-02 -5.169304e-02 3.628710e-02 6.046351e-02 4.034652e-02 6.002337e-02 -3.103454e-02
<VARIANCE> 39
 4.222832e+01 3.662984e+01 5.783170e+01 6.053900e+01 6.700899e+01 6.998429e+01 5.891498e+01 6.588525e+01 6.882026e+01 6.575784e+01 4.465121e+01 4.533566e+01 9.425000e+01 2.978449e+00 2.346199e+00 2.996626e+00 2.739239e+00 3.215143e+00 4.585751e+00 3.330554e+00 2.951824e+00 4.058475e+00 3.065569e+00 2.873970e+00 2.829196e+00 3.713955e+00 4.971218e-01 3.769077e-01 5.292091e-01 4.533502e-01 4.921128e-01 7.668903e-01 5.655465e-01 4.855820e-01 7.651952e-01 5.708972e-01 5.179545e-01 4.598475e-01 5.575983e-01
<GCONST> 1.312141e+02
<TRANSP> 5
 0.000000e+00 1.000000e+00 0.000000e+00 0.000000e+00 0.000000e+00
 0.000000e+00 6.834939e-01 3.165061e-01 0.000000e+00 0.000000e+00
 0.000000e+00 0.000000e+00 6.037938e-01 3.962062e-01 0.000000e+00
 0.000000e+00 0.000000e+00 0.000000e+00 7.717351e-01 2.282648e-01
 0.000000e+00 0.000000e+00 0.000000e+00 0.000000e+00 0.000000e+00
<ENDHMM>
~h "g"
<BEGINHMM>
<NUMSTATES> 5
<STATE> 2
<MEAN> 39
 -7.330165e+00 4.526942e-01 -1.194228e+00 -1.434736e+00 1.736796e+00 -1.295876e+01 -1.715022e+01 -6.991496e+00 -1.287861e+01 2.960293e-01 5.062476e-01 -6.132114e+00 7.947050e+01 1.425471e-02 -2.563953e-01 -7.595617e-01 -7.495972e-01 -6.769902e-01 5.638269e-02 2.817469e-02 -5.046184e-01 -1.362999e-01 5.268739e-01 7.392676e-01 5.112330e-01 -1.068648e-01 -1.225716e-01 1.708093e-02 1.150318e-01 1.345990e-01 3.371279e-02 6.914514e-02 6.034201e-02 8.103637e-02 1.027689e-01 -8.611349e-02 -8.440257e-02 -6.491137e-02 -1.681271e-01
<VARIANCE> 39
 1.617459e+01 1.293806e+01 3.320134e+01 3.694223e+01 4.144983e+01 3.677755e+01 1.332106e+02 5.544997e+01 7.399873e+01 3.704813e+01 5.140513e+01 2.561308e+01 1.463378e+02 8.715529e-01 1.009746e+00 1.034471e+00 1.860894e+00 2.072351e+00 3.016309e+00 6.802383e+00 2.200619e+00 2.389533e+00 1.708987e+00 4.017797e+00 2.819114e+00 2.203805e+00 1.419543e-01 1.342973e-01 2.066539e-01 2.902211e-01 4.026644e-01 4.320190e-01 8.250809e-01 3.224106e-01 4.153845e-01 2.928954e-01 7.317908e-01 4.093600e-01 1.974756e-01
<GCONST> 1.153638e+02
<STATE> 3
<MEAN> 39
 -7.354026e+00 3.380287e-02 -5.284929e+00 -3.717225e+00 -1.223174e+00 -1.204878e+01 -1.268958e+01 -6.174082e+00 -1.526048e+01 1.334114e+00 3.465407e+00 -3.638657e+00 7.618729e+01 -4.290464e-01 -5.327795e-02 -4.842973e-01 -1.385550e-01 -4.460135e-01 6.973097e-01 6.740106e-01 -4.589755e-03 4.712870e-01 2.400181e-01 1.566238e-01 3.405077e-01 -7.979981e-01 -7.786202e-02 5.112137e-02 1.000401e-01 1.241758e-01 1.370381e-01 4.724411e-02 -9.224959e-02 7.245652e-02 4.323446e-02 -2.008665e-01 -2.175751e-01 -1.404068e-01 -5.458237e-02
<VARIANCE> 39
 1.636034e+01 1.262015e+01 2.839586e+01 2.380620e+01 2.923549e+01 3.279333e+01 8.726897e+01 5.766328e+01 5.943419e+01 4.432123e+01 2.938433e+01 1.270043e+01 2.014167e+02 5.809900e-01 7.284222e-01 6.766961e-01 1.248970e+00 1.408503e+00 1.436204e+00 2.925325e+00 1.223935e+00 1.146199e+00 1.730720e+00 1.695844e+00 1.291664e+00 9.258555e-01 7.138932e-02 1.187033e-01 1.339319e-01 2.250170e-01 2.497977e-01 2.886179e-01 3.648172e-01 1.704520e-01 2.346736e-01 2.377434e-01 2.261179e-01 2.362343e-01 1.223244e-01
<GCONST> 9.876356e+01
<STATE> 4
<MEAN> 39
 -1.021319e+01 9.067203e-01 -6.816818e+00 -3.699379e+00 -2.009961e+00 -5.443933e+00 -1.056682e+01 -8.063526e+00 -1.211974e+01 2.223976e+00 2.940143e+00 -1.845736e+00 7.139627e+01 -4.541658e-01 1.621529e-01 -8.147230e-02 8.199245e-03 -3.242959e-01 4.694673e-01 1.689713e-01 2.560662e-02 2.785012e-01 -3.503534e-01 -1.420714e-01 2.061341e-01 -8.385961e-01 9.526739e-03 2.215329e-02 3.392064e-02 1.140366e-02 1.506677e-02 -3.544608e-02 -3.419593e-02 2.296191e-02 -1.757143e-02 -4.077535e-02 -1.238119e-02 -4.758270e-02 1.387183e-02
<VARIANCE> 39
 1.571120e+01 1.189163e+01 3.670520e+01 1.724995e+01 3.303099e+01 4.046313e+01 3.677811e+01 4.724968e+01 4.117964e+01 3.999753e+01 1.947354e+01 1.428588e+01 2.246178e+02 4.406876e-01 9.812444e-01 1.025640e+00 1.082430e+00 1.755878e+00 2.082485e+00 2.394949e+00 9.816684e-01 1.481789e+00 1.238492e+00 1.443438e+00 1.009138e+00 5.675007e-01 7.487448e-02 1.702315e-01 2.045036e-01 2.277181e-01 2.969672e-01 3.519737e-01 3.734510e-01 1.783178e-01 2.974526e-01 2.154693e-01 2.305313e-01 1.824578e-01 7.047636e-02
<GCONST> 9.733476e+01
<TRANSP> 5
 0.000000e+00 1.000000e+00 0.000000e+00 0.000000e+00 0.000000e+00
 0.000000e+00 6.221722e-01 3.778279e-01 0.000000e+00 0.000000e+00
 0.000000e+00 0.000000e+00 5.691973e-01 4.308028e-01 0.000000e+00
 0.000000e+00 0.000000e+00 0.000000e+00 8.522419e-01 1.477581e-01
 0.000000e+00 0.000000e+00 0.000000e+00 0.000000e+00 0.000000e+00
<ENDHMM>
~h "h"
<BEGINHMM>
<NUMSTATES> 5
<STATE> 2
<MEAN> 39
 -1.430505e+01 -4.460295e+00 3.912862e+00 7.275939e-01 4.825583e-01 -8.881859e+00 -9.047463e+00 -3.542367e+00 -7.050211e+00 -2.926805e+00 -5.002440e+00 -5.760675e+00 7.841180e+01 3.047623e-03 -6.301008e-03 -2.327320e-01 3.731655e-02 -2.759056e-01 5.960822e-02 1.159610e-02 1.316049e-01 3.300712e-01 1.247777e-01 -2.013644e-01 1.395705e-01 -5.255570e-01 9.704132e-02 1.699620e-01 -1.873429e-02 3.062365e-02 5.866031e-02 -5.550398e-02 -3.696388e-02 2.700120e-02 -1.097013e-01 -5.939405e-02 5.668659e-02 -4.573434e-02 2.451722e-03
<VARIANCE> 39
 2.457260e+01 4.812092e+01 4.146674e+01 5.266666e+01 3.006765e+01 5.994943e+01 4.109896e+01 3.930585e+01 3.590685e+01 3.409341e+01 2.703966e+01 2.489870e+01 4.388087e+01 1.037639e+00 1.698389e+00 1.687545e+00 1.935447e+00 1.803652e+00 1.861380e+00 1.670291e+00 1.610228e+00 2.133180e+00 1.771460e+00 1.538162e+00 1.548951e+00 5.916342e-01 1.813841e-01 2.609968e-01 2.252519e-01 2.732695e-01 3.100089e-01 3.488255e-01 2.994853e-01 3.154058e-01 4.170388e-01 3.324970e-01 2.788227e-01 2.682164e-01 9.668251e-02
<GCONST> 1.070255e+02
<STATE> 3
<MEAN> 39
 -1.337959e+01 -1.987494e+00 2.406193e+00 4.738212e-03 -8.416888e-02 -6.698123e+00 -8.259095e+00 -3.786448e+00 -6.622071e+00 -3.509060e+00 -5.002317e+00 -5.544942e+00 7.499103e+01 -2.225854e-03 4.053730e-01 -2.677382e-01 9.557873e-02 -2.523123e-01 1.649610e-01 1.008322e-01 1.700771e-01 4.048493e-02 -1.750557e-01 -1.063316e-02 2.799092e-02 -7.160432e-01 1.841488e-02 1.391108e-01 4.922037e-02 4.981939e-02 1.205206e-01 -2.480092e-02 -4.342054e-03 1.426827e-03 -1.269150e-01 -8.733237e-02 4.023387e-02 -7.506702e-02 5.139153e-02
<VARIANCE> 39
 1.597252e+01 5.546226e+01 3.152689e+01 4.446261e+01 2.780638e+01 5.575894e+01 3.980272e+01 3.146780e+01 3.435020e+01 3.027832e+01 2.406960e+01 2.042671e+01 5.391932e+01 7.068649e-01 1.246966e+00 1.301140e+00 1.532542e+00 1.407801e+00 1.481753e+00 1.716193e+00 1.572849e+00 1.752037e+00 1.437129e+00 1.322974e+00 1.243242e+00 4.335560e-01 1.497012e-01 2.162754e-01 2.338946e-01 2.526641e-01 2.517440e-01 2.862250e-01 3.081575e-01 2.721955e-01 3.315845e-01 2.693050e-01 2.328773e-01 2.596949e-01 8.318760e-02
<GCONST> 1.011228e+02
<STATE> 4
<MEAN> 39
 -1.468220e+01 4.048733e+00 3.132945e-01 -1.369594e+00 -1.742978e+00 -3.259801e+00 -5.775395e+00 -3.196436e+00 -7.879631e+00 -5.581405e+00 -4.985045e+00 -5.998448e+00 6.770370e+01 -1.018626e-01 1.943303e-01 -8.832820e-02 -1.246226e-02 5.613193e-03 8.979771e-02 3.167101e-02 8.751558e-02 -1.242614e-02 7.493440e-04 1.067755e-01 1.524979e-02 -2.785282e-01 1.751487e-02 -4.197639e-03 3.423588e-02 -9.129240e-03 5.380184e-02 -2.149806e-02 -3.056826e-02 -1.942127e-02 -2.382069e-02 -9.708259e-03 2.110467e-02 1.116928e-02 8.595276e-02
<VARIANCE> 39
 1.071508e+01 3.948196e+01 2.227121e+01 2.491620e+01 2.251863e+01 2.851786e+01 2.301113e+01 1.823239e+01 2.204530e+01 2.139552e+01 1.462628e+01 1.220902e+01 3.852592e+01 4.734192e-01 1.266817e+00 1.098805e+00 1.222967e+00 1.300940e+00 1.083056e+00 1.276155e+00 1.466485e+00 1.338739e+00 1.181385e+00 9.454234e-01 9.605755e-01 4.237321e-01 9.824446e-02 2.083582e-01 1.942399e-01 2.130200e-01 2.441915e-01 2.118249e-01 2.514778e-01 2.745936e-01 2.876116e-01 2.419630e-01 1.880142e-01 1.949691e-01 8.693564e-02
<GCONST> 9.067507e+01
<TRANSP> 5
 0.000000e+00 1.000000e+00 0.000000e+00 0.000000e+00 0.000000e+00
 0.000000e+00 6.923125e-01 3.076875e-01 0.000000e+00 0.000000e+00
 0.000000e+00 0.000000e+00 5.528041e-01 4.471959e-01 0.000000e+00
 0.000000e+00 0.000000e+00 0.000000e+00 8.290154e-01 1.709847e-01
 0.000000e+00 0.000000e+00 0.000000e+00 0.000000e+00 0.000000e+00
<ENDHMM>
~h "i"
<BEGINHMM>
<NUMSTATES> 5
<STATE> 2
<MEAN> 39
 -9.979374e+00 1.620315e-01 6.846763e+00 4.584568e+00 6.742251e+00 -1.409508e+01 -1.549789e+01 -3.433012e+00 -1.181528e+01 -6.629033e+00 -3.499513e+00 -9.028654e+00 8.021104e+01 1.935680e-01 1.672707e-01 -2.020288e-02 -1.810559e-02 6.804691e-02 4.333172e-02 -1.593657e-01 -1.169578e-01 1.288559e-01 1.384303e-01 -8.636801e-02 -3.003425e-02 1.642148e-02 1.164660e-02 -3.604074e-03 -1.619454e-01 -1.483362e-01 -1.502475e-01 1.173458e-01 1.083554e-01 -1.690131e-02 5.044260e-02 4.193629e-02 3.231449e-02 9.337611e-02 -6.159421e-02
<VARIANCE> 39
 2.247974e+01 3.012260e+01 6.032670e+01 4.776544e+01 5.002896e+01 7.859447e+01 6.838681e+01 5.056426e+01 6.626485e+01 4.218505e+01 3.721186e+01 3.488799e+01 9.778723e+01 1.339564e+00 2.324102e+00 4.029546e+00 3.680917e+00 3.823305e+00 6.462990e+00 5.171399e+00 3.048918e+00 4.940789e+00 2.963001e+00 2.740625e+00 2.830760e+00 3.051507e+00 2.197461e-01 4.054595e-01 5.981583e-01 5.701205e-01 5.973960e-01 1.010498e+00 8.656955e-01 5.613964e-01 8.865523e-01 5.827731e-01 5.147806e-01 5.297670e-01 3.883506e-01
<GCONST> 1.302938e+02
<STATE> 3
<MEAN> 39
 -8.884789e+00 1.935521e+00 2.350965e+00 6.686587e-01 3.276410e+00 -1.113810e+01 -1.243602e+01 -4.476925e+00 -9.915030e+00 -5.394804e+00 -3.960696e+00 -6.420007e+00 7.995464e+01 1.132768e-01 -1.395591e-02 -8.961312e-01 -8.560441e-01 -8.945999e-01 6.023293e-01 6.091673e-01 -7.158350e-02 1.703260e-01 1.973046e-01 2.611198e-01 6.756618e-01 -2.941663e-01 -6.365564e-02 -1.130752e-01 -3.355399e-03 7.848366e-03 -2.789594e-02 -7.256910e-02 6.613383e-02 4.790452e-02 -1.185361e-01 2.474803e-03 1.275129e-01 1.328202e-02 9.728906e-02
<VARIANCE> 39
 3.027190e+01 2.895069e+01 4.638111e+01 4.260284e+01 5.272631e+01 5.496085e+01 6.980905e+01 5.580819e+01 6.081366e+01 3.773041e+01 4.054356e+01 3.134747e+01 9.510513e+01 1.166118e+00 1.648651e+00 2.117164e+00 2.346089e+00 2.652265e+00 4.661160e+00 2.971054e+00 2.596846e+00 2.730555e+00 2.007108e+00 2.561212e+00 2.295948e+00 1.916121e+00 1.695356e-01 2.387070e-01 3.684787e-01 4.237128e-01 4.254515e-01 7.308838e-01 5.396431e-01 4.550676e-01 4.849201e-01 3.799031e-01 3.956207e-01 4.283795e-01 2.790926e-01
<GCONST> 1.202801e+02
<STATE> 4
<MEAN> 39
 -8.774307e+00 2.755724e+00 -7.010815e-01 -1.383281e+00 1.768363e+00 -8.113192e+00 -1.028771e+01 -5.250782e+00 -9.610800e+00 -4.253304e+00 -2.640998e+00 -4.084664e+00 7.687988e+01 -1.618113e-01 -1.799523e-01 -6.389970e-01 -6.082485e-01 -6.903931e-01 4.133237e-01 6.348771e-01 9.604584e-02 -1.981106e-02 1.610787e-01 4.029633e-01 4.246816e-01 -1.191736e-01 -6.123018e-02 -8.262312e-02 5.447193e-02 9.754376e-03 2.870049e-02 -8.336136e-02 -2.829178e-03 3.321139e-02 -5.743846e-02 2.816536e-02 3.981481e-02 -7.387231e-02 1.286935e-01
<VARIANCE> 39
 2.614220e+01 2.774410e+01 3.801954e+01 3.603783e+01 4.946810e+01 4.473383e+01 5.678183e+01 4.643175e+01 4.354542e+01 3.213262e+01 4.155338e+01 2.410285e+01 1.017629e+02 7.737789e-01 1.489963e+00 1.477288e+00 2.395258e+00 2.369379e+00 2.493046e+00 2.311570e+00 1.982301e+00 1.883707e+00 1.600810e+00 2.277540e+00 1.682174e+00 1.640425e+00 1.343153e-01 2.252317e-01 2.649801e-01 4.058616e-01 4.186191e-01 5.231384e-01 4.025567e-01 3.646908e-01 3.617932e-01 3.116934e-01 3.815928e-01 3.132387e-01 2.656198e-01
<GCONST> 1.126898e+02
<TRANSP> 5
 0.000000e+00 1.000000e+00 0.000000e+00 0.000000e+00 0.000000e+00
 0.000000e+00 8.652738e-01 1.347262e-01 0.000000e+00 0.000000e+00
 0.000000e+00 0.000000e+00 5.176601e-01 4.823400e-01 0.000000e+00
 0.000000e+00 0.000000e+00 0.000000e+00 6.214673e-01 3.785327e-01
 0.000000e+00 0.000000e+00 0.000000e+00 0.000000e+00 0.000000e+00
<ENDHMM>
~h "j"
<BEGINHMM>
<NUMSTATES> 5
<STATE> 2
<MEAN> 39
 -1.319570e+01 -4.479969e-02 8.187655e+00 2.730954e+00 8.341228e+00 -6.387032e+00 -1.412236e+01 -2.715148e+00 -8.527097e+00 -7.879732e+00 -2.596390e+00 -6.320112e+00 8.165282e+01 1.292388e-01 -1.117170e-01 2.257440e-01 8.475914e-02 2.910488e-01 2.117821e-01 -3.183505e-01 -3.996555e-01 6.724427e-02 -2.533986e-01 -1.012249e-01 5.675984e-02 4.529148e-01 1.078576e-01 6.736626e-02 -9.385321e-02 -4.823958e-02 -5.098638e-02 -2.490777e-03 8.067860e-02 -2.378567e-02 -9.958693e-02 -5.176125e-02 -3.063961e-02 2.538138e-02 -5.013416e-02
<VARIANCE> 39
 6.198059e+01 3.928298e+01 4.862202e+01 3.557055e+01 4.411935e+01 4.098477e+01 6.971506e+01 4.848392e+01 7.254537e+01 7.298816e+01 2.781288e+01 3.564184e+01 7.865905e+01 8.652537e+00 5.233943e+00 4.489824e+00 3.310303e+00 3.610076e+00 3.384345e+00 6.520590e+00 5.025747e+00 6.003948e+00 5.307577e+00 3.010234e+00 3.082070e+00 5.450440e+00 1.655154e+00 1.142064e+00 9.021431e-01 5.948168e-01 6.535544e-01 6.851275e-01 1.282649e+00 8.385599e-01 1.002322e+00 1.044110e+00 6.440591e-01 5.632296e-01 1.068184e+00
<GCONST> 1.406650e+02
<STATE> 3
<MEAN> 39
 -8.493483e+00 6.716514e-02 6.787379e+00 1.121166e+00 8.446452e+00 -3.737731e+00 -1.590621e+01 -9.464721e+00 -1.137833e+01 -1.221060e+01 -3.721424e+00 -5.490008e+00 8.516837e+01 8.334255e-01 8.218985e-01 -9.286873e-01 -9.890290e-01 -8.275229e-01 -1.263291e-02 1.557721e+00 1.499055e-01 -8.660184e-01 -3.794884e-01 -3.436785e-01 3.025125e-01 -5.052885e-01 -4.010207e-01 -5.921495e-02 1.955653e-01 -1.621689e-01 -1.335752e-01 -2.877174e-02 2.017395e-01 3.239285e-01 3.465352e-01 2.101805e-01 -1.516072e-01 -6.609262e-02 -8.311690e-02
<VARIANCE> 39
 3.074524e+01 2.777794e+01 2.991910e+01 1.840284e+01 3.346614e+01 2.640649e+01 6.706300e+01 4.796961e+01 4.033152e+01 1.062275e+02 3.095965e+01 3.151974e+01 3.755344e+01 3.038194e+00 1.294790e+00 1.708868e+00 1.549840e+00 1.486422e+00 1.620107e+00 2.707496e+00 3.028072e+00 4.031024e+00 2.556794e+00 1.860751e+00 1.674454e+00 6.067309e-01 5.340840e-01 2.489376e-01 3.581040e-01 2.687347e-01 3.132179e-01 2.926983e-01 4.481438e-01 5.248126e-01 6.068009e-01 5.778297e-01 3.493202e-01 2.368389e-01 1.215936e-01
<GCONST> 1.129235e+02
<STATE> 4
<MEAN> 39
 -7.635882e+00 3.554342e+00 4.319605e+00 -2.720669e+00 5.410044e+00 -3.172506e+00 -8.874739e+00 -7.009590e+00 -1.265348e+01 -1.324323e+01 -6.702843e+00 -5.463046e+00 8.206810e+01 -2.889453e-01 4.235775e-01 -3.518712e-01 -1.138645e+00 -9.219263e-01 1.319110e-02 1.634401e+00 7.152230e-01 1.161990e-01 5.146001e-01 -4.522332e-01 -1.703672e-01 -7.259100e-01 -2.257473e-01 -1.693036e-01 8.236550e-02 4.752002e-02 -3.391054e-02 -1.383508e-02 -1.216111e-01 1.343428e-02 2.220850e-01 1.929900e-01 1.186181e-02 -9.898812e-02 -5.307569e-02
<VARIANCE> 39
 2.217209e+01 2.899440e+01 2.188813e+01 2.089317e+01 2.869826e+01 2.942709e+01 8.406227e+01 4.221753e+01 2.984262e+01 1.034588e+02 3.630727e+01 2.932784e+01 3.726745e+01 1.728455e+00 2.278870e+00 1.023536e+00 1.451108e+00 1.528956e+00 2.180818e+00 2.774049e+00 1.761680e+00 2.546795e+00 3.473147e+00 1.683897e+00 2.207814e+00 6.296839e-01 2.656202e-01 3.063379e-01 2.110579e-01 2.522264e-01 2.690926e-01 3.400006e-01 4.769997e-01 3.248887e-01 4.013277e-01 6.009938e-01 2.886556e-01 1.935746e-01 7.711567e-02
<GCONST> 1.088262e+02
<TRANSP> 5
 0.000000e+00 1.000000e+00 0.000000e+00 0.000000e+00 0.000000e+00
 0.000000e+00 9.450951e-01 5.490495e-02 0.000000e+00 0.000000e+00
 0.000000e+00 0.000000e+00 6.413810e-01 3.586190e-01 0.000000e+00
 0.000000e+00 0.000000e+00 0.000000e+00 6.513494e-01 3.486506e-01
 0.000000e+00 0.000000e+00 0.000000e+00 0.000000e+00 0.000000e+00
<ENDHMM>
~h "k"
<BEGINHMM>
<NUMSTATES> 5
<STATE> 2
<MEAN> 39
 -1.088666e+01 -1.917905e+00 -3.513826e+00 -7.158153e+00 -8.720537e-01 -1.078828e+01 -1.040970e+01 -5.461671e+00 -1.293159e+01 -2.642941e+00 1.170852e+00 -4.160763e+00 8.107430e+01 -3.636962e-01 8.133584e-02 3.714821e-01 6.241778e-02 3.529462e-01 2.309843e-01 -2.798350e-02 -1.301954e-01 -5.363060e-02 -3.866512e-02 -3.021681e-02 1.089304e-02 -2.696562e-01 4.542466e-02 1.935547e-02 -2.768312e-02 -1.362330e-02 -9.908043e-02 4.406096e-02 5.309178e-02 5.867883e-02 5.107541e-02 -1.341619e-02 -7.291823e-02 3.757036e-02 -7.076671e-02
<VARIANCE> 39
 6.013631e+01 2.792888e+01 5.054976e+01 3.883687e+01 4.042107e+01 7.296821e+01 5.633692e+01 3.386131e+01 8.858379e+01 3.157143e+01 2.977582e+01 1.962633e+01 1.587935e+02 4.592423e+00 2.730770e+00 3.753943e+00 3.999834e+00 4.336428e+00 5.326013e+00 3.545331e+00 3.088454e+00 5.231635e+00 2.812005e+00 2.563453e+00 2.130459e+00 5.548894e+00 8.930051e-01 5.282823e-01 7.186202e-01 7.365189e-01 7.749329e-01 1.068972e+00 7.050972e-01 5.863852e-01 1.015823e+00 5.703610e-01 5.086516e-01 4.252126e-01 8.716236e-01
<GCONST> 1.338008e+02
<STATE> 3
<MEAN> 39
 -1.161651e+01 -1.358478e+00 -3.728113e+00 -6.389113e+00 -5.749675e-01 -1.009633e+01 -1.234513e+01 -5.657025e+00 -1.183528e+01 -2.642967e+00 1.756675e+00 -3.635105e+00 7.858485e+01 -1.852098e-01 1.054863e-01 3.233259e-02 9.238697e-02 5.169564e-02 2.186976e-01 -3.039619e-03 -6.285663e-02 2.010230e-02 -2.829120e-03 -7.548966e-02 1.205887e-01 -4.589859e-01 3.550773e-02 -1.079255e-02 -6.261344e-02 -3.189679e-02 -7.910524e-02 -2.978233e-02 4.653034e-02 3.774048e-02 5.291495e-03 9.326555e-03 -1.666749e-02 2.360072e-03 2.949543e-02
<VARIANCE> 39
 4.883672e+01 2.279113e+01 3.612695e+01 3.763728e+01 3.912559e+01 5.621928e+01 3.866360e+01 3.147108e+01 6.509938e+01 3.125744e+01 2.567838e+01 2.150242e+01 1.843428e+02 4.392861e+00 2.282090e+00 3.372293e+00 3.419177e+00 4.133450e+00 5.253273e+00 3.222012e+00 2.873573e+00 4.497756e+00 2.771296e+00 2.685696e+00 2.344640e+00 5.629285e+00 8.363015e-01 4.649128e-01 6.483300e-01 6.579770e-01 7.906659e-01 1.013512e+00 6.749645e-01 5.390634e-01 8.269807e-01 5.970073e-01 5.503402e-01 4.708818e-01 9.330899e-01
<GCONST> 1.308460e+02
<STATE> 4
<MEAN> 39
 -1.263786e+01 -1.006931e+00 -2.811003e+00 -7.011989e+00 -5.615788e-01 -1.056687e+01 -1.215361e+01 -6.163124e+00 -1.251100e+01 -2.860998e+00 1.647747e+00 -4.019160e+00 7.985490e+01 -6.728698e-02 4.597912e-02 1.365849e-01 -4.147378e-02 4.000422e-02 -3.222066e-02 1.506500e-01 2.402967e-02 -8.984283e-02 -9.907526e-02 -1.346992e-01 -8.896250e-02 1.723032e-01 5.225972e-02 -6.429491e-03 2.691903e-02 2.501624e-02 -3.005768e-03 -1.972963e-02 1.786125e-02 2.188771e-02 -1.780539e-02 -2.593994e-02 -2.609580e-02 -2.340708e-02 5.947203e-02
<VARIANCE> 39
 5.967178e+01 1.947057e+01 4.105798e+01 4.246085e+01 4.061946e+01 4.961938e+01 3.510686e+01 3.440720e+01 4.564935e+01 3.483784e+01 2.332272e+01 2.254883e+01 1.543846e+02 6.205484e+00 1.920305e+00 3.131568e+00 3.636865e+00 3.271104e+00 3.876207e+00 2.802581e+00 2.512481e+00 3.458907e+00 2.588487e+00 2.254720e+00 2.118334e+00 4.334466e+00 1.146604e+00 3.960201e-01 5.622514e-01 7.242547e-01 6.158473e-01 7.625766e-01 5.844783e-01 4.814842e-01 6.545562e-01 5.244045e-01 4.672706e-01 4.079663e-01 7.126735e-01
<GCONST> 1.274277e+02
<TRANSP> 5
 0.000000e+00 1.000000e+00 0.000000e+00 0.000000e+00 0.000000e+00
 0.000000e+00 8.327602e-01 1.672399e-01 0.000000e+00 0.000000e+00
 0.000000e+00 0.000000e+00 8.106977e-01 1.893023e-01 0.000000e+00
 0.000000e+00 0.000000e+00 0.000000e+00 9.161025e-01 8.389747e-02
 0.000000e+00 0.000000e+00 0.000000e+00 0.000000e+00 0.000000e+00
<ENDHMM>
~h "l"
<BEGINHMM>
<NUMSTATES> 5
<STATE> 2
<MEAN> 39
 -1.634012e+01 3.440344e+00 -2.352469e+00 -5.464027e+00 -3.224828e+00 -3.485355e+00 -6.786270e+00 -3.249981e+00 -8.223342e+00 -4.649180e+00 -2.849112e+00 -4.669284e+00 6.866219e+01 -2.244363e-01 -1.553303e-01 1.954912e-01 -1.083607e-01 -7.611503e-02 3.081568e-03 5.124661e-03 -8.404902e-02 1.632482e-02 1.203879e-01 1.607261e-02 -1.865138e-02 6.875680e-02 -3.453549e-02 -7.740531e-02 8.922274e-02 -4.546105e-02 5.249311e-03 -5.027836e-02 -7.647764e-03 -1.078553e-02 -2.959616e-03 2.835068e-03 1.012846e-02 3.297749e-03 8.947869e-02
<VARIANCE> 39
 2.539540e+01 1.893410e+01 1.803779e+01 1.739644e+01 1.931294e+01 2.239806e+01 2.032130e+01 1.778438e+01 2.357006e+01 2.251855e+01 1.616116e+01 1.352432e+01 1.310023e+02 8.532101e-01 1.008634e+00 1.333105e+00 1.384771e+00 1.365032e+00 1.425239e+00 1.674219e+00 1.530479e+00 1.526845e+00 1.371676e+00 1.209427e+00 1.090831e+00 7.481601e-01 1.741930e-01 2.000109e-01 2.463328e-01 2.783381e-01 2.822452e-01 3.161803e-01 3.205357e-01 2.962400e-01 3.015940e-01 2.843310e-01 2.533165e-01 2.256471e-01 1.269601e-01
<GCONST> 9.670358e+01
<STATE> 3
<MEAN> 39
 -1.716607e+01 1.476712e+00 -9.018328e-01 -5.733085e+00 -2.700447e+00 -4.065151e+00 -7.050598e+00 -3.538796e+00 -8.410825e+00 -4.013509e+00 -2.948704e+00 -4.685191e+00 7.034515e+01 -3.210729e-01 -5.104523e-01 5.711329e-01 -4.782124e-01 -2.065752e-01 -1.692150e-01 8.957009e-02 -1.383734e-01 -2.115285e-02 2.283119e-01 1.328534e-01 3.999116e-02 5.428578e-01 -5.594622e-02 -1.258653e-01 1.737184e-01 -6.950205e-02 1.430185e-02 -9.488095e-02 -9.915537e-03 1.032378e-02 -1.200452e-02 2.955857e-03 2.868288e-02 1.416409e-02 2.150467e-01
<VARIANCE> 39
 4.243205e+01 2.320182e+01 2.469650e+01 2.191904e+01 2.411962e+01 2.812620e+01 2.412552e+01 2.333814e+01 3.208634e+01 2.811814e+01 1.831634e+01 1.645963e+01 1.520030e+02 1.795253e+00 1.800383e+00 2.435733e+00 2.201770e+00 1.830239e+00 1.952777e+00 2.217019e+00 2.193831e+00 1.795303e+00 1.702404e+00 1.452163e+00 1.302742e+00 1.530232e+00 3.503504e-01 3.499403e-01 4.026085e-01 4.029634e-01 4.298822e-01 4.242161e-01 4.061657e-01 4.219510e-01 3.896617e-01 3.339336e-01 2.927233e-01 2.739194e-01 2.758271e-01
<GCONST> 1.099084e+02
<STATE> 4
<MEAN> 39
 -1.666170e+01 9.698430e-01 -4.521439e-02 -6.759572e+00 -3.666251e+00 -5.281810e+00 -5.694256e+00 -3.429424e+00 -9.185085e+00 -4.094171e+00 -2.844611e+00 -4.717842e+00 7.247205e+01 -6.077371e-03 -4.535124e-01 5.621374e-01 -4.124838e-01 -2.391446e-01 -2.625069e-01 8.899833e-02 -1.200363e-01 -9.571768e-02 1.692791e-01 1.369458e-01 5.085547e-02 8.750579e-01 -5.434165e-02 -6.433135e-02 3.565554e-02 9.538413e-03 3.277828e-02 -3.600962e-02 2.028975e-04 7.114171e-02 1.798651e-02 1.900828e-03 4.542378e-02 9.173688e-03 1.308443e-01
<VARIANCE> 39
 6.567536e+01 2.895369e+01 3.433788e+01 2.860370e+01 3.144450e+01 4.592855e+01 3.923783e+01 3.846710e+01 3.949799e+01 3.272951e+01 2.357531e+01 2.081050e+01 1.330095e+02 3.534178e+00 2.674424e+00 3.538542e+00 2.748229e+00 2.468758e+00 2.896814e+00 2.771081e+00 2.910564e+00 2.749413e+00 2.369496e+00 1.886332e+00 1.701553e+00 2.825688e+00 5.094317e-01 4.940209e-01 6.018744e-01 4.891965e-01 4.983028e-01 5.016487e-01 5.510828e-01 5.002099e-01 5.068080e-01 4.009955e-01 3.617309e-01 3.324050e-01 3.982796e-01
<GCONST> 1.217079e+02
<TRANSP> 5
 0.000000e+00 1.000000e+00 0.000000e+00 0.000000e+00 0.000000e+00
 0.000000e+00 7.069619e-01 2.930381e-01 0.000000e+00 0.000000e+00
 0.000000e+00 0.000000e+00 3.508530e-01 6.491469e-01 0.000000e+00
 0.000000e+00 0.000000e+00 0.000000e+00 5.193219e-01 4.806782e-01
 0.000000e+00 0.000000e+00 0.000000e+00 0.000000e+00 0.000000e+00
<ENDHMM>
~h "m"
<BEGINHMM>
<NUMSTATES> 5
<STATE> 2
<MEAN> 39
 -5.600841e+00 1.434478e+00 -3.557485e+00 -5.452035e+00 -9.420509e-01 -9.565013e+00 -4.169899e+00 7.771320e-01 -1.059703e+01 -6.335334e+00 -2.232048e+00 -5.847873e+00 8.193894e+01 -9.096317e-02 5.870561e-02 -3.377621e-02 8.367316e-02 1.323696e-01 5.842634e-01 3.322626e-01 -1.561311e-01 6.454968e-02 1.300314e-01 8.347701e-02 2.086605e-02 -4.120973e-01 -7.085853e-02 4.363560e-03 1.380972e-02 -1.439149e-02 -2.144012e-02 5.958678e-02 -8.503641e-03 -3.165178e-02 2.952426e-02 2.276628e-02 2.492987e-02 2.163342e-02 -5.713565e-02
<VARIANCE> 39
 1.767128e+01 2.235848e+01 5.473727e+01 3.715956e+01 5.385895e+01 5.879270e+01 9.210612e+01 6.088747e+01 6.151080e+01 4.456884e+01 4.400029e+01 3.147982e+01 8.533852e+01 4.508218e-01 1.048884e+00 2.071254e+00 1.974596e+00 2.395396e+00 2.174566e+00 2.266172e+00 1.939119e+00 1.664148e+00 1.407585e+00 2.370826e+00 1.733461e+00 9.223726e-01 7.846585e-02 1.560711e-01 2.664160e-01 3.029446e-01 4.059919e-01 3.456316e-01 3.934238e-01 3.177461e-01 2.782141e-01 2.696674e-01 3.497581e-01 3.109101e-01 9.809403e-02
<GCONST> 1.094438e+02
<STATE> 3
<MEAN> 39
 -7.166158e+00 2.328866e+00 -3.898413e+00 -5.359227e+00 2.739307e-01 -6.554009e+00 -2.982364e+00 -1.293192e+00 -1.058235e+01 -4.607804e+00 -1.695699e+00 -5.166931e+00 8.052278e+01 -2.158094e-01 1.280645e-01 6.686805e-02 3.433355e-02 6.159930e-02 6.430236e-01 1.176599e-01 -2.073090e-01 1.798508e-01 1.602877e-01 8.622127e-02 1.565826e-01 -6.471404e-01 -3.552947e-02 2.271496e-02 8.534191e-03 -2.945235e-02 -7.217187e-02 -4.955266e-02 -3.156520e-02 1.697085e-02 2.082446e-02 -2.477665e-02 -1.429496e-02 3.364776e-02 -3.031524e-02
<VARIANCE> 39
 1.469613e+01 2.378808e+01 4.178646e+01 2.771255e+01 5.343885e+01 4.831456e+01 9.096070e+01 4.037495e+01 4.594695e+01 3.813469e+01 4.105537e+01 3.164443e+01 1.104246e+02 3.974555e-01 8.877351e-01 1.224307e+00 1.330838e+00 1.709094e+00 1.543948e+00 1.581601e+00 1.301113e+00 1.319989e+00 1.177793e+00 1.697239e+00 1.388615e+00 5.468843e-01 5.468724e-02 1.404158e-01 1.813567e-01 2.336328e-01 3.163111e-01 2.676726e-01 2.855324e-01 2.272758e-01 2.257353e-01 2.391734e-01 2.676981e-01 2.492348e-01 6.687126e-02
<GCONST> 1.002634e+02
<STATE> 4
<MEAN> 39
 -1.049109e+01 4.083977e+00 -3.430666e+00 -4.963034e+00 -5.475410e-01 -2.367419e+00 -2.342329e+00 -2.488682e+00 -8.863600e+00 -4.639593e+00 -1.956048e+00 -4.017673e+00 7.511703e+01 -2.789389e-01 9.878268e-02 6.087282e-02 4.546516e-02 -4.126434e-02 2.407488e-01 -1.070624e-01 -5.624707e-02 1.215352e-01 3.264973e-02 1.019985e-03 3.053624e-02 -5.376395e-01 -1.427580e-02 -2.413375e-02 -4.710232e-03 2.727423e-03 -1.968398e-02 -4.702719e-02 -8.310309e-03 -3.438416e-03 -1.032480e-02 -3.401636e-03 -5.018939e-03 -2.188653e-03 2.464922e-02
<VARIANCE> 39
 1.673319e+01 2.112115e+01 2.188909e+01 2.047016e+01 4.242257e+01 3.274459e+01 5.502690e+01 2.401894e+01 2.791834e+01 2.568565e+01 2.841117e+01 2.021445e+01 1.518065e+02 3.105158e-01 8.378838e-01 8.965571e-01 9.525085e-01 1.337532e+00 1.257108e+00 1.248750e+00 9.995376e-01 1.270667e+00 1.095241e+00 1.221452e+00 1.020219e+00 3.936782e-01 5.698116e-02 1.437889e-01 1.493100e-01 1.767299e-01 2.202496e-01 2.199118e-01 2.173131e-01 1.929777e-01 2.408810e-01 2.097519e-01 2.164372e-01 1.922829e-01 5.151480e-02
<GCONST> 9.111052e+01
<TRANSP> 5
 0.000000e+00 1.000000e+00 0.000000e+00 0.000000e+00 0.000000e+00
 0.000000e+00 7.138336e-01 2.861664e-01 0.000000e+00 0.000000e+00
 0.000000e+00 0.000000e+00 6.367202e-01 3.632798e-01 0.000000e+00
 0.000000e+00 0.000000e+00 0.000000e+00 8.996828e-01 1.003172e-01
 0.000000e+00 0.000000e+00 0.000000e+00 0.000000e+00 0.000000e+00
<ENDHMM>
~h "n"
<BEGINHMM>
<NUMSTATES> 5
<STATE> 2
<MEAN> 39
 -5.569686e+00 2.627183e+00 -1.552990e+00 -4.464369e+00 -1.066210e-01 -9.846849e+00 -8.852335e+00 -1.731075e+00 -8.439712e+00 -4.561488e+00 -2.057436e+00 -5.144296e+00 8.357684e+01 3.712868e-02 1.143967e-01 -4.850564e-02 -1.242309e-02 -5.023568e-02 1.239624e-01 2.651656e-01 1.491019e-01 1.571669e-01 -9.065183e-02 -1.143491e-02 4.419721e-02 -1.921265e-01 -4.850350e-02 -5.983056e-03 -4.996477e-03 -3.662939e-02 -4.825561e-02 2.362625e-03 4.666587e-02 -9.102374e-03 -2.253651e-02 7.401012e-03 2.554946e-02 1.002598e-02 -1.712534e-02
<VARIANCE> 39
 1.402877e+01 2.348744e+01 3.359033e+01 2.826591e+01 5.441721e+01 6.083822e+01 7.185922e+01 8.102773e+01 4.784256e+01 4.680410e+01 4.613235e+01 2.590408e+01 8.499085e+01 5.123842e-01 8.730733e-01 1.457086e+00 1.517066e+00 1.719673e+00 2.147328e+00 1.963343e+00 2.010780e+00 1.628025e+00 1.169104e+00 2.272882e+00 1.552635e+00 1.319991e+00 5.979589e-02 1.280046e-01 2.036070e-01 2.322187e-01 2.525284e-01 3.310214e-01 3.007656e-01 3.366554e-01 2.585127e-01 2.058865e-01 4.057875e-01 2.651027e-01 1.035859e-01
<GCONST> 1.050718e+02
<STATE> 3
<MEAN> 39
 -6.599161e+00 4.232312e+00 -1.911937e+00 -3.906621e+00 -2.462027e-01 -7.971647e+00 -6.637272e+00 -1.225239e+00 -8.333129e+00 -4.753324e+00 -2.113901e+00 -4.482907e+00 7.941542e+01 -2.702065e-01 1.212960e-01 4.296592e-02 -2.327112e-02 -1.466668e-01 2.245795e-01 2.806402e-01 2.603450e-02 1.127533e-01 4.156885e-02 -1.063609e-02 4.943138e-02 -5.660748e-01 -3.108153e-02 -3.224807e-03 3.393290e-02 1.346638e-03 -4.159276e-03 -9.494628e-03 -5.480886e-02 -4.424434e-02 -1.505970e-02 1.789034e-02 -4.698945e-03 -1.891518e-02 -1.491951e-02
<VARIANCE> 39
 1.196093e+01 1.918691e+01 3.573592e+01 2.584978e+01 5.708187e+01 6.052332e+01 6.725851e+01 5.908739e+01 3.587954e+01 3.107217e+01 3.727129e+01 2.123465e+01 8.765161e+01 3.048317e-01 6.379569e-01 1.123281e+00 1.161888e+00 1.476261e+00 1.543740e+00 1.461123e+00 1.429869e+00 1.245006e+00 1.008299e+00 1.363743e+00 1.199354e+00 5.212082e-01 3.265701e-02 9.512645e-02 1.656236e-01 1.881888e-01 2.154847e-01 2.474474e-01 2.438512e-01 2.698915e-01 2.205496e-01 1.962039e-01 2.456540e-01 2.040899e-01 6.539727e-02
<GCONST> 9.504199e+01
<STATE> 4
<MEAN> 39
 -1.120314e+01 5.218390e+00 -1.210537e+00 -3.594461e+00 -1.711745e+00 -4.165122e+00 -5.479689e+00 -1.107623e+00 -7.141851e+00 -4.678301e+00 -2.954637e+00 -4.518164e+00 7.013290e+01 -2.839623e-01 -8.775672e-02 -2.698228e-02 -6.647514e-02 -1.141181e-01 5.169370e-02 -4.339458e-02 -6.944333e-02 4.812310e-02 4.914674e-02 1.263083e-02 1.752458e-02 -2.753140e-01 1.241084e-02 -1.188864e-02 3.510260e-03 9.183988e-04 9.432915e-03 -2.249834e-02 -2.878076e-02 -1.330343e-02 -7.132687e-03 -1.381423e-02 -5.197270e-03 -9.798932e-03 3.160926e-02
<VARIANCE> 39
 2.265853e+01 1.591635e+01 1.896151e+01 1.776602e+01 4.575727e+01 4.533969e+01 3.673398e+01 3.320077e+01 2.582708e+01 2.186876e+01 2.237725e+01 1.465478e+01 7.562628e+01 4.768144e-01 7.301530e-01 9.044514e-01 8.468218e-01 1.382900e+00 1.395872e+00 1.100835e+00 1.236399e+00 1.214310e+00 1.085086e+00 1.251751e+00 8.927219e-01 5.026846e-01 6.247048e-02 1.170698e-01 1.478288e-01 1.519643e-01 2.215328e-01 2.353006e-01 2.120765e-01 2.290659e-01 2.278024e-01 2.189586e-01 2.377076e-01 1.734663e-01 4.865592e-02
<GCONST> 9.002485e+01
<TRANSP> 5
 0.000000e+00 1.000000e+00 0.000000e+00 0.000000e+00 0.000000e+00
 0.000000e+00 8.046524e-01 1.953476e-01 0.000000e+00 0.000000e+00
 0.000000e+00 0.000000e+00 7.187653e-01 2.812347e-01 0.000000e+00
 0.000000e+00 0.000000e+00 0.000000e+00 8.972614e-01 1.027387e-01
 0.000000e+00 0.000000e+00 0.000000e+00 0.000000e+00 0.000000e+00
<ENDHMM>
~h "o"
<BEGINHMM>
<NUMSTATES> 5
<STATE> 2
<MEAN> 39
 -3.323261e+00 4.100819e+00 -1.914822e+00 -9.460252e+00 -9.816442e+00 -1.495598e+01 -3.258298e+00 5.324549e+00 -3.553716e+00 -5.161331e+00 -1.653318e+00 -5.581466e+00 7.978516e+01 -1.550917e-01 2.721591e-01 1.819784e-01 1.497823e-01 -1.441975e-02 4.418899e-01 -3.622736e-02 -1.963216e-01 1.772603e-01 3.470719e-01 3.259571e-02 -4.170155e-02 -6.425645e-01 -4.876221e-02 -3.584591e-03 -1.433393e-02 3.066630e-02 7.821794e-02 5.905188e-02 -3.497206e-02 -4.814423e-02 -1.934034e-02 4.511360e-03 -2.661330e-03 1.510945e-02 -4.551006e-02
<VARIANCE> 39
 1.176539e+01 1.093244e+01 1.910089e+01 3.413084e+01 3.065740e+01 9.028487e+01 9.437666e+01 3.890776e+01 3.609352e+01 2.878279e+01 2.818053e+01 3.062768e+01 6.240669e+01 3.305726e-01 4.965171e-01 5.105957e-01 7.512576e-01 1.032310e+00 1.796694e+00 1.135988e+00 1.084019e+00 1.101249e+00 8.001420e-01 1.007362e+00 7.365280e-01 3.847024e-01 3.449542e-02 8.623166e-02 8.031242e-02 1.376979e-01 1.652027e-01 2.466668e-01 1.972975e-01 1.680379e-01 1.850741e-01 1.308907e-01 1.710495e-01 1.229703e-01 3.415535e-02
<GCONST> 8.578095e+01
<STATE> 3
<MEAN> 39
 -6.705221e+00 6.827032e+00 -8.204827e-01 -8.642176e+00 -7.872474e+00 -8.354684e+00 -3.878730e+00 2.573642e+00 -1.925593e+00 -3.153409e+00 -1.887748e+00 -4.635206e+00 7.452531e+01 -4.777799e-01 7.908706e-02 -5.391565e-02 1.839405e-01 1.904913e-01 4.379523e-01 -2.282770e-01 -2.630153e-01 1.047591e-01 2.512264e-01 4.113771e-02 1.007175e-01 -7.565947e-01 -1.414609e-02 -4.979742e-02 -1.263759e-02 -5.223086e-03 1.437956e-02 -8.603510e-02 -2.483184e-02 -2.363560e-02 -8.958952e-02 -5.746802e-02 -2.157724e-02 -8.225338e-03 4.340325e-02
<VARIANCE> 39
 7.395464e+00 1.173900e+01 2.013109e+01 2.880442e+01 2.348218e+01 4.432204e+01 6.740410e+01 1.806883e+01 2.820703e+01 3.508562e+01 1.555134e+01 1.914597e+01 8.665910e+01 2.470360e-01 5.815938e-01 7.286511e-01 6.748394e-01 1.057898e+00 1.239277e+00 1.006005e+00 7.640783e-01 1.004628e+00 1.119795e+00 7.588710e-01 7.078024e-01 2.223405e-01 3.453195e-02 9.258687e-02 9.952980e-02 1.252898e-01 1.891525e-01 2.328755e-01 1.664222e-01 1.331551e-01 2.183553e-01 1.724459e-01 1.518875e-01 1.229419e-01 2.942736e-02
<GCONST> 8.111474e+01
<STATE> 4
<MEAN> 39
 -1.191313e+01 4.757949e+00 -1.673764e+00 -4.624160e+00 -6.200141e+00 -6.233063e+00 -7.130159e+00 3.441329e-01 -3.353873e+00 -1.146696e+00 -1.794367e+00 -3.789848e+00 6.483866e+01 -3.218513e-01 -1.061908e-01 -4.774052e-02 4.498766e-02 1.097594e-01 1.177255e-01 -9.279205e-02 -8.444856e-02 -9.261274e-02 3.443360e-03 1.037388e-02 6.188003e-03 -2.388732e-01 9.665973e-03 -9.859523e-03 2.142200e-02 1.397697e-03 3.872146e-03 -4.706657e-03 9.478265e-03 5.091256e-03 -2.042020e-02 4.771029e-03 -4.975418e-03 -1.439360e-02 2.961432e-02
<VARIANCE> 39
 2.291733e+01 1.596022e+01 1.451499e+01 1.416303e+01 2.088553e+01 3.544450e+01 3.219084e+01 1.961662e+01 2.029254e+01 1.976135e+01 1.462134e+01 1.124517e+01 4.156147e+01 2.956174e-01 3.735700e-01 5.340306e-01 5.613910e-01 8.650288e-01 9.690627e-01 9.291241e-01 8.246593e-01 9.923179e-01 8.194555e-01 9.288260e-01 8.015754e-01 2.400476e-01 3.484698e-02 6.860338e-02 9.959090e-02 9.215119e-02 1.374203e-01 1.687028e-01 1.766679e-01 1.569827e-01 1.859827e-01 1.510164e-01 1.898189e-01 1.525199e-01 1.970973e-02
<GCONST> 7.588631e+01
<TRANSP> 5
 0.000000e+00 1.000000e+00 0.000000e+00 0.000000e+00 0.000000e+00
 0.000000e+00 9.312148e-01 6.878527e-02 0.000000e+00 0.000000e+00
 0.000000e+00 0.000000e+00 7.596611e-01 2.403390e-01 0.000000e+00
 0.000000e+00 0.000000e+00 0.000000e+00 9.350704e-01 6.492957e-02
 0.000000e+00 0.000000e+00 0.000000e+00 0.000000e+00 0.000000e+00
<ENDHMM>
~h "p"
<BEGINHMM>
<NUMSTATES> 5
<STATE> 2
<MEAN> 39
 -6.392191e+00 1.049292e+00 -5.158810e+00 -5.608839e+00 -5.654877e+00 -1.146412e+01 -6.551444e+00 2.137814e-01 -8.853819e+00 -2.622086e+00 -1.204001e+00 -5.356337e+00 7.888134e+01 9.766826e-04 8.656047e-02 -1.161290e-01 3.198446e-02 -3.909088e-02 2.069500e-02 -5.052193e-02 -1.824724e-01 1.563297e-01 1.192248e-01 1.290507e-02 6.341098e-02 -2.401415e-01 7.190907e-03 -2.806595e-02 2.754115e-02 -6.639048e-02 2.596803e-03 1.318279e-02 -1.944343e-02 -2.128794e-02 -6.238257e-02 -7.463797e-02 -4.352442e-02 -1.877994e-02 7.136090e-02
<VARIANCE> 39
 3.378453e+01 3.452327e+01 3.081260e+01 3.028238e+01 6.260161e+01 7.509439e+01 4.149350e+01 5.525060e+01 5.340800e+01 5.179879e+01 2.861687e+01 3.285411e+01 1.156882e+02 2.896425e+00 2.722774e+00 2.087635e+00 2.195068e+00 3.087710e+00 4.021791e+00 2.644674e+00 2.823066e+00 3.684458e+00 2.831152e+00 2.174668e+00 2.660562e+00 5.232046e+00 5.070577e-01 3.928576e-01 3.684892e-01 3.642890e-01 5.050636e-01 6.828706e-01 4.501387e-01 5.211341e-01 6.539777e-01 4.955954e-01 4.021208e-01 4.427281e-01 6.854784e-01
<GCONST> 1.257983e+02
<STATE> 3
<MEAN> 39
 -7.498559e+00 1.694116e+00 -4.737095e+00 -5.518554e+00 -3.661421e+00 -9.336576e+00 -8.097085e+00 -2.163038e+00 -8.908096e+00 -2.868580e+00 -8.586634e-01 -4.790382e+00 7.753266e+01 -6.687913e-02 1.269007e-01 4.767276e-02 -5.068921e-02 -3.429075e-02 2.659757e-01 -1.579577e-01 -5.477890e-02 2.640692e-01 -2.347279e-01 -1.927903e-01 -3.810221e-02 -1.747868e-01 1.340742e-03 -1.953106e-02 3.188292e-02 -1.711039e-02 2.107724e-02 1.329732e-02 1.676230e-02 5.455307e-02 1.657427e-02 -8.224519e-04 -2.589134e-02 -6.351922e-02 6.869245e-02
<VARIANCE> 39
 2.980402e+01 2.937635e+01 2.790924e+01 2.735850e+01 4.971899e+01 5.504877e+01 4.600266e+01 5.020269e+01 5.498319e+01 5.643890e+01 3.160248e+01 3.170602e+01 1.167695e+02 2.427569e+00 2.506319e+00 2.130550e+00 1.734299e+00 3.009543e+00 3.417060e+00 2.624734e+00 2.465255e+00 3.666512e+00 2.786942e+00 2.390913e+00 2.348392e+00 5.658904e+00 3.985151e-01 3.862523e-01 3.724198e-01 3.083797e-01 5.416133e-01 5.961680e-01 4.787602e-01 4.798317e-01 7.037786e-01 5.016151e-01 4.576693e-01 4.228595e-01 6.920792e-01
<GCONST> 1.238646e+02
<STATE> 4
<MEAN> 39
 -8.522314e+00 2.904361e+00 -3.743111e+00 -5.014151e+00 -3.614648e+00 -7.532882e+00 -6.760611e+00 -1.354518e+00 -7.407298e+00 -4.441847e+00 -3.157979e+00 -5.174009e+00 7.559544e+01 -9.268276e-02 -1.259937e-01 -6.020138e-02 -1.637804e-01 -1.233866e-01 -7.145349e-03 3.155220e-02 1.571940e-01 1.235022e-01 -8.427477e-02 -2.330790e-02 -7.690309e-02 3.440558e-01 1.359470e-03 -3.669861e-02 1.485828e-02 1.494455e-02 5.033794e-02 -4.677538e-02 6.268969e-02 1.978272e-03 -1.082215e-01 4.745404e-02 6.455358e-02 -1.164556e-02 8.147306e-02
<VARIANCE> 39
 3.232690e+01 3.845817e+01 4.425828e+01 3.382296e+01 5.129606e+01 6.248977e+01 6.171608e+01 4.630960e+01 5.071883e+01 3.895676e+01 3.237005e+01 2.689889e+01 1.205974e+02 2.683077e+00 3.116574e+00 3.291260e+00 2.568371e+00 3.496403e+00 4.548164e+00 3.145932e+00 2.517170e+00 3.924464e+00 2.373494e+00 2.022813e+00 2.152677e+00 6.362345e+00 4.778065e-01 4.445133e-01 5.107915e-01 4.375889e-01 5.905482e-01 7.331129e-01 5.365538e-01 4.762166e-01 6.901324e-01 4.610236e-01 3.787126e-01 3.606004e-01 8.989103e-01
<GCONST> 1.274501e+02
<TRANSP> 5
 0.000000e+00 1.000000e+00 0.000000e+00 0.000000e+00 0.000000e+00
 0.000000e+00 7.998066e-01 2.001934e-01 0.000000e+00 0.000000e+00
 0.000000e+00 0.000000e+00 7.301030e-01 2.698970e-01 0.000000e+00
 0.000000e+00 0.000000e+00 0.000000e+00 8.525271e-01 1.474728e-01
 0.000000e+00 0.000000e+00 0.000000e+00 0.000000e+00 0.000000e+00
<ENDHMM>
~h "r"
<BEGINHMM>
<NUMSTATES> 5
<STATE> 2
<MEAN> 39
 -7.376001e+00 -8.064873e-01 -5.505983e+00 -4.469429e+00 2.983378e-01 -1.118085e+01 -1.102684e+01 -5.544247e+00 -1.220092e+01 -2.412403e-01 2.702271e+00 -4.147980e+00 8.026472e+01 -2.285828e-01 4.809508e-01 2.156444e-01 2.812051e-01 2.371624e-01 2.954045e-01 2.014074e-01 -7.146309e-02 3.549172e-02 -2.593694e-01 -2.317389e-01 -5.166672e-02 -7.804514e-01 -6.231401e-02 7.522183e-02 9.379952e-02 1.027212e-02 -4.646331e-02 1.015201e-01 1.056667e-01 7.094612e-02 1.042057e-01 -8.948429e-02 -1.243281e-01 -6.814908e-02 1.359069e-02
<VARIANCE> 39
 2.039633e+01 2.802583e+01 2.584296e+01 2.668398e+01 3.184061e+01 5.650112e+01 4.499703e+01 4.872030e+01 5.450365e+01 6.071994e+01 2.508377e+01 2.561526e+01 9.005891e+01 1.299572e+00 1.808010e+00 2.205711e+00 2.027892e+00 2.420421e+00 3.254123e+00 2.266164e+00 2.326389e+00 3.470631e+00 2.241455e+00 2.164494e+00 1.989636e+00 2.919452e+00 2.712171e-01 3.054892e-01 4.089510e-01 3.273094e-01 4.214758e-01 6.802906e-01 4.293484e-01 4.574288e-01 6.883487e-01 4.278752e-01 3.993778e-01 4.240703e-01 4.925233e-01
<GCONST> 1.183966e+02
<STATE> 3
<MEAN> 39
 -8.392775e+00 9.883578e-01 -4.057477e+00 -3.788230e+00 7.331407e-01 -9.729410e+00 -9.178575e+00 -4.498899e+00 -1.200003e+01 -2.205303e+00 9.507987e-01 -4.942620e+00 7.863100e+01 -2.463323e-01 4.489864e-01 4.568183e-01 2.633066e-01 1.425168e-02 3.264430e-01 3.800701e-01 2.724937e-01 2.299940e-01 -4.124393e-01 -4.542829e-01 -2.611119e-01 -4.410818e-01 6.937370e-02 -2.798455e-02 6.272348e-02 -6.694180e-03 -1.070178e-01 -3.043256e-02 1.305336e-02 8.951258e-02 4.255833e-02 -2.781389e-02 -3.696002e-02 -1.312107e-02 2.930632e-02
<VARIANCE> 39
 2.999072e+01 3.259846e+01 3.701838e+01 4.026990e+01 3.564943e+01 6.449776e+01 4.335443e+01 5.489962e+01 4.939828e+01 4.978099e+01 2.823336e+01 2.648390e+01 8.495167e+01 2.094945e+00 2.624150e+00 2.944949e+00 2.699039e+00 2.780709e+00 4.580940e+00 2.581288e+00 2.757885e+00 4.261871e+00 2.581710e+00 2.679311e+00 2.755999e+00 4.883840e+00 4.224079e-01 4.027115e-01 5.198240e-01 4.318252e-01 5.069444e-01 8.498399e-01 4.711581e-01 5.638357e-01 8.125009e-01 4.950686e-01 4.875106e-01 5.432395e-01 5.730197e-01
<GCONST> 1.262903e+02
<STATE> 4
<MEAN> 39
 -9.838140e+00 2.724886e+00 1.225752e+00 -1.588370e+00 2.111793e+00 -1.079742e+01 -7.880827e+00 -3.589673e+00 -1.348449e+01 -4.878807e+00 -2.215049e+00 -7.566192e+00 7.916788e+01 -2.866881e-02 4.682920e-02 2.183684e-01 1.467461e-01 -1.174320e-01 5.061335e-02 1.064515e-01 8.008631e-02 3.461183e-02 -1.700492e-01 -1.564875e-01 -3.835703e-02 -2.336201e-01 -3.245900e-03 -2.246213e-02 -6.301150e-02 -1.855839e-02 -3.729404e-02 8.728782e-03 -3.206987e-02 -3.698025e-02 3.878788e-02 4.973851e-02 2.022873e-02 6.048734e-02 -5.946158e-02
<VARIANCE> 39
 3.490965e+01 4.318216e+01 5.285130e+01 7.915459e+01 6.300970e+01 9.032996e+01 5.162017e+01 5.134960e+01 5.747842e+01 4.487020e+01 3.478823e+01 3.894811e+01 7.086343e+01 3.090522e+00 3.593691e+00 4.027697e+00 5.410591e+00 4.173388e+00 8.588520e+00 3.997299e+00 4.177149e+00 7.254335e+00 3.449585e+00 2.943506e+00 4.048147e+00 6.182058e+00 5.608363e-01 6.272743e-01 7.147287e-01 9.257869e-01 6.982369e-01 1.546467e+00 7.839394e-01 7.958677e-01 1.377540e+00 6.550964e-01 5.593585e-01 7.604954e-01 8.736658e-01
<GCONST> 1.396488e+02
<TRANSP> 5
 0.000000e+00 1.000000e+00 0.000000e+00 0.000000e+00 0.000000e+00
 0.000000e+00 6.631320e-01 3.368680e-01 0.000000e+00 0.000000e+00
 0.000000e+00 0.000000e+00 5.766103e-01 4.233898e-01 0.000000e+00
 0.000000e+00 0.000000e+00 0.000000e+00 8.764340e-01 1.235660e-01
 0.000000e+00 0.000000e+00 0.000000e+00 0.000000e+00 0.000000e+00
<ENDHMM>
~h "s"
<BEGINHMM>
<NUMSTATES> 5
<STATE> 2
<MEAN> 39
 -1.661233e+01 2.806579e+00 -1.965049e+00 -4.602131e+00 -2.719284e+00 -3.444877e+00 -7.217277e+00 -3.098747e+00 -8.698221e+00 -5.094784e+00 -3.479251e+00 -4.480150e+00 6.885383e+01 -2.305599e-01 -6.957829e-02 -2.742127e-02 -7.799558e-02 1.025447e-02 2.663162e-02 -8.626936e-03 -4.809646e-02 3.665969e-02 1.677699e-01 7.998003e-02 1.440705e-02 -2.068904e-02 -2.401404e-02 -1.708979e-02 6.210638e-02 -2.824769e-02 2.911710e-03 -3.617971e-02 3.642621e-03 -2.120150e-02 -3.211300e-02 9.603497e-03 -3.312299e-03 -8.936327e-03 6.100601e-02
<VARIANCE> 39
 3.083219e+01 2.227578e+01 2.409364e+01 2.295477e+01 1.704388e+01 1.983638e+01 1.594371e+01 1.823115e+01 2.148787e+01 1.848804e+01 1.628366e+01 1.481486e+01 1.715940e+02 7.882390e-01 7.712075e-01 1.112878e+00 1.150128e+00 1.089752e+00 1.184943e+00 1.224239e+00 1.282529e+00 1.317427e+00 1.094384e+00 1.010912e+00 8.944799e-01 5.244683e-01 2.120478e-01 1.618113e-01 2.333288e-01 2.477653e-01 2.219788e-01 2.698416e-01 2.511153e-01 2.623408e-01 2.881603e-01 2.311990e-01 2.022850e-01 1.827246e-01 1.235778e-01
<GCONST> 9.285615e+01
<STATE> 3
<MEAN> 39
 -1.793954e+01 1.914277e+00 -1.300321e+00 -5.235133e+00 -2.536588e+00 -3.367582e+00 -7.668870e+00 -3.018091e+00 -8.148963e+00 -3.853098e+00 -2.633895e+00 -4.316887e+00 6.920630e+01 -4.179725e-01 -1.451021e-01 2.316955e-01 -2.758482e-01 4.985660e-02 -7.959275e-02 3.836927e-02 -1.316656e-01 -4.138310e-02 2.376474e-01 2.391750e-02 -8.516532e-02 3.043963e-01 -4.919801e-02 -9.230670e-02 1.548810e-01 -5.962443e-02 -1.847502e-02 -3.204190e-02 -1.010617e-04 -5.745164e-02 -5.624583e-02 2.050905e-04 -1.103621e-02 -1.460366e-02 1.261739e-01
<VARIANCE> 39
 3.616597e+01 2.175277e+01 2.325359e+01 2.843287e+01 1.912510e+01 2.025303e+01 1.709007e+01 1.764141e+01 1.804000e+01 1.865192e+01 1.610763e+01 1.287168e+01 1.863938e+02 1.345518e+00 1.161035e+00 1.414086e+00 1.546256e+00 1.317445e+00 1.343329e+00 1.435522e+00 1.347595e+00 1.421701e+00 1.367452e+00 1.063963e+00 1.023061e+00 8.310491e-01 3.380505e-01 2.129267e-01 2.926801e-01 3.257676e-01 2.576394e-01 2.745886e-01 3.073281e-01 2.901806e-01 2.978834e-01 2.554851e-01 2.136392e-01 2.013500e-01 1.775461e-01
<GCONST> 9.841378e+01
<STATE> 4
<MEAN> 39
 -2.135242e+01 6.577187e-01 1.461735e+00 -7.585922e+00 -2.128192e+00 -3.080776e+00 -6.956219e+00 -3.665108e+00 -7.741898e+00 -3.551985e+00 -2.773602e+00 -4.302598e+00 7.356762e+01 -1.263377e-01 -2.604079e-01 1.512548e-01 -2.355433e-01 -1.327569e-01 -8.014597e-02 9.111323e-02 -5.531174e-02 -4.335645e-02 1.106855e-01 3.627643e-02 -9.079516e-03 3.495324e-01 1.581282e-01 -5.834183e-03 -2.649261e-02 5.244916e-02 -5.861020e-02 -3.645474e-02 -2.005167e-02 -2.861778e-02 -3.491609e-02 -1.467435e-02 1.161196e-02 1.205675e-02 -3.083093e-02
<VARIANCE> 39
 5.298451e+01 3.399338e+01 4.284983e+01 3.421789e+01 2.409806e+01 2.606066e+01 2.137062e+01 1.848171e+01 2.226037e+01 2.325230e+01 1.961618e+01 1.674626e+01 1.901475e+02 3.687058e+00 2.165097e+00 3.076871e+00 2.289185e+00 1.800477e+00 2.000812e+00 1.979910e+00 1.678748e+00 1.655536e+00 1.679234e+00 1.330735e+00 1.300019e+00 2.044793e+00 6.101684e-01 4.500811e-01 5.036438e-01 4.445026e-01 3.666824e-01 3.923571e-01 4.156228e-01 3.356738e-01 3.396081e-01 3.185885e-01 2.816993e-01 2.632470e-01 3.515333e-01
<GCONST> 1.124064e+02
<TRANSP> 5
 0.000000e+00 1.000000e+00 0.000000e+00 0.000000e+00 0.000000e+00
 0.000000e+00 7.030850e-01 2.969151e-01 0.000000e+00 0.000000e+00
 0.000000e+00 0.000000e+00 3.836159e-01 6.163840e-01 0.000000e+00
 0.000000e+00 0.000000e+00 0.000000e+00 6.506314e-01 3.493687e-01
 0.000000e+00 0.000000e+00 0.000000e+00 0.000000e+00 0.000000e+00
<ENDHMM>
~h "t"
<BEGINHMM>
<NUMSTATES> 5
<STATE> 2
<MEAN> 39
 -1.105437e+01 7.220646e-01 -1.305605e+00 -5.745862e+00 -3.111521e+00 -9.899045e+00 -6.679134e+00 -2.036908e+00 -1.075451e+01 -4.756250e+00 -1.327036e+00 -4.990333e+00 7.928108e+01 3.322605e-01 -5.180559e-02 4.977751e-02 3.524516e-02 1.586944e-01 -1.903083e-01 1.781496e-01 1.652862e-01 4.821137e-02 -1.460547e-01 -3.511772e-02 -1.002345e-01 6.786682e-01 1.130750e-01 1.023099e-01 9.457114e-03 1.408255e-02 4.910381e-02 3.523704e-02 -5.855076e-02 6.594416e-02 7.309130e-02 -6.279948e-03 -4.850449e-02 -7.299798e-02 -1.535186e-01
<VARIANCE> 39
 5.582333e+01 3.897529e+01 4.549654e+01 5.019432e+01 5.839801e+01 7.437292e+01 6.384935e+01 5.979841e+01 4.956490e+01 4.511302e+01 3.021735e+01 2.553008e+01 1.162672e+02 3.555344e+00 3.605983e+00 3.231249e+00 3.322381e+00 3.313992e+00 4.784468e+00 3.575027e+00 4.313584e+00 4.109649e+00 3.079129e+00 3.121760e+00 2.433251e+00 7.085625e+00 6.031263e-01 5.292312e-01 4.757011e-01 5.167612e-01 5.527391e-01 7.686557e-01 5.905933e-01 7.784919e-01 7.347785e-01 5.420685e-01 5.122845e-01 3.849252e-01 8.586333e-01
<GCONST> 1.329092e+02
<STATE> 3
<MEAN> 39
 -8.622142e+00 1.311522e+00 -1.552996e+00 -4.900911e+00 -1.991335e+00 -1.064475e+01 -7.275308e+00 -7.306733e-01 -1.031489e+01 -4.409152e+00 -1.503145e+00 -6.037148e+00 7.950564e+01 1.291317e-01 1.990418e-01 7.518563e-03 1.091086e-01 2.125231e-01 2.814819e-01 1.505988e-02 2.043812e-01 4.181022e-01 1.107156e-01 -8.154395e-02 -1.878387e-01 -4.332022e-01 -9.078602e-02 1.051729e-02 7.250451e-03 -2.375640e-02 -1.393366e-02 4.328042e-02 -4.280559e-02 -1.036100e-01 -1.413338e-03 -1.590658e-03 -1.557957e-02 4.490084e-02 -4.950424e-02
<VARIANCE> 39
 3.486189e+01 3.850908e+01 4.882156e+01 5.473038e+01 5.790058e+01 6.323964e+01 7.161317e+01 5.538305e+01 6.556969e+01 4.416925e+01 3.323172e+01 3.160907e+01 1.159851e+02 1.636498e+00 2.218641e+00 2.373944e+00 1.961177e+00 2.907148e+00 3.469989e+00 2.855310e+00 2.850418e+00 3.196967e+00 1.983983e+00 2.324714e+00 2.143157e+00 3.057782e+00 2.727104e-01 3.644270e-01 3.708589e-01 3.199579e-01 4.462804e-01 5.509884e-01 5.331030e-01 5.436753e-01 5.575943e-01 4.082671e-01 4.239352e-01 3.836131e-01 4.486923e-01
<GCONST> 1.235700e+02
<STATE> 4
<MEAN> 39
 -8.875429e+00 2.002829e+00 -1.586680e+00 -5.582180e+00 -2.075852e+00 -1.028463e+01 -7.466882e+00 -8.527547e-01 -9.584228e+00 -4.265055e+00 -1.726428e+00 -6.064682e+00 7.851105e+01 -8.780581e-02 1.080940e-01 -6.438314e-02 4.585050e-02 7.097813e-02 2.387949e-01 -4.754667e-02 -9.698465e-02 2.171289e-01 -1.670594e-02 -6.263828e-02 -4.402673e-03 -3.285989e-01 -4.606673e-02 -4.531785e-03 4.294828e-02 2.072170e-02 1.508099e-02 8.986037e-03 -3.223003e-02 -8.649617e-02 -1.039299e-01 -4.763934e-02 2.612970e-03 5.860767e-02 6.213088e-02
<VARIANCE> 39
 2.834384e+01 4.174181e+01 4.697566e+01 5.214500e+01 4.911757e+01 5.326479e+01 6.982027e+01 4.592896e+01 6.319403e+01 3.686831e+01 2.861845e+01 2.962907e+01 1.205500e+02 9.159864e-01 1.447972e+00 1.616943e+00 1.492999e+00 2.488355e+00 2.477608e+00 2.223890e+00 2.252485e+00 2.302618e+00 1.760450e+00 1.759910e+00 1.615331e+00 1.773177e+00 1.752133e-01 2.767732e-01 2.907320e-01 2.712291e-01 4.339416e-01 3.992203e-01 4.286815e-01 3.988161e-01 4.154843e-01 3.417036e-01 3.214956e-01 2.879970e-01 3.221238e-01
<GCONST> 1.148485e+02
<TRANSP> 5
 0.000000e+00 1.000000e+00 0.000000e+00 0.000000e+00 0.000000e+00
 0.000000e+00 6.465384e-01 3.534617e-01 0.000000e+00 0.000000e+00
 0.000000e+00 0.000000e+00 4.175687e-01 5.824313e-01 0.000000e+00
 0.000000e+00 0.000000e+00 0.000000e+00 5.497984e-01 4.502017e-01
 0.000000e+00 0.000000e+00 0.000000e+00 0.000000e+00 0.000000e+00
<ENDHMM>
~h "u"
<BEGINHMM>
<NUMSTATES> 5
<STATE> 2
<MEAN> 39
 -8.030313e+00 6.795858e+00 3.099081e+00 -3.843564e+00 2.648879e+00 -1.113119e+01 -7.003880e+00 -1.627967e+00 -1.471607e+01 -8.504456e+00 -6.284447e+00 -9.212942e+00 7.839758e+01 4.650278e-02 1.767635e-01 1.337035e-01 1.710867e-01 -6.126621e-02 -2.112788e-01 6.987673e-02 2.566140e-01 4.897205e-02 1.835558e-01 -2.730859e-02 -1.765657e-01 -1.722644e-01 -6.081688e-02 -1.128740e-01 -7.622398e-02 1.084109e-02 -6.949493e-02 8.192767e-02 -5.245909e-02 -6.819295e-02 1.313614e-01 1.227946e-01 1.120889e-01 9.141152e-02 -5.840673e-02
<VARIANCE> 39
 2.252370e+01 4.639906e+01 2.732665e+01 5.004524e+01 5.042712e+01 6.349860e+01 5.601226e+01 5.316205e+01 6.695159e+01 6.616465e+01 3.754845e+01 5.248921e+01 8.026950e+01 1.491010e+00 2.433192e+00 1.784444e+00 2.809113e+00 3.285598e+00 4.513064e+00 2.958408e+00 3.327587e+00 3.966966e+00 4.008473e+00 2.419096e+00 2.665320e+00 1.944957e+00 2.491284e-01 3.772023e-01 2.839920e-01 4.028077e-01 5.248455e-01 7.005728e-01 5.583366e-01 5.537144e-01 7.494379e-01 7.781969e-01 4.615483e-01 3.909258e-01 3.045788e-01
<GCONST> 1.253198e+02
<STATE> 3
<MEAN> 39
 -8.306960e+00 5.939453e+00 3.148329e+00 -2.457459e+00 1.768623e+00 -1.154084e+01 -7.914602e+00 -1.669740e+00 -1.300081e+01 -7.423770e+00 -5.417321e+00 -8.643604e+00 7.777549e+01 -1.264716e-01 -2.187345e-01 -2.675036e-01 1.523302e-01 -2.427033e-01 -3.981814e-02 -6.870893e-02 3.896019e-02 4.287864e-01 4.358674e-01 2.781681e-01 1.814599e-01 -2.445392e-01 -5.099927e-02 -1.142900e-01 -1.111239e-01 -6.324785e-02 -1.512190e-02 9.588021e-02 -6.191371e-02 -7.579143e-02 9.792413e-02 4.403687e-02 3.932506e-02 3.641295e-02 4.795019e-02
<VARIANCE> 39
 2.116547e+01 3.949697e+01 3.244481e+01 4.837543e+01 4.554795e+01 7.427310e+01 5.396064e+01 5.212569e+01 6.037771e+01 4.988248e+01 3.874928e+01 4.831171e+01 9.106069e+01 9.501916e-01 1.627070e+00 1.631980e+00 2.229026e+00 2.407500e+00 3.888170e+00 2.477789e+00 2.728098e+00 3.059309e+00 2.535156e+00 1.871609e+00 2.275630e+00 1.428146e+00 1.809946e-01 2.741754e-01 2.955122e-01 3.782907e-01 3.946686e-01 6.508267e-01 4.436740e-01 4.831507e-01 5.767879e-01 5.190250e-01 3.668913e-01 3.300033e-01 1.995331e-01
<GCONST> 1.185948e+02
<STATE> 4
<MEAN> 39
 -9.272799e+00 6.449840e+00 2.499124e+00 -3.399959e+00 -1.533045e-01 -1.032474e+01 -7.053462e+00 -1.968673e+00 -1.153020e+01 -6.423404e+00 -5.885474e+00 -9.020939e+00 7.560546e+01 -1.840149e-01 -3.841726e-01 -4.330973e-01 5.208401e-03 -1.338934e-01 1.394004e-01 -1.239936e-01 -5.527773e-02 4.359222e-01 3.259916e-01 2.768998e-01 2.542632e-01 -1.646295e-01 -8.855121e-03 -6.759831e-02 -3.354615e-02 -3.046760e-02 3.303144e-02 2.331390e-02 6.020753e-03 -2.081534e-02 -1.361107e-02 -2.287209e-02 8.136665e-03 2.434184e-02 6.377944e-02
<VARIANCE> 39
 2.062805e+01 4.182116e+01 3.418652e+01 4.574491e+01 5.173562e+01 7.119958e+01 5.828379e+01 4.750707e+01 5.000848e+01 3.951138e+01 3.451927e+01 4.640684e+01 1.017516e+02 7.237703e-01 1.328841e+00 1.644973e+00 1.678907e+00 1.833103e+00 2.383726e+00 2.143513e+00 2.437611e+00 2.440617e+00 2.136173e+00 1.534439e+00 1.813278e+00 1.219596e+00 1.255077e-01 2.408982e-01 2.618416e-01 3.032352e-01 3.032304e-01 4.153676e-01 3.821625e-01 4.324855e-01 4.300966e-01 3.881792e-01 2.664657e-01 3.023125e-01 1.628623e-01
<GCONST> 1.124707e+02
<TRANSP> 5
 0.000000e+00 1.000000e+00 0.000000e+00 0.000000e+00 0.000000e+00
 0.000000e+00 7.179418e-01 2.820582e-01 0.000000e+00 0.000000e+00
 0.000000e+00 0.000000e+00 5.366941e-01 4.633059e-01 0.000000e+00
 0.000000e+00 0.000000e+00 0.000000e+00 7.013927e-01 2.986073e-01
 0.000000e+00 0.000000e+00 0.000000e+00 0.000000e+00 0.000000e+00
<ENDHMM>
~h "y"
<BEGINHMM>
<NUMSTATES> 5
<STATE> 2
<MEAN> 39
 -1.415456e+01 6.985943e-01 -7.748129e-01 -7.356561e+00 -4.786213e+00 -6.507636e+00 -1.527740e+00 -4.229959e+00 -1.099048e+01 -2.250619e+00 -2.450899e+00 -5.034348e+00 7.634234e+01 1.224291e+00 -3.594745e-01 -2.026449e-01 -2.025743e-02 -2.247727e-01 -8.921214e-01 1.435001e-01 -1.195347e-02 -5.489612e-01 2.326481e-01 3.816951e-01 1.593930e-01 2.230930e+00 2.094877e-01 -7.668183e-02 -2.075064e-01 1.040142e-02 -2.927031e-02 -8.635946e-02 -2.070608e-01 6.336793e-03 3.958505e-02 6.036586e-02 8.387832e-02 3.943019e-02 2.165463e-01
<VARIANCE> 39
 5.579781e+01 3.349973e+01 3.471027e+01 2.913800e+01 4.021375e+01 4.705781e+01 3.728646e+01 3.874780e+01 3.902819e+01 5.003565e+01 2.074794e+01 2.028390e+01 8.312944e+01 3.547737e+00 3.827789e+00 3.208327e+00 2.424199e+00 3.039723e+00 3.498772e+00 3.035595e+00 2.900396e+00 3.582398e+00 3.022184e+00 1.948222e+00 1.922487e+00 3.212615e+00 7.010778e-01 6.530158e-01 5.106850e-01 4.900394e-01 6.086296e-01 6.912757e-01 5.184190e-01 5.087579e-01 5.745693e-01 5.617832e-01 3.574630e-01 3.142156e-01 6.942751e-01
<GCONST> 1.250123e+02
<STATE> 3
<MEAN> 39
 -7.736975e+00 -1.909560e+00 -3.906134e+00 -7.078979e+00 -6.291759e+00 -1.020577e+01 -2.413649e+00 -2.610079e+00 -1.166274e+01 -1.712626e+00 -1.180476e-02 -4.404282e+00 8.578230e+01 1.028576e+00 -8.031790e-01 -1.154737e+00 4.211428e-01 1.829455e-01 -1.018327e+00 -5.869945e-01 2.079658e-01 6.373045e-02 7.002118e-01 5.652497e-01 2.623523e-02 1.875221e+00 -2.879442e-01 5.634514e-02 4.658536e-02 1.727968e-01 2.305587e-01 -1.006830e-02 -1.923900e-01 -1.338753e-01 1.406797e-01 1.366825e-01 -6.651485e-02 -2.379928e-02 -3.806674e-01
<VARIANCE> 39
 3.133360e+01 3.436076e+01 3.572791e+01 2.661424e+01 3.913250e+01 5.467348e+01 4.156935e+01 5.406993e+01 5.456109e+01 6.826622e+01 2.284887e+01 2.544530e+01 4.700756e+01 2.863565e+00 2.481685e+00 2.042151e+00 2.207736e+00 2.415478e+00 2.813344e+00 2.762682e+00 2.915057e+00 3.317162e+00 2.756154e+00 1.789949e+00 1.933502e+00 2.903247e+00 3.935062e-01 5.914013e-01 4.957302e-01 4.068317e-01 3.964727e-01 5.157906e-01 5.606033e-01 4.688463e-01 5.531684e-01 5.897496e-01 3.596227e-01 3.893727e-01 3.286596e-01
<GCONST> 1.211491e+02
<STATE> 4
<MEAN> 39
 -6.832769e+00 -4.247712e+00 -4.252953e+00 8.354995e-01 6.945918e-01 -1.930929e+01 -1.159056e+01 -5.763981e+00 -1.245870e+01 7.315631e-01 1.153097e+00 -6.019490e+00 8.868126e+01 -5.113402e-02 -8.254126e-03 9.511553e-03 1.938032e-02 2.420266e-01 7.896423e-04 -2.963072e-01 -1.300516e-01 2.350626e-02 1.049509e-01 6.154396e-02 -2.568153e-02 -3.418988e-02 -1.832039e-02 3.734259e-02 3.370454e-02 -6.364530e-02 -4.463538e-02 9.998304e-02 5.365396e-02 2.578837e-02 3.754901e-03 -5.952748e-02 -1.500069e-02 7.963679e-03 -7.015581e-02
<VARIANCE> 39
 1.645079e+01 1.401067e+01 2.970731e+01 4.828428e+01 5.872274e+01 5.305923e+01 5.209605e+01 5.793100e+01 8.674039e+01 8.146786e+01 3.351942e+01 4.552752e+01 2.064908e+01 5.816571e-01 6.778826e-01 2.026446e+00 2.905365e+00 2.883553e+00 2.971714e+00 2.155242e+00 2.028764e+00 2.349191e+00 2.309563e+00 1.819675e+00 2.530969e+00 5.208323e-01 8.901995e-02 9.405584e-02 2.485780e-01 2.552802e-01 2.830478e-01 2.960463e-01 2.976993e-01 3.356411e-01 3.431505e-01 4.019804e-01 2.703232e-01 4.385321e-01 5.803817e-02
<GCONST> 1.074125e+02
<TRANSP> 5
 0.000000e+00 1.000000e+00 0.000000e+00 0.000000e+00 0.000000e+00
 0.000000e+00 6.837264e-01 3.162735e-01 0.000000e+00 0.000000e+00
 0.000000e+00 0.000000e+00 6.392893e-01 3.607107e-01 0.000000e+00
 0.000000e+00 0.000000e+00 0.000000e+00 9.557489e-01 4.425110e-02
 0.000000e+00 0.000000e+00 0.000000e+00 0.000000e+00 0.000000e+00
<ENDHMM>
~h "ay"
<BEGINHMM>
<NUMSTATES> 5
<STATE> 2
<MEAN> 39
 -2.725027e+01 -4.034955e+00 7.738706e+00 -1.031228e+01 -3.586716e+00 -2.440498e+00 -6.399791e+00 -4.394199e+00 -7.167190e+00 -1.043436e+00 -1.765056e+00 -3.878028e+00 7.241525e+01 -1.423706e+00 -7.493498e-01 1.181442e+00 -1.005601e+00 9.339777e-02 -6.554413e-02 1.746136e-01 1.007395e-01 1.686259e-01 2.443939e-01 2.752700e-01 1.861244e-01 1.696318e+00 6.604456e-02 1.697178e-01 -2.149897e-01 8.382107e-02 1.197636e-01 -3.400112e-02 -2.608846e-02 8.011518e-02 -2.940981e-02 -6.525902e-02 -4.184572e-02 9.214316e-03 -4.210114e-02
<VARIANCE> 39
 4.696883e+01 2.835176e+01 5.437645e+01 3.741007e+01 2.287566e+01 2.228355e+01 3.217114e+01 3.080890e+01 3.411440e+01 2.381113e+01 1.524075e+01 1.429402e+01 1.717784e+02 3.046565e+00 3.125942e+00 4.760204e+00 2.694216e+00 2.130943e+00 2.247125e+00 2.233746e+00 2.282383e+00 2.303920e+00 1.721066e+00 1.423552e+00 1.229390e+00 2.367489e+00 6.164227e-01 5.159719e-01 7.999724e-01 4.981876e-01 3.630644e-01 4.322982e-01 4.360879e-01 4.435856e-01 4.023008e-01 3.354958e-01 2.775013e-01 2.368516e-01 4.264561e-01
<GCONST> 1.165140e+02
<STATE> 3
<MEAN> 39
 -3.011910e+01 -6.166120e+00 1.030756e+01 -1.290894e+01 -3.200718e+00 -3.801280e+00 -5.897291e+00 -3.476846e+00 -7.342956e+00 -2.960856e-01 -1.002619e+00 -3.355953e+00 7.984921e+01 -5.419017e-01 -1.954530e-01 1.390371e-01 -4.391221e-01 3.440999e-01 -3.178793e-01 -2.897271e-02 1.337320e-01 -7.451156e-02 3.053247e-02 -4.518345e-03 1.783044e-01 1.287936e+00 5.138547e-01 2.523185e-01 -4.192314e-01 2.649097e-01 3.865531e-02 -1.128090e-01 -6.245608e-02 -8.461584e-02 -5.911392e-02 -1.103210e-01 -1.492730e-01 -3.542865e-02 -2.656818e-01
<VARIANCE> 39
 4.189249e+01 2.260008e+01 4.689421e+01 3.347410e+01 2.753333e+01 3.566910e+01 4.662217e+01 4.048818e+01 4.247659e+01 2.472025e+01 1.635493e+01 1.403488e+01 1.191400e+02 5.563457e+00 2.916680e+00 5.240752e+00 2.726070e+00 2.213409e+00 3.106262e+00 2.592656e+00 3.137010e+00 2.236635e+00 2.014734e+00 1.807439e+00 1.249941e+00 2.255649e+00 6.028480e-01 5.177190e-01 6.241050e-01 4.363765e-01 4.134163e-01 6.629540e-01 5.165845e-01 6.794235e-01 4.716007e-01 3.905368e-01 3.428719e-01 2.514012e-01 2.694806e-01
<GCONST> 1.198378e+02
<STATE> 4
<MEAN> 39
 -2.598323e+01 -4.609830e+00 6.798737e+00 -1.201792e+01 -1.656332e+00 -6.852209e+00 -7.694925e+00 -4.926864e+00 -7.483143e+00 -1.265592e+00 -2.257569e+00 -2.831979e+00 8.194497e+01 1.922108e+00 4.447981e-01 -7.295864e-01 5.320598e-01 -1.767885e-01 -9.017485e-01 -1.683717e-01 -3.008675e-01 -3.878863e-01 -5.769614e-01 -4.529845e-01 -6.877709e-02 3.035626e-01 5.079660e-01 1.340618e-01 -1.401819e-01 1.024949e-01 -2.147389e-01 -5.436004e-02 1.128382e-03 5.928477e-02 -1.134552e-01 -1.373180e-01 4.867927e-03 -8.173231e-02 -8.139851e-02
<VARIANCE> 39
 8.654500e+01 2.938708e+01 5.716761e+01 3.684393e+01 4.001699e+01 4.641488e+01 5.214540e+01 4.153354e+01 4.700584e+01 2.905748e+01 2.437168e+01 1.701415e+01 1.271652e+02 8.470845e+00 4.382576e+00 4.163750e+00 3.314902e+00 3.465657e+00 4.706861e+00 4.157746e+00 4.735028e+00 4.326838e+00 2.917457e+00 2.566308e+00 1.806519e+00 2.004605e+00 9.142558e-01 9.642050e-01 7.095339e-01 5.987031e-01 6.290705e-01 9.796958e-01 8.398849e-01 1.018393e+00 8.888726e-01 5.574571e-01 4.972685e-01 3.458722e-01 3.660657e-01
<GCONST> 1.321570e+02
<TRANSP> 5
 0.000000e+00 1.000000e+00 0.000000e+00 0.000000e+00 0.000000e+00
 0.000000e+00 7.521866e-01 2.478134e-01 0.000000e+00 0.000000e+00
 0.000000e+00 0.000000e+00 7.217522e-01 2.782478e-01 0.000000e+00
 0.000000e+00 0.000000e+00 0.000000e+00 8.279053e-01 1.720947e-01
 0.000000e+00 0.000000e+00 0.000000e+00 0.000000e+00 0.000000e+00
<ENDHMM>
~h "ny"
<BEGINHMM>
<NUMSTATES> 5
<STATE> 2
<MEAN> 39
 -1.002272e+01 -1.864910e-01 -4.713183e+00 -1.626668e+00 3.774104e+00 -3.567102e+00 -6.054932e+00 -5.249497e+00 -7.674777e+00 -1.115883e+00 2.762770e+00 -1.963224e+00 7.414762e+01 -1.957406e-01 1.675715e-01 -4.557460e-02 -1.530316e-01 -5.315276e-01 1.152354e+00 5.056720e-01 -2.167076e-01 -2.771784e-01 -3.456148e-01 -4.764166e-02 1.125690e-01 -1.096308e+00 -2.537497e-02 6.029024e-02 7.081599e-02 7.661749e-02 -1.329985e-02 -1.619126e-01 -6.825389e-02 1.025056e-01 -1.388659e-02 -2.837043e-03 -8.803791e-02 -6.045999e-02 -8.364423e-03
<VARIANCE> 39
 6.926827e+00 3.117543e+01 1.433415e+01 2.595258e+01 3.776634e+01 3.689253e+01 5.175115e+01 2.451809e+01 5.794862e+01 1.581600e+01 2.646430e+01 3.455050e+01 7.234084e+01 2.817672e-01 1.776927e+00 9.403206e-01 1.317280e+00 1.614006e+00 1.409274e+00 1.921599e+00 1.510300e+00 1.520375e+00 1.316375e+00 2.024660e+00 1.181509e+00 2.703865e-01 4.893487e-02 2.729630e-01 1.627489e-01 2.488720e-01 3.057580e-01 1.851789e-01 2.988166e-01 2.685551e-01 2.167972e-01 2.734578e-01 2.956432e-01 2.179761e-01 3.634705e-02
<GCONST> 9.514618e+01
<STATE> 3
<MEAN> 39
 -1.108707e+01 -8.744590e-01 -4.558416e+00 -2.505944e+00 -2.652955e+00 -1.914158e-01 -3.501848e+00 -5.056804e+00 -1.032180e+01 -3.562594e+00 -5.798566e-01 -1.541579e+00 6.940327e+01 -2.916022e-01 7.587772e-01 7.847707e-02 1.954193e-02 -3.453285e-01 1.294882e-01 -1.483735e-01 1.911662e-01 4.636421e-02 -2.579902e-01 -2.963669e-01 -2.238393e-01 -8.984839e-01 -3.079137e-02 6.233939e-02 4.437152e-02 -3.185304e-02 1.296555e-01 -1.374910e-01 -2.391027e-03 5.024497e-02 4.860922e-02 1.021570e-01 5.564341e-02 -3.352938e-02 6.924826e-02
<VARIANCE> 39
 5.958610e+00 2.975976e+01 1.425688e+01 1.826833e+01 4.318852e+01 1.433812e+01 3.297658e+01 1.577153e+01 2.587592e+01 1.328679e+01 2.125800e+01 2.047458e+01 4.438903e+01 2.093466e-01 1.369131e+00 6.438056e-01 7.710584e-01 1.152232e+00 1.330827e+00 1.504210e+00 1.226289e+00 1.108760e+00 1.119018e+00 1.219635e+00 1.041665e+00 1.923938e-01 4.096757e-02 1.733205e-01 1.144245e-01 1.680563e-01 1.615150e-01 2.343424e-01 2.621617e-01 2.497886e-01 1.780377e-01 1.986835e-01 2.255021e-01 1.676555e-01 2.308565e-02
<GCONST> 8.342120e+01
<STATE> 4
<MEAN> 39
 -1.419318e+01 6.128315e+00 -2.685716e+00 -3.257199e+00 -3.023123e+00 -1.128675e+00 -5.401034e+00 -3.882412e+00 -9.045847e+00 -5.474738e+00 -3.382289e+00 -5.075883e+00 6.502943e+01 -2.167933e-01 2.194183e-01 6.970344e-02 -5.577078e-02 -6.794446e-02 -8.524083e-02 -1.427414e-01 7.081053e-02 1.171156e-01 -3.809609e-02 -8.841564e-02 -8.964978e-02 -2.524500e-01 -3.056777e-03 -6.210483e-02 2.225409e-02 -5.083792e-03 1.358121e-02 -1.483475e-02 2.297008e-02 9.001365e-04 -9.249515e-03 4.931174e-03 6.902863e-03 1.299477e-02 5.949568e-02
<VARIANCE> 39
 6.479871e+00 1.308553e+01 1.045806e+01 9.487390e+00 1.284157e+01 1.155955e+01 1.856649e+01 9.616798e+00 1.137194e+01 1.524650e+01 1.653831e+01 1.455412e+01 1.227476e+01 1.364048e-01 4.919319e-01 3.963608e-01 6.087444e-01 7.487864e-01 7.912057e-01 8.325898e-01 7.474395e-01 8.558403e-01 8.709317e-01 6.619549e-01 7.512573e-01 1.360158e-01 2.566871e-02 6.951877e-02 7.393434e-02 1.299568e-01 1.408041e-01 1.532681e-01 1.565589e-01 1.489618e-01 1.685772e-01 1.892531e-01 1.466241e-01 1.495315e-01 1.620911e-02
<GCONST> 6.598240e+01
<TRANSP> 5
 0.000000e+00 1.000000e+00 0.000000e+00 0.000000e+00 0.000000e+00
 0.000000e+00 8.537883e-01 1.462117e-01 0.000000e+00 0.000000e+00
 0.000000e+00 0.000000e+00 6.733074e-01 3.266926e-01 0.000000e+00
 0.000000e+00 0.000000e+00 0.000000e+00 9.280066e-01 7.199340e-02
 0.000000e+00 0.000000e+00 0.000000e+00 0.000000e+00 0.000000e+00
<ENDHMM>
~h "sil"
<BEGINHMM>
<NUMSTATES> 5
<STATE> 2
<MEAN> 39
 -1.614667e+01 2.340161e+00 -2.539821e+00 -3.567026e+00 -3.326190e+00 -3.123773e+00 -7.757844e+00 -2.629953e+00 -7.405833e+00 -4.911116e+00 -2.880586e+00 -3.523015e+00 6.582455e+01 -6.579028e-02 2.851777e-02 8.662960e-03 7.364015e-02 -1.041114e-02 3.855162e-02 9.086339e-03 6.616107e-03 -8.077737e-03 1.212640e-02 -3.502129e-02 -1.555703e-02 -1.309479e-01 5.079674e-03 -1.955597e-03 5.487084e-03 2.238548e-03 9.747893e-03 1.945518e-03 8.770751e-03 6.627831e-03 3.235614e-03 8.697074e-03 2.291937e-03 -3.811235e-03 1.447252e-02
<VARIANCE> 39
 7.254816e+00 1.415330e+01 1.332158e+01 1.809452e+01 1.548380e+01 1.372736e+01 1.616565e+01 1.301733e+01 1.376443e+01 1.476236e+01 1.161198e+01 1.087973e+01 1.045536e+02 1.533170e-01 2.772095e-01 3.801757e-01 5.122810e-01 6.166559e-01 6.707469e-01 8.321729e-01 8.426963e-01 8.363320e-01 8.019884e-01 7.088003e-01 6.745633e-01 1.040279e-01 2.362355e-02 4.532764e-02 6.846135e-02 9.094375e-02 1.151458e-01 1.290029e-01 1.568060e-01 1.575112e-01 1.587526e-01 1.486005e-01 1.335806e-01 1.261306e-01 1.258066e-02
<GCONST> 6.583789e+01
<STATE> 3
<MEAN> 39
 -1.709041e+01 2.490868e+00 -2.457726e+00 -2.788873e+00 -2.693789e+00 -2.323345e+00 -7.184985e+00 -2.175645e+00 -7.009999e+00 -4.571759e+00 -3.028318e+00 -3.754817e+00 6.394367e+01 -2.350868e-02 -5.455457e-03 9.649671e-03 3.773924e-02 1.628432e-02 1.843602e-02 1.402749e-02 8.453766e-03 -2.741832e-03 1.864488e-02 -3.088097e-02 -2.097119e-02 -3.569335e-02 -4.300085e-03 -5.439512e-03 3.440562e-03 -1.430190e-02 1.564448e-03 -7.145932e-03 -5.462706e-03 -8.240523e-03 -4.552469e-03 1.846165e-03 2.190978e-03 1.473723e-03 1.367643e-02
<VARIANCE> 39
 4.059049e+00 8.638893e+00 9.976978e+00 1.343046e+01 1.117689e+01 8.934317e+00 1.121732e+01 1.010945e+01 1.064361e+01 1.102699e+01 9.118367e+00 9.032853e+00 7.958448e+01 1.653204e-01 2.522856e-01 4.104195e-01 5.979191e-01 6.463223e-01 7.060759e-01 7.910338e-01 8.658550e-01 9.360452e-01 8.724302e-01 8.006866e-01 7.356044e-01 8.601020e-02 3.420106e-02 5.299747e-02 8.671201e-02 1.237945e-01 1.364710e-01 1.487759e-01 1.680059e-01 1.826658e-01 1.979266e-01 1.826189e-01 1.683651e-01 1.532796e-01 1.822450e-02
<GCONST> 6.487969e+01
<STATE> 4
<MEAN> 39
 -1.780570e+01 2.641973e+00 -2.100657e+00 -3.728919e+00 -3.120835e+00 -2.665423e+00 -7.493289e+00 -2.387147e+00 -7.528406e+00 -5.109952e+00 -3.131200e+00 -3.776473e+00 6.454946e+01 -4.438294e-02 -2.533920e-02 3.312256e-02 -4.836738e-02 6.975229e-03 1.096487e-03 -1.949286e-02 -3.228861e-02 4.104704e-02 8.600639e-03 2.649047e-02 -1.509070e-02 2.617936e-02 -9.717413e-03 1.135517e-03 1.067590e-02 -1.479162e-02 4.374876e-03 1.604063e-05 6.722070e-04 -9.887996e-03 2.247162e-03 1.095462e-02 1.296657e-02 2.102093e-03 1.728754e-02
<VARIANCE> 39
 1.395293e+01 1.384583e+01 1.644095e+01 1.937739e+01 1.739860e+01 1.404483e+01 1.553405e+01 1.297657e+01 1.438394e+01 1.747648e+01 1.319812e+01 1.095143e+01 1.315147e+02 6.602972e-01 5.458241e-01 8.126282e-01 1.059069e+00 9.990611e-01 9.659187e-01 1.139017e+00 1.006597e+00 1.255769e+00 1.176030e+00 1.022098e+00 8.635656e-01 4.533587e-01 1.293653e-01 1.102046e-01 1.519815e-01 2.033968e-01 1.956211e-01 1.877520e-01 2.263221e-01 1.933224e-01 2.441279e-01 2.131282e-01 1.923296e-01 1.667997e-01 8.326577e-02
<GCONST> 8.425208e+01
<TRANSP> 5
 0.000000e+00 1.000000e+00 0.000000e+00 0.000000e+00 0.000000e+00
 0.000000e+00 9.371323e-01 6.286769e-02 0.000000e+00 0.000000e+00
 0.000000e+00 0.000000e+00 8.836827e-01 1.163174e-01 0.000000e+00
 0.000000e+00 0.000000e+00 0.000000e+00 8.687056e-01 1.312944e-01
 0.000000e+00 0.000000e+00 0.000000e+00 0.000000e+00 0.000000e+00
<ENDHMM>
