~o
<STREAMINFO> 1 39
<VECSIZE> 39<NULLD><MFCC_D_A_0><DIAGC>
~h "a"
<BEGINHMM>
<NUMSTATES> 5
<STATE> 2
<MEAN> 39
 -8.883867e+00 2.652596e+00 -4.069297e+00 -7.299879e+00 -4.032748e+00 -7.380230e+00 -3.025788e+00 -1.790377e+00 -1.080143e+01 -2.718304e+00 -2.505410e+00 -5.661655e+00 7.770956e+01 6.970441e-03 -1.149268e-01 -1.085227e-01 -5.095259e-02 -9.621965e-02 6.495411e-02 1.254371e-01 6.442813e-02 5.440669e-02 4.220309e-02 9.253944e-02 1.009491e-01 -6.234915e-02 -8.170272e-02 1.751634e-02 5.014305e-02 1.561715e-02 6.981543e-02 -3.760370e-02 -3.858009e-02 -3.488461e-02 -5.606843e-03 -3.564423e-02 4.242336e-02 4.116173e-02 -1.549741e-02
<VARIANCE> 39
 3.839384e+01 3.486124e+01 3.038375e+01 2.787043e+01 3.887268e+01 5.584189e+01 4.953733e+01 3.794834e+01 4.026587e+01 4.464445e+01 3.342929e+01 2.704825e+01 1.069554e+02 9.621446e-01 1.431846e+00 1.327897e+00 1.237903e+00 1.586061e+00 1.832319e+00 1.577547e+00 1.558132e+00 1.937402e+00 1.727361e+00 1.574666e+00 1.440105e+00 1.690498e+00 1.607187e-01 2.230348e-01 2.373362e-01 2.321033e-01 2.683598e-01 2.930671e-01 3.072363e-01 2.881415e-01 3.773470e-01 3.210785e-01 2.944292e-01 2.885490e-01 1.721675e-01
<GCONST> 1.076186e+02
<STATE> 3
<MEAN> 39
 -9.924788e+00 2.777910e+00 -4.087347e+00 -7.026657e+00 -3.931952e+00 -6.878112e+00 -3.370037e+00 -2.154816e+00 -1.054898e+01 -2.800364e+00 -2.298625e+00 -5.546376e+00 7.586443e+01 -1.386505e-01 -1.493602e-02 4.223892e-02 -1.357862e-02 -1.411755e-03 -1.186019e-02 6.795973e-04 4.307627e-03 3.253921e-02 -2.532218e-02 9.290596e-02 6.925025e-02 -9.411946e-02 -2.996075e-02 4.375145e-02 3.686087e-02 2.998045e-02 7.038351e-02 4.489521e-03 -2.398815e-02 -2.096975e-02 1.745538e-02 -2.032180e-02 1.117886e-02 5.563594e-03 -2.359628e-02
<VARIANCE> 39
 4.036517e+01 3.198540e+01 2.608810e+01 2.379802e+01 3.446334e+01 5.261060e+01 4.412079e+01 3.554313e+01 3.758945e+01 4.276722e+01 2.885410e+01 2.337310e+01 1.095430e+02 8.042102e-01 1.208064e+00 1.233293e+00 1.308289e+00 1.401335e+00 1.568657e+00 1.463753e+00 1.595731e+00 1.814783e+00 1.505369e+00 1.468172e+00 1.338350e+00 1.373912e+00 1.350763e-01 2.003792e-01 2.116698e-01 2.272198e-01 2.570367e-01 2.551097e-01 2.688624e-01 2.860120e-01 3.301454e-01 2.864796e-01 2.623578e-01 2.491264e-01 1.720731e-01
<GCONST> 1.040284e+02
<STATE> 4
<MEAN> 39
 -9.736679e+00 2.567846e+00 -4.127419e+00 -6.178706e+00 -3.450154e+00 -7.259425e+00 -4.350132e+00 -3.198536e+00 -1.075627e+01 -1.824964e+00 -2.009588e+00 -5.858800e+00 7.579147e+01 -1.552849e-01 3.855350e-02 6.565764e-02 7.313018e-02 4.988500e-02 1.018189e-01 -3.048874e-03 1.625791e-02 1.021834e-01 -8.609301e-02 5.509824e-02 9.366487e-02 -1.802603e-01 4.521407e-03 1.415330e-02 2.873154e-02 4.992286e-02 6.302132e-02 3.696270e-02 3.504063e-03 -2.766004e-02 8.214729e-03 -1.264415e-02 -1.123466e-02 9.013826e-03 -4.763007e-03
<VARIANCE> 39
 4.216710e+01 2.953744e+01 2.267674e+01 2.284669e+01 3.548027e+01 5.640195e+01 4.279110e+01 4.749258e+01 4.211464e+01 5.430783e+01 3.021357e+01 2.631158e+01 1.064581e+02 6.506975e-01 1.277484e+00 1.337846e+00 1.382880e+00 1.443159e+00 1.756517e+00 1.708279e+00 1.743581e+00 1.843426e+00 1.702368e+00 1.668300e+00 1.550725e+00 1.355179e+00 1.370036e-01 2.217767e-01 2.117702e-01 2.347312e-01 2.586679e-01 3.182588e-01 2.865443e-01 3.018149e-01 3.504202e-01 2.934427e-01 2.910727e-01 2.705808e-01 2.506199e-01
<GCONST> 1.065641e+02
<TRANSP> 5
 0.000000e+00 1.000000e+00 0.000000e+00 0.000000e+00 0.000000e+00
 0.000000e+00 5.515348e-01 4.484652e-01 0.000000e+00 0.000000e+00
 0.000000e+00 0.000000e+00 5.840362e-01 4.159638e-01 0.000000e+00
 0.000000e+00 0.000000e+00 0.000000e+00 7.089390e-01 2.910610e-01
 0.000000e+00 0.000000e+00 0.000000e+00 0.000000e+00 0.000000e+00
<ENDHMM>
~h "b"
<BEGINHMM>
<NUMSTATES> 5
<STATE> 2
<MEAN> 39
 -2.134480e+01 1.340665e-01 5.429735e+00 -1.336758e+01 4.694686e+00 -4.828315e+00 -9.632979e+00 -4.676321e+00 -9.463983e+00 -2.086614e+00 -1.148974e+00 -4.353776e+00 8.325529e+01 2.734457e-01 -1.343491e-01 6.518096e-02 9.657516e-02 4.023222e-01 -3.339818e-01 2.991740e-02 -5.550910e-02 -6.288679e-01 -1.250982e-01 -5.513515e-02 -3.704991e-02 6.906034e-01 2.649772e-01 8.110588e-02 -8.631597e-02 2.651778e-01 1.330872e-02 -8.932228e-02 -3.665360e-02 4.428774e-02 -1.821633e-02 -4.397551e-02 -4.446374e-02 -7.711831e-02 -7.382254e-02
<VARIANCE> 39
 1.403057e+02 3.887028e+01 5.474825e+01 8.495501e+01 5.876178e+01 4.615699e+01 4.166597e+01 3.837030e+01 6.067326e+01 4.177993e+01 2.603586e+01 1.661318e+01 3.950919e+01 1.089795e+01 4.175050e+00 5.358565e+00 6.832406e+00 4.032268e+00 3.463968e+00 3.631895e+00 3.751484e+00 4.627759e+00 2.995108e+00 2.525875e+00 1.736445e+00 3.245953e+00 1.061166e+00 7.088050e-01 8.215623e-01 7.875440e-01 5.534429e-01 5.840845e-01 6.580496e-01 7.163378e-01 7.801725e-01 5.944161e-01 4.696458e-01 3.197928e-01 5.610462e-01
<GCONST> 1.337006e+02
<STATE> 3
<MEAN> 39
 -7.140687e+00 1.988657e+00 1.775378e+00 -3.901316e+00 3.673988e+00 -9.258945e+00 -8.387059e+00 -4.610041e+00 -1.607549e+01 -5.667224e+00 -2.818537e+00 -6.402765e+00 8.493241e+01 8.968242e-01 -1.534943e-01 -4.702240e-01 1.111171e+00 5.524656e-01 -7.073309e-01 1.383614e-03 5.994987e-01 -2.487553e-01 -1.381671e-01 -3.368999e-02 -5.421339e-01 2.385611e-01 -3.492525e-01 -3.849292e-02 1.911813e-01 -1.778208e-01 4.481911e-03 1.261971e-01 4.328430e-02 1.144150e-01 3.461691e-01 5.940485e-02 3.428701e-02 7.195777e-02 -1.401439e-01
<VARIANCE> 39
 2.285880e+01 5.300310e+01 5.042639e+01 6.169269e+01 8.137292e+01 5.095897e+01 6.134127e+01 4.784289e+01 7.935315e+01 6.959550e+01 4.545032e+01 2.409295e+01 3.714075e+01 3.725194e+00 5.420012e+00 4.041547e+00 3.411678e+00 3.677732e+00 4.527690e+00 4.264180e+00 4.549757e+00 6.171566e+00 3.582937e+00 3.704738e+00 1.944188e+00 3.251433e+00 4.888095e-01 7.305140e-01 7.763935e-01 6.232119e-01 6.040102e-01 7.926559e-01 7.676831e-01 9.407842e-01 1.225680e+00 6.686627e-01 6.070015e-01 3.729185e-01 5.088294e-01
<GCONST> 1.348425e+02
<STATE> 4
<MEAN> 39
 -4.917843e+00 8.324875e-01 1.170221e+00 -1.714909e+00 4.854086e+00 -1.260220e+01 -9.447756e+00 -3.914557e+00 -1.535390e+01 -5.521906e+00 -1.477280e+00 -7.802350e+00 8.502226e+01 5.963844e-02 5.102887e-02 -8.008946e-03 3.769862e-02 -2.253295e-02 -9.985646e-02 -4.268401e-02 1.830173e-01 1.257547e-01 -2.356447e-03 -5.862322e-02 -3.587875e-02 -9.570577e-02 -5.112543e-02 5.176247e-02 3.581195e-02 -7.462997e-02 -4.408898e-02 1.042692e-01 4.340469e-03 -4.581481e-02 8.042562e-02 5.087722e-02 -4.469048e-03 3.481806e-02 -5.421264e-02
<VARIANCE> 39
 1.147394e+01 4.328578e+01 3.953731e+01 5.685871e+01 7.689348e+01 6.135918e+01 7.034104e+01 6.620170e+01 1.039798e+02 1.088913e+02 5.930345e+01 3.050054e+01 2.456221e+01 8.264404e-01 2.024070e+00 2.500881e+00 2.873132e+00 2.965153e+00 5.097881e+00 3.507861e+00 3.335819e+00 4.345771e+00 2.931020e+00 3.537196e+00 2.100146e+00 1.812848e+00 1.559684e-01 2.832818e-01 4.228756e-01 4.724820e-01 4.619232e-01 9.130298e-01 6.485318e-01 6.135570e-01 7.027900e-01 5.038230e-01 6.113993e-01 4.356554e-01 2.444668e-01
<GCONST> 1.250666e+02
<TRANSP> 5
 0.000000e+00 1.000000e+00 0.000000e+00 0.000000e+00 0.000000e+00
 0.000000e+00 8.257455e-01 1.742545e-01 0.000000e+00 0.000000e+00
 0.000000e+00 0.000000e+00 5.455926e-01 4.544074e-01 0.000000e+00
 0.000000e+00 0.000000e+00 0.000000e+00 9.103657e-01 8.963425e-02
 0.000000e+00 0.000000e+00 0.000000e+00 0.000000e+00 0.000000e+00
<ENDHMM>
~h "d"
<BEGINHMM>
<NUMSTATES> 5
<STATE> 2
<MEAN> 39
 -1.374120e+01 1.133511e+00 2.110674e+00 -8.132797e+00 -3.104096e+00 -6.691368e+00 -3.753003e+00 -4.316132e+00 -1.110048e+01 -3.939556e+00 -4.851948e+00 -4.899824e+00 8.028467e+01 1.503048e+00 -2.698906e-01 -1.029572e+00 2.941088e-01 -1.451403e-01 -1.123489e+00 -7.691579e-02 3.733251e-01 -6.822780e-01 -1.283996e-01 7.866363e-02 -3.037271e-01 1.123096e+00 -3.109185e-01 -2.603374e-01 -2.324776e-02 -8.198359e-02 8.796377e-02 -1.635745e-02 -1.303710e-01 6.703400e-02 1.453717e-02 1.257541e-01 1.452126e-01 -3.309181e-02 1.747966e-01
<VARIANCE> 39
 8.120592e+01 4.718204e+01 5.743663e+01 4.420803e+01 5.098102e+01 5.822468e+01 4.570109e+01 4.105186e+01 5.194703e+01 3.908689e+01 3.071729e+01 2.102501e+01 8.963914e+01 9.346429e+00 5.838579e+00 5.967501e+00 3.701948e+00 4.286824e+00 5.252014e+00 4.480868e+00 4.619760e+00 5.844601e+00 3.831654e+00 2.646178e+00 2.417391e+00 4.267142e+00 1.204515e+00 1.148173e+00 9.514609e-01 6.119975e-01 6.435584e-01 7.621162e-01 8.735933e-01 8.141320e-01 1.202042e+00 6.601115e-01 5.158994e-01 4.610425e-01 7.176828e-01
<GCONST> 1.382686e+02
<STATE> 3
<MEAN> 39
 -1.072232e+01 -1.694873e+00 -3.536615e-01 -6.742092e+00 -4.150823e+00 -1.013225e+01 -4.406731e+00 -4.033257e+00 -1.326967e+01 -3.666463e+00 -3.525432e+00 -5.581290e+00 8.556366e+01 1.138333e+00 -4.195326e-01 -9.924251e-01 3.480211e-01 1.919425e-01 -7.235248e-01 -2.049596e-01 3.934240e-01 -6.426672e-01 1.636461e-01 3.000677e-01 -2.818016e-01 1.056112e+00 -2.634007e-01 2.989017e-02 1.115211e-01 -2.554276e-02 2.286443e-01 1.661115e-01 -6.264962e-02 2.758613e-02 3.484679e-02 7.253917e-02 5.987485e-02 -1.697566e-02 -1.342339e-01
<VARIANCE> 39
 7.925652e+01 3.957368e+01 7.228577e+01 4.358553e+01 7.025657e+01 6.417931e+01 5.263209e+01 4.733768e+01 5.858436e+01 5.431773e+01 3.486493e+01 2.612580e+01 5.574760e+01 5.302837e+00 4.508290e+00 5.215457e+00 3.063624e+00 4.802611e+00 4.923627e+00 3.884707e+00 4.480087e+00 6.423031e+00 4.129184e+00 2.812053e+00 2.640216e+00 3.882804e+00 1.107763e+00 1.059841e+00 7.238439e-01 6.433600e-01 7.100407e-01 8.540421e-01 8.781465e-01 8.516578e-01 1.274628e+00 7.321806e-01 5.211345e-01 5.266793e-01 6.021535e-01
<GCONST> 1.382593e+02
<STATE> 4
<MEAN> 39
 -8.137014e+00 -2.434707e+00 -2.577679e+00 -5.488330e+00 -2.563974e+00 -1.178787e+01 -6.023600e+00 -3.455491e+00 -1.447633e+01 -2.850078e+00 -1.098227e+00 -5.819636e+00 8.691429e+01 2.830042e-01 1.439565e-01 -3.060679e-01 2.831518e-01 7.053895e-01 -1.632847e-01 -4.018769e-01 9.381615e-02 -2.757248e-01 -1.093398e-02 3.410851e-01 -1.319471e-01 1.696308e-02 -1.701910e-01 1.402823e-01 1.642718e-01 5.339351e-03 3.581179e-02 1.294650e-01 6.945502e-03 -5.451345e-02 1.140353e-01 -1.607630e-02 -5.686936e-03 4.653232e-03 -2.288811e-01
<VARIANCE> 39
 6.434317e+01 3.552156e+01 7.753306e+01 3.931510e+01 7.744845e+01 6.421833e+01 5.135352e+01 5.622634e+01 6.805143e+01 9.069195e+01 3.600247e+01 2.806638e+01 4.381538e+01 4.600045e+00 3.726734e+00 4.240284e+00 2.736755e+00 3.906703e+00 4.018291e+00 4.011715e+00 4.217562e+00 5.885050e+00 3.742227e+00 2.553780e+00 2.910253e+00 3.762642e+00 7.583914e-01 6.506370e-01 6.594700e-01 4.661764e-01 7.346776e-01 7.094272e-01 7.973098e-01 7.066396e-01 1.012217e+00 6.019584e-01 3.770946e-01 4.475432e-01 5.615610e-01
<GCONST> 1.346749e+02
<TRANSP> 5
 0.000000e+00 1.000000e+00 0.000000e+00 0.000000e+00 0.000000e+00
 0.000000e+00 5.032787e-01 4.967213e-01 0.000000e+00 0.000000e+00
 0.000000e+00 0.000000e+00 5.620412e-01 4.379588e-01 0.000000e+00
 0.000000e+00 0.000000e+00 0.000000e+00 7.603653e-01 2.396346e-01
 0.000000e+00 0.000000e+00 0.000000e+00 0.000000e+00 0.000000e+00
<ENDHMM>
~h "e"
<BEGINHMM>
<NUMSTATES> 5
<STATE> 2
<MEAN> 39
 -1.142077e+01 4.363846e-01 1.084896e+00 -4.231738e+00 1.077646e+00 -7.931473e+00 -8.556960e+00 -3.237853e+00 -1.173499e+01 -3.890202e+00 -1.673839e+00 -5.704333e+00 8.037297e+01 4.755148e-01 -2.724136e-01 3.289494e-01 2.908455e-01 5.037016e-01 -3.674846e-01 -3.033161e-01 -5.228782e-02 -1.888171e-01 -1.491818e-01 9.391996e-02 -1.289530e-01 8.739706e-01 7.537239e-02 5.148005e-02 2.382079e-02 4.500757e-02 2.888666e-02 -4.543904e-03 -1.446303e-02 2.146912e-02 1.025024e-02 -5.796418e-02 -1.812190e-02 -5.012142e-02 -3.393144e-02
<VARIANCE> 39
 5.927017e+01 4.494532e+01 7.400430e+01 7.709018e+01 6.930466e+01 5.411440e+01 5.244488e+01 4.575988e+01 6.533107e+01 7.864539e+01 3.739302e+01 3.116454e+01 7.811881e+01 5.369246e+00 4.453684e+00 4.671643e+00 4.359127e+00 3.886984e+00 4.470585e+00 4.165654e+00 4.144065e+00 6.744764e+00 3.690303e+00 2.936223e+00 2.461802e+00 7.517782e+00 9.736811e-01 7.409093e-01 8.209869e-01 7.493064e-01 7.060655e-01 7.698941e-01 7.506436e-01 7.512481e-01 1.165642e+00 7.043543e-01 5.741398e-01 4.597491e-01 1.017421e+00
<GCONST> 1.397850e+02
<STATE> 3
<MEAN> 39
 -9.687731e+00 5.728945e-01 2.616838e+00 -2.088400e+00 2.932113e+00 -9.135894e+00 -9.123622e+00 -3.214792e+00 -1.186667e+01 -4.894608e+00 -2.044221e+00 -6.140526e+00 8.254807e+01 4.474558e-01 1.092920e-01 2.945927e-02 2.044238e-01 3.050508e-01 -1.446241e-01 -1.937517e-01 -1.225961e-01 -9.649502e-02 -2.026683e-01 -3.375071e-02 -1.933723e-01 3.595023e-01 -5.237525e-02 8.424180e-02 -4.693309e-02 -5.469009e-02 -8.642574e-02 5.997695e-02 3.015995e-02 1.512961e-02 4.581764e-02 6.509823e-03 -3.877263e-02 -6.739166e-03 -1.436504e-01
<VARIANCE> 39
 4.272097e+01 4.568769e+01 7.999847e+01 7.857026e+01 6.715862e+01 6.476353e+01 5.822167e+01 6.003450e+01 7.631032e+01 8.556263e+01 4.454169e+01 3.459599e+01 5.459509e+01 4.854045e+00 4.467751e+00 4.558894e+00 3.859472e+00 4.000967e+00 5.466648e+00 4.791051e+00 4.159350e+00 6.903570e+00 3.645304e+00 3.428291e+00 2.787342e+00 6.602714e+00 8.969893e-01 7.495855e-01 7.728710e-01 6.879645e-01 6.640937e-01 8.556760e-01 7.881315e-01 7.355119e-01 1.212425e+00 6.563449e-01 6.390846e-01 4.733876e-01 9.449042e-01
<GCONST> 1.404328e+02
<STATE> 4
<MEAN> 39
 -6.479693e+00 2.263780e+00 1.601914e+00 -2.124593e+00 1.704991e+00 -9.672613e+00 -8.449710e+00 -2.619646e+00 -1.204602e+01 -6.998784e+00 -4.193591e+00 -7.880842e+00 8.268291e+01 1.245965e-01 2.584081e-01 -2.718217e-01 -2.671174e-01 -2.325440e-01 3.709868e-02 2.071611e-01 9.351414e-02 1.377434e-01 3.546745e-02 -1.522079e-01 -7.494467e-02 -9.794441e-02 -8.766206e-02 -4.636726e-02 -1.057634e-02 -2.736995e-02 -4.590324e-02 1.630188e-02 3.866170e-02 4.247278e-03 2.370687e-03 4.368379e-02 3.082467e-02 4.319594e-02 -3.995441e-02
<VARIANCE> 39
 2.341673e+01 3.654363e+01 5.309152e+01 5.913289e+01 6.840430e+01 6.997336e+01 6.542537e+01 6.775230e+01 8.432326e+01 9.812199e+01 5.953107e+01 4.462601e+01 4.281528e+01 1.886458e+00 2.784408e+00 2.632328e+00 2.580069e+00 3.272863e+00 4.701194e+00 4.086276e+00 3.161667e+00 4.407712e+00 3.086390e+00 3.632913e+00 2.560477e+00 3.498103e+00 3.256576e-01 4.392929e-01 4.215508e-01 4.013653e-01 5.103047e-01 7.383709e-01 6.481048e-01 4.784272e-01 7.695006e-01 5.421439e-01 5.863437e-01 4.377539e-01 5.284169e-01
<GCONST> 1.302331e+02
<TRANSP> 5
 0.000000e+00 1.000000e+00 0.000000e+00 0.000000e+00 0.000000e+00
 0.000000e+00 7.297729e-01 2.702271e-01 0.000000e+00 0.000000e+00
 0.000000e+00 0.000000e+00 7.114122e-01 2.885878e-01 0.000000e+00
 0.000000e+00 0.000000e+00 0.000000e+00 8.224530e-01 1.775470e-01
 0.000000e+00 0.000000e+00 0.000000e+00 0.000000e+00 0.000000e+00
<ENDHMM>
~h "g"
<BEGINHMM>
<NUMSTATES> 5
<STATE> 2
<MEAN> 39
 -1.098187e+01 3.974565e+00 9.647952e-01 -3.896009e+00 -3.840014e-01 -8.194251e+00 -5.013564e+00 -3.879987e+00 -1.207279e+01 -4.812941e+00 -2.518940e+00 -6.084145e+00 7.549845e+01 -5.346335e-02 2.549794e-01 3.953691e-01 -1.914341e-01 2.619502e-01 -4.811687e-01 -4.046797e-01 -2.820768e-01 1.554780e-01 1.453892e-01 -1.020846e-01 -8.355601e-03 2.443350e-01 1.048560e-01 6.814393e-03 3.261710e-02 1.066346e-01 -1.551410e-01 -1.554684e-01 -9.945302e-02 1.556714e-01 -6.732102e-02 -4.747384e-02 -5.109428e-02 -1.861855e-01 -9.888123e-03
<VARIANCE> 39
 3.411660e+01 6.289344e+01 6.167867e+01 8.100329e+01 6.152278e+01 7.841950e+01 5.488950e+01 5.254137e+01 3.321207e+01 4.446329e+01 2.676137e+01 6.132637e+01 5.057433e+01 1.141175e+00 2.351957e+00 2.707790e+00 2.451653e+00 5.062999e+00 5.506306e+00 3.938797e+00 2.889083e+00 2.872303e+00 1.842493e+00 1.909338e+00 2.409047e+00 4.120908e+00 2.043497e-01 3.308157e-01 4.994982e-01 5.122110e-01 9.775152e-01 8.924631e-01 9.188552e-01 5.015088e-01 4.338385e-01 3.596000e-01 3.499259e-01 4.822043e-01 4.656149e-01
<GCONST> 1.268154e+02
<STATE> 3
<MEAN> 39
 -1.072552e+01 3.691964e+00 3.323760e+00 -2.567325e+00 1.549195e+00 -1.040224e+01 -7.584798e+00 -3.654917e+00 -1.167377e+01 -4.063292e+00 -2.557015e+00 -6.997987e+00 7.684587e+01 2.466075e-01 3.090688e-01 3.430713e-01 1.674821e-01 -3.912484e-01 -6.237502e-01 -3.546617e-01 1.975878e-01 1.190556e-02 1.725585e-01 -8.939844e-02 -4.277833e-01 2.138812e-02 6.514875e-02 -3.921689e-02 -1.164735e-01 5.732482e-02 -2.538950e-01 -1.406763e-02 1.193235e-01 1.966094e-01 -2.916327e-04 4.870827e-02 -1.753452e-02 -1.422528e-01 -1.337990e-01
<VARIANCE> 39
 2.922131e+01 5.207814e+01 7.088916e+01 7.567716e+01 7.280460e+01 9.727297e+01 7.821103e+01 5.175806e+01 2.959947e+01 3.490484e+01 2.556811e+01 5.365094e+01 4.426483e+01 1.248694e+00 2.048872e+00 3.639005e+00 3.453302e+00 3.749248e+00 7.203618e+00 5.507400e+00 2.311282e+00 3.128342e+00 1.562998e+00 1.820274e+00 3.110578e+00 3.386888e+00 2.163236e-01 3.821165e-01 5.014815e-01 5.953996e-01 8.395020e-01 1.104866e+00 1.057279e+00 4.088926e-01 4.113297e-01 3.086573e-01 3.421809e-01 4.791368e-01 4.263605e-01
<GCONST> 1.272293e+02
<STATE> 4
<MEAN> 39
 -8.899035e+00 2.555653e+00 3.514061e+00 6.967635e-01 4.385115e+00 -1.452963e+01 -1.046920e+01 -3.870961e+00 -1.245263e+01 -9.994391e-01 -1.109779e+00 -8.652464e+00 7.959026e+01 3.256350e-01 -9.668510e-03 -7.055921e-01 -3.387193e-01 -5.005835e-01 -4.325086e-01 6.150811e-02 8.602496e-04 -3.887117e-01 5.423529e-01 2.624211e-01 -1.664159e-01 1.218189e-01 -2.046513e-02 -6.469039e-02 -8.446495e-02 -7.461480e-02 -2.744807e-02 1.006070e-01 8.109254e-02 6.784023e-02 4.876069e-02 3.483816e-02 2.445086e-02 4.747428e-02 -2.781841e-02
<VARIANCE> 39
 2.058684e+01 4.916489e+01 5.497706e+01 5.250291e+01 7.696178e+01 9.625941e+01 5.974997e+01 5.636103e+01 4.787293e+01 4.012211e+01 3.256355e+01 3.834217e+01 6.027969e+01 1.340968e+00 3.000718e+00 2.317782e+00 2.786505e+00 2.249887e+00 6.418219e+00 3.633665e+00 3.011357e+00 3.615017e+00 1.768183e+00 2.426198e+00 3.236318e+00 2.419580e+00 2.403385e-01 5.726328e-01 3.011809e-01 4.754405e-01 4.092918e-01 1.070959e+00 6.407419e-01 4.238387e-01 5.346854e-01 2.816475e-01 4.035193e-01 4.635130e-01 3.391182e-01
<GCONST> 1.247999e+02
<TRANSP> 5
 0.000000e+00 1.000000e+00 0.000000e+00 0.000000e+00 0.000000e+00
 0.000000e+00 3.671092e-01 6.328909e-01 0.000000e+00 0.000000e+00
 0.000000e+00 0.000000e+00 4.605173e-01 5.394827e-01 0.000000e+00
 0.000000e+00 0.000000e+00 0.000000e+00 6.994638e-01 3.005362e-01
 0.000000e+00 0.000000e+00 0.000000e+00 0.000000e+00 0.000000e+00
<ENDHMM>
~h "h"
<BEGINHMM>
<NUMSTATES> 5
<STATE> 2
<MEAN> 39
 -1.388173e+01 -2.861877e+00 6.437824e+00 2.232382e+00 1.866799e+00 -1.076999e+01 -9.521315e+00 -2.669822e+00 -7.311564e+00 -3.748331e+00 -4.783700e+00 -5.640037e+00 7.937999e+01 3.970256e-02 2.259067e-01 -5.162178e-01 -1.971311e-01 -3.081178e-01 1.833044e-01 5.079852e-02 -3.554501e-02 2.357368e-01 2.412733e-01 8.079301e-02 2.327449e-01 -4.628163e-01 -5.875153e-03 9.585751e-02 -1.272970e-02 -3.108312e-02 8.220287e-03 2.646288e-03 -4.870706e-03 -1.637169e-02 -7.853640e-02 -5.188242e-02 2.903905e-02 -3.215233e-02 1.798359e-02
<VARIANCE> 39
 2.567406e+01 5.063557e+01 6.069144e+01 4.643524e+01 3.749810e+01 8.253669e+01 4.900322e+01 4.179858e+01 3.374207e+01 4.593422e+01 2.343685e+01 1.908276e+01 4.278336e+01 9.651580e-01 1.924336e+00 1.527447e+00 1.846707e+00 1.635182e+00 2.703552e+00 2.024865e+00 1.866663e+00 2.016200e+00 1.587770e+00 1.375259e+00 1.194393e+00 7.295190e-01 2.103595e-01 4.055916e-01 2.645229e-01 2.804483e-01 3.240896e-01 4.497932e-01 3.005594e-01 3.406560e-01 3.724926e-01 3.443891e-01 2.624863e-01 2.309510e-01 1.329609e-01
<GCONST> 1.093337e+02
<STATE> 3
<MEAN> 39
 -1.266085e+01 -7.203572e-01 2.220477e+00 -3.024951e-01 -7.600774e-01 -6.240966e+00 -7.251614e+00 -3.426495e+00 -6.526952e+00 -3.016243e+00 -3.707778e+00 -4.511442e+00 7.501527e+01 7.681692e-02 5.663411e-01 -4.054369e-01 -1.831272e-01 -3.688844e-01 2.787387e-01 3.027406e-01 2.097237e-01 -5.099743e-03 -1.423725e-01 3.257770e-02 2.121954e-02 -7.694197e-01 -5.426389e-02 5.357685e-02 7.276689e-02 1.700787e-02 9.293754e-02 -7.216037e-02 9.926043e-03 -1.834533e-02 -6.987525e-02 -8.927472e-02 2.511874e-03 -9.035257e-02 9.818672e-02
<VARIANCE> 39
 2.544063e+01 6.056338e+01 4.111457e+01 3.795216e+01 4.025823e+01 5.949540e+01 4.678458e+01 4.346871e+01 3.457464e+01 3.387227e+01 2.700923e+01 2.168554e+01 5.255694e+01 8.476135e-01 1.613401e+00 1.212352e+00 1.502857e+00 1.470073e+00 1.864625e+00 2.184084e+00 1.843449e+00 1.617927e+00 1.515815e+00 1.198289e+00 1.299211e+00 5.876061e-01 1.844850e-01 3.465924e-01 2.630749e-01 2.644902e-01 2.642359e-01 3.730032e-01 3.199428e-01 3.509229e-01 3.231034e-01 3.034574e-01 2.327073e-01 2.612885e-01 1.631334e-01
<GCONST> 1.064369e+02
<STATE> 4
<MEAN> 39
 -1.401375e+01 4.094345e+00 -1.475886e+00 -2.615117e+00 -3.688630e+00 -2.719992e+00 -4.029916e+00 -1.879442e+00 -6.836864e+00 -4.668255e+00 -4.194660e+00 -5.237464e+00 6.781146e+01 -1.612542e-01 1.790245e-01 -1.945625e-01 -1.472354e-01 -5.743875e-02 8.898841e-02 9.810188e-02 2.117689e-02 -3.067649e-03 -2.605514e-02 4.195092e-02 -6.320869e-02 -2.744984e-01 -5.908108e-02 -8.747894e-02 8.477999e-03 -4.954933e-02 4.362021e-02 -5.500654e-02 -4.158305e-02 -3.909615e-02 -1.253567e-02 -4.547807e-03 1.639010e-02 2.714066e-03 1.342606e-01
<VARIANCE> 39
 1.560166e+01 3.162677e+01 2.317582e+01 2.950789e+01 3.086928e+01 2.792978e+01 3.285102e+01 2.945289e+01 1.994552e+01 2.074845e+01 1.982972e+01 1.520546e+01 3.023092e+01 4.560767e-01 1.488387e+00 9.299875e-01 1.184180e+00 1.436450e+00 1.155442e+00 1.499035e+00 1.719747e+00 1.546990e+00 1.200894e+00 1.070203e+00 1.206379e+00 6.494799e-01 1.143324e-01 2.760315e-01 1.861826e-01 2.324958e-01 2.625349e-01 2.409693e-01 2.869738e-01 3.192996e-01 3.159276e-01 2.484152e-01 2.241167e-01 2.431223e-01 1.984281e-01
<GCONST> 9.597149e+01
<TRANSP> 5
 0.000000e+00 1.000000e+00 0.000000e+00 0.000000e+00 0.000000e+00
 0.000000e+00 7.052454e-01 2.947547e-01 0.000000e+00 0.000000e+00
 0.000000e+00 0.000000e+00 5.052773e-01 4.947228e-01 0.000000e+00
 0.000000e+00 0.000000e+00 0.000000e+00 8.186159e-01 1.813841e-01
 0.000000e+00 0.000000e+00 0.000000e+00 0.000000e+00 0.000000e+00
<ENDHMM>
~h "i"
<BEGINHMM>
<NUMSTATES> 5
<STATE> 2
<MEAN> 39
 -1.088934e+01 2.326797e+00 4.669329e+00 1.595173e+00 4.632987e+00 -1.171021e+01 -1.184919e+01 -3.847490e+00 -1.102415e+01 -4.446640e+00 -3.121659e+00 -6.661679e+00 7.791633e+01 2.281844e-01 1.452273e-01 3.832582e-02 8.487155e-02 2.220712e-01 -2.453988e-02 -1.736258e-01 5.191758e-02 5.956581e-02 -1.395121e-01 -1.738563e-02 7.564858e-03 3.159651e-01 -2.444918e-02 7.226103e-03 -1.146056e-01 -1.013637e-01 -4.436968e-02 7.765643e-02 1.005692e-01 2.047319e-03 -1.662566e-02 -3.541675e-02 2.978245e-02 3.238166e-02 -2.151646e-02
<VARIANCE> 39
 3.158289e+01 3.279988e+01 6.918388e+01 6.410587e+01 6.168953e+01 8.156538e+01 7.258221e+01 4.965725e+01 4.995699e+01 3.967889e+01 3.132836e+01 2.548440e+01 5.087401e+01 1.526740e+00 2.516127e+00 4.105871e+00 4.487651e+00 3.495322e+00 4.989830e+00 3.438958e+00 3.055411e+00 4.481000e+00 3.520618e+00 2.104155e+00 1.726569e+00 4.113559e+00 2.619412e-01 4.400301e-01 5.396665e-01 7.351830e-01 6.175123e-01 8.100854e-01 6.291145e-01 6.444644e-01 9.304240e-01 7.408240e-01 5.014486e-01 3.394533e-01 5.332621e-01
<GCONST> 1.294163e+02
<STATE> 3
<MEAN> 39
 -9.090425e+00 3.330149e+00 1.332756e-01 -1.026048e+00 1.573950e+00 -7.720465e+00 -8.573410e+00 -4.095199e+00 -9.501767e+00 -4.188668e+00 -2.699220e+00 -5.215000e+00 7.585888e+01 -6.309468e-02 2.859866e-01 -4.729075e-01 -4.925357e-01 -3.998773e-01 6.256843e-01 4.668189e-01 -6.944658e-02 5.524148e-02 -1.407190e-01 9.995362e-02 2.960277e-01 -3.080808e-01 -1.934430e-02 -4.586117e-02 4.487835e-02 5.447636e-02 1.890923e-02 -1.135748e-01 2.424391e-02 3.585998e-02 -7.826935e-02 5.567726e-02 5.523132e-02 -8.065113e-04 1.074481e-01
<VARIANCE> 39
 3.484318e+01 3.857964e+01 4.836521e+01 4.822572e+01 5.924804e+01 5.448168e+01 6.184655e+01 5.085149e+01 3.811833e+01 4.065003e+01 3.400491e+01 2.342270e+01 4.265097e+01 1.023325e+00 2.131824e+00 1.947851e+00 2.606212e+00 2.190834e+00 2.970788e+00 2.240706e+00 2.614893e+00 2.216378e+00 2.051860e+00 1.798376e+00 1.496543e+00 2.983238e+00 2.041618e-01 3.191622e-01 3.359050e-01 4.302057e-01 3.975133e-01 5.343465e-01 3.778000e-01 4.962077e-01 4.559360e-01 3.801565e-01 3.451975e-01 2.804990e-01 3.140032e-01
<GCONST> 1.170566e+02
<STATE> 4
<MEAN> 39
 -8.056542e+00 5.528257e+00 -1.547565e+00 -1.343372e+00 1.181675e+00 -5.617736e+00 -7.989437e+00 -4.483096e+00 -8.849198e+00 -3.720608e+00 -2.177678e+00 -4.256289e+00 7.336507e+01 -1.636288e-01 1.572734e-01 -1.426582e-01 -1.746144e-01 -2.490666e-01 3.961203e-01 4.508308e-01 1.603217e-01 7.188817e-02 -9.380844e-02 4.291194e-02 1.299133e-01 -1.136602e-01 -1.656032e-02 -1.001682e-01 3.919162e-02 -1.783703e-02 5.230362e-02 -8.891229e-02 -2.678921e-02 1.156246e-02 -5.575203e-02 -2.359090e-02 -5.112032e-02 -7.246896e-02 1.653596e-01
<VARIANCE> 39
 2.610928e+01 3.221812e+01 3.171983e+01 3.428571e+01 5.426815e+01 3.464592e+01 4.350545e+01 3.657570e+01 2.799519e+01 3.367506e+01 3.014605e+01 1.628784e+01 3.613572e+01 8.455053e-01 2.006543e+00 1.719625e+00 2.224979e+00 2.011349e+00 2.167353e+00 1.893285e+00 2.058552e+00 1.926755e+00 1.791821e+00 2.268509e+00 1.310619e+00 2.310426e+00 1.568376e-01 3.056524e-01 2.346005e-01 3.829640e-01 3.456664e-01 4.087439e-01 3.229922e-01 4.092419e-01 3.759980e-01 3.606246e-01 3.460039e-01 2.454267e-01 2.576882e-01
<GCONST> 1.095686e+02
<TRANSP> 5
 0.000000e+00 1.000000e+00 0.000000e+00 0.000000e+00 0.000000e+00
 0.000000e+00 6.614075e-01 3.385925e-01 0.000000e+00 0.000000e+00
 0.000000e+00 0.000000e+00 3.693554e-01 6.306445e-01 0.000000e+00
 0.000000e+00 0.000000e+00 0.000000e+00 6.413377e-01 3.586622e-01
 0.000000e+00 0.000000e+00 0.000000e+00 0.000000e+00 0.000000e+00
<ENDHMM>
~h "j"
<BEGINHMM>
<NUMSTATES> 5
<STATE> 2
<MEAN> 39
 -6.335014e+00 1.847035e+00 -5.039666e-01 -2.334875e+00 -1.217189e+00 -3.566483e+00 -2.905444e+00 -7.606731e+00 -9.833514e+00 -2.364922e-02 -6.061636e+00 -7.320210e+00 8.062249e+01 -1.000504e-01 -3.709644e-02 3.289262e-02 5.725849e-02 -1.887140e-02 2.012813e-01 1.964698e-01 1.884698e-01 8.661705e-02 -2.471502e-01 2.282275e-01 2.464043e-01 -1.946894e-02 -5.039702e-02 -5.134765e-02 6.075266e-03 -1.611376e-02 9.065925e-02 -7.687354e-02 -1.503981e-01 -6.723876e-03 1.380556e-02 -9.530406e-02 -9.022684e-02 -8.634178e-02 -2.076214e-03
<VARIANCE> 39
 2.542089e+01 1.952473e+01 4.701126e+01 1.414943e+01 7.007365e+01 2.905465e+01 1.031471e+02 1.086621e+02 5.431658e+01 9.444009e+01 7.577013e+01 2.755914e+01 6.133449e+01 1.017474e+00 8.910740e-01 1.417645e+00 9.707744e-01 2.243790e+00 1.463389e+00 2.962097e+00 1.301157e+00 2.072827e+00 1.573601e+00 4.626383e+00 2.163713e+00 1.301811e+00 1.935162e-01 1.732611e-01 2.338128e-01 1.873060e-01 3.050836e-01 2.906089e-01 5.412645e-01 2.546835e-01 3.100677e-01 2.962437e-01 7.548226e-01 3.495681e-01 1.825603e-01
<GCONST> 1.117912e+02
<STATE> 3
<MEAN> 39
 -8.432778e+00 2.839744e+00 2.732581e+00 -9.885652e-01 1.976575e+00 -3.533724e+00 -4.646999e+00 -1.821888e+00 -8.820075e+00 -5.333436e+00 -7.253503e+00 -7.601974e+00 7.729892e+01 -2.361680e-01 -1.798625e-01 1.486708e-01 1.772038e-01 4.742913e-01 -3.625847e-02 -4.619077e-01 2.672691e-01 1.797724e-01 -5.330410e-01 -2.189824e-01 -2.048117e-02 1.034014e-02 -1.039768e-01 -1.052356e-01 -2.977514e-02 -2.221639e-02 3.415785e-02 -8.168139e-02 -1.992711e-01 -1.167078e-01 9.289973e-03 -3.279359e-02 2.933705e-03 -8.340625e-02 6.302575e-02
<VARIANCE> 39
 3.080245e+01 2.021414e+01 4.359071e+01 1.393236e+01 6.442622e+01 3.080923e+01 1.031502e+02 6.741824e+01 7.762428e+01 7.288877e+01 5.316979e+01 2.393278e+01 6.212783e+01 2.503068e+00 1.588650e+00 1.573938e+00 1.130011e+00 2.063448e+00 1.385704e+00 3.437370e+00 1.008391e+00 2.256073e+00 1.857152e+00 1.650355e+00 1.223547e+00 1.630439e+00 3.010739e-01 3.109125e-01 2.664290e-01 2.117404e-01 3.657932e-01 2.964146e-01 6.604359e-01 2.497918e-01 4.016250e-01 4.007169e-01 4.112060e-01 2.089291e-01 2.926515e-01
<GCONST> 1.129763e+02
<STATE> 4
<MEAN> 39
 -1.113149e+01 1.229188e+00 5.872078e+00 8.488646e-01 6.796047e+00 -4.873670e+00 -1.003119e+01 -3.971627e-01 -7.601616e+00 -5.950032e+00 -5.769688e+00 -7.696762e+00 7.965411e+01 -6.396119e-02 -2.310749e-01 -1.722345e-01 -3.138674e-02 4.965978e-01 -5.059599e-02 -6.821698e-01 -4.540685e-01 -2.498593e-01 -3.561760e-01 -2.698177e-02 -2.121580e-01 3.781948e-01 8.357561e-02 9.038430e-02 -1.111091e-01 -1.073474e-01 -1.469135e-01 -8.044727e-03 8.094122e-02 -6.918239e-02 -7.461125e-02 1.106372e-01 1.834956e-01 1.788598e-02 -1.027195e-01
<VARIANCE> 39
 5.112965e+01 2.502579e+01 5.405233e+01 2.815495e+01 7.532964e+01 2.986482e+01 1.062937e+02 6.225631e+01 8.743824e+01 7.119147e+01 5.101346e+01 1.853120e+01 5.773392e+01 3.847682e+00 3.152918e+00 1.981148e+00 1.847784e+00 2.574067e+00 1.433168e+00 4.712339e+00 2.745923e+00 3.736791e+00 2.682059e+00 2.873355e+00 1.283257e+00 2.461007e+00 6.562507e-01 5.892445e-01 3.211703e-01 2.788276e-01 4.504910e-01 2.768493e-01 5.825396e-01 3.374583e-01 7.269009e-01 4.934211e-01 5.224866e-01 1.883102e-01 3.974630e-01
<GCONST> 1.231500e+02
<TRANSP> 5
 0.000000e+00 1.000000e+00 0.000000e+00 0.000000e+00 0.000000e+00
 0.000000e+00 5.992948e-01 4.007052e-01 0.000000e+00 0.000000e+00
 0.000000e+00 0.000000e+00 3.840632e-01 6.159368e-01 0.000000e+00
 0.000000e+00 0.000000e+00 0.000000e+00 5.848560e-01 4.151441e-01
 0.000000e+00 0.000000e+00 0.000000e+00 0.000000e+00 0.000000e+00
<ENDHMM>
~h "k"
<BEGINHMM>
<NUMSTATES> 5
<STATE> 2
<MEAN> 39
 -1.044476e+01 7.095560e-01 -3.729152e-01 -4.458348e+00 3.057988e+00 -1.069556e+01 -6.323244e+00 -5.685849e+00 -1.477001e+01 -3.691893e+00 -1.947697e+00 -6.189846e+00 8.246262e+01 -1.956299e-01 -1.288902e-01 2.567010e-01 5.084174e-02 9.855925e-02 -7.714003e-02 -5.024827e-02 -7.526710e-02 -1.321486e-01 -6.115640e-02 -7.539901e-02 -4.389204e-02 1.445815e-01 3.926420e-02 7.736404e-03 -1.752291e-02 2.604822e-02 -2.624737e-02 -3.044286e-02 -2.529633e-02 1.433695e-02 4.896136e-03 8.523131e-03 1.068305e-02 1.241126e-02 -1.846052e-02
<VARIANCE> 39
 5.027319e+01 4.687554e+01 6.217458e+01 8.860267e+01 7.146713e+01 8.010607e+01 5.025542e+01 3.691770e+01 7.377233e+01 5.624230e+01 3.102120e+01 3.176564e+01 5.635775e+01 5.473109e+00 4.089385e+00 4.674008e+00 7.036813e+00 4.808913e+00 8.078802e+00 4.374777e+00 3.439982e+00 6.454573e+00 4.046644e+00 2.610568e+00 2.862802e+00 6.583971e+00 1.077754e+00 7.341716e-01 8.769463e-01 1.287593e+00 8.088222e-01 1.429737e+00 8.378193e-01 6.583285e-01 1.195728e+00 8.218659e-01 5.071456e-01 5.364695e-01 1.057636e+00
<GCONST> 1.417958e+02
<STATE> 3
<MEAN> 39
 -1.262619e+01 4.203539e-01 1.655564e+00 -4.198437e+00 2.911099e+00 -1.029399e+01 -8.132546e+00 -6.853569e+00 -1.339407e+01 -2.474530e+00 -2.133212e+00 -5.397079e+00 8.239871e+01 2.772745e-01 -1.435804e-01 5.167495e-02 3.577634e-01 2.047765e-01 -5.425636e-01 -4.022066e-01 1.067009e-01 -4.155453e-02 1.512468e-04 1.565821e-01 2.638085e-01 2.427954e-01 8.639842e-02 4.418667e-02 -1.083717e-01 -8.944441e-02 -7.821341e-02 3.057427e-02 9.631156e-02 1.332788e-01 6.147926e-02 -2.213674e-02 -1.106124e-02 -2.700735e-02 -3.046533e-02
<VARIANCE> 39
 6.706709e+01 5.016825e+01 5.159539e+01 6.912710e+01 5.607673e+01 6.831211e+01 4.784563e+01 4.696662e+01 7.207986e+01 4.434070e+01 3.745667e+01 2.919380e+01 5.097628e+01 6.863540e+00 4.148167e+00 4.714334e+00 4.593720e+00 3.757990e+00 5.809057e+00 3.447075e+00 4.133070e+00 5.588660e+00 2.625676e+00 3.362107e+00 2.693715e+00 4.180645e+00 1.072331e+00 7.953353e-01 7.015873e-01 8.068203e-01 7.253283e-01 9.714370e-01 7.205039e-01 6.937246e-01 9.550098e-01 4.908181e-01 6.525995e-01 4.180715e-01 6.848889e-01
<GCONST> 1.372212e+02
<STATE> 4
<MEAN> 39
 -1.156784e+01 2.548528e-02 1.562989e+00 -6.352298e+00 3.825176e+00 -1.055603e+01 -9.273525e+00 -7.745396e+00 -1.301214e+01 -1.976156e-02 2.361727e-02 -4.429474e+00 8.441550e+01 1.762563e-01 6.319330e-02 -2.101950e-01 -9.199901e-02 -1.739145e-01 3.281674e-02 2.204914e-01 5.493128e-01 3.356420e-01 -2.803658e-02 -7.769993e-03 1.704260e-01 -1.200999e-01 -4.931432e-02 -1.529557e-02 -4.895783e-02 -3.809461e-02 -4.277463e-02 6.734294e-02 4.946489e-02 1.162613e-02 -1.124715e-02 3.489132e-02 -2.091542e-02 -5.838383e-02 -6.276333e-02
<VARIANCE> 39
 7.361020e+01 3.965221e+01 4.931656e+01 8.295644e+01 4.619839e+01 6.530643e+01 4.419088e+01 6.754170e+01 5.112152e+01 5.603022e+01 3.455425e+01 2.888767e+01 3.515379e+01 6.291776e+00 2.338984e+00 4.568580e+00 3.117600e+00 2.905009e+00 5.112681e+00 2.566919e+00 3.332490e+00 3.783740e+00 1.989331e+00 2.346307e+00 2.110485e+00 1.756548e+00 8.823838e-01 4.338787e-01 6.951799e-01 5.054163e-01 4.309330e-01 8.159568e-01 4.930423e-01 6.350700e-01 6.934234e-01 3.280497e-01 4.661821e-01 2.932681e-01 2.484471e-01
<GCONST> 1.277077e+02
<TRANSP> 5
 0.000000e+00 1.000000e+00 0.000000e+00 0.000000e+00 0.000000e+00
 0.000000e+00 9.562725e-01 4.372751e-02 0.000000e+00 0.000000e+00
 0.000000e+00 0.000000e+00 7.811615e-01 2.188385e-01 0.000000e+00
 0.000000e+00 0.000000e+00 0.000000e+00 8.098190e-01 1.901809e-01
 0.000000e+00 0.000000e+00 0.000000e+00 0.000000e+00 0.000000e+00
<ENDHMM>
~h "l"
<BEGINHMM>
<NUMSTATES> 5
<STATE> 2
<MEAN> 39
 -1.486822e+01 5.907471e+00 -2.580606e+00 -5.077777e+00 -3.817857e+00 -2.993885e+00 -5.560462e+00 -3.210297e+00 -8.780772e+00 -6.204567e+00 -4.212560e+00 -5.488533e+00 6.637841e+01 -2.350856e-01 -3.034801e-02 2.534748e-02 3.000475e-03 -2.878339e-02 -9.872781e-03 -9.752590e-03 -7.175314e-02 6.364729e-04 6.885677e-02 6.283700e-03 -1.895694e-02 -1.540588e-01 -5.015457e-03 -3.378376e-02 4.482531e-02 -7.631145e-03 3.654876e-02 -2.335871e-02 -4.155090e-03 9.821067e-04 -1.206937e-03 9.468336e-03 4.299529e-03 -9.063995e-03 7.240275e-02
<VARIANCE> 39
 1.982474e+01 1.658174e+01 1.726632e+01 1.757546e+01 1.884139e+01 1.696411e+01 1.937817e+01 1.752183e+01 2.015403e+01 2.262399e+01 1.880230e+01 1.379673e+01 1.848594e+01 5.558403e-01 8.245965e-01 9.101250e-01 9.628558e-01 1.135796e+00 1.216525e+00 1.488834e+00 1.326552e+00 1.354534e+00 1.177029e+00 1.122413e+00 9.925251e-01 5.256488e-01 1.078874e-01 1.573718e-01 1.802712e-01 1.935529e-01 2.308405e-01 2.553709e-01 2.996489e-01 2.612260e-01 2.809159e-01 2.349619e-01 2.258547e-01 1.999494e-01 8.990595e-02
<GCONST> 8.836890e+01
<STATE> 3
<MEAN> 39
 -1.773695e+01 3.844111e+00 -1.758673e+00 -6.225663e+00 -3.203424e+00 -3.458975e+00 -5.588872e+00 -4.114797e+00 -8.519588e+00 -4.593012e+00 -4.154854e+00 -5.735814e+00 6.727908e+01 -1.982081e-01 -3.011651e-01 4.472739e-01 -1.518317e-01 5.574627e-02 -1.894147e-01 1.719119e-01 -8.667067e-02 -1.104918e-01 1.870109e-01 5.728177e-02 -7.337352e-02 4.864168e-01 5.725738e-02 -1.068270e-01 1.204866e-01 -4.281295e-02 4.667152e-02 -3.385712e-02 1.309138e-03 -1.068329e-02 -5.204403e-02 2.264448e-02 4.511338e-02 6.254011e-02 2.254919e-01
<VARIANCE> 39
 2.734860e+01 2.120265e+01 2.339459e+01 1.967738e+01 2.053844e+01 2.140920e+01 2.893081e+01 1.945254e+01 2.742735e+01 2.199626e+01 1.967776e+01 1.581212e+01 3.668035e+01 1.538536e+00 1.878460e+00 1.916540e+00 1.759810e+00 1.533743e+00 1.789985e+00 2.182500e+00 1.748904e+00 1.752467e+00 1.653571e+00 1.479923e+00 1.204631e+00 1.429365e+00 3.098010e-01 3.399432e-01 3.649971e-01 3.386771e-01 3.702797e-01 4.097612e-01 4.690364e-01 3.518641e-01 3.786847e-01 3.318346e-01 3.073184e-01 2.701283e-01 2.763474e-01
<GCONST> 1.050840e+02
<STATE> 4
<MEAN> 39
 -1.539640e+01 3.022274e+00 -1.022555e+00 -7.118117e+00 -3.999061e+00 -5.644054e+00 -2.907886e+00 -3.244522e+00 -9.381721e+00 -4.153272e+00 -3.503412e+00 -5.583838e+00 7.159216e+01 3.956608e-01 -2.734511e-01 3.844476e-01 -1.454358e-01 -9.905219e-02 -2.053049e-01 6.941032e-02 -1.021641e-01 -2.443386e-01 1.113505e-01 4.357110e-02 3.518601e-02 8.464566e-01 6.934169e-02 -6.142321e-02 -1.039433e-02 9.098478e-03 2.357345e-03 -3.208373e-02 -3.319871e-02 3.694006e-02 -1.832852e-02 1.401464e-02 2.955140e-02 4.079855e-02 1.021054e-01
<VARIANCE> 39
 6.658532e+01 2.711039e+01 3.170292e+01 3.117558e+01 3.541629e+01 5.248969e+01 6.042306e+01 4.300978e+01 3.665324e+01 2.593682e+01 2.608006e+01 1.847066e+01 5.987165e+01 3.327595e+00 2.604980e+00 2.948066e+00 2.550312e+00 2.371039e+00 2.991454e+00 3.052880e+00 2.977010e+00 2.884360e+00 2.206250e+00 1.936921e+00 1.620800e+00 3.189493e+00 4.700575e-01 4.956803e-01 5.889068e-01 4.921472e-01 4.318981e-01 5.468365e-01 5.508204e-01 5.260372e-01 4.698499e-01 3.757267e-01 3.821919e-01 3.051352e-01 4.148278e-01
<GCONST> 1.209465e+02
<TRANSP> 5
 0.000000e+00 1.000000e+00 0.000000e+00 0.000000e+00 0.000000e+00
 0.000000e+00 8.756300e-01 1.243701e-01 0.000000e+00 0.000000e+00
 0.000000e+00 0.000000e+00 4.748307e-01 5.251693e-01 0.000000e+00
 0.000000e+00 0.000000e+00 0.000000e+00 6.520295e-01 3.479705e-01
 0.000000e+00 0.000000e+00 0.000000e+00 0.000000e+00 0.000000e+00
<ENDHMM>
~h "m"
<BEGINHMM>
<NUMSTATES> 5
<STATE> 2
<MEAN> 39
 -6.743931e+00 1.608627e+00 -4.413647e+00 -5.245117e+00 2.410449e+00 -7.817012e+00 -2.889441e+00 -2.895881e+00 -1.214103e+01 -2.525081e+00 -9.275082e-01 -4.845688e+00 8.193147e+01 -1.002159e-01 -1.904429e-02 -1.454428e-01 -1.781717e-01 -9.852667e-02 5.977966e-01 3.756072e-01 -1.538461e-01 6.831168e-02 5.428861e-02 3.254222e-01 1.564144e-01 -4.451905e-01 -5.104766e-02 3.030259e-02 6.347976e-02 2.831824e-03 -7.547737e-03 7.461067e-03 -5.093374e-02 2.973740e-02 8.310634e-03 -1.093850e-02 -2.872212e-02 -8.755236e-03 -4.697900e-02
<VARIANCE> 39
 1.766536e+01 2.310938e+01 2.903238e+01 3.079792e+01 5.277277e+01 5.018311e+01 9.437096e+01 4.326299e+01 4.504231e+01 4.910941e+01 4.803744e+01 2.919079e+01 5.026631e+01 3.516772e-01 9.092913e-01 1.516727e+00 1.989047e+00 2.326927e+00 1.820381e+00 1.970232e+00 1.403193e+00 1.539625e+00 1.246119e+00 2.815438e+00 1.463412e+00 8.679342e-01 5.948744e-02 1.375396e-01 1.932512e-01 3.249700e-01 3.923058e-01 2.883884e-01 3.162428e-01 2.544588e-01 2.878671e-01 2.584530e-01 4.193316e-01 2.564624e-01 8.921354e-02
<GCONST> 1.043788e+02
<STATE> 3
<MEAN> 39
 -8.253582e+00 2.541376e+00 -4.120530e+00 -5.993912e+00 2.009877e+00 -4.513183e+00 -1.291200e+00 -3.291511e+00 -1.130404e+01 -2.320917e+00 2.835929e-01 -4.383906e+00 7.841617e+01 -2.777677e-01 2.246065e-01 1.431676e-01 4.996730e-02 -5.996130e-02 5.628786e-01 3.970545e-02 -1.210290e-01 2.167186e-01 -9.689388e-02 1.312966e-02 7.397997e-02 -7.719862e-01 -3.244974e-02 6.350544e-03 2.218225e-02 1.050063e-02 -3.562291e-02 -5.457240e-02 -4.172594e-02 2.923603e-02 -7.581152e-03 -1.867083e-02 -5.049155e-02 6.258222e-03 -1.468560e-02
<VARIANCE> 39
 1.822813e+01 2.584036e+01 2.808073e+01 2.317619e+01 4.507385e+01 4.215178e+01 8.438895e+01 3.318079e+01 3.161083e+01 4.229060e+01 4.018616e+01 2.329937e+01 5.706099e+01 3.050845e-01 9.900767e-01 1.107993e+00 1.337376e+00 1.706090e+00 1.669559e+00 1.737018e+00 1.094104e+00 1.343477e+00 1.213684e+00 1.777807e+00 1.222135e+00 5.331973e-01 4.871536e-02 1.700187e-01 1.708847e-01 2.411143e-01 3.104951e-01 2.514279e-01 2.842760e-01 2.013929e-01 2.438031e-01 2.188274e-01 2.815455e-01 2.149449e-01 6.491151e-02
<GCONST> 9.753869e+01
<STATE> 4
<MEAN> 39
 -1.269486e+01 4.701402e+00 -3.220636e+00 -4.834433e+00 -5.061176e-01 -2.590270e+00 -4.654169e+00 -4.194579e+00 -8.905170e+00 -3.283890e+00 -1.353808e+00 -4.059199e+00 6.923588e+01 -3.231554e-01 3.742167e-02 5.559340e-02 4.319055e-02 -1.484336e-01 1.440381e-01 -9.340262e-02 2.153244e-02 1.160995e-01 -5.411411e-02 -8.884285e-02 -1.663791e-02 -4.399790e-01 7.792080e-03 -3.646758e-02 -8.537551e-03 -1.106214e-02 9.471091e-04 -3.696457e-02 2.169039e-05 -3.188392e-03 -2.579756e-02 1.239621e-02 -5.882751e-04 -7.223477e-03 5.222072e-02
<VARIANCE> 39
 2.115398e+01 1.784633e+01 1.715941e+01 1.585766e+01 3.607233e+01 2.527188e+01 4.057422e+01 2.385615e+01 2.149550e+01 2.795368e+01 2.363972e+01 1.558746e+01 4.215253e+01 3.117626e-01 9.200238e-01 8.656881e-01 9.947355e-01 1.372669e+00 1.564657e+00 1.453733e+00 1.126326e+00 1.373090e+00 1.166843e+00 1.333256e+00 9.885219e-01 4.881814e-01 5.844595e-02 1.669561e-01 1.598460e-01 2.014691e-01 2.434582e-01 2.684685e-01 2.666571e-01 2.223466e-01 2.749728e-01 2.178144e-01 2.569940e-01 1.996997e-01 6.375290e-02
<GCONST> 9.068996e+01
<TRANSP> 5
 0.000000e+00 1.000000e+00 0.000000e+00 0.000000e+00 0.000000e+00
 0.000000e+00 7.539650e-01 2.460350e-01 0.000000e+00 0.000000e+00
 0.000000e+00 0.000000e+00 7.443418e-01 2.556582e-01 0.000000e+00
 0.000000e+00 0.000000e+00 0.000000e+00 9.187799e-01 8.122015e-02
 0.000000e+00 0.000000e+00 0.000000e+00 0.000000e+00 0.000000e+00
<ENDHMM>
~h "n"
<BEGINHMM>
<NUMSTATES> 5
<STATE> 2
<MEAN> 39
 -3.250324e+00 1.002584e+00 -4.034641e+00 -6.098364e+00 -4.860169e+00 -1.227299e+01 -3.438351e+00 4.751500e+00 -7.234798e+00 -6.763255e+00 -1.719022e+00 -4.966650e+00 8.398611e+01 -1.338838e-02 5.489526e-02 -1.308338e-01 -1.835846e-01 -2.228959e-01 -6.395032e-02 4.552412e-01 1.027077e-01 -1.497740e-02 1.555966e-01 1.670714e-01 1.460553e-01 -2.575563e-01 -4.797238e-02 5.693220e-02 5.615070e-02 2.400995e-02 2.951454e-02 9.680569e-02 -4.550995e-02 -1.235020e-01 4.870019e-03 3.472609e-02 -6.594703e-02 -3.364243e-02 -9.860749e-02
<VARIANCE> 39
 9.235817e+00 2.079833e+01 3.368848e+01 2.777249e+01 7.336298e+01 8.263931e+01 5.559981e+01 8.027677e+01 8.656637e+01 5.548205e+01 4.792120e+01 2.493745e+01 3.571903e+01 3.595504e-01 1.150547e+00 1.391105e+00 1.628234e+00 1.841410e+00 2.790928e+00 2.212707e+00 2.176784e+00 2.074084e+00 1.129855e+00 2.114702e+00 1.461524e+00 1.647484e+00 4.918440e-02 1.502745e-01 2.152704e-01 2.861243e-01 3.021684e-01 3.813388e-01 3.382633e-01 3.797151e-01 3.090430e-01 2.216643e-01 3.957939e-01 2.333183e-01 1.325732e-01
<GCONST> 1.066602e+02
<STATE> 3
<MEAN> 39
 -3.923647e+00 2.072377e+00 -4.468537e+00 -6.857937e+00 -4.969290e+00 -1.130961e+01 -1.680127e+00 4.027768e+00 -8.415243e+00 -4.688895e+00 -1.105325e+00 -4.629701e+00 8.133621e+01 -2.163146e-01 3.069851e-01 7.259747e-02 7.181272e-03 -8.883248e-02 3.663093e-01 1.527508e-01 -1.658016e-01 1.828483e-01 1.945394e-01 -8.303575e-02 3.596556e-02 -6.997965e-01 -4.414005e-02 1.591547e-02 4.309081e-02 1.521761e-02 7.062348e-03 3.329039e-02 -5.480727e-02 -5.834834e-02 -2.257858e-04 6.024536e-03 -8.566024e-03 -3.906614e-03 -3.350963e-02
<VARIANCE> 39
 1.155386e+01 2.388961e+01 2.938717e+01 2.184600e+01 6.791978e+01 7.939934e+01 5.150989e+01 7.059830e+01 6.024796e+01 4.123880e+01 3.335591e+01 2.424880e+01 4.838837e+01 3.561156e-01 1.042419e+00 1.267766e+00 1.191085e+00 1.664407e+00 2.135908e+00 1.813372e+00 1.999281e+00 1.542177e+00 1.054447e+00 1.550603e+00 1.205849e+00 1.326243e+00 4.713226e-02 1.551324e-01 1.776784e-01 1.999105e-01 2.520613e-01 3.343158e-01 2.920110e-01 3.204655e-01 2.315896e-01 1.973611e-01 2.678146e-01 2.082697e-01 1.385388e-01
<GCONST> 1.012713e+02
<STATE> 4
<MEAN> 39
 -9.281620e+00 4.037857e+00 -3.365348e+00 -5.436955e+00 -3.891769e+00 -5.131470e+00 -2.693001e+00 1.841745e+00 -6.839652e+00 -4.260357e+00 -1.862197e+00 -4.555033e+00 7.244840e+01 -2.811414e-01 1.036936e-01 4.926808e-02 6.997195e-02 4.258204e-02 2.104297e-01 -4.562896e-02 -1.582192e-01 6.560164e-02 6.411742e-02 -8.514544e-03 8.012067e-03 -4.050035e-01 -3.146024e-03 -1.805277e-02 4.383026e-03 -3.359492e-03 9.900646e-03 -1.262600e-02 -4.807046e-03 -1.179214e-02 -1.796071e-02 -1.329481e-02 -6.715957e-03 7.437913e-03 3.311279e-02
<VARIANCE> 39
 3.089920e+01 2.296021e+01 1.849126e+01 1.953675e+01 4.564685e+01 5.038886e+01 2.940066e+01 5.391940e+01 3.083611e+01 2.686782e+01 2.166801e+01 2.381026e+01 6.714661e+01 4.870486e-01 8.078136e-01 9.513928e-01 9.146153e-01 1.366435e+00 1.630102e+00 1.277434e+00 1.320803e+00 1.208925e+00 9.456966e-01 1.275338e+00 1.182631e+00 7.212967e-01 7.476505e-02 1.126049e-01 1.496911e-01 1.673517e-01 2.301896e-01 2.690157e-01 2.266728e-01 2.370527e-01 2.099968e-01 1.740088e-01 2.267513e-01 2.066891e-01 7.656080e-02
<GCONST> 9.377404e+01
<TRANSP> 5
 0.000000e+00 1.000000e+00 0.000000e+00 0.000000e+00 0.000000e+00
 0.000000e+00 7.660742e-01 2.339258e-01 0.000000e+00 0.000000e+00
 0.000000e+00 0.000000e+00 7.161363e-01 2.838637e-01 0.000000e+00
 0.000000e+00 0.000000e+00 0.000000e+00 9.050334e-01 9.496660e-02
 0.000000e+00 0.000000e+00 0.000000e+00 0.000000e+00 0.000000e+00
<ENDHMM>
~h "o"
<BEGINHMM>
<NUMSTATES> 5
<STATE> 2
<MEAN> 39
 -5.830754e+00 5.439190e+00 -2.337360e+00 -6.787203e+00 -8.592757e+00 -8.927683e+00 1.315707e+00 3.064669e+00 -2.766936e+00 -6.054811e-01 -1.286378e+00 -7.044607e+00 7.639796e+01 -3.834590e-01 2.098398e-01 1.023995e-01 1.068315e-01 -3.525570e-02 4.130120e-01 -6.955439e-02 -1.580663e-01 1.042621e-01 2.720105e-01 1.388951e-01 7.605143e-04 -7.799230e-01 -5.290670e-03 1.684838e-03 -2.834826e-02 -1.706504e-02 3.823004e-02 -3.342539e-02 -6.747487e-02 -2.963310e-02 -7.237334e-02 -5.748944e-02 -2.648516e-02 7.854496e-03 -2.096950e-03
<VARIANCE> 39
 9.402367e+00 1.379005e+01 1.668184e+01 2.293992e+01 5.148437e+01 5.152198e+01 6.751904e+01 2.391089e+01 2.736795e+01 1.559060e+01 1.144096e+01 2.500492e+01 4.329564e+01 2.647835e-01 4.979665e-01 6.900882e-01 7.787299e-01 1.462839e+00 1.265917e+00 9.997382e-01 8.975520e-01 8.648415e-01 8.097203e-01 8.786082e-01 7.812558e-01 2.660689e-01 3.607448e-02 8.373609e-02 1.106333e-01 1.379200e-01 2.366757e-01 2.195847e-01 1.863535e-01 1.521097e-01 2.001918e-01 1.348516e-01 1.664831e-01 1.276884e-01 3.311464e-02
<GCONST> 8.166783e+01
<STATE> 3
<MEAN> 39
 -1.007939e+01 7.804397e+00 -1.401868e+00 -4.019248e+00 -5.865813e+00 -4.459760e+00 -3.424088e+00 2.029477e+00 -1.668957e+00 1.240301e+00 -6.816180e-01 -4.734381e+00 6.787118e+01 -6.549838e-01 7.445704e-02 -1.182251e-01 -3.451844e-01 -4.053422e-02 2.261941e-01 -2.616340e-01 -4.497746e-01 -3.894509e-01 -2.600949e-01 -4.365155e-02 1.585464e-01 -5.772330e-01 2.120808e-02 -4.559893e-03 2.668037e-02 2.400092e-02 -3.643135e-03 -7.976769e-02 4.393547e-02 -2.455219e-02 -7.755248e-02 -1.085614e-01 -4.777098e-02 -1.899810e-02 6.695452e-02
<VARIANCE> 39
 5.785431e+00 1.982760e+01 1.804786e+01 1.148055e+01 2.551302e+01 2.216463e+01 2.018082e+01 2.684865e+01 3.034810e+01 1.082907e+01 8.478708e+00 9.127237e+00 3.516739e+00 1.592523e-01 5.840171e-01 8.179214e-01 6.621513e-01 1.252565e+00 1.127293e+00 8.662412e-01 7.834361e-01 9.597914e-01 1.390600e+00 1.153829e+00 6.821349e-01 1.118266e-01 2.978291e-02 8.642586e-02 1.164928e-01 1.279318e-01 1.965483e-01 1.638919e-01 1.534096e-01 1.306630e-01 2.409854e-01 1.774949e-01 2.467567e-01 1.459424e-01 1.773807e-02
<GCONST> 7.259332e+01
<STATE> 4
<MEAN> 39
 -1.605525e+01 6.455313e+00 -1.930508e+00 -3.841027e+00 -4.332212e+00 -2.587308e+00 -4.853047e+00 -1.577074e+00 -5.556282e+00 -2.232639e+00 -1.450623e+00 -4.079024e+00 6.393714e+01 -2.424052e-01 -1.257505e-01 -8.336160e-02 -6.448844e-03 5.627234e-02 8.977177e-02 -2.999631e-02 -1.236406e-01 -1.174720e-01 -1.282524e-01 -7.371882e-02 -1.935281e-02 -1.368282e-01 9.218703e-03 -1.456885e-02 2.149562e-02 -7.425529e-04 1.453743e-03 -1.642774e-02 4.195459e-04 5.527903e-03 8.328480e-03 1.069903e-02 -1.456866e-02 -2.517609e-02 2.866055e-02
<VARIANCE> 39
 6.662550e+00 7.809505e+00 1.022520e+01 6.977767e+00 9.192598e+00 9.744934e+00 1.014671e+01 1.371644e+01 1.374711e+01 1.011528e+01 7.834206e+00 6.215724e+00 4.317295e+00 1.312210e-01 2.170458e-01 3.565831e-01 4.399517e-01 5.948045e-01 7.088501e-01 7.162242e-01 8.344277e-01 7.695982e-01 7.504346e-01 8.953136e-01 6.472339e-01 6.996915e-02 2.127980e-02 4.274603e-02 7.684755e-02 8.418242e-02 1.168230e-01 1.432617e-01 1.499583e-01 1.582422e-01 1.504179e-01 1.614147e-01 1.960562e-01 1.375052e-01 1.158444e-02
<GCONST> 5.740303e+01
<TRANSP> 5
 0.000000e+00 1.000000e+00 0.000000e+00 0.000000e+00 0.000000e+00
 0.000000e+00 8.937626e-01 1.062374e-01 0.000000e+00 0.000000e+00
 0.000000e+00 0.000000e+00 6.581662e-01 3.418338e-01 0.000000e+00
 0.000000e+00 0.000000e+00 0.000000e+00 9.610201e-01 3.897994e-02
 0.000000e+00 0.000000e+00 0.000000e+00 0.000000e+00 0.000000e+00
<ENDHMM>
~h "p"
<BEGINHMM>
<NUMSTATES> 5
<STATE> 2
<MEAN> 39
 -8.241263e+00 1.640506e+00 -3.310425e+00 -3.390883e+00 -4.054663e-01 -8.583074e+00 -5.584418e+00 -3.736429e+00 -1.268866e+01 -2.612505e+00 -1.769970e+00 -6.066851e+00 7.814211e+01 4.957860e-01 -1.779922e-02 1.264514e-01 1.151886e-01 1.389654e-01 -4.397871e-02 1.185500e-01 -2.386815e-01 -7.465275e-02 -1.214014e-01 -2.199283e-01 -4.949912e-02 4.324755e-01 2.255083e-02 -3.098190e-03 2.034158e-02 -9.393515e-02 -7.118993e-02 1.786060e-02 -8.564555e-03 1.221599e-02 -1.931540e-02 -6.579807e-02 -9.575447e-02 -4.894177e-02 5.177747e-02
<VARIANCE> 39
 3.702743e+01 5.061141e+01 3.282382e+01 3.469756e+01 4.187174e+01 8.072561e+01 4.334042e+01 4.859485e+01 7.505313e+01 9.267212e+01 3.100719e+01 2.422518e+01 1.005996e+02 2.539855e+00 3.747106e+00 2.224475e+00 2.852240e+00 3.647913e+00 4.064918e+00 3.083859e+00 3.208107e+00 5.800127e+00 4.117765e+00 2.467086e+00 2.308975e+00 5.869782e+00 3.499226e-01 6.857568e-01 4.261849e-01 4.726957e-01 5.758756e-01 7.516816e-01 4.991561e-01 6.363887e-01 1.013821e+00 6.818306e-01 4.796530e-01 4.674402e-01 6.951690e-01
<GCONST> 1.306396e+02
<STATE> 3
<MEAN> 39
 -7.079624e+00 2.946639e+00 -2.475790e+00 -3.421066e+00 -7.186303e-01 -8.084268e+00 -5.439002e+00 -3.458243e+00 -1.167027e+01 -4.441483e+00 -3.319701e+00 -6.423532e+00 7.807425e+01 2.219505e-01 1.127412e-01 1.415579e-01 -9.331818e-02 -1.974788e-01 5.791660e-02 5.217245e-03 8.158593e-02 2.288383e-01 -1.250863e-01 -2.502342e-01 -1.035990e-01 1.692783e-01 -8.185189e-02 -1.813784e-02 -1.127896e-02 -3.193369e-02 -4.104234e-02 -3.203281e-02 -4.494170e-02 4.237523e-02 2.679335e-02 4.309893e-02 4.568280e-02 -2.251158e-03 -2.011239e-02
<VARIANCE> 39
 2.526970e+01 4.611267e+01 3.177752e+01 3.768745e+01 5.551400e+01 5.861967e+01 5.286432e+01 4.754000e+01 7.213388e+01 7.988021e+01 3.659519e+01 2.990861e+01 7.045617e+01 2.633498e+00 4.047914e+00 2.382747e+00 2.416550e+00 4.035024e+00 4.767895e+00 3.032549e+00 2.932361e+00 5.691314e+00 3.418263e+00 2.530129e+00 2.399415e+00 6.588551e+00 3.558905e-01 6.876063e-01 4.545117e-01 4.437835e-01 6.718402e-01 7.500645e-01 5.599744e-01 5.468773e-01 9.477592e-01 6.144480e-01 4.587730e-01 4.777875e-01 6.819504e-01
<GCONST> 1.302526e+02
<STATE> 4
<MEAN> 39
 -7.380696e+00 2.976261e+00 -2.158832e+00 -4.369231e+00 -3.627686e+00 -8.910766e+00 -4.912909e+00 -6.057551e-01 -8.244133e+00 -5.443152e+00 -4.441572e+00 -5.695100e+00 7.834721e+01 -1.853251e-02 -2.493866e-01 -7.776245e-04 -1.157157e-01 -3.790881e-02 -2.325209e-01 -1.619099e-01 1.043388e-01 -1.354704e-01 -2.212675e-03 1.327752e-01 2.240341e-02 4.134370e-01 1.073410e-02 -2.228571e-02 2.243843e-03 2.483621e-02 3.308859e-02 -4.341393e-02 2.699924e-02 3.456599e-02 -5.743914e-02 1.214698e-02 3.386818e-02 -7.843669e-03 3.058229e-02
<VARIANCE> 39
 3.215950e+01 5.539265e+01 5.011338e+01 4.328051e+01 7.635886e+01 7.705325e+01 5.441243e+01 6.624641e+01 6.378866e+01 4.528097e+01 3.262491e+01 3.315161e+01 7.700975e+01 2.780700e+00 4.543005e+00 3.489100e+00 3.219732e+00 4.270881e+00 5.505575e+00 3.592839e+00 3.207401e+00 5.123215e+00 2.415527e+00 2.253621e+00 2.502495e+00 6.694740e+00 5.059329e-01 7.010764e-01 5.765431e-01 5.243851e-01 6.602980e-01 8.590901e-01 6.287649e-01 5.963487e-01 8.896921e-01 4.633227e-01 4.017346e-01 4.389448e-01 9.713157e-01
<GCONST> 1.332856e+02
<TRANSP> 5
 0.000000e+00 1.000000e+00 0.000000e+00 0.000000e+00 0.000000e+00
 0.000000e+00 7.630702e-01 2.369299e-01 0.000000e+00 0.000000e+00
 0.000000e+00 0.000000e+00 7.694480e-01 2.305520e-01 0.000000e+00
 0.000000e+00 0.000000e+00 0.000000e+00 9.249758e-01 7.502421e-02
 0.000000e+00 0.000000e+00 0.000000e+00 0.000000e+00 0.000000e+00
<ENDHMM>
~h "r"
<BEGINHMM>
<NUMSTATES> 5
<STATE> 2
<MEAN> 39
 -8.135347e+00 -1.011063e+00 -4.745358e+00 -5.660107e+00 1.336296e+00 -1.128052e+01 -9.849058e+00 -5.650122e+00 -1.306049e+01 7.981477e-01 2.941722e+00 -4.909553e+00 8.398319e+01 -1.907394e-01 3.745015e-01 2.464284e-01 3.391373e-01 4.807137e-01 3.644316e-02 -7.252899e-02 -1.287481e-01 -3.117162e-02 -3.547761e-01 -1.120634e-01 -1.225547e-02 -5.639423e-01 -3.535974e-02 7.000126e-02 4.084051e-02 3.246021e-03 -8.310732e-02 1.500339e-01 1.443446e-01 6.214426e-02 6.547498e-02 -9.531822e-02 -1.377105e-01 -3.790278e-02 -8.903036e-02
<VARIANCE> 39
 2.471231e+01 2.996400e+01 2.342799e+01 3.120875e+01 2.898449e+01 5.284031e+01 3.961147e+01 4.828857e+01 4.691373e+01 6.726208e+01 3.028261e+01 2.314361e+01 6.846855e+01 2.005512e+00 2.190661e+00 2.479757e+00 2.209522e+00 2.684952e+00 3.858122e+00 2.637856e+00 2.648368e+00 3.538595e+00 2.418916e+00 2.688980e+00 2.082148e+00 3.399066e+00 3.878920e-01 3.430628e-01 4.363663e-01 3.425872e-01 4.263042e-01 7.429472e-01 4.813945e-01 5.155907e-01 7.399507e-01 4.716657e-01 4.610214e-01 4.844922e-01 5.499220e-01
<GCONST> 1.215508e+02
<STATE> 3
<MEAN> 39
 -9.173620e+00 6.748796e-03 -3.485952e+00 -4.607069e+00 2.055112e+00 -1.063526e+01 -8.456949e+00 -4.714973e+00 -1.307185e+01 -1.663658e+00 1.419721e+00 -5.171044e+00 8.202616e+01 -1.038867e-01 4.182498e-01 3.010144e-01 3.008475e-01 5.747586e-02 3.690129e-01 3.299916e-01 2.186038e-01 1.483625e-01 -4.241264e-01 -3.922101e-01 -1.909135e-01 -6.828923e-01 9.692670e-02 2.774191e-02 -6.940049e-03 -4.258985e-03 -1.986710e-01 1.037803e-01 9.217045e-02 9.795564e-02 1.363634e-01 4.001699e-02 -7.389458e-02 -1.527731e-02 -1.001934e-01
<VARIANCE> 39
 3.364687e+01 3.059375e+01 4.013572e+01 4.880695e+01 3.470913e+01 5.811769e+01 3.939178e+01 5.680294e+01 4.800381e+01 6.444464e+01 3.394815e+01 2.460802e+01 6.300037e+01 2.560896e+00 3.098266e+00 3.347166e+00 2.803441e+00 2.929862e+00 5.144586e+00 2.672382e+00 3.363816e+00 4.715518e+00 3.017916e+00 2.753962e+00 2.585854e+00 4.995276e+00 4.595885e-01 4.286202e-01 5.653881e-01 4.654015e-01 5.730553e-01 8.892092e-01 5.005895e-01 6.944520e-01 8.760926e-01 5.327426e-01 5.099031e-01 5.266660e-01 5.923843e-01
<GCONST> 1.285801e+02
<STATE> 4
<MEAN> 39
 -1.021232e+01 9.533707e-01 1.981292e+00 -1.218644e+00 2.411868e+00 -1.033842e+01 -8.117999e+00 -3.429395e+00 -1.293169e+01 -4.870625e+00 -1.268963e+00 -7.355095e+00 7.983725e+01 2.627748e-01 1.500716e-01 -4.119334e-02 6.566277e-02 -3.741109e-01 2.475181e-01 2.690648e-01 1.702284e-01 1.980750e-01 -1.589122e-01 -1.316833e-01 3.210163e-02 -3.906367e-01 1.553291e-02 3.050530e-03 -1.177890e-01 -2.555193e-02 -6.535106e-02 6.893196e-04 -7.534781e-03 -1.180027e-02 5.611194e-02 5.625324e-02 2.314235e-02 3.609596e-02 -5.535996e-02
<VARIANCE> 39
 3.449984e+01 4.499164e+01 6.293642e+01 6.785107e+01 5.851193e+01 7.454669e+01 5.166527e+01 5.435692e+01 5.619358e+01 4.997207e+01 3.556639e+01 3.494578e+01 6.218881e+01 3.149538e+00 3.707909e+00 3.762583e+00 3.487972e+00 4.217434e+00 7.723969e+00 3.908629e+00 4.830619e+00 6.998411e+00 3.073742e+00 3.027573e+00 3.623213e+00 7.279924e+00 5.777639e-01 5.794783e-01 6.729022e-01 5.872733e-01 7.288040e-01 1.372841e+00 7.536882e-01 9.251600e-01 1.277952e+00 5.875706e-01 5.356998e-01 6.898875e-01 9.301209e-01
<GCONST> 1.380664e+02
<TRANSP> 5
 0.000000e+00 1.000000e+00 0.000000e+00 0.000000e+00 0.000000e+00
 0.000000e+00 6.579506e-01 3.420494e-01 0.000000e+00 0.000000e+00
 0.000000e+00 0.000000e+00 5.804321e-01 4.195679e-01 0.000000e+00
 0.000000e+00 0.000000e+00 0.000000e+00 8.507212e-01 1.492788e-01
 0.000000e+00 0.000000e+00 0.000000e+00 0.000000e+00 0.000000e+00
<ENDHMM>
~h "s"
<BEGINHMM>
<NUMSTATES> 5
<STATE> 2
<MEAN> 39
 -1.478484e+01 5.687798e+00 -2.557515e+00 -5.935479e+00 -3.232426e+00 -3.908467e+00 -6.145240e+00 -4.246525e+00 -9.772338e+00 -5.902182e+00 -4.449990e+00 -6.385312e+00 6.858765e+01 -3.289045e-01 -9.563947e-02 -2.407538e-02 -7.749502e-02 1.251692e-01 1.003374e-01 -1.577738e-02 -1.186768e-01 1.534122e-02 2.018929e-01 1.112399e-01 3.598247e-02 -5.080409e-02 -2.454333e-02 -5.813462e-02 7.815358e-02 -1.971994e-02 1.050052e-02 -7.841451e-03 9.945175e-03 -1.835943e-02 -2.454698e-03 -1.665412e-02 -3.585967e-03 4.466113e-03 5.692263e-02
<VARIANCE> 39
 2.794361e+01 2.215470e+01 2.825730e+01 2.067363e+01 1.896170e+01 1.836910e+01 1.439888e+01 1.818522e+01 1.763797e+01 2.708176e+01 1.738606e+01 1.722318e+01 4.914669e+01 7.752800e-01 1.118377e+00 1.357087e+00 1.193077e+00 1.360303e+00 1.478212e+00 1.397970e+00 1.288874e+00 1.454894e+00 1.227689e+00 1.025700e+00 8.051096e-01 7.899640e-01 1.634086e-01 2.078395e-01 2.595453e-01 2.211023e-01 2.662981e-01 2.843258e-01 2.789060e-01 2.774942e-01 2.816469e-01 2.380370e-01 1.983889e-01 1.506057e-01 1.480223e-01
<GCONST> 9.393813e+01
<STATE> 3
<MEAN> 39
 -1.679051e+01 4.465168e+00 -2.514704e+00 -7.147386e+00 -2.959474e+00 -3.729265e+00 -5.976937e+00 -3.834091e+00 -9.179271e+00 -4.529629e+00 -3.692496e+00 -6.159203e+00 6.935981e+01 -4.709272e-01 -3.105759e-01 4.637539e-01 -1.987654e-01 1.788810e-01 1.278008e-01 2.537023e-02 -1.238290e-01 8.135188e-03 2.071465e-01 3.089728e-03 -1.924147e-02 3.650602e-01 -5.931395e-02 -1.706677e-01 1.485619e-01 -8.579534e-03 -5.411519e-02 -5.143106e-02 3.802440e-03 -2.746988e-02 -2.553549e-02 -1.765576e-02 -1.333383e-02 1.088152e-02 1.451287e-01
<VARIANCE> 39
 3.574743e+01 2.407919e+01 2.842849e+01 1.919621e+01 2.291940e+01 2.097277e+01 1.946825e+01 2.059257e+01 2.009049e+01 3.070125e+01 1.809604e+01 1.777635e+01 7.477556e+01 1.602556e+00 2.083556e+00 2.093945e+00 1.828997e+00 1.840143e+00 1.622934e+00 1.830909e+00 1.525476e+00 1.633063e+00 1.571639e+00 1.146368e+00 1.074789e+00 1.444149e+00 3.109766e-01 3.597898e-01 3.924401e-01 3.317326e-01 3.393868e-01 2.876761e-01 3.586255e-01 3.323228e-01 3.107842e-01 3.206037e-01 2.424743e-01 2.261630e-01 3.129115e-01
<GCONST> 1.045531e+02
<STATE> 4
<MEAN> 39
 -2.115943e+01 6.216865e-01 2.051859e+00 -8.949095e+00 -2.597775e+00 -2.916865e+00 -5.265529e+00 -4.036595e+00 -8.488894e+00 -3.834393e+00 -3.976202e+00 -4.946503e+00 7.298080e+01 -2.577017e-01 -4.034868e-01 2.662042e-01 -2.323194e-01 -1.253932e-01 -4.581805e-02 8.293571e-02 -5.522233e-02 2.032614e-02 1.794513e-01 -9.520856e-03 6.667863e-02 4.462270e-01 2.047178e-01 8.810160e-02 -1.808155e-01 9.897998e-02 -4.355091e-02 -7.694104e-02 -5.226219e-03 3.634056e-03 -5.936487e-02 -1.979470e-02 4.855668e-02 -3.775963e-02 -9.587739e-02
<VARIANCE> 39
 5.596929e+01 4.706937e+01 5.697279e+01 2.905471e+01 3.713201e+01 2.856400e+01 3.020390e+01 2.070507e+01 2.279536e+01 3.524694e+01 1.822662e+01 2.174656e+01 7.464316e+01 3.564836e+00 3.078657e+00 3.931893e+00 2.530660e+00 2.342925e+00 2.254289e+00 2.699201e+00 1.860300e+00 1.929414e+00 2.233424e+00 1.541801e+00 1.564495e+00 2.832871e+00 5.795667e-01 6.197325e-01 6.400230e-01 4.804914e-01 4.746255e-01 4.272960e-01 5.456309e-01 4.124118e-01 3.701218e-01 4.349417e-01 3.194340e-01 3.293791e-01 5.111299e-01
<GCONST> 1.186685e+02
<TRANSP> 5
 0.000000e+00 1.000000e+00 0.000000e+00 0.000000e+00 0.000000e+00
 0.000000e+00 7.272447e-01 2.727552e-01 0.000000e+00 0.000000e+00
 0.000000e+00 0.000000e+00 4.195488e-01 5.804513e-01 0.000000e+00
 0.000000e+00 0.000000e+00 0.000000e+00 6.789362e-01 3.210638e-01
 0.000000e+00 0.000000e+00 0.000000e+00 0.000000e+00 0.000000e+00
<ENDHMM>
~h "t"
<BEGINHMM>
<NUMSTATES> 5
<STATE> 2
<MEAN> 39
 -7.788531e+00 8.361052e-01 -3.916066e+00 -6.958668e+00 -2.107761e+00 -1.072713e+01 -3.786800e+00 -5.437449e-01 -1.212800e+01 -1.106452e+00 -9.265260e-01 -6.487010e+00 8.157381e+01 1.195761e-01 2.552449e-01 3.220098e-02 7.559621e-02 6.341165e-02 4.040118e-01 1.517091e-01 7.799372e-02 3.396221e-01 4.104839e-02 -9.843684e-02 -6.456150e-03 -5.176688e-01 6.886970e-03 5.358602e-02 1.353272e-02 4.276802e-02 -1.581370e-02 8.194818e-02 -8.387850e-03 2.503332e-02 1.011009e-01 -4.142241e-02 -7.454775e-02 -1.959395e-02 -1.442060e-01
<VARIANCE> 39
 3.466942e+01 2.713980e+01 3.837768e+01 4.963614e+01 4.498937e+01 7.503698e+01 4.970677e+01 6.303442e+01 5.897198e+01 4.216866e+01 3.577480e+01 2.465376e+01 7.900120e+01 1.599067e+00 2.638269e+00 2.283307e+00 2.186636e+00 2.517417e+00 3.765052e+00 2.723803e+00 3.521168e+00 3.932297e+00 2.295557e+00 2.131526e+00 2.441956e+00 5.182430e+00 2.427990e-01 3.369367e-01 3.607761e-01 3.466154e-01 4.013617e-01 5.927567e-01 4.615023e-01 6.370933e-01 6.976501e-01 3.909881e-01 3.501298e-01 3.712036e-01 5.935794e-01
<GCONST> 1.231698e+02
<STATE> 3
<MEAN> 39
 -8.113463e+00 1.623711e+00 -3.589597e+00 -6.336626e+00 -1.685990e+00 -9.489191e+00 -3.674538e+00 -1.252985e-01 -1.042788e+01 -1.323070e+00 -1.537058e+00 -6.289936e+00 7.918629e+01 -4.439984e-02 1.824959e-01 -7.034949e-02 1.985301e-02 -8.806258e-02 5.878301e-01 1.125705e-01 1.728339e-02 5.678756e-01 -4.586807e-03 -1.655441e-01 3.245142e-02 -7.735038e-01 -9.314418e-03 -2.294463e-02 1.679601e-02 1.567678e-02 -9.933894e-03 -5.416843e-02 -6.981285e-02 -9.097791e-02 -1.129069e-01 -9.346894e-02 2.605943e-02 6.674641e-02 8.814428e-02
<VARIANCE> 39
 3.041558e+01 3.288168e+01 3.749024e+01 3.802626e+01 4.570562e+01 6.251340e+01 5.281582e+01 5.222718e+01 5.299013e+01 3.638755e+01 3.176733e+01 2.330477e+01 7.949458e+01 8.606445e-01 1.830929e+00 2.003835e+00 1.552575e+00 2.714018e+00 3.188752e+00 2.302897e+00 2.627810e+00 2.982574e+00 1.823261e+00 1.908282e+00 1.661103e+00 2.855987e+00 1.288158e-01 3.055373e-01 3.135824e-01 2.728981e-01 4.071063e-01 5.138709e-01 3.965488e-01 4.990946e-01 5.643241e-01 3.326366e-01 3.373162e-01 2.851558e-01 3.684315e-01
<GCONST> 1.158286e+02
<STATE> 4
<MEAN> 39
 -8.690061e+00 2.449470e+00 -3.682544e+00 -5.919275e+00 -2.977976e+00 -8.733927e+00 -4.107186e+00 -3.371050e-01 -9.255774e+00 -2.107129e+00 -1.732930e+00 -5.759365e+00 7.597466e+01 -1.344886e-01 9.136929e-02 -5.939605e-02 -2.119286e-02 -1.071551e-01 4.354917e-01 -2.323440e-02 -1.635651e-01 8.263639e-02 -1.826824e-01 -4.442237e-02 1.459888e-01 -4.165733e-01 -2.582616e-02 -3.132490e-03 7.777783e-02 1.471912e-02 4.628145e-02 -3.776163e-02 -2.172709e-02 -3.508122e-02 -1.317189e-01 -3.527432e-02 2.030919e-02 3.960497e-02 1.435005e-01
<VARIANCE> 39
 2.475029e+01 3.360251e+01 3.109019e+01 3.403673e+01 4.105091e+01 4.996392e+01 5.058995e+01 4.753311e+01 4.414893e+01 3.254204e+01 2.443227e+01 2.037839e+01 6.885751e+01 6.843330e-01 1.372855e+00 1.264585e+00 1.245590e+00 2.221422e+00 2.052412e+00 1.725857e+00 2.157416e+00 2.089954e+00 1.621440e+00 1.450471e+00 1.279355e+00 1.569953e+00 1.021035e-01 2.527380e-01 2.244467e-01 2.369770e-01 4.007205e-01 3.587348e-01 3.397901e-01 3.929685e-01 3.764090e-01 3.226552e-01 2.700147e-01 2.287856e-01 2.756982e-01
<GCONST> 1.072771e+02
<TRANSP> 5
 0.000000e+00 1.000000e+00 0.000000e+00 0.000000e+00 0.000000e+00
 0.000000e+00 5.937651e-01 4.062349e-01 0.000000e+00 0.000000e+00
 0.000000e+00 0.000000e+00 4.632072e-01 5.367928e-01 0.000000e+00
 0.000000e+00 0.000000e+00 0.000000e+00 6.121049e-01 3.878950e-01
 0.000000e+00 0.000000e+00 0.000000e+00 0.000000e+00 0.000000e+00
<ENDHMM>
~h "u"
<BEGINHMM>
<NUMSTATES> 5
<STATE> 2
<MEAN> 39
 -8.202167e+00 5.099778e+00 2.375041e+00 -2.926067e+00 3.918941e+00 -9.812325e+00 -6.973036e+00 -2.750106e+00 -1.313586e+01 -7.007054e+00 -6.578699e+00 -8.042808e+00 8.069472e+01 9.078059e-02 1.426341e-01 3.230532e-01 1.651659e-01 1.796362e-01 -4.161594e-01 -1.017323e-01 2.968607e-01 -4.345676e-02 1.361873e-01 -1.389403e-01 -2.450485e-01 2.291297e-01 -6.061452e-02 -2.525306e-02 -2.330152e-02 -4.439501e-02 -1.458456e-01 1.230347e-01 3.438086e-02 -1.032989e-01 1.629733e-01 1.375208e-01 6.146846e-02 5.138439e-02 -8.111110e-02
<VARIANCE> 39
 2.421190e+01 4.998067e+01 3.498890e+01 4.903246e+01 6.661663e+01 6.694983e+01 7.130007e+01 7.063639e+01 1.013806e+02 5.545733e+01 5.598574e+01 4.004022e+01 4.608634e+01 1.300386e+00 3.017118e+00 2.160886e+00 2.803207e+00 3.944520e+00 4.863681e+00 3.724700e+00 3.757480e+00 4.891791e+00 3.482778e+00 4.215702e+00 2.671330e+00 2.565508e+00 2.444274e-01 5.379839e-01 3.372556e-01 4.502861e-01 6.574677e-01 8.078928e-01 6.359658e-01 6.635206e-01 8.718889e-01 7.403405e-01 6.871712e-01 4.175452e-01 4.015685e-01
<GCONST> 1.302829e+02
<STATE> 3
<MEAN> 39
 -8.090255e+00 4.710741e+00 3.534583e+00 -1.862519e+00 3.487905e+00 -1.233107e+01 -7.467045e+00 -9.637142e-01 -1.270436e+01 -5.570147e+00 -5.445452e+00 -9.333026e+00 8.119704e+01 -3.582086e-03 -3.179728e-02 9.965701e-03 1.532174e-01 -2.505525e-01 -7.562421e-02 5.271510e-02 -1.477072e-02 3.372625e-01 5.224925e-01 2.212141e-01 -2.037011e-02 -1.382078e-01 -4.883866e-02 -9.160113e-02 -1.321968e-01 -1.268529e-01 -7.173289e-02 1.817236e-01 1.697766e-02 -1.048018e-01 1.102066e-01 2.230839e-02 3.925804e-02 7.809147e-02 -2.627722e-02
<VARIANCE> 39
 2.157212e+01 5.149029e+01 4.673740e+01 6.222277e+01 7.165983e+01 7.171010e+01 7.796683e+01 6.231063e+01 7.277973e+01 4.562579e+01 5.784829e+01 5.051785e+01 4.146852e+01 8.204111e-01 1.847645e+00 1.897535e+00 1.930983e+00 2.444843e+00 4.272571e+00 2.727741e+00 2.519417e+00 3.677545e+00 2.236933e+00 2.458175e+00 2.049552e+00 1.294543e+00 1.443723e-01 3.340117e-01 2.945961e-01 3.634743e-01 4.487814e-01 7.098448e-01 5.020227e-01 4.847912e-01 5.755526e-01 4.778045e-01 4.352947e-01 3.005981e-01 1.901660e-01
<GCONST> 1.206743e+02
<STATE> 4
<MEAN> 39
 -8.588115e+00 6.124102e+00 4.053071e+00 -3.576567e+00 6.028328e-01 -1.189459e+01 -5.770307e+00 -8.490412e-01 -1.152452e+01 -4.242532e+00 -5.911834e+00 -1.082771e+01 8.013777e+01 -1.420034e-01 -2.097272e-01 -3.365320e-01 -8.745964e-02 -2.023268e-01 3.428674e-01 9.536417e-02 -1.936340e-01 3.935382e-01 3.511248e-01 2.011604e-01 2.738320e-01 -3.035339e-01 -2.038283e-02 -7.287719e-02 -7.151124e-02 -7.321849e-02 7.430017e-03 5.216852e-02 2.885859e-02 -8.159976e-03 -9.620791e-03 -6.524625e-02 7.414175e-04 6.714294e-02 7.774643e-03
<VARIANCE> 39
 2.487236e+01 6.008585e+01 4.670696e+01 6.775699e+01 7.920158e+01 7.302457e+01 7.000508e+01 6.006087e+01 5.954849e+01 4.770582e+01 5.306572e+01 4.806550e+01 4.003444e+01 5.985143e-01 1.572984e+00 1.627361e+00 1.564375e+00 1.811698e+00 2.691136e+00 2.410384e+00 2.163544e+00 2.363781e+00 2.089602e+00 1.681718e+00 1.782235e+00 9.486771e-01 8.799449e-02 2.513196e-01 2.333416e-01 2.510952e-01 2.833598e-01 4.182403e-01 4.391139e-01 3.628817e-01 3.800664e-01 4.046350e-01 2.879573e-01 2.665124e-01 1.160988e-01
<GCONST> 1.130802e+02
<TRANSP> 5
 0.000000e+00 1.000000e+00 0.000000e+00 0.000000e+00 0.000000e+00
 0.000000e+00 7.189431e-01 2.810569e-01 0.000000e+00 0.000000e+00
 0.000000e+00 0.000000e+00 5.896913e-01 4.103088e-01 0.000000e+00
 0.000000e+00 0.000000e+00 0.000000e+00 7.623964e-01 2.376036e-01
 0.000000e+00 0.000000e+00 0.000000e+00 0.000000e+00 0.000000e+00
<ENDHMM>
~h "y"
<BEGINHMM>
<NUMSTATES> 5
<STATE> 2
<MEAN> 39
 -1.113392e+01 -1.109300e+00 -2.632580e+00 -8.089153e+00 -5.944310e+00 -7.053122e+00 5.319805e-01 -3.359514e+00 -1.171571e+01 -2.587237e-01 -1.622208e+00 -4.402566e+00 8.208350e+01 1.315790e+00 -5.324296e-01 -7.130822e-01 -7.649556e-03 4.012532e-01 -5.731430e-01 -3.363929e-02 2.959612e-01 4.363361e-02 4.231937e-01 4.630635e-01 2.957880e-02 1.884454e+00 1.078854e-01 -4.797034e-02 -5.180821e-02 1.060961e-01 8.974942e-02 -1.138220e-01 -2.835999e-01 -1.053851e-01 -3.780631e-02 1.090926e-02 2.558489e-02 -5.387174e-02 -1.752255e-02
<VARIANCE> 39
 6.330257e+01 3.206770e+01 4.123244e+01 2.533355e+01 3.064981e+01 4.470280e+01 2.562534e+01 3.205522e+01 2.763479e+01 5.185223e+01 1.887002e+01 2.221631e+01 7.529681e+01 2.962185e+00 3.110516e+00 2.660015e+00 1.889692e+00 2.097216e+00 2.658396e+00 2.959294e+00 3.440504e+00 2.431427e+00 3.088345e+00 1.587929e+00 2.048626e+00 2.001365e+00 6.016687e-01 5.781515e-01 4.966246e-01 3.923061e-01 3.988039e-01 5.336030e-01 3.987927e-01 5.298882e-01 4.060582e-01 4.570450e-01 3.508388e-01 2.644391e-01 4.624446e-01
<GCONST> 1.189428e+02
<STATE> 3
<MEAN> 39
 -6.732195e+00 -2.697699e+00 -5.377567e+00 -7.460276e+00 -5.514521e+00 -9.850565e+00 -5.428052e-01 -1.789978e+00 -1.176958e+01 -2.735949e-02 -2.235111e-01 -4.523960e+00 8.725223e+01 8.330193e-01 -8.805915e-01 -1.059528e+00 6.566843e-01 4.932374e-01 -8.407056e-01 -6.649108e-01 1.392521e-01 6.853303e-02 6.823914e-01 5.422297e-01 -1.669265e-04 1.431913e+00 -2.763946e-01 7.536415e-02 1.396979e-01 2.536781e-01 1.605469e-01 -9.969413e-02 -2.487917e-01 -1.981643e-01 1.749343e-02 4.918656e-02 -4.939025e-02 -1.667011e-02 -3.159168e-01
<VARIANCE> 39
 3.455500e+01 3.268913e+01 3.924459e+01 2.322144e+01 3.400509e+01 4.610809e+01 2.761450e+01 4.252428e+01 3.379888e+01 5.923987e+01 1.789881e+01 2.837268e+01 3.698949e+01 2.468830e+00 2.139720e+00 2.048200e+00 1.735942e+00 1.897635e+00 2.191202e+00 2.086055e+00 3.526169e+00 2.580876e+00 2.145037e+00 1.617693e+00 1.877736e+00 2.096019e+00 2.984665e-01 4.981052e-01 4.599016e-01 2.980281e-01 3.447867e-01 4.068621e-01 4.381220e-01 4.737936e-01 3.908630e-01 4.779121e-01 2.662058e-01 3.667246e-01 1.845808e-01
<GCONST> 1.141826e+02
<STATE> 4
<MEAN> 39
 -7.002176e+00 -4.490351e+00 -4.353747e+00 1.116237e+00 1.865052e+00 -1.825301e+01 -1.026747e+01 -5.576231e+00 -1.357380e+01 2.700926e+00 1.134747e+00 -6.251709e+00 8.964137e+01 -6.270851e-02 1.346985e-02 6.100141e-02 -3.273457e-03 2.439144e-01 -3.104044e-02 -3.030593e-01 -1.019650e-01 3.721956e-02 4.961406e-02 7.127078e-02 -5.084582e-02 -1.582402e-02 -9.108666e-03 3.732211e-02 2.830066e-02 -7.788186e-02 -4.808991e-02 8.492595e-02 5.437266e-02 3.335535e-02 9.452268e-03 -6.711303e-02 -2.228482e-02 2.120693e-03 -6.224436e-02
<VARIANCE> 39
 2.111889e+01 1.488305e+01 3.010316e+01 4.936394e+01 5.049675e+01 5.172251e+01 4.658406e+01 5.099938e+01 7.563627e+01 8.495061e+01 3.433173e+01 4.446041e+01 1.162196e+01 5.671883e-01 6.410264e-01 1.956103e+00 3.116051e+00 2.771135e+00 3.152300e+00 2.070125e+00 1.766493e+00 2.224010e+00 2.131326e+00 1.634561e+00 2.430466e+00 4.505741e-01 8.822186e-02 8.626803e-02 2.351336e-01 2.564524e-01 2.692353e-01 3.058396e-01 2.612067e-01 3.070413e-01 3.025297e-01 3.708562e-01 2.430307e-01 4.349889e-01 5.218132e-02
<GCONST> 1.052277e+02
<TRANSP> 5
 0.000000e+00 1.000000e+00 0.000000e+00 0.000000e+00 0.000000e+00
 0.000000e+00 5.507003e-01 4.492997e-01 0.000000e+00 0.000000e+00
 0.000000e+00 0.000000e+00 6.112571e-01 3.887429e-01 0.000000e+00
 0.000000e+00 0.000000e+00 0.000000e+00 9.562402e-01 4.375979e-02
 0.000000e+00 0.000000e+00 0.000000e+00 0.000000e+00 0.000000e+00
<ENDHMM>
~h "ay"
<BEGINHMM>
<NUMSTATES> 5
<STATE> 2
<MEAN> 39
 -2.496201e+01 -2.337162e+00 4.893822e+00 -1.020333e+01 -4.861068e+00 -2.494340e+00 -5.275265e+00 -5.445555e+00 -8.318786e+00 -3.077426e+00 -2.698271e+00 -4.905526e+00 7.361810e+01 -1.204463e+00 -1.127748e+00 1.268355e+00 -9.432155e-01 -3.062714e-02 1.563413e-01 3.747873e-02 3.698393e-02 9.192809e-02 3.737392e-01 5.097628e-01 2.148196e-01 1.807019e+00 -5.778861e-02 8.551703e-02 -3.171822e-02 -6.116425e-02 8.943963e-02 -2.234180e-02 -1.518502e-02 4.097348e-02 -5.538956e-03 -2.862652e-02 -8.401097e-03 2.376671e-02 1.019283e-01
<VARIANCE> 39
 4.131313e+01 4.441459e+01 5.139822e+01 3.393595e+01 2.093672e+01 2.279042e+01 3.992690e+01 2.353038e+01 3.121617e+01 2.552565e+01 1.836724e+01 1.901247e+01 5.996266e+01 3.129639e+00 4.477728e+00 4.606814e+00 2.991284e+00 1.837790e+00 2.479844e+00 2.486572e+00 2.285623e+00 2.263539e+00 2.023143e+00 1.654789e+00 1.582877e+00 3.047401e+00 6.611571e-01 8.849735e-01 7.980334e-01 5.991431e-01 2.983627e-01 4.695887e-01 4.027371e-01 4.719968e-01 4.209412e-01 3.848068e-01 3.248821e-01 2.591332e-01 5.585119e-01
<GCONST> 1.186387e+02
<STATE> 3
<MEAN> 39
 -2.930930e+01 -6.742146e+00 9.942556e+00 -1.403295e+01 -5.093921e+00 -2.162398e+00 -3.770557e+00 -4.689637e+00 -8.786394e+00 -7.949352e-01 -9.320323e-01 -4.101659e+00 8.045311e+01 -8.904383e-01 -5.802270e-01 7.502761e-01 -7.174709e-01 3.376274e-01 -7.376242e-02 4.354699e-02 6.322245e-02 -4.127773e-02 2.244709e-01 1.980514e-01 3.433469e-01 1.725273e+00 3.451341e-01 2.944961e-01 -3.406124e-01 1.914390e-01 1.010282e-01 -1.059316e-01 -2.867707e-02 -5.220851e-02 -3.707492e-02 -9.474438e-02 -1.860048e-01 -4.922175e-03 -2.333938e-01
<VARIANCE> 39
 4.464510e+01 2.811546e+01 5.181528e+01 2.782106e+01 2.445396e+01 2.872104e+01 5.759745e+01 2.778485e+01 3.996999e+01 2.505517e+01 1.577895e+01 1.625815e+01 4.947407e+01 4.153139e+00 3.509496e+00 4.875624e+00 3.116714e+00 1.972098e+00 2.647706e+00 2.036812e+00 2.356994e+00 2.342543e+00 1.839814e+00 1.816273e+00 1.370962e+00 2.961969e+00 7.315437e-01 6.253433e-01 6.596597e-01 5.659899e-01 3.760915e-01 5.435602e-01 3.632104e-01 5.033626e-01 5.278519e-01 3.633799e-01 3.582092e-01 2.981000e-01 4.092008e-01
<GCONST> 1.186213e+02
<STATE> 4
<MEAN> 39
 -2.218438e+01 -4.806787e+00 6.891479e+00 -1.324345e+01 -2.848012e+00 -6.974645e+00 -4.937375e+00 -6.403235e+00 -1.047022e+01 -1.370126e+00 -2.231344e+00 -3.310426e+00 8.516793e+01 1.428751e+00 4.416388e-01 -4.445815e-01 3.976062e-01 -4.879695e-02 -5.840402e-01 1.446157e-01 -1.485954e-01 -4.314150e-01 -2.244688e-01 -3.606314e-01 -3.914422e-02 3.698991e-01 3.517379e-01 9.491944e-02 -2.042071e-01 1.404349e-01 -1.249263e-01 -8.064470e-02 2.262362e-02 9.577446e-02 -8.703126e-02 -3.377214e-02 -2.860132e-04 -9.937468e-02 -8.701793e-02
<VARIANCE> 39
 1.448805e+02 3.425177e+01 6.891763e+01 4.160057e+01 4.687696e+01 6.174727e+01 6.430601e+01 3.225968e+01 5.553214e+01 3.318296e+01 3.144288e+01 2.024398e+01 2.792088e+01 1.105009e+01 4.469213e+00 5.522345e+00 4.506741e+00 4.268411e+00 4.586732e+00 4.059235e+00 3.657425e+00 5.154633e+00 2.706793e+00 3.079625e+00 2.046298e+00 3.209668e+00 1.256105e+00 9.177676e-01 8.408658e-01 8.007889e-01 7.285978e-01 8.331728e-01 8.041610e-01 7.690070e-01 9.670760e-01 5.021016e-01 5.726432e-01 3.938607e-01 5.141835e-01
<GCONST> 1.353793e+02
<TRANSP> 5
 0.000000e+00 1.000000e+00 0.000000e+00 0.000000e+00 0.000000e+00
 0.000000e+00 7.409214e-01 2.590785e-01 0.000000e+00 0.000000e+00
 0.000000e+00 0.000000e+00 7.239357e-01 2.760643e-01 0.000000e+00
 0.000000e+00 0.000000e+00 0.000000e+00 9.008465e-01 9.915356e-02
 0.000000e+00 0.000000e+00 0.000000e+00 0.000000e+00 0.000000e+00
<ENDHMM>
~h "ny"
<BEGINHMM>
<NUMSTATES> 5
<STATE> 2
<MEAN> 39
 -1.035229e+01 -1.502639e+00 -3.103379e+00 -3.144839e+00 1.226540e+00 -1.135348e+00 -3.180220e+00 -5.501231e+00 -1.067296e+01 -2.953419e+00 7.992607e-01 -2.822589e+00 7.463622e+01 -1.806562e-01 3.721348e-01 -2.894626e-02 1.235764e-01 -6.750756e-01 8.161942e-01 1.939874e-01 -9.289144e-02 1.310726e-02 -3.892662e-01 -4.283983e-01 1.451048e-02 -9.904540e-01 -1.326504e-02 1.295441e-01 2.656415e-02 9.895082e-03 6.031044e-02 -1.658238e-01 -1.111480e-02 4.847572e-02 3.474019e-02 8.944083e-02 1.439720e-02 -2.086352e-02 2.556247e-02
<VARIANCE> 39
 4.075305e+00 3.925604e+01 9.944970e+00 1.601698e+01 6.014124e+01 2.674975e+01 3.808568e+01 1.942267e+01 2.089524e+01 1.432068e+01 3.525620e+01 3.793995e+01 1.671853e+01 2.685861e-01 2.092275e+00 7.784012e-01 1.059868e+00 1.682719e+00 1.510464e+00 1.429934e+00 1.120244e+00 1.302296e+00 1.409371e+00 1.877009e+00 1.047861e+00 3.050112e-01 5.527721e-02 3.210078e-01 1.319613e-01 2.169854e-01 3.394645e-01 2.148446e-01 2.424607e-01 2.142957e-01 2.343307e-01 2.835786e-01 3.159987e-01 1.693253e-01 3.566848e-02
<GCONST> 9.012733e+01
<STATE> 3
<MEAN> 39
 -1.127397e+01 2.621875e+00 -3.725668e+00 -2.369458e+00 -1.876093e+00 1.227427e+00 -2.023164e+00 -5.289633e+00 -1.050232e+01 -4.042448e+00 -1.746149e+00 -3.512943e+00 6.886406e+01 -3.578449e-01 1.091890e+00 1.412669e-01 -1.236404e-01 -1.287961e-01 -1.146853e-01 -3.686905e-01 2.930442e-01 4.399586e-01 3.058723e-02 -6.954454e-02 5.599071e-02 -8.737165e-01 -5.447376e-02 -8.284008e-02 6.236554e-02 -6.113990e-02 7.661943e-02 -1.447343e-01 -4.880513e-02 2.358351e-02 2.219573e-02 6.171756e-02 4.893016e-02 -2.819713e-02 1.037436e-01
<VARIANCE> 39
 3.467756e+00 1.908765e+01 9.675484e+00 1.496301e+01 3.211349e+01 9.884174e+00 2.825900e+01 1.344213e+01 1.289087e+01 1.637296e+01 1.297938e+01 1.430358e+01 5.708333e+00 1.904423e-01 1.178655e+00 4.556626e-01 8.207639e-01 1.025709e+00 1.167145e+00 1.506745e+00 9.779211e-01 1.024989e+00 1.215965e+00 1.035945e+00 7.274171e-01 1.495269e-01 3.765976e-02 1.547507e-01 7.419333e-02 1.560889e-01 1.597001e-01 1.954787e-01 2.904592e-01 1.883612e-01 1.817682e-01 2.083457e-01 2.200720e-01 1.440537e-01 2.176476e-02
<GCONST> 7.446156e+01
<STATE> 4
<MEAN> 39
 -1.415060e+01 7.303706e+00 -1.798681e+00 -2.653317e+00 -2.296889e+00 -4.432416e-01 -5.049443e+00 -3.799258e+00 -8.902274e+00 -5.697741e+00 -3.803222e+00 -5.408400e+00 6.507635e+01 -2.214500e-01 1.197918e-01 4.999537e-02 -6.963217e-02 -1.051178e-01 -1.251452e-01 -1.415431e-01 7.092993e-02 8.610223e-02 -6.136682e-02 -9.797083e-02 -5.131362e-02 -1.900367e-01 -1.798386e-03 -6.794227e-02 1.185289e-02 -1.169328e-02 -4.479117e-04 -7.927422e-03 2.195730e-02 -1.775197e-02 -3.465864e-02 -1.398461e-02 3.779216e-03 -1.192328e-04 5.936355e-02
<VARIANCE> 39
 4.516432e+00 7.241708e+00 7.167903e+00 7.324244e+00 1.096833e+01 1.002865e+01 1.359333e+01 9.437048e+00 9.857327e+00 1.254099e+01 1.354087e+01 1.156911e+01 3.085172e+00 1.261687e-01 3.783401e-01 3.432442e-01 5.177030e-01 6.951766e-01 6.815130e-01 8.178339e-01 7.468992e-01 8.064021e-01 7.771250e-01 6.734738e-01 6.561452e-01 9.675270e-02 2.514952e-02 6.009033e-02 6.984191e-02 1.141672e-01 1.391177e-01 1.437531e-01 1.658907e-01 1.494560e-01 1.575332e-01 1.611723e-01 1.507404e-01 1.317097e-01 1.948912e-02
<GCONST> 5.958248e+01
<TRANSP> 5
 0.000000e+00 1.000000e+00 0.000000e+00 0.000000e+00 0.000000e+00
 0.000000e+00 8.668078e-01 1.331923e-01 0.000000e+00 0.000000e+00
 0.000000e+00 0.000000e+00 6.267696e-01 3.732304e-01 0.000000e+00
 0.000000e+00 0.000000e+00 0.000000e+00 9.380376e-01 6.196235e-02
 0.000000e+00 0.000000e+00 0.000000e+00 0.000000e+00 0.000000e+00
<ENDHMM>
~h "sil"
<BEGINHMM>
<NUMSTATES> 5
<STATE> 2
<MEAN> 39
 -1.678560e+01 5.057687e+00 -3.444125e+00 -5.198758e+00 -4.014277e+00 -2.391226e+00 -5.718943e+00 -2.872126e+00 -7.632895e+00 -6.291628e+00 -3.377650e+00 -4.825435e+00 6.434414e+01 -1.534824e-02 3.399134e-02 -4.494496e-02 5.042499e-02 -4.135179e-02 2.417713e-06 -6.351600e-03 -2.860371e-02 -6.540607e-02 4.990003e-02 -4.069360e-02 -4.506470e-02 -1.287704e-01 5.501155e-04 -1.416596e-02 7.043270e-03 9.305123e-05 3.332681e-03 2.400763e-03 5.682176e-03 1.016298e-03 -3.493456e-04 9.293467e-03 5.440731e-03 1.107388e-03 1.488518e-02
<VARIANCE> 39
 5.746748e+00 9.661113e+00 8.014447e+00 1.364673e+01 9.914895e+00 9.175345e+00 1.147228e+01 1.178557e+01 1.465063e+01 1.665378e+01 1.339223e+01 1.055164e+01 5.401392e+00 1.732299e-01 3.601550e-01 4.715607e-01 5.498646e-01 6.059672e-01 6.567212e-01 7.627057e-01 8.433088e-01 8.412417e-01 8.370752e-01 7.415017e-01 6.874244e-01 1.232243e-01 2.778070e-02 5.920400e-02 8.809445e-02 9.942843e-02 1.180184e-01 1.279604e-01 1.470630e-01 1.621138e-01 1.650281e-01 1.574296e-01 1.456360e-01 1.307078e-01 1.760429e-02
<GCONST> 6.260696e+01
<STATE> 3
<MEAN> 39
 -1.764804e+01 4.563301e+00 -3.868646e+00 -5.944336e+00 -4.195799e+00 -2.279680e+00 -5.811847e+00 -3.253004e+00 -7.866342e+00 -5.899240e+00 -3.150999e+00 -4.837722e+00 6.382224e+01 -2.215413e-02 -2.393663e-02 8.522555e-03 2.354426e-02 -1.481691e-03 2.047588e-02 6.860942e-03 -4.532191e-02 -4.136939e-02 1.058805e-01 -2.542859e-02 -3.460082e-02 -2.684404e-02 -3.188996e-02 -2.152597e-02 2.545783e-02 -2.538865e-02 6.554920e-03 -7.363199e-03 -2.624380e-02 -6.861783e-03 2.184714e-02 -6.484715e-04 1.013214e-02 1.437232e-02 4.364681e-02
<VARIANCE> 39
 4.765167e+00 6.815978e+00 8.826162e+00 1.072482e+01 8.717682e+00 7.828198e+00 1.102117e+01 1.022914e+01 1.353621e+01 1.472868e+01 1.146939e+01 9.369178e+00 3.402335e+00 2.760547e-01 4.523878e-01 6.516575e-01 8.208755e-01 8.616113e-01 7.840692e-01 9.643877e-01 1.018736e+00 1.167843e+00 9.369957e-01 9.386352e-01 7.969476e-01 2.050889e-01 6.354807e-02 9.499726e-02 1.361836e-01 1.733278e-01 1.842545e-01 1.587797e-01 2.037293e-01 2.154939e-01 2.500169e-01 1.980778e-01 2.034132e-01 1.629208e-01 4.555038e-02
<GCONST> 6.993763e+01
<STATE> 4
<MEAN> 39
 -1.672322e+01 3.649944e+00 -2.539875e+00 -6.341949e+00 -4.469650e+00 -3.822291e+00 -5.962847e+00 -2.945295e+00 -8.560521e+00 -6.351356e+00 -3.199080e+00 -4.844840e+00 6.752027e+01 -7.788035e-02 -1.729177e-02 5.946319e-02 -9.443957e-02 2.189989e-02 7.158060e-03 -4.733507e-02 -4.276884e-02 8.350793e-02 -2.254269e-02 4.379193e-02 -1.206029e-03 6.615384e-02 -8.632383e-03 4.175421e-03 1.092249e-02 -9.994889e-03 1.764164e-02 -1.255019e-03 1.753678e-03 -7.800927e-03 -1.298403e-03 -6.893785e-04 3.127163e-03 -9.876709e-04 1.478315e-02
<VARIANCE> 39
 3.184017e+01 1.973041e+01 2.532053e+01 1.957858e+01 1.609083e+01 3.082097e+01 1.912744e+01 1.971971e+01 2.926719e+01 3.124904e+01 2.131969e+01 1.360035e+01 5.573311e+01 1.499162e+00 1.117751e+00 1.851958e+00 1.693239e+00 1.306421e+00 1.576897e+00 1.668749e+00 1.434519e+00 1.958465e+00 1.732217e+00 1.417062e+00 1.088854e+00 1.231998e+00 2.628117e-01 2.299846e-01 3.226613e-01 3.120775e-01 2.496161e-01 2.907538e-01 3.405810e-01 2.675850e-01 3.582758e-01 3.018091e-01 2.606027e-01 2.008311e-01 2.153279e-01
<GCONST> 1.012625e+02
<TRANSP> 5
 0.000000e+00 1.000000e+00 0.000000e+00 0.000000e+00 0.000000e+00
 0.000000e+00 9.536560e-01 4.634399e-02 0.000000e+00 0.000000e+00
 0.000000e+00 0.000000e+00 8.009668e-01 1.990332e-01 0.000000e+00
 0.000000e+00 0.000000e+00 0.000000e+00 8.870320e-01 1.129680e-01
 0.000000e+00 0.000000e+00 0.000000e+00 0.000000e+00 0.000000e+00
<ENDHMM>
